encog,BasicNetwork,java,3.3.0,1,1576422364754
[BASIC]
[BASIC:PARAMS]
[BASIC:NETWORK]
beginTraining=0
connectionLimit=0
contextTargetOffset=0,0,0,0
contextTargetSize=0,0,0,0
endTraining=3
hasContext=f
inputCount=379
layerCounts=2,16,64,380
layerFeedCounts=2,15,63,379
layerContextCount=0,0,0,0
layerIndex=0,2,18,82
output=0,0,0,0,0,0,0,0,0,0,0,0,0,0,0,0,0,1,0,0,0,0,0,0,0,0,0,0,0,0,0,0,0,0,0,0,0,0,0,0,0,0,0,0,0,0,0,0,0,0,0,0,0,0,0,0,0,0,0,0,0,0,0,0,0,0,0,0,0,0,0,0,0,0,0,0,0,0,0,0,0,1,0,0,0,0,0,0,0,0,0,0,0,0,0,0,0,0,0,0,0,0,0,0,0,0,0,0,0,0,0,0,0,0,0,0,0,0,0,0,0,0,0,0,0,0,0,0,0,0,0,0,0,0,0,0,0,0,0,0,0,0,0,0,0,0,0,0,0,0,0,0,0,0,0,0,0,0,0,0,0,0,0,0,0,0,0,0,0,0,0,0,0,0,0,0,0,0,0,0,0,0,0,0,0,0,0,0,0,0,0,0,0,0,0,0,0,0,0,0,0,0,0,0,0,0,0,0,0,0,0,0,0,0,0,0,0,0,0,0,0,0,0,0,0,0,0,0,0,0,0,0,0,0,0,0,0,0,0,0,0,0,0,0,0,0,0,0,0,0,0,0,0,0,0,0,0,0,0,0,0,0,0,0,0,0,0,0,0,0,0,0,0,0,0,0,0,0,0,0,0,0,0,0,0,0,0,0,0,0,0,0,0,0,0,0,0,0,0,0,0,0,0,0,0,0,0,0,0,0,0,0,0,0,0,0,0,0,0,0,0,0,0,0,0,0,0,0,0,0,0,0,0,0,0,0,0,0,0,0,0,0,0,0,0,0,0,0,0,0,0,0,0,0,0,0,0,0,0,0,0,0,0,0,0,0,0,0,0,0,0,0,0,0,0,0,0,0,0,0,0,0,0,0,0,0,0,0,0,0,0,0,0,0,0,0,0,0,0,0,0,0,0,0,0,0,0,0,0,0,0,0,0,0,0,0,0,0,0,0,0,0,0,0,0,0,0,0,0,0,0,0,0,0,0,0,0,0,0,0,0,0,0,0,0,0,0,0,0,0,0,0,0,0,0,0,0,0,0,0,0,1
outputCount=2
weightIndex=0,32,992,24932
weights=##0
##double#24932
   -0.8988507098,0.176357009,-0.1255890161,0.8937845764,0.9990587646,-0.9972881204,-1.0541758314,-0.7517082244,0.6958846385,0.6407633798,1.7594107883,0.2705761068,0.5816729058,-0.3393500058,-0.5574251809,0.2000842914,0.0298775122,1.1023213447,-0.8871935127,-0.4054526127,-0.7612431667,1.0730233122,0.0010857921,-0.5960343224,-0.168460032,0.2859182739,-1.2055192429,0.5279458113,-0.7065588884,1.043831344,-0.7948778855,-0.6828102214,-0.6832127198,-0.1250813028,-0.5452992423,-0.991438835,-0.2848750875,0.91670889,-0.9717146646,-0.2140905638,0.8488268379,0.0141573908,-1.111860193,0.3249171642,-0.6984856172,-0.1033917836,0.1437906783,0.1816414334,-0.7549762681,0.2402336438,-0.4659909326,0.4124008099,0.6301721055,-0.8756372526,0.9091389578,0.4453129873,-0.0188697946,-0.7350842342,0.2043768882,0.6889751592,-0.4618133801,-0.560787189,0.4617164189,0.4636764728,-0.6040533644,0.9310471218,-0.3240836428,0.9200840779,0.7128481671,-0.8827921914,-1.0504824104,0.4623038184,0.6957563365,0.2133511365,0.5193320031,0.3361277818,0.2164798322,0.3304863603,0.9750738025,0.7695856593,-0.6779021936,-0.5399040193,-0.9563222004,-0.3434378656,0.1881655484,-0.8695179157,0.6377963725,-0.0142668037,0.7054884186,-0.0276984057,-0.1844009935,0.1628040267,-0.3309932411,0.126604309,0.5036270122,0.8105228564,1.0118359964,-0.5355615362,-0.46683971,0.3687884135,-0.2261823392,0.4968620757,-0.8501020755,-0.9031508649,-0.8476768593,-0.5543542439,-0.7916267697,-0.0554594654,-1.5360779213,-0.254486971,-0.413164115,-1.3677095439,0.3829366089,-0.4947056214,0.613897058,2.1309970167,0.2722128188,0.6383416819,1.0622997607,-0.4357905005,-1.0378308226,0.0294983056,-0.2815790101,0.4789327999,-0.7893073693,-0.334922488,-0.1899314858,1.1244167212,0.6465517823,-0.2285716847,-0.5228736156,-0.2916006953,-0.1453381108,-4.5360116263,0.471790193,0.9202770417,-0.4236908221,0.6993980853,-0.6551792188,0.9722946747,-1.909518499,-0.6750192545,0.0307165985,-0.2196166731,-0.2594537721,0.2203107217,-2.1478350411,1.0885794116,0.181299012,0.2727805338,1.0317002899,0.5379582479,1.0512613738,-0.1873877269,-0.2945243735,0.508620732,-1.0104993776,0.6600820367,-0.1534762066,0.7010386402,-0.7500124623,0.1285713278,-0.1944079988,0.8556032483,-0.9197816567,0.4988910969,0.8701302839,0.7114755106,0.5773568917,0.0479738145,0.9191791039,-0.2068233739,1.6800775656,1.5453871492,0.0449493615,0.5827677528,-1.110646121,0.0665855724,0.0767882384,-0.8252150908,-1.2308880952,0.1395945861,0.568712092,0.1375068759,2.0586905312,0.5445597432,-0.2652011102,-0.4165926152,0.3789226729,-0.2532733479,0.8307828721,-0.7187853364,-0.5826707201,0.748711063,1.864987113,1.0795786373,1.1547193495,3.0222150811,1.0300209697,-0.4492876302,-0.1286346432,-1.0665146444,0.0895680547,-1.1045400951,0.9896627876,-0.0059406492,0.04100549,0.5154641382,-0.0695622324,0.5669044356,1.613199165,-1.0836710919,-0.3355037895,-0.7064313719,-0.5743301849,-0.5820834244,-0.4732250393,-0.5565082324,-0.5832233107,2.3155874648,0.474474407,-0.9204388624,-0.5390351798,0.8018445036,-0.6130100937,-0.7306479419,-0.329085764,0.8318914813,-0.62683652,-0.6875971537,3.4745464067,-0.7048157358,0.5016526156,0.9147591828,2.0650101421,1.0306730022,3.0377690193,2.1391179253,0.4145403871,-0.2598352691,-0.6635467202,0.6245071981,-1.1180703718,-1.2525350554,-1.167253389,-0.197745494,-0.4778936235,-0.3193950109,3.9631450045,0.9797184193,-0.4085284828,-0.1874389502,0.1333450355,0.0869545114,1.2012712787,-2.2184800065,0.2415007662,-1.0809244913,-0.1136455845,0.4593480697,1.1881538117,0.6391427871,0.8490673979,-4.6424785794,-0.764025561,-2.1682723435,-0.8674660839,-0.9756459904,4.250852484,-1.1335256732,0.3654859117,0.6194923073,-0.8379933406,0.2120283224,3.1556025658,-0.139214633,0.8140820201,0.6108674883,0.1557024521,-0.6252611716,0.4020987385,0.4831089354,0.7891142822,0.0821857719,1.9134649184,-0.6588312523,-1.3859091392,0.485661256,0.3197124769,-0.9886570624,0.1562914349,0.9490392446,0.8810594996,-0.822703434,3.7624952439,-0.626833164,-0.4399472322,0.1007430878,3.9019208262,0.7491491621,3.8290253633,2.0662810148,-0.5382397079,1.4244709138,-0.6485594628,-0.8667264034,-1.1950015825,-1.8625752518,0.133433336,0.4823243854,-0.6163535574,1.9431896972,4.4628154576,1.0160464909,-0.5280217386,0.5985391108,0.6252529029,0.0692797647,0.0920382297,-0.974026622,0.7607611637,-0.0845847532,0.7158390805,2.0627369893,1.0368044009,4.9264575235,3.2221555753,-4.6229378541,-0.3042544727,-0.5340026864,-0.6797959347,-0.8643798466,4.4868225672,-0.4299908276,-0.8612615478,-0.1566144289,0.5312545467,0.1686758685,2.0616510904,-1.9366176228,-0.5560175839,-0.1210134968,-1.0324347572,-1.8692482261,-0.9285864872,-0.3833223894,-0.0544610438,0.0763787955,1.4188912534,-0.0717902474,-0.9273669146,0.3733789256,0.253564992,0.8076057021,-1.0493878327,-0.8551208565,-1.1059239492,0.0170113917,-1.9867587639,-0.13978686,0.4628914724,-0.7276689274,-3.3721470466,-0.5415707843,-4.5902261084,-0.4668864131,0.5763076728,-1.1662138592,0.6918311734,0.8469765917,1.2453938451,2.1454681947,-0.436145063,0.2446749785,0.6379268316,-3.6958756333,-4.0392752875,-2.293795863,0.4112756691,0.0726497854,-0.5226950596,-0.0843512337,-1.4070144858,-0.5696503186,0.7982480562,0.8390497695,-0.9799221358,-2.0876895367,-0.7556444922,-4.0049741936,-0.3161088063,4.5514664217,0.8840018205,0.8194503311,1.0860590359,0.9458425896,-3.9190100131,0.4408934404,1.0224776807,-1.2835620151,0.943568918,0.0294467524,-1.8859215532,0.9889226817,0.0731710202,-0.1105798033,0.8051651543,0.3481993029,0.9436838803,-1.2220454201,0.1960819648,-0.1892473662,-0.4625734692,-0.6388313209,0.7389259958,0.7981245686,0.4017876191,0.2145427181,-0.5196196947,-0.2488010744,0.8100721608,-0.4353321446,-0.890006002,0.8381408176,0.7970081732,-0.9624899798,-0.4681771735,0.1268835019,-0.7815801056,0.5029605447,-0.2913999987,-0.4287801585,-0.4396458654,0.9257919412,0.0625284128,0.0022311512,0.821801866,-0.6892998232,0.8714041625,0.6162042545,-0.5763347395,-0.2435587505,0.4085824173,0.4963449307,0.824886465,0.591771386,-0.7768770172,-0.533873813,0.6122409385,0.4623143991,0.3098169508,0.7812006693,0.1219048799,-0.5333932855,0.5337374136,-0.7173966784,-0.4535148506,1.0421549371,-0.6157494626,-0.3464442344,-0.9820047229,0.773001989,0.9460565507,0.8149502132,0.2686651965,-0.6426108914,-0.4483838808,0.5727423878,-0.5470169289,0.9181051713,-0.7253636265,1.1549154934,0.8092093627,-0.7491143575,0.4134670829,-0.9717439039,-0.2476453584,-0.4787872488,0.5928225454,-0.7145174031,-0.5047646487,-0.9105329706,0.2966607602,-0.0843333492,-0.8691970278,0.2578718277,0.2476405462,-0.8501691644,0.003269023,-0.0104533225,-0.6792139238,-0.4674719979,0.0744723889,0.1793865809,-0.6026610256,0.7249930388,-0.1484058819,0.7285521477,-0.9861723946,0.2563158352,0.2169260665,-0.7719395958,-1.0098245542,0.1889300693,0.9533818157,-0.5158946559,-0.1881035835,0.7571436199,0.4554750758,0.8562885444,-0.4629903559,-0.3959888292,0.5814307308,0.8934256204,-0.6780138479,-0.9660231319,0.280883781,-0.6853631568,-0.3679797694,0.5016145858,0.7777398945,-0.210530278,0.1948136173,-0.8397406108,-0.2915245072,0.4724213529,0.0547942262,0.8470517811,-0.3156307828,-0.5962992567,-0.8498435437,0.5023065202,0.8484670945,0.156303535,-0.9628539176,-0.0110000914,0.0131557998,-0.4912596857,0.9845235905,-0.720133069,0.4633656903,-0.6740463887,0.8324925607,-0.1995827663,-1.4680023676,-0.4032595658,-0.1452004303,1.0305338489,0.4453075325,-0.1406023729,1.2649352369,0.7870513056,-0.4899459862,-0.1310256806,-0.4129316674,0.2370653036,1.6656397473,-0.1727235904,-0.2711041468,0.2274117792,0.0995832209,-0.2843045861,-0.2428128156,-2.0390609164,0.2838073332,-1.0530278192,-0.618799281,0.9210977475,1.596849858,0.6908429182,0.6908071328,0.339965645,0.6893757942,0.7609585375,0.7077289386,-0.4539805815,-0.2089958085,-0.8636856924,0.9408305737,0.9454444388,0.6304194248,-0.4559295556,2.1003961802,-2.18585324,-0.9401434969,-1.0821317226,-0.1018613948,0.8716506805,2.045916356,-0.3967024774,-0.7648489506,0.9556613999,0.6526788142,0.7587189928,1.2846976384,-0.2002366088,0.4003020516,0.9290825184,0.191997702,-4.0939354682,-0.8582950362,0.7849558981,-0.7534194519,0.1688250151,0.0676458935,-0.6677818546,0.3655076312,0.5680614996,0.6095852669,0.7884989929,0.9472914971,-0.3424446465,-0.3925828815,-0.1764425467,0.3180860934,-0.3258774794,0.1045346347,0.957883844,-0.4374813798,-0.0330316584,0.5604230038,-0.1015210017,-0.2483692901,0.8216336192,-0.3395246274,-0.2895369354,-1.3306144685,0.4448203313,-0.2051774373,0.6481988375,-0.3414206181,0.9588294176,0.5780758593,0.0755382495,-0.2140986258,-0.7393697678,0.2369923613,-0.1897185025,0.4990588355,-0.6648993747,-0.1084590128,-0.5994946198,-0.8271817312,0.0311534505,0.0596823676,0.2331885411,-0.8100207353,-0.3349654156,0.3351930516,-0.9935696998,-0.8286028083,0.7466549764,-0.3634475642,0.5797537493,-1.0798462449,1.0000981299,-0.9238486266,0.7593834344,-0.1746314124,0.4715646785,-0.2020196037,0.7247932953,-1.066551363,-0.4467901944,0.2684147369,0.6941464336,-0.3411454575,0.1306704371,-0.1725051328,-0.2680234554,0.5406085257,0.9294653126,-1.0116868107,0.3656343346,0.3878083849,1.3301135096,-0.6571662171,-0.1624204971,0.7889569655,0.0443681939,-0.7241322165,0.6328363906,4.6146828346,1.0852210201,4.7184178807,0.9134981896,0.0888218037,0.9806223349,-0.2247669441,0.5794407507,-0.8033732835,-0.8043754043,-1.0285910364,-0.984520203,0.1073253219,1.1286428296,3.847749178,1.1121574824,-1.0995606419,-0.7067058932,0.3406717042,0.3429258101,0.500676466,-0.9436586389,0.7006265895,-0.7728363243,0.7722265513,1.2998746659,0.6678877619,4.2560649833,1.9345544615,-4.5885465272,-1.1001511444,-0.8384169176,-0.0723439309,0.3399167044,0.9790703331,-0.1070888503,-1.2873947736,0.4202079991,-1.0435418768,-1.0081951482,3.5470488119,-1.1223372737,-0.6846548639,0.1756745189,-0.7585016429,-0.6841276194,-0.5250638326,0.2381693099,-0.0321769412,1.2957195519,2.1409592621,-0.1045364556,-0.5974269283,-0.3003188525,-0.4288720174,0.0080109594,0.3467163224,-0.5277366424,0.8019801884,-0.0126750649,0.192837349,-0.5833103069,-0.4663733051,-0.0431114757,-1.0223161394,0.4000450585,0.1079531831,-0.779720578,0.725286454,0.1606918506,0.7451320974,-0.4185306875,-0.2410777756,0.6952323827,0.7472884444,0.7021248366,-0.9492235115,0.598085198,0.1753900341,-0.8715487944,0.6418889189,-0.0099707363,0.4359423392,0.7773703053,-0.985196662,-0.3281968731,-0.8916673533,0.6169484705,-0.5934687395,0.3946569167,-0.5001660163,0.4842776969,-0.8772116218,1.1215931845,-0.6240741025,0.4900702318,-0.2001697785,0.0143972938,0.6553507568,0.6926652438,-0.7889063331,0.1283469717,0.573755947,0.9728710735,0.0990525264,-0.9179348004,0.4959593944,0.9675605989,-0.633477885,0.0352574096,0.7313344541,0.9649396582,0.0906899735,0.8409779562,0.0617098839,-0.6194463458,0.8694626305,-0.3515184985,-0.8745095056,-0.6145195585,0.9962350404,0.945007043,1.0053859211,0.784297582,3.0630450227,-0.318135382,-0.4683523496,0.1362689549,4.9399837536,1.1240143003,3.3677510579,1.1052009557,-0.2788105159,0.406748282,-0.1094415599,0.9230025453,0.1925145036,-0.9370494368,-0.7683592359,-0.8193915569,-0.7293701228,4.7184114061,3.8334649568,1.6817750868,0.1638440185,-0.3063179196,-0.5909624675,-0.0457423329,0.9057264173,-1.1995896996,-0.4670346973,0.1471258976,0.9456195234,3.8131343852,0.6067799661,3.4759512874,2.1660119714,-4.525885684,-0.852124449,-0.5262416725,-0.5040265708,0.8631123821,3.5412344159,-0.5882286243,-0.022923039,0.7911948367,-0.5759626148,-0.8221247117,3.7453566058,-1.3805416799,-1.2274754779,-0.8540242787,-1.0073862789,-1.7392323621,0.0974494449,-0.4734279211,0.6395427755,-0.4783104644,4.0204146912,0.0548350357,-0.7907302734,0.7578866844,0.1802817225,-0.3730827371,-0.1344604165,-0.6008277232,-0.8778978652,1.2792713662,-1.4789537932,-0.3923455771,0.9715340223,-0.1160594734,-2.0272426777,-0.3359423719,-3.5256951023,-0.5506546881,0.5151868941,0.2879236028,0.0242250491,0.1445673037,0.6389473976,1.5813407557,0.9047011362,0.1360894743,1.0683390158,-1.1606680459,-1.7113881106,-1.1636796343,0.2538747986,1.4000820528,0.009274411,-1.0211076459,0.4604383931,0.7805303787,0.9872527392,0.4890237881,-0.3578385476,-1.3458554426,-0.1402994852,-4.3631656691,-1.8011978742,2.1845251497,0.5337629784,0.5858075595,1.1450582633,0.9881041075,-1.6843809669,-0.1669046783,1.2885277947,-0.7046459179,0.7152461524,-0.4764792381,-1.1969695916,1.2502424793,-0.4738466595,-0.6041395275,0.4647275079,-0.0314390453,0.4413438782,-0.8268885111,-1.0649557979,-1.0332707448,-1.6359876737,0.1010129294,-0.2946482413,-0.0490379383,0.3414106168,-0.0019037852,0.6646648965,0.5128005896,-0.6436704833,-0.8694914675,0.7964303432,-0.2107402179,-0.1068997453,-0.0787263399,0.7661458153,-0.1454919198,0.2376694544,0.9262294497,0.1711926875,-0.1688474126,-0.0004035182,0.4151778456,0.5680085405,-0.6986557659,0.4561197674,-0.0730899813,0.4008986092,0.308420238,-0.2402734069,-0.8033226149,0.0644832105,-0.3358165095,0.632713472,0.7232198747,0.2718162956,0.4785460001,0.233978342,-0.1951606062,-0.0691798545,-0.2613041628,0.0408295292,-0.7311587557,-0.0324192527,-0.7633018908,-0.9484725978,-0.8827106366,-1.10252045,0.489634583,1.3311189578,-0.0758059972,0.7729490769,0.2607945523,0.8025398009,-0.1917789816,0.4578809947,-0.5730014957,-0.247047664,-0.9323508121,-1.0970591494,0.4021670546,-0.6454638879,0.0222077905,-0.5113336049,0.4032794358,-0.1932177392,0.3105794954,-1.1241602122,-0.8379449449,-0.2082853596,-0.2071635284,0.8794947169,0.215145775,0.9143035222,0.1344582716,2.0830669774,0.1073870984,-0.0424502343,-0.1502504931,0.3725146187,1.2864559348,-0.0897307169,-0.7653335268,0.9052880254,-4.3289814264,-0.4200473516,1.0118200367,-0.3415481534,-0.7794979475,0.3529660804,-1.73151357,-0.1480270314,-0.0614056837,-0.8318738226,0.9859134194,0.8457155306,0.4882835071,0.6575094052,0.2165905217,0.327045244,0.5740041682,-0.82913123,-0.9867591975,-1.4636611007,0.4242883866,-0.3944081413,-0.3935473271,0.8025631842,0.3867716969,-0.8725261276,-0.9264704828,1.9544190276,0.7138831128,-0.1258558895,0.8824943863,0.9789375319,0.1298151639,-0.3980847798,0.5769271954,-0.5603865773,-2.2478023227,0.0101882383,-0.6415392716,2.2616506079,1.0126839281,-0.5719794106,-4.6997748579,-1.569221619,0.0701747879,-0.4278699553,2.2784966197,-0.4882736144,-0.9634274125,-0.3174558491,-4.3448934262,-3.4815099801,0.0337059306,0.0317231271,0.1968818325,-0.4272246712,1.6109293074,-0.2346346842,-0.4880032697,1.1990333622,0.394794723,-0.1753605184,-1.7791282619,-4.8573136004,0.0014566629,0.673111866,1.2854011212,-1.4921360152,0.553463575,0.0850245164,2.2562876053,-0.4528462991,0.2876576302,0.4758121767,2.0957861513,0.2983369047,0.4422966819,0.3761839826,-0.0820376393,-0.9999791886,-0.7189880448,0.3992168359,-0.4500520822,-0.2938194655,0.0669149958,-0.6078575399,-0.3802017624,0.8542085189,-0.9595168564,-0.8449041225,0.8567177898,-0.5668641882,-0.5084006848,0.8282146566,0.582758045,-1.1890941751,0.1687455285,1.5714032658,1.1529703449,0.0904828138,0.9008399332,0.0762242332,-0.5312413064,0.6431470963,1.614730926,1.5304118088,-0.6110810258,-0.1129969579,-0.6546060898,0.720741872,0.4714329931,-0.4165687589,0.206419234,2.2826860036,0.5978894293,-1.2175014587,0.825052255,1.1231671463,-0.8797207282,0.7439622732,-0.866960343,-0.1982763099,1.9251935734,-0.4776221815,0.2652750541,-0.5810980507,-1.0904619952,-0.2440513178,0.7678755543,-0.5079927392,-0.4885040364,-2.9731821876,-0.1313204554,-0.2795290571,-0.5306938845,0.1574609277,0.7999470759,-1.6829640339,0.4074899432,0.3145547174,-0.2979201103,-1.2432170241,-0.5446173557,-0.0735149986,0.8548626328,-0.8277066745,-2.1206567385,-0.2551899952,0.5597329927,0.5827574048,0.8470372289,2.0990414618,-0.0225291235,-0.2451851619,-0.4923466532,-2.106438268,-0.0336954938,0.0791094356,-0.026890817,0.0957916939,-0.5468556198,-0.1745189003,-0.8350879443,-0.0279452326,-3.1639601457,-0.3533000572,0.4361381606,0.7802850662,-0.2180309151,-1.9264974273,-0.5469879885,0.9504698645,-1.340237586,-0.5055396287,0.6290797337,0.8649028911,0.7154580312,1.1035787888,1.1039153098,0.3655372471,-0.0361534615,-0.5144772967,-0.9716998784,-0.5730691938,-0.3115324939,0.3042678926,0.4221942583,-0.2500518058,0.5633563642,0.4126272693,-1.8930906073,0.254441772,-0.3203967986,0.753426473,-1.0372638862,-1.1021142084,0.6959247949,0.5389816202,0.4115166399,1.1099444413,0.4204254976,-1.5015206,1.1521095623,-1.1284226653,0.8026835879,0.2152552125,-0.4022701665,-0.3631177651,0.1843814275,-3.4581303822,0.5427552242,0.5340232807,1.7351739854,0.2679661588,0.5926532868,0.0139359788,-0.7688144115,-0.6851863278,-4.0606224775,-0.2088760496,-1.7133073726,-0.2135233017,0.9656654898,0.8039250668,1.2581065266,-1.6804193571,-0.7745827792,-0.2206648334,1.0153215122,0.8956839072,0.5561489033,0.1967194503,0.3157641321,-0.5724650406,1.7992166072,-0.897674955,0.593105083,0.1450832386,-1.495812068,0.7957274213,-0.6010983798,-0.9061619123,-1.3885965953,-0.5054712327,-0.4929093726,0.4393994048,2.0015423795,1.001346627,1.0070105057,-0.7100510828,0.2693782656,1.0530092619,1.2342793294,0.7408423871,-0.0833838021,-0.0129298596,-0.418602997,-2.2605849398,0.2133018119,-2.1787856185,0.3983098378,-0.9259180983,-0.848355275,-0.8339539237,0.0949352747,-3.3917546851,-0.9536024279,-1.3398015861,-0.6998816065,0.1154991335,-0.3911912879,-3.8032129192,-0.9665450488,-0.9975044384,0.8405348778,1.3343740958,-4.1537192127,-1.315270843,0.4623977243,-0.1585799422,-0.1676278909,-0.5170119678,2.1741786925,0.4887052464,-3.3955300807,-0.1280774781,-2.127071443,-0.928694851,-1.2307420049,-0.3564284059,-0.2378166739,-0.3153729721,0.7441454324,-0.5568976818,-1.575741069,-2.0978642129,-0.2796403482,0.5087132413,-0.5829147543,-0.2020741232,-0.6443466634,-0.4103008397,-0.9480469604,0.1199722509,0.5779725636,0.9045971831,-0.1128886073,-0.1755867615,0.1630733893,0.3613075116,0.0238812372,0.6726172627,-0.5470603985,-0.3557210183,-0.6625486651,1.0130913271,-0.5465611087,0.6446658301,0.1850759229,0.4764958083,0.4582180271,0.3633463022,-0.4049077576,0.8059823345,-0.1111724504,-0.9491336212,0.529798457,0.3674629165,0.3241031085,1.4065383073,-0.3790455358,0.267589379,0.9656160467,-1.7348483946,0.316563248,0.3535126953,-0.3783237818,0.6306396726,0.0998726568,-0.6869160705,-0.9453259056,-0.4511222574,-0.3686683004,-4.2399773127,-0.1652576934,-0.7380261545,-0.4451982968,-0.167077537,-1.7218835986,0.9775290521,-0.0147412757,0.6038396723,0.9479324502,0.1317263601,0.7864838575,-0.3764877419,-0.8231022546,-1.1084877425,-0.6680003621,0.9600995441,0.6477078843,1.3202448908,0.0917567761,0.7445119671,-1.0094749032,-0.1575345709,1.131431857,0.6932224405,-0.2448239164,0.5221353172,1.7674998965,3.4755701648,0.2844776985,3.1128857038,0.2321643923,-0.0227624325,-0.2867278443,-0.3621261632,0.5163982273,-0.9244749798,-1.133234303,0.7022229676,-0.4463795812,-4.1232249632,-3.2546014791,0.6533923693,-3.4989941386,-0.9999231021,-0.3565878673,1.4035947784,3.9274708125,-0.8526145822,-0.710079929,-0.5952544606,-0.2689878658,-0.3878657477,-0.9101817049,-0.2396059425,-1.0615619509,-1.7410225347,-0.8345058315,0.6712490724,-0.1345171242,3.0002133872,0.4226757192,0.2162414046,0.1597268527,4.1550099024,2.0839740382,-0.4963848282,-0.1400259162,0.1576677568,0.5321903492,-0.4528953124,0.8617951097,4.1444683728,-0.2151325189,-0.64931267,0.5423595285,4.7587507663,0.0535260376,0.8794955414,-4.7872240268,-4.896448384,-1.0693135895,-1.3644990979,4.6574969669,-0.8834136187,-0.9954824715,-0.4626245752,-0.5902175649,-0.9940934139,-1.6655189135,-0.5078872772,0.778361851,0.7325444022,4.001509602,1.2490568709,-0.4213850605,0.3811406958,0.3289568211,-0.5275758967,-0.9208583329,-1.8827044788,-0.8539201476,1.0036635869,4.0538380413,-4.2295343797,0.6818987249,-4.0706511408,4.2187122861,-0.3804700539,-1.3778890225,-0.7303924911,4.2261832742,-0.8158853718,0.397094656,0.1167011062,0.3642113625,-0.5534795931,0.4892195308,-1.0750932928,-1.3439079261,-1.4420846522,-0.1170070735,-0.7862751006,-0.8400616628,-0.5155782459,0.8052668292,-0.8308519363,-0.1830857564,0.0457698228,0.2076876161,-0.5948991487,-0.7924524278,0.1633013886,-0.4180624332,3.1034312041,3.723827093,0.1663572225,4.6230096135,-0.9534701973,0.8421376657,0.0867648094,4.7786604921,3.0174337801,-1.024014833,0.6333050012,-4.6507280813,0.0141300989,0.4998632763,-0.9291290545,-0.814888017,3.0328496764,1.2973289333,-0.2319837582,-0.7810274156,2.1336419303,-3.5274882676,-0.1410424875,0.1857887775,-0.4316459004,3.6845963838,0.2650533502,1.1511848568,-0.5240872866,-0.9350787613,1.343333675,-0.3712776117,-0.0965207106,0.9619926501,-4.4954983005,-0.0598352929,-0.3554433932,-1.075956247,-0.767940572,-0.2422697878,-2.9968909297,0.5684394697,0.1194185285,-0.0252329562,-2.9920845792,-1.8726516824,-0.5325930969,0.6353218074,-0.7560268504,-3.7921717287,-0.967432843,-1.3454219819,-0.7504064986,-0.0182033349,2.9958594848,0.543376242,-0.3748691067,0.1184055104,-4.6973054784,0.4035298374,0.8690765852,0.2622936419,-0.500474765,-0.1716306273,-0.0739530884,0.2222414937,0.7254073253,-4.0430030953,-0.8271905843,0.5807209541,0.1823586471,0.811616326,-3.1164647184,-3.0300296671,-1.3050762749,-0.4032478171,-1.3844510336,0.5505398484,-0.2755730401,0.998282601,0.7476600817,4.183293101,0.0396302991,1.5883015113,-0.34529644,-2.4380145379,0.7000076193,0.6747279677,-0.5008779493,0.5337512307,-0.9310390972,0.2417211059,0.5415898769,-4.078223815,0.2070217231,-0.6560922678,0.3698191566,-4.6288146991,-2.4721265117,0.4814843998,1.2582854768,-0.3078738801,0.525986692,4.4409083884,-1.6884055955,0.3506026239,-4.4432754451,-0.8117538232,0.4582924144,-0.8932220999,-1.2590476433,0.8848060666,-0.7237663398,0.7618916557,0.5713118551,4.6948364494,-1.4256773012,-0.4224398511,1.2216613764,-0.1760511165,0.5497071648,-4.6625762739,0.5635078195,-4.8568907806,0.8604816676,0.6019371108,0.985647016,-0.1226112441,-3.7848785192,0.9201732689,-0.1329383746,3.7142984025,3.3376989413,-0.8024596305,0.7766831022,-1.202904708,-3.9419065314,3.6158612591,1.0685742467,2.0936270632,-0.5962769839,-1.9240408497,-0.7095643233,-0.6367735553,0.5669837296,-2.0378089162,0.0904157768,0.7582474129,-0.297795536,3.3297982789,0.2000464267,3.9234889954,-0.6546512338,0.4278509385,4.020298427,4.3660773928,-0.4533439922,-0.341009517,0.8291358112,-0.5868137596,-0.3548282645,0.0883213659,-3.0377063546,-0.3252976134,-0.3379452084,1.1452115154,-1.2155234608,0.4691914831,-3.0716912252,-0.988172512,-1.2564137103,0.3234923683,0.9892817943,0.1882338115,-4.3238735054,-0.7811639549,-0.9002699829,0.1279291222,4.2176836589,-3.1698068628,-1.7975298352,2.1030746231,0.1288752797,0.7507620938,-0.7891095431,4.6067270672,-0.7095028908,-0.9866539982,-0.0421133977,-3.2540675573,0.057017653,-4.7886415216,0.4307738866,3.9652948453,-2.9718926046,0.5523546797,0.9690390527,-3.0551243329,-1.3777493279,-0.3193192856,0.8705413021,0.0500278164,-0.083092361,0.295267356,-2.3159390351,-0.34686399,-0.0639460406,0.3885571665,0.0638834708,0.6144971226,0.1373346911,0.4023436732,-0.9695555593,-0.1109387644,0.8332605119,-0.7752874462,0.3763009884,-0.7315780441,1.5977311642,-0.6970350576,0.2007561211,-0.0647073568,3.9200464697,0.1507424701,0.4863385983,1.9697263683,3.6662661766,0.2914010077,-4.2905877205,3.4466316043,-0.0440348903,-0.2936632287,1.3665043411,0.939723586,0.8982633869,-0.0445435567,-4.6150103891,0.6459303771,-0.9283936914,-0.8977063215,-0.3158576126,0.4176369323,0.080976722,-4.0849164657,-0.9784427587,0.3480619013,-3.0668241369,-0.1758815977,-2.3922894922,-4.1668801804,-0.4898793596,-3.6852758263,0.4812165689,-0.5135697135,0.6821982247,3.4553029374,-0.8030949342,-0.0670701156,0.5995903055,-2.4716620998,-3.031953644,-4.4762474337,0.5592148876,0.2200955577,4.2451107555,-0.0969241261,4.6394724399,0.6227842964,0.6683507382,0.2960006526,-0.0676116561,0.5538569583,-0.6736157171,0.4864005147,-1.1449608561,0.8903379023,-1.9340920888,-0.2675569536,0.5295277244,-0.2026563781,-1.0037609727,0.3228720058,-0.2064217493,0.8220942098,0.4554348724,0.406603092,2.249582984,1.9497169617,-0.8525040941,0.7321550664,0.0968845024,0.233586929,-1.3959811775,-3.0570254364,-0.5444157232,-1.0940315883,-0.0247205889,-0.7507308886,1.115012674,-0.8477747762,-1.0269492727,-0.1077673086,2.1643116878,0.3142446483,-1.3211724528,0.2852068601,-4.9561075072,-0.1558402971,0.6360874884,0.1088040917,-0.3653240328,-2.351283096,0.574770803,-0.8074555635,0.1093001864,0.3039471127,0.7579937925,-0.1992313343,0.7257772861,0.8055672275,-0.8023648231,-0.6647700151,-1.5252343592,0.3215208595,0.4561395929,-0.3693851801,1.1330538804,0.3797116301,-0.5683714466,-3.7768516207,0.7125245181,0.6791139679,0.3499786146,2.1494029342,2.0023696387,0.808303189,-0.2113295635,-0.901552892,-0.1641847334,-0.7841159854,0.2771852535,-0.1754014815,-0.3070686302,0.3091870399,0.313433204,1.7061615638,1.209458102,0.5677633165,-0.1296184469,-2.2486492762,2.1175289774,-0.4311424114,2.0019551996,-1.1459138395,-0.9775636163,-0.1152019117,0.8463159089,-0.4119554953,-1.3897312971,-0.282815707,-0.3029997155,0.4302333232,0.6109022444,-0.7812841295,-0.631702994,0.1717172275,-0.3356498682,0.7438386315,-0.1938444608,0.1634829978,0.8082476785,-0.3091143111,-0.7752525669,-0.1456678872,-0.5284908065,0.8264847814,-0.708881386,0.6029616479,0.8187071709,-0.1653790639,-3.2699501417,-0.3319394239,-0.4213376616,0.3860882795,0.7758303725,0.563496292,-0.3679195936,-0.0809246529,-0.2790328666,0.0213972323,-1.2163824869,2.293420658,0.641472431,-0.5077569271,0.5107041769,0.8312846993,-1.8759893424,-0.1093793821,-0.167280532,-1.0619011211,-1.8174876631,1.0441732001,-0.3021335611,-0.0368968035,0.1978105448,-3.9506322677,-0.4902809096,-0.8193951912,0.4030012653,0.5848648353,-1.2264425672,-0.2579698933,0.4192827681,-1.0206382275,-0.0493578528,-0.1089403109,0.3641917785,-0.0388532278,0.1734469866,0.713669761,1.3539156362,-0.172270293,0.4380766327,-1.0323586523,1.7767008086,-0.2643550849,0.2687938095,0.8565948167,0.9082850334,1.3146366484,-0.9217024198,-0.7627177167,-0.4978099259,0.3198332881,-0.4928089756,-0.2509131204,-0.6846789438,0.5490731675,0.5370849513,-0.9304392053,0.099264124,-0.4219027634,-0.486128032,-0.7886085462,-0.1680066446,0.6919162342,-0.7444678088,1.075790299,0.9575718339,0.5653471497,-0.292963158,-0.4662177296,0.3932587494,2.1563153302,-0.6810696823,-0.6148328927,0.6915609752,0.4573785517,-0.5682521889,-1.4747265536,0.6746837297,-0.4787474968,-0.7897755119,-0.4266985231,-0.489779495,0.8987132061,-0.234529851,-0.5089049991,-0.77513897,0.1116428028,0.6746615413,0.677932626,0.2793522133,1.5652365613,0.8509905135,0.1564686237,0.3298661822,1.7360668625,-0.0199473477,0.0197941169,-0.2465061185,0.2083259642,0.7032076752,-1.8969314084,1.4894622808,0.3591601404,1.9563083713,0.6899548426,-0.762178225,0.4474681561,0.3713030697,0.1979713856,1.0998277689,0.3452315963,0.47834344,-1.5522167703,-0.4879926804,-0.7661478895,0.3212990187,0.1869430886,0.0377944583,1.1385834339,-0.0630552104,1.5539991706,0.0157544304,0.0953539303,-0.2630649838,-3.9552095184,0.9625055235,-0.8719778453,-0.3914206756,-0.877946778,-1.1252747453,0.2526269325,0.0223510691,-0.002204631,1.2041177121,-1.3024067282,0.6076873326,0.4555622579,-1.0229737121,1.3214040169,-0.1497635228,0.5326713527,0.7211547508,-0.2293478569,-0.3117183374,0.2795680731,0.5152646148,-0.1335413537,0.5879779545,-1.9740640004,-0.4520531675,0.2439183147,0.2190586452,-1.8042759735,-0.1434394744,0.5328163339,0.2327308713,-0.2618215634,0.5699474771,0.6059267377,1.023460268,0.7015183159,-0.4539481854,-0.1735618282,-0.2403564552,0.175316592,0.0751630049,-0.7855088802,-0.2942869766,-0.5333429505,0.4952772832,-1.1633286893,1.222033145,-0.4672454073,0.2803163596,-0.1587799336,0.1848446012,0.3026435915,0.3123571118,-0.2016356902,0.6104580018,-0.0578121951
   1.8474227173,-0.4750922031,0.6126121266,2.2794631972,0.3419787168,1.3076745648,0.8899874842,0.6042794845,-0.0658332505,0.0276604306,0.422392251,-0.9586627758,0.3483671942,2.1357455263,-0.4983762533,0.1535379475,-0.2448305348,-0.9115908713,-0.457872287,0.6975387181,1.2718777912,0.4434902872,0.4372302732,-0.0862592516,0.4849660754,-0.890912561,-0.2213092538,0.3533066647,-0.7240957735,0.0872918794,-0.4978858392,0.8731228973,0.4478006657,0.1828516229,-0.5392853162,0.750584718,-0.9063132008,-0.8194868511,-1.2010410684,0.9614857236,-0.7438617256,-2.5662672607,-4.9495194411,0.7261589804,0.7685841565,-4.3791319508,-0.4109384649,-0.3895009422,-0.8099142601,-0.0701618016,0.4735354029,0.4060818742,0.4222176981,0.778984452,0.325666389,0.0043556737,-0.0775467885,-1.7128079139,0.3461944693,-0.1961678027,0.5502481862,0.0654109886,1.977622199,-0.7560463155,-0.5769172788,0.2997463753,-0.2584917663,0.8608729486,0.8756902194,-0.2498444297,-0.6371702719,-3.1344393884,-0.0011887896,-0.6611967374,0.2261905567,-0.7764334287,0.892495135,1.4243456362,0.3284772006,0.2449839234,-1.5757153706,0.6777825936,0.3928518565,-0.2747626524,-0.760002224,-0.7684453851,-0.1846074864,-0.6450903806,-0.7449582635,-1.2098278183,-3.0853930911,-1.0729260054,-3.9974924454,-0.9131926733,0.2220935715,0.0489729316,0.7055252979,-0.8133050075,-0.8021011614,1.0603105553,0.5990413339,-0.0232162945,1.5212775723,0.7547901794,-0.4105358073,-0.3372717738,-0.9037182131,-0.404207866,-0.8236183039,-4.0169701627,-0.2818407696,-0.0110030165,0.3949720635,0.8137629135,-0.8922044176,0.0009957963,-1.3828280228,0.9069894176,2.146211468,-0.3716580686,-1.0753443594,-1.4213663788,-4.4899263479,0.3080775058,0.0455114498,-1.3054333106,-3.8864191939,-4.2701815524,0.6034894184,0.6944587531,-1.180277912,0.3984984412,-0.2069197655,-1.0321216798,-3.0831648127,2.0419876966,0.1303785602,0.6679995737,-4.8407770862,-0.7153402023,-0.8512192175,-0.1515889551,1.3434673576,1.0618031421,0.880523716,-4.2152771251,-0.3376266988,0.5030183738,0.3924941184,1.3219667709,0.8499410469,0.9914011109,-1.2484502957,-0.9533274453,-0.2195944298,-3.8510375077,-0.4714358868,0.2028364346,-0.8922665084,0.3566814493,-0.0904314878,0.7011815985,2.0265605606,1.0470783489,-1.0955727855,-4.179156227,2.2376374973,-1.0473579334,2.2071639251,-3.8248401333,-0.261267551,-0.7928746549,-0.6330184596,-4.5233026991,0.3556164628,0.520063318,0.4884391022,-0.47436641,1.2562185535,-0.0385653963,0.6237225219,0.9072642661,-0.4879229199,-1.7307705752,0.1915981336,0.1258634124,0.8406928478,0.3940876326,-0.4699842193,0.0055163871,-0.4337863685,0.926693733,-0.2480734976,0.7490278462,1.3037992501,-0.8438218676,-4.6043642213,-3.8895910141,-0.2625208679,-4.8998380525,0.4301880681,-0.4227737708,-4.7492159571,-4.4503997424,-4.1362874743,0.3560390025,-0.940615591,0.345039557,0.4918998249,-3.967130691,1.0172023354,-0.7365106223,-4.2832292579,-0.3407047493,0.5302254263,0.0826885922,-3.4338754459,1.2253991073,-0.1703763023,-0.8118412124,-0.1225856185,-4.0537741175,-0.2049615596,-3.3030925691,0.6198282973,-0.1133634665,-4.8539807471,0.1499747824,-0.2727850179,-0.0996616123,0.1746738309,-0.5473095609,0.2394995056,-0.0967959197,-1.2630431621,-0.2154185149,2.1522954787,-0.606419332,-0.5390177531,0.6803495976,0.9139014848,0.3082294965,-0.6888412196,0.791472675,-0.14471998,0.7619389322,-0.0100213663,-0.7504031224,-0.5708768381,-0.7366886727,-3.9338029066,-0.7649205732,0.4805669644,-0.3766927157,0.4049298091,0.8331357819,0.3497433027,-0.7898499667,0.8083731095,-0.5574624288,-0.5233106939,-0.8371921548,-0.0034081936,1.1020040738,-0.279914453,-0.8918873879,-1.2591738291,0.229719251,0.8546581232,2.2564816637,-0.2141177481,0.5992168072,0.841505593,-0.8854530621,-0.9908345166,0.2512489848,-4.6472517367,-4.8282983574,-0.0486351451,-4.2918394594,-0.576183246,-0.344069551,-1.0378287147,0.8492730909,-0.9540086591,-0.6823963177,-0.1593732629,0.7633763242,-0.2496699014,-0.4616243914,1.0759897735,0.2890853294,-0.3530245415,1.0481222919,0.4289701812,-0.0464340098,-4.3305734074,-0.9998698538,-0.4780425284,-1.4818074334,0.396823852,-2.0022619971,0.650516979,0.5789592232,-0.3157983622,0.4264936852,-0.4663972047,0.0721541403,1.4394603823,0.3054439677,0.4357178802,-3.2749890462,0.3892342391,0.6172609747,-1.3754943093,0.8116811686,0.6897537386,0.3930433252,-0.0124333715,-0.4607312754,-0.6615461096,0.0739772613,-0.3735092528,-1.2998053964,0.9315312448,-0.1495300834,-1.2357207729,-4.4647950975,-3.1793486727,0.2909322817,-0.554215624,-0.2202800914,1.9483659409,-3.8313464463,0.6116087409,-1.311744738,0.5755967889,1.5002807863,0.4705754342,0.4552980535,0.7924271128,0.6053234898,0.3146283142,-0.244496492,-0.9549961601,-4.8592278429,0.7393856145,-3.8838774659,0.1281210107,0.5984637323,-3.4305339784,-4.1221262613,0.606064678,-1.4319690031,-0.546997801,-0.4332188847,0.9603573445,0.3686289882,-0.1952757204,-0.4545990009,0.9988135916,0.5797794635,0.7221917709,0.9287711968,-0.4287724028,0.5142254134,1.9819394799,0.0496929815,-1.142033382,-0.8310976552,0.4986426247,0.6248064983,-0.6022955503,-1.1401695657,-0.4413945079,0.7303976004,1.1531149911,-3.8671210569,-0.806741033,-1.2672740526,0.9298853414,-4.6994822959,0.5304571199,0.4396646081,0.9012438454,0.6554234021,-0.1859566646,0.6276809766,0.2116893219,-4.1785587954,1.7104095866,-0.5714713211,0.9072543634,1.9868723858,2.2407706703,0.8917900041,0.2197101225,0.4548428342,-0.0530880725,-0.7639706163,0.0199073837,2.1836567756,0.4485986266,0.6167404807,0.0316324654,0.1686062221,-1.3086757495,0.2663602024,-0.8595572174,-0.2254653859,-0.5907544114,-0.2110564412,-0.0344953999,0.9977791693,0.3135073985,-0.9678852906,-0.7500325726,-0.8176554484,-3.8303146134,-0.0167354,-0.023654547,-2.2029323464,-4.6316211755,0.289045008,0.6240198608,-3.3621361609,-0.618256789,0.5131139485,-3.6702506259,-0.1019926566,0.8699848649,-0.6873817478,0.7180023599,0.8363004593,-0.8257217578,1.2455063966,0.2513062987,-1.1261974872,-0.9418071328,1.3695959209,0.2095342829,-0.016355583,1.0673886719,-1.1292746028,0.9970224266,1.8530243318,-0.0839813404,-0.2174977774,-0.1190882727,-0.3542457357,0.6409961005,-4.5855940936,0.6327505325,-0.4893500741,-1.0100281418,1.3548275496,0.2450721136,1.7395847314,0.3557577029,-0.5755314822,-3.4908673172,-0.6533621145,0.3223741123,0.7204203178,-0.5739766535,-0.5778590103,0.739216776,0.5075142443,0.5104184456,0.1262454973,0.0139231941,0.0897168256,-0.8921077748,-0.4126560656,1.6671366653,-0.0229344268,1.0274388689,-0.3216468256,-0.5628611928,0.4750522308,-0.6396260447,-0.3928069202,0.1378522955,0.8888366734,-0.2969918911,-0.3595217276,0.8915634554,-0.2943826603,0.2082872502,-0.6955397414,0.3853156343,0.1759457381,0.3098431719,-0.8098091596,0.9031548665,-0.5370506632,1.403415335,0.806915398,-0.2887386963,-0.0695706373,0.5419402608,0.7412677292,-0.3542752244,0.9710682734,0.4302886159,0.1036798401,-0.339458368,0.0748082956,-0.1950614583,0.257938305,0.5886281243,-0.9857195345,0.3155987376,-0.4140492145,-0.6430255009,0.3943550719,0.3562841839,-0.8477165643,-0.9015704313,0.2664091677,0.3779630549,-0.4792930773,-0.7424153646,0.7260524008,1.4389246536,0.7242077465,0.0270668391,0.2580639081,0.1685096648,0.2551486583,0.4706297843,0.2520257043,0.0631548733,-0.9345126361,0.8485256403,-0.4975150064,0.0335238915,-0.0530574851,0.6111950773,0.2337968421,-0.7321055538,0.6615432981,0.8118524376,0.1107066091,0.0795238768,0.4502086111,0.672860896,0.6116469394,1.1377998279,-0.4428419083,-0.602857652,-0.5542090863,0.3710729017,-0.3716451415,0.7108475894,-0.5922640842,0.6920227146,-0.4534608174,-1.4240546098,-0.8059796216,-0.9203122459,0.7176569082,-0.3606954659,0.5365356878,-0.374591528,-0.7243406956,-0.757503727,0.8633904131,0.2019814536,0.1369003463,0.243510737,0.8372077952,-0.0701174603,-0.0952719883,1.1626499888,-0.3856049134,-0.5761992065,-0.5913926026,-0.3409080881,0.8979370332,-0.5158239645,0.4174325046,-0.1147414521,-0.937675159,0.3825395961,-0.5830620967,-0.7852988645,-1.0515849374,0.1246519117,-1.0203176155,-1.2882896493,0.1023483264,-0.9462403323,-0.9098200479,0.7897430149,0.4002783906,-0.4101312912,0.6855488165,-0.6496314845,-0.5430468,0.5867229136,-0.697837805,0.0730868556,0.5276350416,-0.2287039561,0.3593563687,0.5323974573,-0.1893528257,-0.589905516,-0.67599404,-1.4224008325,0.6375998984,-0.7209400641,0.6191034082,0.5753378028,-1.1396647381,0.2495357146,-0.2693481227,-0.5603725394,-0.9435302143,0.7659438504,-1.0951048098,-0.9093771734,-0.233235881,1.067863587,-0.6903300637,-0.8911058005,-0.7641198278,-0.3335291054,0.9833241901,-0.0201001222,0.7944913344,0.3055905049,-0.2174787516,0.0954916213,-0.656265234,-0.7049749749,-0.7282603016,-0.7425181172,-1.3696763359,0.3952342313,0.902647715,0.0729901571,-1.2425162295,0.4921007632,-0.2925977029,0.2385563816,0.2278184892,-0.5452436115,1.1168193783,0.1793109373,0.2412391378,-0.1647031026,0.6018304662,0.0293701301,-0.8401224391,-0.1359617231,-0.2851181983,0.004963488,0.1447964748,-0.0587517544,0.2507725856,0.7900229323,0.9612491549,-0.0384868723,0.3170319049,0.2378562013,-0.2557698872,-0.0865301974,0.8717832816,-1.60312478,-0.5746448453,-0.7909157034,-0.6234937387,0.4777812763,0.3336325548,0.5204498097,-0.0254568299,0.0504644375,-1.0425407997,-0.6296455695,-0.3381420306,-0.4680297709,0.2262994795,0.9441702067,0.5850276576,0.5560780092,0.7676417209,-0.1580207521,0.7308778159,0.201429108,-1.0347342919,0.9391275835,-0.2432178991,0.1095247257,-0.1993474898,-0.1566998673,-0.80712627,0.8114201153,0.2715197066,-0.1513018384,0.7442337675,-0.6047236888,0.3577237874,-0.0526415254,-0.4557114538,0.348267927,0.7809712623,-0.7794374518,-0.3234021285,-0.7629500624,0.6634968019,0.0457768426,-0.6028835795,-0.4423256291,0.1691734679,0.9853100511,0.0065904566,-0.6959616838,0.9262645585,0.2268334003,0.3310238233,-0.2697400086,0.1407720668,-0.2004560402,-0.0772309906,0.6410957001,0.945463507,0.7918182053,0.1295101197,0.9124750974,-1.0822280122,0.5175650953,0.529370857,-0.3664582742,-0.6174726323,-0.5908266337,0.8746888104,-0.698482996,0.4864448279,0.2150342208,-0.7219897286,-0.3426934714,0.5170487255,0.2738893367,0.3822042226,0.0285600934,-0.0810858711,-0.362251762,0.5893341736,0.336711137,-0.5247127297,0.5070159755,-0.3729723521,-0.0928487807,-0.1480187324,-0.1702454847,0.6625064018,0.3999769731,0.8979260473,-0.1266266417,-0.1677209503,0.3434985784,0.7369602468,-1.1134942507,-1.3395429746,-0.8337380706,-0.1009881367,-0.6986595259,0.4540925537,-0.3065396796,0.5543944592,0.1506472421,-0.1772925479,0.5949932792,-0.6157832678,-0.6691217635,0.237704634,0.0992740369,0.8701815901,-0.9271914839,0.5496631994,0.3229222156,-0.6318382371,-0.1026771835,0.1312816271,-0.0088841454,-0.9153623111,0.7499458462,-0.9169432115,-0.7095175669,0.7229945936,0.4802590398,-0.4322235506,0.5361419022,0.0909955604,0.6561748603,-0.7919984659,-0.1940317336,-0.6356293299,0.4297251805,-0.8252255125,-0.5843583381,-0.9095721576,-0.2900659732,-0.5076007574,-0.3413809927,-0.6328736032,-0.502316534,-0.8310100815,0.2149947224,0.1998423089,0.8198488389,0.2594858223,-0.4501392228,1.076906113,-0.5423916909,-1.0334479049,-0.646214949,-0.5565057324,-0.7644055198,0.1113192179,1.3199999787,-0.7396786721,-0.2193548689,-0.6526621935,0.5634636229,0.4882412192,0.109217536,-0.216463166,0.0728110928,-1.162433961,-0.9195409362,0.7621098516,0.1517723701,0.6665372979,0.7150429385,-0.261830958,-0.0538028114,0.785953279,-0.2955875708,-0.5148811553,0.9413659429,0.5012758584,0.3620278721,1.1197052301,1.0929490785,-0.2728167326,0.7636675426,1.0071447537,0.7163574356,0.6397166217,0.6232362872,0.2075432975,0.642230901,0.8157702744,0.6372287836,-0.0095928494,-0.1311564468,-2.9873563959,0.9211054576,-0.0782935664,-3.654090995,-1.1037983616,0.3811338567,-3.4750679554,-0.3496923726,-0.3422824302,0.8288922096,1.9177413969,-0.7353848867,0.3296238192,-0.5727591316,-0.0518114129,0.9128324088,0.4474188275,0.4976202206,-0.5639316984,-2.0553680835,-0.8916855965,1.0620078004,1.9621603169,1.2784381715,-0.4778871323,1.0882012848,-0.1555499662,1.3914617987,1.0305472652,-2.4809193691,0.4143259523,-0.9074137849,1.109621848,0.450618507,-0.4932717271,1.2086196173,-0.5124671695,0.1054759689,-0.0130666918,2.1581660781,0.5569726666,-0.6296120838,-3.9379023558,-2.9744873696,-1.920522348,-4.664320242,1.0843629458,-0.481662998,-0.496518262,-0.5146201361,-4.501504977,-0.8672115729,-0.3749540996,1.059831771,-0.7020174947,-0.5109721322,1.5534028787,0.1915907157,-1.0213234239,-0.9057980253,-0.7071804327,-0.1832560577,-4.250647694,-3.6353038831,-0.331282036,-0.3689729623,1.6443817862,-0.446426494,0.592498568,-4.10072904,1.9421133844,0.3489225008,-0.2692488466,0.5442716713,1.2211269991,-0.2308619339,0.9001721191,-0.8118975825,0.1498073778,-1.7580698683,0.9312395423,-0.8166909374,-0.1803541826,-0.4866634057,-0.3777140529,0.071424205,0.7234813912,0.3404760422,-0.0606346038,0.7396881011,-0.8337175763,0.548294752,0.7612818552,0.2703337762,-0.0028034666,-0.8644663788,-0.4625925287,1.6025693993,0.4215551397,0.7698660286,1.9921129279,-0.969765344,0.3591534167,0.3438731263,0.2768160959,1.6905537708,-2.0739077318,0.9081519703,-1.6692266501,-0.3458833015,0.9167154214,-1.3805130551,-0.9467589903,1.2091905981,0.9595215515,-0.3263330149,-0.7961424106,1.8418417586,-3.0402835974,-0.368590741,-0.3032566153,-0.0411217295,1.6364589253,0.823974339,0.7964578372,-0.1238402072,0.0837768799,0.8540862768,0.6360524579,0.0986114724,0.2016838249,-4.2581498605,0.9089178184,1.0007784352,0.2478618816,1.359106024,0.9546037992,-1.7725226131,-0.4997802903,-0.6722884992,-0.1261106359,-0.6020454063,-0.4491529235,0.4136445136,0.352015854,-0.722150406,-4.9322971696,0.4338111977,-0.8763264405,-1.1914540668,1.0390077092,0.1537106203,-0.2587421389,0.7312634058,-0.6167387512,-4.2261244848,-0.3117022785,0.882986823,-0.6579589542,0.3322843729,-0.3303165331,0.2086833679,0.0122947939,-0.6095898357,-4.3240598034,0.234531583,0.558018452,-0.1940905051,-0.3408876371,-1.4678903526,-4.5042885616,0.358853459,0.0133093011,-0.0231489502,-0.7431762719,0.2288216865,1.1098907925,0.6221684203,2.3901042169,-0.8736435987,2.0600643704,1.2768175822,-3.3166028573,1.3302655001,0.3576521274,-0.6276539262,0.5718193805,-0.3759334775,0.61364304,-0.6542038121,-4.7610914033,0.2398239972,-0.5165718606,-0.736536566,-4.8363078351,-1.8687370153,0.4802149522,0.5113395275,0.2572753226,0.7898839579,-0.2736800083,-2.1891368725,-0.4104932443,-3.7533795926,-0.0136588802,-0.8524806971,0.1382527244,0.5434958211,0.5144171943,-2.2907427602,-0.961319876,-0.2600510241,0.3867584242,0.5305748049,-0.8704504282,-0.0481936307,-0.5351916027,-0.653209971,-0.980126977,-0.3811510448,-3.8921785143,0.0849426334,0.0817268953,-0.3194557156,0.6612351459,-4.13128624,0.3927065873,-0.1005520195,0.5945492882,1.9319033664,-0.2302398619,-0.3376168833,0.7088607994,-3.7397821444,2.0575270567,-0.207547126,0.3645900214,0.0655949367,-1.9056625647,0.9975547836,-0.1541581243,-0.2787466434,-2.032747489,0.6075701538,-0.8953410555,0.062439289,0.6617465828,1.0278494176,0.5497474633,-0.9434737524,0.3922696303,0.8620120581,0.5409205584,0.3461695239,0.2996095613,0.0703746899,0.2058483486,-2.0906998621,0.6141285584,-3.2862643671,0.0219835876,0.6861992296,-0.4455042406,-0.7484562354,0.4126266548,-4.2915858976,0.5426939241,-4.2598335485,-0.5660849718,0.0942692428,0.460437246,-3.9654389581,-2.1037080886,-0.6000990344,1.9220915884,0.8334542306,-3.4958715841,-1.7267881661,1.9145022747,0.7415464762,0.9380468935,-2.5311479731,2.0095849652,0.0217927895,-4.2862805499,0.7665226853,-0.8349750109,-0.2544599322,-1.1056011383,-0.7360168431,0.6453390947,-0.5434611511,-0.4992087126,0.6883370338,-1.9339577022,-4.0293403754,0.8509871112,1.1039664807,0.8760094924,-0.5374331046,0.5674246584,-0.9397827078,-3.7851124,0.5850657472,0.4090302513,-0.6617212887,-0.2559582202,0.6981487112,-0.8603484081,0.0225795609,-0.2515534596,-0.1874997629,-0.73077302,-0.0730363556,-0.798945404,1.183696714,0.3420583809,-0.1330013886,-0.0924407631,-0.0312069213,-1.4775648472,0.7080445053,-0.4025928676,0.3429827968,0.3626574552,-0.7877357319,0.4219291528,0.5872554783,-0.4473905478,1.1683733304,0.1043991868,-0.4525919718,1.3542261532,-3.4740927855,-0.3792881278,0.8332290798,-3.9203175765,-0.6900880754,-0.4627363994,-0.9739268653,-1.3574199993,0.4325322693,-0.0988948805,-4.6117965453,-0.2271743318,-0.7590383386,-1.0007623758,0.8358115204,-1.0727220154,0.7710411013,0.5530755024,0.7468603838,0.6338270892,1.0481935771,-0.5015909659,0.8683453532,0.5049832124,-4.7316855274,-4.3236275065,1.4057634507,1.345863354,1.4233396309,0.3420767014,0.5227827031,-0.7141316505,-1.069615674,-1.9767505093,-1.8874079779,-0.4775319834,-0.7896385452,-1.9005373535,-1.3971311785,-1.4632666459,-1.4423991151,-0.3629380275,0.141010601,-1.7980740916,-1.2911286194,-1.2746713493,0.1210205107,0.7938285522,0.3746226025,-1.1293274871,4.4001052797,2.0653984818,-0.8443806392,0.5310850473,0.5161743606,0.3578110655,-0.0614977355,-0.5030999734,-0.4816041928,0.867653352,-0.0959674908,-0.2225964799,0.0130699925,-1.0727713836,-1.6448070409,3.4795068157,0.2073999453,0.8674210837,-1.0449554918,0.1324992181,-1.4831203975,-0.6008891115,0.5239281067,-1.0889882351,-4.7675576192,-3.934590699,0.9905100742,-0.138060836,0.1741331757,-0.5676388795,-1.3611133216,-0.4890371981,-2.1712019096,1.1500750079,-0.1812582346,-0.7016973707,-3.9174141047,-0.5446553207,-1.0159218735,1.9096043565,1.5543830657,0.292255549,1.4570132025,-0.845598011,-1.2831176924,-0.5886217327,-0.3364433467,1.3499328373,0.5983667253,2.0496785574,-1.2731402436,0.1681361547,0.0752068484,-4.6117119618,-4.8139978921,-0.9292838816,-0.8653110329,0.4285785277,-1.4671696132,1.6117939845,0.6621038665,1.1591107296,-0.951099742,-3.4171075758,0.7201852286,-1.0536622481,1.9708821389,-3.1998173377,-0.5528911585,0.8138944662,-0.5508832565,-4.590859825,0.7150673313,0.4000450521,0.8170258284,0.6506627291,1.5158730851,0.0454202574,-1.5713520531,0.966606739,-1.0512265589,-0.5667489721,-1.3464491664,-0.3480822368,0.7510535455,-0.4569491514,-0.4243482851,-0.665213352,0.5343882037,0.4715991613,-1.0070139854,-0.0984667081,0.8740976776,-0.6493013161,-2.2977835978,-3.4086533639,-0.7522269141,-1.2374899156,0.1918455924,-0.4039887902,-1.4362115959,-3.3066890729,-3.7063662152,1.470539383,0.7260122028,0.4627578384,-0.9156874193,-0.6318809911,1.8563605924,0.1116328424,-3.4064824161,-1.5180129896,0.4136013214,0.5677180793,-2.0070242064,0.7723697345,-0.7377382837,0.1619343505,-0.9606610929,-4.9359113193,-0.4292377955,-0.4616841019,0.5466176831,-0.6787098341,-1.2642193397,1.0355671366,-0.9074870744,-1.5553297378,0.3603427176,-1.434343127,-0.8225631201,-0.7830055212,-0.9142833528,0.4742957915,0.9231072471,0.133367698,1.0035706023,-1.0416668465,1.2345823606,0.9365749072,-0.7011763474,0.8066569778,0.1207051233,0.2110821599,0.8737366298,-0.2593968839,0.2862140822,-1.0511285012,-3.8393540944,-1.7807419808,-1.0312676901,-0.7594294926,0.5141880569,-0.3487929166,-0.1575649379,-0.0388986128,0.2732959671,-1.233686128,0.4767167754,-1.529308935,-0.3833046789,1.0872044021,-0.9566932981,-0.9833911027,-0.3624413815,-1.1331044629,0.5874669339,4.0335000204,-0.2586456009,-1.238693758,-0.9320073728,-0.5907609977,-0.0157870688,-0.6651830715,0.1318107353,-4.1654019586,-0.3241247236,-2.044133459,-0.4025191587,1.3430392854,-1.0438849015,-0.6610449638,-0.4315265519,-0.2687081899,0.3733424745,-0.1926546871,0.0913570025,0.8710877359,-1.2206301602,0.2712352829,-1.9058815029,1.7545498855,3.8063603409,-0.0495172388,-1.7280265496,-0.3681837416,-0.9409615048,-4.056067306,2.0900517395,-0.4284604925,1.5900431061,-0.7478844835,-0.0981099312,0.1610659962,-1.574130105,-1.0937169554,3.1935989429,-2.0120158789,0.2170300846,-4.2946659157,-0.9318397886,-0.1081230929,-1.7336827382,-0.9623862451,0.4822069532,3.3850528055,-0.5356724157,1.1087224542,-0.2601784388,-1.1651279863,0.0754116538,-1.3656317794,1.0758803344,-0.4523242937,0.2632101549,-4.7950064544,-4.7527415452,0.3271030892,0.5790498229,-0.2950668173,1.1651456831,-3.1713771329,-1.6211492132,-0.8263164961,-0.383766614,3.752372229,0.8009829894,0.7287477073,-0.6404034242,1.6127897199,0.4417924814,-1.5242016891,-0.3191704725,-3.5857300396,-1.0073551038,-3.1666085269,-0.4327293992,0.3750542348,-0.3469433424,-3.6875961889,-0.5243330034,-1.1211203008,-1.1445879854,0.7726258765,3.8169324072,-0.480834472,0.2995269378,0.293705955,0.3070272367,-0.5941487562,0.7860054225,-0.8921126163,1.917900844,-0.9698517198,0.3756661944,-1.3046493718,-0.3644987098,-1.1600012179,0.1854357869,1.2790468778,-1.0984548332,0.4067319141,0.0255655623,2.1477656423,0.5752290769,-1.1182966457,0.0108050312,-0.4756445317,0.5388636216,-3.1037394382,0.0868775744,2.9725489502,-1.0813042556,0.2385794686,0.3644205713,-0.6991639583,-0.7763043557,-4.4459885159,0.6408894892,-1.2291555856,0.0798876458,2.020335398,1.041940093,0.5883404933,-0.0889795507,0.3694796541,0.1228702181,0.1855200111,0.2655071999,1.5776505979,-0.73960188,-0.001595887,-0.9982243673,-0.7433262397,-1.1058461077,-1.0589543527,-0.472794459,0.433362464,0.6360443192,-0.5711252644,0.2193952992,1.0962443626,0.2830634208,0.0459448954,0.2075706441,-0.0504495232,-1.22625772,-0.4307942936,-0.3549005166,-0.5742263606,-1.0760204289,-1.460496383,0.9253123929,-2.2522825666,0.3789500597,-0.1866682159,-4.9512928893,-1.1951215908,-0.2915867189,-0.271013739,0.8479859176,-1.0445946585,-0.3489642904,0.9136789466,-0.7673668151,-0.0808592282,0.8617564855,1.5066431898,-1.0614649272,0.2774135806,4.3071236931,-0.7483373133,1.1289766846,1.094322691,0.7489118069,1.3446527998,-0.4964560874,-0.8351542199,0.1412315,-1.4663647645,0.5703607883,-1.1122011531,-1.4313087469,0.3430854261,2.1279715078,1.678890036,-0.0237999492,-0.2876007194,-4.1413584756,0.2333023391,-4.4127109956,-0.965419145,-0.021188172,0.2212530012,0.0226196126,0.8828184922,-0.034530053,0.7942881803,0.2331521059,0.0629583785,0.5628644033,-0.8295981035,0.3450602295,-0.8994531206,-0.8155168091,0.5860274599,0.699055927,0.3713378637,-0.2381977678,-0.9400613047,0.6039494812,0.7500056793,-0.7541264353,0.1669692491,-0.8956433648,1.0034400988,-0.8317987611,0.7237406622,0.9367427223,-0.931576539,1.2691303396,0.9445497701,-0.0281925052,-0.0280247812,-0.8508032708,1.1956400217,-0.1227614447,0.4072338616,0.9397840063,0.5849047845,-0.3820071651,0.0783754437,-0.0487914503,0.8844163303,0.2936309881,-0.5998589408,1.0338277152,-0.6513673145,-0.6111507038,-0.0916792081,0.6709481375,-0.4079100548,0.8434047213,1.4566011803,-0.9618883847,0.0301104511,0.1101722263,0.2355442464,-0.8178554802,-0.8850544926,0.2399464855,0.1244352108,0.498878014,0.455260447,1.3913967082,-0.8706012111,0.9766922163,1.5216370532,0.6724987571,-0.1777257059,0.8424503849,0.4831653521,0.5126724768,0.2000608111,0.5493000055,-0.4109393255,0.7854033077,-0.9653302984,0.6746799628,0.2524824554,-0.0619980846,0.7701009742,-0.2700258416,0.9147723409,0.6566310529,-0.6458118872,0.2765977879,0.4196305981,-0.9271197522,1.2215124179,1.0820611053,-0.0895609662,-0.1626207718,0.8342114376,-0.6062511771,-0.2192552601,-0.71303374,0.120324842,0.4639342472,-0.8123865881,0.0042397934,0.7693215019,0.665360259,0.504272814,0.0797089306,-0.5247968783,-0.4263372455,-0.0128030433,-0.4527480599,-0.2855412836,-0.9080808317,0.0625249468,-0.6176400531,0.1921616207,0.6769922056,-0.0005518444,0.2329783793,-0.2750477592,-0.0533596127,0.3588357093,-0.8613512264,0.0132003919,-0.4970359918,0.2758450443,-0.4522209587,-0.2150946195,-0.5340952753,-0.0796139846,-0.6945728955,-0.0982510395,-0.9571252224,-0.6697939994,1.1761530195,0.3814081769,-0.0170642769,0.0424866473,-0.9795788454,-0.0029845602,-0.9039252395,0.6257693392,0.3360848878,0.7392476496,0.325651549,-0.1103198315,-0.88203911,-0.6205372594,0.792623965,0.2719005703,0.0905322277,0.127898516,-0.7093118667,0.7568115432,0.7903039388,-0.1372651606,1.3083360576,0.1148707235,-0.9161001711,0.2733847219,0.4892704735,-0.9711793754,0.3599961259,-0.4176582948,0.2432489,0.1744462482,-0.4713747004,0.1947651032,-0.3757639133,0.4722014367,0.133948726,-0.5267099972,-0.7765497442,-0.7703471982,0.7662676841,0.2992227544,0.6737014175,0.4243830471,0.9633546424,-0.2582122749,0.5584630101,-0.5634742612,-0.8026956953,-0.4655677538,0.5326251096,-0.7697247659,0.1315703093,-0.8136392861,-0.4184067682,0.8836206854,0.166810228,0.5596958248,0.6356031313,-0.9447947037,0.0943508505,0.6750286764,0.9063273104,0.1236223135,-0.019592919,0.3313473259,-0.8746555995,0.8952874463,-0.1712653571,-0.8041946186,0.729249859,0.8279700126,-0.6404114056,0.3570211227,-0.4827517593,0.9762378077,-0.474647429,0.593807294,0.5009514034,0.1526679156,-0.2090637143,-0.8151138612,-0.8256948171,0.4649813836,-0.8193960475,0.2804075832,-0.6639697164,-0.463311415,-0.1587949476,-0.6612234795,-0.2942322314,0.6325228701,0.5927409694,-0.727977844,0.8223133119,0.3400626783,-0.6394171829,-0.9653325423,0.990881834,-0.3305469747,-0.3450890913,0.2012573015,0.1758677977,0.6459976378,0.3406820844,-0.1802091801,-0.6175277281,0.8344981253,0.5342747598,0.1778487089,0.6595862011,-0.5611157071,0.7975173935,-0.212564259,-0.7247013159,-0.2188042405,-0.7894398664,-0.4639191355,-0.4964193521,0.1706638764,-0.8656032155,-0.4045415026,-0.0368455607,0.281079405,-0.6500740556,-0.8383936121,0.4557193665,0.2518391298,0.1868896081,-0.240151778,-0.2294459862,0.9532578965,0.2116168761,0.3351447039,0.8026297451,-0.0170663721,-0.3924786658,-0.1315967169,-0.6354984926,0.8032165437,0.3793873945,-0.0143225817,0.713619774,0.8175185813,0.9689932239,-0.7271771898,0.9622151822,-0.5668150573,-0.7018638639,-0.0179695899,0.819088684,-0.4428672109,0.4138205484,-0.0755054623,-0.2737086626,0.8322311639,-0.8372086755,0.5056307693,0.260069908,0.6724817576,-0.707354096,0.1259790311,-0.2500982497,-0.2116031782,0.6611886276,0.6033346157,0.2885413664,0.3745549642,-0.6659124377,0.0538332625,-0.0757110582,-0.3034319066,0.4095599015,1.34325389,-0.2230761567,0.8838389015,-0.4138152236,0.1012093138,0.555507453,-0.5788798669,-0.0541543495,-0.0859881652,-0.3762568402,0.8890472035,0.703546722,-0.8509553156,-0.0323241234,1.3580133645,0.9472944032,0.8255051144,0.8107338142,0.9798117877,-0.978885605,-0.573529176,0.2991911598,-0.7855993013,-0.6467246795,-0.0018108453,0.970155314,0.8077938167,0.5605266881,-0.3556418392,-0.9305919079,-0.7450434393,0.2834479434,-0.4269139507,-0.161513179,0.7068862116,-0.2612000048,0.1754813105,-0.8007825469,0.2435890255,0.3352266581,1.0676859534,-0.1963815699,-0.1336350992,0.8326278371,0.6309212048,-0.296462366,0.5015151807,-0.1433362495,0.3164600964,-0.5427017145,-0.4749991781,0.7830181174,0.6385325779,0.9571003196,0.6634486826,0.3525001643,-0.9860281501,-0.3221542981,0.7408552917,0.3747010076,-0.5910921107,0.3796487053,0.8595930177,0.6429957076,-1.0171263172,-0.6410088284,0.823246808,1.0005311006,0.4587346105,-0.1613782633,0.8994546803,0.0416745231,-0.3672689063,-0.1520045811,-0.9049836318,-0.9687418126,0.8238827829,-0.583942032,-0.8029096657,-0.5990182858,-0.1334519486,-0.4137470011,1.2032836084,2.2373710298,0.8225091695,0.1277866063,-0.3298234827,-0.1773558468,0.7770401866,0.1144707181,-0.7666715914,0.3707682324,-0.5337006206,0.8440184472,0.0443496892,-0.0889440882,-0.0344483509,0.4082948878,-0.8568230564,-1.1250754469,0.3530348262,0.9032858732,1.2781403082,0.8330269696,0.0247445516,0.7903399858,0.5236300372,-0.0634915599,0.337187798,0.7867380417,-0.5674288956,0.0079227806,0.6469006455,-0.3428661306,0.6114097825,2.5362162122,-0.3497350816,0.0482103635,-0.6673700792,2.0136705243,0.7907376353,-1.0700832806,0.9674378715,-0.2325882356,0.4942695875,0.7254896098,-0.7046935306,0.9576510652,-0.1433501686,0.0569165665,-0.3462571809,0.9985406554,0.9612353896,-0.5294603135,-1.5335175498,0.124598292,-1.329444073,-1.498211971,0.7352061574,0.3156081856,-0.2418841484
   0.621534991,0.1270391232,-0.4361431266,-0.0946856729,-0.3591542615,-0.7219809759,0.4761843482,0.4909906584,0.4589525229,-0.666241704,-0.0618004936,0.1541846221,0.1938614499,-1.4873774123,-0.4654626732,-1.0389256703,-0.7608244789,1.4539437889,-1.2519957621,0.0673520432,-1.1396652401,0.8654795676,-0.9257924607,-0.373022428,0.1812510545,1.804388156,0.1558790049,0.964863564,-0.926959325,0.2253915417,-0.0577199778,0.4771544817,-0.5790591311,-0.0600787975,0.8256916503,0.9965629339,0.3329585652,0.2160004416,-0.8874523538,-0.2187976219,-0.2244749596,-0.4948061822,-0.3518460444,-0.0787720386,0.7930822116,-0.1480761798,0.2484302076,-0.828192614,1.5862328223,0.0427693586,1.0322294773,2.0612975696,-0.416996556,-0.5567448619,1.0388066095,0.5421306214,1.1233080674,0.1238763994,-0.1706454939,-0.6528671896,-0.2953287888,-0.3763757912,-0.8173925987,-0.7341998065,4.6316969773,-0.0388574642,0.1212969612,0.4205808889,0.4203849599,-1.3595623888,-0.4431379242,0.6133540611,0.7686306906,1.5960502231,0.3569105552,-0.0680571565,-0.0390789806,-0.7427359239,1.154536483,0.1320316953,0.0215326796,-0.111998363,-0.929651013,-1.0607051272,0.6731135467,-0.9232199038,-0.3314696585,0.432957525,-4.6766946175,-0.2203370833,0.4984856742,-0.0017438801,-0.6253499271,-0.9415264484,-0.4061490489,0.2587140183,-1.1020343283,0.0575145563,-0.5973763132,0.6646099921,0.8733950782,0.770388558,2.2311496714,-0.1750132102,0.125996863,-0.5181804185,-1.2965631474,0.4869704833,1.5233317979,-0.6386320069,1.0341377266,0.8955869056,-0.4377916531,0.2482825247,-0.1902141137,-0.4157254841,-0.1492902133,-0.3193371828,0.3783251049,-0.0583451791,-0.5927380725,-1.5493263757,-0.9461204913,-0.7573031755,-0.0116646571,0.4860211265,-0.1803243732,-0.679866886,0.1031216416,1.9239994152,1.3110663137,0.5975478898,0.4130584297,-1.0982254542,0.2458455577,0.0002987767,-0.3726325977,-0.8478423623,-0.1172504158,-0.3211862131,-0.4605477357,-0.2521873123,0.5300637729,-0.658307778,-0.6430460686,0.0490459891,-0.5281650171,0.1588123647,0.9714282632,-0.0301628047,0.6188916412,0.9810190242,-0.9259729046,1.269362809,-1.1272927673,0.4233037598,-0.0059084535,-0.5873749953,0.2678683994,0.6467825193,-0.3078943897,-0.1576251561,-0.1578315367,1.878838151,-0.0784677694,0.2002528286,0.0166808923,-0.9487037891,0.5103070137,0.5142260449,0.0092501854,-1.3092159831,-0.8542983671,0.4216342635,-0.1798557768,-0.6237932916,-1.2085903413,1.2918606938,0.5146991718,1.9442652302,1.5957933488,0.2629126055,-0.7138017871,-0.6200461297,0.1133222976,2.3085285686,0.5238049037,0.527750824,-0.697164348,-0.4064874806,-0.421148292,-0.1469866167,-0.3314732324,0.426821933,0.7876294692,-0.2407062765,0.3059323522,0.0600538788,0.4164115698,0.5320544546,0.6328286019,-0.3412568565,0.4573549144,0.6915337805,0.0479311791,0.0229877254,0.2286640097,-1.024715906,-0.1998131664,0.1888886411,-0.3776614867,-0.8992628831,0.2317092743,0.8127057054,0.0879682919,0.8584595162,-1.0580219283,0.353357384,-1.4057943842,0.7566712554,-0.0600783095,0.9676593584,-1.2275078693,0.3113578846,-0.009029887,0.1129369651,1.1388508829,-1.1403274216,0.632203403,0.6106276144,-0.6029543843,-0.3735471259,-0.4857047315,1.112116965,0.7839772746,0.3278870436,0.2959222296,-0.227701221,-0.2911505865,0.7737476958,-0.3553485146,-0.0735265248,0.2394594643,0.2581329644,-0.1096403134,-0.5665587468,-0.4099969142,-0.1777092902,0.8118040807,0.3286394776,-0.4073340846,-0.3403728682,0.0836662289,-0.7399145161,-0.8611596068,-0.1454139082,0.4057059811,-0.7820455911,0.6694816643,0.7120272855,0.3372287978,-0.4100251552,0.3632624651,-0.2018928497,-0.1508229341,0.127699741,-0.2564286408,0.5606639226,-0.4120564799,-0.9767173409,-0.3730249953,-1.0865344196,-1.0031042974,0.1882008431,1.67723749,-0.946579071,-1.1945858719,1.6636011342,-0.5934693139,-0.6273498323,0.9237214152,0.8604259431,0.1541726992,0.3708259931,-1.3760318863,0.5453213006,-0.78138871,0.0007505957,-0.7567829596,0.6169157662,-0.5632297131,-0.531895093,0.3851696338,-0.7617086732,-0.9034363011,0.5989164143,-1.1160274731,-1.0526335243,-0.5791321377,-1.9574783212,0.7488677827,-0.0614517947,-0.0192722243,2.5445370684,0.7336386715,0.2198435888,0.3854123302,0.6129942956,-0.134248863,-1.38889022,0.8777764219,-0.9755777761,1.5996326553,-0.7631429253,1.0018421873,0.5789288633,0.9315121577,-1.0811170877,-0.526496389,-0.6945953083,0.0876774192,-1.6809718314,-4.6066031902,-1.2331636186,-0.8962649042,0.5870412871,-0.8024083044,-0.7768299809,-0.4735798006,-2.4874168378,-0.2795368321,0.5868635373,0.2738215514,-1.5710618353,2.0558313893,0.5337193182,0.4406866331,1.9538666869,-0.9506883872,-1.0122144513,-1.4137310667,-3.8992308993,-0.2449550587,0.8357778783,-0.9980180771,-0.8699243771,0.1390887061,-0.2148653021,-0.699259185,0.2923851574,2.1011100542,0.2713617358,0.6640229142,-0.1624098766,-4.2735019855,0.3843650048,-1.1228972841,-1.2869271402,-3.5733533605,-1.010073978,0.7586196351,-0.7019646166,0.0191517943,-0.0604672191,0.3831449251,0.7947738454,0.0351602547,0.4084712149,-0.7364901168,-0.4704583592,-3.0142802984,-0.9430871,-0.5411182724,1.4486987053,1.4013503518,-0.3479431041,0.3904797648,-4.7343120347,-0.6178526798,0.3769123005,-0.2132991046,0.4441280458,1.8954494716,0.3137950037,-0.3798360982,-0.2615517319,0.3111025461,-3.1152214471,-0.1166803459,-0.7267269796,0.7607170076,-0.1946632087,0.0194794339,1.4638248428,1.4765294379,0.1609466725,-0.3650420416,-4.4023641386,4.7115282689,-0.3889829803,1.0338451867,-3.9703813739,0.9323333583,0.7931151057,-0.4140863146,-3.9699460036,-1.0380745178,0.8673788901,0.9757799505,-0.6198304006,0.5690096388,0.4893959744,-0.7971733663,-0.1076780259,-0.37289264,-0.2701255268,0.4543189727,0.0329471687,0.4268363435,0.1664523656,-0.8057611881,-0.1527149238,-0.3293435526,-0.179403773,-0.4190237255,0.0609447674,1.4474824317,0.4566727502,-4.7732983934,-0.9559122308,0.5870973105,-4.4491601393,0.4041364462,-0.1610869157,-4.8836285941,-4.1661285087,-4.5527182193,0.9496087882,0.0677197427,1.197446068,-0.8758937473,-3.6784091107,-0.0737027569,0.6056127485,-4.1317198954,0.2566643156,-0.4086273299,0.8577863107,-4.5466333846,1.6445544562,-1.0013381967,0.8591993268,0.8154212959,-3.5796047027,-0.0702498899,-4.07780278,-0.0718158821,0.5182625222,-3.9417744147,1.0185456922,0.6503445648,0.9205621504,0.7990489899,-0.8910068607,-0.7508693814,0.3306504459,-2.5368215436,0.2374581646,1.874568614,0.2119486492,0.9659962442,-0.2454821206,0.3653713951,0.6433014829,0.7266984563,0.444881379,0.0848805772,0.0892194833,0.2891879104,-0.7626457692,-0.6282684553,0.6156321583,-4.1308269274,0.109472057,-0.8304614346,-0.3319737129,-0.3690849112,-0.2227996946,-0.3570299454,0.0354488064,0.4347626332,-0.3586127946,0.2644302212,0.1118337276,0.0837741763,1.7732021006,-0.3794489636,-0.8312318282,-0.9643916773,-0.6310077966,1.4557218428,1.7222161639,0.2682902922,0.6930388547,0.6456582124,-0.3770984234,0.2977971657,-0.6018264804,-3.7664652793,-3.5509082831,-1.3234646719,-4.5129975375,-0.5406328567,1.2240672857,-0.3356391898,-0.3199449043,-1.1344833049,0.3643570677,0.2878161568,-0.7045043476,-0.5486199876,-0.1450299501,-0.8904879916,0.0471909142,-0.4841436831,0.9425502915,-0.3292364339,-0.3581899295,-1.5049788805,-0.8512315645,-0.1399637322,-4.0724756653,1.7291208601,-1.444660414,0.5034287762,0.6760141784,-0.5200335694,-0.6138172065,0.1916278167,0.1676275895,0.9254166281,-1.0952103768,0.3006577784,-3.8808188629,0.4668817627,0.9688865011,-1.0258484002,-0.3378643152,1.021818834,0.9588249253,0.1890163167,0.1755642046,-0.3306084195,-1.1886237893,-0.5998981299,-2.2120517034,0.1150156276,0.0251587424,-0.0610774749,-4.424165893,-4.5064243908,-0.2941887141,-0.1882736298,0.3118872119,2.11287295,-4.9040335902,-0.2220463376,-0.4603034658,0.5332330647,0.345590187,-0.1717112857,-0.6770680045,-0.5995340515,0.0325053506,-0.9444081746,0.604700494,-0.3106176582,-4.2766247926,-1.091743325,-3.8316049585,0.8334922193,0.7530649622,-4.0104032702,-3.1596893913,-0.2839248874,-0.1957780082,-0.5024877969,1.2814167118,-0.0872375924,0.7990827164,1.5483934343,-0.5233211417,0.4381473702,-0.0561149474,1.53561755,-0.4584242427,0.5299369506,-0.5189970707,1.7493760153,0.6589639582,-2.3704688882,0.3385590541,0.6358803612,-0.3224979246,-0.8621042659,-1.1230070681,0.3581250756,-0.1373705425,1.2549392745,-0.5012260855,-0.4725565279,-1.3449570015,-0.399268119,-4.4122009606,-0.8533446544,1.8449652089,0.1512749529,0.7034604839,0.1398637623,0.3131314035,-0.353334467,-0.8505862458,0.5989900326,-0.8809363187,-0.7141787371,0.9637181476,2.0074454487,-0.2870025038,0.3524593888,-0.6146851143,-0.5057443408,0.9213590894,0.6679950845,1.8556713608,0.7510419409,-0.0013788237,0.6345252335,-0.9911032193,-0.0456042285,-0.6189063939,0.3759059201,-0.140708703,-0.2043240402,-0.7259013398,-0.2020957165,0.2152274659,-0.3194857767,-1.0150144795,-0.4701636458,-0.9990216955,-3.8538845036,-0.0194665583,-0.5161779596,0.3630340081,-4.0824025726,0.5057414831,1.7772652374,-3.9142378046,0.4250375334,-0.5034968709,-3.5543346313,0.8700339684,-0.3103805667,-0.446929273,0.278562826,-0.4999410481,-1.0177362862,0.8603684794,0.6543515807,0.4055445785,0.9283500951,0.4660077927,0.7328798001,-0.3967730035,2.2610659286,-1.4084161999,0.3578900085,0.2554895588,0.9869105233,0.5128792077,-0.5352463181,-0.0433620379,0.4821813752,-4.3379047238,-0.9615290597,0.7481496978,0.2405296671,-0.2955121963,1.4679232183,0.3289320678,-1.5705706299,0.3608133399,-4.5776217027,0.5249614227,-0.7542626583,0.8636062107,-0.8838536623,0.0644582554,-0.6766845029,0.0499451711,0.2880396346,-0.896939882,-3.159297827,0.1242778237,-2.1546844152,0.0322535706,0.2357806654,-0.2270153569,0.2853684478,0.2640273766,0.5462734279,4.8269188835,-0.1817848878,-0.828325212,4.706301564,4.0492210353,-0.7551935577,4.1536868581,0.2177355476,0.8825475624,-0.2946280813,-4.7180086997,0.3621137714,0.3026954353,0.6681341321,0.6432303027,0.7136976059,0.1811396081,-1.1313696516,3.4454194137,4.5494374105,-0.0899691125,0.4510526323,-0.9350034136,-4.3745372757,0.1543036229,0.784518083,-0.6765966503,-4.1387488952,-4.2831503545,1.9061365014,-0.3487102063,-0.9024798156,-0.3256933873,-0.0974857137,-0.83315409,0.3987735681,3.1501150658,0.3566128753,0.0827716556,-4.2191558916,-0.4481102746,0.1026662614,3.9319072788,3.2679193814,2.0068780524,4.3115383312,-3.7652559857,0.1217338404,0.802170601,-0.7270178008,3.9469825406,3.5597942763,2.275840238,-0.5799506556,-0.1555863532,0.3952239334,-3.6572399043,-1.5051340587,-0.7038244652,0.3092964477,0.0438826039,0.8848770165,3.6375521541,4.7914804416,1.2820993616,-1.2063049749,-4.3693238749,3.752391106,-1.5079444746,4.6323097286,-4.7758490273,0.0197634187,1.6007167493,-0.8578176088,-3.6419318168,0.7567225802,0.355873953,-0.1728728125,-0.3963016119,1.3534177524,-0.3181078992,-0.3177740127,1.1910983683,1.0501304307,-0.3215763694,0.8356295453,0.8202902075,-0.6988044728,-0.6790831337,0.4283402248,1.2711207258,-0.2878692111,-0.7511682239,0.5584436947,0.6471897243,3.3680471314,1.0370622651,-3.9217563411,-3.4102143965,0.1504813436,-3.344627732,0.4897882699,0.2850086203,-0.930986333,-4.2955685202,-3.6907116722,1.7493531658,-0.4555006889,4.6020460853,-1.3205480255,-2.1917383432,2.179084263,-0.1438706141,-3.0318709599,-0.7802668643,0.8517776483,-0.7606750321,-1.7502723842,4.1909782155,0.6329379982,-0.7220994253,0.8450683167,-3.5850224105,0.1205548173,-2.4127387632,-0.3332808311,-0.247001004,-4.9364084049,0.2132402014,-0.098885118,0.3746809571,3.1830237641,-0.2105138398,0.7427729701,0.9798479432,0.3124449803,0.8943882684,4.9208328996,0.8513745856,3.2248923009,0.3939755953,3.257570542,0.5988193953,-0.2845005696,0.8755215321,0.0220386158,3.6006275453,0.7459486105,0.1599230229,-0.1080379477,-0.7787725617,-4.060803051,-1.9743721263,-0.4132291234,-0.7581880079,4.769070117,-0.788939117,-0.7250197348,0.8275504614,-0.6265101558,-1.5172396597,0.5660915825,0.1100011968,-0.598174762,4.3384279012,-0.6146128146,0.4287448586,-1.41683011,0.1485964729,4.0771268756,4.553740963,-0.4371647458,0.7274112448,-0.0823807383,-0.1106230317,0.1462950707,-0.3118126533,-2.352282278,-3.064916683,-1.155727224,0.3242574694,-0.4435125539,3.6091431202,-0.0169425184,0.6512137931,0.110742669,0.3761965826,1.6200070277,0.3999828967,0.2871112113,3.1044177009,0.8357456032,-1.4771775347,-1.024282691,4.0916120553,3.7531780679,1.3697398881,-3.2011910171,0.1224694914,-0.9738897525,-4.5146812884,4.7539099534,-0.2836043827,4.3454016459,-0.4730260755,-0.8608859305,-0.0806249768,0.0255467808,0.5926844669,4.617846762,-0.8143392749,-0.2611951592,-4.9030740175,0.266281915,1.3480120892,-1.2260114091,-0.2357831437,0.5030497181,4.0068154278,-0.2862222128,2.9817791808,0.4169219334,-1.3770220634,-0.1088724872,-0.0282940931,4.4834221651,-0.930480738,-0.3797091142,-3.4758017037,-3.3767757709,-0.9440860595,1.4073121046,0.4550090741,4.3949823012,-4.3417101155,-0.9874916377,-0.0273409937,-0.8199881075,3.7655793328,-0.8391085613,1.0085753652,-0.4235114664,1.3653410173,-0.2008253594,-1.2206351237,0.5126261515,-3.2405329904,-0.1221427875,-2.9840067317,-0.2259869814,0.8645795156,-3.8713793499,-3.8670852845,-0.330313187,0.3007424185,0.3580308983,4.899246289,3.4499068354,0.6671902951,4.7787995175,-0.6078492139,0.5057897493,-0.3081405306,1.6115491165,0.8629272397,3.0588138636,-0.5141109276,4.4286087968,0.2824961429,-0.2935433884,-0.7841879122,3.8876182258,1.7138720607,-0.0004886139,-0.4354961519,0.1051149291,4.83110847,1.8396718481,-3.0387299086,-0.4384734749,0.1054574171,4.5087207963,-3.2772927179,0.1199135257,4.1210041553,1.1676757514,4.2010113125,-0.0225569915,0.4189117034,0.1113920891,-4.8438082159,4.3022740024,-0.241067985,0.0458244729,4.8437623931,3.7322192664,-0.2304794243,0.5843322082,0.3671334991,0.5958568387,-0.1741650799,2.2164668067,4.1000936725,-0.1833469709,-0.8305418815,-0.688779149,-0.7824893755,-1.4820469209,0.4033752751,-0.7029467988,1.4740168365,0.2991958023,0.6677130738,-1.0896731533,2.0792589897,-0.4434052498,-1.0047020868,-0.6681751767,0.6504403615,-1.4169258943,0.3960205824,-0.8159208996,-0.7148421435,-4.9196856463,-0.2369550628,4.7897203944,-4.4117260472,-0.3378413203,0.3900677559,-4.2707281898,0.8352104308,0.642601383,-0.6502141499,4.0782180109,0.0741812476,-0.970562007,3.8627254193,-0.1685756464,-0.6017004682,-0.3903848358,3.9437949661,0.2101569656,0.0698396025,3.534175491,-0.5165164849,3.1961977261,4.5525564812,-0.3076595856,3.1135636754,0.4751420673,0.9215040454,-0.8678879565,-4.0949740314,-0.1922243952,0.4469519262,-1.5256780093,1.2645360835,3.4299246009,4.6541341592,-0.4737273543,-0.183463967,-4.4099589214,0.160158049,-1.5764387542,-0.0535351815,-0.7921360949,0.6268719516,0.4768821766,0.2710680976,-0.8849394037,-1.5818852857,-4.9389382622,0.3180319471,-1.4395665125,-0.1126463733,0.6408254274,-1.2839592301,-0.0512189596,-1.0047695862,-0.263498149,3.5486566961,0.467259616,-0.9008652204,3.5054166619,3.7508334913,-0.7605605023,0.5584403063,-0.273268867,-0.4196693215,-0.248366608,-3.8918501057,-0.5416165347,0.4763169481,-0.0881266314,0.0204673347,0.2475071978,-0.609176819,0.1161291072,4.6199695301,3.4074494012,-0.3916612324,-0.3088690146,-0.0860339073,-3.5269716068,0.5181320354,0.55441576,-0.3946737343,-4.7924010433,0.5458870875,0.5261068395,0.5094036029,0.1165332522,0.0132708952,-0.8199306237,0.0721649165,-2.205208022,4.2317337818,-0.7234657697,-0.244388269,-3.6962243198,-0.0052222101,-0.3781278934,3.0654309083,4.5413410551,-0.140215658,4.938215697,-3.8457049178,-0.0785478318,0.5555584604,-1.0265971577,4.8534681851,2.9580929674,2.2438934937,-0.5662324036,-0.1726988978,-0.8431778677,-4.9213291223,0.2808608928,-0.9719396024,0.322943506,0.2812382229,-0.5891592118,4.1257222416,3.253210909,0.4165402738,0.293617848,-3.4978338855,3.2798367635,0.7862360079,4.262579825,-3.2083811421,-0.6416755565,1.0541017306,0.917862969,-3.370558677,1.2346349393,0.5729564488,0.9288761758,-0.740156106,0.5389322409,0.83136525,0.5014750196,0.0791755112,0.144550085,-0.1707561062,-0.6332968061,0.37045378,-0.6857026494,0.3266353299,-0.8426316721,0.0037989653,-0.7347863852,0.1429822328,-0.6329327458,0.4443055651,3.9972066685,0.3230202659,-3.1659377684,-1.4424228628,0.6233181232,-3.5050986923,0.338444927,-0.1162884266,-3.5261520531,-3.5432705867,-4.2247667308,2.2501520861,-0.3757509338,1.9349946316,-0.7074557008,-0.8467486413,0.571121968,-0.1715588493,-3.1126298509,-0.1034882707,-0.3332572973,-0.5839311429,-0.3283229517,3.2667369479,0.668642895,-0.6305420986,-1.0003527524,-3.8063419668,0.246985953,-3.0301545258,-0.4396357318,3.1536992115,-0.5033585912,0.9935011921,-0.5750036424,0.6934982137,0.5211418058,-0.2199550421,0.5058059915,1.7605126216,0.292828697,0.3522077547,4.0468275114,-0.1855581018,-0.7144990652,0.1441416043,4.2813303947,1.661475343,-0.9560719053,0.073829191,-0.0831069145,3.7623275447,-0.9602479529,-0.4046775025,0.2724621719,0.3655511476,-3.9015143299,0.2476377462,-0.3312189635,-0.7620251265,1.924597953,-0.1902074829,0.0761281155,-0.4056853125,-0.7323770726,-1.2333801466,0.0205703428,-1.0007235202,-0.1152140355,2.275911177,-0.3324667661,0.7863154139,-0.8195422306,-0.3965945382,4.0582993074,4.1889159524,0.5646434016,1.2956472216,1.0122822282,0.5159301709,-0.3838004912,0.4952206325,-3.0896828412,-2.9966517184,0.6161900721,-1.2850985007,-0.559024482,4.3515907894,-0.5715828265,-0.4191729616,0.5891504237,-0.4683854025,1.3200163082,0.0631684837,0.7771943361,4.8215332161,-0.6555512394,0.3284002766,0.6136835541,4.7327095867,4.2764873944,0.4304572416,-2.1698658981,0.2744986496,-0.8682200856,-4.4806282852,4.6348642025,-0.5608655868,0.799320618,-0.8163522295,-0.6992220351,-0.0451314977,0.6916866571,-0.4809317274,3.0881607602,-0.7999078046,0.4257597906,-4.7891964264,1.0308739518,-0.6830051411,-0.2285120093,0.0383847308,0.3021708354,4.0197067815,-0.2733315024,1.1248304411,-0.9351802868,-0.2612438108,-0.2152428314,0.3775349943,3.1501360783,-0.462156073,-0.0844913288,-4.5492630179,-4.2486292562,0.6631454736,0.0053244135,0.8944108118,4.0310070566,-3.4782818319,-0.7829489334,0.1533630492,0.0975311656,3.1343769516,0.5760743213,-0.4984810552,0.6986142285,0.7261681946,-0.3721578046,0.1258571333,0.6285785888,-1.5398187806,0.51451539,-3.4593627546,-0.0637732614,0.8998988867,-4.6720399411,-3.9265741496,-0.2436915113,-1.4049604813,-0.2064813963,0.2930091999,3.6316956036,0.4568813951,3.3303498157,0.0934964112,-0.5681084142,-0.476687295,1.0399675278,-0.6448069193,0.5416448451,-0.3582419332,3.5276421864,-0.7675434349,-0.5115951509,0.5678880223,3.2394940765,0.6123255869,-0.0120215162,-1.857906878,-0.9063957978,3.2214004783,0.5012927222,-1.061293038,0.2779914542,0.0266721334,4.4041389521,-3.4484668433,-0.6480964609,4.3166474334,-0.7281486499,0.9538932209,0.4450967734,4.4912489897,-0.0237075752,-4.3114681024,3.9757706991,0.7848109765,0.3601089958,4.0188281411,4.5084661322,0.2521225224,0.6620157483,-0.7232617846,-0.2219249019,-0.2239267872,1.5389624327,4.2641796484,-0.6512696791,-0.3570881662,-0.1025129266,1.0494802388,-0.0598420109,0.5649816784,0.4338096658,-0.9217096437,0.9033529195,0.0553557902,-0.7614706328,1.2141343139,-0.8462780817,0.6589363658,-0.4330342135,-0.9718802899,-1.7284987599,0.0011213709,-0.0059664123,0.0365419915,-4.0811671344,-0.2360652866,4.2682209455,-3.7284333616,0.0340549405,0.6834374882,-0.6603268188,-0.6765375136,0.1374460903,0.2659506243,3.1934292468,0.8954072114,-0.4835209702,3.4906052583,0.202402503,0.7805618833,-1.1310696846,3.49500256,-0.241665425,-0.5815332544,3.2363837911,0.3290006607,3.000943061,0.527540979,0.3834932694,4.8567827918,-0.7623528873,-0.5550448586,-0.9491394669,-3.0633795818,0.1538803465,-0.7847725509,-0.2350738616,-0.3845170112,3.6073999238,4.4085171831,-0.0171623406,-0.7169292351,-4.16402027,-0.6638894737,-1.6264096356,0.5823603406,-0.5710212835,-1.2994440446,-0.58669321,-1.3469082706,1.1011484531,-3.5943478325,-3.3643699206,-0.0982255842,0.1544732271,-0.0146240302,-0.5851707223,-0.2608246839,0.0421067817,-0.4711311953,-0.1471437117,4.9426005749,-0.3056353854,-1.1984750075,3.7403897349,4.7019775682,-0.5536933797,4.0401069294,-0.6086438149,-0.1626866848,-0.5068616784,-4.566351377,-0.6150813579,-1.0325492114,-0.9544814809,-0.4054227528,0.3033436025,-0.3745376079,-0.0375320892,4.7990139979,0.3459748417,0.9242538423,-0.3584403593,-0.9924197209,-2.9687844497,-0.8356967968,-0.9934890019,-0.8158447962,-4.7301801129,-3.2244770243,0.841830189,-0.8272102956,0.5162982936,-1.3665333,-0.3522204145,-1.239644627,-1.2479003773,3.9025594488,-0.6320478861,-0.2428933557,-4.0419386952,-0.0407401919,-1.116436098,2.1290184793,3.3032543094,0.2944875388,4.6297297392,-4.9178778337,0.6621623789,0.0752251881,0.4699692283,4.8735029354,3.4255320058,0.7027902788,-1.0724961958,0.4269661231,-0.64227028,-4.3207533971,-0.8664731089,0.8439499266,0.3924383943,-1.071884916,0.179116768,4.1583950598,3.5233565844,1.6783175257,-1.3310467734,-3.6167184385,1.1389012403,-0.0959172192,1.2325104544,-4.4637041765,-1.0188670176,0.3706941368,1.0247825014,-4.3536527882,-1.121721683,-0.1060892896,0.9960126034,-0.5948268235,0.9140451349,-0.5239623847,-0.4078497145,0.5166537548,0.704777238,-0.5890061363,0.8349315676,0.6715307422,-0.1223700531,-0.9563139342,-0.6116926749,0.547267238,0.3495199904,-0.0193833792,0.8738849681,0.2862396697,4.7291717302,-0.5917245537,-4.7848630398,-4.6435175296,0.1731612773,-3.4165060001,0.7412424044,0.2424459868,-0.4364096474,-3.5491961392,-3.8942245419,1.1431499614,0.535087236,4.3209346414,-1.487847677,-0.7015230851,0.3822563635,-0.0089657942,-3.4043523393,-0.192377439,1.0322241919,-0.013037016,-0.445391577,4.4015761542,0.2215382868,0.1174399151,0.5916651349,-4.7524779,0.7215776807,-2.9934473647,0.437117677,0.3964431574,-3.8056278536,-0.7502940673,-0.6064578354,-1.275986901,1.1475224322,-0.2324910378,-0.815551233,-0.5578071645,-0.3587492066,-0.6291228838,2.1403255111,-1.4991059662,1.1894259563,0.4443682588,1.86245971,0.5661522767,-1.5664978313,-0.0722209267,-0.2009635056,4.8659224095,-0.3368080365,1.1123066,-0.132798284,-0.2705502472,-3.6485057119,-1.8404456706,0.0325534598,-0.9610686552,0.5317794575,-0.0765983244,0.3080328145,0.5992484912,-0.376187737,-0.1271727988,0.456529519,-0.0231632663,-1.0473152802,0.7510517493,-0.7055638982,0.668632897,-1.7465589338,-0.6608328458,3.5170456467,3.3331335624,0.5561504886,0.6309654571,-0.9199507962,-0.5602744433,-1.2713699273,-0.6646280692,-2.0995303949,-4.0413161074,-0.8203223711,-2.020937335,-0.533835245,4.385683918,-1.205876032,0.4462546382,0.4877482918,-0.8656217593,1.4590506185,-1.290985983,-0.3854861733,4.0986486903,0.1633047386,-0.7142100471,-0.5678077543,4.5579059223,4.721879621,0.1878893464,-0.5147002844,-0.9559341131,-0.0787724634,-3.2637729733,3.8945921161,-1.031300473,4.5764924946,-0.3411473566,0.5842122788,-0.5907241905,0.7707819497,-1.0053214699,4.5008050835,-1.0099213268,0.8243455675,-3.8050628123,0.0586974626,0.2549798198,-0.4847304257,-0.2094366334,-0.1092496638,4.4851541166,-1.3500043641,4.7076882654,-0.4184518966,0.0541385277,0.7366185019,-0.8586465692,3.2701707296,-0.2616078131,0.5701457664,-3.1947746774,-3.6411260648,-0.3689419028,0.0404501281,1.1336379837,3.873904699,-4.1581873671,-0.6184354558,-1.0122831941,-0.3367239471,4.7345265065,0.165405899,-0.5920120347,-0.5733726935,0.5026727598,0.5419113073,-0.3143472908,0.2149019452,-4.894813042,-0.2740750338,-4.433167636,0.1318805487,0.0112369349,-3.3177443658,-3.4969666814,0.6338977469,0.2646122836,0.4481467785,1.0411081889,4.4555818984,-1.0739477288,3.9193927138,-0.7973687192,-0.7175586366,-0.8071428876,0.7896617196,0.5932222561,1.9590284168,-0.3514426755,3.0452511898,-1.1046024433,-0.457646128,-0.5731604995,1.1299181561,0.8781267139,0.7364167167,-0.500892363,-1.0131676144,4.4384027006,1.9783139258,-1.9269090865,-0.8776148301,-1.2939634493,3.0721441009,-3.6605536396,-0.4090135853,4.2369725256,0.9058804282,4.4356940325,0.2282219283,0.5577897101,0.1970914954,-4.6769522493,4.8366784348,-0.4622528183,-0.5197937953,3.2337734276,3.0099230536,-0.21282057,-0.1058260415,-0.7598393384,0.1470403935,-0.6791046731,1.8739986181,4.545286278,-1.4433266945,-0.5959385035,0.160787715,0.6241582267,-1.7656580364,0.0733374387,0.0945924998,0.9600382518,0.3771042197,-0.6110210878,-0.9694531493,1.506543275,-1.2001389128,0.4199494597,-0.2555264898,-0.8005245421,-1.3399152665,1.0909673477,-0.5961788608,-0.8228444829,-3.7695145048,0.5848051641,3.3539824707,-3.8148998505,0.1290005247,0.7989121665,-3.7372437155,-0.8520428088,-0.0883084047,0.4517739123,4.7262335201,0.4122614356,-0.0298118819,1.5241329537,-0.1689249696,-1.0094503119,0.147339208,3.8634240545,0.2056066901,0.2826438115,3.567789588,-0.6668532041,3.0125909182,3.6403482157,0.1655133318,4.0600169137,-0.6407990828,0.3915440584,-1.2863109176,-3.4540699126,0.385043995,0.9188650128,-1.3261347384,-0.4554110794,2.190124173,3.1948146437,0.0692474265,0.1109841462,-4.2912956853,0.273224623,-1.5058791202,-0.1386466598,-1.0422641757,0.3994105109,-0.4588769598,0.8123941667,-0.7004159037,0.9513034951,0.7921984326,-0.2966496331,0.5166959173,0.1640268251,-0.6631500144,-0.8166522584,-0.0294103794,0.4587675167,0.2835458492,0.1615187064,-1.0291313778,-0.9393847961,0.2629943292,0.4502274286,-0.1552942408,0.7060195464,0.5839912802,0.0419410444,0.3527465853,0.6128066772,-0.8231045099,0.4236167047,0.7550574012,-0.0629035861,0.1217565968,-0.5989502174,-0.4143139565,-0.2579244343,-0.3792910848,-0.4911021078,-0.6193827,0.4406193053,0.5446904602,-0.2935608,0.2684501879,-0.3769241277,0.9197811568,0.6955935941,-0.7238565149,-0.0279079957,-0.1614093914,0.5228965801,0.2510362286,-0.7550680007,0.7437834034,0.662151745,-0.2542281888,-1.0876469329,-0.1959019872,-0.6706454358,-0.694808012,0.5358992809,-0.7300605077,-0.7982336036,0.2134435064,-0.4458879488,-0.0058169877,-0.3105762378,0.1705063749,-0.6366430229,-0.6111842646,-0.2457305171,-0.5159226418,-1.3676651135,0.7193792983,-0.8721621975,-0.0505156522,-1.210752706,0.5812152654,0.1810008175,-1.4485469136,0.4314849352,0.580467843,0.0957840983,0.1460730739,0.5088490017,0.4772266791,0.6366438277,0.4626649897,0.3128416407,-0.4626774873,0.5631144577,0.5534975377,-0.0913856471,1.3918788876,-0.7691960465,-0.7800298179,-0.34150514,-0.5580049987,-1.0735081822,-0.6573638732,0.663562314,0.6977502194,-0.6900502396,-0.5172425998,0.1703410279,-0.713958408,-0.9751462085,-0.0268935263,-0.5717973785,-0.4359527549,-1.0309683523,0.6957416998,0.5753641877,-1.1526885923,-0.3565577724,-0.6231737324,-0.5211794529,-0.8799955412,0.012202575,-0.4134042825,-0.1444214589,-0.5116388102,0.1567187535,0.3431613519,0.4854988752,0.5294661934,-0.801084725,-0.1455384545,-0.7526251407,0.9908485485,-0.5103353678,-0.8855837017,0.1047717114,-0.5595018622,0.057512486,-0.1828290797,0.7006549581,-0.6755238742,0.5508021735,-1.09167546,0.0906067466,-0.2826032298,0.2360850591,-1.0255871277,0.4457886145,0.7063800582,0.2568161398,-1.0613950566,-0.4964987473,-0.4191212007,-1.1028882112,0.5893464746,0.4218072266,-1.1567016052,-0.6998298578,1.2806210482,0.2021939683,-0.9026944088,-0.3331507503,0.3102074117,-0.4956951376,-0.2937021459,-0.0976077964,-0.4857495375,0.8672061577,0.0824745864,-0.7470085443,-0.3160251843,-0.7982939077,-0.7708210208,0.9652081736,-0.2010696441,0.1065290224,0.2466102378,-0.1248172005,0.585364246,-0.5925329259,0.366119623,-0.4130468882,0.493443886,0.3016025244,0.2969267012,0.8961087685,0.0939316441,-0.0282411515,0.0692105254,-0.1293161526,-0.6867155771,-0.4004740895,-0.5963431909,-1.1786208195,-1.0919949422,-0.7296265639,-0.7874310078,-0.2981876064,-0.2079654171,0.8277146791,0.0695272739,-0.4494333375,-0.4383006982,0.0449898097,-0.8473445426,0.8278419344,0.1018150699,-0.4506207981,-0.416541981,-1.0715033006,-0.6563868639,0.5824713915,-0.744956361,-0.3497133732,-0.7728018758,0.6598371683,-0.7717747993,-0.6366809302
