encog,BasicNetwork,java,3.3.0,1,1576422366034
[BASIC]
[BASIC:PARAMS]
[BASIC:NETWORK]
beginTraining=0
connectionLimit=0
contextTargetOffset=0,0,0,0
contextTargetSize=0,0,0,0
endTraining=3
hasContext=f
inputCount=379
layerCounts=2,16,64,380
layerFeedCounts=2,15,63,379
layerContextCount=0,0,0,0
layerIndex=0,2,18,82
output=0,0,0,0,0,0,0,0,0,0,0,0,0,0,0,0,0,1,0,0,0,0,0,0,0,0,0,0,0,0,0,0,0,0,0,0,0,0,0,0,0,0,0,0,0,0,0,0,0,0,0,0,0,0,0,0,0,0,0,0,0,0,0,0,0,0,0,0,0,0,0,0,0,0,0,0,0,0,0,0,0,1,0,0,0,0,0,0,0,0,0,0,0,0,0,0,0,0,0,0,0,0,0,0,0,0,0,0,0,0,0,0,0,0,0,0,0,0,0,0,0,0,0,0,0,0,0,0,0,0,0,0,0,0,0,0,0,0,0,0,0,0,0,0,0,0,0,0,0,0,0,0,0,0,0,0,0,0,0,0,0,0,0,0,0,0,0,0,0,0,0,0,0,0,0,0,0,0,0,0,0,0,0,0,0,0,0,0,0,0,0,0,0,0,0,0,0,0,0,0,0,0,0,0,0,0,0,0,0,0,0,0,0,0,0,0,0,0,0,0,0,0,0,0,0,0,0,0,0,0,0,0,0,0,0,0,0,0,0,0,0,0,0,0,0,0,0,0,0,0,0,0,0,0,0,0,0,0,0,0,0,0,0,0,0,0,0,0,0,0,0,0,0,0,0,0,0,0,0,0,0,0,0,0,0,0,0,0,0,0,0,0,0,0,0,0,0,0,0,0,0,0,0,0,0,0,0,0,0,0,0,0,0,0,0,0,0,0,0,0,0,0,0,0,0,0,0,0,0,0,0,0,0,0,0,0,0,0,0,0,0,0,0,0,0,0,0,0,0,0,0,0,0,0,0,0,0,0,0,0,0,0,0,0,0,0,0,0,0,0,0,0,0,0,0,0,0,0,0,0,0,0,0,0,0,0,0,0,0,0,0,0,0,0,0,0,0,0,0,0,0,0,0,0,0,0,0,0,0,0,0,0,0,0,0,0,0,0,0,0,0,0,0,0,0,0,0,0,0,0,0,0,0,0,0,0,0,0,0,0,0,0,0,0,0,0,0,0,0,0,0,0,0,0,0,0,0,0,0,0,0,1
outputCount=2
weightIndex=0,32,992,24932
weights=##0
##double#24932
   -0.116747267,0.3917810965,0.0867369268,0.1745981163,0.2942842173,-0.6622304531,-0.2245509384,0.628025265,-0.9097962359,3.8943203059,0.7440498182,-0.6251131821,-0.5164817669,2.3741870297,0.1862236535,0.5480719493,-0.3154713299,0.2302594392,-0.7033323712,0.6748812414,0.0547762754,0.2610721541,-0.8623019444,0.5726010959,1.2596364311,-1.4956806374,-0.5456138061,-0.5842980023,-0.5869067404,-0.9410454265,0.7056637126,-0.2339496531,1.0873486655,0.4776780607,-0.0988677596,0.7395328647,0.3394598967,0.3956587281,0.5289846982,0.8119811027,1.5888227405,0.7995989379,1.0230252035,-0.2781667298,0.0978917159,0.0316867815,0.3756992418,0.9532574223,0.736501915,1.0049184341,0.3205806479,-0.1186687321,0.2744971281,0.3491810683,1.0430691486,-0.1083225239,-0.7467884543,0.9290182636,-0.2853479814,-0.4242462579,0.2073764214,0.1839314311,-0.6287726966,0.4223443552,0.4460029326,-0.1994102039,-0.5721144,0.1202564065,0.3964385693,0.7847359173,-0.3972945943,0.2305629041,0.0067720982,-0.1539618889,-0.2630573712,1.9790358705,0.4865732591,-0.1274520166,-0.2210472258,1.3302451651,1.4961197411,0.1640480548,0.6390014862,0.4839473437,-0.0791526188,0.2414552274,0.2453889956,0.9317318163,0.3672460522,-0.9124583792,-0.6900145139,-0.2362402499,-0.3713683195,0.8743208035,0.6261083074,-0.9311304249,-0.6607528784,-0.8873950852,0.875710045,0.6152696371,0.4344793164,0.9059863517,-0.1262832465,-0.3666675466,-0.6946944419,0.3217610023,-0.3577162356,0.5467684621,-0.0190963365,-0.3052760865,-0.5653635397,-0.2576114161,0.0966088126,1.0101936121,0.7599136063,0.3621485686,0.186190855,-0.605604472,0.0237079898,0.5528412063,-0.0074827739,-0.9224784686,0.7177966537,-0.9634191642,0.1810786561,-0.4109521565,0.761735789,0.8322736094,0.7584664981,-0.8175125786,-0.8992475395,0.3065902325,0.6107218734,0.2439138393,0.8888497913,0.838724128,0.0483678068,-0.1496407725,0.8697237008,0.8200733422,-0.1080426636,-0.4863037399,-0.0752291485,-0.0650869414,0.4221717137,0.2446089773,-0.0371690576,-0.6518984618,0.5332566745,-0.9780475719,-0.745685922,0.610118591,-0.2532266129,-0.5699777278,0.7382606129,-0.5609193556,-0.3914142011,0.3257787676,-0.3081817255,0.3327380414,2.6021116644,2.1801393199,5.155769205,0.1779767343,4.167926004,1.418692589,-1.0069067733,5.7531484177,3.9594515232,1.5020935462,2.7627135647,-0.3527611986,-0.1105522213,4.9952098355,0.2733299601,5.2116490477,5.0857809631,4.2715504679,0.2418594332,5.0974790017,-0.2583649433,0.7361917241,3.884559051,5.5537520975,-1.5277185624,5.3053887095,5.2307817675,1.3942803514,0.4876009368,5.7228632996,-0.0425809588,0.2874453122,2.2110288867,-0.2068691736,5.2605331629,5.3165313145,5.5138591812,4.0488221072,0.3447911612,0.3536841361,2.7441793441,0.0486226044,0.5815714396,4.1466267826,-0.4945802922,5.6223086104,1.6454551524,4.2727065055,4.3355443471,-0.3351811174,3.9262629536,0.1170213184,5.0128714501,4.4295828597,-0.19264777,1.2671881936,5.7875601497,-0.3503723799,0.1265968612,5.089942193,-1.695065906,1.6693746091,3.8573486167,0.6955392732,-0.8053491214,0.6050129604,-0.9236333755,0.1442382977,0.1507954017,-0.1253953462,-0.8674467969,0.5921809661,-0.1203224595,-0.5343750376,-1.0117213106,-0.2381337407,-0.116440817,0.8155017047,-0.1237790889,0.0912606924,-0.1257603505,-0.2408135416,0.8888848198,-0.9941583582,-0.2202970801,0.1144934219,0.3441874366,0.4437841013,0.6626354281,0.5346317408,-0.2741782193,0.0381531969,-0.9684348134,0.3444003494,-0.4703622981,0.2443119439,-1.0229237401,-0.9031306411,-0.452713804,-0.9251593327,-0.0951602382,0.0691923227,-0.8187928648,-0.9945577789,-0.7321208562,-0.9300813218,0.9782970787,0.0451307497,-0.9137104287,0.918139243,0.3959556114,0.522137352,-0.3178142704,0.4643816466,-0.3327773964,0.9586690358,-0.699444895,-0.3526463681,-0.114736475,0.1824962438,-0.6279438333,1.1198945719,-0.1282842373,-0.0344287746,0.9638881583,0.4364216143,0.7015446186,0.8878538283,0.8837412121,-0.1460779367,0.3926058194,0.4955876268,0.5564533478,0.6827045141,-0.6594351727,0.1443364574,-0.5293928038,0.0744799703,-0.2762551007,0.0843084684,-0.8100859702,-0.0810018722,0.2181855154,0.8539845792,-0.9464104914,0.2741006828,-0.2112086038,-0.5455254558,0.0098473851,0.7267279455,-0.1878449977,-0.1250876662,-0.1027083186,-0.6410228544,-0.8685395679,0.4356602219,0.7401597175,0.8086675305,-0.6025790669,0.5543743683,0.9216641215,-0.0494888054,0.0602151489,0.0670723604,-0.3108044239,-0.8880349477,-0.1009272742,0.2942795304,0.6918012001,-0.8115135222,0.333927924,-0.1553895169,-0.6212515602,-0.2771330654,-0.0639124709,0.5172380303,1.0367060818,0.4657373886,0.1690903747,-0.8571464793,0.1217078117,-0.6931226053,0.4650826828,-0.1287491138,0.962838795,-0.8826343462,0.2260833616,0.5157531965,-0.354793213,0.0889124945,1.0383343592,-0.0361772431,-0.3426732515,-0.204995285,-4.0514676394,-0.53142692,-0.1585284426,-0.125382533,0.6698419669,0.1417444934,-1.5010516086,-0.5935354267,-0.0486420136,-0.3640170399,0.5389781147,-1.8518901427,0.5784217428,-1.1856379691,-1.2340731353,-4.1244212052,-0.8928625791,0.5043733967,0.2243103079,0.7963156216,-4.5379154864,-0.0970508345,-0.6049049153,-4.1516799148,-0.4237956554,-0.4851808518,1.0572553799,-5.0321199217,-0.742790467,0.9745899225,-0.7713104717,0.5943157681,-0.7780527478,-5.5046687794,-2.8190995489,-0.2747137075,-1.0344211093,-1.1549411071,0.0320817713,-0.726735052,-0.1473714808,-4.5693873622,1.1302650786,0.2899959396,-0.5158536939,-0.8148896595,-3.9436780209,0.1429326169,-1.3760195183,0.6642605514,-4.9132894672,-3.9028432426,-0.8101431958,0.4139162207,-0.2306609147,1.1188686247,-0.0679069843,-1.2987193402,-0.713804417,0.9665024093,-1.387207353,0.2368108707,-0.0052873243,1.0665108293,1.3139244778,0.3193817253,-0.7840999959,0.0900575977,0.0872098672,0.8656853857,1.2104068462,0.9437864866,-0.634297732,0.1279131022,-0.4395072836,1.3333616423,-0.125037223,-0.6751507817,0.5682670108,0.5063120752,0.6322163608,-0.1648664361,0.6344311927,0.0932900878,0.5245666542,0.2125391105,0.4046657826,0.9440249973,-0.2324871211,0.3042413375,-0.6971967472,0.6939517801,0.7465963367,0.8378443262,0.9590993881,0.7707047748,0.9980617508,1.1612090089,1.0186931417,-0.0704854273,-0.937188935,-0.3602324382,0.3258378258,-0.7445768915,0.1344864637,0.2516044387,-0.0469322455,0.5597636146,-0.6050638453,0.0475174678,0.6634708546,-0.7483948796,-0.3240345343,-0.3116248374,0.5012277365,0.9430136852,0.8947288671,-0.3203138019,-0.382690821,-0.4088749011,0.6950892274,1.1453961929,0.7536677435,0.3783799048,0.183075865,-0.0729366441,0.0337412834,-0.901841373,0.5075250686,-0.2434398038,-0.9871355843,-0.4579467249,-0.2125639359,-0.8391562691,0.6976944886,-0.4180197961,-0.5137146282,-0.7385987552,-0.8325183514,-0.4058312329,0.9064007359,0.1411895724,0.7976424873,-0.7680613468,0.5533269663,0.408971667,0.7952666941,-0.5215859594,-0.0543057656,0.3031925129,0.5944375448,-0.1432359138,0.7079662796,0.9445133277,0.4842452877,-0.7289067254,0.4590391903,0.0486558969,-0.7115116324,-0.3050270063,-0.633242933,-0.6809623749,0.1907043627,-0.4446075943,-0.1228284787,-0.7742288827,-0.3240180833,-0.2417311845,-0.651090862,0.3548906134,-0.174179743,0.7842499231,-0.2912979008,-1.0075157981,-0.2064598523,-0.1680538788,0.0247769871,-1.0198551311,-0.793434588,-0.2184412359,-0.6072731844,-0.4460956218,0.9440183035,0.0426014956,0.5085887708,0.4077891265,0.0345783456,0.4868182424,-0.8153440716,0.1738571315,-3.9590712453,-5.3668348376,-3.9456164807,-0.3352828887,-4.9609343201,-0.4805887631,-0.0513455267,-5.0453878735,-4.9633888933,-0.9894353043,-1.9524654357,0.6421571087,0.2994022625,-5.4725392893,-0.0198492999,-5.5274643655,-5.0591426632,-4.6061410618,0.0795424594,-5.4731365018,-1.2979295578,-0.649951786,-4.1789160753,-4.2646995171,1.2178104367,-4.0319994463,-5.3950509802,-5.5095165019,-0.2834808847,-4.086248211,-0.9830474371,-0.6168712632,-1.4201089304,0.0803196336,-4.9632032715,-4.0255996907,-4.9084260991,-4.9517186132,-1.4762931623,-4.5228150289,-5.3255815045,0.6807063392,0.4636775296,-5.1890170004,-0.1233837686,-4.7869894806,-1.1016770961,-4.5711477688,-4.7625775223,1.0919268593,-4.516396901,-0.9773583167,-4.2051053844,-4.5202045448,-1.0494794413,-2.1181931118,-5.0789937321,1.7353766427,-1.3321851805,-5.0843082228,1.79042513,-0.4953172985,-4.4486606411,-0.4950928112,0.2757535688,0.4821098324,1.0037610069,0.2166305387,-0.5525428203,-0.4416335943,-0.7662848896,0.6593723948,-0.7360614337,0.8102947523,0.1664714385,-0.7038179576,0.882947505,-0.1753540275,-0.9003264612,0.958091871,-0.8053403551,0.2108711497,-0.6804881325,-0.0835911909,-0.1053181784,-0.596569219,0.3774852678,0.8936493797,-0.8144068321,0.2945646199,0.3235990118,-0.271941317,-0.7925481311,0.9396253453,-0.0125316408,0.1868137696,0.5160440284,-0.6324993785,-0.0918401099,1.0359778905,1.1027975247,0.1434954024,0.4712719573,-0.1251357073,0.5041208417,-0.9164200463,-0.070127022,-0.320168639,-0.269090495,-0.3199391499,-0.9309582569,1.0218342352,0.8512742566,-0.5990334727,0.8858777779,-0.0889113755,-0.0400490648,1.0763389925,0.2221206037,0.841306631,-0.432061582,-0.2669050024,0.7921548128,0.9448208513,-0.4739706454,-0.363035866,-0.0795224221,-0.989348272,4.6264746339,4.1870707844,5.3490694102,0.9741418686,5.4701480082,0.1099497438,-0.9167232547,4.2223433247,5.5685570051,-0.3102355227,4.688985958,-0.1946813455,0.0713060685,5.4077551281,0.768292971,5.7765744069,4.8966434703,4.8609722272,0.5132600546,4.3800172798,-0.0131716705,0.5227172439,5.2411769102,5.7027331899,-1.6302872683,5.0583412142,5.0689447708,5.6759738101,-0.1998950309,5.6271986259,0.9719191595,1.1739064736,2.3379156443,-0.0912166453,4.9613683019,4.3941340948,4.0788371654,5.7115882618,3.8629624075,4.1287616471,4.4188078731,-0.7857565186,-0.5829141174,4.3535122408,0.1915886934,4.1310441025,0.2046651652,3.9662732385,4.1717764267,-1.0182580691,5.3018835877,-0.3691904767,4.3345374732,5.3442067222,0.4379205748,5.0837835083,4.9541726727,-1.9819117504,-0.2167610551,4.6670542993,-1.1235271944,0.4802482303,4.4077467281,-0.7860546597,-0.4397242196,-0.3501088495,0.3307078,0.2364340596,0.2303630913,-0.0715826473,0.0657912681,1.0062640643,0.1017934348,-0.2998865594,0.9014950033,-0.3874500796,0.5155073563,-0.8396383954,-0.9138485606,0.4835985453,0.2490145931,0.472397805,0.6892321506,-0.7115847586,0.9336660963,0.1160785592,0.0894379109,-0.5345965434,0.5208287928,0.4851116861,0.6559589921,-0.9461387296,0.0321868509,0.1028894744,0.0233574236,0.3363633437,1.0044526486,-0.788725457,0.5929159226,0.0562582692,-0.2103858965,0.6069729549,0.2879137335,0.8450189662,0.2114762034,0.8582244179,0.0585667165,0.2998869447,-0.5619548534,-0.7985411851,-0.1797532725,1.0720755007,0.8676261513,0.593794461,0.7471394081,-0.9603444502,0.6660997126,-0.7948829239,-0.4136160779,-0.1863402035,0.9183716837,-0.7931168182,-0.2490749073,0.1192866348,0.1621522491,-0.5976034183,0.8046621997,-0.7358985843,0.7847126325,0.3640660072,0.0546363577,-0.080438445,0.8284032382,0.8915141794,0.0262638175,0.0968072565,0.0584412121,-0.9757865009,0.9015903135,-0.6692346757,0.5322257407,-0.8353238068,-0.2902615201,-0.6880038896,0.2050080943,-0.4969825957,0.5389171516,0.6563777965,-0.1795423955,0.5515048505,0.4172557591,-0.0124083355,-0.9707687602,-0.7692257797,0.3340269507,0.4379702091,0.834800869,0.7391629027,0.8995858967,-0.7604139006,-0.2394112723,-0.0987541559,-0.5042607642,0.5694192496,0.6086185011,0.7978813453,0.0226942817,-0.8741553965,0.8188125812,-0.5662030371,-0.1113982158,-0.3517793518,-0.4108336887,0.8442621249,0.9435006441,-0.7361071891,1.119855153,0.6896244649,-0.8207472716,0.4959238309,0.9060799594,0.5679897024,0.9724515476,0.6151328959,-0.8716726624,-0.5358449195,-0.5100791438,0.3757514058,-0.0401240719,0.2603443945,-0.6630436151,-0.5727157166,-0.02654205,-0.7885173403,1.0474257938,-0.9156456584,0.6891385113,0.300715519,-0.432422296,-0.189104263,-0.3635999426,-0.6046077137,1.113654047,0.0508752432,1.0044187491,-0.2599690693,0.2186087806,0.2933661265,-0.3180806029,0.9388219846,-0.8397698985,0.8938628141,-0.6393983224,-0.1380536972,0.9433076598,0.8325117673,-0.4393849491,1.3522037362,-0.40688007,0.4481346654,-0.8426768153,-0.1517627652,-0.6022446799,0.2725410883,0.768689213,-0.3582569797,0.4499363216,0.0579817185,-0.1094486499,0.7579591127,0.867985045,-0.6689630297,0.1290838567,-0.3867600225,-0.9061354528,1.4171336078,-0.1355976781,0.0049290866,0.7446613596,0.0544190721,-0.3042156169,-0.7102174487,-0.8335260487,-0.579969293,0.6890593958,1.4923963861,0.8410177347,-0.3150203351,0.9326517438,-0.8970098783,-0.8874476991,1.1100261736,-0.7485571906,0.5032365362,0.7272564297,-0.3189521029,-0.2666376648,0.8894345969,0.6454676008,-0.9775168606,-0.0254114261,0.7934979856,0.4709427083,0.3873410203,0.6987684203,-0.4318033236,0.4022948715,0.3675154353,0.0895810425,-0.4432505381,-0.9240168418,0.6534007541,0.3464694742,-0.9532105143,0.7846278295,-0.8778897369,0.7089749419,0.362607997,-1.0113469221,0.3180350341,0.0253164427,0.7048330827,0.9340980446,0.6131079133,0.4281532099,-0.1355406738,-0.9197951538,-0.2237371993,-0.8021538107,-0.0922685194,-0.9197409178,0.0634261403,-0.453306142,-0.9710278874,-0.950431965,0.1619097238,0.3548510321,0.2856802479,0.3113119424,-0.9893606752,-0.2100192625,-0.4126456795,0.1114779598,0.6914682504,-0.6104198809,0.6774271016,-0.1421227717,0.995482598,-0.8015696428,0.7557641212,0.4917943175,0.9090566687,-0.7017421566,0.5310473712,-0.94405213,0.8384187459,0.7418366146,-0.9369632625,-0.8469396098,0.5169801212,-0.4701728887,-0.6672958679,-0.0412946142,-0.4833035226,0.4977259308,0.8086698077,-4.7010402458,1.3533684707,-1.0748582139,-0.5211446954,0.3029667695,-0.4833677935,-1.1224476835,-0.7640113469,-1.034453255,0.0163920149,0.7622228858,-0.9384423503,1.4338465107,0.3944187309,0.2488249962,-0.8313998772,-0.1644694113,0.3500808379,-0.1526337168,-1.2158773953,-0.2863823923,0.8448576445,-0.2961126443,0.0184113094,-4.93026188,1.0626860682,0.3085044715,0.1636312859,0.6684267942,1.5100715168,0.0909296886,-0.0390810214,0.3677809834,0.5412356728,0.758588571,-0.1585637587,2.264116287,-2.4334172009,1.4736434547,-0.451509342,0.3335894297,-0.0114360957,0.4655782199,0.3081335496,-0.7607448686,0.8761889306,-2.4489366011,-0.4672450321,2.3271041794,0.1981828747,-1.3365017956,0.4945792705,1.334751028,0.5175912925,0.0010966998,1.13242583,0.3088434172,0.641659178,-0.5519638185,-0.3826446706,0.5600688788,0.1448205071,-0.5218167452,-1.2549343586,0.209120556,-0.3659247435,-0.0932966264,-0.228727848,-0.0282945583,0.5028982634,-0.479962395,0.5242075769,-0.5997054904,0.9089540545,0.6695652385,-0.17547111,0.2718310833,0.7119688122,0.6594229568,-0.1175645305,0.4975901767,0.2245092664,-0.37291955,1.9876899486,0.9744420335,-0.1393647936,-0.8025705211,-0.7516921953,-0.7226799572,0.4993762325,0.5836753934,-0.2172492912,0.99266728,0.4707807326,0.1692202451,0.0945017995,0.5892911568,0.6774525419,1.3925160113,-0.8410447853,-0.4681113263,0.0617191214,0.2800772829,-0.963757494,0.9790336662,0.8762365021,-1.0647688168,1.4277539137,0.5155536618,0.2761257119,0.59426046,-0.2844851709,1.4324865249,-0.3742572261,0.1548552215,-0.8008705849,0.0895533718,-0.6284619196,-0.0253810689,0.2777622487,-0.8239907723,0.0852244624,1.1040892291,-0.1453623815,1.45942032,-1.2555569159,-0.4485062827,0.9038404321,-0.6719325083,-0.2267523594,0.2039246347,0.8298757978,-0.2126234164,-1.7451083121,-0.3644061303,-0.1254549645,-0.1349665393,-1.4516762504,1.32415835,-1.0536998207,-0.6891703876,0.5853338397,0.3971542112,-0.1615214527,2.5417019936,0.6461234188,0.4608910013,0.5291729943,0.6732422494,-0.5886861858,1.095785989,-0.7927891251,-1.4660982603,0.7172338224,-0.3423476888,-0.6694099744,-0.3534604223,-0.7414832631,0.7642184233,-0.0126426378,0.6389887246,0.1049939645,-0.2679325912,-0.9560105242,0.2232039363,-0.2053005532,1.9444543928,0.1972626605,-1.3572679346,1.0411254305,1.4834152626,1.0048705238,0.3106405829,-0.0017934444,0.2816843313,-0.9207125889,0.2051100483,-1.0003635277,-0.7326800857,1.0357950004,-0.6042026199,-0.5199829458,1.5025367756,0.2062924426,0.952066522,2.4517550495,0.7138112463,0.7633049534,0.9475781166,-3.9519105538,-0.9580325706,0.2838036959,0.5320278324,-1.4168497158,0.7573482109,1.4129476875,0.9688803854,-0.7137163362,0.4023663329,0.3745619479,0.3465041935,0.2852311073,-0.1974338954,1.4275961465,-0.1746224764,0.1950498481,-5.7677594873,0.4189065302,-2.0851150318,2.0465177128,1.4793049199,0.4362776045,-0.7043251128,-0.2006041723,0.2257489366,0.5300367728,-0.4558303336,0.3977582017,0.5243954806,-0.7921277945,-0.0782559367,1.696400088,0.8995553059,0.3085962363,-1.1224381798,0.8868634431,-0.5021107343,0.0425827221,-1.4135582409,0.047239142,0.415900572,1.3653414664,0.0132467637,0.5625923886,0.617179733,-0.3212715064,-0.3516338188,0.7998211885,1.3606110959,-1.0667380359,0.1981300392,0.0992473824,1.0496072019,-4.6246052769,0.2276048732,0.0759561706,-0.4077593715,-0.1433079939,-0.9197024738,-1.0129123042,0.5256231301,0.7032826403,-0.3832558849,0.4871545937,0.1470272725,2.0177411454,-0.4740191946,0.3462488853,-2.0480488174,1.1828212743,1.2503756431,1.1563679588,-0.8310691097,1.4413493158,0.6948211749,-3.9179192001,0.0333459165,0.7421031326,0.2892930066,0.6317695555,-0.4362886545,-0.5244474326,0.2311645009,0.778143415,0.7931785576,-0.0210535152,0.8239505211,-0.3905405624,-0.5346447292,-0.3059757376,0.5602418539,0.229154448,-0.7021364039,0.1476337446,-5.5179070961,-0.0629690213,-0.0440963078,0.3896593152,0.5691647928,0.3767093596,0.402054229,1.0983410988,0.8106489231,0.898584438,0.1268128923,1.0689718914,0.2920236987,0.2622789182,-0.6731909465,1.6779645848,1.076564716,-0.0392294268,-0.3276085509,0.9928389445,0.8295242149,0.1353500875,-0.3617525058,0.200188627,0.2332376425,-0.335704562,-0.5550739005,-0.5234282526,0.2197580959,-0.2421008559,0.674360644,0.1271699643,1.4153102918,-0.0476444868,0.0630042402,-1.2628423279,-1.0185123954,-0.7960702848,0.3253330716,-0.0808951584,0.192983437,0.4393236941,-0.4740949977,-1.372055275,-0.0062517056,-0.2757804042,0.7315890986,-0.1476768099,-1.5820975865,0.4111990718,0.6627915117,0.679634738,0.5008047968,-0.4328010278,-2.1252281952,0.2720809156,-0.3008245888,0.1814171767,0.6417948235,0.3820311928,1.0150729421,-0.6638350756,-1.1065914007,1.0123264307,0.3110676808,-0.631104311,-1.2949635298,-0.0756385849,0.8588989637,0.1427019047,0.8670484324,-0.2781819438,0.7181165969,0.5548737732,1.2809011329,0.406174636,0.3910079468,-0.9231120399,-0.0621271476,-2.3654271991,0.7426492329,1.1536986492,-0.2317345914,1.6404623918,-1.1319694843,-0.9092777176,1.1018496702,0.3718497279,0.0576757205,-1.1354366347,0.2882341851,-0.0685506088,0.6099748584,-1.1526843969,-0.5069194953,0.8006679137,-0.161114711,0.2895582177,-1.7439165641,-0.9681342457,-0.2505908321,-0.2203303441,0.6170531804,-1.3054423586,-0.2982400388,-0.0749007592,-0.4767868857,0.2457383197,-0.5956750679,1.5251720412,-0.77452094,0.9736997994,0.5528150875,-2.4776007838,0.5211296997,-0.4459898124,0.6464320109,-1.1747526636,-0.3364799912,-0.7462689568,-0.3443282139,-0.0959506072,-0.8527330344,0.478228452,-0.0613179101,0.2541039158,0.7737732501,-0.3386156345,-0.3245416727,-0.8156777052,0.4493790991,-0.3672652807,0.6774464413,-1.9222620249,-0.4096948643,-0.5212843094,-0.0389657753,-1.2298594878,0.8756909165,-1.1093677429,-0.6428809446,-0.0641024578,-0.7641576722,-0.8731264827,0.2920018685,0.2258328796,-0.1622103954,0.0886960433,0.0583299473,0.9467590788,0.8631539491,-0.3795392896,0.6272910547,0.5499138332,-0.0319468149,-0.7475145739,-0.9229185393,-0.0524190828,0.4544709343,-0.7236116781,-0.4823600486,0.9077252912,-0.9807432275,0.0157602178,-0.8298868571,-0.6980790389,-0.7768035814,0.4507883035,-0.5294718155,0.4137475791,-0.5205878444,-0.1558369842,-0.8497806433,-0.3660845812,-0.7905967671,0.7813477597,0.8188313944,-0.1363348937,0.2771336862,0.6884779829,-0.78585298,-1.5957226602,-1.4277461669,-0.0086425278,-0.1225778708,-0.8327415793,-0.5552162077,-1.9398199701,0.3308521942,-0.6343054052,-0.1352774257,0.563005966,0.4825974297,0.53533574,-0.0263453884,0.2016145306,-0.1061237626,0.6889074013,0.2972503544,-0.8107226867,-0.3663265498,0.4879288797,-0.2555074823,0.8062864019,0.8976595653,0.7519721468,0.8946769542,-0.0599068831,-0.4562393329,-0.8921047882,0.3526394024,0.7686730597,-0.2741470714,-0.5729850455,0.9034199143,-2.2005824844,1.0211707046,0.7321144594,0.090199106,0.7029003169,-0.6528535916,-0.2062784027,1.030407157,1.1499070773,0.6024029455,-1.6947935414,0.7853728095,-0.7535525273,0.5218104422,-1.5301423746,0.7385055653,-0.4747307188,-0.0787951466,-0.7104727674,-0.411356701,-0.6340190855,0.6754921141,-0.2704942354,-0.3806327179,-0.3852598077,0.3233566668,0.6405030737,-0.3333525485,-0.2672450322,-0.7586328307,-0.780929706,0.1151064547,-0.7200509539,-0.7917637081,-0.1515750471,0.5397065196,0.0436921075,-1.4467832124,0.1185536609,0.4703137439,0.7187971434,0.1661908523,0.2531504154,-0.6213948888,-0.6477844728,-0.0179061147,0.0088503742,-0.079079232,0.1152683297,0.2169151952,0.470875198,0.9033235965,-0.4109413733,-0.8854412311,0.0276024596,-0.5231302475,0.4301802445,-0.2175539324,-0.59822576,0.5714718048,0.0001019011,0.1540548544,0.6319720084,-0.8378644345,-0.5134878888,0.2306758951,0.4781875595,-0.1011041368,0.8581267818,0.5558566078,-0.5893922987,-0.7185490807,-0.2290024717,0.6643389779,-1.5273237491,0.8137073992,-0.0543463287,1.0230585834,-0.9285448881,-0.5003146088,-0.4843702725,0.1542808663,-0.6984127418,-1.0700326252,1.1494478406,0.2096787201,-1.1335208965,-0.8654157739,-0.8413563408,-0.2122220925,-0.9317898215,0.9959353745,-0.3932675603,0.2601210902,0.7988531333,0.6517287483,0.7461182123,0.2752225195,-0.2438032936,1.010247723,0.1093386669,-1.3071979416,-0.4431357309,0.1232103992,0.0189046697,0.5482600802,-0.9056870165,-0.1223960127,0.8628967098,0.8191119826,0.2138645331,-0.0527678359,-0.4165386417,0.2308210828,0.8831724704,0.1061589435,0.4239677689,-0.0188627914,0.4036256447,0.1565060574,0.3572165059,0.3963362406,-0.2524419641,-0.39876897,-0.1845646659,-0.8273753437,0.9675558516,-0.2667120095,-0.7680018742,-0.6336653239,0.1037627359,-0.2192284622,0.5706264216,-0.0599645944,0.0018436015,-0.1131872922,0.3401671297,-0.7456336431,-0.1906767161,-1.2611496768,0.9572899278,0.9392917455,0.2829021135,-0.7299430341,0.5667433333,0.1992367404,-0.6481581219,-0.7603524432,0.3336724225,0.5264764469,-0.6929523688,-0.9344085757,0.5884361324,-0.3834949086,0.2674708993,-0.5648173738,0.6109898812,0.7136027521,-1.0638909852,-0.5144035735,0.4050218572,-0.5300878321,-0.646361667,-0.8441957869,-1.3324378158,-0.4624902793,-0.6373493938,-0.5209589252,-0.0213531234,-0.2843467501,0.4246789525,0.2040412002,0.9485072376,-0.7420918771,-0.6355921173,0.3841103705,-0.7283105392,0.3285796972,0.7392583546,-0.6929684258,-0.930821952,-0.2936268604,-0.8934370317,-0.1500046397,-0.6637189322,-1.0395307337,-1.6714679329,-0.6210330481,-0.6796452169,0.1358620316,-0.9238022895,0.4798640767,-0.5314708867,-0.0601564184,-0.0275379073,-0.6680387788,-0.7021367842,-0.3087722644,0.7298811931,-0.1012698639,-0.8189224053,0.2253484174,-2.1174894189,-0.9262745407,0.8743988665,0.9478036875,0.1599576825,-1.0784851893,-1.5758469708,-0.4627714183,0.3920849186,-0.1272744274,0.1868642031,0.22046468,-0.5065536619,-0.5125466688,-0.0268841668,0.6165315709,-0.3459871336,0.2826981378,-0.6869759979,0.5791109396,-0.7064771537,1.0597736456,0.4871846086,0.3253651995,-0.7139254324,-0.5027457642,-0.1350352207,-0.3344001255,0.1001448029,-1.0975845736,0.2177027391,0.3187969735,0.8800416527,-0.3907488898,0.9121811829,-0.3137483614,0.2771682295,-0.0539353641,-0.4402525578,0.0449873579,0.7343316357,-0.1830400492,-0.373742408,0.1439484404,0.101386991,0.3596192342,-0.6401370123,-2.2541609145,-1.5074381518,0.2231349973,-0.6934199968,-1.4187260385,0.3532016187,-0.0712569419,0.7729857596,0.3471082565,-0.9384824141,1.1579292654,-0.5619482967,-5.7448464125,1.5572318364,-2.1051379511,0.9399562449,1.1611985996,-0.9088269555,-0.1740206128,0.3623883076,0.0379336839,1.0889691489,0.076321838,-1.4638269631,0.629229726,0.4670243586,-0.723189782,0.1093830152,0.7102181872,-0.6983864894,0.5362364053,-1.4055257236,-0.0693242668,-0.1870878315,-0.0540876855,-0.7060301515,-5.205778702,1.4823383153,0.3153556634,2.2474145395,0.4885783703,-0.2264681356,1.293939828,-1.0287032087,-0.0752289764,1.2517884365,0.5204483782,-1.9207616419,1.4774567833,-1.2203829078,1.3795245838,0.1004963405,1.3270606075,0.4498394428,0.9871054036,-0.8210864832,-0.740852718,0.934124667,-0.8040732096,-0.2630307236,0.6253634287,1.4292528999,-0.1262717008,2.586182633,1.1126691585,0.7738895955,0.3412164414,-0.2884266275,0.5856340557,0.5569428065,0.4216419668,0.1615056467,1.3064365994,1.3869632873,-2.1445866928,-0.9892313183,0.2799433468,0.1236795376,-1.4488066321,0.089913443,2.2713828784,0.6753703563,0.2820515849,-0.0665830284,-0.1933584043,1.2833126066,0.7057069671,0.7332555926,0.8133504125,0.7102038066,0.3161968606,0.3518567796,2.1116609346,-0.3541789661,0.3222094648,2.5582304469,-0.1897733539,0.7535515377,-1.1996949512,0.6857066114,2.0037950471,-0.4490961683,0.8864426165,-0.8307729711,0.4077149548,0.4756996595,-0.0137000799,-0.1345564869,1.1779253545,-0.6453643789,0.8746845889,0.0246813653,1.4501773713,0.1147371499,0.0618151132,0.8492438015,1.0453773452,0.6172676275,-0.4582734937,-0.0399987312,2.0330695484,0.8134572475,0.0575464622,0.5138071681,0.4394256221,0.8138844372,0.0460378088,1.3989957071,0.0269906316,-0.1883598297,1.8637210571,-0.0710831156,2.3692822908,-0.2849859334,-0.2707125302,0.5297346731,1.2765511777,0.0903202481,0.1965912435,-0.2131716973,1.8326532069,0.6957745813,0.0752279117,1.0335356461,0.2150022918,-1.9443316859,-0.6642884177,0.0149881608,0.6070492784,0.299706674,1.0224709566,-0.8841828421,1.0053906829,-1.0084039276,0.7882217249,0.7189653921,-0.2614513778,1.346537011,0.9486882116,1.2101778326,-0.2343570779,0.7398357389,0.2850102513,2.2496069032,-0.9022937724,0.2021634532,1.0234115077,1.4250412266,0.3341288317,-0.3829067376,0.0677617892,-0.3822878463,0.5005609441,1.1964071163,1.4992052425,-0.7685051252,2.0340523981,0.7758238128,1.4879657009,-0.8049988464,-0.8343294768,0.5350691972,1.4285580851,0.7114239903,-0.5168794644,1.7172599639,0.4130775696,0.6593342024,1.5187546192,-1.6049607718,0.1040024534,0.101466971,-0.7987197739,0.5924847474,1.321408927,0.00248405,0.5675659428,1.4476924926,1.4414425661,0.2467593124,1.1150218588,-5.0529334862,-0.7443090451,1.2924792038,1.2447360232,-2.0792175602,0.1930128975,0.9011132544,2.0665689106,0.9047715236,-0.6513030371,1.2971879412,-0.1494053338,-0.0979886412,-0.7466020721,1.1694751459,-0.0619660682,-0.1469733602,-5.8124131843,-0.2084138032,-1.8982717218,-0.4576834432,0.1803341412,1.0631329105,1.1193369127,0.1805083676,0.1969725305,0.6965386158,0.8906195754,0.381392332,2.1468665169,-0.2396768207,0.1701664725,0.4871177699,-0.2457170849,0.6640853399,-0.8252339437,-0.2506828092,2.4382769393,-0.1496214613,0.4891701251,-0.127142847,-1.0510885242,0.7606882387,-0.2543728131,1.0876122565,0.2398173847,-0.1889478222,1.3667980956,2.3896541426,0.9032800485,-0.2277517815,0.466616751,-0.0646382728,1.1160919838,-2.0691144896,1.2226433016,-0.0568985351,-0.3333405407,1.2322230486,-0.0069017502,0.0784330657,1.2990054785,0.9322115471,0.5070403518,0.4492769526,-0.6109600838,0.5494329051,-0.4762426301,1.2822201228,-0.3026749484,1.4227556001,2.1476445379,0.2253707075,-0.0752413645,1.2463738071,0.1071121164,-2.1365341783,0.7923358128,-0.2807786875,-0.2255888635,1.1575774454,0.4178952316,0.6413627023,0.8427923927,0.2170210245,2.3542260133,0.236873475,-0.4567866041,0.4725792817,0.7683352569,-0.0337145496,1.5454770016,2.4331583916,-0.0988609958,-1.2422857412,-2.1870781511,0.0257422318,2.3467068846,0.9121755119,1.0536526766,1.3986743118
   1.0654506963,0.4164972952,-0.4319486755,-0.0872321156,0.1064708082,1.4858989456,0.5920896554,0.6784403747,0.2229816623,0.6593888253,1.3559407349,-0.633534712,0.6170685282,1.2973509281,0.9941017631,-0.5306225881,-0.8712656137,0.8988744815,-0.1758278854,1.3783842108,1.0447841004,0.7020127208,0.7705529424,0.8555722618,0.2101511458,0.0630977016,0.5378204972,-0.9528354836,-0.9208502131,-2.3993718116,0.7790258178,-1.497473718,0.1320125073,1.2732832811,0.1611780663,0.6364380937,-0.9379003147,-1.1928868351,0.2508650815,0.0690300752,0.7785996381,-0.0639864332,-1.1625625572,0.20167022,1.2424122496,1.3206857998,-0.1735321405,-0.3658888468,-1.8457352114,0.5601371761,0.7490784527,-0.8449459347,0.8907947323,-0.301509384,0.2917349909,1.0951935145,0.2827841418,1.3753271125,-0.2991166167,0.3979469003,-1.0366772436,-0.2472434096,0.3046825916,1.2861562555,0.6560508542,0.0798245703,0.0100513069,1.0179645905,0.5290548618,1.502188917,0.1313144028,-2.0785031603,-0.9405321507,-0.9364873104,0.5508083122,1.1368968165,2.3766221052,-0.2886683818,-0.8965701375,-0.909668282,0.3423784259,-0.5148163732,0.0303458816,0.7252474795,0.21363674,-0.7383121805,1.2005332078,-0.5757304548,4.3832323961,-0.3753051466,-3.3398462226,4.5752200669,-0.0466962564,-0.3493836126,5.3887005968,-0.4443174143,-0.4597038216,-0.5622601378,-0.2852932589,1.6389677122,1.3127393235,-1.4625970685,4.2197974108,4.7966329357,-0.3506809416,3.8903435285,4.625118255,-2.0598501334,5.8278202945,-1.1398605434,0.8092872829,-0.9845145754,4.8229736379,0.8842702888,-1.420157425,4.3120253653,5.471032963,5.1242325912,5.356781189,5.8478088624,4.8708655824,-0.2226787561,5.6247359309,4.6555024778,0.5669731255,0.049780204,3.9549902102,-0.6246739342,5.5008363741,0.1207861814,5.1933657789,-0.6144154022,4.2873283563,0.3808758638,-1.1808020755,5.013338964,-0.4842172706,-1.070938552,4.3815439761,5.7733994313,0.6164552523,5.6165350276,5.307709822,5.4816344217,5.2074633125,5.5016078273,4.5752271028,0.2162294678,4.5630999915,2.2045950702,4.4509368247,4.2258086709,-0.9267942546,0.3115607528,-1.3763630664,5.4003567483,-1.4365494243,0.9640154955,4.0080757339,5.4979517565,5.7416802657,5.1328437922,4.0345038121,4.8422082939,4.6294780162,5.3670404016,4.088970897,4.0799339714,4.611350432,5.1256345405,5.7047845061,5.7227554787,-0.292335279,4.2541769554,5.7770574906,-0.9630667919,-0.5647779918,5.7072603377,4.645454014,1.3742426806,4.3567172018,0.305016345,4.4466251078,4.0816421065,0.3418619572,0.9680271091,4.3234615819,0.3665253876,5.2569687365,-1.6487868415,5.2863214924,4.0357443061,4.8005977522,-0.4795587079,4.4380952066,4.1335755767,0.5434484976,5.3457428587,5.0369034573,5.2653182425,4.3717928976,-0.2850511469,5.2679309261,5.4013349465,5.3412048615,5.4524540499,3.8879424412,5.7845067313,4.2672516269,0.1589472757,5.3955420023,3.9684712688,4.5769746531,4.051268497,5.051189605,-0.2605225646,4.5119040266,5.455067224,4.1197196422,-0.1435846093,5.2626408276,4.9115673807,5.5154897492,-1.2910115003,0.7210052029,4.4060237904,4.927872799,-0.7795980983,4.2436415467,0.9638100996,5.0389041201,1.3425698171,5.7418351785,-0.1809169944,4.137943322,4.0502955137,4.8200263478,3.959928199,4.5460530958,-0.3842242068,5.4725576148,4.2624212757,-0.1971059833,-0.8031163849,4.6669580356,3.5789316414,-1.5273484599,-0.101384408,4.3979229185,0.4049611139,4.4306756847,4.8415389424,5.7040570735,0.4248987672,4.9905604221,1.0166233545,5.0454557068,-0.2414961566,-2.0324249918,5.277746712,3.9906615318,4.7328851276,1.9588335781,4.0674364614,5.3692109679,0.2657363329,5.6600438974,-0.4781648454,4.3319290597,5.124751781,-0.2379389696,4.2463022391,5.7591577603,1.0031375417,0.7846995952,4.6329821765,4.1253579831,4.2650307312,3.0749552372,-3.1330225197,-0.8856375948,4.1654283049,4.5070434154,-1.8727730567,5.2909011621,4.6265026674,5.6398920863,0.0420657312,-0.1320532128,5.176296279,4.8244371858,4.3456671802,1.0532958748,4.3840982211,3.9389832112,-0.7431545257,-3.4597693728,-1.2329268773,-0.3691012081,5.0861767854,5.6112939848,3.974516624,5.2591190096,0.4782260197,4.1742474439,5.159050435,3.9889812775,0.1289426359,3.9074067439,3.88415951,-0.3755909785,4.7579482513,4.737172468,0.5665568453,-0.816092575,3.957040969,4.7082352574,4.4196254359,0.4263159482,4.1881073143,-0.0182960507,4.4742697219,4.6497246167,4.1260105251,4.8118671243,4.6203216157,5.5015719024,5.5174192879,4.8993971245,-0.0298170899,3.9111911408,5.0123577881,5.4805542402,-3.1953746785,4.6484559518,0.9492089824,0.9398805163,4.6869765504,-0.3784690332,-0.5272301519,5.3352965655,5.3950097215,-0.6087316822,-0.2980571287,-0.7064653209,4.9866858107,5.1656160404,4.2803062065,-0.9883388774,5.4204462591,4.6632900444,3.9056809894,0.0469580867,3.8650555465,4.2852311076,-1.677044089,4.2530930677,4.2277597372,2.2453992259,5.1513815229,1.1805357712,0.5615828957,5.1402513761,4.2560403733,4.6240411501,5.803623254,5.1412219454,1.0516111733,0.5447691899,4.6730626644,4.7854732544,5.462046588,1.3056035119,-0.5265446572,-2.7930307497,4.035847946,5.5371522072,3.9966883429,4.3324501218,5.1935369228,5.0440472086,4.9472316052,4.1925952372,5.5296945019,4.0618428439,2.9263661162,4.0589891488,4.9653069215,0.4499552849,4.0194599441,4.4044711198,1.2360304582,4.0034014197,4.3541186192,5.7269912499,-0.2507490431,0.6751687795,0.6118503055,0.0916015135,5.53458127,4.8238349097,5.6290159618,-0.184846267,5.2441796674,4.024612649,5.5201741662,4.3190032811,-0.8723119891,0.7657688365,-1.8764451528,0.4571735166,-0.8669895779,5.2790151825,5.062547728,5.0739262842,4.9447703342,-0.3353724621,-1.8920097297,4.1550321208,4.2399942159,-0.0075038715,-0.672632973,-1.0927015065,3.9503420082,5.7125450453,2.228775202,4.4905422025,0.1684501494,-1.5553721076,4.9385393603,4.5877043554,-1.1153430395,3.1808198927,0.43531245,4.1303876124,5.7841389378,-0.2913683352,3.8603870255,5.2237532638,5.7830429731,-0.6325203032,0.0834444389,4.1967461228,1.853104381,5.5612917719,4.1492749064,4.9954977567,5.082463048,3.9819029044,4.3758077496,-0.6333516594,-0.8760266273,-0.3901715568,-1.6540255644,1.0927654014,4.5369849515,4.909778784,4.3006778388,-1.1187744638,-0.1551668296,4.8305031394,0.7700229176,-0.8150408693,1.1348369369,-0.323877622,-0.5032456175,-1.1935869397,0.666274639,-0.3754920422,-0.3755525031,-0.6380409075,-0.6318375973,-0.1480479981,0.2066708316,1.6305051588,0.216625653,-1.2031155378,-2.4032849495,0.3173857942,1.3756931687,-0.0518701786,-0.5934079443,0.6113514187,1.4959931473,-0.4776484507,0.7037305867,1.9033815864,-2.459182721,-0.2882304152,0.6897103458,0.4083856504,-2.0882246459,-0.3839433818,0.106604858,-0.3534085006,0.746021043,1.0605229531,0.1611433217,-0.4223409228,2.4685247541,-0.4640874233,0.487446232,0.5719394672,0.4581254684,-2.3350068249,-0.0014359008,-0.1567003301,-1.8477653502,1.9144786433,0.6575537695,0.8795100145,-2.8535580117,0.0371944667,-0.7137295249,-1.2541404437,0.6611886496,-5.0063051876,-0.5731116869,0.1455742348,0.9383130597,0.3448974725,1.1002748394,1.1298854879,0.0853893803,0.8585300442,-0.6603192325,0.9469815534,-0.5407514553,1.7531121475,1.7206976855,2.3923571425,0.776155822,-0.1625800352,-0.682618855,-0.3197048715,0.5989512054,0.2489900376,-0.4218228962,0.6834978126,0.4569817304,1.28635387,-0.1548117332,1.7232807236,1.5269677067,2.1426626454,0.2972218085,-0.151749813,2.5012032201,-0.1240940034,2.2258753232,0.5798407265,2.4886266382,-0.4488119823,0.449843574,1.1133301469,-0.7484461596,-0.3807102156,0.3166157518,1.1587199664,0.0686489676,1.417544733,-1.7382448773,2.1515261347,-0.1898355661,-0.9308265307,-0.4641234044,2.411126621,-0.5815626605,-0.3368245512,-1.2368519933,2.3228554423,0.5748984958,1.53659715,-2.0048711085,-0.731299448,0.7410221834,0.4138385177,1.3492487422,0.376864858,0.373087346,2.4497993757,0.8233857108,0.0354135579,0.6943289426,0.9265197655,0.9104298295,2.4493613119,1.0249115906,0.714667113,-2.140923651,1.1572922026,0.6643174493,1.3705920147,0.7066463612,0.3725540805,-0.4777693477,-0.6751071467,1.2280136732,2.011300292,-1.4573129859,1.0034649583,-0.3517063691,1.1771087023,-0.0280445354,-1.742978687,0.6269389405,1.9292315593,-0.6414017832,0.9770444257,-0.1577611892,0.5485322785,-0.08468877,1.3680556442,-1.4864339146,1.4900681796,2.0942931634,0.9040538886,1.3300231308,-0.1228693557,-1.2268379206,1.0764704804,0.6019880484,-0.7060347172,0.3184650475,0.8066291417,1.8819171785,-1.3327211155,-0.6847917512,-0.2850333119,0.643604415,1.298394268,1.5108974437,2.5418128567,0.1656424081,0.5156263894,-0.7501802067,0.3269486696,-0.5623181636,-0.4411798183,0.9326224459,2.4223083596,-0.4726897576,0.6779217778,0.5294264519,0.8825423102,-0.2364812452,0.6117399853,-1.9599166722,1.2429870262,1.6879872738,-0.0234208466,1.6403815025,1.4040867199,0.0963187697,-0.0827705983,0.136913917,0.0830063587,1.2223039931,1.6436638526,-2.2024484152,0.4759293639,0.4237288969,0.8143229468,-2.0264381336,1.4252128803,1.012566953,1.0702129285,-1.6597178303,0.2107234472,1.6882816277,0.6318234886,0.9063173687,-0.5576857466,0.452340673,0.7985329919,-0.8721460266,-2.3479178771,-3.0987139601,-0.9074188918,0.5104855587,0.4113097623,0.2848398793,2.1288364867,0.9904770945,0.8743535305,0.6126122453,-0.4433779447,-0.0366456703,1.0479135916,0.8499485202,0.245666598,-0.0301963411,0.3089408323,0.6730142886,-0.0220914859,1.288586449,-0.665617689,0.7929234943,0.2693933935,1.2178563325,-1.7162308104,0.5188510192,0.401444447,-0.0105559149,0.8655235294,1.1715376759,2.0334016096,1.2291562127,1.4704946003,-1.498888238,0.5754639701,0.2080022748,-0.4003999292,-0.6425096463,0.6130700852,0.1296690841,-0.5303507998,-0.686626217,-2.8753232251,0.3625507197,-0.8348130338,0.4409416099,-0.8507303863,-0.5132196981,0.1516719272,1.1075735132,0.9087432292,-0.3580638378,-1.4067720408,0.0019952545,-0.1453216845,-0.2669070681,-0.0653646041,1.3964416472,1.6810023927,0.2490698496,1.0567520816,1.143987278,2.0422605211,-0.3456716292,-0.4808389592,-0.4610698376,-0.6435073396,0.8747266177,0.6378169445,2.1477624013,1.2851607627,-1.283582566,0.4274877818,0.154911816,0.055030065,-0.1216231255,1.2735558865,-0.8137069441,-2.0535915031,1.3106108503,-0.5687566266,-0.3805682926,-0.1930716903,0.6358040169,0.4531266188,2.5448456058,0.0052679433,1.617719208,2.3264415557,1.4991638089,0.5903002014,1.6490569279,-0.9110774437,1.4436592912,1.0133769846,-0.2233436154,1.1006763873,2.2035567752,2.0443808607,-1.4426749417,0.2889509427,-1.1536777872,-0.1130097663,1.9555946593,-0.2675213351,0.8020700875,-1.18929873,0.1233127428,0.3581849692,0.3494878568,-0.017727408,-0.614550484,-1.5824471012,-0.6412778472,0.8291206159,-4.7267440877,-0.2845002548,0.6149109196,-0.1941677056,-0.1107822965,-1.2252009342,-1.3845588195,2.3465620292,0.5045649763,0.4961672972,0.5358170623,-0.8059901808,2.2145650316,2.2270458992,0.9390783171,2.2750186343,-1.2639438352,-1.1049021874,0.9132235708,2.1805419403,-0.6170351202,2.5832975452,-0.099756065,0.7749749932,-0.4011825844,-0.8613762408,0.2093874996,0.1504375396,1.9869971869,-0.4609579588,-0.2059575834,-0.0241589169,2.3290011879,1.0351869273,0.5140073843,2.4947224521,1.9293295129,-0.2403968585,2.4908446141,0.0495397824,0.5907421196,0.5044712009,0.2711435057,0.9667028526,0.7683805362,0.6519789914,0.7867461553,-0.8972160561,-2.431862293,-0.4685964369,-1.1035252305,0.622110393,-0.5936146065,-0.7850955757,-0.6915560631,-1.1082430719,-0.39506966,2.8597589261,-1.0043254469,-1.8293827009,3.89625458,-1.8269185393,0.3513637792,2.1191832792,0.0907712525,-1.4715797342,-0.3149794262,-1.4903316734,2.3981307734,-0.2958947092,-0.3057679753,0.7931862321,3.5224874044,-1.2329342109,5.3852514888,1.9908238338,-2.2142352907,2.2151885534,0.0562472953,0.7747303549,0.4671940743,2.5252523987,0.720654722,-1.8568420191,4.6496311585,5.4706574611,0.7619895281,5.6706929582,5.3544098726,2.7592163711,-1.4281468272,1.9525776286,2.604776114,0.6496134852,0.1372157171,4.388110951,-1.1454752035,1.6983383161,0.0238572491,1.2317715984,-0.640961857,2.3114403525,-0.5970689286,-0.3145204772,2.6862154732,-0.8391423789,-1.4192502257,4.4081982769,2.0181827905,-0.7845185117,3.3166690696,2.7523673261,4.500156021,2.9396737979,1.4752015285,2.1205327524,-1.0974607901,2.0913173654,4.6811422321,2.7259435137,2.8056281264,-0.1548842912,-1.7355350274,-1.7407218409,5.0763138893,0.9365826652,0.1504612034,3.8697284738,2.4602061629,2.5553078996,1.8597093185,5.471165296,2.701913171,2.2743009435,5.0625933678,2.9267790366,5.2615433955,1.9340515666,3.2669325484,3.9778232656,2.2207742096,-0.4817765687,5.7662452834,0.5174618867,0.447950311,-2.199755582,1.95543216,2.1337905277,-0.2333170665,2.7207936451,-1.1567126862,1.9270326729,1.2330031703,-0.2525588426,-0.354454836,2.9775699131,-1.5477034517,1.6573492982,-0.1536160073,2.5383430162,2.3707114101,4.3057018051,-0.7182897375,0.7242621099,2.2631416479,-0.8848052317,4.4042976482,4.5554376549,1.1609731756,1.5259947495,-0.2618823792,1.8227565961,4.665991632,1.8039790881,2.1088091998,4.499905649,5.4474618865,2.8175459557,-1.017864248,2.3370914193,3.9372585153,5.5031332093,2.0487495899,-0.0118519469,-0.7333633025,2.0790748883,0.4403685869,3.5455155077,-0.096032334,3.3541360313,2.8439585718,5.7958695556,-1.8941255506,0.2434669032,3.0232587657,2.5988304742,-0.3644725081,2.5140324002,-0.5947771919,0.6423721318,-1.151557744,4.8956975772,-1.1030947065,1.6768944446,3.3077574612,2.417926555,2.3041226083,2.6997970931,0.2976069341,2.0929984465,2.9645731784,-0.0503910542,0.2531366098,2.6663851241,5.1685456302,-1.2455105858,-0.5764924251,2.5954695458,0.0084040986,5.4555001938,3.0183795635,0.8092961713,-0.6012814782,2.9008444524,0.1167731461,0.3506621761,-0.5598267175,0.5162704266,0.4142593092,2.9446902804,4.5340543909,1.5997779548,0.4911029166,0.2437523573,-1.0305320084,2.5443213514,-0.4437148539,2.5446125832,2.3471193148,-1.3177952641,2.5035204228,2.5120687752,-1.5752429402,0.7277737089,0.8951798246,5.1880610726,3.9449566702,3.9162978985,-1.8417137374,-0.4383197279,1.0460433051,4.7260726241,-2.0707586321,3.5017439064,4.9244830507,2.9177280965,-0.4084692844,-0.779170476,3.3299214872,3.035178853,3.9405937121,-0.8760593777,4.3799648722,2.1249954228,-0.2566152943,-0.8606044819,0.4194044219,0.5055410798,3.8886177288,1.514406831,4.2884621506,3.590086636,0.8363468702,5.7844785593,1.8779801044,2.6872842523,-0.2305868011,1.0568104545,1.8611275861,0.161984718,5.4607734977,1.8885705195,-0.0764067664,-1.044495689,2.9759056887,2.9579755644,0.8943715134,-1.6490879618,1.712097897,-0.9785139061,3.9810024012,3.529749728,2.7274007565,1.7836344453,1.1360253926,2.0041609453,4.2341150351,5.8268151675,-0.4333676152,3.494246071,5.6138577953,3.3977046347,-2.0201138043,5.0962616508,0.884605345,-0.0188594885,0.8680547473,-1.0593242068,-0.9923400222,4.8885592793,2.840174077,-1.0476614902,-0.8890479466,-1.6282851371,5.5972353436,4.7121356657,4.2744002861,-0.4135046132,1.7360017444,1.825103496,3.339293032,-1.3485271437,1.0993432756,2.9074991408,-1.9349932813,2.0517431494,1.0097837724,4.750440133,1.7839879892,-0.2350019388,-0.6299968884,1.6821842154,1.2671810302,0.4516919882,2.6651666696,3.4301599185,-1.4688557139,0.4670182153,4.3870173335,2.667445106,3.0767676729,0.0087252086,-1.6014336744,-2.0968687877,1.3448822167,1.4833347496,1.3125976536,1.3162867786,1.7491191849,5.8428610554,4.5629917349,1.676881118,5.1263862318,2.4197921514,5.1459897531,2.462338573,5.2613090607,-1.6917942383,5.7738529084,2.9268348673,-0.9546133442,1.4158075323,2.3004169695,2.0478864246,-0.5873537402,-1.3095723593,-0.1347909082,0.1740396453,3.0959716955,2.6741498371,2.4624121489,0.0729518925,1.932549277,2.1633112974,4.6009738774,5.2220439874,-0.8710865931,-0.0314904045,-2.4892158099,-0.001857429,-1.054470002,0.9185785005,2.8558991292,2.6757055831,4.9567940255,0.390115261,-2.1966685668,2.4516095166,0.5400629803,0.2064317285,-0.0816629075,-0.0858750419,1.4310580701,2.7298313657,4.0542185676,4.2231967194,-0.1316074909,-0.5872592687,5.4111470953,1.5155610368,-0.6932140378,4.7901797332,-1.5269084037,1.1422623743,0.9077118806,0.3802951634,1.5650788674,4.7175243312,2.3987323316,0.3393402138,-1.3757378245,1.8452987914,4.4276339722,0.5296071942,-0.4628419183,3.261954845,1.0218678322,3.6307777568,1.5222402126,-1.3483169272,-0.1344125036,-1.7617581968,-0.2977527863,1.548233603,3.410413762,2.6752861833,1.7157586865,-2.2553087642,-0.5363674826,5.0948663408,-0.6670805673,-0.6110578324,-1.2128569733,-0.5022196681,0.5887714477,0.3085175541,-0.219187401,-0.0569203433,-0.1136586498,0.2641698339,-0.1241705631,-0.1660969095,-0.2358696933,0.0547614295,-0.7761237835,-1.0341047451,0.5845333133,0.263164993,-0.5420117288,0.0815903103,1.3002195209,-0.1831707178,-0.9805259785,0.1622822836,-1.3793918625,-0.1446136476,2.114823348,-0.8869074001,-0.4376690095,0.2515823137,0.7895042471,0.691099533,-0.656532901,3.9305000547,-1.3608170457,0.7284370706,0.0246207708,-0.651718326,-1.7044707088,-0.1145491541,1.1106841379,-0.5275714099,0.2862905409,0.5345740118,0.901817865,-0.4404767515,0.3573292337,-0.6651889077,-0.0922053734,-0.1964082916,-0.3149655041,-1.4666360973,0.3823250474,1.4070100753,-0.8305671031,0.8245684732,0.7130626085,0.2938366922,-0.3200172838,0.550079968,-1.4088096133,-1.1638477911,-1.5832243357,-0.8819450102,-1.3219717687,-1.336121259,-1.0813185209,-0.2059628319,-0.3231480719,-1.2285089943,0.2220140543,0.7689299146,-0.3008446114,-0.0242294753,0.0521908591,0.2163230388,0.4280330964,-0.3344422476,-0.2632877619,-0.7918351202,-1.2507217087,0.2592913489,-0.3261369232,-0.5560906841,-0.9534555825,-1.029775256,-0.4300802398,-0.2656429004,-1.0605737729,-0.809962644,-0.04809123,0.7403397447,0.3303614663,-0.6709643682,0.0130727025,1.3356658827,-1.2773068886,-0.3844075835,-0.109239448,-0.3706700236,-0.8636926961,-0.6912879244,-0.0998440139,0.6378830014,-0.3129362427,-0.1230311833,-0.766512008,-0.6775381376,0.8853284278,0.2244174404,-1.2648192795,-0.5742865622,0.5557791286,-0.9819390379,-0.2508818217,0.1349323819,-0.7873318141,-0.2607158126,0.3994663714,-1.0708064265,-1.045608274,-0.7815368399,0.1118196695,0.5689330585,0.1154253315,-1.3177111192,0.343547779,-1.0649210056,0.2224357635,-1.4224769554,-1.1326373542,-0.8924706447,-1.2224560477,0.3192429476,0.1579910848,0.2895049742,0.3992421398,-2.3944640164,0.3319002585,-0.3940737352,-0.9550376834,-0.5714717723,1.5074427567,-0.0921044922,-0.9715237442,-0.2205549177,0.4395625783,0.4568878056,0.5855773655,-0.4838077167,0.6240682532,-0.332442565,-0.5081155279,-1.0353676515,0.4843933041,-1.4630043033,-1.5161621049,0.2345594058,0.3194301483,-0.9398885435,-1.4642166273,1.1279341477,0.4744468474,-0.3142451304,-0.2218222052,0.729953004,0.1109509488,-0.1262947257,0.4673563564,0.4053838171,-0.0286144983,-1.0874379431,0.2360287668,-0.5099179605,0.6481772383,0.2838702438,1.0724900205,1.0403699413,-0.8079764477,0.426746827,-0.7601793019,-0.4748297492,-0.318495381,0.0888675423,0.3215288443,-0.4307081244,-0.385464182,-1.0083191508,-0.0700146978,-0.2525964117,0.1510022563,-1.1979146086,0.6568862976,0.5478667661,-0.6120861506,-1.3688984659,-0.7876543986,-0.3220222639,0.0242896685,-0.2145247696,-1.3320100126,0.2630369128,1.493015286,-1.0497638272,-0.4713055477,-1.1421534904,0.0878262859,-1.2312414507,0.2798681667,0.1631597988,-1.3813747117,0.6581096884,-0.9952624761,-1.1672973511,-0.8700295888,2.4805887127,0.2724473029,0.0951041899,0.5569888635,-1.0225794449,-1.4744302945,-0.0440654975,-0.9203322988,0.0904355811,-1.3359325383,0.2775818706,-0.270831151,0.3648755928,-1.4642139466,0.1852361221,-0.991371599,-0.6851893751,-1.0840240713,-1.0999229764,-1.1146583607,-0.0714564621,-0.5439371294,0.7496479795,-0.196467291,-1.0934440516,-1.138892154,-1.1320687181,-2.6354022007,-0.5940344164,-0.3928628133,-1.222538362,-0.7036778417,-0.7131277046,0.3621694715,-0.5085915936,0.3247961379,-1.3281121277,2.4463978123,-1.1726902419,-0.8635604346,-0.6094298605,0.3567893296,-0.1061163451,-1.0489283504,-1.0307416708,-1.4200835823,-0.9608429201,-0.4619561889,1.6932645074,-0.9262687184,-0.7147177241,-0.738781109,0.3774044909,0.3268345477,-0.9793842671,0.4996086926,0.7034803214,0.2499910254,-0.9088414325,0.9249797537,-0.026994829,-0.9111543104,0.0820566448,-0.7977738313,0.6092447785,0.5990632765,0.0621614866,-0.1156190616,-0.7458632896,-0.1032210397,-0.7412271317,-0.7561542773,0.5787336869,-0.6523549744,-0.4605387111,-0.7601593268,-0.8459945179,-0.8003369369,0.0373397009,-0.555302149,-1.025152547,0.4748138936,-0.9370862118,-0.7918036495,-1.0298978227,0.364898774,-0.4629679508,-1.5015999395,0.1626232476,-1.1875218784,-0.2030807874,-0.2250745737,0.8294405269,0.2401307088,-1.0193429882,0.7379167255,0.1806800664,0.147852849,0.0089746153,0.4039266567,-0.6550590824,-0.3283318437,-0.3854745908,-0.7271298643,0.0438803885,-1.2932019049,-0.5412675447,0.1592350745,-1.5020491196,-1.5204479924,-0.8119672361,-0.0173231823,-0.2744408401,1.4130093136,0.2429840963,0.0315133446,-1.1215149797,-0.9730993014,-0.9252865,-1.0765013959,-0.1783482762,1.6613315726,0.0175436514,-1.0577654659,0.0004140117,0.3389007018,0.1684813678,-0.6478936002,-1.0115113698,-1.3696201542,-0.739738744,0.8223663109,1.1608875987,-0.5504030313,-1.0082787896,-0.285071233,0.4327202781,0.0891913563,-0.3461350329,-1.0785016644,0.640534917,-0.1309343301,0.1832790717,-1.3173119964,1.8604154314,0.2189625242,-1.2930987962,-1.1861140477,-1.4240171469,-0.7611390548,-0.3110068894,-1.3432375369,-1.076956221,-0.1962371813,0.4570147554,1.0124507274,0.2682591029,0.6027050675,0.1224169223,0.1404295172,-0.281459228,-0.4863692346,0.9474858425,-0.5481483395,-0.8600490926,-0.0085547088,0.0814437133,-0.5687342148,-0.2263110869,0.1902657003,-0.5369520007,0.1195505973,0.5093466657,0.4931732053,-4.7833446919,0.2291695336,-1.2417539646,0.9609691308,-0.1704106426,0.8521877409,-0.9297841815,-1.4421087893,0.6655270863,-0.630064826,0.3581335888,-2.0033917557,-0.4245055269,0.1167238678,0.7420252775,0.1018863771,-0.0368126056,-1.797232283,0.7463352448,-0.7119574549,1.0006946941,-0.7674803576,-0.4979189224,0.8453441627,-2.0360053324,-0.3268625474,-0.7586545467,0.4989242617,0.3591797593,-0.507694299,-0.2331549949,-0.9547500452,-0.3117189507,-0.4641879647,0.4096778023,-0.9468551465,0.3114618452,-2.4239616159,0.7135772975,-0.8030251439,-0.6881706442,-0.0179145964,-0.0074004806,0.6263394371,0.4323428277,0.0423382023,-0.7102098331,0.1939506878,-0.1275845544,0.8844536925,0.0878725519,-0.1440048436,0.6623751869,-0.6971761037,-0.0828435444,-0.2683888255,0.7352218509,0.6531869258,0.4923711918,-0.8123470882,-0.1465918384,0.303544801,-0.295204912,-1.0061539475,-0.8035230279,-0.0694697042,0.4978501934,0.6047278726,-0.7103908444,-0.1032397285,-0.1247811288,-0.4980076851,-0.0738157261,-0.3904212285,0.8024286947,0.0690784153,0.9607339076,-0.0933601696,1.0102968383,-0.2691456316,-0.3231158696,0.9317806085,-0.9132752133,0.6895220003,0.5161376036,-1.0072973882,-2.3779550567,0.3797993954,0.8338090009,0.7033573946,0.377220505,0.067784416,0.8807437849,1.0080754689,0.0514343218,-1.1295075851,-0.6431340129,0.7067713914,0.0500061336,-1.2745000533,-0.6658009754,-0.4736825025,0.4297777293,-1.0449977619,-0.8296059493,0.6624031772,0.826360194,-0.1402786288,-0.752198405,-0.3538512296,0.762513047,-0.6527318894,0.3028089138,-0.7251792962,0.2431911733,-0.6701622133,-0.8230787745,-0.5266703847,0.1237557824,-2.4800444843,-0.7888814721,-0.8634069045,-0.7644383663,-0.3299779216,0.5731924894,0.2726458336,-0.8266324743,0.7107303871,-0.8822655008,-0.7984222898,0.4275543149,0.8414375001,-0.1608790124,-0.755163119,0.5076405542,1.0709791634,-0.5361630011,-2.6042442552,-0.5832384616,-0.5984659691,-0.022793712,0.4999159815,0.6094082103,-0.1310864849,-0.0319913346,0.0540003765,0.1943556749,0.6906799629,1.1177158401,-0.4065864998,0.4223816505,-0.5980133244,-1.9841553904,0.5250441041,0.5684588754,0.7856444111,-0.4945711428,0.4415760837,0.2811562394,0.7874760302,0.5026995376,-0.7493096111,1.0018209672,-0.4060551888,0.3366737868,-0.3652367693,0.5661818126,-0.8208338581,0.2457886769,0.8212448719,-0.4364276957,-0.361116534,-0.1456155736,0.7304376661,0.0818710934,0.7978147566,0.8034581306,-1.5665414397,0.7285052597,0.424200561,0.5882347979,0.9444590823,0.2076356019,-1.1205817946,-0.6299831376,0.1461767087,0.2188143391,-0.4086957538,0.3193292669,-4.4115179383,-0.3810631601,-0.6181371569,0.9012987332,-2.4801772145,-0.5554764435,0.254899681,-0.2318045471,-0.2296047557,-0.7813646825,0.1137440666,0.4144346534,0.7460463813,-0.5456760317,-0.8353153621,1.141377917,-0.1333873282,-4.2340191982,-0.8474148957,-0.8894845571,-0.7803548621,-0.77862459,0.3415202662,-0.832185152,-0.41173456,0.9107775595,1.1302125556,-0.2881121327,-0.4063697386,0.8736732689,0.8406285117,-0.4035289872,0.0355363487,-0.1542183674,-0.8199961938,-1.0908305309,-0.2427193725,-0.2056824435,0.3074579643,0.0357697235,-0.7891961022,-0.5202758756,0.4223637902,-0.3187067759,0.0511098292,-0.4599452574,-0.3837515504,0.5654471707,-0.7998019147,-0.2034926049,-0.4082242428,0.4518394371,0.1064792791,-0.439481409,-4.3255090923,0.4074368493,-0.1379978182,0.8196986454,-0.0948041468,0.8905225069,-0.5411900912,-0.7232821307,-0.5088648766,-0.0454642364,0.6520186225,-0.9122539783,-0.8503301413,-0.6823598473,0.2523011653,0.3452033803,1.0174022128,0.6778287468,-0.3424091728,0.6189377318,-0.2718226783,1.0355359134,-5.4095345673,-0.3233467725,-0.2559562513,-0.4623650581,0.5037019155,0.3512823866,-0.0322237305,0.3296032326,-0.7976875318,-0.3974039518,-0.6004369463,0.6465431262,-0.3042134362,-0.0591419325,-0.4613900582,-0.3063278745,-0.7561086786,-0.5276719051,-1.8508596168,-0.7617150555,-0.1613898554,1.0742330127,0.6342903044,0.837735484,-0.7849334219,0.2412919533,-0.460905227,-0.402080863,0.1698899783,0.6017403939,1.0141259286,-0.8284926871,0.3502410805,0.5942294952,0.6864412166,0.0268470469,-0.5223803079,0.1699669225,-0.1681688464,0.5464661466,-1.3936535123,-0.2438200732,-0.240635499,-1.0382632434,0.3190729377,0.0067716344,1.0230869046,0.3268419141,0.4839390528,-0.195670836,-0.0887870167,0.0424142075,0.6865018582,-0.8628174565,-2.5835628425,0.5168906557,-2.3647860139,-0.3754064218,0.9972319363,0.0969875373,0.5514023577,0.3430305223,-2.1771942815,0.0110728271,0.9901290292,-0.3516325753,-0.8192320763,0.0486772134,0.9631242795,0.3688685274,0.2761971415,-0.6681951117,-0.0687913918,-4.4912269432,-0.784925299,0.7968024899,-0.2410145059,0.3808242474,-0.4328807613,-0.7576583186,0.7571174944,0.2204500678,0.7153542433,0.5141127067,-0.002543156,0.231957681,-0.2550472809,0.0784261245,0.1438019228,-0.0742457422,0.895274348,-0.4779990022,-0.6984184714,0.177259848,0.2799959587,-0.7977132796,-1.8705479708,0.7518001693,-0.7054827125,-0.5140773677,0.2346535306,0.5859192739,-0.0267281369,-1.2298673665,-0.8800337366,-0.677679101,0.371559442,0.4967273313,0.1711105142,-0.9226115308,-0.5847994838,0.372260286,-0.1753362574,0.5264939942,0.887513161,-2.4800798038,-0.0715665503,0.7884402681,0.0405481249,-0.9129988014,0.1454503159,-0.2580948182,0.1992148332,0.3086848006,-0.0744490911,-0.958641258,-0.6327039899,-0.4152906246,0.8729963061,-0.6528429569,0.2668430611,0.1251900264,0.3137323063,0.2680784699,-1.005231933,0.8592923075,0.6417313913,-0.2626020785,0.1163143519,0.61163088,0.619023711,-0.7138940136,0.8053486634,-0.2676328065,-0.3433631291,-0.9486601962,-0.8265780596,-0.3565241768,0.8089304817,-0.9642794984,-0.8392122428,-0.3814133586,-0.1213959221,-0.6099993751,0.9275022793,0.8175681355,-0.2204929209,-0.8263527768,-0.1578052113,-0.0087400056,0.2241809182,-0.2449483362,0.781125624,0.9490199476,-0.3104664775,-0.3586694922,-0.5979431844,0.8430849843,-0.2588160696,-0.4620253177,-0.5175089911,-0.5867013237,-0.5791378738
   -0.8207630858,1.9156584069,-0.4348075227,0.7862184822,-0.0280370043,-0.3404613434,-0.875504857,0.6907372714,0.6569811679,-0.375551006,0.8745056816,0.4020449373,0.5052087324,-0.4800688604,-0.5592436753,0.6224828601,0.3203416356,0.0843422337,0.5671205082,0.827569879,-0.9745846591,-0.2736989301,0.7775116178,0.7793321581,0.8454120451,0.7745318157,-0.8211960814,-0.4171373633,-0.6117979067,-0.3139661368,-0.7045330372,0.2466749146,0.0727971648,-0.8865512723,-0.1794924096,0.6395367556,-0.7098421346,0.0690476729,0.9455405852,-0.430768997,0.0198097906,0.7664457861,-0.5309139726,-0.688490494,0.5799433577,-0.1073892622,0.9138988509,0.3928802728,0.213876111,-0.2048390032,-0.7634567912,0.7765413122,-0.9341399489,-0.342484638,0.1225753823,0.7233880219,0.4740226324,-0.2792947921,-0.0264058823,0.1036973727,-0.171271075,0.6709454151,-0.565582313,-0.2831069526,-0.5349625028,-0.4709875287,0.8400695187,-0.5255595673,0.291739046,-0.2763160288,0.1874196821,0.1258162534,0.6222143212,-0.2038923696,1.0201001694,-0.9093420578,0.0892058313,-0.9882562501,0.4194789403,-1.1273763347,-0.9833472672,0.8362532895,-0.3768577964,-0.4254927927,0.1122051988,0.4915745715,0.7273271275,-0.5795084846,0.8705175528,0.2213505703,-0.2357020658,0.4777105849,-0.9544046146,0.4185943768,0.4902905929,0.4200353411,0.9633165021,0.7833875488,-0.5481104106,-0.6500465978,0.4559052224,0.456206962,0.3347979058,-0.0995049639,-0.4481219383,-0.303036988,-0.5751552569,-0.3742994371,0.405330236,0.0316773742,0.393936198,0.6265340707,0.078836171,0.6644324091,-0.2819432304,0.623735051,-0.9157892832,0.8955710526,0.9993312052,-0.2908249539,-0.6290555213,1.0022140782,-1.0346566535,-0.3823288359,0.4286718782,0.5110486751,0.1173490892,0.2642106446,0.9621740862,-0.8161657015,0.8550585401,-0.4691579037,-0.061782429,-0.1517226471,-0.6761234572,0.0193683233,-0.0353530085,-0.1303021995,0.9698683352,0.5110883666,0.9216303076,0.2510449548,0.0002994971,-0.5203184471,0.496481763,-0.278255216,-0.5151801948,-0.6660561102,-0.7267743904,-0.9715431568,0.4536915063,-0.8948353551,0.2681372314,0.2012090108,-0.7396040644,0.7967471406,-0.846305207,-0.598643847,-0.2613601953,0.4612036426,-0.9903183193,-0.2737007865,0.6331760355,-0.7683445671,0.7355261271,-0.5847033803,-0.157513564,0.1099304575,-0.1125437922,-0.6827316522,0.2608794681,0.6253389032,0.3289860094,0.4225516449,-0.7793177465,0.8251955561,0.738660683,0.711610811,-0.2979225651,-0.6859786424,0.9552001954,0.6676442309,-0.9208715968,0.6204562322,0.2461066155,-1.1494494837,-0.7093285272,-0.564384846,0.4668557401,-0.6110633519,-0.1139150338,0.2241700611,0.0657979643,0.9416536443,-0.0260367148,-0.9077689432,-0.6322525537,0.6557782432,-0.5323531445,0.7582043124,-0.7758823753,-0.1056304124,0.0993709274,-0.2901899396,0.464511787,-0.1014654933,0.130866121,-1.5044123502,0.0958859913,-0.190357466,0.6259639957,-0.8426023706,-0.5100578388,-0.7356225764,-0.8950748883,0.3693104618,0.2015024108,-0.2591439963,-0.4757655401,0.4932997314,0.4462470998,-0.4792109967,-0.0921929558,-0.3037108653,0.8609816063,0.907182744,0.2823585063,0.9453900317,-0.5191653178,0.6932193907,-0.6884490025,0.3806656405,1.1384763326,-0.1273482685,-0.4755528745,-0.3300865465,0.3033839964,-0.3899616442,-0.5510529589,-0.3794642582,-0.7850750497,-0.5267752682,0.0332637308,-0.6230607267,0.4989227403,0.9131386721,-0.0389723169,-0.2001502896,0.1778057479,0.759224527,-0.7673405343,0.989725654,0.2330871831,-0.8941554966,-0.3797403408,-0.2085480455,-0.2289655543,-0.6559586328,0.2387174573,-0.8694396676,-0.9749315108,-0.235876354,0.3206722096,-0.4568591632,0.6148973552,-0.0102873626,0.1891737797,0.4754720518,-0.8064901196,-0.7657863201,-0.8375885234,0.9463860569,-0.1567324623,0.5604728275,-0.5132704534,-0.6857478858,0.9425398325,0.4071100888,-0.5299115611,0.8087965645,-0.7227859236,-0.6314548421,0.5115826494,-0.3517573612,0.3370974489,-0.7506733985,-0.567244926,0.270682146,-0.6352656025,-0.3675488296,-0.0475940817,0.9908914433,-0.8559017271,-0.8365800921,-0.7337846765,0.7025776134,0.2647242937,-0.4344684035,0.8356365759,0.8915288954,0.2279880073,-0.5700661716,-0.9736706143,0.1559393938,-0.8576638025,-0.6602229413,-0.8760138643,-0.1237948041,-0.878087901,0.7139560344,-0.8002198761,0.612161007,0.946611846,0.1758981045,-0.4485575534,0.5085468702,-0.4405292093,0.5596953728,-0.2786903324,0.4597013218,0.6469195486,-0.838527564,-4.9163279008,0.8759161876,-1.4780665297,0.2949769188,1.276229515,1.0064063998,-0.218537915,-0.1013100235,0.8401098223,1.5279575268,0.4188754251,-0.8280710446,-0.4035662549,0.8719583531,0.4612255367,-0.156682538,0.5859368757,-2.145078984,1.0789874496,0.2303102283,0.1042587145,0.3047997636,-0.1970243767,-0.0783242725,-4.8835138107,1.587687252,1.5165048201,1.5316497134,1.6528106135,-0.3034905638,2.2414087084,-0.6522220677,1.1478950542,1.485591404,-0.8145053226,-1.266125411,2.2525682488,-0.6013742063,1.4737403737,0.5230742253,-0.3122755626,-0.5787482529,1.4868542005,0.9358149167,-0.8628019206,0.0291929621,-0.8416601663,-0.6085091722,0.4343189201,0.1759706119,-0.0348499922,1.533281675,-0.0339148391,0.6792907907,1.5315215681,1.3259667005,1.0129823843,-0.4048238708,0.3773917004,0.2985249365,-0.1834820689,0.9712188501,-1.0069885124,0.6561649996,0.4216725601,0.1714333118,-0.4242136774,1.0807626157,1.1975737137,-0.3958061828,1.4058914997,-0.0452323032,0.2056720364,1.0315004274,0.2531624095,1.8658403317,-0.0495069661,1.9786627954,0.0574211796,-0.133122372,0.6928671449,1.2634328872,-0.3925868722,0.0324661118,0.8087789259,0.2052429999,-1.4763288641,0.0791826795,0.6046897498,-0.930105842,-0.3120561639,-0.056044945,1.4446549733,1.0177543536,-0.5224255373,-0.1186998971,-0.1423017583,-0.3647922523,0.2599493477,0.3122601825,-0.127265317,-0.2460549305,0.4527630338,-0.5882509481,0.5711991837,-0.051419525,-0.0676239066,-0.2701459167,1.8059782067,0.2969920649,-0.1192172225,-0.2802448751,0.6162483635,0.831278875,0.0768978566,-0.2074379227,-0.3560358968,0.5717910855,1.9403560252,-0.6332041663,1.0355440345,0.214622716,0.4469702612,1.1138371231,1.439331163,0.6002346993,-0.1584788737,0.5877443358,1.5692856244,0.6012315999,1.0507552034,-0.0365593679,1.4556057231,-2.4423179252,-0.5613364482,0.5919943398,-0.3178604945,-1.1956531763,0.6266854378,-0.0690535911,-0.2230638138,0.6993438214,-0.0492227844,-0.5129887133,1.2941690996,1.2963347134,1.5572147206,-0.2557231602,0.6755857654,-0.4390602137,-0.2432120774,0.643879775,0.5843282421,0.3135423142,-0.3132039055,1.4121765716,0.0367499111,-0.543011674,0.0539802795,-0.4588845088,0.7991186488,0.9633526458,0.0734158434,0.3171397898,0.2572364298,0.1345124135,1.145376283,-0.9157728545,-2.262971817,2.4912460259,0.8844091771,0.6505659516,-0.8612586414,-0.1820521411,0.7511841686,0.1055655665,2.3327226112,-0.1859404958,-0.3972561923,0.7467272037,0.2007600613,-0.2629212299,0.412382243,-0.4064876642,0.8387273013,0.1063070574,2.6707789766,0.4556400342,-0.2450548764,-5.6049389845,-0.1582739427,1.6503266665,1.5099827776,-2.5013716583,1.342384552,0.1272024041,0.7713399998,0.6448252062,0.8620713996,0.1170634844,1.3562086534,-0.3700040841,0.9786861544,-0.2520543362,-0.6441870042,-1.2760697822,-1.4856251909,-0.9687023197,0.336432647,1.359076038,2.0677143392,0.7406416733,0.0843141705,0.1672383625,1.4748762908,0.4928404692,1.7958137767,-0.0337084924,1.2030449876,4.9530431297,0.7064377223,2.0153382216,-0.1749434976,0.6314834536,0.7961813522,0.8491782253,0.1173695122,0.7272312253,-0.5207547161,0.3848632509,0.219587617,0.5522654393,-0.0289123663,0.9417755691,1.5812205316,1.5409023886,-0.6198495518,1.6501663876,1.99183378,0.4126941118,0.5783265529,-0.0297466637,1.3334893239,-5.46286739,0.820793748,1.0119923133,0.9670140773,-0.2267739694,0.3460013295,0.2553369913,0.9310135864,0.8997651608,0.0933674351,-0.8667433579,-1.0842204663,2.1164158209,0.8362155882,1.3858499159,0.2053613701,0.1763613741,-0.3241798467,1.0042888799,-0.8019493729,0.3667781714,2.5390294924,-1.2907670479,1.1125480236,0.1773412619,0.3013933513,2.0870908747,0.2746198441,0.6386654426,0.2659511526,0.5588563309,0.2384164606,0.8765773504,-0.4284998043,0.6114024372,-0.517360888,1.5862466876,0.0056417988,0.2904858126,-0.7743943849,-1.1822548399,-2.3854915528,1.283928671,0.0831078301,-0.3896945407,-0.0023504877,0.9938151136,0.5148747642,-0.1614552316,0.3473183284,0.0237995485,0.7058768221,1.0203792264,1.0083213532,1.3178541995,0.2300606129,0.0203744466,0.7918832028,-0.3120372408,1.057721747,0.9003211047,-0.1198523813,0.020768913,0.3183110572,0.1636681379,-0.7515094351,0.0335892819,1.0496569256,-0.1363259684,0.5821992747,0.6932902984,0.2072117457,2.4218142515,1.197952352,0.0039808544,0.760759266,-1.6634567294,-0.5180416818,-0.5713209858,1.5644139928,0.3499709647,1.09931251,0.8454767869,-0.4339407144,-2.3874864487,0.1556241633,0.0338800734,-0.3035896677,0.3519212284,0.1395367042,0.7655520524,-0.2813142628,-0.2882426217,1.0323876764,0.5680017916,-0.6215377408,1.250584251,0.5782943753,-0.438478862,1.4861003363,0.3262191855,1.4001270736,0.7473078896,-0.0473854066,1.3592973545,0.6206690185,-0.0461833397,-1.5588166312,-0.2632290345,-0.0397842263,0.615452378,1.2755403157,0.8908017374,1.896310017,1.2192471242,1.0195086271,-0.1949467226,-0.4510798129,-0.7375422882,0.3568084408,-0.0686662616,-0.3455025623,0.3730403224,1.5092469763,0.7830661464,0.1797705282,-1.0842413735,1.0900570043,0.0939681005,-0.1173260631,-0.719107162,-0.7773329469,-0.6767817091,0.302027946,-0.6625453775,0.8628753686,-0.9965068035,-4.5999631116,-0.7239934393,-2.5061144409,0.2531940789,0.208879428,-0.0336690601,0.3509197029,-0.2498221514,-0.0222310549,-0.0072270777,-0.5281365501,0.1665680995,-0.7964751831,0.4540930905,-0.7486272733,0.6923361064,0.3989689518,0.2932756635,0.9317610434,-0.7764892547,-0.0818060917,-0.0726251024,0.6034686722,-0.0322996737,-1.4457005425,-0.2823193262,0.9159295793,0.3407100495,-0.2237772529,-0.814840596,0.8232313499,-0.1210860141,0.0652316036,0.4945310848,-0.8147833816,0.2450177759,0.453739404,-0.3171925813,0.8760689336,0.2638996904,-0.3309424686,-0.2894606308,-0.5294037096,-0.9355576853,-1.4032420893,1.0816572426,0.7020656169,0.9047913133,0.0439145209,1.1610231542,0.4674145717,0.9426954492,-0.7476666088,0.5993457281,0.2610443728,-0.7550695246,0.0890629254,0.0844478584,0.3748065057,0.0861069079,-0.0489179066,0.7279952471,-0.2518942775,0.7524868364,-0.6228521588,-0.6839946086,-0.6911839854,0.2566798158,-0.6188695549,0.9589776983,0.0003945232,-0.1728202641,-0.7804984195,0.8967956353,-0.1505910825,0.4544620287,0.8585595548,-0.6519193456,0.7419877113,-0.5692034268,0.4733963501,0.4510799089,0.737306376,-0.3432883883,0.8709937415,0.2639852154,-1.3617483065,-0.0875387358,-0.2613860282,-0.381689432,-0.1773860959,0.5003044634,1.1275961054,-0.4522084998,0.4516018521,-0.2669945966,-0.0884735949,-0.6047871173,-0.6896364055,-0.2656940474,0.1667993342,-0.4316229454,0.371429053,0.0962432785,-0.6965824066,0.5100099578,0.819164341,0.8219594749,0.9370819301,1.1025733457,0.8142953138,0.2043678488,-0.5580708839,1.0673641418,0.7731657119,0.0752482088,0.6487953722,-0.0037666698,0.718169462,0.1923564247,-0.2103338195,1.1486878028,-0.4275039718,-0.3847112386,-0.8072233114,-0.1145191629,-0.6471325991,0.9622881326,0.4698544111,-0.7028555317,1.0369305246,0.8578607279,0.7559576859,0.4346215658,0.0730382806,-0.4430772156,-0.8335009251,0.3513336832,0.5857846218,-0.5998126195,-0.0118547531,-0.2752370626,-0.4948468931,-0.825256131,-0.0225789068,0.8796288102,1.0971644827,1.0678873099,-0.603479061,-0.7221425526,-0.6105222587,1.0768849483,0.4155550054,0.5244933286,-0.3562411954,-0.3531268889,0.1515457076,-0.2259264551,-0.3419534069,0.1397559955,0.3661771645,-0.2569152808,-0.2085702165,0.6694034457,-0.2284712157,-0.3186543817,0.536828088,-1.4360624642,0.0538722168,0.719106409,0.4715934465,0.0488433414,0.934955661,-0.777869959,1.0080920711,-0.4813654526,0.9690025825,0.1957607589,0.8211124546,0.649653612,-0.4824227028,0.2563113989,0.2931794092,0.7479596636,0.266228463,-0.2712623749,0.1010198669,0.8312735503,-0.3091702672,-5.3729892454,0.1407635613,-0.8145731392,1.0787456547,-0.2309605277,0.9816102641,-0.176763927,0.9325956179,-0.9858595505,0.4707834111,-0.5032001931,1.0960566022,0.5951667397,-0.2544863792,0.3320071917,0.4398467196,-0.5596608946,-4.7316808054,-0.6483330866,0.0585711179,0.0782082255,0.255681427,0.8584336764,-0.1077272138,0.0114387639,0.8577915731,1.1327554393,-0.5854511867,0.7140966284,0.9953982637,0.7557088542,0.9206964899,-0.1388343775,0.8574219087,0.4557946773,0.3950543398,-0.5473012623,0.3129325019,0.2671012394,-0.4701807864,0.4291981249,-0.3766315322,0.9207850595,0.4286383503,0.8424158317,-0.0857811249,0.440754736,1.1567238301,-0.1531119804,-0.4734519965,0.4775785041,-0.5170045628,-0.5498636838,0.5453866826,-4.0609036675,-0.7923218959,-0.4499916254,-0.6564065793,-0.3642157658,0.4704021744,0.0969599835,-0.8223007384,-0.1570720593,-1.0858994687,0.1944838523,0.295584187,-0.3621939557,-0.6481085526,1.0323686868,-1.067834017,0.5524343593,-0.6855954221,0.7646260568,0.5430580219,0.5043055656,0.0537846478,-1.5435549468,-0.5196021944,0.4604990908,-0.4925451149,0.4888550335,0.4636311699,0.6397693839,0.1517129942,0.8608135395,-0.5607243303,-0.1672342029,0.5285729073,0.8284381578,-1.4768224327,0.7479754025,-0.7162228489,-0.3173706948,0.1654755373,-1.4959355201,-0.7294591549,0.4604933146,-0.6744470056,-0.2344317663,0.1824309913,-0.5580300451,0.5040476498,0.6435561012,1.0225494288,0.3996300006,-0.1220719887,1.1151516679,0.7069446722,0.670268456,0.5390630526,-0.7037643826,1.0127296414,-0.8405893225,-0.6637044633,0.394909626,1.0812792827,-0.6970380372,0.6415533959,-0.347972216,-0.7899305664,-0.27309489,0.9398162448,-0.032205508,0.2655066709,-0.7869933923,-0.7749891654,0.291778168,-0.3074077767,-0.1772832123,0.4024776131,-0.1486308743,-0.0637125645,-1.1378941492,1.1362359092,0.2234241363,0.6635936852,-0.6471297886,-0.110503634,-2.1689773568,1.0397856694,1.1104045602,0.6601348504,0.300894894,-0.0981699138,0.8232648063,-0.5690587204,0.6776986907,0.2160286654,0.1952036865,-0.3093366561,0.0740103633,0.5562556638,0.2442522392,0.7148241427,-0.0376844445,-0.3138487333,-0.3417864164,0.6519808737,0.9926649564,-0.4375154379,0.8594979916,-1.9366346379,0.2978005986,0.3314739272,-0.0613717203,-0.1629022605,-0.3927828659,0.7739029171,0.3985743528,-0.4260028635,0.9678224896,0.1476987081,-2.3510677211,0.8984116497,-0.1546162198,0.3545038668,-0.0847853733,0.6770253497,0.249363889,-1.3296089557,-0.1067390156,0.9244269863,-0.7270854385,-1.1545747327,0.8908869691,0.2440173,-0.8343345012,0.5137829774,-0.6899895205,-0.2482295323,0.5830464039,-1.1356455017,0.2352281277,-0.9290185085,0.4966700684,0.2407757739,0.2242367262,-0.5869555766,0.5245719591,0.4167051691,-0.5114752298,-0.3850654922,-1.0456497388,-0.4835888014,-0.1813962767,-0.5348226487,-0.6661443807,0.4455749902,-0.6407138023,-0.4631046129,-0.0167394749,0.9044396126,-0.7737594143,0.1546781766,-0.4563385824,-0.7773906757,-0.1784240241,0.771347605,-0.3572548563,0.4888514018,-0.5172185776,-0.8199799357,-1.0604703875,-0.6165646304,0.7610891509,-0.5542041732,-0.240835996,0.357092756,0.2035832648,0.0886937298,-1.0179383767,0.0375675229,-0.5679921612,-0.5611118985,0.854324471,0.1836238853,0.7134467743,0.1789577138,-0.692529108,-0.5536051258,0.028266774,0.7150613805,-0.6781546382,-0.497897865,-0.8476490352,-0.561247192,0.3681824013,0.361336638,-0.3021270033,0.327351193,-0.0684515408,-0.4922184892,-0.9597281745,0.61062483,-0.2116282395,0.5023204538,0.5397645814,-0.8194338224,-1.035208523,0.1269293382,0.7230788747,0.8949435624,-0.0707324596,-0.5646203066,0.3121814781,0.0013074412,-0.7321360263,-0.5144949039,-0.9634937197,0.8763345411,-0.5615766626,0.8626305291,0.846629066,0.3325629139,-0.8303762432,0.1045677624,0.9195342445,0.6070866333,-0.0530725287,0.6796451963,0.5284033451,0.1218340927,0.0551405214,-0.5588468799,0.1274645949,0.9625720858,0.3745917108,0.347059778,0.3082035981,0.0769140222,-0.4136377393,-0.2334730298,0.5883286472,0.5229114652,0.686846948,-0.0892156507,-0.2216186586,-1.0367495057,-0.8829824993,-0.5467789592,0.8481534443,0.1763544735,-0.7824971347,0.0722957055,-0.2368497115,0.5828193804,0.1712793204,-0.0251576595,0.8216834476,0.8194260888,-0.341940744,-0.8115382076,-0.1342814938,0.2175520359,-0.2157652035,-0.2086619572,-0.308601993,0.2436079294,-1.0292306026,0.267210984,0.0798139239,-0.9766715357,-0.085756536,-0.8652609166,0.2222403658,-0.7396981669,0.9503222876,0.4233152663,-0.7582166314,0.7291194395,-0.3469962426,0.3393428295,-1.004120582,-0.5179354524,-0.7457405273,0.6376090649,-0.5342179229,-0.9370464244,-0.2629095997,-0.2628784513,0.6800448337,0.8124562457,-1.0050576495,0.6920826652,0.2029374158,-0.0560577198,-0.8246507064,0.7170133403,-0.5203538419,0.7275286104,-0.2835987941,-0.9478692337,-0.9608758274,-0.0121277514,-0.8688369418,0.0473588215,0.3970261022,-0.2609722857,-0.0346429526,0.2526349609,-0.7166333862,-0.1216412555,-0.384730077,-0.0285621905,0.9343296877,-1.1061378671,-0.5674748494,-0.4331207649,0.2485085687,0.6246554328,0.8812995562,0.6516780805,-0.5574258469,-0.1215538607,0.8304954904,-0.3334756023,0.531969612,-0.3907431496,-0.030804162,0.2864603996,0.0167033793,0.0127831816,-0.8183006479,0.1572703965,0.8068206256,-0.4436615736,0.0914840409,-0.6900849067,0.3533672874,-0.7913822261,0.4070989999,0.2548792627,-0.5346512522,-0.3746687635,0.2284981169,0.4444251362,-0.8527606202,-0.1476932622,-0.5321131194,0.5138196456,-0.0713928226,-0.4493299747,-0.3373773604,0.5232046747,0.351554597,0.2875586255,0.9216829169,0.6713159747,-0.3685961918,-0.7648892868,-0.2039849457,-0.2914192329,-0.8009665472,0.5528965532,0.0827290273,-0.6521418176,-0.8719272182,0.659803542,-0.8563136786,0.1022249256,0.6254655361,0.2084037675,-0.9679807804,-0.8401998639,0.4315849327,0.5344739041,0.6852859113,0.1721287139,-0.5972801148,0.9686746881,0.2334986499,-0.4687429836,-0.5648588691,-0.0491021974,-0.2869646532,-0.4072850008,0.3521414653,0.2756926004,-0.5125966029,-0.604752088,0.1780670592,0.5436626663,0.5038974137,-0.7154738091,0.0230745479,-0.7339639866,-0.7166321921,-0.2191750634,0.9494190063,-0.37893417,0.3163221548,0.1854121205,0.6378999101,0.2188532553,0.8337718334,-0.2968002161,0.8586126801,-1.0252883542,-0.7227873374,0.2923010017,0.3906892448,0.0059557705,-0.3355750496,0.3343902862,0.359581437,0.9326398834,0.604027168,-0.6609025846,-0.4185743167,0.837598702,-0.6036970426,-0.1627026606,-0.0559341924,-0.1343449803,-0.886685839,-0.1332304508,0.3269805455,-0.3479535271,-0.5338899459,-0.7204632554,-0.6067689116,-0.2388454105,0.7229331783,-0.3892533424,-0.5496214238,-0.7067012324,-0.6471226054,-0.8216905562,-0.2766502833,0.8232052135,-0.4534903899,0.3782535709,-0.8293983464,-0.4910061682,-0.9311404884,0.7047747646,0.6416036129,-0.2349519003,-0.4011602106,-0.7931520305,-0.1798881181,0.6962448431,-0.3724076557,0.1125302878,-0.5256794448,-0.7271808435,-0.5079549919,0.6148015196,-0.4295982607,0.3075981658,0.8477391247,-0.0079581141,0.5169501019,-1.0207187467,-0.3047116992,-0.132770313,-0.8577537546,-0.215089732,0.7614729816,0.0100596226,-1.0159884247,-0.6120288013,-0.0252975318,0.2315359971,0.0398431745,0.0265322479,-0.2018469057,-0.7649921125,1.0034882399,-0.9159637943,-0.4227495188,-0.5783525547,-0.6094625749,0.5087438914,0.5202938257,0.0884520344,-0.8623278808,-0.6930126732,-0.6649717409,-0.0626908075,0.0969511829,0.3810518996,0.3135155213,-0.1606500306,-0.0986282351,0.0497076092,0.4248195248,-0.3662853218,-0.6941322201,-0.221456861,0.7816904639,-0.2106768053,-0.203994177,-0.6888823335,-0.5992411202,-0.3289017787,-1.0418878332,0.1088584125,0.8743004303,0.4260069936,0.4284109062,-0.5494593238,-0.8474360877,0.3897958585,-0.9482613732,-0.4914852977,-0.4448846714,-0.4628159706,-0.36897317,0.5593551449,0.4186413657,-1.724651191,1.1571794935,-1.1903506294,-0.9208138123,-0.5497228846,0.0929595331,0.0417620012,-0.1329455002,0.2708386789,-0.8214513319,0.1784756112,-0.0307793606,-0.607342601,1.0566447699,-0.0501023881,0.0574275138,0.6547719373,-0.6142151616,0.615356902,-0.2539428698,0.9123994502,-0.161566679,-0.1536702792,0.7562728076,-1.8618952193,-0.1136359624,0.7489000378,-0.3836726672,0.6999729214,-0.0814470535,-0.0970033926,0.2634273406,-0.760278235,0.2084237591,0.685432281,-0.8648610031,-0.5023723284,0.6354949859,-0.701659328,-0.0192034767,-0.7483878754,-0.2206260288,1.0421491015,0.4092330979,0.736854312,1.0211810979,-1.0837303729,0.4925468037,0.2394413634,-0.326611557,0.9345819673,-0.7728638,0.0429699697,-0.1341968946,0.8967383883,-0.5198310153,-0.053917282,0.0057382116,-0.1413540401,0.2388825435,0.8445318875,-0.1175143978,0.1715346973,0.8819254846,-0.9459632673,0.971952102,-0.2584573951,0.9661773361,0.6548273851,-0.2603272841,0.2850822881,0.7001015066,-0.0547382844,0.2481989552,1.0920420523,-0.5904737334,-0.5912525251,0.1556352692,0.3421344532,-0.6465982226,1.0866016264,0.5155837372,-0.301154218,0.0964936219,-0.3792340957,0.237068809,-0.7952590445,-0.4996542224,-0.6337418007,0.4830284055,-0.2392687151,-0.386778701,0.00187303,0.5037223434,0.3456891074,0.7112603871,-0.630906321,0.206511143,-0.6824094105,0.7065133421,0.6268328788,0.0000749081,0.9660800298,-0.3631535651,-0.4961188974,0.2741726708,0.2719421694,0.4829840068,0.9440148058,0.7386297756,0.7909132127,-0.5493950882,-0.2494409468,0.5074538152,0.9636194352,0.9447182151,0.8389109313,0.3471484602,0.0442142505,0.2369684467,-0.4855630923,-0.1249149256,-0.4703109909,0.5415468572,0.2255596252,-0.122249424,-0.4727197602,-0.7127046993,-0.3531622454,-0.93710876,0.0027341642,-0.3774919705,-0.5851311799,-0.1959878902,-0.4829329183,-0.565313992,-0.0637837289,-0.002428607,0.1030721772,-0.8166409285,-0.1562335249,0.6477051958,0.1403719765,0.8300215017,0.3145642831,-0.347933367,-0.4341002135,-0.1719073391,-0.5042133542,-0.9378922042,-0.4976378899,0.2951955911,0.775632694,0.9009235355,0.5497234253,1.0797735784,0.7623184676,-0.2213170415,-0.4247980825,0.6491458886,1.159994797,1.2150782924,0.2280095715,0.9712321247,0.9995028979,-0.4024782183,0.9300429972,-0.0529154089,-0.9336668234,0.2059413349,1.1472937876,0.3435264659,-0.2117590995,0.8731076028,-0.4060300826,-0.618382113,-0.0905332092,0.4097142061,-0.0802443323,-0.0845289671,0.2387532751,-0.7581425567,0.5940397894,0.7974409221,0.8916553452,-0.7757235176,-0.613406962,0.5214890656,0.4650327711,-0.6282482904,-0.5848121609,-0.7702313881,-0.6983424581,-0.4561042897,-0.6706311362,0.7798478708,-0.5983693331,-0.6571469542,-0.5115921676,-0.5871461357,0.7709965894,0.6264004479,-0.5227035127,-0.5782394528,-0.5759119443,-0.4572742159,-0.8708934016,0.0628089986,-0.3497990648,-0.093659008,1.1576057134,-0.5010255285,0.6230915514,0.6037975494,0.573019126,-0.3492654917,0.6926356226,0.6053256002,0.3588526433,0.9936329651,-0.0622566042,-0.4823315296,0.3847225511,-0.0269910785,-0.3814248879,0.2988509829,0.3753108094,0.4363837654,-0.6498452949,-0.2542970787,-0.8615411945,0.8134561669,0.3784678762,-0.0926083303,-0.08459297,0.8433401224,-0.4203671248,0.6760505803,0.5781142116,0.2541342878,0.9580961653,-0.6108840247,0.6522183417,-1.6996045784,0.8642905941,-0.5456461129,0.5458709917,0.27451969,-0.6888822549,0.4186675638,-0.7650067322,-0.3823244157,0.2478518476,0.1859152881,-1.7694634752,0.0891931028,0.2233941047,0.2399450225,0.2011194599,0.574134243,1.043291471,0.0204649735,0.0527900018,0.1023022274,0.7666555351,-0.8167257517,0.7225208147,0.4112046504,0.8269327861,-0.7922290446,-0.199206751,-0.3251344233,0.6034856403,1.0920482059,0.9941353094,0.0156541157,-0.6968239742,0.4888898546,0.7367155722,0.9301649405,-0.7182260916,-0.0458726163,0.9958290316,0.1091011651,-0.8737389885,0.8268064402,0.7405712081,0.7480025859,1.1009588312,0.0193989443,1.1405647505,-0.4988645658,0.2528973105,-0.6586600815,-0.6883810572,-0.1971877017,0.3644648205,0.8082397005,0.343827423,0.2122419264,-0.4016289743,0.0889689246,0.0976837393,0.4554586398,0.5891015103,-0.5071380357,-0.3568010929,0.7303627351,-0.7040491667,-0.1375267538,-0.6683465865,-0.4929590269,0.703911459,-0.3674550486,0.0302477395,0.7289022926,0.4492631894,-0.1623371368,0.4780775188,-0.4300798822,-0.705410851,-0.7645844725,-0.7427895041,-0.3268842061,0.0493585867,-0.8057450383,-0.1106488801,0.3220418574,1.0472421777,0.6907607151,0.7214506899,-0.8298681595,-0.9995131023,-0.7162321585,-0.4371143051,0.2751300127,0.7298940777,-0.7590887039,0.3059027129,0.6050028351,0.1642463665,-0.5282393419,-0.1185783964,-0.2171140729,0.668464231,-0.7842461176,-0.949833654,-0.8213104543,-0.3262150536,0.252415709,0.0840472297,0.813219962,0.5674727829,1.1378244055,1.1157885329,1.0990151594,0.0858738208,-0.7000476021,-0.2828933898,0.1527984671,-0.7616314414,-0.9684222394,0.8593259037,0.3459531324,-0.7345405815,0.4349690574,-0.1586115408,0.9661027221,0.6597546195,0.9274379996,-0.2609907225,-0.5417314922,-0.4415801136,0.5972448112,-0.627503569,-0.2558625952,-0.2281449943,-0.0859180603,-0.0681604703,0.139446388,-5.0617418039,1.7444261515,-1.2185114879,0.06888228,1.1715379235,0.5008718467,-0.9014485901,0.0030808449,-0.8559128034,1.132623383,-0.4390428226,-1.2327134225,1.4875996446,0.2619249817,-0.0334119642,-0.1691418945,0.41974758,0.7820257392,0.3587830317,-0.2560737177,-1.0655913441,-0.586528899,-0.0800593462,-0.275184071,-0.6092905974,1.2946156977,2.0090851635,-0.0597755405,1.2176119037,0.1478303524,1.987701381,-1.2345016604,-0.2892057075,2.7007596154,-0.299665585,-0.9203902413,2.1615090143,-0.0676142825,1.6486176984,-0.854774694,2.5983897718,-0.6653973613,0.2228361608,-0.5730478746,0.4117957052,-0.3310000443,-0.2002960097,-0.5290430025,2.5306043598,1.1617752627,0.2362707467,1.0434289691,0.9067639508,1.2239310344,2.6648330386,2.1232160397,2.1396162536,-0.658686012,0.3712318545,1.9525552032,2.1856519476,0.332727685,-0.9675561999,-0.0208038544,0.5443109639,2.4186788567,-0.4171443297,-0.0859371344,1.1047157174,0.9336509621,1.515194705,0.30554647,1.6111252692,0.0842242515,1.4648656723,1.8959370583,0.302636905,2.3423801517,-0.4566945274,1.1758676027,-0.1004664682,1.5090312541,-0.2353711229,1.0236471153,0.9410700909,0.7169920935,-0.0716616783,0.6963443771,0.1863645031,0.0641807345,1.5153686954,-0.9500869594,0.686466872,0.924039641,0.0425869311,-0.0837914811,-0.2033314969,0.8151178768,-0.1552165702,0.7268712959,0.5059668858,0.3857997808,1.2687870464,0.4249620522,1.4987093625,0.5692326008,-0.3436469156,1.7834113548,0.8296230464,1.1933357057,2.0416133875,-0.2096200843,2.269314233,2.6133256373,2.5428105084,0.8076180805,1.6722076644,0.0894997956,0.6753447572,-1.5954915496,-0.2374612206,0.7326601536,2.037546475,-0.3201964606,-0.3500969434,-0.4752391371,1.3887676843,0.8843341798,0.5207617655,-0.9870498814,0.5524071342,0.029017505,1.3068734506,0.1439040616,-0.6381192258,-0.2158868489,1.7715638597,-0.0949602341,-0.2329082377,-0.7106359391,1.4911412455,0.8298098578,-0.3442869778,0.9826422706,0.4130461838,0.8734228515,1.305376549,1.8448531744,0.4096976031,0.4489708592,0.4784515121,1.2911910078,-0.6901121393,-0.0532296459,1.2475733413,0.6235305077,0.0530916978,0.2669111831,0.7119289673,0.6540857101,1.6484311534,2.6139409606,0.7264586905,-0.4566331019,-0.2542022456,-0.4968505956,0.0455470766,0.1381197459,0.0970787005,1.4841037447,0.6979798121,0.694330937,-0.3478673829,-0.1653483196,2.6589012375,-0.5031274592,2.4255116402,-1.1230815823,-0.1273011551,-0.2809128511,0.2268367573,0.4075889988,0.0142837962,-1.1208866927,0.8280942092,0.345778833,1.2810370718,1.8708031996,1.2801805305,-2.2768241425,0.4103907363,0.5937018165,1.4422531086,0.8211567455,-0.249795871,0.9386719587,-0.1954144544,-0.4873573364,0.5980600485,0.4790446197,-0.46562184,2.40713378,-1.1518681668,0.880625394,0.2405994316,0.6987588562
