encog,BasicNetwork,java,3.3.0,1,1576422360691
[BASIC]
[BASIC:PARAMS]
[BASIC:NETWORK]
beginTraining=0
connectionLimit=0
contextTargetOffset=0,0,0,0
contextTargetSize=0,0,0,0
endTraining=3
hasContext=f
inputCount=379
layerCounts=4,16,64,380
layerFeedCounts=4,15,63,379
layerContextCount=0,0,0,0
layerIndex=0,4,20,84
output=0,0,0,0,0,0,0,0,0,0,0,0,0,0,0,0,0,0,0,1,0,0,0,0,0,0,0,0,0,0,0,0,0,0,0,0,0,0,0,0,0,0,0,0,0,0,0,0,0,0,0,0,0,0,0,0,0,0,0,0,0,0,0,0,0,0,0,0,0,0,0,0,0,0,0,0,0,0,0,0,0,0,0,1,0,0,0,0,0,0,0,0,0,0,0,0,0,0,0,0,0,0,0,0,0,0,0,0,0,0,0,0,0,0,0,0,0,0,0,0,0,0,0,0,0,0,0,0,0,0,0,0,0,0,0,0,0,0,0,0,0,0,0,0,0,0,0,0,0,0,0,0,0,0,0,0,0,0,0,0,0,0,0,0,0,0,0,0,0,0,0,0,0,0,0,0,0,0,0,0,0,0,0,0,0,0,0,0,0,0,0,0,0,0,0,0,0,0,0,0,0,0,0,0,0,0,0,0,0,0,0,0,0,0,0,0,0,0,0,0,0,0,0,0,0,0,0,0,0,0,0,0,0,0,0,0,0,0,0,0,0,0,0,0,0,0,0,0,0,0,0,0,0,0,0,0,0,0,0,0,0,0,0,0,0,0,0,0,0,0,0,0,0,0,0,0,0,0,0,0,0,0,0,0,0,0,0,0,0,0,0,0,0,0,0,0,0,0,0,0,0,0,0,0,0,0,0,0,0,0,0,0,0,0,0,0,0,0,0,0,0,0,0,0,0,0,0,0,0,0,0,0,0,0,0,0,0,0,0,0,0,0,0,0,0,0,0,0,0,0,0,0,0,0,0,0,0,0,0,0,0,0,0,0,0,0,0,0,0,0,0,0,0,0,0,0,0,0,0,0,0,0,0,0,0,0,0,0,0,0,0,0,0,0,0,0,0,0,0,0,0,0,0,0,0,0,0,0,0,0,0,0,0,0,0,0,0,0,0,0,0,0,0,0,0,0,0,0,0,0,0,0,0,0,0,0,0,0,0,0,0,0,0,0,0,0,0,0,0,0,0,0,0,0,0,0,0,0,0,0,0,0,0,1
outputCount=4
weightIndex=0,64,1024,24964
weights=##0
##double#24964
   -0.3406932642,-0.8877708759,-0.2468085759,3.1498225533,1.3826887617,0.5137003625,-1.2346073853,0.5724869728,-0.6323654178,-0.9549169551,0.2276582955,3.7370147779,-0.8391887754,0.7094448491,-0.5370670315,0.0104348024,0.3090688786,0.5100296486,0.6314451027,-1.635004159,-1.3793251634,-0.7388751777,1.3832233096,0.4178701362,0.1623614308,1.648094426,-1.0620723376,-1.3096594765,0.9627357797,0.070368076,-0.8927581259,-0.7966546482,-0.17457777,-3.804852736,-0.6075085689,-3.7148907553,-4.1659202473,-0.6494500271,-1.1915976466,-1.1552759924,-0.4544200079,-0.7251607003,-3.7373308116,-1.7413698257,-2.7994783248,-0.0107233106,1.0114382343,-0.0219219032,-0.9791709611,-1.3016786659,-0.4006543234,-2.2966433935,-3.3710002173,-1.4175447267,-3.432654131,1.2369102378,-0.5447778666,-0.3653632804,-0.8060463889,-0.9544359126,-2.485046322,-1.1126444819,-0.3913719265,0.4827910629,0.6057706063,-0.635902241,-1.9632171061,-1.0702484012,-1.3671963173,0.6344032616,0.1054949145,1.8135434725,0.3178217446,-1.7414088895,-0.1382766275,0.543686689,1.1120222191,0.0212729306,-0.6567764597,-1.642865001,-1.3411253465,3.947869991,-1.7432879463,-0.8606624583,0.639958057,-0.5230892529,0.2985561486,-0.6219513022,-1.5721588957,-0.3687872571,-2.0340384966,2.492079972,0.2283247027,-0.4949521261,-0.5786624553,-0.07052096,0.6370787826,1.0049782721,4.0510246038,1.5927444782,2.0768969677,0.7039835893,-0.8771182142,1.2214602232,1.5669235989,0.8479646028,0.09854087,0.7062400567,0.591624865,0.7458375374,0.5981589255,0.6990935344,-1.5135438935,1.0709830097,-0.6903559714,-1.5782592186,1.7849385761,0.1208630234,4.145513084,-1.6511462134,-1.335358007,-1.3090594044,-1.8563143542,-1.8960702082,-1.5497825429,-0.4126756077,-0.2135851727,-0.6282151601,-0.5113471381,-0.1631189251,0.3592314172,0.6243398933,-0.1668404062,0.8826193797,0.8697867272,-0.0753154417,-1.0299754647,-0.1779566089,-0.7025674872,-0.3588886645,0.1485189513,0.3557732603,0.6747350589,-0.2636938932,0.2604485933,0.5682131617,0.5628257305,-0.4790396106,-0.9475814801,-0.385443351,0.4665310654,0.626978616,-1.013773739,0.1811928969,-1.2085037499,0.6384643863,0.5209208352,-0.2603249911,0.5345389924,-0.4870134233,-0.9382172557,0.4278518475,-0.5654512237,-0.1727343968,0.0055760986,-0.6054800977,-0.4075588301,-0.1686014965,0.9577533241,-0.4430965624,-0.1482967495,-0.8726188837,0.244074013,-0.806089714,-0.5743622023,-0.8428954843,-1.0314688797,-0.6393234275,-0.3524096276,0.8156113352,1.1654867393,-0.9604311539,-0.713311902,-0.8378654592,-1.168025631,-1.1563406784,0.319135287,0.3477894573,0.3462470437,0.7236231909,-0.5110790513,-0.3506641109,-1.3017507124,0.1829354548,-1.810485362,-0.5982255711,-0.5124298399,0.7056162841,0.5890828487,0.2077539314,0.1789699234,-1.4360798594,-0.0683895843,0.7546898461,-0.4840421019,-0.0869407179,-3.3540808352,-1.7056598896,-1.4698350554,0.8093869209,-4.0199813005,-2.4174523907,-1.1432048323,0.4153605603,-0.396390188,-3.2860295678,-3.8833971515,-0.15099867,-2.2713839071,0.3788481412,0.4061534503,-3.0541215268,-1.3775728517,0.2742519961,0.0512266324,0.8339366739,0.5131953696,-0.3656214164,-0.453700843,1.0840560192,-1.4937161839,-0.1804466531,1.0741296399,-0.4535005279,-0.0638174508,-1.0041934195,-0.7787678786,0.8282395309,-0.1479484353,0.2446407835,-1.347908154,0.1778628963,0.0668015179,-0.685912716,-0.0344938696,-1.1983872384,-0.4835019903,-3.1231774462,-1.4140398289,-4.0225255509,-1.7428899222,-3.4445804873,-2.4321003437,0.6656782117,0.1735451758,0.7393612827,0.0139404613,-0.6102778627,0.3564657065,0.7422064352,0.9618068086,-1.593822016,0.8225558974,-0.9311520812,0.707202851,0.5082620118,-0.4345518757,-1.086030799,-0.7903423237,-1.1353378659,1.3540383725,-0.7429353702,1.5955525357,-0.3973118596,1.3713189751,1.7051089756,-0.1204636379,-1.4510719738,-0.224218907,1.9584228677,1.2225451682,-0.2457054218,0.9921885108,-1.5235506189,0.7296955679,0.7716270398,1.0783991765,-0.6587422848,-0.8152526068,-2.4152721835,-0.1403913402,-0.9207195273,-0.153801192,-1.0816920064,1.2190566194,-0.1402429463,-1.6220402216,-0.9648561547,-0.0137147938,-0.7999678047,0.6350925339,-0.5608992367,-0.9112820936,-0.4698090463,1.8105820644,0.6103762024,-0.7088193978,1.2383235329,-0.7140036747,0.1912557303,-2.2955309788,0.3533781874,0.3693299631,1.1742026324,-0.0530233538,0.6353212124,1.4955225756,-0.569651496,-0.8185923805,0.7395401462,0.0131412493,-0.3410056315,2.6680086805,3.8036908853,0.8487606741,-0.4885915759,-0.6031020722,-1.0823488728,0.4373440371,2.6363222231,0.833646097,0.0900052125,-0.5935306915,-0.7837834828,3.7614341752,-0.3344506294,1.8570206903,0.2792982399,2.8121959227,3.9124896329,-1.117598261,-1.22672761,0.0656584866,2.6869781061,3.5256361727,1.1470730465,0.4527018505,-1.1655429997,0.5642818091,1.3320672104,3.9231955992,-0.1716569526,-1.5858190968,0.0216270585,0.2902584965,-1.0789978727,-0.2657473047,-0.85013943,3.5262404173,-0.0553308535,-1.3822167959,-0.8444472498,0.2602614599,-1.062160789,-0.5939052368,0.2559573834,0.3123392013,-0.2321819705,0.9631666847,-0.6639575657,0.8892738654,0.1596800021,-1.1328167213,0.3310657955,-0.9988009319,-0.6020511359,0.5146739846,3.890467728,0.6621466666,2.8473043422,2.5375856663,0.1037640146,-0.7365842753,-0.6781553317,-0.2425023502,-0.3445921048,3.2258492977,3.7954966667,3.7843897095,0.3307631969,-0.2699142904,-1.0717614369,0.6158645228,1.1434593035,-0.7099706101,-0.0566518276,-0.7156746411,-0.9894844682,2.7360456225,-0.0907028946,2.4151190112,-1.0329144667,2.438317837,3.9873543705,0.2837567477,0.3683047505,-0.7796839884,2.4447036019,3.9424102755,0.3143367908,-0.1673845067,-0.8114513737,0.9105558144,-0.0072290099,0.4342973621,-0.5942215155,0.0185319713,-0.74845464,0.5748657318,0.5633395938,0.8404653383,-0.9187237403,2.5872133215,-0.5046520863,0.0351655463,-0.2997969448,0.4810348843,0.1191398617,-0.9770043998,-0.1579762021,0.4494625168,1.1349074265,3.0696272734,0.5576598433,0.127272434,0.932000029,-0.3068306647,-0.0054347853,-0.2539681524,-0.463037194,1.0906738835,2.424013328,1.2905714802,4.0553563795,3.4135459487,0.2320225415,-0.3889795154,0.4765591061,0.5926857129,-0.5843279132,-3.0020157628,-0.1235680411,-1.2010312742,0.6931172181,-0.4535210371,0.4493381418,-0.5313410612,0.3921718018,-0.2934184615,0.6742228565,-0.8528255818,-0.0025924906,-3.7431149157,-1.2936016618,-1.9725084551,0.5216998723,-3.3803362462,-3.127872606,-0.8792379679,-0.8451527223,-0.6526498971,-3.6818385654,-3.8840381678,0.2444599824,-1.006745815,-0.1018962002,0.3134022495,0.731612526,-0.7197628809,0.4863501285,-0.1523790075,0.8692622298,0.5339562138,0.8227933207,1.0906937229,-0.2511674332,-2.9632575034,0.7318925555,0.5807112324,-0.5430207685,0.739262724,0.022930628,-0.2755835597,-0.1212911373,0.4619832223,0.2674725999,-3.9638874271,-0.8602244877,-0.7783436617,-1.5507189656,0.89318742,-0.808403232,1.0338947676,-0.4416397835,0.1358961188,-2.8693348015,-0.5047234902,-3.5429594026,-4.1764087601,-0.7728387483,0.2720468489,0.3672629148,0.7223983293,0.3059339668,0.5424922212,-0.9337242377,0.2924414254,-0.8622070125,0.6830433676,0.6091658894,0.6885105735,-0.6771045074,0.614395095,-0.6669518566,0.3265115079,0.3355502335,0.4613926502,-0.2907116211,0.6396672827,-0.1152538859,0.3624219318,-0.5752111718,-0.2389658367,-1.0555250398,0.4638828395,-0.4662855546,-0.4575781396,0.7448879485,0.2706186876,-0.5758984747,0.5171984518,0.9819260384,-0.5183078556,0.7937062703,0.5186832316,0.8835858605,-0.0028424368,-1.0968216315,-0.6844961696,0.118941698,0.6307509461,-1.0221351198,-0.8267773021,-0.8410148707,0.0835894856,-0.4754675221,-0.8625249388,-0.8670604055,0.3582305854,0.5576311819,-0.0571393651,0.1391168667,0.3910010983,-0.6151422985,0.3826620801,0.07421435,-0.5119732753,0.2846300377,-1.259450289,0.760832545,0.4426234768,-0.3133846097,-0.3091216247,0.357403756,0.616480909,0.3586668083,-0.2071767262,0.6139702578,-0.7404752115,-0.7629528005,-1.1587800045,0.5588819257,0.4295312745,-0.5745035997,-0.3359712477,-0.6101746095,0.545060983,-0.1755363866,-0.457782362,0.1997438718,-1.1834543954,-0.811981954,-1.1739106485,0.7394926517,-0.4308614486,-0.3186372015,0.1249049215,0.6321136458,0.9179315243,-1.8409361649,-1.4275574144,-0.881006508,-0.6238309045,-0.1083560913,-0.6553438043,-0.4824189924,0.6425332588,-0.3841177999,0.345860476,0.2042633606,0.2159845653,0.4300833201,0.2952188224,0.1989674058,-0.8346061895,0.0106671103,0.6158739167,-0.2753208482,-0.3018414833,0.0403871078,0.9344472264,-0.0912137834,-0.5490194692,0.1535977935,-1.2308053595,0.7579592062,-0.8323376417,0.2163030289,-0.7018247397,-0.7639280601,0.7364170257,-0.3369806015,-1.0401291383,-0.9916654919,0.0842903177,-1.2088330695,0.1164312324,0.2537691806,-0.122275811,0.7056722484,-0.5349658891,-0.6009661344,-3.1020451136,-3.4092964861,-2.8539152967,-0.4118632236,0.0487367985,-0.0038980518,-0.1301253618,-2.1005373471,-0.9309288117,0.5898700804,0.4854714058,0.2681039512,-2.4381197174,-3.5924470474,-2.6818632421,0.1565364289,-3.0096268001,-3.2834362164,-0.8235503373,-0.5446858898,-0.3261684922,-3.9250977985,-3.4037280285,-0.4098051673,0.1705233311,0.7011082117,-0.6976849469,-0.296379891,-0.7801390034,0.0246366786,1.0307683678,0.2858580633,0.2023216898,-0.6625252331,0.8152473245,-0.3287442244,-3.8749098229,-0.3386954862,0.5961671837,1.1193190755,0.9158145954,-0.6134814777,-0.5191046186,0.5635718739,-0.827345362,0.0287673755,-4.1623586795,0.3809591184,0.1977560386,-1.5113967317,-0.1815922528,-0.0553894508,0.6268832348,-0.7930667346,-1.9422961745,-4.0908692053,-0.5995852472,-3.8517146,-2.6025237845,0.6283047964,0.6334618973,0.2989803564,-0.7243160068,-0.619933008,2.788792745,-0.6074196773,0.4941838245,0.3665347405,0.8058161173,-0.0161083001,-0.6249213314,0.7340042315,0.8426181761,0.9053279775,-0.3172517242,0.1044202826,3.7577919741,-0.7683588852,3.1624718389,0.8817361579,3.3077991439,4.0539250339,-0.8803203145,-0.9374767614,0.4278989103,3.2363780658,3.1548906682,-0.0351558759,-0.5004330281,-0.4248002801,0.7907872757,0.5948553156,0.99502958,0.7637121153,-0.8021543976,-0.9574884547,-0.8850240548,-0.521277625,-0.7932683708,-0.3156595906,3.9156037641,0.7339056041,-0.765348341,-0.1548268845,-0.4221692173,-0.1115461141,0.2522424434,0.3130759452,-0.8662933584,0.4653244112,3.9840902853,0.695354565,0.5651895265,1.5640832222,-0.6611153291,-0.500304922,-0.5305984229,-0.2296189183,-0.4136659057,2.9486032286,0.640845983,4.1199537192,3.0203836785,0.3755688557,0.2362032597,-0.715121774,0.6828273648,-0.2146069178,3.9679716076,3.9830103286,2.995013254,0.0722601925,0.2537819231,-1.4159410461,-0.7636638515,1.149351372,0.6037989068,0.5876668242,0.0155083282,-0.3545038319,3.3620961605,0.8822147601,1.1855268782,0.6334541451,0.4082098555,2.9653484629,0.8202483556,-0.1989676288,-0.0700155265,3.9910816152,3.9126048774,-0.5001619947,-0.6051016949,-0.66274736,-0.2061194884,-0.1402860686,3.6094850715,-0.6373275393,-0.4020797594,-0.7294641214,-0.9399689921,-0.7123140884,0.6441594523,-0.3581930857,2.7283419448,0.177145944,-2.3525350228,0.7655020942,0.2346353817,0.3508907149,-0.0082507171,-0.7528157928,0.5351900697,-0.3346191984,1.1870792467,0.487021553,1.0665459474,1.4787275565,-0.788525396,-0.7276581152,-2.5147092764,-0.2012200678,-0.0900512278,2.7324072734,1.1218847897,3.7868579428,3.8623223365,-0.3418870968,0.3848742718,-0.7375367979,-0.7825906839,-0.4016984614,-2.4934162931,-2.3003946842,-3.9328103043,-0.8902380296,0.5516987665,0.356800227,-0.0058498885,-1.0116525352,0.2120341844,-0.8008865785,0.5821703515,-0.9993917928,-2.8693709464,-3.0920151676,-3.1556613525,0.2965481325,-3.9828626257,-2.8260855808,0.7813802177,0.2803757088,0.769646955,-2.3127618908,-2.7426717367,0.8535428598,0.2685715165,0.3785919817,-0.3037141816,0.1856780432,-3.9231449474,-0.6153304539,-0.3597678352,-0.7973379267,0.7640892425,-0.3742969882,1.0999630516,0.5299049829,-2.3628180303,-0.03904946,0.6512222329,-0.5680489231,0.0569791916,0.3171676712,-0.5764232665,-0.4082944304,0.1895146325,-0.5799037077,-3.3662039736,-0.8973183189,0.318289391,-0.5703623641,-0.7053561875,-0.9142803241,-0.3856828646,-0.990117343,-1.6225755978,-3.3752893169,-2.4624194052,-2.8983354312,-2.2599652667,0.4513976979,0.3456374028,-0.8013906071,0.9934708309,0.9451822624,1.5613973221,1.0605402264,0.8504768041,-0.6600878571,0.284068613,-0.7811608537,-0.506011307,-0.5708273675,0.2640176362,-0.3004903495,-0.6862486435,0.2443311416,1.6201595374,-0.6519183725,1.9918560597,-0.1782143849,1.6231552796,1.2107221094,0.8668862419,0.6215947786,0.9097623997,1.3777362696,0.6614099349,-0.3954359482,-0.3041169765,-0.5105367806,0.8512414917,0.9550914658,-0.3351807715,0.9057814208,0.8455371476,0.5074662478,-0.036080505,-0.1707641082,0.6361894028,-0.6409011611,0.2530424277,0.3598633652,-0.5382732712,-0.6916598522,0.1641389683,-1.0452581797,-0.2182946276,0.8209199184,0.1644886638,0.0134810834,1.9962104051,0.782156522,-0.7200834108,1.7633832894,0.2775180921,0.4617415909,-1.227520608,0.5615279768,-0.1151514306,1.1800463526,1.0608181145,0.57683179,0.3457790644,0.9666364847,0.8635250695,-0.0064421025,0.7852782598,-0.4737689541,0.8721088733,0.0753549696,1.5219444028,-0.7091984527,-0.9997252509,-0.4537064657,0.2597428825,0.9404400159,0.5100284566,-0.4409348931,-0.0338042439,0.1839908187,0.3065897829,0.8169495636,1.3298715937,-0.8083203883,0.1008839672,1.11826551,0.4882421463,0.9249179779,0.9496242138,0.2735023494,0.871442278,-0.9104888205,-0.2285978223,-0.2735298448,0.7896097821,-0.9056787888,0.035293302,0.2463512639,-0.967667519,0.0518587917,-0.2296106036,-0.3040415038,-0.3801205498,0.8498164059,1.374678531,0.2762611209,-0.4078410407,-0.3190622576,-0.5735345015,1.2953655198,0.126606921,0.6796128366,-0.3459189935,0.2687367215,0.5781988318,-0.3399990404,0.6656988092,0.6978408822,-0.3775745641,0.9188711673,0.4429917308,0.1704461382,1.2216875254,0.4157426549,-0.1182401364,0.5641950004,1.8777600516,0.2114263515,0.3671360395,0.0602541158,-0.487374138,0.9673493335,-0.0647716658,-1.107128962,0.5136421624,-0.5106508218,-0.9245534192,-0.069921514,-0.5615061879,-0.7405900319,1.2095181972,0.0077633262,-0.1672357953,-0.0468632617,-0.2468122347,2.2641655928,0.590246456,0.8212868369,0.6029285736,1.9293164037,0.2746884497,1.6237226459,-0.0093629009,0.4293956476,-0.276284637,-0.9371722462,0.0310847783,-0.7704167454,-0.5684000456,-0.4705103634,0.1241869566,0.1256806202,0.1868582449,3.2631858968,-0.0151991331,0.5976094974,-0.4877078043,-0.7259413026,-0.7324247316,0.2964366518,-0.6438908129,-0.6022862736,0.1816407644,-0.4870735395,-0.5079299474,0.6877868218,0.5723315457,-0.273182072,0.9093521999,-0.3526356415,0.2111450767,0.2748179317,-0.0268054935,-0.432096579,-0.2655575435,-0.2398868051,0.3165118826,1.9481790543,2.14456088,-0.6405732518,-1.1244102842,0.3635534747,0.4629887789,0.7240574227,0.1721087668,3.0134351803,-0.6222110854,1.8508874112,0.1440678452,0.7661549674,0.8801582905,-0.6511930175,0.1142822151,-0.8268089338,0.4751676156,0.6613025535,-0.3848406678,-0.2840897403,-1.0036741935,1.1280618018,-0.4366070452,0.2534753933,-0.008619885,0.5091767601,1.5308867459,0.2437822304,3.5512114186,0.3483868382,0.7594917948,-1.0441010133,-0.8135904857,0.6250793562,0.6084066573,1.1253007754,2.1460190197,0.8222684881,0.3187884199,-0.5167693733,0.3466255941,2.4677004573,-0.0273081654,-0.9482571159,0.1986360975,0.7164299381,0.4020384413,1.3001164903,-0.8217400894,-0.0915742151,0.2932509748,0.5468428165,-0.8523063468,0.2986740028,0.1696043398,-0.0056360373,-0.4566215079,-0.9907567698,0.6709799633,-0.5789694733,0.4004177222,-1.1407484691,-0.4296129637,1.0268756058,-0.2143700418,1.3582332823,0.8005758247,-0.4581570986,0.4943842864,0.1755543415,0.2946121203,-0.9456076834,-0.8629202368,0.9667537359,0.3328735633,1.2769116504,-0.1169827908,-0.3477810694,0.8087450145,-0.5727997426,0.7175480712,-0.7234396041,-1.0433226304,2.9164887389,0.4699443238,-0.657119251,0.1851929368,-0.7945979069,2.0824728827,-0.4504651786,-0.4202005869,-0.5451115417,-1.1403893596,-0.9571726408,0.4175670113,0.3405739212,0.667971507,1.028868598,-0.2172761707,1.5022225612,-0.1317292029,0.0428247828,0.6556284236,1.7705625944,-0.0468940868,1.0936311426,0.2786432809,-0.9342213738,-1.2591129499,0.0471998608,0.2444977402,0.551249754,1.6020032219,-0.7044495404,-0.0586054845,0.9977888052,-0.4266659529,1.982128709,0.3772532399,-0.2130196432,-0.4626227037,1.5650092906,0.1974060836,0.2836486824,0.3589344915,-0.9182318777,0.9119578862,2.9457085684,-0.9104274734,-0.0365296124,-0.5819980809,0.6830141503,-0.1767866369,1.3092938577,-0.88945297,-0.3776240369,0.9877449502,-0.4873434649,-0.0733943938,0.816879347,0.2307113979,0.3248658958,0.1744198666,-0.304510041,1.9904899681,-1.0067636907,0.9056062021,1.1548589117,0.3894129061,-0.4659000788,-0.6773485723,-0.0840465137,1.0147415585,0.7093293571,0.5946678059,0.5028952834,2.3193228933,0.3128989589,1.97644302,1.7627988761,1.4465687046,-0.6491844841,1.1032073559,-0.0880998335,-0.8125844062,0.3253876567,0.462534702,0.5038510845,0.33014599,0.3136656335,2.6626792651,0.8926628814,0.0781035253,0.7239752903,0.2505255308,2.3245171701,-0.8984023677,0.5282307835,0.4070007143,-0.0587974139,0.1009334516,-0.2370092332,0.5528311047,0.153983956,-0.3671197004,-1.1403048865,-0.1734783377,-0.6063857144,1.1318822802,-0.5804593081,0.3752602301,-0.8610200539,0.3244631696,-0.3703166649,0.0781055508,-0.2402212199,-1.242609901,-0.553667121,-0.2711380686,1.7375355574,1.374363492,-0.0218696423,0.6827055976,-1.0932370758,-0.1111843527,-0.8975483878,1.0138948183,1.0060979918,0.562592366,-0.6477941719,0.0757270711,-0.1236907539,-0.0116814864,-1.0321416953,3.2569673198,0.719389321,1.2748483035,-0.5408828025,-0.0247517955,-0.7745931671,0.4434259786,0.8447245698,0.2488809608,-0.3969706908,0.4630875809,-0.0351187653,-0.5546048478,-0.2818657964,2.1364164679,1.8075023942,0.4825900079,0.2878183126,0.1741721875,1.6312047549,0.8886043056,3.7930246734,0.0223542355,2.3507161288,0.5389502194,-0.986562314,-0.394568003,3.3442454004,1.0042743703,1.994824562,0.1404614118,2.3280978124,-0.9359988156,0.1908087179,0.4996386346,0.9962151152,-0.651538305,0.7500915053,-0.5692984083,0.8369228335,0.7678669822,0.0394932714,-0.5966952775,0.8405455521,1.8095953937,0.2766517702,-0.2680001875,-0.1811127246,0.2452293033,-0.9197377635,-0.4352767001,0.6090103219,0.6579957406,-0.0120170694,0.1002221294,0.992515697,-0.0474328017,1.0050778882,-1.0723677546,-0.6068964953,0.8098727898,0.6251369408,0.0764947229,0.485709866,-0.2134468158,-0.8473139064,-0.7714962758,0.3208686194,0.1267335228,0.3543169192,-0.773349792,-0.7697096168,-0.0920498163,0.1870441115,-0.8251227549,-0.9112267913,0.4068260187,-0.2794828219,0.9103887413,3.2012354007,0.4741399553,1.3130544952,1.4149798509,-0.6485131845,0.4756581832,0.8589662177,0.1180689155,2.9012205078,-0.4818906182,2.8161284891,1.1604046013,0.3218538672,0.677353768,2.2767397278,-0.4720062741,-0.5130673061,-0.6430908952,-0.081759954,-0.0320772243,0.1089433988,1.8948228157,-0.190323143,0.2034442018,-0.3592842658,-0.696978939,-0.2814437306,-0.9609054935,-0.849001967,-0.4303204108,-0.5566009972,0.616895545,-0.9234698776,-0.240655881,0.4488725163,-0.8770433836,1.1193808818,-0.6391482533,-0.0246018429,0.047025819,-0.6446704837,0.6343816854,-0.9799207782,-0.4724319597,-0.3653477181,-0.1599605358,-0.139601417,0.3146241369,-0.6648742117,0.0490191739,-0.4915582437,1.2378522729,-0.4515394062,0.617264261,-0.7623229295,0.0947108478,0.5755298432,0.6721129777,-0.7719538478,0.7740421907,-1.0434532737,0.8794269786,-0.5831148881,-0.8560057531,-0.7355849088,-0.4124358512,0.2102751683,0.0586386244,0.5168761399,-0.6290946981,0.7206915147,0.5473677341,-0.4262576749,-0.3737763894,-0.6376090255,-0.6669300246,-0.6659948645,0.5338089395,0.6554811563,-0.2153185844,-0.6101830968,-0.4492230113,0.3683179157,-0.6859758633,0.1371233047,-0.6378088696,-1.576232434,-1.8373095679,0.3376782726,-0.7814259007,0.3004565901,0.4454738773,0.5626705506,0.6606736049,0.2194196981,-0.5012246775,-0.0888608487,1.0896592198,-0.448377794,-0.7148908028,-0.9734833732,-0.0426003395,0.6212110068,-0.5557021408,-0.2332389889,0.473520346,-0.9113080021,0.8115554479,-0.7897596771,-0.8574551314,-0.2329226724,-1.1214142191,-0.3107979335,-0.437396211,-0.6323964963,-0.5951477972,0.0845589781,-0.2390685141,0.2399420352,0.7649051465,0.4737053955,0.8015734656,0.2818189305,-1.8887715059,-0.4189520767,0.1796403881,-0.6957744195,-0.3425032978,0.9540058756,-0.1454864369,0.2134233957,-0.8997153193,-0.1186988608,0.446241398,-0.516420871,0.4851068732,-0.0606508493,0.1129555456,-0.4041806773,0.2940313684,0.2388288747,0.3370176807,-0.4197561255,-0.1414907419,0.5183858802,0.3988468406,0.6145815286,-0.528505433,-0.8366389049,-1.0009302686,-0.2537637045,-0.4574067358,-0.8774617228,-0.1405925853,0.7857833437,-1.729535044,-0.2566470331,-0.5516251422,-0.0354493042,-0.1796023857,0.5891492115,-0.2645690642,-1.4407802252,-0.7098120556,-0.685470251,0.4792551668,0.7911784453,-0.5076872799,-0.9154307217,-0.3862587198,-0.1449815353,-0.0715288279,1.0022665153,0.0981035549,-0.0069608248,-0.092886054,0.1406636448,-0.7357542882,-0.2057783336,0.2033026389,-0.1803000173,-0.5652009846,-0.1501103812,-0.2228376435,0.5002622588,-0.2863075789,-1.0619584985,-0.1100294187,-1.110524431,-0.4763757672,-0.1082530164,-0.6542639775,0.1986582337,-0.2508399777,0.9243188303,-0.8949864377,-0.3048266938,-0.7646764392,-0.9157756764,-0.850000194,-0.1260231027,0.1050023917,-0.8124768859,-0.1141331125,-1.118563959,-0.5134800463,-0.6575870118,1.1112892325,-1.5478288537,0.251589034,0.0934493263,0.2374120209,-0.8457234952,0.3747963638,0.7797749641,0.6618991667,0.4765538218,0.7924739158,0.8132839936,0.0028266506,-0.4850089704,0.0325759147,-0.6044771489,-0.3138409993,0.0332919154,0.6375422671,-0.5077370737,-0.7625995109,-0.3809785004,1.2435124493,0.4977889992,-1.5067534126,-0.8339646042,-0.0218454355,-0.0508523124,-0.4995193737,-1.1211411812,0.6090852362,-0.599529788,-0.9876721402,-0.3389765892,0.0865550784,-0.364904458,0.8500499855,-1.1208618785,-1.3007093823,0.4468887719,-1.3747236712,1.3955158226,-0.3485733154,0.1224095683,-0.1009768013,1.0738519985,-0.8307519987,-0.4189248207,-0.3007300859,-0.1262946979,-0.6621025025,0.9734998071,-0.4501527854,0.8782204393,-0.0068456099,-0.1118783542,0.5884915206,-1.4564819407,-1.1028602929,0.6748750019,-0.4059080203,0.8359478026,-1.6263837794,0.7080301697,-0.6940519023,0.2702052752,0.2254528572,0.7688553845,-0.5123210179,0.394896039,-0.0798202542,-0.374586212,0.9695129977,0.7578181762,-0.1976986751,-0.0268882249,-0.6338618345,-0.0158062426,0.241801417,-0.7857305345,1.0484793952,0.4059341314,-0.5187731116,-0.9720866713,-0.3251749729,-0.1794263073,-0.0252193358,0.622135856,0.1356138832,0.5207557591,0.9515258686,-0.6153051906,0.233183936,-0.4112459412,-0.3726037338,-0.5365126754,-1.4013509171,-1.1626036144,-0.1899963514,0.0898644655,-1.2296793245,-0.7778064131,-0.0519201498,0.5924977536,-0.7398741994,1.0727879015,-0.8071088642,-0.3431133527,-0.1156522527,-1.4099780582,0.4114942962,0.6593087839,-0.5961153748,-0.8759063085,-1.1476990936,-0.5687561774,0.5906588077,-0.5602957266,-0.525779581,0.3056250541,0.1073996974,0.7416075846,-0.9481320973,-1.4219228909,0.2018139414,-0.6239576901,-0.1845156743,0.2983139539,0.0890612825,0.7210010332,0.3921162048,-0.5054335611,-0.5917130914,1.2132207149,-0.4798197918,-0.3994425499,-0.5124306219,-0.249468522,-0.5309821645,0.0804745364,-0.7122665151,0.2321264104,0.1786749358,-0.8157921994,0.1091225481,-0.2544825133,-0.5197065259,-0.0429879067,-0.1447706906,-0.6584985715,1.0284903765,0.0300010494,-0.6293810383,0.069140048,-0.049989161,0.190707652,0.8592868913,-0.7637311433,0.7392641477,0.4964220333,-0.073373209,0.2822854094,0.4117257268,-0.4163915393,-0.6591182607,-0.316689073,-0.7039962794,0.4956782046,0.6346378139,-0.2086049111,-1.8092616782,-0.4921711434,0.8442469876,0.7484562701,0.2003307206,-0.5069533383,0.7938837775,0.1186206209,-0.9213038966,-0.2873599585,0.2312305145,0.5088483531,0.1008236337,-0.958315455,0.5092738294,0.8538004244,0.1172736704,-0.7206718751,-0.1321570589,0.7144537256,-0.8626118236,-0.7448159233,-0.1208404836,0.5767355137,-1.3057863402,-0.4188532368,-0.3200637648,-0.4924251257,0.3950921167,0.0943674207,0.0353953063,-0.8039847722,-0.8962071631,0.1778288998,-2.432679767,-0.6049238639,0.4357900806,-0.0166361062,-0.9281250134,0.3145817423,-2.3042309362,-1.1128393973,-0.3675859978,-2.0169622453,0.089724265,-0.376671401,-0.6909461097,1.556396524,0.2339249371,-1.0783689559,-0.3359830525,1.7902569564,0.9962633621,3.969508739,0.526199763,0.2411985049,-0.2005246167,-2.618873703,-0.2614880467,-3.5617846568,-0.9672372,-0.6960688729,0.688757864,-3.5393809577,-1.0848820386,0.2755464213,-3.4069763471,-0.6911118075,-1.2509974713,-2.2468809776,0.7115544087,-1.7832651356,-4.123434535,-0.8040248325,-2.5939580266,-0.0567728642,-1.0056173257,0.716122042,-0.0852569749,-3.3534458342,0.7194756061,-2.4714107642,-1.187811487,1.5058860878,-0.993190452,-0.1306243569,-3.238755113,-0.0758454721,0.6872668602,2.3113529868,0.3253412343,-0.3276336906,-2.9817195322,-0.2308931261,-3.311794527,0.0942773943,0.0780447656,1.0162458657,-0.4999802519,2.9749488293,-0.8376273798,0.1974597487,0.4001657105,-3.4697637698,-3.0742448257,-0.6122438176,-4.005481784,0.3160070559,-0.6786443528,-0.1310209642,-0.6290250783,0.1875478841,-1.0496404145,-2.3957710587,0.1691667407,-0.659121659,0.7600726528,0.2024831839,2.4935804095,-0.6665896347,-0.6544448597,-2.4104555693,-0.0700736742,0.8666650892,0.0635069718,0.3862725981,2.4813534634,0.7374491307,-0.2811788393,-0.9644333061,1.0954763195,1.1697038732,-0.2535150076,-0.017579618,-4.1506228265,0.6719160786,-1.191659086,0.2508642204,0.7651516895,0.175945807,0.6264774964,-0.7400644182,-3.9813914187,0.0070527207,-0.4354024525,-2.8062678988,-4.0720341719,-0.8513143121,-1.0723917566,0.27482378,0.2431710076,-1.7897448637,-0.7501803919,2.2526703807,0.2192953438,3.4961094623,-0.5344551521,0.1564262122,3.1146647741,0.713981292,-3.6562730084,-1.0802443461,-0.8319921866,0.1271776743,-0.6721438176,0.8831864731,-0.6522053117,0.0583258086,-0.6507080025,0.3830507367,0.2291762428,-0.1398168064,-2.416347182,0.1185232364,-0.5378664039,-0.7710972883,0.3205313944,-1.1224313483,1.0939397969,0.996207783,-1.1939264259,0.0749206372,-0.9148875989,-0.6153001942,-0.2309662897,-2.055012635,-0.4943028343,-0.657489662,-0.2858252461,3.717654486,0.4959317255,-4.1640076376,0.0079129027,1.1747569823,-2.9285047026,-0.5469957838,0.4185257849,0.3827563584,-2.5221326675,-2.0827848846,-0.3012457878,0.3588131533,3.0358162654,0.1667070336,-0.0143327769,0.4824376087,1.0089466492,1.4538872498,-0.5163824203,-2.9397376009,-0.4496889908,1.1609041741,-2.2920739181,0.6569440918,-1.4278913617,-0.196220339,0.092556453,-0.6023806899,-0.173061602,0.1366353285,-0.8549193221,0.1585081327,-1.8671203722,0.7563825929,-1.0354129745,-2.8737709949,-1.1851329909,0.0217418622,-2.745162381,0.0816096849,-2.8620297166,-0.2378154314,-0.0035924575,0.5678047454,2.8387687794,-3.2385856926,0.6731495215,0.2378880678,-0.659384491,-1.4406909653,0.2144592801,-0.9904767354,0.7951585699,-0.8995944505,-0.6348788661,-3.102056932,1.6053039269,-2.3752739813,0.6042854775,1.7397359392,1.2213321119,-0.0802613158,-0.2385210591,-2.1915514137,-0.7227031054,-0.4820334032,-4.0367157343,-0.8913813205,0.7547259865,-3.2010088348,3.4768586505,0.2779646108,0.2770911433,-0.6770323675,-0.1968653081,0.1017985276,-0.9792081315,0.0454564192,-3.7637010012,-2.3907235081,-0.7520314844,0.8982928403,1.5999163058,0.695099237,0.1130046513,-4.1695236292,-2.2533403531,0.0670229121,0.1513865334,-1.0678701746,1.0191134536,-2.0716884191,-1.3514232028,-0.9298751013,-0.9611009404,0.0514219702,-3.097681507,0.8627240595,0.4494825044,3.0585822076,1.0109758825,-0.82563417,-0.4866893238,-3.980991705,-3.9180449719,-2.8599151423
   -0.1160633213,0.8063063266,-1.0671619041,-3.5847754618,0.1692795359,-0.699382921,2.3444921689,0.5144379469,0.2306412252,0.078608682,1.8169610976,-2.8106205294,-0.5486282128,-1.0636664633,4.1409703597,0.5701720962,1.5902858211,-0.6778219035,0.7572611806,-0.8426216937,-0.4955331627,-0.9653973826,3.021782817,3.3660230256,0.5695926532,-0.6960939108,-1.5931101157,1.1839136548,3.6813607909,-0.5643648665,0.1277510358,1.1530871058,2.0387050834,-0.8512146947,0.5381166151,1.5102510728,-0.812703455,1.4256028189,0.6053555741,0.7660480252,-0.827153547,-3.1324663198,0.3765890429,0.3919584346,-0.4304377446,0.643745503,-2.5660062602,0.7886585376,-0.1951364792,-0.1876142114,0.5406031268,-0.1015592659,3.9689731094,-2.294414462,-0.9416971591,-3.6371561482,0.2797914231,-1.0162906072,-1.6140199053,-0.9234414791,0.7809809743,-3.4778340466,-0.7669534707,-0.2371923111,0.4021413541,2.516571698,-1.8172829931,-3.6441453616,0.0954255946,0.4592122624,-0.4487017739,-0.3019695469,0.0408571505,-3.3152222695,0.6368257592,-0.3856729449,0.568262306,0.5264974288,-0.3189660651,-0.5214768524,0.6700541301,-2.4718704195,-1.1597276188,-2.7367115257,0.5514637365,0.4940476457,-0.2842218113,0.5269807295,-0.8101657413,0.6380631085,-0.3215178551,0.3645314056,-0.0895626451,0.5413284271,-0.7905831681,0.3554952453,-2.9150602865,0.7036271839,-0.233365646,1.0200882023,-0.6360704995,1.2394103998,-0.9431888819,-0.2999171216,0.5426963375,-0.2250336108,-2.621889367,-0.4187559765,2.5736636954,0.9045195042,-1.6940791898,-1.003084619,-3.4874189981,-0.8346889003,-2.4505693798,-0.7316298653,0.1744425747,-1.2024911369,-1.3562620909,-0.4720273983,-0.804459211,0.734022296,0.5825378669,0.5408353554,-1.5184997164,0.1856787837,-0.6287070142,0.1620209229,-0.1207525243,-0.5286159454,-0.3243712358,-0.2716233352,0.726348365,-1.1371872154,-0.4273336748,-0.5832737594,0.8891740461,0.3271430999,-0.5829931713,0.3730017993,0.7540662236,-0.7889013193,-0.8995668546,-0.6279780823,0.3777202,-0.6658150099,0.2445375504,-1.1058138325,0.777170343,0.4861457536,0.1578509205,0.2004085063,-1.3764730266,-1.0171210257,-0.6919950323,0.4770725828,0.6145254139,-1.7634834559,-1.5396977622,-1.3056723762,-0.3625494819,-0.0991022949,-0.6760181284,-0.7160814413,-0.4197309438,-1.8397530068,0.5973176745,0.0301009344,-0.4209497313,-0.6631909571,-1.2452627708,-1.0831854898,-0.5378567769,0.3882437182,-0.6056457581,-0.3630844988,-0.9613383788,-3.6526243335,-0.7427820582,-0.075584072,-0.4439335816,0.4941282334,-0.5314052367,-0.192272892,-1.8549543615,-0.4878092739,-1.0896842888,-1.3973365378,-0.2225217034,-1.2308118942,-0.3764031373,-0.5165791046,0.1505162617,0.2040852097,-0.464970415,-0.0697141522,0.7086033839,-1.2709959865,-0.918939605,-1.8949991804,0.9523693424,0.0801578477,0.7673702433,-0.2815595649,-1.1854380678,-1.954714321,0.6260827114,0.7397145501,-0.7607943017,-0.7980565615,-0.33525625,0.426657102,0.394002324,-0.7433391575,-0.9411494547,1.1685150159,-0.6652609835,-0.576814789,-3.2768624886,0.143498075,-0.6100352056,0.3363044528,-0.6890036729,-1.4348677577,-0.6409026967,-0.2773058313,-1.8335287557,-1.0334193827,-0.9603432105,0.3426394964,-1.4777427838,-1.46012892,-1.0675982776,-1.079486866,0.628163411,0.538024149,-0.2381914121,0.446807138,0.9695623606,1.2898325445,0.5642909992,-1.5628483433,0.1455329931,-0.5144578448,-0.7090860353,-0.2067270962,-1.4082699105,-0.6701968702,1.2341184353,-0.1908354594,-0.7309299754,-0.1607551456,0.0223003524,-0.6607837193,-0.574770695,0.4539619274,-0.1874955424,0.6600430119,-0.2891003411,-1.0735292262,-0.2631893377,-1.2996245875,-0.5469796549,-0.3781338017,-1.5785154146,-1.0921479614,-1.2265518456,-1.184763958,-0.0138194841,-0.9935647226,-0.250106203,-0.8668767484,0.4730286617,-0.2686213499,-2.2607495739,0.3077804845,-1.4989355085,0.7162657113,0.281712689,-0.7116001995,0.2890113805,-0.1185126165,-0.5128754882,-2.9993936382,-0.7644668209,-0.7950598302,-0.4985547187,0.6214853325,0.3135778657,0.2244389783,0.885029426,1.1510905589,-0.373825591,-0.9278369077,0.4066820009,0.1275344279,-0.1432263076,0.9629043344,-0.8601042995,0.1165061682,0.1962501266,-0.8634184871,0.3597572889,-0.4193085927,0.7639116292,0.2808919948,-1.1568498023,0.3924320769,-1.4016656744,-0.3849419387,-0.1637613672,-1.1089170411,-1.4414492525,1.0837589447,-1.1280306517,0.7772066544,0.46994344,0.1076722321,0.2506545189,-1.0391911472,0.784688483,0.0008013591,-0.2944069514,-1.1195852047,-0.1886545036,0.6609714288,-0.1889869217,0.0157091594,-1.2363107128,0.2731689006,0.5747257785,-1.0448702126,1.0685850333,1.2447529428,0.8738869223,-0.360985395,-0.8736697514,-0.9092169366,-0.1136086931,-0.1288330461,0.2902423061,0.3992500886,0.841432089,-1.5204013318,-0.4783265075,0.0078638765,-0.0008434598,-1.6139228407,-0.0294900674,1.2245412403,-0.1636035329,-0.5832662392,-0.7348319583,0.021941813,0.0988628554,-0.6057009665,1.1451539032,-0.8665580503,0.6503791245,-1.7571610533,-0.164444268,0.3921720156,0.9113102403,0.079942382,1.0461914849,-1.3547337957,-0.6675191991,0.0865414826,-0.3387228925,0.4790421325,-1.2274975076,0.0356080557,-0.1888923527,0.5480573061,0.2461154629,-1.2768767426,-1.7599202315,-1.8795161501,-1.3826210999,-0.9559843451,-0.4061409228,0.1215812359,-0.8425594845,-0.1582035132,-1.2077936244,-0.4072244581,-0.6775458113,-0.2562078252,0.4784115775,-0.3806596865,0.232969511,-1.844689285,-0.1370711964,-0.6751124015,-0.0914836027,0.0050228603,0.4335262007,-0.6764126202,-0.6881201193,-1.1067964823,0.3872614033,-0.9164421748,-0.2837877176,0.9600195028,0.0023716747,-0.8260905298,-0.6386188543,-0.2808083426,0.6407036566,-0.6846249256,0.4893052188,0.5488283315,1.212314396,0.347925065,-0.5597274057,-0.4944815791,0.4691966663,1.5921785574,0.8939816518,0.4763450353,0.7958297606,-1.4445000407,-0.3306258555,-0.0870508443,-0.9245114318,0.7630396897,-0.2487565485,-1.516590345,-0.3911463352,-0.1797842889,-0.7212124497,0.3629046599,0.6504821499,-0.9325128189,-1.3977581024,-3.8479329953,-0.0267899499,0.4140121796,-0.6225407442,-0.9014868168,-0.9210137436,-0.4809065917,-1.1536460995,-0.1831867911,-0.8894154605,-0.5458580922,-0.1875060888,-0.1694158791,0.2593692842,-0.8859027161,-0.30095913,-0.0072305453,-0.4062348702,-0.6169555116,0.2219182888,-0.2668415138,0.6583951995,0.5374144781,0.4118781441,0.5001520957,-1.1668996088,-0.9841308593,-0.0087977132,0.2774073759,0.3886383082,-1.2484355891,-0.3848192396,0.8690868495,-0.1692564626,1.2404269041,-0.2422167419,0.7362739809,0.2619556593,-0.6571903057,0.6761102253,0.5469018987,-1.2392008388,0.5078490033,0.0093393079,-0.1379304971,-0.3455267924,0.9228778831,0.246696527,0.2033612961,0.0203824693,-0.4374827854,-0.8948190196,-0.2424246262,0.7086401776,-0.9700972339,-1.9509734778,-0.7484911903,-1.3791069731,0.4068998648,-1.9099162687,0.7237987815,-1.0434996597,-0.3315023453,-1.1117367907,-0.1769585807,-0.4044913373,-0.47198677,-1.3972199215,-0.6532410662,-4.0062701003,-0.9586646124,0.5528040428,-1.2825242357,-0.0395179539,-1.3532264243,0.6900717567,3.5829997316,-0.2367475435,-0.5759521378,0.0659276633,1.714286749,0.4081671818,0.1690058207,0.9679069865,0.1819849051,0.6374986595,-3.2829487192,0.3732205266,-3.8605653032,-0.7880151791,0.1089614869,-0.2792093149,-2.6319645892,-0.4297229155,1.1036784671,-3.1401389768,0.6408391085,-0.6559585773,-3.5108186053,0.5542866961,-2.069449316,-3.8274770636,-1.1609383387,-2.8905716797,-0.6233200217,-0.5270110283,-0.731813365,-0.2807837119,-2.7517376868,1.1670691651,-2.7441400966,-1.0456192243,-0.3003787383,-1.3907524498,-0.4595377434,-2.8320041935,-1.0129552474,-0.1269770756,0.5590239149,0.5095293603,0.5974720203,-2.9936636724,-0.6384937049,-3.680171677,0.2145686934,0.1182392585,3.9965850345,-0.5156240322,1.2217168384,-0.8508829306,0.2248118363,0.3264664253,-3.6888820867,-3.3894098932,-0.0455920899,-2.3478400024,-0.6472388419,-0.015803214,0.3286451976,-0.9235571394,0.332546439,-0.2478921588,-2.5288744509,0.5187715452,-2.420896378,-0.7321189329,-0.5593295512,1.5524410201,0.7286417384,0.7205806965,-2.5260059308,1.3677858154,0.9170969051,0.5632266011,0.8053479037,1.2692116023,-0.1256128582,0.4364361959,0.2822409009,-0.8964319731,1.5496425463,0.1681531356,-0.2552714874,-2.355008148,0.4446321736,-0.6236149908,1.124157669,-0.3964153631,0.3303065395,-0.8743683703,-0.7927035113,-3.6717112636,0.6584702623,-0.636991558,-3.0309676229,-3.7812595872,-1.4206729951,0.2336008512,0.6036316763,-0.6745781637,-1.0034783738,0.0209754403,0.6892765711,-0.3296454246,1.3651644652,0.1369010617,-0.8329074631,1.5979371076,0.0107412251,-4.0940950577,-1.1044806299,-1.4641755406,-0.8725450285,-0.3930746509,0.5027363296,-0.4240322017,0.0913442291,0.3867696574,0.8726447313,-0.9433371483,-0.6586750622,-0.5856852341,0.6493693131,-0.3204262651,-0.2537922714,-0.0350653972,0.716211478,0.8848899511,-0.3733741699,-2.9892184836,-0.9349886129,0.2771951505,-1.1522246872,0.2182971059,-1.2620068771,-0.0678014693,0.9523298073,-0.6910606292,1.0407088527,-0.3422065092,-2.7507578743,-1.5723710976,0.4729772479,-3.2461970026,0.860545164,0.8562568924,0.928079947,-3.838551651,-0.6176210679,-0.647286742,-0.3576940221,1.4613714667,-0.7137760269,0.5619042079,0.1073788346,0.693227746,0.9694971809,-0.836122031,-3.7763212833,-0.6045800376,2.0370308943,-2.2775528572,0.5635825392,-1.8600705329,-2.3377266082,0.6120707862,-0.8143513139,0.562201648,-0.4000291925,-0.8873265402,0.0443268768,-2.4812793127,-0.5158605445,-3.4517248799,-3.7929023615,-1.4439723956,-0.0835036389,-3.3235608062,1.1792896828,-2.6296328006,-0.5556065725,0.0781246107,-0.4316678922,1.0350932383,-2.6707893936,-0.1752336416,1.9257232686,-0.8993978745,-1.4649538948,-0.670233816,0.3247812361,-0.629094382,0.6126367438,-1.5897602557,-4.2061192607,1.326725063,-3.5293727423,0.8541973202,1.4893394797,1.594895626,-1.438357681,-0.9375485672,-1.0422852724,-0.1626833579,-0.283396815,-2.5946427121,-0.2932376389,1.0406170085,-2.5464572555,0.4573613436,0.4331293604,-0.8612387666,0.6270670423,0.6263853331,0.873775801,0.6058051768,2.0220879865,-3.0581515722,-2.0155952839,0.3350952615,-0.232371663,-0.5797686347,-0.6336010327,-0.5580930157,-4.0953691692,-4.0223680438,0.6149134718,0.6945395352,0.1654418451,1.3997683324,-1.3724071798,0.0013155725,-0.8715027581,-0.885102037,-0.6545529668,-3.4617202713,-0.0969722227,0.6373028915,0.1747859618,0.7014773416,0.2545975462,-3.9441295355,-4.0942771399,-3.8795509455,-3.5255511485,1.5371200939,0.899538218,0.3159655808,-4.1515098267,-0.8123243532,-0.2362333825,0.9299819816,-0.1985469805,1.174830034,0.548236782,0.972586442,-3.80273301,-0.0547134748,-1.6778856358,0.4379316509,-0.1528929909,0.0782006587,-0.4703242353,0.1655668533,-0.6855354387,0.1590624619,-1.3227162166,1.6439631776,1.3274101469,0.0903090135,0.495902129,-1.2199090332,0.6541340514,1.1061374885,0.6034355507,0.0278338497,0.9819006488,0.7236470856,-1.1880229552,0.9069776575,3.3951532497,0.803283952,0.7414589465,1.9606846143,2.9578772394,0.929679283,-2.4826798316,-1.1935180532,0.2765902885,-1.0663196283,-0.9346865616,-3.4911403567,0.5579798895,0.0661121208,-0.8178104656,0.0650874301,-0.668892177,1.6610068258,-3.9486401267,0.1064445252,-2.2423674885,-0.411880588,-0.5599998906,-1.4525609798,0.0287335324,0.2447454741,-4.1847916524,-1.6393152545,-0.0171130273,0.6731049568,1.7896597984,-2.0740222561,-3.1533648267,0.5571580269,-0.697620499,-0.285244917,0.9364210203,0.1445529583,-4.0552911936,0.480970148,0.31736748,1.0224545531,-0.4947997872,-0.6664747368,0.3491048157,-0.1141161952,-1.1792005052,0.1111037348,-3.4043711033,1.2258429058,0.5724614937,-1.163335937,1.2725528534,0.0336504418,0.2770091439,0.0984939513,0.3175212893,1.1534313763,-0.3779449599,0.7871391564,0.6254874737,-3.1457409671,-0.0919038553,-0.0433693823,0.9480116804,-0.4739769089,1.0203656092,0.8047439528,0.5478642449,0.1147088997,-0.0345393394,-2.9807548949,0.6222150586,1.5861481083,-0.2767652512,-2.6637177451,0.2929342883,-2.2831916322,-0.4766105862,-2.9375522302,0.0792203716,1.2852827388,-0.8302119025,1.7659122174,-0.1172894552,-0.9422022884,-0.1824303928,-0.2129122083,0.7283164485,3.8769376396,0.5325615753,0.5728541891,3.1513747361,1.1003088791,0.614099711,1.0302893736,-1.9191001948,0.0312815119,1.0297651953,-0.8504274799,-0.9067043339,0.4236436797,-3.3769504807,0.7377481254,-0.7822820803,0.3933258892,3.3922631508,0.2667509629,3.1418389111,-0.3583115994,0.7851340943,-0.4892305573,2.6406808504,1.6671232661,-0.4068296827,2.8548660932,0.7048561333,1.1224800981,3.7060682695,-0.1786011252,0.5486968945,2.8872684992,1.6577056505,3.6758488209,-0.0031698297,-0.2018991824,-0.4781762294,-0.3628928652,3.328905246,-3.4862043423,2.7331090838,-0.0793571112,-0.9262245198,0.6710728775,0.2658118568,4.1469519894,-0.5163529134,0.071072931,-0.4300248949,-1.7825240151,0.1506111193,2.5349636507,2.4716598493,3.7073285089,-0.4407702919,1.0125969633,-0.4987281045,-0.8808168647,-1.2437069766,0.5611630634,0.1155085873,0.4103113025,4.0935062153,3.1876602174,-0.7303451747,2.8608244958,0.1361629541,0.0128820249,1.2078144722,-0.945618184,0.4340766583,-0.2015702112,3.5569941574,-0.5418719168,2.4484971609,-0.6550713687,0.4084617716,-1.3051973627,0.3533013602,-0.0202755155,3.7934373072,-0.498709295,0.0944963806,0.7708449129,0.1590838729,-0.5847665962,-0.4361246921,0.1816065547,0.2767244716,-0.6222891642,-1.2833593549,0.4495801178,0.8428759432,3.2820305709,-0.0300983148,-0.6138904773,-0.1860701306,-0.4853644937,0.8547048722,0.2920887512,-0.0415502671,2.7581776061,0.4673673283,-0.0648031877,3.5124282182,3.4295068559,2.1060299331,0.1392275386,0.230837134,0.5436629783,1.7006063672,1.5402265489,-2.0064390937,-0.4510132641,-3.1591161507,1.0660306572,0.3273114135,-1.7268151347,-0.1716963849,4.1629731392,-0.6534490779,0.3175981435,0.35506633,-0.4100131725,-0.7441022525,-0.3447265214,0.9234180085,-0.0578924207,-0.4687450176,-0.0570454269,-0.4275039268,3.4397641966,-1.2145025342,0.6377889859,-0.7124168944,-0.329674918,0.862980086,-0.7169628979,-0.9494365936,1.4268035591,-0.7523685292,0.4338432188,0.4615558032,0.0858504659,0.8295362857,0.6768150828,0.9714020643,0.4624549502,-1.6046116063,0.4163004538,0.3620615118,-0.2864911675,-3.2199421822,2.2827946608,-0.8665966606,-0.6090690253,-0.2257977988,3.5795436847,2.3212454557,-0.6296494983,0.6386420637,-0.951521877,1.1226858135,0.0916522898,0.3454974112,-0.55734909,-3.0884381936,0.0149335307,3.1445730399,0.4023639554,-1.2785342175,2.3492902463,-0.0261429107,-0.0953742431,1.4521004058,-0.0962084,-0.0866102805,-0.4021954347,-0.0024145689,0.8610947383,1.1424325666,1.8035577198,0.6158966931,1.6655016463,2.8279156956,0.834766929,0.4092621404,2.9898582223,-1.3584624202,2.6700545645,-0.3958935828,-0.8399465389,0.968668907,-0.0820340119,3.2689105449,0.3376618557,-3.4092540618,-0.2612153978,2.7975745868,0.63454552,-0.1618095168,-1.0674543281,0.0289467525,2.0815159728,3.3054334272,-0.6822582101,3.9945242598,-0.1415285347,-2.5005850012,-1.1321012956,-0.653970347,-0.9252715009,1.9876777441,-0.5952434071,2.3401315437,2.5172033012,-0.3236636412,-0.9459784587,3.0972618476,-3.7914500704,0.217598166,0.4429396107,0.1278816886,0.8648662462,-2.5019847229,-0.7363358576,-1.7121686415,2.989897295,1.2298741508,0.3744597548,-0.4006957976,-2.8333378044,-0.8776989372,0.7154207373,2.5463370238,2.3369531549,0.5860719693,0.3988870064,-0.6218558276,-0.5055838318,1.9491876979,-0.4269366303,1.652341817,-0.11949347,-0.5711795165,3.1181856639,-0.0119269474,0.9420558191,-0.1059152364,-0.8348189966,-0.3608390899,0.9615408114,2.828665171,2.348050217,2.2560855509,0.4766693094,-0.8976999674,0.7597750002,3.5336974512,0.0258681395,-0.5176908302,-1.5490689518,0.5442111979,-3.4754153303,-0.4537240826,-2.6350509155,3.6786000998,0.69572443,1.4470786694,-1.4771331251,-0.2908701611,-1.885514001,-0.3777680583,-0.4504283178,0.834907323,-0.3067398422,2.5297530739,-1.43791633,-1.6094377344,-0.2251015978,1.2516259137,-0.1838845962,-0.8915873734,-1.9289704535,-0.2916397186,0.5752552113,-1.3551501424,-1.5771964477,-0.0713679318,1.2026513234,-1.3341838016,0.2624030953,-2.9896399333,-1.0530126695,-0.0667478411,-0.4272485223,2.5309003013,0.8797019062,1.0885919529,1.0885798851,0.1786602556,2.8083054896,-0.5592928001,0.3432030672,0.8498526289,0.6154757228,0.8031766724,-0.8525778648,2.8910643723,0.003979873,3.1360191485,-1.0418023219,-0.1384310367,0.3384132083,0.4871624844,0.4751617507,3.5252500587,0.507910811,0.8923825632,-0.3650158574,-1.5129814006,2.8317035332,4.1327719235,-0.1911457446,-0.216533373,1.1369844896,-0.5754462386,-0.8583802996,3.1879013548,0.572537183,0.2547784171,-1.0186973595,-0.3130922676,0.3728942897,0.8971034917,0.3770611492,3.6666288904,1.1955384097,3.6518131978,-4.0760908089,-0.704188715,0.0628581554,-1.9045311013,-0.6714645422,-1.4746780223,-1.2012687999,-0.1905831188,-1.0121721324,0.9026744697,-0.3317935014,-2.553614771,3.4271270206,-3.8530986595,-0.452821529,0.2515033483,-0.1097503286,-0.8837548687,-0.1182956032,-1.0323426582,-0.3946897405,1.0687554441,3.0994395482,0.1114024987,-0.8004857853,0.1779690187,1.679571759,0.486549571,3.1713179133,-0.7352032782,4.1499929613,0.2185441731,0.3127360583,-0.56896236,0.0789021559,0.5516286364,0.6728086218,-0.1788091597,-0.434353318,-0.5086358622,0.9215191248,-0.695193711,0.4290333335,-0.2400880469,0.9627998879,-0.5847626894,0.4394787707,-0.5586793103,0.1122212608,-0.6105322088,-0.0204022397,0.7898925427,0.863422772,-0.70879173,-0.7994757459,0.7353627592,-0.5764766531,0.3222977035,0.2108539489,-0.0685221715,-0.7648185084,0.4624902988,-0.9327607459,0.0418702558,0.1305650416,-0.4646766881,0.3390180546,0.6149734132,0.8529632349,-0.5866658408,0.7429135426,0.2168579316,-0.9672035325,-0.2586821525,-0.9241929355,0.6333485214,0.5056181759,-0.7463793576,0.8999106185,0.2038811144,-0.031313148,0.5990967305,0.4340300356,0.6274809273,-0.8131260196,-0.0051260796,0.4749223456,0.0628802743,-0.980714556,0.8428260298,-0.4902649589,0.8022440764,-0.7477437222,-0.4334168503,0.3687435251,-0.5861387423,0.0077427203,-0.1172066436,0.7623465953,-0.8052421136,-1.2791104644,0.1304644038,-0.5852380459,0.1960434033,0.0560055677,0.8203509254,-0.6065189449,-1.9044017479,-0.43956329,0.287652205,-0.8358582718,1.2184656967,0.9719142062,0.7143345216,0.2979424516,0.1724727617,0.6459971513,-0.2896247419,0.2370450299,-0.4211646635,0.4228710606,-0.9525909877,0.1589233472,0.150115977,-0.0065750034,-0.132396118,0.2275156311,0.4843712164,-0.4691709831,-0.8516622996,-0.2653735021,0.6679693208,-0.8924029194,0.7205656087,-0.6514585813,-0.4713788725,0.957096936,0.2322825262,-0.544395379,-0.185660664,0.9902809217,-0.4772143612,-0.5085001144,-3.4047298985,0.3779032402,-0.4384294078,-0.4997605692,0.1861762282,0.1261637401,-0.5356100341,-0.2851504839,0.2685686385,0.005364573,0.5227683299,-0.5432022626,0.5679727595,-0.7756275343,-0.1944764273,0.4616281111,-0.9226249256,-0.2909613362,0.2140335787,-0.0731205482,0.6007331267,0.0197082105,0.1172358199,-0.4620054277,-0.208345997,0.000577223,-0.289864853,0.6773247186,-0.4400871795,-0.1331858075,-0.5981933184,-0.4482912924,-0.4048421479,0.5222542622,-0.7927486095,0.6309461163,-0.1090669522,-0.526252709,-0.6772738565,-0.1553366028,-0.1124499563,-0.0495442075,-0.7022502286,-0.5576151808,-0.485816488,-0.4537057564,-1.0146241124,-0.6296520709,0.6176155829,-0.9355456333,0.5472300952,0.0644922262,0.6895596003,-0.3039772615,0.6452877808,-0.0003876986,-1.2972971791,0.4563425638,0.5259594153,-0.1255323364,-0.7864892295,-0.0947736732,0.5060149274,-0.0164351483,-0.595802743,0.7865365435,-0.8954504211,-0.4609971599,0.6108087976,-0.80599833,0.6456764314,-0.4655752238,0.9257531662,-0.9829035258,0.3417565996,0.3694248178,0.6436674157,-0.7941638831,-0.3448733099,-0.3301215807,-0.0538234563,-0.8519385333,-0.7043094013,-0.1161950056,-0.5520602006,-0.9312480202,0.2125285817,0.9061049862,0.3837663509,-0.6927434037,-0.1230268391,0.8835380648,-0.084027304,-0.6663635884,0.9740939487,0.1688232722,-0.9688595472,0.6516643722,-0.1343130973,-0.3468395783,-0.2301737763,-0.7143323383,-0.774264138,0.238160999,0.0386526335,0.9688010369,1.024413713,0.341085076,-0.4461955156,-0.8463950305,-0.9642868751,0.9299563617,-0.5216357924,-0.7213720392,0.016338313,-0.1843893807,0.4737009059,-0.6889784881,0.8850806265,-0.6642547992,-1.8977304678,0.2349919756,-0.5163532039,-0.2998985217,0.1596082238,0.8981298939,0.1814105619,0.1099231626,-0.8165515175,0.1880825377,-0.4121970192,-0.3832011278,0.8717120042,-0.6964253318,-0.9358914045,0.389425457,-0.5174537118,0.3556323788,0.2332214085,0.5729587786,-0.241855111,-0.8410331486,-0.3374575391,-0.9922785399,-0.1236767444,-0.2754842061,0.0805100933,0.7660243981,0.2397021891,0.3967063996,0.1861898445,0.062499515,0.4916308442,-0.1161732486,-1.0331719496,-0.5255697626,0.7255469141,-0.0888014344,-0.422636547,0.5115525375,0.6602208519,-0.4933837098,0.896147579,0.2483683937,0.6903894525,-0.6640883332,0.8263978205,-1.035784977,0.8621287421,-0.6227816451,0.3879192273,-0.3819619871,0.2766636307,-0.5404476664,0.6514197919,0.5212657281,-0.6417851419,-0.4412838143,-0.9510205246,0.5440036685,-0.1527783936,-0.0548124838,-0.2708667975,-0.0673113145,-0.4911026093,-0.646478538,-0.1588826153,-0.9278934646,1.2343554801,-0.5733413969,-0.3327967923,0.6317730572,0.3767898651,-0.8334431162,0.4550431039,-0.2643349338,0.8770815635,-0.2611270696,0.4722534609,0.2993777237,-0.9025625915,0.2806097254,-0.7235056069,0.2802299227,0.0872107197,0.3554563755,0.1327399131,-0.5823326858,0.0015784762,0.5970728224,-0.5459455281,-0.2739281584,-0.913721772,-0.1544065943,0.951725387,0.1827885011,0.9283887484,0.1193812554,0.6604447505,0.441622146,-0.7987999503,0.2938724476,-0.9605043477,0.7369022897,0.5430451941,-0.316813839,-0.9848599512,0.1187883698,-0.5739991597,-0.6631162078,-0.76272407,-0.7220825364,0.1020738899,0.4339075005,0.1091466114,-0.714513859,-0.5489480435,-0.8563987721,0.9422664042,-0.1071451484,-0.5959874859,0.6018802049,-0.2136913029,0.0351137981,-0.7231285734,0.2518967499,0.9887840364,0.0913433149,0.9239102946,0.1891567123,0.6261279884,0.7665178617,0.4729479257,0.355040619,0.3097195023,-0.0785566378,-0.6095316789,0.9574660465,-0.4347578512,-0.4837794763,0.4214105411,1.4412038761,-0.2759227043,-0.3543231736,0.1358212608,-0.1084170369,-0.2792248893,-0.0635305898,0.4880371775,0.7679633326,0.0071623251,0.9804056009,0.7387230476,0.409554576,-0.8729971984,-0.7102445544,-1.0318524719,1.9319297025,0.8859909419,-0.6952200449,0.4192015595,0.9447272385,0.2704352502,0.2574876472,-3.5678988746,-0.7279881702,-0.4129697962,0.2841389612,-2.7518255606,0.4230207796,-2.2678189899,-1.1839250636,-0.5034352883,-1.5026664958,1.4712506789,-0.3291571365,0.0471154423,0.6356912177,0.9278666332,-0.1981442932,0.9903832441,0.7651017408,-3.2836731683,1.8580624388,-0.0614674146,0.4023055403,1.0638353732,-0.633848055,0.72859631,1.5400627095,0.8629777553,1.2318162745,0.639315146,0.3015270008,-0.2020769401,-0.2708657867,0.0681845523,-2.4046583594,0.288535364,-0.6063563051,-2.8715899367,0.5872337792,-0.6545806608,0.5578236052,1.0235972699,-0.5336867318,-2.9061498628,-2.2529937431,0.9447422845,0.8029171433,0.3546063017,0.0574577531,-0.5133998473,0.5815098088,-2.6627837032,-0.800953546,-3.5332669639,0.6615078488,0.6547055823,0.037183259,1.2991855901,0.4484111538,0.9624917263,1.7033366677,-0.2429552075,-0.1976717697,-0.3769018417,1.124436734,0.8010066958,0.0483480253,1.2037952499,0.1171914391,-0.0291776386,-1.0134590278,-0.0366501028,-4.0261774497,-0.6464416268,-0.8038406828,1.495519026,-0.4436861216,0.6209019756,-1.0697661758,-1.3646613877,-3.3206651181,0.2707659307,-0.4064820432,-0.2072637918,-0.670314212,-2.9830147888,0.4964783172,0.5796517171,1.6462364588,-0.7362649382,0.9876906727,-0.1884021914,-0.4444019142,0.7173982315,-0.0723982182,0.3200133174,0.9408565944,-1.4267325517,-0.5168329504,1.6199161028,0.7618444928,0.4961596161,0.7665896084,0.9967569049,0.5699375021,1.0202614234,0.5927750787,-3.5702144158,0.2205178781,-3.0280241029,0.9205754571,-0.2100728963,-3.2123679728,-1.1857791225,2.0088793595,0.1238926019,-0.2435895854,0.4517446153,0.0503362204,-3.5708555844,-0.2458108725,0.0145516654,-0.563375409,-0.7287953438,0.7782994008,-0.8438405004,0.8517960854,-3.1625537461,0.9658076011,0.1604456896,-0.3897761263,0.0342203746,-3.068770705,0.0810942634,1.4962948926,-1.040285279,0.6271647486,1.2427481645,0.7982227336,0.3762070547,0.7948411981,-0.3296980657,-1.0045243306,-2.9043876429,-0.9037476815,1.2126323119,0.0206615101,-2.8465170947,0.5147874374,0.2395154145,-3.1170536924,-0.734454773,0.2451923117,0.5723209429,0.2599417217,-0.6161030299,-2.290239784,0.290604703,0.7119496466,-0.5577475192,-0.4249868485,-3.7230301257,0.1066171899,0.9035771504,0.490363275,-3.4567328087,2.026646806,-0.4998372308,1.1252958614,-0.7133984042,0.3686244375,-1.2716440037,0.4348771981,-0.5354168399,-1.1212770317,-0.3105864697,0.6200442409,-0.8755514796,0.7832070533,0.8936875344,0.5663843118,0.7931955615,0.7496087409,-3.074213411,1.2496957497,-0.7026454091,-0.9236877536,0.2108970945,-2.7979883252,1.0533829091,-0.8582608826,-3.7654830622,-1.026501279,1.1332273968,-0.7681428872,1.0471184426,0.7431743076,0.7659182918,0.280799756,1.8223267688,-2.6191604095,0.9710412565,-4.004288843,-3.3356732487,-2.8033115016,0.6261641082,-0.95515445,1.4346462723,-0.0558287521,-0.1365927297,0.8685983214,-0.89632581,-0.6746481976,1.2699466804,-2.7461112818,-0.0590269249,-0.8845708526,-0.2008814836,0.5842505991,-4.0681468095,-0.9686316802,-3.4160050126,1.2498473152,0.096757437,0.656981345,-1.141596776,-3.6278802022,0.4344658169,-0.3038418416,0.1485672246,1.3872163221,0.4474876515,-0.3028566631,0.1893134129,-3.9964652347,-0.3107437517,0.4545732002,-0.7072869397,0.8168098994,1.2233998092,1.6180521654,-0.07462811,0.4919500133,-3.883857355,-0.1210981167,-0.0962137402,1.467174198,0.8706724001,0.9147683422,0.7610416725,-1.2204845948,-0.2637140159,-0.5813862908,0.3962021945,-0.5419736139,-0.953546665,-4.1241356983,0.2389483924,-2.3085710632,-1.5961527761,-3.0644629818,0.5802434094,0.4264561075,0.7388449059,-3.818749236,-0.8316986711,-3.9886801255,-0.0066974428,0.5543467387,-0.6623956796,0.0527594462,0.9977090178,-3.1789890439,-2.7715905333,0.1511870272,-0.8206045895,0.2154413937,-3.8750497921,-2.6197496383,-1.2549187184,-1.6004170824,-3.5054783401,-4.1848603753,-0.6290851067,-0.7172783882,-2.8506299442,-0.8268947146,-2.4227748099,-3.4375730184,-3.4979089434,-0.1356651318,0.8909303908,-0.6955805822,-0.7454140741,-0.8053543894,0.3659144876,1.9188763882,0.42416109,0.354152804,0.4123147259,0.1580289384,-0.8428066815,-3.4224520964,1.771774762,-0.1897817877,1.077807482,-0.8650973154,-0.4646001282,-0.7081974262,0.5975723527,0.6483707762,0.9507798233,0.7671057486,-0.0968560792,0.7913209681,-2.8816957062,0.6690790893,0.3498799049,0.1966711148,-1.130886324,0.2952579779,0.7988039331,-0.1113049955,1.3363460181,0.3105579564,1.024138965,-0.8655441131,-0.3804532875,-1.1430044639,0.4590601668,0.4803314992,0.9238542948,0.4353333002,0.8087104805,-4.1799079308,0.1868869376,0.8610773128,-3.2519844508,-0.6742191345,-3.1855343293,-0.7779823663,0.775806436,-0.9823162211,0.5428083791,-1.0743312476,-3.7549157751,0.4412560607,-2.5845920317,-0.1402326169,-1.7044073416,0.2722528247,-1.0956005744,-0.6489717901,0.64820257,-0.0182995664,0.3732788221,0.291382471,-0.2353507661,-2.7857106438,-0.0631045973,1.8844769814,0.3725018587,1.365281328,-0.7383525146,0.5466040878,0.115554972,0.2813877929,0.5410398888,-0.5903386825,-1.3794010286,-0.5091012337,-0.3646045466,0.3329925119,-0.3706047669,-1.978344496,0.9159854455,-0.9275168885,-0.3048797556,0.3796671505,0.6045502807,0.0655995181,0.654925548,0.6793853539,-0.5223602958,0.1101387415,0.3822634478,0.5829732248,-0.3876209394,0.0255337162,0.1694835942,0.4039691388,-0.3971275453,-0.5127969094,-0.4808759881,-0.1697265797,0.1728590902,0.3556130418,-1.6488081405
   0.0948180845,-0.4800813773,-1.0933819419,-0.4746166241,-0.2082935307,-1.0655283007,-0.2742176624,0.4560850111,-0.4446511973,-0.6252927263,-0.2320338347,-0.1456031399,-0.7202364794,0.7980380879,-0.7324605488,-0.4379476844,0.8329108529,-1.2624160622,0.6548480663,-0.1922153558,0.155302393,0.2372883395,-1.3563406969,0.5057200624,-0.6532628809,0.8282508452,-0.0336375723,0.1782667148,-2.1358338717,0.6356255027,-1.0004066613,0.7581047649,0.8663968085,-0.7450963951,-0.4924087333,1.1780298423,-0.699141644,-0.0186711571,0.3779482194,-1.6631890629,-1.5663450396,-1.1302682647,-0.7028134206,0.49787777,-0.5383731588,0.5251986103,-1.7536528937,0.0858534267,-1.4812543282,-0.437152045,-0.6436024474,-1.0565478797,-0.3413892644,-0.728273753,0.6199996004,0.1899470943,0.1612910007,-1.7123016604,0.3480184588,0.1620288856,-0.7230464878,-0.31827688,0.8855910857,-0.691067903,0.6537078528,-0.9642607283,-1.1203757182,-0.7374948498,-0.7611952475,0.1694013403,-1.6988435518,-0.9574746324,-0.3445222884,-0.8289245535,-0.5293630612,0.3717765869,0.5258639931,-0.2312623675,-0.6803693781,-0.8121586489,-0.7450926603,-1.6907492935,-0.8457892738,-0.9109194037,-1.149239098,-0.6269154541,0.7209428736,-0.5504632989,-1.6772295156,0.8431005152,0.4987335463,0.2793643455,-1.4156528232,-0.9340571522,-0.4243215316,0.3666789648,-1.4623034758,-0.4572988715,-0.762701171,-0.1123421198,0.5616691433,0.5574411261,1.0636638773,-0.3544624973,-0.7103394675,0.478094725,0.6579339692,0.0855272272,-0.9339207901,-0.0933677993,-1.9364050295,0.866959355,-0.1190627868,0.4695788249,-0.1421410393,-0.0820267123,-1.0302077892,0.9299194929,-1.282195607,-1.0602856967,-1.1792035409,-1.8822292837,0.7414222844,-0.8140443378,0.5694827006,-0.1647743944,-0.2856368521,0.6574064008,-1.2147066385,0.5032539992,-0.5146263413,0.6607809512,0.6439868859,0.7025003178,-0.2474463274,0.3664853202,-0.2018806987,0.4652895687,-0.6283174683,0.9200588998,0.2296972415,0.0314359856,-0.0765621391,-0.1890858439,0.8439474981,-1.0146950974,0.7782363356,-0.3434019581,0.129919286,0.2462162372,-1.7515027925,-1.1897823319,0.8213576363,0.9912998991,0.5035472645,0.6215452589,0.5649225318,0.3233181413,-1.416993703,0.4251021881,-1.2281853435,-0.5278757983,-0.5827170257,-0.7842525862,-0.529515216,0.7230647016,-1.1105257801,-0.5166636684,0.8344521192,0.0094873312,0.0693308042,-1.5071673557,-0.2804151838,1.1366068166,-0.0945597803,-0.772500773,0.3095973362,0.1614383364,-0.2645822275,-0.6846143387,-0.2060710297,-1.5446013123,-0.357028198,-0.4515262487,0.5624947504,-0.8414166292,0.0782423894,-1.1389775679,0.2459401497,-0.4897924924,-0.351018855,-1.0694026551,-0.5400886723,0.946869287,-0.2676602695,-0.4334180225,0.7170130833,-0.1916612578,0.769016505,-0.1832110366,-0.5561550081,-0.2968654166,-0.4499344737,0.685429264,-0.1913932859,-0.4003044879,0.7257260097,-0.3962244012,1.1229887801,0.7397310916,0.3296758714,-1.6438055925,-0.2879600396,0.5202231959,0.2325083009,0.8396551777,0.3004415901,-0.7845085864,-0.0732861429,-2.0916462306,-0.2541524623,-0.4184674519,-1.3019104282,0.4276230321,-0.1899514673,-0.3751738309,-0.6440759759,0.1308068327,-0.1733430207,-0.1786501939,-0.645347897,-0.217655463,0.8154892879,0.5616825561,-0.2447239565,-0.8000508214,-1.1939617784,0.411095716,1.1509136505,0.6477120413,-0.2704512016,0.2390444049,0.0567105354,-1.9471081113,0.3014054271,-0.3304265295,0.7172816333,-0.8238085702,0.9145566412,-0.5951697002,0.0815877295,-0.2028659381,-0.7128065783,-1.3625205882,-0.2286062782,0.5559259039,0.6698890501,0.6972576828,-0.160147873,1.0276800554,-0.0957518882,-0.3242828118,-0.8509525136,0.2700495096,1.1307289439,-0.7881475374,0.6888864176,-0.5845417386,-0.5311418929,0.459401872,-0.6944883233,0.2390221666,0.2522246062,-0.960977346,-0.3615916584,0.1011130824,0.1431901868,-0.1860842892,-1.4559528137,-0.3734528171,0.5616490288,0.7872590227,0.1324981855,0.053214439,1.1941793828,-1.6180319178,-0.759935849,-0.2082286677,0.3837390808,-0.9692540698,-0.796139308,0.883448281,-0.3968989684,-0.7889013696,-0.7236038076,0.5369398069,0.2567782978,-0.3106486798,0.5603461297,-1.704648898,-0.192131791,0.2420677191,-0.8739279791,-0.8341421982,-0.1647029401,-1.5603518983,-1.004393888,-1.1159946694,-0.7357959902,0.2039071467,0.8978660244,-0.0180024365,-0.4882925857,-0.654970441,0.8136127138,-1.0835092948,0.756561619,-0.0560889657,-0.6742201608,1.1080673855,0.5165379667,0.6084632821,0.9975220044,0.1286849881,-0.6343602845,-0.4956561519,0.7410754924,-0.2241510824,-0.4024298286,0.5903150387,-0.0012639624,0.9418932313,-1.2202004981,-0.6152296153,-0.9869542753,0.7867432122,-0.8461613345,-1.2878202985,-0.7427996543,-0.7065845942,0.514585637,-0.9208493738,-0.4612140643,0.5388176676,-0.9012091826,0.8439889101,-1.9035274946,0.5174394274,0.2624947099,-0.099562905,-1.1729207158,-0.7667058452,-0.8117311789,-1.0154952836,-1.001712008,0.2451765867,-0.922988963,-0.2770325015,0.5371237894,-0.8753069874,-0.1573844473,-0.4887147613,-0.0228564183,1.3129640527,-0.4180046834,-1.4027743577,0.5600033452,0.225526132,0.3694614835,1.6206757329,0.1321843056,-0.6231162188,-0.817768959,-1.2694701525,0.1928409499,-1.5340601218,-1.2291679627,-0.3435401641,-0.0291168681,-0.5518284499,-0.4253006864,0.9298250786,-1.2437854725,0.3085076215,0.385966616,-0.2351802613,0.4994642467,-1.5013318109,-1.150542363,-0.3027848152,0.0972822145,-0.8779962474,0.7500566125,0.0595207943,0.6993958767,-0.1435172579,-0.075098592,0.5707105369,-0.5339907958,0.5404594094,-0.2969337844,-0.910733689,0.200292719,-1.2988260028,0.1030547066,0.7333140411,0.3738676325,-0.1687359184,-0.6783066981,-0.3520433298,-1.4841243799,-0.0393160137,-0.8211231812,0.6453409834,-1.1190694623,1.1875465769,-0.5823679643,0.2182124738,-1.0177581423,-0.4741054948,-0.3567078834,0.0258036293,-0.1849918115,0.1700811623,-0.7161849303,-0.7506422087,-1.2816344812,-0.2516019247,-0.4622387266,-1.168988768,0.0297501995,-0.8628628241,-0.4867203795,-0.834170259,0.0316647591,-0.6484800957,0.7634190049,-1.5672021203,0.1773923443,-0.5222405868,-0.4833240686,0.3383490772,1.7729478518,0.0733928104,0.2893099603,0.40772451,0.5118899732,1.1085812481,0.4546502914,-1.0370625023,0.1259340236,0.0698551416,0.2004676222,0.0099349363,-0.8325261011,-0.3952133198,-0.1459922741,0.4142077114,-0.6086255752,0.3779881424,0.1147386462,-1.2374987514,0.658877868,-1.6343594988,-1.0588160094,-0.8434497071,-0.0640777511,-0.1339678264,-0.1249686341,1.8302794474,0.1784268143,1.5623949282,-0.2118558511,-0.302577928,1.8637734636,-0.6131518599,-0.2080863238,-1.1930249013,-1.4159455277,-1.1360933013,0.0099279958,-0.0028533368,0.8844022452,-1.3081724375,0.5440171615,0.0606381423,0.7197214757,0.6504748165,-0.5836961862,-0.5813890988,-0.3865041306,0.6450046544,-0.7587288387,-1.0168510585,1.1877719761,-0.8114749625,-0.9433619342,0.743006364,-1.2855408505,-0.8042115898,-0.8182888152,-1.6890776455,0.7671626611,-0.0723990594,-0.9736450653,0.2621443769,-0.2175652543,-1.7488025086,-0.0696357247,0.5100554687,-1.0317398401,0.628604768,0.5709348515,0.2495314549,0.5852777438,-0.0318848292,0.2933906584,0.276665427,1.5847142432,-0.5876994199,0.0067773176,0.553445511,0.3496023752,1.319469454,0.046845734,0.1165496274,0.1095456773,0.7995697974,-1.0628516708,-1.0180518837,0.0755276216,-0.2522251628,-0.227762241,-0.4397652735,0.3158770503,-0.2143944023,-0.4590689443,-0.9646209327,-0.5480779782,-0.8339271084,-1.268695473,-0.809333074,0.3670320079,0.1108953264,-2.0152032972,1.5260554987,-0.543730232,0.3717685538,-0.924421085,-1.090171866,0.1323470732,-1.0044897874,-0.6228107469,1.5642835652,0.6524217757,-0.974410273,-0.9711020871,-0.1289621978,-0.1956564474,0.376810377,-0.0523154488,-1.2696026122,1.6661831436,-0.4250738724,0.324120787,0.5976327073,1.8095005205,-0.4352653541,0.2044905118,-0.3745872549,-0.0107631831,-0.7671276578,0.2371836557,0.8676932684,-0.7251216723,-0.3143312659,1.0917505845,-1.1789753821,0.2628735405,1.045928101,-0.2392102112,0.6680108766,-1.2489405123,0.9290071564,-0.6436833351,-0.2770600323,0.3946918621,0.3528845613,1.0277424213,-1.2369716665,-0.0087605986,-0.9159621011,-1.6513253637,0.0100463678,-0.5759310977,0.1511462476,0.5255751925,-1.0306111425,-0.3499980285,-0.1235429075,-0.1962167349,-0.8384252739,-0.8261993495,0.0038567842,-0.0810478275,0.8392558449,-0.1456875469,0.0053152286,-0.2567888025,-1.1829946722,-0.3909591995,-1.3146763429,1.2455640784,0.2963766219,0.198041328,-0.3387486355,-0.391558428,-0.4351843528,0.2321557383,0.719026919,-0.6061138819,-1.003854203,0.0355897604,-0.7879993368,0.1178807095,-0.9942978344,1.4452333946,-1.1402828606,1.7115215101,-1.3436765283,-0.9396547997,-0.3907809608,0.1119416434,-1.3152419902,0.5152184374,1.2083661253,0.4939276679,-0.1583546802,-0.4626651121,1.8354673701,0.3516142099,0.1701993223,0.8508726787,0.3478061375,0.8822943458,-1.2055189163,-0.2352945683,-0.0764135833,0.3152013907,0.9543859962,0.0802792591,1.2669264612,-0.7719506387,-1.4842984695,0.499014828,0.6138572794,-0.7199866749,-1.1823437803,0.1925548109,0.0316752733,0.4174011019,-1.4494293663,-0.159791395,0.2333329772,1.8048316858,0.2519702874,-0.6253132386,0.531287105,0.1564618228,0.4690217652,-0.1487774284,0.2523089297,-0.7937379357,-1.1818805963,-0.4653539668,-0.5301697903,0.2433776705,0.1437355642,-0.4595832022,0.5169281118,0.6497160666,0.7272894229,-0.6362347889,0.4856309331,-0.8519853498,-1.0753939261,-0.0331948631,-0.8541524377,0.189164685,-0.0088609486,-0.7102330753,-0.7791060859,-0.2256940742,-0.5032841679,0.8131633074,-1.8231026782,0.7798427186,0.4392142834,-0.2982286364,-0.6800130574,-0.0811554441,0.7458893319,0.2745659007,-1.1166014903,-0.9987937895,-1.071729706,0.6804807044,1.1281511848,0.412605261,0.4716021222,0.2730228612,-0.7188295003,-0.855309032,0.0524159759,-0.6903293032,0.8487707649,-0.2632008029,-1.4512704648,-2.0483991846,-0.8318976104,1.0721381397,-0.4218815928,-1.1501925318,0.0111137912,0.0919933608,-0.9184706058,-1.2130965296,-1.2080459811,-0.7863061979,0.0348260382,-0.9506419907,-0.1282739346,0.7801096177,0.0522476284,0.0322028003,-0.8829627932,-1.9346541176,-0.1707705002,0.6258047163,-0.1469903913,0.6996130318,-0.7513070912,0.8505627414,2.3174781523,-0.0751734487,-0.9291074536,0.3302166611,2.2801434377,-0.0134819192,1.459918322,0.6793068949,-0.0337634453,2.0304537159,-1.4121907526,-0.0493026981,-1.5875618955,0.3954289982,-0.2484905975,-0.3467760061,0.1707630239,-0.5871155191,3.6321593778,-1.528750478,0.2625664844,0.3415151774,-1.6172044171,-0.1327729405,-1.3768183497,-0.7855804545,-0.1277292806,-4.0939266411,-0.2697416137,-1.0982566028,-0.8497012568,1.1247116124,-1.3643153517,2.5651184373,-0.7986833856,-0.5583185862,2.4963170662,-0.9943652161,0.3600707475,-2.2367668618,0.4087701402,0.3836575164,3.4481573826,1.891488232,0.9591346631,-0.8704441012,-0.6490721365,-0.7168804075,-0.8047641871,-0.6388102543,2.4248663745,0.5372654792,3.1408542975,0.0503499159,-0.1614706966,-0.8013381895,-3.1104496063,-0.1959705409,0.9019667337,-0.8175405045,-0.6669400856,0.3894984216,-0.6964724448,-1.4053766199,0.1562878894,-0.3382709542,-3.2918752204,0.5967077681,-1.3311186609,0.7558170152,-1.2976162742,4.0943357725,-0.1460161196,-0.5221098148,-3.1612109162,0.5652221245,-0.2944759515,1.1758032598,0.8640297241,3.9326770855,-0.2098757706,0.3649170722,-0.5926108756,0.1103925209,2.7152667556,0.4086397439,0.9305726966,-0.7160767781,-0.01565699,0.4303508069,0.3939798523,0.473036058,0.3491299324,0.5264739595,-0.1242127234,-0.901818496,-0.0348986064,-0.5058800802,-3.812601793,0.2043651545,0.4532414866,-1.0654661589,-0.8266640692,-0.4344336673,-0.644314892,-0.8243860336,4.071718875,0.6713408992,3.4268479058,-0.1682421149,-1.0253017158,3.8824577662,-0.2943580063,-2.5849636471,0.3760159649,0.2200677977,0.4620922644,-0.7039439034,1.8941540782,3.0055044482,-0.9198767277,1.582159372,0.9074759123,-0.1345319709,1.1745725351,0.2406642007,3.6026873976,-1.1346897018,0.5943790475,0.4381413254,-0.6178907157,2.2475473641,0.3913835062,-0.332235327,-0.3755384889,-0.9015266644,-0.4291478807,-0.3399741686,-0.7113811117,-0.0655887528,0.2842483918,0.8442081353,3.6157425478,-0.504092859,-0.4537607474,-0.2850692678,1.4490525946,-1.6054372312,1.049115762,2.9680902775,-0.705985308,-3.8834425974,-1.3296137587,0.3017583192,-0.523808826,4.1745961454,-1.0482015408,-0.1718946258,-0.3495196275,0.9766550165,3.61705191,-0.0387657232,0.6125690851,-0.040753887,2.6806991478,-0.9441173673,0.0874058678,0.4180010973,-0.3042193569,-0.7778506713,0.9010966715,-0.0883572998,-0.1316885523,0.3184710416,-0.9676452448,-0.8823326033,0.6902958597,-0.2257858189,-3.6757620171,0.6649203246,0.4778911008,-1.8341671822,2.2865194655,-2.2856082369,0.3410369137,1.2961330234,0.5689877673,3.3922663854,-1.4385248043,-0.5163185318,0.8015436892,0.6415309947,-0.062317048,0.6075128573,-0.7994175245,0.880113217,0.8864081784,-0.3714158239,-1.1033897192,2.5239690105,-2.3656663625,0.5828626987,3.4339092859,3.4825292395,-0.4342129044,-1.0066404366,0.430665806,0.3730896386,-0.2926364921,-0.1503419609,1.3490421143,0.9785585835,-2.3102593217,2.6652651179,0.9660950163,0.3032891334,-1.1321652877,1.1846714694,3.106998709,-0.9906466577,1.2423820818,-0.6505434062,-0.3270349192,0.431011962,0.301356752,0.7989303534,0.8674663149,0.5600171477,-3.7452041743,-4.005829078,-0.3115429064,0.887970269,0.0113495746,1.7281660609,-0.6826226992,0.0238625542,-0.0451600955,0.177164974,0.5723628644,-0.9032562029,-0.8044160221,0.1786104656,2.3105891225,0.661453864,-0.1102749692,0.3451553161,-3.7578381709,-3.0107032865,-3.0212215612,2.2427899642,-0.0484752374,0.3034389375,-3.0717310062,1.0680453623,0.1745336756,3.4193901829,-0.7549285023,2.977462474,0.7277976189,1.0628632186,-1.605437801,0.7806399914,-0.4066195627,3.6440517951,-0.7974104518,2.6792259853,-0.2876115644,-0.3697659588,-0.2517431671,0.8124913416,-0.7441037969,2.6910001293,2.9642078928,-0.4817322256,-0.1094101716,0.6169570351,3.2473125254,3.6645032371,1.5715146551,0.8728873523,3.2236825429,1.6769651508,0.6799516729,-0.8224455428,4.1330303577,0.8942058372,0.9556129938,2.9364673366,3.1597208162,-0.0718224908,-2.3706343384,-0.6051750195,-1.1699289766,-0.4139493345,0.5292265896,-0.3204316413,-0.7936107404,-1.2272109205,0.6535534718,0.4347993279,1.4325453875,2.3839115808,-0.5976837805,-0.0546751569,0.3198808327,0.765274565,0.4039480385,-1.2691706216,-0.4852073161,0.4066080407,-0.1133736097,-0.4341865879,0.9332903687,0.3186562674,3.8009245428,-1.3739968857,-1.2687682037,-0.0824825241,1.5684527489,-0.0765936403,-0.3584732581,-0.7702330989,-0.3473503546,0.0860137175,-1.1324277352,0.5792873929,-0.253967088,0.9677057725,0.8698741901,0.0384451255,-0.0751912837,1.1308159031,-0.1574732473,0.9797678914,0.0270893826,0.0553170402,3.5177034945,-0.0389319311,3.5297523612,0.432087302,0.1534151623,-0.0766088414,0.061765739,0.565283404,2.4000120705,-1.929146667,3.5411736338,0.4015940249,0.2122481381,0.4240854588,0.8861584664,-0.2546618057,0.3741359742,0.7806846074,0.253405391,0.1245669188,0.8690639888,3.0697105309,-0.2269080628,-0.4560090556,-0.3146543405,-3.6865853721,0.3690619092,-1.7563781166,0.6647223258,0.9902914694,0.3106833684,1.0509814606,1.9881094786,1.1632319774,0.7204653511,0.6289966554,-1.1070529401,3.8648938775,0.3352667282,0.5475839331,2.2890779558,0.8826565274,1.3085578033,0.1445700798,-1.6930206507,0.1572150137,0.6994015784,0.3269372601,-0.5781892674,-0.0861364916,-1.1770159275,-0.2569245422,-0.4196084426,-1.2548692086,3.2531610472,0.9208062134,2.5280684968,1.1002709757,1.2014014577,0.2609890268,3.6728606187,0.542492053,-1.3194513447,3.4675040809,-0.3084577379,1.0240883948,2.501309769,-0.527632414,2.4081073577,2.6621610965,2.3938906441,2.8685536735,-0.0362142708,1.2687194631,1.0106681792,0.1820866663,2.7705695994,-0.7611974854,3.1138468913,-0.2236951351,0.7390884928,0.3586552702,-0.2596159939,3.113746275,-0.3677540257,0.5696292973,-1.498202265,-0.3090387532,1.2705386286,2.9371122388,0.8571380567,3.5431387081,0.8986890941,-0.0568177211,-1.2579738514,1.2990187473,-0.7583853073,0.6167679452,-0.3188268042,1.1690375216,4.1508772113,2.2694670718,0.8573599353,3.8651893074,0.2294929682,0.6135083355,-0.5206316515,-0.6536832815,-1.066253071,1.1519145948,2.4292572304,-0.2533054877,2.1990649437,-0.8786468473,0.972200846,-1.8597250314,-0.0664885871,-0.3297288813,3.6238843584,-0.0354229994,0.0864080413,-0.3870694406,-0.3664547614,-1.0533325769,0.8842486289,1.7067607062,-0.7599926711,-0.9424598839,-1.3597632765,-0.6879258785,0.8579676824,2.4675930929,-0.645090921,1.0881484664,0.5270247965,0.6098795312,0.2374012837,2.4373500329,-0.3627714779,2.3751497527,0.8600896481,1.3763463916,4.1390342381,2.4453622624,3.7726877192,2.2603033286,0.1853356013,1.3197618471,0.4465285792,2.2991454072,-1.1555401653,0.6275814387,-1.0724631991,0.194432995,-0.0102035348,-1.6223682533,-0.2980014854,3.0356850951,1.9292308397,1.1475366773,1.159042371,-1.4690212454,-1.809533455,-1.6376703826,0.0244000297,-0.930108155,0.0808691003,0.5568364004,0.3233666348,3.4346438305,0.2116423169,2.9327699256,0.4810103042,1.081065916,0.6004182844,-1.6033346297,0.9129671636,3.1284532908,0.0617697334,1.2238239871,0.6119273853,0.2157216081,2.7794683473,-0.7533464757,-0.7930673262,-0.7771340139,-0.8697579891,1.5809311932,3.9788705593,0.7265809902,-0.1099502281,2.3521281664,0.1414291695,-0.1160553371,-0.3439975169,2.2458297084,0.6865554964,-0.7798690905,0.902972345,-0.7360039175,1.3038242419,0.173900885,-0.262786736,0.8758139963,-1.0221477982,0.580494603,3.1512093061,0.8233364532,-1.3996740454,4.1139889848,-0.0676111341,0.9423263898,1.0488611553,-0.6359481717,-1.0004905437,0.2247945208,0.1396404661,-0.2174882844,-0.6491574792,0.4453517718,0.4736213596,3.41372531,2.4780029823,1.2743658744,0.2499619934,2.583520441,-0.9756790779,2.973546863,0.4223664719,-0.9980599327,1.2023651352,-0.7405863921,2.5757713269,0.1433168712,-0.7796747469,0.5764735942,1.766298924,1.0521295508,0.0662293832,-0.7352264031,0.8966522227,1.8886066645,2.2609179319,-1.0063325441,3.0435478867,-2.033407709,-1.0523180986,-0.1956820168,0.5414254681,0.3857306659,1.4261719352,1.7023774593,1.3270451559,2.5814882121,-0.7704496499,-0.3582879519,3.9429238902,-0.0512341812,-0.2684141431,-0.0050586272,-0.3229675461,-0.1848756896,-1.6853485978,-0.2181553263,-0.0825913528,2.2869863722,1.2301551802,-1.5155121669,-2.0247961269,-0.6668996711,-0.7786142123,-0.7462190624,3.8941374111,3.3666573023,-0.4520467686,0.1664355829,0.7443627157,-0.2840394411,0.2828974805,0.8990984053,2.3136814856,0.2817593016,2.0731553737,2.8073506872,0.1434234844,0.4158457419,-1.0422566624,-0.8125041764,1.3754522082,3.3637254126,3.466968827,4.1663167256,2.7360704156,-0.0205040599,-1.6822022675,-0.838364884,3.0211634278,-0.1252204648,0.7861396393,-0.2184727136,-0.4787215901,-1.0603042159,-0.8805027905,-1.3975549581,3.1243558632,0.642229775,0.2985138587,-1.9259886645,0.1240730863,-1.242264064,0.6484890026,-0.602302562,0.0700220132,0.6863236087,1.6557106522,-1.0189703431,-0.1689396168,0.54416018,1.6530672144,0.0978321598,-1.3950110349,-0.8908326314,-1.4535711198,-0.1856611122,-1.2631491545,-1.9281751588,0.204982367,1.2254751754,-0.9845662882,-0.1489944369,-0.9854860619,0.0454550648,0.1007906466,0.0686406528,3.4684704948,0.7527167725,1.2249289586,1.4676865339,0.8376582523,3.1845726789,-0.129446183,0.5994382157,0.6624539931,0.0321155482,0.0336655075,-0.4459907726,3.9115853166,0.3954101857,3.8418348187,0.7698066573,-0.4351137618,1.6371741018,0.6103654127,0.176700023,3.6021592271,1.5631276985,0.0394946287,-0.0452866087,-0.6058190441,2.7522753084,3.5617527309,0.0391590609,-0.3465896072,1.2630932465,0.7413229897,0.8217085315,2.8663285855,0.7834873956,3.5937259852,-0.6026793897,0.5478434673,-0.7968507436,1.6476088374,-0.5048375737,2.6822542214,-0.5935007632,2.8796775389,-0.8604996594,0.1398152192,-0.4068757113,-0.9547836406,-0.5311624396,-0.4244730641,-1.3159462166,-0.8897277915,0.0642517256,0.844855009,0.0996141873,-1.8045717532,3.1522913729,-1.6807856326,0.3672735558,-0.6178588606,-0.0928862406,-0.1730541844,0.3081559717,-0.947951095,-0.523261446,0.0477589447,2.7868213496,0.1142928688,-1.7289581325,0.0837798957,2.3601604383,-0.1509137142,4.1281525457,-0.9853401962,2.5318952759,-0.9520865022,-0.3218433774,-0.106047519,0.9616766125,0.3384545024,0.0438742252,0.3256121496,0.0302635011,0.3962816647,0.9934772483,0.6539769996,0.6049186078,1.1054756839,-0.5309931352,0.8769990317,-0.336635927,0.6319924636,-0.9197598901,-0.0528738474,-0.1560330179,-2.8881111206,-0.2663645931,-1.706540858,0.6997338124,0.4591963221,-0.8322121116,-0.2421563351,-0.2187587878,1.9620922753,-0.137824888,0.2498207623,-0.1481676986,1.0456465068,-0.1573385995,-0.7375162499,0.9499190225,-0.4203953546,1.3049429212,0.5012316924,-0.7553594036,0.2924259286,0.7129748739,0.180405569,0.8833818873,0.8562111039,1.0175807421,-0.8438527593,0.9928967987,0.2607133203,-0.5200773466,-0.0036771779,0.4848773938,-0.3386602189,0.7669036778,-0.8286464772,2.0789044167,-0.0149013388,-0.4314229268,-3.3237830157,-2.8728463946,0.8471946879,-0.5733653965,1.3413141962,-0.3270570438,-0.7051396234,0.1709803795,-1.2359777481,0.6679073028,-2.8768649954,1.7002725814,0.428823532,0.2667393226,0.8107588675,0.8393703798,-0.6454955312,0.7297271605,-0.2587213531,0.0553179456,-0.102930621,-0.1146610058,0.6378658982,-0.4065901825,-0.3184371397,-0.0773242768,0.8636112149,-0.9060472703,-0.9447511041,-0.8743800206,0.1638323876,-0.2443194079,1.5975287563,-0.6990440922,0.225964576,0.1934379427,-0.331837314,-2.3677177573,-0.7557585849,0.7729150726,0.3532416365,-0.4889825456,0.4365907011,-0.6748246025,0.4229100235,1.1387743622,0.7109816438,-0.4863214135,-0.1936584877,0.2133160221,-0.8135349786,0.4060862593,0.1024051468,0.7189340003,0.1128077819,-0.7287771311,0.1827395513,0.5839530114,-0.0643288531,-0.1396522665,-0.7443322251,0.9421358592,1.8240900157,-0.0868472774,-2.6624085306,-0.3915860019,-1.5920344232,0.2883411556,-0.8301271547,-2.4161239478,-0.5563498622,1.8138832064,0.9368541059,-0.6731449802,0.8271813703,0.4997440994,-0.1838670541,0.5904543259,0.9305451281,-0.7145538446,-0.5497917858,0.1717182061,0.4060859487,-0.4507290283,-1.8179271778,-0.2025804727,-0.0687668157,-0.0979835755,-0.5219023856,-3.4754286431,0.9957425075,0.9120935421,0.637347409,-0.3157150738,-0.307473341,0.601042169,1.0948058386,-0.4723157426,0.2757877538,-0.5712910634,-2.3492045901,1.0103740071,0.4458459232,0.0327456722,-0.5672022752,2.0541161989,-0.5603360915,-1.059704817,0.835003655,0.3972704986,-0.1474058583,0.9147334952,-0.1784244003,-3.687172243,-0.7253002838,0.3644905511,-0.5357926536,0.6567386567,-3.7922047028,-1.0052555205,-0.5424236524,1.0285115679,-2.374936833,0.0989090995,-0.4556952693,-0.9280106927,1.0319043925,0.3261852588,0.3413703268,-0.1965949969,0.6407343354,-0.2074819429,0.2491159205,0.4244907621,0.8798400967,-0.3003357818,-0.0521415514,0.8476995767,-0.1193879148,0.5718354857,-3.127560147,1.4141319672,0.2346541048,-0.5228319021,0.2599702374,-3.0844666833,0.4233810572,-0.8500171579,-2.5351371671,0.2790211129,-0.0055970419,-0.0506532845,0.9263343171,0.0788407736,-0.3744737598,-0.2614122813,0.8700455392,-1.3760317564,1.3365912717,-3.5560079102,-1.055537644,-3.8794274596,0.8848014717,1.116268814,0.4162413654,0.0491383457,0.7367648485,-0.4532168113,0.6638191232,-0.5459540771,1.060668107,0.3586935879,-0.8512734105,1.0669156792,-0.2280581176,-0.3779489578,-2.3618486952,1.0575510773,-3.1499419698,0.1908052668,0.5359667778,1.0593830198,0.855504919,-3.7885514274,0.8546130036,0.5609092662,0.9812801657,2.0806758472,-0.2639976316,0.8110338884,0.2136511162,-3.797090895,-0.1507940993,1.0760403811,0.0920617142,0.0487932482,-0.3855549238,1.3694308056,0.5996056587,0.3834316069,-2.76379359,0.3673148882,-0.4456273432,0.3299283503,0.1320939381,1.1216583597,0.2232890909,0.7936965615,-0.8497268695,-0.5599686365,-0.0416513843,0.3021571722,0.4873339355,0.7081803117,-0.1831095744,-1.1399733636,-0.0189275405,-0.6432069964,1.0166281078,-0.3641538951,0.5195007516,-3.3774623778,0.4782721721,-4.1138887587,-0.0215666351,-0.0253369312,-0.2494938114,0.8312910042,-0.1444204669,-2.5094413658,-3.8423289663,0.1069253759,-0.5080620806,0.9378192686,-2.5385409242,-2.7313680387,-0.7548021472,-0.9029359687,-0.8750813975,-3.7792265615,-0.6407905049,-0.1629121815,-0.6196342362,-1.1846376439,-0.3879335062,-0.8680049194,-0.3070928519,-0.1501228838,0.3487503345,-0.5070952814,-0.7444782304,0.5747142999,1.0010766812,0.9024162651,0.5462479476,0.0650677986,0.1366804545,0.4076596506,0.3435260912,-4.0519813755,1.108145371,-0.5552093674,-0.6753310906,0.0257898885,-0.6602653794,0.2407672833,0.5620246153,-0.3356725783,-0.035839959,0.3466013359,1.1948688086,-0.4427826485,-3.6636281474,-0.2523042181,1.0715559013,0.8815550844,0.268873965,1.1852694034,0.9095545833,-0.9159487526,0.6798723244,0.1159197487,0.5459472002,-0.0864004248,-0.9932816602,0.533281752,-0.6410821279,-0.6043223141,0.7236867148,-0.2880212736,-0.198421414,-1.7868705049,0.2344417963,0.5930338218,-0.7043942055,-0.7434259903,-3.0005264902,0.5214468644,0.4138621952,0.037038826,0.9816344772,-0.7892329861,-1.459580225,0.0360572674,-3.7342192194,-0.3701735106,-2.2851105214,0.5493417311,-0.2173287471,0.0309006691,0.5986711136,-0.7191077101,0.0304275105,0.1561943142,-0.2506182077,-3.9193007571,-1.0136454434,-0.2447762395,-0.7281422711,1.507595838,-0.5251584885,-0.3152093431,0.2537261127,0.9674810331,0.6587589877,2.5056449083,0.5288903821,0.1088931123,1.1373616688,0.9857223826,-0.1602104202,3.986081922,-0.4301178364,-0.5999320515,1.6410124165,0.7147344945,1.2475227621,0.7763777624,-3.995865107,-0.8249266237,0.7076895863,0.7293616057,-1.4642694407,-0.1129026952,-0.1228436489,-0.6616539642,0.6728761396,0.6194649359,2.863840681,-0.807623275,3.4016932021,-0.2235657649,1.2761308906,0.1023255991,2.6480970776,1.4383955901,-0.4952881005,3.1228696998,0.403839232,1.5130248488,3.002432448,0.4022143483,2.1997551957,3.2753334553,1.1238965351,2.274810295,1.5445286483,-0.192646875,1.1198310224,0.5987680937,3.3070066701,-0.7764283867,3.5478861551,0.6536547733,-0.6049279279,1.4579432445,-0.5228091571,4.0614719175,0.770217327,0.2990906812,-1.0766358487,-0.9085204686,0.665150861,2.9977735328,3.0890034012,3.8554216859,-0.2626012395,0.4013429809,-2.4721403677,-0.2610983882,-0.937260739,1.250265001,-0.6059086706,0.2281127783,2.8398459456,3.4042922945,0.1074801575,2.4601925761,-0.7317863744,0.8403121728,0.7454480905,-0.0645767933,-0.0677232705,-0.0444907845,2.3355525924,-0.9561479118,1.1480461147,0.3747547415,-0.2724794501,-0.9767941829,0.921985984,0.2977972659,3.3136618,-0.1787536264,0.872398569,-0.6631644192,-0.1564414705,-0.1653926729,0.3352501967,1.3748745468,-0.6513687045,-0.9869822841,-1.8187684339,-0.8598480843,0.01709617,3.4850364531,0.1580021306,0.5164603032,0.2076835046,-0.7142341803,1.4556359592,2.2566410508,0.5037404879,3.2539380014,-0.2465184813,1.0989084345,4.0672997434,3.0025653143,3.2042871374,2.2091090458,1.1675541614,0.7095824474,1.1413757225,0.048427954,-1.3604341001,-0.3273956551,-0.9965816302,0.3378238583,0.7771153148,-1.8997181286,-0.5145624198,2.3248073125,0.7851909604,1.3509179554,0.7106455836,-1.0153211019,-1.5149686783,0.3111883365,0.0711906272,0.8833385642,-0.3095143131,0.2672562926,-0.2961593563,1.0257296043,-0.5302721866,1.2176282389,-0.2033416688,1.0415821049,1.305667638,-0.5972649518,-0.7243707231,2.6003902254,-0.2895748462,-0.2880034261,1.4579096187,1.2162864384,2.4860833467,0.5241025826,0.6919011943,-0.9298649158,-0.6605104175,1.0188966093,2.4728801031,1.6050680994,-0.5903713871,4.0910192013,0.762765064,-1.8146479396,0.1832221697,2.4392248099,3.3482040775,0.529903091,0.0067681083,-0.5954982872,-0.4798367614,0.6489026978,-0.1667735473,-0.574815763,-1.9988109539,-0.8684710013,2.534386195,1.6127472823,-0.0933960425
