encog,BasicNetwork,java,3.3.0,1,1576422361956
[BASIC]
[BASIC:PARAMS]
[BASIC:NETWORK]
beginTraining=0
connectionLimit=0
contextTargetOffset=0,0,0,0
contextTargetSize=0,0,0,0
endTraining=3
hasContext=f
inputCount=379
layerCounts=4,16,64,380
layerFeedCounts=4,15,63,379
layerContextCount=0,0,0,0
layerIndex=0,4,20,84
output=0,0,0,0,0,0,0,0,0,0,0,0,0,0,0,0,0,0,0,1,0,0,0,0,0,0,0,0,0,0,0,0,0,0,0,0,0,0,0,0,0,0,0,0,0,0,0,0,0,0,0,0,0,0,0,0,0,0,0,0,0,0,0,0,0,0,0,0,0,0,0,0,0,0,0,0,0,0,0,0,0,0,0,1,0,0,0,0,0,0,0,0,0,0,0,0,0,0,0,0,0,0,0,0,0,0,0,0,0,0,0,0,0,0,0,0,0,0,0,0,0,0,0,0,0,0,0,0,0,0,0,0,0,0,0,0,0,0,0,0,0,0,0,0,0,0,0,0,0,0,0,0,0,0,0,0,0,0,0,0,0,0,0,0,0,0,0,0,0,0,0,0,0,0,0,0,0,0,0,0,0,0,0,0,0,0,0,0,0,0,0,0,0,0,0,0,0,0,0,0,0,0,0,0,0,0,0,0,0,0,0,0,0,0,0,0,0,0,0,0,0,0,0,0,0,0,0,0,0,0,0,0,0,0,0,0,0,0,0,0,0,0,0,0,0,0,0,0,0,0,0,0,0,0,0,0,0,0,0,0,0,0,0,0,0,0,0,0,0,0,0,0,0,0,0,0,0,0,0,0,0,0,0,0,0,0,0,0,0,0,0,0,0,0,0,0,0,0,0,0,0,0,0,0,0,0,0,0,0,0,0,0,0,0,0,0,0,0,0,0,0,0,0,0,0,0,0,0,0,0,0,0,0,0,0,0,0,0,0,0,0,0,0,0,0,0,0,0,0,0,0,0,0,0,0,0,0,0,0,0,0,0,0,0,0,0,0,0,0,0,0,0,0,0,0,0,0,0,0,0,0,0,0,0,0,0,0,0,0,0,0,0,0,0,0,0,0,0,0,0,0,0,0,0,0,0,0,0,0,0,0,0,0,0,0,0,0,0,0,0,0,0,0,0,0,0,0,0,0,0,0,0,0,0,0,0,0,0,0,0,0,0,0,0,0,0,0,0,0,0,0,0,0,0,0,0,0,0,0,0,0,0,0,1
outputCount=4
weightIndex=0,64,1024,24964
weights=##0
##double#24964
   0.5022024954,-1.7881501311,-0.7317255324,0.309884575,0.9942693091,-1.8152638557,-0.6755358362,0.3208232761,-0.4098103385,0.0619210012,0.9986955533,1.3017373278,0.7447823831,0.8350793148,-0.8414487668,0.0286875195,-1.0613627048,1.5344251234,-0.138900939,-0.4678693219,-1.1008783045,1.1977471085,0.5418706893,-0.3922067803,0.6600696855,0.8232882131,-1.8199350704,-0.4969934781,-0.8047779357,0.2000158212,-0.1321190178,0.7278824859,-0.6203749963,-2.8173473357,0.9073713076,-1.7150849512,0.1544631728,-2.2491148302,-0.3548951898,-0.3447400684,-0.7337766192,-1.2685522186,-2.5338331636,-1.1068411654,-0.2238952287,-1.509440686,-0.0645821121,-0.8090123929,-0.3972929756,-3.178828356,0.3457982699,-0.3217734057,0.1883107115,-2.4564291801,-0.14739659,1.0075956985,0.0213196898,-3.0847840331,-3.1849879259,-3.1589203941,-1.3982710809,-2.1769124143,-0.5539045546,-0.9449462722,-0.3801862692,0.7496209457,0.6311980845,-0.5071694498,0.2335266308,-1.3607484131,-1.3730797545,0.5084176227,-0.8398440407,3.892829255,2.5583356101,0.5214900899,-1.7364020769,0.6959699387,2.7833622807,-0.5511163674,0.5914531492,3.7625567346,-1.5400299495,0.7952581021,-0.4877277811,-1.3814391229,2.7046769806,3.0078541348,3.3420066576,-0.1450291282,-0.6478935126,0.7349629504,-0.6486087331,4.1895452294,0.4996008818,0.4647022012,2.4228688927,-0.9858008227,0.9311238654,-1.156975399,0.5308490301,-0.3192125254,-0.4561802154,3.9523678323,0.073290533,0.7508745494,-0.2808260414,0.5529790745,-0.0724551461,0.3360786771,0.6042408145,0.89678817,0.4757309345,-0.4957228233,0.8150114005,2.2510770283,-0.9542190278,2.9330622979,3.8972429265,2.2682156246,-0.1394421561,-0.0241472989,2.2206473189,2.9573103812,0.8920968878,0.5559800426,3.4967493149,0.0301236941,-0.4491660198,-0.5960947964,-0.5959400337,-0.8060436329,0.8655467053,0.8623638768,-0.2443057421,-0.4980659126,-0.9759835971,-1.1119651161,-3.629831046,0.7951523764,1.7424826309,-1.9738914417,-3.448404376,0.0559088742,-0.8121098499,-1.7921747995,-0.6300730965,-0.29324448,-1.0364208046,-0.3556763232,-3.947185947,-2.9469993995,-2.8992555754,0.4117794696,-0.1289764064,-0.4569004855,-0.1046244775,-3.2152097947,-1.5444235698,-0.8151391852,-3.5585943753,0.8548886983,-0.7260841711,-0.9015224446,-1.1433662605,-0.1431197109,-0.0311052198,-2.8970512489,-0.3911277136,0.7888750759,-0.6108901474,0.7329718065,-0.3657821349,-0.031950104,-1.1318439755,-0.8731579212,-0.7535749427,-0.1254718438,0.8344077417,-3.4866958681,0.8950629579,-1.8677127319,-3.8221712346,-2.8422539222,-0.6206716607,0.7913887349,-2.7741374096,-2.058114256,0.1068600512,-1.1258809749,-3.2265054915,-0.9548035209,-1.0557868839,-0.473823404,-0.7535721269,-0.5485998748,-0.4519945491,-0.6702137019,1.1274343228,-0.5786820947,-0.1533860572,-2.1779829227,-0.2983181951,0.7784042195,0.7319801117,0.6446886012,-0.3898740509,0.1061815112,0.2591933231,-2.2249423343,0.3073551878,0.0823738241,0.644122521,0.1485183631,-0.9310587701,-1.7822113801,-0.3852545593,0.075507133,0.2780401569,-0.1707998785,0.5162710955,-0.7934270538,-0.0482527535,-0.7017355017,-1.6160602222,-0.4136229904,0.864585419,-0.5863780786,0.2424383323,-0.7451454181,-0.7931299846,-2.8236709031,0.8314413361,-0.0129150022,-0.6515152848,-0.7205211533,-0.5425676303,-1.0115620324,0.7537737787,-0.4700026711,0.4101616834,-0.7557959445,-0.0576021289,-3.2635278859,0.0000228762,-0.3583032234,-2.4308800712,0.6615069765,-0.1039631327,0.9773646231,-2.7827811812,-1.1131275048,0.6228155426,0.1397752813,-1.4350309236,0.4844420593,0.5871239264,0.3305002426,-0.7233384847,0.6204773586,-0.4655856043,0.6238198921,-0.6857071042,-0.4955298369,0.7406851736,0.710252764,0.9203648384,-0.5758031645,-0.9662796253,-0.1195710451,1.8168433493,0.4645194071,-0.7622984064,1.289748587,-0.7078361932,-0.0436471358,-0.0153625552,0.5593449092,1.2780604587,1.1769148355,1.3781614975,-0.5432472547,0.0602820689,-0.3478664074,-0.2338694848,1.1410752934,0.8618549929,-0.686442068,1.7064403453,-0.9542552472,0.8077193426,-0.6000939764,-0.7330469554,1.0114987974,0.4540356267,0.3161032741,0.6332743584,-0.0874636208,-0.4518765792,-0.2118675789,0.3634537804,-0.4322749262,0.7715164301,0.5479343395,-0.7953167372,0.4277849706,0.5055424769,0.7063144641,-0.8964790435,1.9959238112,2.7385189322,-0.1889142256,-0.1667254212,-0.2426104183,2.9103347861,0.5033891616,-0.8188947858,0.7239470798,1.0713174165,-0.157830345,0.0750780177,-0.154237539,0.9763833145,-0.1225071114,-0.1949180006,-0.3469996519,0.8852470278,-0.3943517805,-0.6813309701,0.8432613679,-0.1908072536,0.8670189405,-3.8003464579,1.1398465876,1.0422883122,-0.7247216404,0.5099770205,0.8266428141,-1.3001885516,-0.8741791751,-0.7612055174,0.3116135181,0.0155866768,1.0659806409,0.7212569745,-0.0985899441,-0.6104829997,0.2834980677,0.2743667932,0.9350375512,1.2426603819,0.9342547825,1.0452489179,-0.7774534326,0.5603223362,-0.7004050178,0.8966689167,0.638402301,0.6881736812,1.3128039319,0.5862503148,0.2911164108,0.2907586691,0.2059141733,0.1483584376,0.2551440283,0.3003096998,0.165879867,0.0133491482,-0.281923383,-0.5595883129,1.1718243654,0.0413876861,0.1045286609,0.7902773554,0.9828405948,-0.8485699659,-0.5324205537,0.8195273035,0.5326979722,-0.8136112978,-0.3452449518,1.2692937984,0.5501604435,-0.0880090999,-0.5974294031,-0.2977874477,-0.449082222,0.3594340311,1.6015490126,-0.2459560935,0.716781632,-0.6299929868,-3.1203524904,-3.0128229421,-0.0232543741,1.2507915374,-1.1052874901,-3.366811839,1.5757599834,-0.0051662088,-2.7393846141,1.6784749922,0.5123231015,0.9231084635,0.2074579186,-0.5661853081,-2.5281874747,-3.0235710333,-0.5600767792,0.3650682881,-0.7447655639,1.2344301773,-2.252442939,-3.2828351228,-0.8200092524,-2.992196949,0.8557838176,-0.753077032,0.8733779951,-1.101745016,-0.618754704,-1.0703490076,-2.9307057658,0.8239405361,0.024088401,-0.4553819057,-0.6305387536,0.5113375394,-0.9844194912,-0.4359179495,-0.9086879931,0.150573449,-0.2538748715,0.1241056406,-3.2932792563,-0.7360342084,-3.252260774,-2.2588578903,-2.7428075789,-0.5330697111,-0.827902312,-3.0989425098,-3.1157743316,-0.5492452852,0.8425057417,-2.413041103,-0.3222900404,0.2283678471,-0.8734621407,-1.0720491012,-0.0684818157,0.8339372339,-0.3959642857,0.7836555295,0.0126102012,-0.5398635135,-0.9086659507,-0.3831861768,0.9978795121,-0.1890532283,-0.4845341372,-0.6626429417,0.6288826192,0.2858397418,-0.7115122404,-0.6431762007,0.4349859083,0.7873526892,-0.1184019792,0.2777005118,-1.0529045715,-1.0884979288,-0.209366681,-0.163053203,0.052053932,0.9097423652,-0.3138706808,-0.8458155196,0.0556942556,0.4803276715,0.8539594678,-0.7529100881,-0.2381402518,0.3456314918,-0.1369972959,-0.8395957801,0.4590667809,-0.8278102132,0.8263061211,0.7550411582,0.0088603561,0.1426416544,0.2055874309,-0.4985282196,0.0491315983,-0.6265442534,0.5429523919,0.3562431121,-4.1921602594,0.8453856292,-0.7679190253,-2.8129448113,-1.0108720449,0.274902933,-0.8197770318,-3.373538514,-1.0620246062,0.4614046674,0.249814391,-0.848063456,-0.7745554132,0.1745298572,0.7928194699,0.1151685566,-0.5000450784,-0.5398038983,-0.0267715486,0.1403763896,-0.1141508173,-0.0601452726,0.9165491411,0.6627581637,-0.4458865156,-3.9064425684,0.1314627831,-0.057849382,0.73777877,-0.2499015484,0.1625070377,0.1177559754,0.1710687743,0.5857891681,-0.3277111944,-0.4256897438,0.6423639665,1.2740537007,-0.757939044,0.3252326606,0.3890120189,0.3756000723,-0.4390309195,0.8446238003,-0.807113473,-0.5384111232,-1.2075484959,-0.6602403626,-0.374146165,0.1289711394,-1.0656900356,0.2460895905,0.4899739564,0.4962575902,-0.0677670249,-0.651507356,-0.412178922,0.1167108383,-0.4077324095,0.1942751622,0.503199625,0.0913068348,-0.2276040566,-0.5402366286,-0.188559446,0.0714336589,0.7802278967,1.0320556334,1.1642851185,-0.6414975615,-0.566258178,0.5000476786,0.3586230565,-0.4748036834,0.0943676081,1.1720227618,0.0089364639,0.3609015253,0.8776339602,-0.2082467113,-0.5972044874,0.0202958032,0.2339741104,-0.7337061712,-0.809422489,0.484012385,-0.3544947577,-1.0235054476,0.4743196941,2.4560853564,0.0351555816,-0.8589444745,0.1080627502,0.4456962271,-1.2537917366,1.6039540541,0.7142597008,0.3271341276,0.2785676592,-1.1919875903,-0.7220399909,-0.5628363647,0.9147481277,0.3941796203,0.017950433,0.2859326764,-1.1652389255,0.5992232329,0.1620125832,-0.91634525,-0.7496461702,-0.0781602524,-0.1489917119,-0.1980201632,-0.1272961717,-0.1401159918,0.3574362899,-0.0781134897,-0.7788293326,-0.1525477227,-0.7766551702,0.8873558084,-1.1823669054,0.107136558,-0.6387247085,0.3265594155,0.6224191512,0.5417308456,-0.3546001998,-0.8762954195,-1.0142105581,-0.5162262612,-0.4211002156,0.1878095567,-0.7823176203,-0.6345622996,-0.6756390686,0.9593648548,0.1843149498,-1.3160159472,-0.5521780788,0.7304359854,-0.1782815499,-2.8007257258,-0.8445824658,-0.5298673822,0.2888480916,-0.7599211537,0.6907043292,-0.9683630615,-0.3987636397,-1.04373501,1.0032703107,1.0421776621,-3.6390958763,-0.6790155344,0.8015928448,0.2177326272,-0.9659925295,0.8611730994,0.5547858927,0.2373210213,-0.3938909299,0.6885838306,-0.6024615183,-0.8585758246,0.7684640271,-0.9368765432,-1.878143638,1.0864889472,-0.3421654699,-0.9590912603,-1.3954959507,-0.9838470095,0.5373795212,-0.7122972166,0.5396804778,-0.7648024363,0.3965441065,-1.9187040472,-0.5127347291,-0.1778799594,0.3918356517,-0.812082727,-0.0203422941,0.3595968287,-0.4434392284,-1.084942953,-1.6577696542,-0.4125907047,-0.5010694348,-0.7134307695,0.1188165472,-3.8653314315,-0.5807601039,-0.2976269231,-1.2504631821,0.782151021,0.8498524802,-0.9921453119,-1.177275819,0.2028924439,0.5430028486,0.3838955926,0.1047590628,-0.5615001386,0.5479370244,0.3441499548,0.9582594788,-0.2695961717,-0.9838364867,0.073906658,-0.1040753852,0.1634577906,0.9455305561,0.6337022642,-1.2708583612,-2.6051457066,0.5885774896,0.4805754474,-1.016560737,-1.107790739,0.3094566185,-1.6989866139,-0.979305091,-0.6900524405,0.0407728372,1.2351961176,1.195849426,0.1302115903,-0.140537934,-0.2589918134,0.3689808055,-1.3514636249,0.3940336503,0.9455831319,0.2087430126,-0.2264354853,-1.429550599,-0.1782404493,-1.0314429137,-0.7942839189,-0.7107759932,0.9356721744,0.4152219292,-1.169867344,-1.2645212537,0.3961563026,0.4416429804,-0.0074354651,-0.0094474231,0.1586328495,-0.7580258941,-1.1158129904,-0.2238744492,-0.8398241994,1.2296199537,0.6793984271,-0.1317248913,0.811512017,-0.6226118106,-0.9844326421,-0.7958388233,1.3506989928,-0.3827818774,-1.1193681433,0.3020237843,0.0803669835,-0.6627711806,-0.2912726161,0.7900594756,-0.1289372794,0.6960596087,-0.2541807285,-0.159537369,-0.7951453768,-0.5720062365,-0.9456471193,0.1110588809,1.0842450198,-0.0135011222,-1.4947486152,-0.1453065285,0.7713100207,-0.8015834251,-0.2609523844,1.1697211921,-0.5669840773,-0.3980277526,-0.3260654722,-0.969235068,0.9405677189,1.2923460966,0.7651245565,-0.5121834184,-0.7560379951,-0.2991806024,-0.9727700646,0.7139954351,-0.1060531626,0.893353422,0.796623358,0.656157277,0.8771763151,-0.8788837369,-0.5457721495,-0.3931798582,0.0633397182,1.1103328561,-0.4929129458,0.1696828397,0.6268125581,0.6677101559,-0.9288533468,-0.0222653669,0.9665544176,0.2175266152,-0.6175410135,0.9128224791,0.1939958363,1.0825621688,0.2946008339,0.9855761253,0.783546693,-0.7357510384,0.2081630301,-0.0402447352,1.0365544088,1.1259415541,0.3264696997,0.0018697974,-0.6165404496,0.7840817503,1.1107269736,1.0227398862,0.4811551458,-0.1802992984,0.3877862708,-0.9143613284,-0.0051061413,-0.2779335698,0.6190253848,1.1339418937,0.7502381995,0.1749782596,-0.7098712891,1.0932837017,0.9046498605,-0.6511906794,0.0154029536,1.357719877,-0.8375504845,-0.0322425122,-0.3389255086,-0.8524086476,0.2031026498,2.9419089258,1.6940779724,0.7944080311,-0.3498992228,0.2740335231,-0.1422114704,2.2710518771,1.0605826946,0.9660699962,1.5816804141,-0.8014710079,-0.5369261265,-0.7670659709,0.3163986532,0.9046141366,-0.6025493408,0.2548947713,-0.5421508562,-0.4719265008,-0.6895337135,-0.0549433713,0.9240947959,-0.2294622472,0.5075619815,0.029173914,-0.4084613178,0.4870495209,-0.2288191214,3.7574171805,-0.4436248701,1.1824286184,3.4949491433,-0.279679797,-0.8319254304,-0.3370855899,3.6220440127,1.6280610926,-0.4169943598,0.6284737807,3.168138771,-0.3752831858,0.095923829,-1.4812230658,-1.3070450403,0.6142147464,-1.524183746,-3.6398177043,-4.1521128461,-1.4012839261,-1.7450151813,-0.0888092949,-1.0623697417,0.1291116704,-0.5742137448,-0.5721624866,-0.0116963389,-3.5412361771,-1.6529729396,0.1311974878,-0.4881128015,-1.9695891516,-4.1027977614,-3.6929437745,-1.1236435254,0.4176736642,0.7397163382,-0.7154275548,-1.4512169013,-1.2573777969,-0.1555213314,0.2098000421,-1.0217225453,0.3389656567,0.3370739497,-1.0356017116,-2.1127165887,-3.3410112106,-0.7123128235,0.8133472826,0.2866118164,0.061098298,0.1795249373,-1.6740794305,-3.0392359707,-0.7176835636,-3.1304687546,-0.2999493333,-0.4143639,-1.2060303155,-2.1319159525,0.5745962675,-0.6810882533,-0.5568717074,-2.5795861838,-0.4345360702,-0.3073653031,-1.3229288469,-1.4807965789,-0.356000362,0.0971973074,0.3251595707,-2.1753690595,-1.3449816619,-0.9229648831,-1.4085321268,0.1322994599,0.4326949752,-0.6435473958,-0.886495471,0.18480125,0.7616672615,0.3450765154,0.3347173626,0.2674225398,-0.9886839666,-0.2816828551,0.3228182939,1.7984777414,-0.2983019878,-1.44492932,-0.4195632199,-0.3552353678,-0.9751663507,1.244826159,-0.5246368075,-0.85712849,-0.6574112791,-1.2035133549,-0.9986526262,-1.1056580023,0.8348218885,0.8030620863,-0.9001360501,-0.4929422151,-1.5155431718,-1.0830360892,0.4559628648,-2.0296552322,-0.0636531889,0.4576432309,-0.1993265962,0.1382607307,0.8529814562,0.0256849788,-1.7657366859,-0.6092634475,0.8001344555,0.2531288115,0.4914301722,0.7818804166,0.3521653954,-0.4735614121,-1.0086774599,0.3684446838,0.185478297,0.2802466176,-1.2539480028,0.9783323415,-0.9976710135,-1.3670943497,0.2222125765,0.7140273395,0.1866289475,-1.2765713292,-0.5030503554,0.7206209317,0.4295796398,-0.826766734,0.5187070748,1.0092849111,0.1695194559,-0.3989153588,0.2318186621,-0.6499363444,0.2939712469,-0.2012661039,0.153908778,-0.459786243,0.7993357808,0.8750174891,0.1292939965,0.1890655018,-0.2728083844,-0.4570065454,-0.0423765881,-1.2490409074,-0.7219028165,-0.0766208401,0.1994867845,-0.159662162,-1.2427374572,-0.4176383407,0.9859441322,-0.0074170423,0.8653509488,-0.5021196857,-1.1048949763,0.048059706,-0.1692198478,0.1282334674,-0.1802936098,-0.4282687621,0.7832081544,0.8795759405,0.6283889502,1.0551937866,-0.5930246268,0.3643892747,-0.8041282912,-0.5423411319,-0.8901665917,0.8235626042,0.1691195215,-1.302407586,0.865893882,0.6357243392,-0.8102584683,-0.7271992757,-0.0543993752,-1.1505133245,0.3343052612,0.2106969987,0.948009896,-0.4981225116,-1.2334785034,0.6435142122,0.5698037788,-0.1128838945,-0.3695511426,-0.5840188442,1.1753642603,-0.8075732464,0.8233312526,-0.8241454331,-0.0497480395,-0.2766116246,0.0661034641,-0.3737038603,0.7310754005,-0.2444022139,0.1614822096,-0.4338317771,-0.3110560718,-0.7028235639,0.1786183932,0.1638139321,-0.3293728487,-1.0340656616,-0.7084012664,-1.3511316176,-0.3588791405,-1.1769441728,0.6809489915,-0.145259266,-0.7255788529,0.1229611168,0.9036654953,-0.6710695038,-0.6483819467,0.1784648553,-0.6760775129,-0.1302682473,-0.5477479636,0.6562493851,0.6399397624,-0.3992182017,-0.8879766142,-0.607267715,0.5274418401,-0.9632466377,-0.7991678131,0.2217753906,-1.0988204459,0.644285036,0.2807419114,-0.3814770766,0.110943577,0.6970949927,-0.4411739758,-1.9216660282,-0.1522558014,0.3964281294,-0.4036884053,-0.3522030832,-0.1418608779,0.781010505,0.0729100217,-0.9496092383,-0.2012679911,0.5978652865,0.0919405705,-3.0227957422,-0.5889628135,0.5330818917,0.4143661619,0.3585294664,0.4772550478,-0.5199061351,-0.6516362995,0.2134725199,-0.5336655386,0.9463745602,-0.9789055524,0.5118790669,-0.954172343,0.5423244249,0.6034852117,-0.0308444291,-1.0826774099,0.0529747382,-0.2315891735,-0.2124036115,-0.5368575292,-0.6440597358,0.3823951577,-0.7346659237,0.0421940812,-1.2397825975,-0.7109481736,0.4332501117,-0.6786765226,0.5289218602,-0.4498930819,0.6622306979,-0.5152723145,0.6246211905,0.2740775015,0.6739731573,-1.0150461694,-0.3727185651,-0.5190946571,-0.7338571406,-0.8192322528,0.1120708579,-1.1616228129,-0.2573800546,0.9782961411,-1.1418198777,0.8372320864,-0.1831265552,-1.0014418821,-0.0988060403,-0.6111258438,-0.4010629478,-0.9345279159,0.595455977,-0.2883683702,-0.9608158556,0.1262619461,-0.3262119001,0.3543414965,0.8000297884,0.4469734548,0.5191274459,-0.4508791378,-0.7924311483,-0.3566304126,-0.6673187259,-0.6558802452,-0.5770458546,0.2063474889,-0.8067986338,-0.4673202971,0.9464367136,-1.8105811686,0.756026624,0.8484526719,0.7969972594,-0.1970018487,-0.5981608736,-0.7834825294,-0.7620523641,-0.5211411214,-0.1114083641,-0.4843822706,0.1587578436,-0.9442136006,-0.6392662061,-0.8510528562,-0.4655663867,-0.5287728164,0.319888024,-1.2362656326,-0.8877812472,-0.6752395765,-0.4191355265,0.3437265698,0.5526963601,0.3438208109,0.6264785474,-1.2229762505,-0.2172538363,-0.2474218582,-1.0624667736,-3.52300649,-0.8438258668,-0.9311868847,0.5125580279,-0.043554172,-0.4491252845,0.6030029807,-0.8375252276,-1.0004202944,-0.1562005811,-0.1091364341,-0.3819398763,0.8720439536,-0.9465191183,-1.6494201833,-0.323284078,0.6521277456,-0.1711583781,-0.7433635712,0.4668522903,0.4098730958,0.5931034944,-0.7201104629,-0.7427362699,-1.3605204988,-0.5071529505,-0.2120125252,-0.3077664695,0.2060823386,-0.6637526175,-1.1762705821,-0.4959911256,0.6368054837,-0.0993013508,-0.5684483714,-0.3078424407,0.9530737657,1.0062302017,0.3681778556,0.828452198,0.8211359898,0.2991994246,1.1132749128,0.2173691353,0.3228514284,-0.2767957038,-0.4222736326,-0.7158180802,-3.5169477044,0.561501837,0.5782671952,0.8437890941,1.0764947068,0.6515370378,-0.7972784114,0.3294733439,-0.6987863179,-0.4610452601,0.4877256527,-0.0929654807,-0.0547640981,0.5381353193,0.9384105234,0.3512476459,-0.5777750312,-0.2147803246,0.8523438773,0.0110041269,-0.9021312602,0.3606067566,-0.7529569458,0.1439984302,0.562006568,0.0435585234,-0.711201845,-0.4591383888,-1.1070313746,1.2160060388,-0.2892114453,-1.1316304863,0.6356857443,-1.2093515704,0.0166346552,-0.5749890871,0.2258164117,0.5984867288,0.1727829015,0.5859123477,-0.6860003077,0.8708906598,0.068133921,-0.4407212585,0.7972059775,0.6698602197,0.3145751336,-0.6614157672,1.2048256497,-0.9844423945,-0.6573878171,-0.4680224436,0.2550699508,-0.9689924878,0.5387858348,-0.2801253105,-0.2649703717,-0.6793078874,0.5749955924,-0.9119305477,-1.0641338583,0.7217036557,-0.315282925,0.2321788751,0.1982395071,-0.1526918196,0.0942269192,-0.9876655457,-0.2171311075,0.6163751869,0.4309106316,-0.1141586212,0.3627545452,-0.4319054701,-0.6323607809,-0.8093938025,-0.8156014905,0.9013845216,1.2170218158,-0.0295697129,1.2302424037,-0.1701408049,0.6324494563,0.6620319152,-0.206968656,0.4021560029,0.1338294912,-1.6440709267,0.6415978032,-0.8597580767,-0.3570666919,0.2081748327,-0.2851219382,0.5247521165,-0.0937266377,0.8205928712,-0.5549702499,0.3046210679,0.6381896499,0.7348090019,0.7531778897,-0.8867208809,-0.7068733163,-0.8289417925,-0.4039735208,-0.2475442984,-0.5395904816,0.7525660085,0.1122907739,-0.0381278235,-0.2041907609,-0.3961667235,-0.5136094169,-3.0834059879,0.446856338,3.1829623966,0.0955004245,0.2074414071,0.536199615,-0.1176382623,-0.8500559086,-0.7555967476,2.7248222519,0.9445470333,0.0607542958,1.2111370986,3.8548765935,-0.4320619173,2.4241820557,-0.8407477814,0.0800880324,-0.5467331062,-1.7299866768,-0.3008019772,-0.8684819859,-3.7057081313,0.2013685071,0.6622145883,-2.9473518947,-0.0202778548,-1.0207518132,-1.0940216217,-0.2834178115,-0.3797886102,0.3035874011,0.4094334874,0.3520273113,-0.7080673967,0.4266046909,-1.291393699,-1.2897801303,-0.8007442396,-0.9976040988,-0.0679390467,-0.539080993,-3.8401051539,-0.6255719996,-0.2582913367,0.5129313492,0.8339840729,-0.0312638381,-0.0558610454,0.3833310713,0.812849923,0.268109481,2.8836369997,0.7443080473,-0.6148699556,-1.9972326255,-1.7456025958,0.7196330738,1.2273675826,3.538357257,-0.4022266529,3.1870595729,-0.9690697422,0.0018185798,0.2776163645,-0.6296343164,0.5989721448,0.5133439283,-2.5543032205,-2.3683233099,0.1963015828,-0.8077197529,2.2817199013,0.7347033137,-1.1103535841,-0.4519396253,-0.5267870899,-1.4014070869,0.6744040412,-0.0909968941,2.6378911518,0.350322797,-0.0439662182,-0.0810278389,0.7272214857,0.9920064029,-0.5990480432,1.0734640113,2.7683032168,0.9462430364,-2.8334671112,0.4374118246,-1.0304561194,-0.257916486,0.5984627679,0.9429505826,0.7251411491,0.0245131303,0.6467423861,0.3451658986,0.0767583906,-0.6492828887,-0.7788224315,-0.2196556695,-0.4137845039,-0.3677576239,0.5287292643,-0.3931195925,-2.9232811912,-0.4547151229,-3.3746780667,-0.4464000457,0.2764130866,-0.1516882662,-0.2801505057,3.4728805931,-0.9663055342,2.555724361,-3.4032597966,0.7367721955,3.7544670813,0.7810270178,-0.7467194427,-0.9570221916,0.7096271838,-0.6512350273,-1.0244558689,4.1530439216,0.244153866,-0.4550451983,-2.6928695845,0.0262851442,-0.1617715837,-0.3918283796,0.2566826339,0.0084551165,-0.3776474523,-1.2997377321,0.6872008457,0.8326417779,3.7684320912,-0.1566978643,0.3238539288,0.3919070142,3.4370292575,0.3987459539,0.4350329003,0.9691153375,-2.6237630585,0.9540453947,-0.6927220615,3.9579715827,-1.0483483799,0.3741322064,-0.0624717215,2.7852703315,-0.3657077919,0.2297091828,0.4375585547,-0.6481081671,-1.6360238268,-1.6610164721,-0.7339970014,0.0258400035,3.4857137265,0.1508434473,3.6955115075,-0.2493313217,0.9645912028,3.0094596907,-0.9217201433,0.7189754427,0.4547067985,3.7195573381,-1.6328910906,-1.0432827313,0.2524819666,-0.9265031285,0.3094107424,-0.7314211833,-0.4512565789,0.4703256159,-0.7764283396,-0.2167752389,0.2941417685,-1.9567639058,0.7477772071,-1.2880855539,-0.7584541685,-0.4953836628,-0.3244619694,2.5063524757,-0.2256461797,0.2229346816,0.2044425746,0.5267822376,3.8986760173,0.7172817375,-0.8561775589,3.8094763123,-0.3877789922,-0.53553968,0.834476918,0.3553879011,-2.8934310889,-0.35720318,-3.7737695957,0.0053260252,0.7934036038,-0.5299896274,3.3878403336,3.082626489,3.8854793475,-0.481326308,0.5403679839,-0.4413190322,-3.4663554792,-0.2518681375,-0.3379485307,-0.4600075573,0.0653365771,-1.2690534707,-0.3154157997,0.5326184758,0.5255814769,0.3434950352,-0.3421553528,3.2378924145,-0.700178397,2.2914705945,0.3305459578,0.8823250356,0.1749242554,0.8798347051,2.3362563256,0.6536233162,-3.5879102724,-1.5487987258,-1.7090394575,-0.7261066592,0.5351315195,-0.289958699,3.6635147173,-1.0804561853,0.6455937876,-0.7372120119,0.2624175537,0.7074570579,-0.5176413663,-0.5575721604,1.0411874484,3.6275769304,0.0360572407,-0.103146313,0.0163092421,-0.2293539255,-0.1062243224,-1.5659311066,0.3946483607,-0.0403786158,0.0237785651,-0.0730943088,0.3322619803,-1.1749420909,-0.2011566565,1.2140442837,-1.177855954,0.1697818282,4.0389763931,-3.4191059038,-0.3935012461,-1.103958578,3.2231274488,0.8911315531,2.3044436645,-0.697577847,-0.3403353096,0.2445392277,0.1211891832,0.1751275426,4.0122766778,3.1563898742,0.5742262056,1.4916102397,0.3925842975,2.835200822,2.8619461941,0.5325869021,-3.7934832628,-0.0230931807,3.9098065728,-0.6830366493,-0.5642653859,-0.490149824,0.1782445244,3.3048862058,-0.1178566904,-0.8806283534,-0.5269697772,-0.0522016392,0.3234008065,-0.9332407259,2.9170307176,0.8842380585,-0.3029973809,0.0492904552,0.1916291788,-2.903977583,-0.6060713483,-3.6587187352,2.6561143673,-1.0888601022,0.8444500925,-0.5433132555,-0.1107304487,-1.1220753611,-0.1136154033,0.2126053795,-0.9357024561,-2.5912898412,-1.0024914027,-2.7364126945,-0.2856364332,3.2775600372,0.111393856,-2.8381572082,-0.4881247567,4.1982241153,-0.5080311222,-0.2252732899,0.6752925363,-1.4565731678,-0.1737005641,0.66805232,0.7471363493,-0.0885470678,-1.5686910081,0.716702345,0.5428669788,-0.3865994433,-3.4929110353,0.5377905018,2.7922706995,0.4415987758,3.179558379,-0.5768252896,-0.2035288258,0.9429254514,1.5862426698,-0.5012376281,0.3678222412,-0.6539231729,-0.5251915516,1.1806167304,-0.9553102757,2.3025762599,-1.4786541258,-0.0201708614,-0.7334482399,0.0939760035,-0.515661945,0.1930518616,-0.8126803018,-0.0846981507,0.1024062681,-0.8087615179,1.4847768963,0.6089917263,0.8745904372,0.7141682321,-0.5881195148,1.0104586465,0.5446202778,0.9694059616,0.8097430928,0.0946058778,-0.9723798945,-0.0482246415,0.7305041113,-0.215516586,-2.9082910031,0.8270336697,2.9521686347,0.3610381653,-0.8629949664,-0.0688265152,0.6545142864,-0.6506499988,0.7511392977,3.1025983787,-0.5106364516,0.4690410901,0.6772434088,3.9162049728,-0.0705332457,3.8354345463,0.4408426337,-0.6403140454,1.8182323069,0.1220761404,0.3916716103,-0.153189206,-2.9012874743,0.2236558235,-0.8894281092,-3.8098156178,0.5931873422,0.6553688094,-3.4401627891,0.1835519079,0.3130888512,1.0026912075,0.6387277155,0.6610882207,0.9353725748,0.7017356069,-0.1397943793,0.1769242519,-1.4887613984,-0.7740705672,0.1734632132,0.8466010648,-2.999484582,-0.6638425167,0.4605875965,-0.0241713437,0.9526471663,-0.8836714014,-0.5787938741,-0.2155113539,-0.1886716419,-0.4802664545,3.2006478343,1.2292397878,-1.1340070265,-3.5856404823,-3.5485646402,-0.0695460889,2.5713536044,3.0059324829,0.5339422578,2.4794154625,-0.7298003462,-0.6226032298,-0.6114312401,-0.8817720625,-0.8770764301,-0.0462158996,-2.2534922337,-3.9630097442,-0.3675531182,-0.2332061044,2.4812957233,0.9183922611,0.8583827848,-1.585652148,-0.6245859125,-0.7813109318,0.9415208741,0.4732875042,0.7938695751,-0.8860049678,-0.1173291875,-0.9107276811,-0.4246138594,0.2999917703,0.0154001463,0.759453301,3.8204489127,-0.813643286,-4.0275580041,-0.7714752087,0.6876813912,0.388456217,0.2577014827,0.8798116263,0.8806271851,0.9518753147,0.7398501581,-0.770727815,0.9890348831,0.6160222729,0.184777496,-0.8949841085,-0.1911255934,0.58441482,-0.8479457295,-1.7159759645,-2.828364166,-0.1973322356,-3.3337403586,-0.4979049959,-0.5428696304,0.4520699352,-0.9019937578,2.7174329698,1.092605937,3.2341155239,-2.9293959157,0.2239345612,4.008499758,-0.5987239316,-0.7409457341,-0.9173440506,0.2808813589,0.0120993832,-0.6439653198,3.6809720634,-0.2340530365,-0.7750619819,-4.0762688696,0.0600952134,-0.69124531,-0.5740921905,0.312014108,-0.2736657056,2.2280240157,-0.8861275318,0.530238662,-0.6890523516,3.4238222566,-0.4885793835,1.3572956618,-0.5738713631,0.6189248116,0.7312162284,0.4101481942,0.173313045,-3.5898998329,0.6002557253,-0.6295221398,4.0708258684,-0.3952473774,0.9448211004,0.5757900572,4.1724600063,-0.9828464226,0.5101701386,-0.7796322108,-0.3254592524,-1.1988106013,-0.6658970084,-0.944239872,-0.6737543881,2.5903605771,0.6203414816,1.3619769731,-0.4644171511,0.7825437598,2.8031897001,0.9239435621,0.638258484,-0.8318915327,3.0427804893,-1.4064042894,-0.6893757031,-0.1166149839,0.6795417605,-0.1529870552,0.5913354587,0.3204273142,-0.7633319263,0.1607088205,-0.5984385316,0.9310838204,-0.1310425899,0.8821933568,-0.8423339591,-4.0439773781,-0.225638645,-0.9192640336,2.397120159,-1.0679692449,0.4605085932,0.3828540077,0.3706674191,2.2937352144,-0.2264885091,-0.9265544372,2.8278615135,0.6350399814,-2.0169079712,0.2946910082,-0.6763388723,-3.8407557495,-0.1890839062,-3.6499223968,0.787259349,0.3559665813,-0.6657463926,3.2610776992,3.5902180015,2.6010619036,-0.3933534098,-0.0423293634,0.8488809277,-2.637710556,-0.2800353839,-0.1646040162,0.7714923561,0.7785159185,-1.0437369558,0.366807858,0.9060357754,0.3903881633,-0.5863748365,-0.7292705517,3.0637499855,-0.3796093793,3.0335992892,0.7182797602,-0.6264424237,-0.3891010551,-0.1898278829,2.7122775186,-0.2076930889,-3.0105650865,-1.3034310486,-1.8314715665,0.745965183,1.0034162776,-1.6352831656,2.3079803681,-0.7064283294,-0.4400693857,0.2071356412,0.2429820116,0.2510834965,0.6503337932,-0.3808881704,0.1126512974,4.2121308276,0.2084524616,0.4390976648,-0.2544411472,-1.0300934908,-1.0854946129,-0.2036767066
   0.6373091492,0.0720872001,-0.0239185702,-0.3677389866,0.3480722689,-0.9765112482,1.0357403471,0.5371324881,-0.5490152573,0.1024579095,3.5640094413,-3.8804002068,0.5665229072,0.5363845048,3.5565950356,-0.1856238701,4.0936448764,-1.2099720623,-0.4270759251,0.3429823522,-0.3890912024,0.6131295121,3.6307146344,2.7291549604,-0.7940267561,0.7628205789,0.1157366371,3.4810623909,3.3214468986,-0.4941155947,-2.7467509824,0.8451733239,3.0468713728,-0.9757230774,0.35056541,0.6142711294,-0.399277055,3.1383973648,0.2677342763,0.3544999455,-0.5102019688,-1.6586092339,0.6766991836,0.5179299295,0.3674986386,-0.2150143229,-1.1969038002,0.7457020177,0.9745546166,-2.8723984293,-0.7088617333,-2.991387046,2.4299651264,-1.0722427563,0.2765504239,-0.6068835553,0.4497977423,-0.5285491765,-1.2900642308,0.7000557494,0.6190379541,-4.0452116112,0.315200019,-3.5138327973,-0.2103611881,3.4811425972,0.9163136764,-3.8352262088,-0.0886757586,3.123038207,-1.2061104449,-0.8670559293,0.0749419054,-1.1798426317,0.1879929443,-0.0423667979,0.8121579524,0.2413049325,-1.4549833275,-0.8922529345,0.7708891839,-0.3672495079,-1.8880632006,0.036178338,3.3204021317,-0.8393092722,1.7549631736,0.9260555972,-0.6090474604,-0.1438860836,0.5725731714,0.4242585303,-0.2311676188,-0.8080795443,0.4829661103,0.2599032968,-0.6173312422,2.2737867455,-1.1899187878,0.7572796273,-0.8435273,-1.0963874264,0.0740726388,-0.1358397621,0.4927860736,0.8710652978,-0.5350076998,-0.1151643391,0.9171691483,0.3574454213,-0.5452935874,-0.2807854421,-1.2399150809,-0.4500778131,-0.3068633179,0.4976570891,0.8344613157,0.9212155565,0.6217169328,-0.7978106173,0.0382568816,0.8065654485,-3.5738258464,0.9453669398,3.8620582748,-0.1280287596,0.4775876826,0.630645009,-0.876114751,0.2579789183,-0.9255912424,1.5078654016,-0.720413563,-0.8610027736,0.5355789065,1.8902493794,-0.5154227955,1.3356815896,0.9758587684,0.5147351562,0.032724331,0.1850094693,-0.6865085173,-0.0077867059,-4.0955511245,0.4925754148,0.7507762254,-3.6814495639,-0.4170168353,-0.2475043669,-2.9005274985,0.9614057182,0.3702977357,0.4968458197,-0.4024318707,-0.5226288398,0.3862010423,3.2903594288,-3.6818588157,-0.4229864026,-3.0848875876,0.9249751905,0.8412923697,0.1055004025,-2.2757052584,0.6924198222,0.1479446684,-0.7451743153,-1.0014994074,-0.0562242522,-3.2758398903,-0.1006563751,0.8495960006,-0.3122533052,1.0892943288,0.7068482732,-2.9752130792,-3.8218412426,-2.9459898656,-0.3494486488,0.3161130803,0.9865865514,-1.6478892679,1.9083499936,0.8250718138,-0.3131228657,-0.8716804399,-3.4719074277,-0.6703443061,0.2993057167,-3.5561876575,-2.8514819637,0.6113553636,-0.3360884267,3.2681556528,-0.313568888,-0.8344154605,-3.4611609674,1.0920781433,-2.6053375164,-0.2155118574,1.0633425029,1.238235455,-0.6517662317,0.0667740514,-2.7751939849,0.00700965,-0.1714612226,0.6780466181,0.2104190589,1.7684373821,0.5271732518,-3.4953820703,0.4186889818,0.9369110217,-0.8365745953,0.489820065,0.4030781733,-0.911832408,0.6478979587,0.3596651039,-0.5261762234,-0.3783804585,-0.1816993115,-0.9621874799,-0.5775342488,0.8436651836,0.8011752559,-0.9125090152,-2.8759166413,-3.1975981303,-1.369258465,-3.3042745733,-0.0109392502,0.4709328796,-1.3599622436,-2.9813772477,0.5937430485,-0.2474154944,0.9502925841,-2.4107954378,0.8273067756,0.9298561767,0.8061816644,-3.4716636461,0.0405776549,0.5580925039,0.543073731,-0.9058116465,0.5319629711,0.5533077442,0.4984587013,-4.1912610758,0.9489816823,-0.390933519,-0.557067934,0.1682793391,-0.9241204195,-0.091762959,-0.1582554443,0.5409093025,0.5984238267,0.5663277991,-0.9207427833,0.4190785474,0.3829553376,0.6991160223,-0.7752807851,-0.5265391142,0.7410459737,-3.0403952548,-0.663565654,-0.8510554866,1.9284342021,0.204611869,-0.1536526008,-0.203516706,0.5737350159,-0.1038524196,-0.0011800118,-0.0807678217,-0.6389405835,-3.824824567,-3.1523316405,-0.7584883503,-0.51275183,1.3581537706,-0.2811825046,0.8186699869,-0.4214752058,0.8689167935,0.9753416683,0.0352367926,0.7491343912,0.568198627,0.6682412249,-2.1765957316,0.7007261092,0.6216677192,-0.9901744193,-0.7136410073,0.8786886297,-0.2923092573,-0.2855284578,-0.1096078248,0.5703336402,0.4200941432,-0.160742477,-0.1893870128,-3.0727666482,-2.7059933205,-0.2396321745,0.6437637035,0.1300666635,-3.343483126,-0.8718950234,0.5842041827,0.7927705533,0.3386781734,0.6224328612,0.2378841683,0.388363609,0.0121481914,-3.1785523461,0.9802547392,-0.2102852311,-3.1649432055,-0.7841132876,-3.9266280109,0.2443971975,2.2453766517,-2.2337069675,-0.0496589314,3.4222419818,1.5163980443,0.2662977545,0.3978689626,0.5131565977,-3.297432161,0.9659644375,0.2176422558,-0.051120567,0.0040543888,-4.0574614553,-0.5151943787,0.8133302752,0.2954781564,0.5661366934,-0.0955751114,0.7153435129,-0.4602377884,1.7906155717,-1.0405392434,0.8980915968,0.191214033,-0.511024367,-0.3376799239,-0.2949492924,-2.8471813425,-3.2391098536,-2.8125237298,0.8374608878,0.2973892778,-3.2805952511,1.6007618361,-0.8557354482,0.3452701043,0.127146944,0.170000194,0.6282492793,-0.1262151848,0.59918838,0.700018859,1.1537228325,-0.3718095669,-0.7225388044,-0.8931421846,-4.1482848504,-3.209951797,-3.9781976015,-0.2955615232,0.4282594308,-0.6816582018,-0.9000815023,0.2707987295,-0.208561497,-0.6657471029,1.039059479,-0.8167363779,0.7453578268,1.4673558051,-2.8689282138,-0.4489926442,0.8738851851,1.664436949,-0.0697351709,0.1142371284,0.3356966696,-0.7619426482,-0.4980690959,1.09724766,0.4746108306,1.4782505617,0.3216462982,-1.0220368814,-0.2607752713,0.3181784693,1.0592879804,1.7572989431,0.894946227,-3.5308340136,0.0925530532,1.0487394997,-0.1615619669,-0.1280074001,1.1587419835,-0.7603589583,0.8808856862,-0.2521240453,-0.7717305162,-0.2771744961,-2.4999322127,-0.2301108727,0.6164873763,3.1467716298,-0.3080081188,-3.9121834029,-0.786923997,0.5262111043,-2.2713244173,-0.6870619563,-3.0651294276,0.7748226248,-3.8131554821,-0.4646227285,-0.7036360648,-0.917042553,-0.1070945627,-3.8956027851,0.5744367031,0.2395181612,-2.8899085199,-0.9927677704,-2.6324982422,0.0961798582,1.130684405,-0.8958808946,-2.5888889095,-0.6496174617,3.5803925115,-3.1452064943,-0.2228238999,-0.5533122314,-0.7340286472,0.6075835457,0.8621808183,-0.8183280812,0.646597061,-0.8872920885,-0.0476533472,-0.8982010484,-1.8395513281,-0.8806321381,-0.7000944026,0.9809991974,0.0046554498,0.6707577309,0.6594916062,-0.5503433885,0.7364517475,-0.073254915,0.0666690939,-0.1634826032,0.9252871321,-0.3230192409,0.197444673,-0.6590296641,-0.4180212407,-1.3579896459,0.3011340722,0.5458112419,-0.7387236794,0.6879666111,-0.8924675013,-0.1018704806,0.372970815,-0.2248201702,0.9573137234,0.705700968,-0.969361378,0.1786735143,-0.3913103951,-2.3168500569,-0.6303036811,0.4021425306,0.7460492984,-0.0063778724,0.0096432244,-0.5658374693,0.6008642329,-0.1225083485,-0.6279046163,3.6301423276,0.633125125,-3.9367403277,0.6253521111,-1.1933987597,0.5201954481,0.7694505688,0.655722351,0.7785302431,-3.1442538753,-0.105288533,-0.6879343591,-2.0332031609,-0.5354444615,-0.7757612369,-0.3178600345,0.2756396405,-0.6738628785,-0.5301827786,0.8434810472,-0.012133428,-0.5765954164,3.5294928822,-0.571133594,-0.0752881519,3.2607486543,-0.8786779484,0.157798115,3.0271963937,-0.225975804,-0.4914185752,0.7306873529,-0.6265491206,-0.1422270017,-0.8128321943,-2.4969303589,3.3333475022,-0.152658016,1.6276462244,0.0533685336,0.6438852126,0.235896193,3.9946982627,-0.2383008177,0.5413745129,0.5050141699,-0.1329573218,0.427796268,2.7944424655,0.3086565155,0.8460963458,-0.3861861089,-1.602021746,-0.3183378717,2.8079438219,2.6711809923,3.5777300371,0.3409858691,0.0383340603,-3.1676016558,0.5414571025,-0.7888700395,0.7064485565,-0.2820976302,-0.6527595822,2.7548520324,0.4701789864,-0.5307274611,3.4495844698,3.0453759169,-0.9298300926,0.8198463984,-2.91645932,-1.5342296474,0.9160414195,3.3077985584,0.296390621,3.8976678769,-0.9532554434,0.379356002,-1.3157589618,-0.5120682693,0.2691255226,3.1186121565,0.8404802593,-0.3947890091,0.0615010456,-0.6322657023,-0.6607273388,0.5043577653,3.4641215036,-0.8442997686,0.1510583373,-0.202188651,-0.8960892764,0.0981837286,-0.5970017016,-0.8651359821,1.0515027572,-0.9240135347,-1.2351343691,-0.7555594485,-0.9395671625,0.5493284142,0.9109507725,-0.342043919,0.3586298705,3.9312366309,3.0588473582,-0.0835280687,3.3179621734,0.8306187694,0.1545314085,1.5478074331,2.7427071777,-1.1444456162,2.0387750347,-1.0016444967,3.4634527694,0.6434787083,-0.534971013,-1.4662271405,2.8920579658,-0.2619298966,-0.2860530044,0.1257538703,-0.8863808431,-1.2464387538,-1.0382432987,-0.6834803172,3.3988137333,0.3742865222,0.4190738411,-0.3280203157,-0.451465971,-0.1060597459,0.506939996,0.5496984894,-0.2876521559,0.5193456163,-1.9762243075,-0.0485689909,-1.856756269,-0.3145747481,-1.3144519549,-0.8118741403,0.9014287346,0.5294480843,3.9345766598,0.600930954,0.2149338874,-1.6691743653,0.3944770877,-0.2454908399,-0.86618132,-0.1860680063,0.7959716084,-0.0262820503,0.7091806552,0.7227203608,3.8724694854,3.9617189293,0.5988383904,0.5478931058,-1.6877847409,0.5520540191,-1.1166634673,-0.4184567896,-0.1465102875,-3.5009433229,-0.2271523945,-0.8472388479,-0.0282825495,-0.593600152,3.3395542705,-0.414802612,-0.4732606873,0.5964111877,0.6924841127,-0.7739729233,-0.9877237269,-0.0672852327,0.1080844518,-0.3102757746,0.8507035142,-0.0339979787,0.996273012,2.3125596665,4.1553973144,2.0449774095,-0.130574537,-2.0758906758,3.7811700964,0.1391277019,-0.6433303409,0.8076468045,-0.6956203287,-0.6705631037,-0.3605308147,-1.1942407234,0.2901438579,2.7888927375,0.3732920315,-0.2443236171,3.180289512,0.2865101157,3.3422292192,0.0071123912,-1.3702764132,4.0890279879,-1.7089623794,-2.2994379137,-1.7988953289,0.9231923748,-0.5289695827,0.0325580322,2.3757137105,-0.5023370935,0.3107784706,-0.4284311448,-0.7633746618,3.5320141242,0.0612486672,-0.1700553697,0.7964666711,-0.387783914,0.1132646971,-1.104233346,0.9221973941,-1.2298291749,0.6873418561,0.4250086707,-0.4706385564,0.7299629187,-1.0926064005,-0.4567451449,4.1364645709,3.4583116364,2.9711788696,0.3410690261,0.4615975905,3.2767015513,-1.0221561379,-0.2516136301,0.8042852394,-0.2002588316,-0.5816794337,0.4355821062,0.9781780498,0.4314948052,-0.3563116111,-0.9311027491,-0.7718986147,-0.7889115014,-0.8821815307,3.5946464359,2.4851605792,2.9604612364,-0.0725951414,-0.4777264088,-0.2864949491,-0.6762442222,0.3291855466,-0.4594242366,0.451613725,-2.0472692419,0.8066306574,0.6542412235,-1.6333219289,3.6632199287,0.9834842103,-0.6917282498,-0.7959681837,-1.5724783269,-1.0095311403,0.0605288936,-0.4156794625,-0.6087420796,-1.4496150914,0.5402350518,-0.5191509638,-1.5657359693,0.4731287798,-0.7609469593,1.0095790722,-1.7920916091,-1.4568769357,-0.5964507266,3.5322082088,-1.476770265,-1.5034137422,0.0843760949,0.7655991159,0.2369973331,0.8723536441,-1.2248437352,-0.481319996,-0.148114042,0.6181425662,3.3985387705,0.085840286,-0.0251531001,-2.715125466,0.1249457228,3.5262697519,-0.1562949621,0.6996739125,3.0297375939,0.4756204337,3.6253078218,-0.4375354942,2.8300267237,0.9736311732,-0.2756180612,-0.3857661171,-0.4602989824,4.1686942916,0.1123968268,0.0158902492,1.8107611228,0.7398385391,3.068069845,0.797323145,-0.3923432994,0.3048360617,3.2729689589,-0.9106128095,-4.1177472803,2.7317962531,2.5249865327,0.852279159,0.1403934193,-0.2101125623,-0.5554640794,0.5205628239,0.5256435485,-0.4539266984,0.1845543437,-0.7656338586,1.1710018327,1.0949438234,-0.5445439827,-0.8597482047,0.9687308564,-0.5171730816,-0.0598399379,-0.0667126434,-0.927442174,-3.9550806211,0.7366257167,-0.9503896189,0.2633085425,-1.2575076627,-0.3027682453,2.3971301188,-0.2185029042,0.7906025644,0.6609855586,-0.6513961948,0.936932007,-0.1774600786,0.332775378,0.7986880731,-0.1458442621,-0.5162146864,-0.6605861764,-0.4443278217,-0.0265093542,-0.9271307073,-0.5276529543,3.7765675203,0.0740504091,0.6870873363,0.5406621901,-0.411041645,-1.0213111283,-0.3564746727,0.4151438472,0.7135230853,-0.6114533796,2.5460379411,0.9249632563,-3.2180820803,-0.7969961644,0.1049585408,-0.2213789482,-0.4015166356,1.3264992991,0.666911389,-1.6695801353,0.4801910563,0.7676819385,0.4989106887,-0.7194890685,0.5009131173,-0.3320249687,0.8366918549,0.7643808423,0.1881112389,-0.263618933,-0.0673082496,0.2371214691,2.6984356495,0.3803596894,-0.0205287984,4.0219311088,-0.526922591,1.7441304866,2.6200505752,-0.1180318593,-0.3949333798,0.7702335147,-0.8263758315,-0.6674431714,0.8127313386,-0.1766842039,3.5756131492,1.1910534052,2.9836617919,-0.9322430221,0.52116675,0.7871620078,3.8099045511,0.5312227846,-0.227397207,0.0406683088,-0.0565951025,-0.3206492295,3.0124445092,-0.929192742,0.2813190659,-0.263584517,-0.8611246713,-1.119051185,4.0815188574,3.7719394611,2.6115945195,-0.8212850776,-0.2764196534,-1.1485647271,1.2328095894,-1.3635486794,0.58810805,0.291435549,-0.6885970186,3.0920644904,0.0645062762,0.8300793859,3.2412333246,2.9757787009,-0.7971619147,3.1691756368,-4.0288546046,-0.3416490631,-0.3834029818,3.2305178775,-0.8303244019,4.0163575342,-0.6783156946,-0.7496547999,0.3598378779,0.9852847103,0.6031436924,0.8094272853,0.9248493643,0.3317125665,-0.7737719972,0.1905928184,-0.2629004285,-0.2904249432,2.3604010603,0.8280134379,0.267124478,0.120604507,0.5719143749,-0.3224559026,-0.4862449215,0.5047980498,0.093788137,-0.8989372365,-1.0584542074,0.8901681998,-0.6165372291,1.0609332811,0.6380894922,0.3058498027,0.7401752437,3.3980362861,3.4560076793,0.5488971062,3.0120369959,-0.5629184677,-0.5766242737,0.862887284,2.7189895816,-0.6736768448,0.2402669295,-0.1301113631,4.1038439452,0.0878576589,-1.7900637205,0.0021779351,2.4103431221,2.6879640291,0.3138456535,0.8484257959,-0.0115095257,-0.9199978776,-0.2325423798,-0.338470805,4.1621740684,-0.6176722406,0.3414527428,-0.9488790954,0.2721118737,-0.1220592355,-0.6529022716,-0.6165817976,-0.7945355637,-0.7130302281,-0.535620078,0.1752614432,-0.4396826991,-1.3643221058,-1.793009919,-1.0892869778,0.9375968186,-0.3722000328,3.5102000992,-0.8101178336,0.448590619,-0.2853935755,-0.5843438328,0.8806653857,0.4959393572,-0.6874859075,-0.8040096794,0.6330655628,-0.590119814,0.1840598181,4.0506858739,2.9377251292,-0.1011660078,0.0467038791,-2.0145485483,0.7916141544,-0.1259761416,0.2048995462,0.351620857,-3.0129286105,0.8237260543,1.5791489142,0.590511798,-0.9986091188,4.0904536824,0.6313584645,-0.1916092502,-0.3010385838,0.5423248864,-0.1047894094,-0.1476410696,-0.7084633486,-0.0377263922,0.5592527871,-0.1726736457,0.093830648,-0.0336087565,2.7853878529,4.1007965269,1.1745304776,-1.0055720466,-1.9555580552,2.9964091196,0.3076552087,-0.6443007816,0.1254056732,-0.8018481445,0.7423923372,-0.3777453181,-1.2066463506,0.7827717276,3.4833172677,0.594435644,-0.1867257671,3.6581971073,-0.4773565081,3.6744023332,0.1391312207,-0.2627615626,4.1379732292,-0.1014046974,-3.8973462746,-1.4134059392,-0.5513322516,-0.8353331086,0.9350025152,2.9204791768,0.5804073809,0.5229371889,0.816502107,-0.646236625,2.3196299542,0.6098525463,0.294287286,-0.8240631092,0.5328461977,0.673589602,-1.8971428449,0.934509807,-0.1681539623,-0.6817121491,0.7728223978,0.6734978511,-0.8033284871,-1.0334887206,0.5911073068,2.3704737151,0.1517078399,1.2896815672,-0.4855061403,-0.902158373,3.464545532,-1.3011166332,3.0953921641,-0.7088630098,-0.4196243781,0.9888171939,0.1232685371,0.3319318815,0.5132995224,-0.9971059258,-1.7209777471,-0.4162952478,-0.5149384426,-1.0265309441,4.0857325263,2.9697217142,1.5692602495,0.5867762183,0.3139312368,-0.9949831556,0.3821708962,-0.8621375078,-0.1435886931,0.9274944293,-1.502614592,0.6691090695,-0.0093788492,-0.4856910022,3.4852232122,0.396222338,-0.2995489747,-1.4620680495,-0.7573269901,-1.9533867488,1.9402016692,-0.3308086867,-0.4059541029,-1.2512578329,0.4612461639,-1.3856208889,-0.4348058427,-0.8757321722,-0.769772504,0.5059681027,-1.0352276469,-1.8773278917,0.2212851816,3.2795024354,-0.9936170712,-0.418782162,-0.8024043804,-1.0241244766,-0.8697962742,0.8221691227,-2.0224951633,-0.6148496998,0.6620656038,0.2018664804,3.4360591483,-1.1560935011,-0.6304994276,-1.388766712,-0.0614134688,2.5876541724,-0.5306543883,0.4877607806,3.6267201016,-0.4014362864,3.8797876018,-1.3047666379,3.8125588739,-1.0945157406,0.2318496584,-0.5110208123,-0.558317623,2.3396894387,0.5938941478,0.1619977673,2.2824276157,0.2970272587,3.0408213524,-0.1731612166,-1.1189466936,0.2389071952,3.4540087108,0.019664037,-4.1860399512,4.0636553419,-0.7347780955,-0.4657185254,-0.6152485876,0.021814947,0.6102638611,0.6100573826,-0.2055904097,0.0744746056,-0.2376847398,0.0648605826,0.316905147,3.921961781,0.6737378125,-0.623094241,-0.3140705162,0.2113965054,0.0622803613,-0.0626324585,0.1117441626,-0.5558644149,0.640117189,0.5599067716,-0.4027975759,-0.4262181773,0.4611703157,1.2390536154,-0.2430521341,1.401101881,-0.2902758084,0.8090863352,0.3702574305,-0.3103711286,0.644790217,0.3493527974,0.3456132977,-0.0791031572,-0.9838062056,-0.3185004924,0.0261374416,0.4848897386,-1.0177789452,3.8076253524,-0.66521513,-0.0087149556,-0.787145632,-0.3887497257,-0.8239710574,0.1788628879,-0.6129508587,-1.0320780365,-0.1456248162,1.1440636031,0.0635315138,-0.4793251222,-0.1516141782,-0.6477657893,0.5881667433,-0.3831730241,0.7347649148,0.7951248363,-0.0905567742,0.3572191825,0.5474219859,-1.6429096762,-0.7061097663,-1.0422993456,-1.1439918202,0.1008969127,0.2767015775,0.4137555501,0.6439260775,-0.8498615771,0.3648078391,0.1793489351,-1.0812833576,-0.4949358058,-0.6976092693,-0.6716384176,-0.7090148724,0.7842375742,0.2093748615,0.2566635449,-0.600559808,0.7260230186,-0.5203526353,-0.6504093664,-0.0413790561,-0.3491647583,-0.6758456328,0.7195529964,0.5841464323,0.6191386506,0.5836740092,1.327500679,-0.188869177,-0.0545704926,0.3466489849,-0.0568670101,-1.1068569215,0.7418289766,0.6353211768,0.4365999135,-0.3694571394,0.3036246827,-0.1448676056,0.8300393845,0.7139329959,0.6692773482,-0.9472143174,-3.4196844629,-1.3724203714,0.183875701,0.1611626688,-0.4312482752,-0.8670706862,-1.0369255454,-0.5226615969,0.3379562895,0.8662976262,0.48490602,-0.0856723176,0.2175155022,0.4915735007,-3.7488222072,-2.5235733762,-0.4534187945,0.486399309,-0.9190832915,1.2108871076,0.401826709,-0.3202922841,-0.8581751537,0.6406070974,0.7595652841,0.629618351,0.4015197124,-0.2525943086,-0.5860040898,-0.1367119417,-0.1748728029,0.5441884431,-0.2298663475,-1.0033084467,0.5556434114,0.032131936,-0.0338730845,0.593000897,-0.4023972928,0.7453440935,1.858211228,0.8161236643,-0.6794573039,0.8191222659,0.4285055892,-0.0534527968,1.8037213149,-1.1167104393,-0.9838715277,0.8130024461,0.8933362336,0.8429226217,1.0777568269,-0.7422800454,-1.063583668,0.4277004589,0.1510746708,0.0501102183,1.8875658354,-0.2149062851,0.5157744903,0.0020661391,-0.8984750422,-0.6423230352,0.5264627322,-0.2681822121,0.1140715113,0.7917551244,0.1149618205,-1.4600953922,-0.2262580151,-0.2035511993,0.2508560344,0.8569427924,-1.0998702381,-0.2641980975,0.4841666839,-0.0196529651,-2.6658882752,-0.7336033795,0.2853088622,-0.150828692,-0.0696207901,-0.7414569307,-0.6315411352,-1.0169435376,-1.1589394983,-0.847921809,-0.8601635976,-0.2663271608,1.3707756066,0.0256516357,-1.4663988825,-0.3137767055,-0.768309803,-0.0031610311,-0.8315405605,-1.4463009848,-0.1347670499,-0.374754684,-0.6657215721,0.5618233492,-0.5753000374,-0.5885316232,-0.4271518476,-0.0925096549,0.131471824,0.4653407913,-1.1632563355,0.5105378618,0.0941880932,-1.6747733466,-0.0873789088,0.2273388409,-0.4015326142,-0.2538718831,2.9018382823,0.4071917948,-0.5412871591,0.4551480649,0.9375510311,-0.8518204245,-0.3190938318,-0.9679094459,0.9440709191,0.3199506126,-0.1160344317,-0.2877749726,-0.2089074157,-0.8174859594,0.4202782801,1.7793375529,0.6391791476,0.202487688,0.214823922,-0.1862936472,-0.8030297633,0.4051112324,0.0304296184,0.4204830915,0.2374866372,-1.5140898991,-0.9383124087,1.2012242915,0.7964527107,-0.5438939446,-0.1340995056,-0.0749644536,-0.5046569083,0.6659280915,-0.0980714026,0.7714988166,-1.5591577045,-3.6009289381,-0.9964974739,0.8207476183,-1.6313928454,0.1778948962,-0.3651448379,-0.4722175154,2.7071263682,0.6836517026,-1.1716796817,0.648323026,-1.0476193284,-0.3457601421,0.2613945364,-0.2130798421,-0.5480286739,-1.4845638854,-0.5207136712,-0.0589003456,0.2885808069,0.7943478713,1.0394639286,0.9546787106,-0.2220390467,-0.1593413902,0.4536430065,0.5091964276,-0.2481513462,0.7528822569,-4.0377448707,0.1162524195,-0.5025183606,1.9194483308,0.5138699447,0.1892087272,-0.815649871,0.9164224154,0.5673580797,0.1296482641,0.1607888113,-1.0406460032,-0.6329933729,0.4990591841,-1.0474237048,-0.436153771,1.0506636922,-0.3074740372,-0.9362353025,-0.9319839268,-1.0008417715,-1.7781198063,-0.4385916374,0.2117435462,0.782635285,-3.9658928656,-0.4959802138,0.8049901833,-1.8019254714,0.4890405099,0.6171278287,0.1467215436,-0.0050149641,-2.8858809849,0.3054733862,-0.1728161259,0.3317496329,0.7612993461,-1.6701442814,-0.8018760134,-0.404208665,0.4964738913,0.5125897661,-1.3371540779,1.6172146198,-0.0086745882,0.2208975773,-0.5769767504,0.084865839,-0.3758378898,-0.7396745071,0.6102714943,-2.7323959985,-0.6829122276,0.6045299888,-0.4882290171,0.2496280745,0.5565231755,0.5949530579,-0.3202849134,-1.045207643,0.396616412,-2.9431467327,-1.4285165115,0.3991281545,-0.8137745818,-1.0763565838,-0.6803080968,-0.716772973,0.4909318978,-1.4127322423,-0.5952298983,0.3341752869,-0.1235525605,-0.4126692061,-0.0700227145,-0.488094901,0.322321025,-0.6647752306,-0.2224374492,0.0235165565,0.8246896578,0.8453080063,-1.2092215031,-0.553259846,0.2308947018,-2.4467703376,-4.0253812127,0.6102472004,1.1006128887,-0.1680262798,0.372129044,1.6942476648,-0.8185725003,-0.0042474649,-0.6901045972,0.7922965275,0.4467775819,0.312615124,-0.3116614628,0.0813776112,0.4635730167,-1.6829719544,-0.6174844828,-1.5716503337,0.1881254627,1.1008078564,-1.2323334744,0.0170795213,0.0186892013,-1.1527022886,0.6729122145,-0.8553840813,-0.1701826746,4.0245138513,-0.5094266573,-0.2775687769,-0.0270518459,-0.5795730905,0.1461452342,-0.7331550208,-0.3353136246,0.3521972353,0.2496053112,-0.5627499804,-0.2642377373,-0.5996001421,-0.0650891077,-0.7004448286,0.4019469979,0.9081905221,0.6764020662,0.4637800441,0.6266541434,0.1005374866,-0.4440842833,0.4878111737,-0.0439777754,0.9199143709,-0.6377245093,1.4969778247,0.2006524124,-3.3262129024,-0.8317930117,0.2634460423,-0.4067608581,-0.4172123108,1.1110904593,0.1725864876,-0.4848105002,-0.3341051761,-0.124362555,-0.7991999828,-1.3988580035,-0.6127003466,-1.2941424865,-0.5213490419,-0.8367526799,0.5744840087,-0.5146194504,-0.8378332967,-0.863296387,1.174876615,0.9076609645,-0.8981379647,0.4348183663,-0.0780812311,-0.6603567068,0.8207527094,0.0315644672,0.5912133425,-0.5615136456,0.4949894659,-0.0317954216,-0.9191684107,0.7525889292,1.3208924176,-0.0947085616,3.7850227993,-0.1020296464,0.3596994104,0.6766322968,-0.3682194155,0.3598533849,-0.912114228,1.0930185065,0.8137233826,0.3485870059,1.492700552,-0.7935067807,0.8325336698,0.3173924281,0.5935816468,-0.8074194557,0.4523305005,3.6936081243,-0.1875459263,0.9496252676,0.1879973082,-0.4944931245,-0.5628593081,-0.8179274305,0.7408317098,0.1046902428,-0.5954992893,0.2650353791,0.3848598039,-0.1107941794,1.4000781987,0.8475420211,-0.0004370336,-0.0874497983,-1.1392563837,-0.9629662966,-0.7487567136,1.2023290844,0.4979225586,0.2575100017,1.2998117098,0.5430131404,-0.9611106623,-0.818132601,-0.1239294318,2.5382205109,0.864308248,0.4108495845,0.2494738525,0.9707559532,-0.441185127,0.8684551204,1.120129061,0.1911465676,0.5965214488,-1.1793283679,-0.7585155553,-0.1330510515,-0.041243343,0.6672692721,0.2917864421,0.0351192055,0.0589006728,1.020455201,0.5024704607,0.7119294804,-0.8218626573,-0.1449727123,-1.0660128864,1.7147715236,0.6297605704,0.8895454144,0.69566006,-0.3838288368,0.3275004739,1.4042054526,2.3507793389,-1.7440598538,1.0658881864,-0.5700613198,-0.0380453521,-0.1330955089,-1.5957870487,0.1122582582,1.1823488555,1.9321889807,-0.2692402187,0.1769452199,-0.5932665904,-0.7567914908,0.0072114606,-0.8778544237,0.8837217375,0.757543568,0.4192687821,-0.1145061685,1.6954655874,-1.0271124857,0.5970034564,0.0728169179,-0.490020477,0.9666749875,-1.8680780755,-0.3919850523,-0.7897247536,0.668674458,-0.481116855,1.1440678554,0.3111735867,-0.7635471293,2.5661302031,0.5428165355,-0.7236160855,-1.8272690755,-0.4663299907,0.5833830905,-0.0341137629,0.2266312381,0.8840961154,-0.1040753376,-0.9636805955,0.3260818555,0.7337725731,1.0876447478,-0.0442137193,-0.7924026155,-2.0672791606,0.2332284724,-1.0095347872,0.36669559,-0.3275453198,-1.3134808818,0.8435928184,-1.1702745637,0.8314768749,-0.7141450233,2.0120667279,-0.2953344286,0.0705182842,0.8644506207,0.7599235981,0.4728232602,0.8403707689,-0.7149886708,0.5867324732,0.4406913633,0.891820945,0.0995684107,0.5744727025,0.9322360842,2.3993915464,0.1660991637,0.6565668057,-0.9911453488,1.3649247607,-0.2056165082,0.0361954612,0.757469981,-1.373043149,0.4230645583,0.8191086068,-1.9855217986,-0.8066679629,2.0006566052,0.8642942245,-0.8043829244,1.5451807131,-0.3575012186,1.4683416932,-0.0816509922,0.3371362924,2.8757760511,-0.88185421,-0.9510648308,-0.7906656112,-0.6462904571,0.7492956262,1.5230200405,-0.1270473897,0.9761735088,0.7914987729,0.0222061043,-0.1052729517,1.4295847071,-0.3896706768,0.7693711252,-0.6381615247,0.5191008273,-0.9603177498,-1.8936529143,0.0906957807,-0.1872577754,1.0196935005,0.3912086557,-0.2409802638,1.0726807174,0.5549971433,0.9657125333,1.1232536749,2.4836940359,1.9477650998,-0.1278197509,0.1454389555,2.6903846796,-1.6183836118,2.2220622577,-0.2467633842,0.8876244023,-0.3017330944,0.6197747404,-0.122985413,0.2722387499,-0.3097313439,-1.6752101537,0.0202908618,-0.3769383114,0.3008044375,1.7466553174,0.9007309254,2.7193488823,-0.9608947763,-0.4603537102,-0.7204294861,0.7674729592,0.0814020893,0.5082731962,0.50647257,-0.3368289648,-0.074188555,-0.2328344514,-0.8901335956,-0.5059918017,0.2928949839,-1.0179757415,-0.528396009,-1.2532700166,-0.3163896216,-0.308795284,0.2363142462,-0.6926981757,-0.6185043341,0.5479711121,-1.1766489818,-0.4818017819,-0.2019089844,-1.0031197328,1.4094275981,-0.3870337117,-2.015664437,-0.4868589273,0.7441732209,-0.8578119354,-0.6931095369,-0.893043953,-0.8130664615,-1.073475842,0.3460918079,-1.4242835359,0.7729250251,-1.0400599789,-0.7878317415,2.1763145518,0.3271321162,0.8921304505,-0.1049298956,-0.9783392274,0.6181793232,-0.9805979076,0.8799317106,2.3699609577,-0.9116827618,0.459772188,-0.6288837855,-0.6871557851,-0.6651152824,0.0897867323,-1.0375958372,1.4124299226,1.8963846524,0.0305094003,-0.741369496,3.4427771459,0.3396657495,1.8897396662,0.8397322117,-1.0827554939,0.6347519804,0.6530630694,-0.276622826,-1.2031391715,2.0589308951,0.2272194399,0.5266200859,0.3535374007,-0.4607632698,-0.8859020317,0.4051824047,0.3773553365,0.1215700573,-0.1753188895,-0.3821677904,-0.31743302,0.6251559951,0.4826584718,-0.4430769385,-0.4028455567,0.1958210685,0.3301178828,0.8714692981,-0.4008995038,-0.6701957015,0.3591659193,-1.0209220285,0.9038366969,-0.759879273,-0.3965023913,0.4122194104,-0.8953923702,0.9174339428,-0.5639692033,-0.6891493083,0.724759419,0.8676279769,-0.5274325328,0.2898577869,-0.711145405,0.2549504267,0.8831147978,0.2644131497,-0.868624574,0.6849406693,-0.6057647853,1.1463835926,0.2431994608,0.5823565226,0.3726534268,1.2772385802,0.6365938703,0.0060415212,0.3289813886,-1.4218283127,0.4854654162,-0.2022219024,0.7167123745,-0.7585719913,0.9689615987,-0.65615774,0.1638000432,0.9772075995,0.9738225307,0.3581630057,-0.9426433788,0.5944405317,0.185472038,-0.919586661,-0.132761111,-0.0066497287,0.2330416284,0.9010994967,-0.197727657,0.7122464411,-1.0778102153,0.332765123,-0.2904567381,-0.9651432136,0.8739814635,0.4938449477,-0.660314446
   0.8105757186,-0.1765697947,-0.5153486505,0.0214217884,0.4593584266,-1.4698925232,1.5862923825,-0.0137676233,0.1922813741,0.8333786705,0.1900162789,-0.1456981034,-0.3461412339,0.4849985113,-0.1613699707,-0.3902614078,0.4783364769,-0.330561762,1.4521268458,0.7061778318,0.0570458206,0.0244543423,-1.4901625745,-0.693449831,-0.4337000571,0.5181722953,0.840759994,-0.449304413,-0.7163288597,-0.1985381734,-1.2143365045,-0.2916860213,0.8639900654,-0.4709248864,-0.0880726855,0.6052758297,-1.6228992487,0.4444961548,0.7015916131,-1.5568967395,0.4404947615,-1.1226082691,0.2545136644,-0.0735606872,1.2064544324,-0.9968581542,-0.478127407,0.4965029751,0.4979024043,-0.343627292,0.4361291121,-0.4238666549,1.1864087564,0.4271303211,-1.0601186967,0.1692314964,-1.1163814084,-0.6306813041,-0.4287467994,0.0013875909,0.8451270116,-1.676338455,-0.8059772788,1.0622889658,0.7898723369,-0.0764210409,0.6257266157,0.8695277997,-0.7261365136,-0.4791501631,0.7047142351,0.8831074587,0.4212480092,-0.5169216387,-0.6412966488,-0.8236973934,-0.6227386525,-0.2374129394,1.7329928789,0.2553423721,-0.9809889241,-1.0801192989,-1.629347747,-1.3037461579,0.2571666776,-0.6359775384,0.7876759841,1.4011998678,-1.3240729739,0.3737907664,1.8254466752,0.1743128596,0.0038023166,-0.106990567,-0.1184437506,0.0136286673,-1.2573658364,-0.6406160575,0.9221163574,1.092309591,-1.0109585998,1.0955531775,0.4630076712,0.8101289706,-0.477653287,-0.9196259721,-0.5004296761,0.3114740625,-0.2614728063,-1.4408629895,0.8102752585,-0.3160377424,0.7285467783,0.0507948088,-0.897611078,0.0281960833,1.1895283104,0.8901835509,-0.6047797116,-0.3608422641,-0.2920580982,0.3567953965,-0.7073627728,0.5005612851,-0.9839876311,0.968156255,0.2231961589,0.483337764,-0.2981498035,0.0225351108,-0.3473970627,-0.5209992799,-1.1557013824,0.3398977453,-0.0738482946,-1.3943917104,0.8352059942,-0.0456116735,0.0654866009,-0.2217422098,0.133460972,0.191478365,-0.9747474077,0.9782094232,0.8898268418,0.5174565632,1.2018556108,-0.0917576566,1.4845911596,0.3984998367,1.3046431028,0.0507293293,0.0374290399,-0.1049414983,-0.5678611172,-0.5272880512,1.0947719843,-0.2095491134,0.3325046226,-0.5491442236,0.8051117818,0.1677004988,-0.876170972,2.1335691198,-0.4598214723,-0.4548029635,-1.2306334154,0.6980815965,0.7232248231,-0.8687820001,-0.5600575265,1.1654205353,0.8827985913,-0.7988913145,-0.316709726,-0.3521867949,0.6687915765,0.0215392257,-0.1145163145,-0.0793613503,-0.1137923657,0.1148527581,0.3940288214,-0.7930758313,0.2975036521,-0.8229045371,-0.6381568183,-0.5911232283,0.3688214343,-0.6503419731,-1.0337429113,0.2138314614,1.6108668436,3.4177294754,0.9172641424,0.4679106061,-0.8144674242,-0.3370410388,0.9869965219,-0.67884117,-0.9854326849,0.4610895999,0.9997539751,0.0061433511,0.4969773568,1.0684331491,0.5305344946,1.5771702774,-0.6312556661,-1.4585659861,-0.1026940341,-0.6853150916,-0.3282046835,0.931191997,-0.6467402748,-1.0598476803,0.2422497707,0.1847626184,0.7231598289,0.8538104964,-0.1454763525,-1.0080884171,1.3613700207,0.3754250224,-0.6170890623,0.4534707408,0.4070948694,0.1729942498,0.4970830569,-1.0986259831,-1.6227845771,-0.5379995999,0.3104642134,-0.3685564676,0.3083642375,0.610408778,-1.2503363468,-0.9005697726,0.4278201082,-0.6825842249,-0.5754812719,0.527790643,-0.6130758086,0.356607056,-0.0156956491,0.6803908276,0.2604444053,0.6802360212,-0.1133930438,-0.3124157511,-0.3449066474,0.6914171921,-0.149723322,-0.1575950788,-0.341080983,0.4771462747,0.2371714157,0.7386983054,2.0106888842,-0.0967826212,0.6252658873,0.2669596424,0.3625150155,0.2587238087,-0.0162697396,-0.6166783132,0.7287616011,1.003957905,-0.7216209702,1.3256994605,0.9342945185,-1.567777911,1.1206979845,0.4162113294,-0.4545030419,-0.4202363308,-1.0033046671,0.2749034671,0.0361848634,0.7054788355,-0.52760057,0.0261565312,-0.0773938885,-0.6785019788,0.12277586,-0.9676585334,-0.0085589361,-0.1304102178,0.2476073854,0.0376481583,-1.3690166377,-0.1326033951,0.6345814166,0.2473706867,0.927388959,0.0566428358,-0.5226590961,-0.3083057337,-0.9211550344,-0.1717523103,0.2558884849,0.0993215042,-0.4821653751,1.2865661584,0.1488113384,-0.7928784288,1.6868283368,0.6291809354,0.0499229513,-0.0660161152,-0.6922051128,1.1643452076,0.1652517384,-0.8495685641,-0.4371324372,0.4530381898,-0.4511403675,0.9722873247,0.5956384384,-0.3486923141,-0.703372814,0.1518806091,-0.8369310331,0.335495631,-0.5709936571,0.0240285836,-0.333238709,0.353828291,1.3784700189,0.6588353305,-0.2752302576,-0.3418253571,-0.3955941365,-0.7572390404,-1.3062512085,1.2370304341,-0.3227653944,-0.1550170438,0.2733757831,0.2142471944,-0.915219772,-0.863499857,1.0528587272,-0.0053551354,-1.0261348127,-0.6239902279,-1.7094262799,-0.4167265704,-0.2585155482,0.4501771819,-0.8382493814,0.6603793282,-0.1852032322,-0.6658289129,-3.5248603563,-0.2951330313,3.7342963903,-0.6452549653,0.5934915928,0.6173739198,-0.7352044583,-0.6897073558,0.7195722165,3.5302041209,0.4972478248,-0.0693735831,1.2274217383,2.2664472585,-0.9276122103,3.6751033125,-0.7544900397,1.0727876922,1.8235229981,-0.4202544744,-0.4863351963,0.6282018089,-3.2616386993,-0.3715189171,0.5069368823,-3.9412834495,0.5113160796,-0.0334309871,-4.1333542411,-0.3062622992,0.4486599622,0.9849264601,-0.8127025418,-0.6572227483,-0.7111992602,2.9464196289,-0.3974031188,0.338506899,-1.9354472476,-0.5066892743,0.3685976827,-0.9183676119,-3.7683628573,-0.2970871265,-0.6410839662,-0.2216773239,0.6349330587,0.0001353737,-0.4613128671,0.1458491562,0.8602003818,1.6406656573,2.5390047546,2.4998092373,-0.9851436531,-3.3413165865,-3.6628745202,0.0337952223,-0.5391827796,2.6741799267,-0.1884923014,3.0698111579,-0.9397694397,0.3329489765,-0.9941945802,-0.902144984,-0.9366290296,-0.8570536867,-2.6340393146,-3.6550289741,0.5424612374,-0.9686542326,3.9311288797,0.8408428525,-0.8099947401,-1.4955019838,0.5270492971,-0.7198031422,-0.5871935998,-0.3975807317,3.7515127317,-0.757663868,0.6571264149,-1.1482460178,-0.675267764,0.2693487353,-0.3449429359,0.5647702153,3.7906085305,-0.4796660838,-3.1073534561,-0.7357810787,0.4502616535,0.2999447873,-0.5060503427,0.0631171599,0.8459447281,0.6102604778,0.4545284577,0.3066876538,-0.6004787917,0.408219359,1.2885215934,-0.976446658,-0.6580640279,-0.4614282883,-0.4231431752,-1.9951770985,-3.7666303837,0.1439542099,-2.2302182926,1.0012309402,-0.4610411523,0.4953182609,-1.2815232837,2.6696394543,0.4945827454,2.6153313275,-3.2400790231,0.533989855,2.6032026471,-0.9719609603,-1.2198891913,0.2384429848,0.1030599453,0.4423948018,0.4873188974,3.8677853455,-0.6543377973,-0.6873666169,-3.6681897865,-0.1909643471,1.1848459927,-0.5989408433,0.3981861834,0.2153461141,0.1846807661,0.3149522207,0.9499778696,0.4317195583,3.7406856725,-0.8480687849,0.6466993517,-0.3424893172,0.1290906479,0.769776107,-0.9888688676,1.1021738367,-2.5110789056,0.6727524202,0.4426166941,3.9215910427,-0.5049625715,0.8973460562,-0.7381786278,2.8014961981,0.4960913419,-0.0682726693,-0.5960162722,-0.6514760093,-1.0325691151,-1.4803347383,0.4292236822,0.9055905605,2.4141000583,-0.5608746331,2.8633003231,-0.4068344023,0.1870270375,2.5536247926,0.6646688208,-1.0028161826,-0.21845103,2.6152136515,-2.6273815248,-0.2097354911,0.5616473376,0.154526817,-0.9259415775,-0.722981102,-0.9280876865,0.5780651693,-0.1955685871,0.6945803965,-0.1601707645,-0.2336268535,-0.1100604741,-0.1102876402,-3.6163813887,-0.5072852173,0.3351220527,4.0207701232,-1.8677609077,0.2392629286,-0.8315635303,-0.2076869182,2.2885865854,0.9064110967,0.8469032223,3.4830905427,-0.4628403218,-0.2108516757,-0.6825998465,1.2370669918,-3.2326805728,-0.9676991614,-2.7977565653,-0.5829662434,2.2483379807,-1.6568695084,3.1033811967,3.1558343233,2.5661685869,0.0514747093,-0.3467339911,-0.1683811852,-2.5855637918,0.1171691599,-0.0957288067,-0.5996124056,0.1940677398,-1.652424797,0.1864870765,-0.9617916314,0.4891902586,0.6386700642,-0.5215138629,3.1729480049,0.1649613855,2.5730244229,-1.0103233306,-0.0837813681,0.8038199083,-0.3911167978,2.7317552344,0.4947609196,-2.5142430685,-1.445689807,-0.5415811844,-0.9455707243,0.2379662467,-1.4676553636,3.6142631831,-1.057535838,-0.0874365162,0.5352007852,0.8211718482,-0.8094467635,-0.910909689,-0.5358149772,0.4201914028,2.6080675008,0.4248390089,-0.3447371269,0.3040064438,-0.6447236699,-0.4206478193,-1.3878642312,0.8093618412,0.9742193852,-0.1170500795,-0.2598875345,-0.9386459921,0.7199469752,-0.1802199564,2.4442579166,-0.1380943152,-0.6058217524,3.5413326048,-2.8912362977,-0.3467582369,0.7722561081,2.9577354704,2.3076080214,2.9952459793,-1.5603986164,-0.6467116776,0.8917576879,0.4852935836,-0.2895050753,2.5824511293,2.9568360503,-0.0609545584,0.1534969063,0.2835341341,2.3501824899,2.9312716019,0.1056908249,-2.3534936341,1.4322032688,3.2035324616,0.961871528,0.4345248377,1.4477121862,0.3366105342,2.9485488589,-0.8879021621,0.4354046507,0.47672973,-1.2590877841,0.8639092371,0.2533194541,3.1064151626,0.7480684806,-1.2076508367,-0.6730960483,-0.3881776332,-3.6691781777,0.7718439331,-4.1866575757,3.0887032902,-1.5813186618,0.4661542743,-0.9710220649,-0.7496152453,-0.3105944505,-0.2713885836,-0.8682773472,-0.7623252835,-2.6002007787,-0.9353346498,-4.0755194177,-0.8458807653,2.9282333618,-0.5071188627,-3.3074336592,0.6110965687,3.8316706226,-1.9239943103,0.3689686056,-0.2852957376,-0.873092571,-0.2811158848,-0.4236849476,-0.2084695162,0.0428306553,-0.2070151376,0.5578101004,-0.0756921193,-1.4158294072,-0.0417055062,-0.7868886841,3.8261344933,0.6104462487,2.4301086378,-0.1747054895,-0.8821383303,0.0111861023,3.8964958657,-0.4000333399,0.2437299302,0.1170932497,-0.9336573069,1.052212084,-3.492652633,3.7680610068,0.6762871166,1.1110389736,-0.7736652723,0.5806609998,0.5075049932,0.2811103844,0.8666778259,0.3755135626,0.747879552,-0.1193569666,0.5758091069,-0.051905852,0.5708377531,-0.1192830315,-1.5532176854,-0.7900143252,0.360097681,0.8444974507,0.0449716124,0.522326007,-0.8315363892,0.2984993796,-3.2843992743,-1.0315853177,-3.6956918194,-0.5549277004,1.3229378016,-0.5201628784,-1.007523947,0.0949694754,-0.1011036964,-0.886862963,-0.3459428397,1.0307405587,0.2810690343,-1.0843202045,-0.4062508191,0.6439077234,-0.2811846854,0.333578331,0.5303681874,0.2184209223,1.7265290843,-0.9772459828,-1.1329078385,-0.4716244729,-2.6886916157,-0.0954746645,0.1298201807,-4.0177900853,-0.8044901973,-0.7511291892,-3.3925824424,-1.1024079714,-0.7052953625,0.1881650401,0.9753970339,-0.7819934061,-0.3751398657,1.4292646159,-3.5778792444,-0.8655226252,-3.4153689886,-0.3691303847,-1.5609817202,-0.9401943296,-0.2942625901,-0.2115470735,-0.4870488463,-1.0760193943,0.7619324747,-0.0729636358,-3.1779550404,0.2128412605,-1.2144898387,-0.0834971266,1.0566371927,0.8710632592,-3.2100851175,-4.0348991173,-3.7630850407,-0.186679001,1.068026971,0.5007171671,-1.3917839473,-0.0914178118,0.1102343507,0.3785735767,-1.2432153114,-1.4661994963,-0.8512273681,-0.5809279912,-3.4583699704,-2.5251807253,-0.1369014058,-3.9978286461,0.6145432375,-0.0625902956,-0.9663758855,-0.9270924751,0.1543103086,-2.7867916836,-1.0128881506,-0.3773595687,1.0761224603,-0.3267821438,-0.4512682362,-3.3702194775,-0.9042906516,-0.2522373908,-0.5311744502,-0.4676240669,0.9300525285,-0.6244964667,-3.2357085759,-1.1989248192,-0.2145295828,-0.3073910736,-0.367518746,0.1383599774,-1.5480789912,-1.1164278997,-0.2399757308,-0.2557419083,-0.196306808,-0.8500598537,0.3905108348,0.3759276901,-0.9655475783,-0.5872457399,-0.9422101,-3.693876962,-3.6228344771,-2.2695122321,-2.4339896731,-0.1174220929,-1.19442139,-0.9028601558,-2.6740469161,0.8921628443,-0.3045444561,-0.0866806697,-3.7995559702,-0.6182792257,-0.1436549511,-1.0076948332,-4.0820149627,-2.8507986493,-0.1169181508,-0.3477441204,-0.3653508687,1.6725507876,-0.2799301101,0.4007606056,-3.0081501901,-0.0126376272,-0.6186139672,0.0702414992,-1.2230091586,-0.7429981845,0.2492647948,0.2593113766,-0.5150019333,0.6099068587,1.426224453,0.3789275749,0.5873623518,-0.9168108579,0.1211097946,-1.0156635609,-1.5628409996,0.667758314,-3.4865963241,-0.0143691845,-0.3670301368,0.8997927729,0.5806864475,-0.3405203008,0.1504818165,1.334125806,0.0051613112,0.6386633954,-0.7706339778,0.6601043613,-2.8341906095,-2.3161108832,-0.4505335156,0.2345743718,0.0330567283,-0.5341996451,-0.0575349479,-0.7069826254,-0.9392136044,1.2527205651,-0.1016297946,-1.0266454517,-0.6460033162,0.70215566,-0.7235680028,-0.7051825218,0.5228459386,0.2698851948,-0.1293559308,-0.3078342286,-0.1500025342,-0.5121397074,-0.2153959495,-0.5592004932,0.3371528267,-2.2256068931,-0.5293908458,-0.7272940108,-2.574928612,0.247815515,-0.9005633227,1.3295853098,-3.8748081565,0.6824717007,-0.6950634,-0.6260955373,0.6354877072,-0.6852001549,-1.0488220606,1.2387584242,0.0083530598,-3.1908460148,-0.5124604923,0.844751888,-2.2501412895,-0.422466438,-3.3315617919,-0.7601056955,-0.2209668872,-3.0267437584,1.3420279382,0.5121235708,0.6555986078,-0.2986880149,0.706935906,-0.8959000034,-2.9324221914,0.6723017399,0.1196792759,-0.2871803752,-0.4928508796,-3.6551463849,0.1239716574,-0.2373116694,-1.0277728531,-1.0294265333,-1.6156192251,0.4704580884,-0.0033387967,0.7738883434,0.1008075362,-0.786079876,0.5722329307,-0.9675941365,1.514614819,0.4296521195,-2.2390370319,-3.5189295492,-2.6099768081,-1.2248230367,-1.0673730829,-3.517571595,0.6856015574,-0.8985588145,-0.7691782801,0.2841184245,-0.5888737,0.3073192608,-0.2895271132,-0.6420840674,-0.2454235377,1.0269554432,0.0136260148,0.5804745831,-0.5628965517,-4.0554348797,-3.314404951,-3.9902170886,-0.0512421548,-0.2826771641,-1.0324692652,0.5352774023,0.2500969861,0.1214468496,-0.6303394764,-0.0280651789,-0.8478775554,0.3005364199,0.8609935595,-1.8948932645,0.4421513869,-0.763826497,0.7657225917,1.0767544956,1.2637660526,-1.9309600462,-0.3133062377,0.7670322838,0.6548064771,-0.1831726853,1.2861326627,0.8081505491,-1.20898649,-0.9347077599,0.2158510711,0.967029119,-0.2688639364,0.6511500488,-3.1210910079,0.2743892641,0.6895702721,-1.288420737,0.3934426091,0.4152800537,-0.9214426926,1.4523281982,0.2036808972,0.1136709618,0.6200965702,-2.4309611462,0.3485195828,0.5663853225,0.9732348212,-1.2743376662,-3.4064547215,-0.3766284581,-1.1713544437,-2.2593035311,-0.1226465269,-3.7413419918,1.3873644139,-3.8969779534,0.3047529083,0.0789724611,0.3929264719,-1.9919825235,-0.6643885139,-0.496093156,-1.2180986798,-1.5237832723,0.1145103759,-3.5648364809,-0.9887938296,0.0548887223,-0.2998247857,-3.5536111271,1.0098238369,0.1086508572,-3.6376123475,-0.1151908779,-0.982556794,-1.3457011819,0.5222583403,0.1289704525,-0.751904135,-1.6728101999,-3.9576572264,0.2476171138,0.7280443501,-2.7032143979,-2.7087226234,-0.2963364487,0.1106780966,-0.9586920873,0.7028567837,-0.3726351058,-0.3835474706,0.5393256017,1.3581248514,0.433404969,0.2235344171,0.7180292139,-1.0485785499,-0.4245174942,-0.8552364661,1.4527948129,-2.3043796417,-0.2483090389,-1.1713409891,-2.0093053869,-0.8240462098,1.3117253853,-0.3835062283,-0.9253217062,-0.4756450501,-0.5396299826,-0.8568826134,-1.0740821323,0.5100745866,-0.4511322563,-3.6520264006,0.5972200516,-1.1689571774,-0.1703320506,0.9238815393,-0.0500635893,-0.0990163632,0.668793537,0.0767629538,0.0828086795,3.0264340194,1.0164460849,-3.9022517117,-0.0485664291,-0.0581128106,0.1203395889,0.8604050794,1.6003778842,0.6289118411,-1.830880684,0.5122053595,0.4357059825,-1.1292367537,-0.9102576861,0.6468777083,-0.9056763039,0.4615775765,0.4082816222,-1.1257768894,0.599181624,0.3781268632,0.9252275452,3.092176156,-0.888787345,-0.5696950478,4.0756044108,-0.1170435297,-0.595968941,3.4317780789,-0.2753720275,-0.0866953975,-0.4900862472,0.1907123836,0.0486107782,0.1762325741,-1.6631222055,3.6914454499,1.7226624225,-0.3369461969,-0.4083211027,1.0067661475,0.7209971021,2.2773971624,0.3927989833,-0.2394548804,0.8435825929,-0.9656671181,0.6338810942,3.7803544427,-0.7514717188,-0.0969079532,0.3766237144,-1.048915504,-1.1529543741,3.3377098183,3.7254967923,3.8861995867,-0.3156885496,0.0614545232,-1.6738306041,-0.9541692756,-1.4842308026,0.5211954418,0.1979014772,0.8809208198,4.1224527236,0.6972472857,-0.698613821,3.1603667358,3.8701617686,-0.889424978,1.6617797985,-0.2341658416,-0.5366395052,0.9929784555,3.9417939632,0.0714275369,3.8863337449,-0.1529308656,-1.6016518037,-1.4259675189,-0.3789985195,-0.2040315235,3.6763981947,0.9684307468,-0.7472582871,0.3585812707,-0.8307919953,-1.5231828585,0.1942221061,3.6322372898,-0.7792170081,0.4209384063,0.00031864,0.3358600769,-0.7213706463,-0.1394141116,-0.6511704321,-0.2387330842,-0.8548099011,0.3181564914,-0.1731979562,-0.9393330799,0.4564708826,0.136322723,0.2391884768,0.4144134615,2.385515306,2.9211336653,-0.296449268,3.1163644916,-0.1560867677,0.3931416471,-0.7371635968,2.4343570875,-0.1608349117,-0.0725924158,-0.8737877121,3.233466824,0.1571374083,-0.7193217164,0.625115797,3.9351477178,2.909464063,-0.0301248607,0.3527397789,-0.6107602192,-1.3091912826,0.245265213,0.2440362477,3.2097149294,0.2631194153,-0.2948290977,-0.1336136875,-0.7347413672,0.9217355976,-0.305989414,0.0859924919,0.4015727051,0.6495322329,-0.3376576943,0.0388434029,-1.1421247089,0.6512439679,-0.4764771675,0.7538519551,-0.5697471402,0.2830787181,2.4771264611,0.5933572162,0.0974778606,-1.7008986577,-0.7142913544,0.9363088744,-1.0086584646,-1.4404376021,-0.7001822745,0.0408825651,0.5027404814,0.2637537119,2.8114286742,2.6311343108,-0.0254705178,0.8396349014,-0.4363700575,-0.3107217699,-3.0040261457,-0.832670324,0.3166591828,-1.2580270298,0.7032057297,0.3969534475,0.7207358039,-1.5840668216,0.0268443346,-0.3573465349,-0.6902226281,-0.7671682199,0.1786423828,-0.8955982524,0.0140414836,0.339368135,-1.0032617551,0.1821716745,0.1222210658,0.3902177864,-0.1756789785,4.0434290814,3.2606841742,0.8372032429,0.8034218415,-1.1871493,3.0844294248,0.6440620722,-0.7245237587,0.4730194309,-1.768956353,0.3168232621,0.419984814,-1.2212417959,0.3864176187,3.3697906882,-0.4412406597,-0.4543862413,2.6284579851,-0.5616835915,2.4332737322,0.5367177088,-1.9222711736,2.3561505959,-1.0000649034,-1.8961337265,-0.3529856496,0.8098724523,-0.7615225859,0.5274319419,4.2104954809,-0.4044287773,0.8526774018,0.0813368825,-0.2720231665,3.7741310841,-0.3525016954,-0.6362020141,0.6198743203,0.1178802783,-0.3607050705,-0.4052240977,-0.3229849234,-1.5142008174,-0.553285697,0.6277958464,0.0984886752,-0.2064927693,-0.4925373748,-0.5948476409,2.6299723741,3.528760406,3.0115852543,-0.2050225602,-0.634003312,2.7372554654,-1.4905549197,-0.0031438848,0.5734356547,-0.6649233427,0.5567946377,-0.3013661681,-0.2279174153,-0.5812088518,0.3655818629,-1.2628317866,0.8190796366,-0.1961932761,0.1345449559,2.7123734419,4.0212137539,3.7056619113,-0.5080952341,0.5516762486,-0.0930911006,-1.5611484057,-0.5019632968,-0.1828425078,0.5815603041,0.1047724912,0.818084098,-0.7354431361,-1.3371521169,2.5585767906,-0.7291057259,-0.6337370427,-1.8944766472,-0.5943057254,-0.7379623403,1.4861688297,-0.840233713,0.6023080913,-0.1621371356,1.270270364,-0.2542830322,-0.9447724917,0.7721475933,-1.0245263519,0.2111548483,-1.6302483664,-0.5689285744,0.94924165,2.8535968901,-0.0643273863,-0.3114420038,0.9924333864,-0.4321856354,-0.2518079772,-0.4220791128,-0.5955482455,0.7348271394,-0.968176759,-0.3483063732,2.6059083517,-2.7923337477,-0.8368301301,-1.2102005349,0.3332384265,2.4478682363,-0.2363442954,-0.0260390721,2.5102990914,-0.908974891,4.0444728278,-0.4819607039,3.6212054762,-0.2577873636,0.7453897159,-0.1917396892,1.4779717919,2.7106435802,-0.924993924,0.26447749,3.5941278509,-0.6931380473,2.9546231251,-1.0093898213,-0.9706017812,-0.6700973217,2.4622066199,-1.0785239999,-2.3734870714,3.4243008279,-0.2745367298,-0.0419697201,0.5890570044,-0.5071153802,0.7678921557,0.8721083936,0.4861728829,0.6230233811,-0.4555531171,0.0806464957,3.8369589484,2.8335073442,0.8121263547,-1.2020629771,-0.4349272999,0.1182568647,0.1813489182,0.1743172042,-1.0392487467,-0.3301785257,-0.3514194933,-0.1449993456,0.8907125361,-1.099345383,-1.2032919113,1.2761257811,-1.4003605422,-0.3219909614,0.4566197967,0.2303679412,-0.2176158318,0.5768189392,-4.0509184429,-0.5874835614,0.1500421218,-0.3987395538,0.7366952597,-1.3416918832,-0.7462519274,-0.3708487939,-0.4415601558,3.5887763213,-0.7097410368,-0.0716955549,0.5595869272,-0.0018200832,0.373564094,0.3034053946,-0.3805083958,1.5527010423,-0.2906431843,3.6327059225,0.097308145,-3.4699924448,0.629135806,-1.0539039446,-0.5484806943,-0.6554687431,0.1128601561,-0.2315777605,-3.8481469621,0.7060305039,-0.8346077296,-0.2965589375,-2.4100799866,-0.0860945108,-2.9503350044,0.1239896695,-0.9602339475,0.0821210082,-0.6641957055,0.5804988342,-0.4544614363,3.3047527959,0.4926449079,-0.2747463139,4.0539715695,0.478058136,0.2050036633,3.6498825017,-0.4174962863,0.2827379972,-0.7171712165,-0.3167381804,0.0429453773,-1.0773391999,-2.1432751439,0.9464720648,0.8550220217,1.3975941549,-0.1032397424,0.8528233741,-1.0715460128,2.5156870047,0.1754938204,0.7563678265,0.7338277975,-0.0204308904,-0.1141441952,0.8470968406,-0.9335752468,0.1412772912,-0.9767408728,-3.4260090714,-1.766382566,0.748204778,3.2726466602,2.3319727896,-0.9974087307,-1.7797531274,-2.507088275,0.8217377247,-4.0250393261,1.0931231641,0.8143807065,0.4802385714,0.8612192355,0.1629005846,-0.1699234103,2.5014692158,2.7846889819,0.2165568385,0.9465967408,-2.5021630356,-0.0633540781,-0.8816269797,0.0707465197,0.1584627977,0.2504391758,-0.0857101846,0.585456144,-1.4625505583,0.4068235563,-0.1722734143,0.2244364628,0.7278884561,0.873280114,-0.7204104693,0.3464007987,-3.7597667038,-0.3281840991,2.3003452655,0.1349772055,0.5496969754,0.1991196024,-1.0792092851,0.0457234464,0.594748751,-0.3899718869,0.5936957659,-0.5163306816,-0.6906544653,0.5430212684,-0.3220268997,-0.3058358451,-0.8016814769,0.4978056506,0.114386705,0.3825011763,2.9165673551,1.4177602212,2.8344845558,1.1169005192,-0.0725813332,0.7372211857,1.9782609857,-2.7233506542,0.3217875364,-2.2942943938,3.5779190286,-0.8454395671,-4.0492141845,0.735615723,0.2487276101,1.9033943182,0.7220124913,0.0147584984,0.2164035381,-3.5723980538,-0.7444252489,-0.6219821636,2.3912163802,0.1240195812,-0.5599299947,-0.9801834445,0.0676444767,-0.7803926372,-0.4614852329,0.7562217656,-1.0389524463,0.3044443852,-2.9578536585,-0.1882453328,-0.3706109024,0.4761459775,-2.0201893664,-0.0563525482,3.0570737197,-0.8113442084,4.1154386331,-0.4746657432,-0.7572314169,-2.700854866,0.5976215948,-0.5892373903,0.0218671124,-3.8968027951,-0.2311151392,0.3375055362,0.6901047841,-0.0316330059,0.6226778228,1.6977031791,-0.4892976646,-0.4034339043,-2.5559730999,-0.1939667072,-1.1547420205,-0.0869010516,-0.9733262115,-3.1278938718,0.6304541455,0.8179377874,-0.7848316375,-3.8561920681,3.2106612593,-0.025802084,0.8268463647,-0.5555612307,-0.5775212766,0.674467085,-0.0569610561,0.0518769561,0.2079371051,0.9075416429,-0.1481385866,3.4415143934,0.3076462275,1.0363250876,3.0230681385,0.275854538,0.6547289335,-4.011341863,0.6800523254,-0.8720285448,-0.7684381582,0.0045515608,-2.2731233879,-0.5176509284,-0.9784807277,-2.3950459064,-0.2361570721,0.4698651107,-0.2637176871,-0.5936368236,3.728806855,-0.0237805389,3.6840079961,0.8909776625,-0.7462191128,0.2162510958,-3.9241305698,-4.1228840353,-3.0291451259,-0.1395404266,0.7563237914,1.3145141024,3.1529470148,0.4162973615,-0.7680777673,0.9536438009,-0.5916292054,0.2803713289,0.2961447176,0.8607459038,-0.5971549695,-0.3762423161,0.9810103077,-3.3219255224,0.5486601124,-2.6740570635,-0.8991605235,0.8607645081,-0.7163315967,0.0415967418,-3.2137988895,0.2417614496,2.6126030797,1.8048440455,1.7968723034,0.1765439195,-0.712106894,1.5164225517,-3.3915557313,0.1649185553,0.1984777437,0.3479386646,-0.8166639501,-0.4449174639,0.7280071405,0.2525392014,0.896973779,-2.8454077502,-0.7023161635,-0.5979645327,-1.0100789515,0.8423217368,0.4745082118,0.9777671828,0.2223913747,0.5332220334,-0.037842971,-0.4915706538,0.5631085772,0.1679942701,0.0787875498,-1.602586648,-0.6688561162,-0.5282291278,-2.896699576,2.8906342989,0.6334214841,0.4020159805,-2.7121491488,-0.6704715354,-3.6173115012,0.8093261318,0.4272569671,0.5247381734,-1.1804209861,0.2282771656,-4.203089852,-3.3111561,-0.4657892327,0.004614122,1.0026072587,-2.4582548506,-2.4928045934,0.5708180468,3.0274187611,-0.44606659,-2.5988534841,-0.996894502,-0.8088950214,-0.6480475568,0.3232591179,-4.1158398621,0.530731092,0.0006106126,0.3929685241,0.3941396117,0.0466890825,0.6173158221,-2.2467629083,0.4947381224,0.3677490424,0.1840589064,0.1869395146,3.5390926725,-0.8011647521,4.1360336785,-3.4369797914,1.9915418984,-0.7351083578,0.7924492296,-0.6221502789,0.054463304,0.6680464525,-0.8575031712,0.2854659964,2.4181582629,0.5184845224,3.006271974,-1.0030216066,-3.024388691,0.8940000805,3.5374258519,-0.8868530194,-2.2382059757,0.9724365366,1.1041473036,-0.4983873831,0.1212822548,0.7331667655,0.4245168952,-0.4579083771,-1.0532116341,1.6017173723,-0.9875198232,-0.3576421357,1.5947664309,-0.1799362267,0.4529921817,-3.5696197568,-0.4534531633,-2.5606311613,0.7062573489,-0.6833906839,-0.2151740164,-1.4716520704,0.3126972167,-0.6671691773,-0.5507346231,0.2650637068,-0.0357028479,2.3738687467,-2.618620955,0.9388332512,-0.3541932672,-0.8143316864,0.1901231572,0.6497353253,-0.4975530322,0.6964627842,-0.3486490601,1.0418721227,0.4244331934,-0.6088526378,-0.1382543216,-0.5953383751,-0.1340404438,1.6646229282,-0.6240514845,-0.8925890311,-0.9675549076,-0.9762169473,-0.5870911263,-0.9575877862,-0.8988933885,-1.0765885516,-0.7071546807,-3.8396786285,-1.4023461304,2.4674847388,-0.9518096988,0.8352945935,0.5170496694,-0.0745105022,0.3781992041,0.3649081172,3.5187517879,0.2935686607,0.2993592732,0.300865368,2.4471928557,-0.3775069007,4.1812165738,0.462369733,0.5975867369,1.3033851211,-1.8381284614,0.7250730537,0.4810213967,-3.2378888435,0.6739920307,1.1029640614,-2.3357210968,-0.6980422729,-1.2241350168,-2.2902143945,0.7282180355,0.3258393949,-0.3107447256,0.0301487074,-0.0993991357,0.9669978637,2.472397512,-0.2026389589,0.2331483104,-0.3549225197,0.6876685116,-1.0390025772,-0.6771241069,-2.6485364137,0.6347904339,-0.3757688026,-1.2466765336,-0.8337159189,-0.4251995355,-1.6797438721,-0.0378510804,0.6892982667,-0.6800679183,3.8504037098,1.167154241,-2.6825084665,-3.3348725331,-3.1631261004,-0.0137991671,1.6639743878,3.1910195961,-0.7117389977,3.6005147191,0.2731306829,-0.3794642782,-1.0198102279,-4.0035354921,-0.4824449038,-0.4916563282,-3.5869300321,-3.8798345583,0.4281768073,-3.0199309996,2.6790395416,-0.5730682569,-0.7980581826,-1.3418218248,0.4210370466,-3.9213664757,-0.217160886,0.540954698,1.5174839532,-0.7636036004,-0.680747132,-1.945533179,-0.3537075326,0.8564529752,0.6107444993,-0.6109852275,2.3503578576,0.0307572458,-3.1999422885,0.9577113603,-0.3727084302,0.7466165287,-0.1446413299,-0.5601739464,-0.0205618811,-0.753746112,-0.0680555069,0.490235491,-0.1191670988,-1.1225375544,-0.5047743454,-0.7070260276,0.3480153695,-0.7635512277,-0.4892998873,-1.3226674965,-2.6108143631,-3.4471256577,-2.2236142475,0.1555651756,1.0827726549,0.017824447,-1.9414566463,3.4104445878,-0.7052865898,2.4843386899,-3.2878995401,-0.0627713993,3.8368299086,0.8858113735,-0.3050123023,-0.5898428527,0.7483226802,-0.6704015185,-0.0554507173,3.1441846365,-0.3077531767,0.2405984445,-4.0058214261,0.6647548685,-0.5211713933,0.6358578216,0.0459667433,0.1332252968,2.8633605835,0.2314043316,0.34802561,0.1436550885,3.6059182855,0.6747894657,2.469753171,0.3990295544,1.2284153878,0.561914883,-0.0644107697,1.0705072215,-3.8025583337,-0.9699002699,0.6083421867,3.1828451609,0.2872307057,0.232682121,0.2457361175,4.0499348988,-0.2948850306,1.2876189645,-0.5592262223,0.8330468822,-0.5577560751,-3.2331246547,-1.0971661344,0.8449005354,3.1290571529,0.6241815297,2.0207192507,0.821583296,0.7701877324,3.2070640065,0.5158580444,0.1569084636,-0.9258240508,2.2364619745
