encog,BasicNetwork,java,3.3.0,1,1576422384515
[BASIC]
[BASIC:PARAMS]
[BASIC:NETWORK]
beginTraining=0
connectionLimit=0
contextTargetOffset=0,0,0,0
contextTargetSize=0,0,0,0
endTraining=3
hasContext=f
inputCount=379
layerCounts=3,16,64,380
layerFeedCounts=3,15,63,379
layerContextCount=0,0,0,0
layerIndex=0,3,19,83
output=0,0,0,0,0,0,0,0,0,0,0,0,0,0,0,0,0,0,1,0,0,0,0,0,0,0,0,0,0,0,0,0,0,0,0,0,0,0,0,0,0,0,0,0,0,0,0,0,0,0,0,0,0,0,0,0,0,0,0,0,0,0,0,0,0,0,0,0,0,0,0,0,0,0,0,0,0,0,0,0,0,0,1,0,0,0,0,0,0,0,0,0,0,0,0,0,0,0,0,0,0,0,0,0,0,0,0,0,0,0,0,0,0,0,0,0,0,0,0,0,0,0,0,0,0,0,0,0,0,0,0,0,0,0,0,0,0,0,0,0,0,0,0,0,0,0,0,0,0,0,0,0,0,0,0,0,0,0,0,0,0,0,0,0,0,0,0,0,0,0,0,0,0,0,0,0,0,0,0,0,0,0,0,0,0,0,0,0,0,0,0,0,0,0,0,0,0,0,0,0,0,0,0,0,0,0,0,0,0,0,0,0,0,0,0,0,0,0,0,0,0,0,0,0,0,0,0,0,0,0,0,0,0,0,0,0,0,0,0,0,0,0,0,0,0,0,0,0,0,0,0,0,0,0,0,0,0,0,0,0,0,0,0,0,0,0,0,0,0,0,0,0,0,0,0,0,0,0,0,0,0,0,0,0,0,0,0,0,0,0,0,0,0,0,0,0,0,0,0,0,0,0,0,0,0,0,0,0,0,0,0,0,0,0,0,0,0,0,0,0,0,0,0,0,0,0,0,0,0,0,0,0,0,0,0,0,0,0,0,0,0,0,0,0,0,0,0,0,0,0,0,0,0,0,0,0,0,0,0,0,0,0,0,0,0,0,0,0,0,0,0,0,0,0,0,0,0,0,0,0,0,0,0,0,0,0,0,0,0,0,0,0,0,0,0,0,0,0,0,0,0,0,0,0,0,0,0,0,0,0,0,0,0,0,0,0,0,0,0,0,0,0,0,0,0,0,0,0,0,0,0,0,0,0,0,0,0,0,0,0,0,0,0,0,0,0,0,0,0,0,0,0,0,0,0,0,0,0,0,0,0,0,1
outputCount=3
weightIndex=0,48,1008,24948
weights=##0
##double#24948
   -0.7824924659,1.0364026351,0.7638640185,-1.1157037905,0.3630047609,1.3305756222,0.0596918682,0.9024951643,0.2978360994,1.4341624031,-0.0327655356,-0.2613862894,0.674822363,-0.3299750856,-1.4135724209,-0.8664876305,-0.3220038354,-1.2386788144,-1.0152921493,0.8553570357,-1.2846561883,-0.957845992,-0.2952696254,-1.6268995401,0.4529144974,-1.8351979584,-0.3478139952,-0.488132626,-0.7342310017,0.0670114538,0.2151361175,0.1312297608,0.1503016414,-0.3139153873,-1.0860225805,-0.3826782179,-0.3270108684,-2.6029115134,0.1537101455,0.5451916494,-1.6974401581,-1.2882942332,0.3296322623,-1.1141310863,0.8550744474,0.1266321751,0.7704414578,-0.4034604705,-0.9111616394,-0.9512812974,0.2353013932,0.7341943285,1.1682782488,-0.6025777886,0.0689037787,-0.5090685381,-0.975409167,0.2645049423,-0.8687171362,1.1254851386,-0.2574722637,0.3621067571,-1.1056594972,-0.6829861097,-0.8656329674,0.4680726602,0.4534853993,-0.2291238135,0.8915172029,0.9163752913,-0.9737052565,-0.9925430678,-0.3455090877,0.3020632473,0.2874965043,-0.1858624654,0.1467905955,-0.7370313524,1.4487800327,-1.1129293291,0.6805856355,0.2122288622,-0.732039926,1.0258698109,-0.6769655363,-0.9428220469,0.6653477991,0.1636327419,-0.4491552748,-0.6109120497,-0.2142294335,-0.9098433923,-0.5592335648,-1.0165538708,-0.7895266408,-0.0200834189,0.3988775006,0.730790709,-1.0624191936,-0.2411172709,-0.1259132995,0.7759401604,0.6650362868,0.6807199031,0.3489852436,-0.0009877538,0.6679061308,-0.0243347093,0.0542950297,-0.1892449172,-0.247466775,0.4892080342,-0.3301563638,0.9205173198,0.3391380476,0.7496752774,-1.0490219008,1.9935540458,1.4526688213,1.4088633991,1.271524401,1.3327953749,0.0374792964,-1.0649191517,-0.4330099208,0.636486248,1.1557803332,2.2824670926,2.1928673135,0.0302963727,1.5134137031,2.3733634859,-0.6932091299,0.7163064227,1.8333724881,-0.2535259719,-0.7623403737,-0.8379809004,2.0173894618,0.8474737594,0.8849235286,2.4747541785,0.8662964599,1.8931991275,-1.0460929747,0.8480278625,0.1001833662,0.6737393468,-0.4853074675,-0.7695543359,0.9025421843,-0.5414851068,-0.6799877159,2.1646957253,0.8378611217,0.7234250993,1.841026477,2.5512061472,2.2001012165,2.4330429652,1.4267207036,0.6098766691,2.4562400013,1.8664673839,-0.8788114915,1.3135497164,-0.1286281881,2.4725899478,-0.3376331418,-0.4982290703,-0.5308041492,1.0342730147,1.771688789,2.048312558,0.8115837349,0.5043063056,-0.9348615426,1.1869893161,-0.5253431477,0.4291169882,-1.1744905074,1.5721916173,1.9852607842,1.6107853866,1.7121132026,1.4048366236,-1.0947598904,-0.4845391158,0.9773917781,0.5582051412,1.4042339537,1.0205940556,1.5739413086,-0.692663875,1.0567955988,2.3249736478,-0.3618472487,-0.7136648249,2.5884560355,0.6228575506,-0.2503577273,-0.560028695,1.258964186,2.3830811325,0.1887274657,-0.1693647585,-0.3452811395,2.4294030614,-0.9330090839,0.964060829,0.4075561754,-0.7311744519,1.2296045784,-0.2699640634,0.9951368928,1.267755653,0.2555556874,1.8466429886,0.599991705,0.7182492266,1.8917671229,0.0221833057,1.7946684589,2.4039597315,2.5756475313,-0.3716743461,1.7493463239,1.4196052141,0.0278207227,0.8610348762,-0.7233102799,0.8252307409,-0.9736276421,-0.3974250216,-0.6951281898,-0.8471336254,1.6996110586,1.7366257398,-0.1125716521,0.3844832105,0.8915552842,0.107615413,-0.9908780139,-0.6827400627,0.6744890673,-0.8716737515,0.316620636,-0.1758996173,-1.0120611745,0.4514179222,-0.7662085718,-0.8406736088,0.6649439791,-0.8066688108,-0.5670346042,-1.1188966783,-1.3653319392,0.0862778343,-0.2663767907,-0.5754034727,-0.8274920715,-0.715920393,-0.6503507961,-0.4648772871,-0.7410515413,0.0651307823,-1.0189475696,0.1841673428,-0.9902333174,-1.5337425312,-0.1012462106,0.2457772261,-0.7043913563,-0.2747491103,1.2772354099,0.8270465831,0.3952246226,1.3493964785,-1.0557757286,0.1141415802,1.1928234778,-1.1467574934,-1.0569893333,-0.0476855587,-0.1509187577,-0.0765940981,-1.4288136408,-0.6808674296,-0.5981878248,1.0554930758,-1.037155857,-1.0351057916,0.3508337338,-0.1722130449,0.9498809209,-1.2384290152,0.7800573091,0.5852036854,0.2383570747,1.0819582697,-0.9746043773,-1.1497069279,-0.6973581637,-0.6048905893,-0.5252787019,-1.1663669825,-0.9711477229,-0.782763213,-1.659187231,1.0823867914,0.5715250147,1.0415881649,0.1477875561,1.0645007595,0.0051969354,-0.4280211787,-0.6940456876,0.9559085688,0.1470758015,0.3786475614,-0.0746086189,0.38770734,0.3813676821,0.6380904602,0.2721862806,0.2235168907,0.761439884,-0.5434122291,-0.4676363895,-0.0818027383,0.1250847779,-0.2228628458,-0.5591355168,0.8256829653,0.5649755721,-0.3979666292,-0.5826466367,-0.3799222382,0.4593999625,0.4554458879,-0.3981598392,-0.3508657508,0.4383870796,-0.6907556433,-0.2570096457,0.9413726026,0.6863571775,0.1951238086,0.6906734579,0.5255060453,0.599818228,-0.3661151088,0.2111591187,-0.0126406505,0.1984152528,1.4655319849,0.6652648968,0.4257386572,-0.5800142546,0.6804094959,-0.1529292872,-1.0463986125,-1.2621939519,-0.798964543,-0.3709069595,-0.2772497215,-0.5434386141,-0.5273044225,-0.0968453167,-0.3398851212,-0.2452067872,-0.7285550056,-2.5732836406,-0.171332256,0.0928821978,0.3642288806,-0.4924816281,0.9224567018,-0.0814990203,-2.4643876931,-0.1192736212,-0.6508901232,0.9512829808,0.8036013812,0.0534992247,-0.8380516107,-0.1259567007,0.7735575853,-0.4397251735,-0.9784183633,1.4587741101,-0.5867307493,-1.1262387757,-0.7535801751,1.1693522788,0.646976364,0.5351824052,0.2963510817,-1.1033253471,1.2279439495,-1.1934964865,-0.3225132216,0.6278204175,-1.0392890151,0.933389779,0.066567201,-0.1656687291,1.302797005,0.8275303778,1.2546854477,0.3846832505,1.3150325833,-0.2670885766,0.5508767106,0.950150668,0.7344825854,1.3670492231,-0.2577821058,0.549920152,1.0959741512,0.1949966521,-0.2820124974,-0.4235423855,0.9512395975,-0.4233181843,-0.1644773078,-1.8085252195,-1.3345759894,1.1989645757,1.2032758313,-0.1895301035,-0.7534598082,0.2472142013,0.4792156432,-0.8289986366,-0.0660166844,-0.9331438802,-0.3010947844,0.3273480145,0.8479107092,-0.1259330756,-0.9518094729,-1.0383304052,0.6262728147,0.6343275578,0.9400914367,-0.4825490693,0.5663317742,0.2542504932,-0.2496792602,0.0906026274,0.3662532645,0.5883862059,0.3654802637,0.5604124247,0.4288343588,-0.1709075408,-0.3205213907,1.0145378373,-0.1373595065,-0.5759870138,-0.6721389345,0.3098136539,1.0026304653,0.5487280324,-0.7236731815,0.4215059917,0.869824466,-0.1616960519,0.0758268797,0.9398557103,-0.3881084937,-0.5807067872,-0.058083006,-0.037898419,-0.5645161091,0.8439439244,0.399327302,0.2241346541,-0.6794566639,0.063758211,0.9589495134,0.6646511035,-0.8479411278,0.5856371391,0.0112776907,-0.6688399693,0.6104150963,-0.35363374,-0.7040903344,0.7035498047,0.1369531512,-0.1038293307,-0.9084759563,0.8045984655,-0.1580323656,0.4130601883,-0.84256056,-0.6694487118,-0.8126320675,-0.2635086038,0.7867360095,0.6630360181,-0.1036198534,-0.1649469556,-0.1699772081,0.096587354,0.5567898936,1.0198482189,0.8986916103,-0.1186048293,0.654643373,-0.4624016705,-0.9438916899,0.4332330443,-0.7617739066,0.4427396867,1.0338146405,1.0542425344,-0.7574836777,0.5529373803,0.7114308049,0.2713177848,-0.4483869247,0.7548787602,0.5726529342,-0.4066172919,1.2187169649,-0.6714057346,0.4659523601,-0.7994291754,-0.633074333,-0.2681870365,-2.1305524381,-0.4832570228,-0.6613791638,-1.0661460102,0.6840506997,0.3330639759,-0.7825076143,0.4991471066,0.7873143156,-0.508514706,-0.3669303807,0.9564047622,0.7114939601,0.2879872993,0.2651652304,-1.3461516178,0.3123804867,-0.6800447432,0.092293792,-1.0992557844,-0.7209390865,-0.1463382682,0.1165200419,0.9768037463,0.480205901,0.3716230303,0.6641529796,-0.203451042,0.9899915067,0.1174943453,0.123587279,0.154597436,0.5003198449,1.4861997528,0.9115718805,0.6994681034,1.0765095111,-0.7693091032,-2.4083137144,-0.878038646,0.0575570601,-0.0193497245,0.2022420583,0.6634071144,-0.8888636757,1.0624817437,1.0474713835,-0.036782826,-1.4443672531,0.5342029106,-0.7582882037,0.2571355149,0.8013877547,0.7923103068,0.1973167879,-0.5769913388,0.0364072283,-0.5254351197,-0.1378384421,-0.0073472977,-0.0561583967,0.1356615659,0.315589929,0.9222846988,1.353176113,-0.8272475304,1.031082559,0.8607843584,-0.4352193374,1.1283862113,-0.3162779146,-0.4232117946,-0.5624865538,0.1982223741,0.8724898992,0.3995641836,-0.3326285782,1.4360627636,1.0725310951,1.3258823666,-0.2509335805,-0.5187279957,0.5226254443,-0.283382863,1.4751365756,-0.485406073,-0.4432188556,0.5081050262,0.1103705131,0.3469170175,0.048939875,-0.1339739954,-0.1338147623,-0.7926870129,-0.5977711748,-0.9616080106,2.4270415879,2.1402245189,1.6800906841,2.5182857259,2.3399984259,-0.9913563356,0.8669578465,-0.7274056878,-0.0042192283,1.6594044777,2.6431603373,2.5972385758,0.0699581242,1.4806761391,0.2745201438,0.2868650262,0.8077114488,1.1912617093,-0.8830137894,-0.3881056744,0.051347134,1.246517174,2.3663217558,1.1907427073,1.1442228953,-0.971990604,1.8462526422,-0.9698349277,-0.6525078541,-1.0618146057,-0.0340029462,-0.0041453398,0.5016715714,-0.5930659483,0.9921520023,-0.5243611513,0.850538818,0.1605704885,-0.7460173289,2.313387146,1.322480393,1.7045108134,2.64851825,0.5578797707,-0.1412141085,2.3867191428,2.4481095761,0.0209729234,0.3844151905,-0.6636043278,1.1139847945,0.2147127454,0.7831644524,-1.2653629116,-0.5443207356,2.4298451748,2.2972693115,0.6134735969,-0.7381693181,0.8111378639,-0.2886823591,-0.2754987079,0.1353078846,-0.625432512,0.238371565,0.3140256764,0.9967571693,-0.3450195836,1.0523776143,0.2708351396,1.9521379406,1.1257478816,-0.5218462602,0.5332989584,0.2495032904,-0.3666495179,0.5516270698,1.0235555546,-0.4926158028,0.345299131,-0.2789253505,-0.0279070277,-1.3009841037,-0.822832575,-0.4937355718,0.2895351994,0.8552151488,0.5672606323,-0.6573926769,-0.2709762636,-0.0971034634,1.0080093831,0.9389725536,-0.2607610485,0.9523106307,0.1566673434,0.3955601575,0.8350125753,0.3707072338,0.5488051459,0.8916742055,0.4762534462,-0.8566536909,0.7288997559,0.5946115079,-0.732755977,0.6772345887,-0.099286151,-0.2238244907,1.0974293241,-0.3756510824,-1.2728494521,-0.2009661628,-0.475793511,-0.2469888778,-0.3582331869,0.2954269436,-0.6543694839,0.0229537098,-0.1542749164,0.4057811326,0.4518298602,0.9876012695,0.875224933,0.7244771922,-0.5140051151,0.3556177081,-0.9910085109,1.3360238099,0.3198860966,-0.0416894548,0.3524623238,1.0295826344,-0.6675817416,-1.235599683,0.2297194084,-0.3840147728,0.1423854362,0.9433316658,-0.8187092294,0.1003578171,1.034058835,0.2204324356,0.8467106808,-0.7399150459,0.2296094158,-0.1450572317,-1.0076162456,-0.0181964157,-0.1574719852,0.9072050118,-0.3075201088,-0.0608374173,-0.1616775683,0.7502750804,-0.5521964227,0.4513500476,0.5613441497,0.5552213622,-0.5970241946,1.0034505698,-0.5195750348,0.8741465102,-0.2830164619,-0.4569009876,0.9590398081,-0.1706991551,0.5444048354,0.8884315473,-0.1409151228,0.0221954872,0.0433917598,0.344592493,0.5423873764,-0.3010278836,0.4652727221,-0.8781640605,-0.5401631881,0.1579869296,-0.1040705035,-0.9671653372,0.4543649341,-0.5703544492,-0.2714255374,0.4471462813,0.0754106206,0.7874667037,0.3105423611,0.1454867012,-0.5056987762,1.0933665439,0.2019976137,0.9785781286,-0.4231868667,0.4093001399,-0.5539379041,0.6677619887,0.2350772763,0.411793142,-0.2240539362,0.2003267131,0.458170877,0.6586604773,-0.1991188871,-0.6504421498,0.20459863,0.5380718959,-0.647979841,-0.7914823189,-0.1061038157,-0.3370196778,-0.8126079194,0.8596569096,0.4096066933,-0.2763269259,-0.0279155972,-0.3365713901,0.9826427235,0.7322224005,-0.9404836758,-0.4639867947,0.0641700059,0.1421652776,0.004840728,-0.869422915,0.7807570926,0.6986214552,-0.0378764227,0.6528318589,-0.2469790976,-0.5194673718,0.488707981,0.4025414139,-0.1006955934,-0.5728519798,0.3088629072,0.2277420477,-0.6582411677,0.7324693951,0.0962300823,0.8666377257,-0.4786285527,0.8793399716,0.2340911668,-0.9072550332,0.3326794017,-0.0437432989,0.6239135042,0.66002411,0.0666444157,0.210508316,0.23367733,-0.2388513701,-0.3182246833,-0.2948493958,-0.3771839548,0.3583319783,-1.3364690838,-1.2119042235,-0.9321609071,-1.2476405089,0.8808329331,0.8416148231,-0.6305706974,0.9044826003,-0.2767633922,-0.9321477139,0.3700964906,-0.7929529435,0.2568815883,-1.4691685858,0.0661474437,-0.8044956597,-1.4054598899,-0.6475015584,0.8707580907,-0.3816793612,-1.2996147694,0.2698364433,-0.4567590745,0.1145521678,-0.7563871636,0.0636582383,0.7846565908,0.7600252589,-0.97570487,-0.3184047449,0.5051381883,-0.6953375448,-0.2267019932,-0.4325634441,0.7587816323,0.3022219706,-1.0411618057,-0.813617931,-0.7786254798,-0.888131519,-1.3887944347,0.334630329,-1.03758846,0.4256133953,0.2228406354,-1.4743578772,-0.7252238708,0.5321910102,0.4422478832,-0.4876079505,0.1753910767,0.232152049,0.6792506275,1.0375811942,-0.0707006487,-0.2411357803,-0.2201499957,-0.3313266546,-0.1398168766,-0.2321135796,-0.4450611438,0.5033801769,0.429284951,-1.850928109,-2.1984204198,-2.2372174212,-2.4362081832,-2.0370219763,0.0863327942,0.703608034,-0.8706754681,0.9212678029,-2.6118358869,-0.8851831296,-2.3701009346,-0.8720223388,-1.0234741814,-1.1530105895,0.6719562408,0.2321281343,-1.2944758395,-0.168312911,-0.1626354402,0.2155396886,-2.3770036019,-2.6378837256,-0.0141771422,-0.1726296025,0.3497838522,-1.4271816167,0.2980719713,-0.7357520202,-0.5373659894,-0.5193046547,0.4534348648,-0.0473355272,-0.615806999,-0.9657319761,-0.4655791613,-2.3590244199,0.4153425182,-0.953909901,-1.9593901255,-0.7631526495,-2.4122791547,-1.9906666497,-0.9881972488,1.0233430886,-2.1561076373,-0.8592671846,0.6875605957,-0.6005509336,0.4227831014,-2.6285968456,-0.5539751346,-0.0410240576,0.5983663437,0.2799995255,-0.5896668383,-1.2586507576,0.068224593,0.9749973277,1.3012186493,0.5249757033,0.1221458395,0.050801382,0.9975153884,-0.0281238489,1.0194444688,0.4014993736,0.2577329471,-0.1369462946,0.0943167221,0.7161212203,1.4361905791,-0.6008237101,-0.7937226806,-0.9637795662,0.8141626704,1.1073306879,0.1565416341,-0.3186688246,0.3174828651,0.2404108292,-0.2548160382,0.2040056996,-0.0881628257,0.49709497,0.1103089431,0.7918894403,-0.646270991,0.8404682696,-0.9802058675,0.8722940155,-0.3916837174,0.2312331293,0.7383994095,-0.8265445961,0.9198022561,-0.2931879871,0.8701580339,0.122174378,-0.5403015406,0.730933297,0.2120089784,-0.5724163535,-1.0039802236,-0.4557639779,-0.7264654995,0.154868043,-0.0101426884,-0.0531412199,-0.1802443579,1.1324446092,-0.9236621112,0.2172163506,-0.7085858955,-0.2836756151,1.0242390544,-1.1137367616,-0.7857476156,0.6406716838,0.4625502286,0.0044282691,-1.0019161747,0.4740199039,0.185684063,-1.4800071216,-0.1979531433,-0.5102183932,0.8778542244,0.9687577666,-0.628204236,-1.0462095966,1.0790390164,0.0139267718,-0.908091616,-0.0902756691,1.0216029329,-0.6467601536,0.1093851786,-0.5741507059,0.6769663832,-1.0612058539,-0.1731110913,0.6748501776,-0.5950169491,-0.5703594502,-0.0064772575,-0.144857951,-0.9196346718,0.1466804995,0.594131499,1.071976919,0.4072443722,0.4551924806,-1.0138794626,0.9237322743,0.4907058262,1.0938707979,0.2209056145,-0.0790182717,-0.5132772662,-0.4500827375,0.5330023664,0.9685708015,0.7842011926,0.3905088442,-0.0257659679,-0.2143669493,-0.6049922235,0.4601591572,0.8973694211,0.0392588145,0.344337411,0.0519748296,-0.2568328624,0.6317175157,-0.2866247753,-0.048478697,0.558357173,-0.8593936099,0.2367236428,-1.099937407,-0.6831580338,-0.2815455025,-0.9993301764,-0.6598887176,-0.3381042017,-0.7489337709,-1.2556570906,-0.2291092239,0.6891027459,0.3390588513,0.0148915078,-0.7590661991,-1.0708127486,0.7941338765,-0.2391662199,-0.4591621497,0.7805916694,0.3000684433,1.140761517,-1.2878324999,-0.8628868952,0.6624428122,0.4940064131,0.3194364677,-0.6360399939,0.6970203825,1.0300820615,-0.7209438498,-0.2339241899,0.9351611996,1.0513624134,0.531834834,-0.4695121288,-0.5052620934,0.2227632526,-0.4745929888,0.7179644688,-0.3017542423,-0.1118981359,0.6774432364,0.5266680978,-0.8604081401,-0.3178310339,0.6331541723,0.4228237412,0.1082938986,0.5097316706,0.897371815,-1.0801620238,-0.4756181633,0.3335038106,0.810755758,0.1781806613,-0.1661529674,0.8348191255,0.2570677169,0.2562538674,0.5774301545,0.3593375652,0.2332054941,-0.2317165726,0.6320556282,0.1147919871,-0.5339893915,0.199674238,0.4192281157,0.9960496939,-0.4031984513,-0.1889673666,-0.1462235739,0.2352522652,-1.0810716835,-0.1280840383,0.3862734683,0.3824722874,0.8131964179,-1.481063762,-0.850269811,0.4929171725,0.5789441406,0.076454671,-0.0917489749,-0.7917931146,-0.0514755528,-0.0000328621,0.1924052501,0.8502676753,0.1073988448,-1.330729065,0.840091014,-1.3955609846,0.9490488747,-0.0516274857,-0.7837832306,-0.4649411821,0.8865322711,-0.1202351449,0.8661477516,0.7982081689,-0.1152321669,0.457291352,0.7842792007,0.612003927,0.1282213208,-0.1919643953,-0.2938750617,-1.0045860522,0.3328326277,-0.5997162989,0.0679666669,-0.8898544703,-1.1179636129,0.5146020142,-1.043090384,1.0443524469,-1.0504616181,0.4260667539,-0.6433116227,-0.6593309794,-0.3589826633,-0.1098229251,-0.6755013224,-0.9394775148,0.7343546053,-0.4072019542,-0.8906476403,0.4635100293,-0.8771752692,0.8518387441,1.2633030844,0.157872207,0.9327181789,0.1693841725,0.3908379971,0.1955060759,-0.2769176429,-0.269126432,-0.3251700851,0.1688581377,0.0140602436,0.2518912776,0.3253844885,-0.1926836567,-0.2624837369,0.139928467,-0.8342764051,0.1057061503,-0.2861394899,0.7733853575,0.0300218291,-0.6462811697,0.9820630622,0.6683878117,-0.5407271868,0.9083284736,0.7277042236,-0.2445698653,0.6996083406,-0.6401980793,0.295116708,0.6495267696,-0.8623556419,0.8036231311,-0.74544582,-0.7158481891,-0.3647631125,0.9766126894,-0.2663930335,-1.3056087277,-0.519828423,0.1461918593,-0.2183883931,0.1645879005,-0.9254810943,-0.1435504578,0.6440965994,-0.743371612,0.182019794,0.248338637,0.2426587427,-0.8176729183,-0.0163694869,-0.8657191492,-0.3377177567,0.2863266708,0.7963329771,0.6217297776,0.8988513278,-0.7414674612,0.5702855584,0.3644153045,0.7811938712,-0.3329259751,0.8733638068,-0.2474740879,0.8431240512,1.1014029358,0.6536537653,-0.7995154677,-0.8677879666,-1.1073056054,0.0965144256,-0.363824571,-0.652919392,-0.3533962176,0.0769001786,-0.8398976247,-0.1127771518,0.688373294,-0.5176960703,1.2077035251,-0.5590833399,0.4843719655,-0.8049285091,0.8372201945,0.3988420642,1.3721693751,0.4569963835,0.9091512299,0.8003297995,-0.5072530068,0.6154804229,1.1090117431,-0.6295891609,0.7725126107,-0.0577139871,-0.3701345674,0.7190425225,-0.4299193244,0.0113002692,0.4800514858,-0.5760149067,-1.104625245,-0.2721950401,0.8079562605,1.2019332264,0.1587701583,-0.2879912794,0.7890646123,0.328486737,-0.0171983985,0.8223048789,-0.5802752988,-0.4179014876,0.2230428197,0.4842284225,-0.500140714,0.3863616919,0.3369335308,0.6331809902,-1.4869184619,-0.3670402005,1.0812403942,0.3645019305,0.2310231672,-0.8447198928,1.3825036924,-0.6858037479,-0.6447409211,0.7121936435,-1.4703217054,-0.0056862809,0.5689659922,0.7213466227,-0.8629441642,-0.5394160082,-0.0672879997,0.6159036214,-1.017821174,2.5737661853,0.94509583,-0.6309079187,-0.9892670094,0.4348338682,0.5129635709,0.328585883,1.0417073911,1.6700402992,-0.6975546028,2.5302976466,1.3252068992,0.9551168667,2.2670780531,-1.0186153868,0.0402425311,0.6755073243,0.6234266977,1.2933856354,2.3081423213,1.1466500753,2.5699161706,0.3729155795,1.9128158604,1.7320277731,0.0213464134,-0.3424840116,-0.6775018119,-2.4595031816,-0.3197365254,-1.1100259111,1.9148698781,-0.7159024783,0.7067875252,-0.3368309652,1.3076914516,0.5268118772,0.5033354325,0.1055410246,2.1925844677,0.4531506601,0.0916123677,-0.7815390946,1.5345997656,-0.6866582545,-0.1210769363,0.9155494656,1.3548568457,-0.0501312425,2.2035855632,1.5481216077,1.1370545803,0.6946243203,0.8023903635,1.8514204844,1.6860453288,2.1368374715,-0.3819302239,0.6855410111,-0.3671913726,1.6713359676,-0.5987841876,0.2062121894,0.6884789337,0.8303738761,1.0737690958,0.9231367735,2.2985502591,-0.5985249178,-0.21684498,2.103836695,2.117897018,0.7587384056,1.177297977,1.3518158911,-0.1324327041,0.0081336175,-0.3769791547,0.9896812828,1.1020833854,-0.0356307245,-0.6378891527,1.1050894315,1.1943299996,-0.3049662367,2.1885265182,0.6902289189,2.3495166137,0.9042401177,0.4554962754,-0.7076558942,0.1378752807,1.0078537094,0.5777468715,0.1832274036,-0.4349342802,0.1964400054,1.8366932904,-0.8322165906,-1.2233696008,0.9605148784,0.3847404253,1.9610584224,2.3861075398,-0.2249990018,-0.149466563,0.4558305637,2.3513429551,1.6796979374,2.0920319684,1.5385382346,1.2934892876,2.5297266067,1.3184216857,-0.5253080853,2.4806343277,1.9545777447,2.3636826976,0.2940218143,0.6549591495,1.0540909201,-0.8424488035,2.2237244341,1.1662589661,0.6511143061,0.9844755887,-0.9335769719,-0.1516857972,1.6170323135,0.4803470688,1.7896444403,1.7629533904,0.2086112148,-0.714630998,-0.0033608203,1.5288405563,0.9530758577,-0.3677202956,-0.8426115215,2.2847059436,0.1247675647,0.442561433,2.4454772381,-0.0714141637,0.2453511238,1.9378733577,1.6379013988,0.5991126199,-0.3322329147,0.3840790187,1.6549615814,-0.2860922861,1.1886048706,0.43281364,-0.1268088718,0.7573012946,1.603950776,2.4311597891,0.4744367614,1.3289172538,-0.3794018342,1.7977484606,1.256578387,2.0687554397,1.9335644026,2.1783501165,2.0320003268,0.4237184612,1.2455837639,0.1381999715,-1.3889762896,2.3416557961,0.2239490362,0.132997962,2.3427168474,0.5332318878,1.3086068615,0.4062338442,0.2040289266,-0.2758058072,1.9814772148,1.1900286915,0.7498916866,0.709831959,-1.0769798849,-0.4248153132,2.1223125319,0.7523145793,1.7349808767,1.3506948297,-0.3538453906,0.9745682234,-0.0426517032,0.3265499763,2.2501765231,2.2043126966,2.4688348274,0.8798410121,2.1680019354,2.5450286801,-0.8966556922,0.8726922326,-1.153125817,-0.7189762056,1.1320590418,1.1571271618,1.1719773709,0.7179061749,0.3274914022,0.7760766226,-1.3089546504,2.3406558009,0.3280267349,-0.9160360748,0.922151118,0.6310236573,2.0534132473,1.397157821,0.2211576789,-0.075888551,2.1514394843,1.7160242282,0.0185445868,-0.4501896805,1.8607854754,-0.8233038446,0.0214660347,-0.5973913347,2.5980778893,1.3657629771,0.974110209,0.0408527718,2.5433344509,2.4351900428,0.6511113217,0.4496191282,0.9791498824,2.5159419252,-0.3006128358,1.9764640508,-0.6459485566,0.8905341731,-0.9343493275,0.1376144664,-0.4058105175,-0.0678434867,1.5381824568,0.7928683663,-1.0225993568,-0.6275986726,1.8213520287,1.0147061356,1.9081466163,-0.1470824002,0.9270536706,0.8446330192,2.2404510231,-0.8403180257,-0.1624957081,2.4426251617,1.1400179822,-0.1917293079,-0.6830380506,0.7861549635,-0.1302003987,0.9048301609,0.1948788043,1.3557897295,1.4967319413,1.0312687963,0.1822572585,1.3127408496,0.069939783,-0.4684872062,0.1106534599,2.1576050885,2.5147565801,0.4039596371,0.0184953229,0.975182947,0.0491200495,2.5946088532,2.3477905518,-0.4720032716,1.0256561999,2.1026419854,2.4347752905,2.2227007923,-0.0522958778,0.7282780274,2.2585657959,0.8951525356,2.1184351396,-0.6950731459,1.078354494,-0.3185474093,-0.3497526795,-1.1326047876,-0.2807174881,2.3886445544,-0.3239694573,0.068492415,-1.1301301916,0.9628674136,0.7211035683,1.3294014662,2.3211756693,1.0596017568,-0.2241178573,1.973394151,1.3584891925,2.4122178672,0.0735926681,-1.1488362308,-1.4438772858,-0.4543286388,0.9287029805,1.5410338104,1.2454867101,-0.1798195862,2.0856237727,0.3170282527,2.0907531584,1.2420020904,-0.2075513,0.4397460312,-0.4245607972,-0.4159045607,1.5660792147,0.3422483659,-0.1838060945,1.1474162781,0.879037914,-1.9402584452,2.2581222166,0.0207529721,-1.0889167461,0.7365525165,0.4695115076,0.6346024301,1.1319325919,-0.1356534723,0.9772096583,1.4496021729,-0.1799028923,2.1706726091,-0.7484032531,1.238594804,2.0526845387,-1.081681487,2.4109126067,0.972038059,-0.1611895949,-1.0124802714,0.9220399655,0.248360164,1.0895263076,0.6688085778,0.542239993,0.2188365579,-0.437687711,1.5402777563,-0.478108532,-0.2737545683,-1.1528800882,2.3249467456,1.0938100883,0.2281728321,-0.6513259618,0.1426013789,-0.5446921047,-0.8853706399,0.5066372322,0.2487507011,-0.2529471046,0.2032853236,0.56152587,-0.7817202116,0.4603182914,0.789930393,-1.2938638481,-1.0278883692,-0.7605052354,-0.7014040727,-0.077036509,-0.8109544366,-0.310090755,0.1884416795,-0.4987820732,0.1654084805,-1.1281828496,0.4541952838,-0.7813339302,-0.0025087953,0.7329085303,0.1969212522,-0.6102525512,-0.0196553549,0.595236925,-0.9161892936,0.8641878644,-0.2136526696,-1.4354891675,-1.351528896,-0.1861386397,0.4995418168,0.3031215396,0.2166044138,0.1847396275,0.0407981926,1.0352319619,-0.3440154765,0.7773123529,-0.4451454557,1.0317149936,-1.1970855969,1.1506979964,0.1247794748,0.6766295913,0.013890779,0.9378584156,0.5729311824,0.4583679112,0.0412983698,0.8656796531,-0.1812785628,-0.3440012637,0.1859235777,-0.2179167111,-0.3447304029,-1.1098008102,-0.4997801835,-0.4253875766,-0.2631569575,-0.2126506699,-0.9213937769,-0.2158237836,-0.4579811272,-0.1348977916,0.5347839589,-0.7452813323,-0.1999196188,0.5482351515,-0.9956396477,-0.1744726405,0.0412052255,0.4101085565,-0.9020168105,-0.7281938545,0.2482381269,-0.0683404867,0.5947432417,-0.1384400707,-0.3278419288,-0.677694211,0.6830827771,-0.4629176573,0.9389273772,-1.2877773929,-0.2694585709,0.6951593774,-1.332102142,-0.40069427,-0.9059795656,-0.9728694477,-0.039338945,-0.9964700224,0.2895479361,-0.5181682521,0.7767304052,-0.6533353878,0.8279668261,0.4260343802,-0.2855538082,-0.473624499,0.7195179654,-0.6567407731,0.4933380679,0.0957625156,1.2708424559,0.2507059493,-0.2993619095,-0.8036096311,-0.686920945,-0.1425083512,-0.3456456714,0.1329768216,-0.5466234616,-1.1098499938,0.1028922962,-0.6684716551,-1.1871593674,-0.7677851326,-0.1655056185,-0.5483144851,0.1951410145,-0.7860364854,-0.2141019855,0.2842346624,0.3799263815,0.150664598,1.2989999951,0.855910577,-1.0779981339,0.8626856443,-1.4398964593,-0.1989248132,-0.1101841159,0.1557841206,1.0876416155,-0.6027255678,0.0405412753,-0.633489014,-0.7676124538,-1.0275949734,-1.1105287457,0.3128038544,-0.4479344359,0.9756549989,-1.1196722276,-0.3742362641,1.3007486687,-0.4685449564,0.3201819974,0.9543043138,-0.3056248321,-0.7816694955,0.1603515125,1.0000568157,0.1469036648,0.0367291955,1.1259976356,-0.3863527474,0.5907870835,0.5442130262,-0.2423580268,-0.8656149408,0.2346094057,-0.6778231927,0.5562381432,-1.0192951578,-0.1137057889,-0.2492531535,0.1507459338,-0.0053040072,-0.0835480512,-0.1572036609,-0.3051367414,0.0180102339,0.2818863138,0.7835636671,-1.2029851985,-0.1576674506,-0.5240791597,-0.3671573743,-0.3446481641,0.310408509,0.280469408,0.5751301293,-0.6017640688,-0.550581883,-0.1543804448,-0.0866325926,-0.6116902688,-0.3908067076,-0.3579136235,-1.3239313957,0.4693485316,0.2882763118,-0.8815242959,0.8087971885,-0.0171697234,1.2081160857,-0.7825780826,-1.0655133834,-0.4093606436,-1.1076295683,-0.3894252824,-0.6069423024,0.4308292982,0.498817012,-1.1003505109,-0.0055948137,-0.2043860394,-0.6178206947,-0.4858422837,0.6567873176,0.2678099942,-0.4962366202,1.2043544732,0.0032754499,-1.0400607602,0.0179559495,0.4775790697,0.1195066072,1.0224045268,-0.7363261396,-0.6318091372,0.2278608786,0.1389246445,-1.1099377438,-0.0034332748,-1.2261080604,-0.0100882403,-0.8569354697,-0.5730651243,0.0377777875,0.6711297278,-0.002240448,0.251108872,0.183556332,1.2111889698,0.2632943282,-1.114045285,0.8018513542,-0.0333705447,-0.5496058987,-1.1935191357,-0.6610800404,-0.1711912915,0.3868267559,0.4798106116,-0.4373346092,0.4652914491,-0.9816234188,0.3794345501,0.6560981609,-0.8750013072,-0.8931319391,0.2108743638,0.3622963124,-1.071031985,-0.5110059711,0.2099887188,-0.0166351059,0.4187915663,-1.1307405566,-0.5452209163,1.1503655077,-0.9578974518,-0.8805205956,-0.7184010229,0.5816602105,-1.2706775151,1.3380927602,-0.2124872934,-0.5755249181,0.3100625648,-0.5453440575
   -0.4300584914,-0.0834934247,0.0580976675,-0.8806774537,0.066451033,-0.9339668308,-0.5861825548,-1.0033554699,-0.73180962,-0.5278025866,-0.8293263797,0.0813951635,-0.0781638101,0.4296501731,0.8159481765,0.0254445616,-0.014223727,-1.2953467477,-0.0753011439,-0.547533239,0.5515318602,-0.4158859888,-1.2514260923,0.0407416686,-0.0006756313,-0.1657667499,0.5491617553,-0.3222800661,1.0291275964,1.0938158914,0.1371879179,0.7310560449,-0.0654284855,0.7029828241,0.6161860746,-0.9041169294,-1.0439843756,-0.6668299879,-0.7248226213,0.3334360575,-0.8893651166,-0.3018167215,-0.8582601713,-0.1833678719,-0.3515898918,0.8723121205,-0.7160354184,0.2486942182,-0.9215028742,-0.5116863981,1.0466773419,0.5139330775,0.7046273253,0.1326088627,-1.2981678502,0.7340384735,1.1695298344,0.4012917769,0.2503043531,-0.3663599754,0.4995877148,-0.1693644313,-0.0362640057,0.4437473633,-0.1987248665,-0.4505052547,0.877961889,0.2618719926,-0.8099023523,0.4767808251,0.1441833527,-1.1489273406,-0.5702473088,0.4502221814,0.0404027081,1.0175232799,-0.4865582269,-0.3996469551,-1.4085532488,0.362019814,-0.5485421066,-1.0854734539,-0.4435717524,0.7110821698,-0.3515545004,-0.3846734452,0.1580118594,-0.8073586439,0.4650099456,0.6446474135,-0.3641258854,-0.7084623747,-1.0309813768,1.1690865735,-0.6398898746,1.3053710086,-0.5534987855,-0.3284468491,0.4068689824,0.0045697878,0.8604816533,1.0142731499,0.0171544606,-0.8644483192,0.1671004179,-0.3559344294,-0.8456109495,0.3619053926,0.4575777486,0.7883627217,0.5185106964,-0.0654158787,-0.4163663592,0.1422508392,-0.6298586402,-0.1073675617,-0.5602189085,0.2372267826,-0.6545624964,0.0609893504,-0.8948885122,-0.3539054429,-0.8931818519,0.4698927408,0.3952756036,0.2010639346,0.57113433,0.020500337,-0.1067686059,0.6341056265,-1.0318814461,0.7957078317,-0.474084129,0.1520905572,0.6031233183,-0.2246480131,2.3761658459,0.0173539772,-0.9563934088,2.2479878618,0.0346655362,0.3357196968,-0.7434352811,0.1694788963,0.8002031895,0.7620409469,-0.7898656882,-0.1221870958,-0.3907989128,0.6715539112,0.7024048129,0.5740285536,0.2720877069,-0.406800802,0.6823054341,1.3193454502,-0.0782834922,-0.9090160312,-0.9111081751,0.1085242482,-0.1624999915,0.6965624671,0.59800525,-0.0138152407,0.3058404322,-0.5558846164,0.1772646544,-1.3967426082,-0.7512007563,-0.5646474498,-0.3174080996,-0.2061437728,-0.5403913659,-0.6104165849,-1.0570244943,0.8714725615,-1.0807962808,0.6061524823,0.2385100773,0.4013059039,0.454779177,0.345717388,-0.7598277573,-0.0273470944,-0.1764310071,-0.2863789539,-0.8181989749,0.6265313685,-0.7066834521,-0.2118321543,0.0497571593,1.187431349,0.2025602275,-0.3343082078,-0.1763385396,0.7053023888,-0.9140843331,-0.1599986152,0.0785276595,-0.0346429284,-0.0833248986,0.1898965869,0.9738536462,-1.0246822579,0.4257717869,-1.0014799168,0.2492852253,0.0991063365,0.7838938372,0.9120759237,0.2620711113,-1.054846125,-1.1029695638,0.7247722434,0.5118093808,0.0298727693,0.892172439,-0.7773546487,-0.2093398239,-0.4629033202,0.2601965002,-0.2162109798,-0.9060588206,0.5275829668,-1.0759434102,-0.0597776197,0.2828859315,-0.8026424626,-0.6061202972,0.5199242987,-0.102432672,0.5497893731,0.6883812038,-0.4371387997,-1.1542234225,-0.1995804645,0.6553562415,-0.5715417029,-0.3523656477,-0.5816591121,0.8886126923,0.831678011,0.1103676355,-0.5095137828,0.5676060414,-0.5234310858,-0.3368125134,-0.8764791718,0.3265775996,0.4092596801,-0.0192562746,1.288344861,-0.1833063799,-0.0977472948,-0.2832456309,0.1795266889,-0.1781855634,-1.4122944019,-0.7076891618,-0.6037589997,1.6995847795,-0.0066380903,-0.1216878418,-0.0234015238,0.1165156184,-0.1806348488,-0.549856964,0.1591158528,-1.002643122,-1.0778818499,0.1331182447,0.7831259681,0.3397237481,-0.4007300681,0.3492674465,0.4683017187,0.7228806352,0.7070939316,-0.3863162415,-0.8834457714,-0.3102928275,0.8982682088,0.0646758006,-0.0348153146,0.8268648611,-0.9622146122,0.3256379961,-0.1731013068,-0.4900811666,-0.275195052,-1.0001063772,-0.4843595794,0.773989777,-0.1652575682,0.0900937486,-0.232144312,-0.9815795541,0.1896538536,-0.7469076976,-0.6619026086,0.5932009164,0.3917179078,-0.1462618979,1.0487902156,-0.0197502139,0.0321045141,0.3292257731,0.6857536785,-0.0670632862,-0.7115716717,0.8554485895,0.0581514531,-0.9410066377,-0.2069325988,-0.4725045305,0.6396985025,-0.7951982949,-0.2216719594,-0.7982677623,-1.1646336999,-0.6774356451,0.8036133771,-0.7515402106,-0.1786815918,0.9097051261,-0.6750538494,0.3817210515,0.2758692633,-0.467702268,-0.0351226296,-0.7787689753,-0.464981107,0.5052142333,0.6469016912,0.8737775929,0.4631680415,0.3524704726,0.8240674785,0.3485330119,-1.0872593423,0.5555600631,0.4018930136,0.7721880717,-0.0718173199,-0.8244447466,0.3324161141,0.1259673676,0.0108083868,0.4913606386,-0.1625814269,-0.2170269004,-0.9316467274,0.7848254803,-0.017316247,1.1896200433,-0.5000413638,0.5069308991,-0.2760214352,-0.9920285239,0.592920199,0.5276522654,-0.276655799,-1.0680368671,-0.7660467615,0.8652413717,0.2529228065,0.4301198713,-0.4494248696,-0.4105543958,-0.3996644542,-0.3016071965,-0.6745985068,-0.2871363845,-0.3879209226,-0.7864050802,0.60160734,-0.313215361,0.5993810354,-1.0154538814,-1.1334496299,-0.2505842057,1.2242100443,-0.8896605789,0.3514988443,-0.8400913999,-0.7189917462,-0.4939808891,-0.7090987147,-0.4863490744,0.613791553,-1.0717798271,-0.9300891884,0.0771094451,-0.2165335248,-0.5893451976,-0.7036289206,0.628069431,-0.5118078219,0.0891498298,0.0542002501,-0.0884006764,-0.6428326412,0.3550690293,-0.6589199583,-0.5279759083,-1.0781710331,1.1474583735,0.5390620916,0.2727521602,1.3874239629,-1.0494222012,-0.4194262392,0.3267185378,0.5493074881,-0.269134952,-0.8778754253,-0.3814397627,0.0234061659,-0.2039889112,0.9415904866,0.6856570074,-0.8582720095,0.5676893946,0.2510334851,0.1911431531,1.8924664504,-0.3417061084,-0.6972735404,0.1855260505,-1.4180068382,1.5479460592,-0.4972251424,-0.2525493816,-0.421497073,-0.7282188941,0.6825559387,-0.7542941304,-0.3642019861,0.6717549709,0.2776488459,-0.6473104283,0.5389608763,-0.696857625,-0.8267878643,0.8802849501,-0.0675396597,0.8581578163,0.8060034837,-0.540935128,0.093067689,-0.4251452929,-0.6588601461,0.865049611,0.6658574677,-0.5857417511,0.0991345358,0.230231293,-0.0593540124,0.4919491303,-0.8806477464,0.1625909447,-0.7836954521,0.7737330328,1.4821817699,-0.631018164,0.0986786029,-0.608187445,-0.9355995127,-0.1715538097,-0.3537831772,-0.8091447352,0.6300712641,-0.2629893098,0.6742696846,-0.3676670218,0.8798060088,-0.3931625839,0.934407967,0.4083489397,-0.9129125453,-1.0413603216,-0.2307600066,-0.6677921814,-0.5662082721,-0.4270996358,-2.4969964423,0.2140253851,0.097450579,-0.6209488034,-0.6992601424,-0.3484315335,-0.9672004839,-0.047044646,1.1186688904,0.1710640959,-2.5037821811,0.5005639862,0.5524935551,-1.9092291363,-1.0429592202,-0.6347661224,-2.1930690625,-1.045307483,-0.8717055739,-1.240663209,2.5099409549,0.7565740647,0.4710092403,-1.443510086,-0.2060662084,-2.3444552709,-1.4913188973,-2.3334246334,-1.7729747492,-2.4029725875,-0.6804897624,0.038645356,1.6802461759,0.0356072441,1.9334083614,0.5679436225,2.137836056,-1.3776142085,0.6696879984,-1.1486522405,1.0439916013,-1.9173408713,0.0959233467,-1.4921606128,-0.8511827467,-1.5503974414,0.6317680313,1.2048205807,-0.2059689883,-1.7707713405,-0.025372418,-0.4733384378,-2.2763620273,-1.9501673433,-0.3923643052,-1.0426500009,-1.5839763262,-1.4256495419,-0.5189718995,-1.6855320444,-2.2324194956,-2.3225653824,-1.4577470699,0.9881461662,-0.4587368407,0.8831281228,-1.5128529108,1.9886154169,0.2942448336,-0.8359140064,-0.0331911708,0.6802693428,-1.2432038008,-1.3650146012,-0.2501515693,-0.6972674133,-1.2075533229,-1.518444504,-1.5811094668,-2.1794818982,-1.9306707176,0.4236924712,-0.626215005,0.0095564696,-1.6266872287,-0.7781236137,0.9190210015,-0.2136127299,-2.6210241411,-2.1819544715,-0.8430511132,-2.4459089641,-0.6331738959,-1.3061054973,-1.8526687472,-0.7491879474,-0.659554631,1.0509046439,-0.8913119943,0.7516029292,-0.3061161772,-0.1438627859,-2.5256037168,-2.4922278344,0.7945280344,0.7203363858,-0.3706171192,1.789031715,-1.4539765996,-1.3398912016,0.7939046863,0.2591239355,1.7043059562,-2.3894272849,-1.300489075,-1.6881316793,-0.9202465297,-1.6542823517,-2.3351661728,-1.8318106254,1.286462872,-1.396872003,-2.2433088772,-2.053431076,0.6542787286,-2.0445595918,-0.4469103935,0.7590469436,-1.0308691087,-1.4815189447,-0.3961095039,-1.416294205,-0.017667279,1.4218531346,-2.2895124363,0.0623005618,-2.4202846904,-0.8849109269,-0.0746898901,0.9281327188,0.8518003205,-2.5543637615,0.8156720592,-0.7684905559,-0.5910081597,-1.4922130261,0.807826861,-0.1206969349,-2.0901300681,0.950832491,0.3716919317,-0.8291494241,-2.0553292398,-0.3749473958,0.4893951608,-0.0654679471,-1.0844187351,0.2922300775,-0.1811573601,0.6606004015,-0.6846731031,-2.0145728957,-1.5341462189,-1.1109323159,-0.3740685524,-1.8048633583,1.0035032074,-0.9241154502,-2.3020891983,-0.7059222004,-2.0263705019,-2.0067294641,-1.0426078202,0.2220366442,-0.6611046769,0.9752698849,-0.8632556147,-2.2564506923,0.4546063572,-0.5624391606,-1.518231619,-0.9926836508,-2.4589755949,0.3372264833,-1.0527893318,0.5479125035,-2.6224927376,-1.1440628017,-1.8444964572,-0.2672183855,-0.9899881473,0.7547331596,-2.5042353696,-1.3253293578,-1.3280671161,-2.5300232801,-0.2903964618,-1.1331925,0.5437960465,-0.2844821967,-2.304411614,-2.3308121631,-2.0337780685,-0.2744822237,-2.137031327,-2.2731095788,0.0655098278,-2.5966604844,1.2388124605,0.2188729618,-1.960892917,-1.4076991543,-0.2014112736,-1.8031671397,0.905612579,0.2789930812,0.8500336649,-0.8761029955,1.8566666242,0.6368003664,-1.2937425393,1.2446371047,-1.7363868262,-1.6956839173,0.8636355471,-0.4873421684,-2.4339173107,-2.4752981989,-0.7770097701,-0.6386442714,-1.4909432065,0.6820373139,-1.923281796,-0.4806479567,-1.2229427272,-1.1096829945,-2.1264748971,0.4286959686,-2.0575729577,-1.426088437,0.7175087022,-1.1355542781,-2.0943341486,-1.7884622592,-1.2858396084,-1.290994484,-0.3155602438,1.0414904342,1.1334122292,-0.1222616134,-0.0914264126,-0.7636690434,-0.8523172007,-0.8770132787,-0.7455852225,0.3180313351,-0.7033424511,-1.2075084207,-0.843608774,-0.6623921232,-1.3954104229,-2.0899696625,-1.9976111548,0.6911461889,0.8893153459,-2.6488869186,-1.1363934806,-0.7232671017,-0.2862506335,-1.5707297046,-0.0790252847,-0.7395617146,0.2415946669,-0.8034677101,-0.7852316331,-1.6339061763,2.5638278513,-1.1641652625,0.5139313401,1.2422856644,-0.3444583216,-2.2401450786,-1.6964288363,0.2563404504,1.4110363824,-1.1255693611,-1.8925793395,-1.3486228717,-2.4716846284,1.3050602909,-2.2413679548,-1.6781677356,-2.1478483546,-1.5216868985,-1.7115105558,-1.150808317,-1.2924311374,-1.9970311389,-0.7627318011,0.7868783773,-1.6890811927,0.9892083713,-0.286449465,2.0540095963,-0.1977322999,-0.6690241915,0.7294405341,0.1296299005,-0.0091305051,0.5406666685,-0.6845370725,-1.7724581057,-1.218229877,-0.2772324202,0.7609734307,-0.7522273317,-1.0256246562,-1.472730433,0.3425450432,0.5139476066,1.7905202938,0.658179667,-0.7006126855,-1.4843545971,-2.505785897,0.8402555797,-0.7829164476,0.7041214631,-2.3577330918,-0.7535982063,-0.2632981521,0.9615476019,1.4240373296,2.157038447,-2.2867250545,-0.7090358876,0.2821808247,-1.6850240567,0.6724530797,1.5391944937,-2.0539914403,-0.2235592678,1.1014337125,-2.4706017895,-0.8639050749,1.2090263534,-2.1615039051,0.932784578,-0.6882250324,-0.900409304,0.41578881,-1.230754363,-0.2489551695,-1.9328141366,-2.6386805276,0.8685807471,-2.1847371715,-1.7320316,-0.4474380891,-0.0997810742,-2.4415950395,-0.6423935179,-0.8084208718,0.283277503,0.0071847821,1.2878341477,0.2512436268,-0.6510650748,0.0459233985,0.7699777519,-0.0134762599,-0.9876353123,-0.4965052131,2.1659629131,-0.6903285261,0.3390552082,-0.1166069878,-0.627103986,0.2844537435,0.6998406505,1.1264984077,-0.8337021178,0.5458904015,-0.5780307163,-0.0108093507,-0.3468935319,1.585988147,-0.4293316147,0.2851533739,0.8220306317,-0.7261706132,0.4448515218,-1.2893646428,0.9078978976,1.7822354442,0.9619804734,2.2402758001,-0.3311590098,0.9748037209,0.7021032834,-0.9184112551,0.5623516429,-0.7129319915,0.7855569161,0.0321873365,1.6727609105,0.6528813904,2.2825448027,2.598008839,2.2726129102,0.9252131789,-0.8902379102,-2.1482896331,-1.136803024,-0.8519732056,0.042515081,-2.1948797946,0.8006419528,-1.2863946943,0.6519234466,-0.5469025344,2.5111827302,-0.1105815256,1.4224883436,0.215786723,2.2742749397,-0.5889833013,-0.993717036,0.2776729337,2.0264815851,0.214916336,-0.8101865982,-0.2773228647,1.1308085297,0.1018075496,1.030911548,0.7711562675,2.5041710797,0.765441272,2.033375354,-0.573274728,1.5221785946,0.0116132225,-1.9340696782,-0.8865200812,0.6432261065,1.8754445638,-1.03723738,0.7008910876,0.7840338707,0.0222006836,-1.2243281554,2.2210534931,0.6356343755,-0.6314812766,-0.7037674596,1.8400576703,0.8892525253,0.9467406724,2.4196743229,2.3173842367,-0.9423394515,-0.863925439,-0.2191211429,1.853856336,0.8208477768,-0.2051061535,1.1849346031,1.8496263944,-0.8016525147,0.2853584369,2.4985502674,-0.5868060383,1.4401801798,1.8213266591,-0.1915195806,-0.2310831959,-0.3992318096,0.316684614,0.1684372882,0.3691005339,0.3656791861,0.7903623692,1.3922828991,0.5694222747,-0.4254883127,-0.9328830194,-1.1951621638,2.604841098,1.7168612238,-1.5331867896,-0.5603121698,-1.7134637205,1.7308445646,2.3522413114,2.083495499,0.7482457088,1.5801445835,2.4577609448,-0.0674344783,-0.188423944,1.0403134776,0.5416521072,2.3622776646,-1.7710986318,1.9544184487,1.1031122787,-0.9567232613,1.911375716,-0.4962824889,-1.1536759899,2.6250130197,-1.8876479434,-0.5304376249,1.6089339837,-1.3789079533,-0.2290089013,1.3510606828,0.4536819143,-1.3088479573,-0.5523503053,1.4805949719,-0.327859393,-0.922518073,-0.8973452963,1.8046683639,0.2644272562,-1.7426959163,1.0362955656,-1.929515114,0.102903815,1.6762399828,0.4661987679,-0.6863681292,-0.4684928834,-1.3302950338,1.5134539776,-0.8362217549,0.2347541735,-2.5564739534,-0.2680776695,1.6070690986,2.3572592182,1.2296990144,-0.3215318646,0.8450873879,-0.8516613479,1.1226462045,1.5922932146,1.9707230028,0.249344279,2.5380900537,0.990545761,0.2220916199,1.3475680293,0.3776217739,-0.8906334798,2.5681177165,-1.2993576621,-0.1915480869,1.8186230292,-0.2209988608,2.2881608058,0.7611101002,-0.422841763,0.306871896,1.7413467101,0.9233506938,1.1059674491,-0.3334682383,0.0737141397,-0.7316720622,1.0878730745,2.380470552,0.8406837444,0.8752535661,-0.7366828538,-0.3938426838,-1.0015838011,-0.1635766757,1.5546636134,0.9818140972,2.539877441,0.5795328896,2.1460879727,1.3131757251,-0.6244197874,0.9151868099,-0.3675154473,-0.6798338847,2.2166781937,1.4622264708,-0.7740028838,1.1625713528,-1.35078096,-2.2712874502,-0.1263866005,1.8775267583,-0.9135849178,0.0885457632,0.6668711473,-1.4667488867,1.5295770059,1.0930209426,-1.0082064263,-0.9534625568,0.504262441,1.3697073388,2.2842755006,-0.3658704338,0.9052340415,-1.0903094511,0.6879420233,0.1235107967,2.129814074,0.6076862763,1.3791233705,-0.6481361961,2.128996591,2.3640508167,0.8330970459,0.0683235417,2.4537821276,0.9272577489,2.4040012302,0.8785823822,-0.2914945965,-0.9555612257,-0.4502084515,-0.582227125,-0.4064735451,-0.7142199832,-0.6022223207,0.4295795619,-0.3384202329,-0.9269720822,1.6564820017,1.2388056054,2.0110819185,-0.3707076191,1.6439876129,1.0578381827,2.4169092303,-1.1747691776,-0.3104224498,1.3480809486,1.2356136684,-0.4389174455,-0.8926074368,2.6216363357,-0.1254971869,-0.8785145299,-0.4215014775,-0.0950382967,1.145492607,1.9941460526,-0.4684519066,2.4539726387,-0.6898913633,-1.7566660453,0.8508513398,1.2147496285,1.0692068512,0.3799442662,-1.5268319506,2.5419720103,1.5528382789,1.1265632373,2.2446843736,-0.5063818233,1.2952435977,0.6841951255,0.7433655026,1.7161709182,0.7377433732,0.6549844537,0.8736641371,1.1068005116,1.3524023399,0.9403120763,1.6036231476,-1.0970657679,-0.2106841915,-0.8421023419,-0.0007584962,1.313163552,-0.1896848557,-0.908706642,0.3154833707,-0.881849555,2.6396209054,0.9090503396,1.7624762855,-0.0163383956,0.2437439359,-0.3873824272,1.0953014114,1.7358433807,-0.9984095488,-1.4736047259,-0.7273452299,-0.9381583935,0.3397894351,1.3761151858,0.6865947757,-1.2319104336,2.1328060343,-1.4237366615,1.2370672756,0.7844224789,-0.2494144788,-0.5438755694,-0.8772705437,-2.0349181009,1.5170819388,-0.6923349512,-0.7622041347,1.6878660422,-0.1277047579,-0.2610015654,1.3241208638,-2.3834443199,0.3465326545,2.4797521902,-0.3531405749,-0.8779665469,1.6862076217,0.6139274585,1.4765113621,1.6192064686,0.8295115262,1.3075687524,0.4649191214,1.2301753846,0.8320612444,-0.6915620046,1.3767215105,1.5818349133,-0.855315481,0.00926619,1.752566913,0.4405968882,1.392948056,0.1811429383,-0.3889151095,0.3561487923,-1.1012818289,0.7538906985,-0.7013174464,-0.1503194497,0.3429296169,2.173562215,-0.1811782388,-0.7417553615,-0.0304091574,-0.3378216575,0.6478284691,-0.9971289646,-0.9405971599,0.328139758,2.5589530888,-0.413332046,-0.3012241418,-0.1845002415,-0.750583521,0.6620498001,2.0449098978,0.4629043426,-0.9433773481,-0.9437762339,1.5628700217,0.1065538902,-0.9013219085,0.8607545611,1.8895780253,-0.7832003796,1.284064303,1.8430177295,1.2845639221,0.6784513068,-0.1593123407,0.4822405534,0.3087483877,2.3150987292,0.7010666614,1.8397613292,1.1593415284,1.0401606512,1.7245398336,1.5061514704,1.8613500937,-1.8240127737,-0.3681202914,1.0156710802,-2.0758451821,-0.4270678351,0.5191467964,1.5917884314,0.0309460653,1.3888371054,-0.3743498919,1.1953826069,-1.1674103834,2.5682402437,0.5299077604,2.4145434396,0.3545433574,-0.3608789913,-0.9410669772,1.2265767173,0.3231945029,-0.6320758147,1.6231189242,2.0067919644,-0.9151454172,0.7297002431,1.5738525178,2.1988945553,0.4191113208,2.5746121177,1.8927632485,0.7485967531,2.1581476638,-0.8410109785,-0.9334529024,-0.4224723032,1.9763079285,0.519469504,-0.9862074071,1.3051174263,0.3308641519,0.2657588785,2.4548922196,1.1235630635,0.6051083557,0.2067438079,2.601211105,2.3588356319,1.9442830747,2.6134889644,1.6083657995,-0.7658296537,0.7759471141,-1.0456769733,2.6171269426,1.4228601441,-0.2653955145,0.141922777,1.2797463602,0.7394241633,-0.9677135392,2.4707141473,0.8571207535,1.5447213533,0.8361195932,0.7389851325,0.8045039682,-0.1961834004,-0.6254469302,0.2572676803,-0.1631249188,-1.073228145,0.8946531932,2.2764250188,0.3827105604,-0.1322498947,-0.0781883783,-0.9236132601,1.8866438042,0.8089383081,0.9054860072,0.2240949798,-1.073703751,1.0006509923,1.1325316969,2.0135376731,1.9843381778,2.1747029062,2.2382967728,2.3337077809,0.7006987871,1.1579338585,2.3045076458,0.8600973122,0.6891130052,2.0982436195,-0.4258620219,-2.1250261973,1.6685103163,1.7794981647,-0.5232601186,1.5514347496,0.2727415524,-1.4966178019,1.969025711,0.7624232179,1.7661904363,2.0955517256,0.9495481075,-0.3975427426,-0.870978681,1.4955003367,-0.018635528,-0.1708338522,-0.3930156915,1.9763094452,-0.3618116934,-0.9490939634,1.0232747826,-0.2622920003,-0.0268009253,1.178017951,0.6939827831,0.1743049747,-0.3783441189,-0.3142441057,2.5595024174,-0.0725376338,-0.5773399961,-0.2626009161,-0.3280757537,1.3136717393,1.9989234031,1.0299557404,0.1993535438,2.3482471853,0.6052423201,2.4735613822,1.7235743957,1.6820738491,0.8129246018,1.0207700706,1.2514450084,-0.7207911716,1.174768811,0.2279731544,-0.384714221,2.6019803471,-1.0184231607,0.5223289251,1.8338457675,-0.7789064525,1.5186566705,0.389891156,0.6905013998,0.1962072616,0.8628370493,2.5790059676,1.02549473,0.8208199383,-0.2334924338,-0.1160626316,2.5266709828,1.2686822604,2.0381074074,1.966737933,-0.5259331915,1.1340906407,-1.0223327108,-0.4892276476,1.4665974184,1.1658537431,1.7280840373,-0.1768171163,0.9712896049,1.6434386037,-0.8659227965,1.5897746174,-0.9992204444,-0.4645224896,1.8275574495,0.9684581777,-0.4549661132,2.1443338257,-0.4352691738,-0.2386373353,-1.1990688907,1.954545534,-0.5495398673,-0.4031372247,1.1233198788,0.7554282663,2.3436450215,2.130298621,0.0798093994,-0.0922438718,2.234957249,0.8824412669,0.9499812308,-0.5379948268,1.9637221838,-0.7610310868,-0.124641898,0.4300899141,0.7727054362,2.2646490094,2.4479549016,0.7308673891,2.5161525931,1.62539127,0.3401685983,0.5557060579,1.4580000899,1.9052202066,2.1080915657,0.7044931039,0.8286951583,0.2771706304,-0.8164221489,0.0006446547,-0.3159040316,0.0009482633,1.2929831753,0.4229674881,0.2965950426,0.7327877042,0.8211928827,1.1315296094,1.4927807918,-0.9674740429,1.5716077258,0.9496170095,1.5660460214,-0.6828126412,0.4072215787,0.7973393429,1.9960767105,2.0484710562,0.3322479573,0.8115089341,-1.1599491627,0.7911530561,0.0212553867,0.9055805769,1.5744465849,1.5655299038,-0.0247031534,1.8544797211,-0.6984861099,-0.4332187153,0.0156110901,1.3933337478,2.5900899677,-0.9154365712,-0.2169634055,2.5057876241,2.2518848231,1.2380457664,1.6307444334,-1.0337803004,1.4853206498,1.3829174582,2.4494369273,0.7755135805,1.5081383861,1.0148832191,2.1732360752,1.9694823091,1.3450166233,-0.5942998701,2.1031573007,0.1591085448,-0.2718313738,-1.2625102082,-0.1080807506,2.5354447685,-1.0952289836,-0.5445308541,0.6274343721,0.3151373746,0.9645605637,2.0356856271,2.4355839844,-0.8467742448,0.6708995753,2.3863246721,1.1558551814,1.3606125935,0.7824142802,0.4547378838,-1.1199931893,0.2626020947,0.3614529292,2.047672971,2.6159744027,-0.0434445682,2.4836601203,1.1633808204,0.7494033914,1.1263613689,-0.6772154469,0.2172252728,-0.667072985,0.1201996427,1.8419917363,0.7341375158,-0.2669362278,2.1776366544,0.2924378722,-1.3644182727,2.2874083705,-0.7744172107,0.0295711647,0.9733930493,-0.3999684367,-1.1519371163,1.5124637224,-1.0147715148,2.3510537204,1.9806011572,0.6200638864,2.3154200967,1.1008145738,1.3609601171,2.2367180297,-0.7260782288,1.5800109398,1.5577365661,0.7045007164,-0.6811011012,0.7827463979,-0.2046077247,1.4952203259,-0.5969378561,0.3809201293,0.7804459456,-0.0493936038,1.9484482552,-1.3442124713,0.0305355573,-1.0660471354,1.056815954,0.598322308,0.125056327,0.2379978395,-0.2135668348,0.1190725925,0.7996196675,-0.284684291,-1.0313716173,-0.5813122499,-0.4288703717,0.4662366293,-0.8135900261,-0.5074453226,-0.0188412366,0.6066740216,0.4051840551,-1.4106482652,-0.1375459394,-0.4750199272,-0.2873107754,0.7919460393,1.0576034215,0.4627283908,0.3318378166,-0.4437502928,0.3600350099,0.7188982806,0.8154112716,-0.6623837105,-0.5438449593,-0.450491587,-0.1152817919,-1.0214957758,0.0176782961,0.2571058916,0.6963467214,0.5132356079,0.4544030918,-0.5359180378,-1.3003291501,0.3358808804,-0.966022203,-0.6559097297,0.083845834,-0.6407252799,0.5485341688,0.3789034421,-0.3565717671,-0.7902689903,-0.3986219282,-1.1894027425,0.7880126922,0.6799868399,1.0398661207,-1.8211756406,0.8852036278,0.0289555272,-0.4156165379,-2.1596386032,0.0873454758,-0.8299139917,0.6562704161,-0.9574624963,-0.5336369532,-0.7840190126,-0.8126070287,0.1756031997,-0.4658702488,-0.7081506835,-0.674124047,-0.1134706613,-0.3984051738,0.1905360475,0.4961539824,0.5724992746,-1.3896271127,0.8032233908,0.0004792244,-0.7271735137,-1.0015944554,-0.7604180343,0.7688907454,0.3658500544,-0.2442870386,0.7550703468,-0.3173748476,0.9579985165,0.8470818841,-0.3675044221,-0.6243820515,-0.0791560729,-0.3415084329,1.022991885,-0.3988149167,-0.8373777251,0.394087964,-0.7732952894,0.358563641,-0.8972189864,0.6347578109,-0.187979194,0.8488891639,-0.5186988112,-0.6055320938,0.6636915577,-1.0020147526,-0.3565141839,-0.3296225227,0.610219098,-0.0749329099,0.3654507095,-0.6812225416,-0.5741653656,-0.9398886562,-0.6811530275,-0.1922695168,0.8319888786,-0.1216705243,-0.7920524144,-2.1520349556,-0.063585211,-0.7479022152,-0.6580173024,-0.0633385282,-0.6433947793,1.0718336874,0.2034105491,0.454897637,-1.4424596052,0.8953290331,0.6770584485,0.3055271446,-1.0665761799,-0.5067015522,-0.8643486285,-1.6597129266,-0.0461191069,0.6742508825,0.869832179,0.3129995424,0.4734519681,0.3190688295,0.081842934,0.7227649475,-0.3088767906,0.2930507701,-0.4410525868,-0.2815877879,-0.0494582471,1.0330496861,0.0604859324,-1.000925389,-0.4558489068,-0.1546121968,-0.111141577,-1.950491982,1.1272117337,-0.9190199667,-0.5904951831,-0.1419631455,0.6089743715,-0.5564445537,0.1588921253,-0.7737679359,-0.6818132872,-1.0726236216,0.5001021928,-1.4290128007,0.3926209821,0.3827071905,0.2307095952,-0.4065343581,0.1577276533,0.9609776821,0.5442069063,0.2706918169,0.7330707624,-0.4113912616,1.0276217175,0.776215495,0.603025982,0.2710279445,-0.0095698463,-0.7265311351,-0.9916057732,1.0478433205,-1.4389271053,-0.9697643877,0.1466040466,-0.1833485956,0.2287015533,0.1625051049,-0.8910958821,-0.4734248384,-0.857273874,-0.4182703975,-0.2658893309,0.9254544764,-0.880640835,-0.7196188279,0.8894359108,0.1504902946,0.9010368268,1.049323512,-0.2174474605,0.7102879479,-1.4416848931,0.4147332851,-0.07109985,0.7759890399,0.4002261651,-0.4853446659,-0.820962558,0.0094023864,0.6566421129,0.9621552064,0.2346956301,0.721808209,0.0679480021,-0.7158847638,-0.6286199707,-0.1538394592,-0.9842962147,-1.0290020186,-1.5222177978,0.2072975115,0.2612067645,-1.0868252112,0.7183518893,0.4203996687,0.8373441819,0.4369288111,0.1515226322,-0.9041717487,-0.594479009,0.6963835169,-0.285188757,0.3362039637,0.7008618409,-0.2494392091,0.348446886,0.5499100361,0.8850823252,0.7668131368,-0.0391758387,0.6080088467,-0.8151358957,0.0675603372,0.0001781954,-1.0612123712,-0.7948061017,-0.7842053923,-0.0855134093,0.4111797078,-1.0609174195,0.5716765604,-0.8511671285,-0.0896861849,0.5874681819,-0.0848691906,0.1695671332,0.9510113604,0.5511996802,-0.5626462405,0.2575180132,0.6022299666,-0.2970003396,-0.1257722535,-0.6776478868,-0.5229545534,0.2533717892,0.060041967,0.0970724972,0.3816699481,-0.4035888128,1.04969696,-0.5123655406,-0.693290766,-0.8682393297,0.0505548435,-1.0944516396,0.5457828751,0.4529259595,0.4163476601,-1.3143007641,-0.3347977666,0.6431812796,-0.6313428767,0.7525345124,-0.767537527,-0.1442067107,0.7899304817,-0.0676554598,-0.2368369666,-0.1567004902,0.3830080174,0.9930693157,-0.2790857487,0.2580892247,-0.5365432199,0.3605103139,-0.0209067811,-0.0354791075,-0.2746802986,0.0674448745,0.9162456192,-0.8469252619,-0.1683444635,0.422466575,-0.2363004351,-0.9630023372,-0.8911808764,-1.4455610194,1.006680255,-0.9478653551,-0.8034087399,-0.9136282084,0.6041646,-0.5820173798,-0.1031854838,0.6586976275,0.7410814297,0.0539070367,0.9133773007,-0.2913284031,0.7264826263,-0.4589767234,-1.0446399484,-2.6005695571,0.2647560484,-0.1507484878,0.9406070338,0.8279277438,-0.5744248051,-0.7379297836,0.1920307252,-0.7488337654,-0.7521290955,-0.6877374072,0.5460980864,-0.4246094824,0.4478749544,0.8584837265,-0.7233544332,-1.445731871,0.9692665346,-1.0554219835,-0.4833658207,1.1161203656,-1.4491390726,-0.4046718395,-0.6603879768,-0.6138628615,0.3037756565,0.1992065432,-0.8376509233,0.7929223182,-0.0860193385,0.0630662448,0.1076775221,0.6487044191,-0.7462973865,-0.5932051262,-0.8308118739,1.1260741647,0.1612667879,-1.5546049903,-1.1124577115,-0.2087676858,-0.8364424835,-0.185370152,0.7598934026,0.4170072814,-0.0272705582,-1.5861336306,0.7690649421,0.3056356744,-1.0583978886,-0.7329340673,-0.1933143304,-0.1164057218,-0.124422596,-0.6480076621,-0.9550200508,0.1246025699,-0.3360488856,-1.0586406759,0.6855694323,0.6462532741,0.1128407205,-1.0204853882,-0.3701096118,-0.0702103337,0.4971468534,2.1275442462,-0.0849516843,-0.8833535546,-1.0560943577,0.6013708177,0.4987134295,-0.9493507581,2.6483871899,1.5175978335,-0.5566149306,1.1179457125,2.6348110244,-0.2792690285,0.2384965029,-1.6171254082,0.8647472959,-0.9238928634,2.2845039968,-0.9503009259,1.366020107,1.3893842893,0.1375418086,2.5611460761,1.2436457786,0.8481731326,-0.2530870092,-0.9293908763,-0.023427513,-1.3878544388,-0.3856276507,-1.1677312301,0.0438248488,-0.8718529625,2.5310091679,-0.0100290344,2.1057777291,-0.8712221576
   2.1720106178,-0.1987594614,1.6964630159,0.0418797156,-0.2729656758,-0.6644987052,0.8307791122,-0.7912419552,-0.6219678083,1.9495723042,0.7977422,0.6481512823,0.0644490361,1.9115210651,1.1921065855,-0.1080777705,2.4782385724,0.371838392,0.6502607438,0.8440679038,-1.1518804932,-0.576735899,-0.0859858414,1.29789336,-0.3625387579,-0.7912282741,1.4594656118,0.3564898247,0.3406472975,1.9087234015,1.3470311774,0.004895738,-0.8109666623,1.1938445293,2.4965314472,2.6189671931,2.5396025535,0.8309979299,-0.298542991,-0.2561542769,0.4760226368,2.6045523366,0.0710453928,-0.8307817449,-0.5255253593,1.0920385269,2.2148803039,-0.8896488197,0.9213593763,-0.6362237257,2.1876761104,1.3998718651,-0.5391455984,-0.2737574609,0.0288076713,0.4223976193,-0.3630790596,-0.716642307,-0.3117368112,2.5070451867,1.9312195049,-0.2028765609,-1.7629351284,0.4472446885,-0.9785069968,2.4746845784,0.7172515946,-1.3578767352,-0.5757436531,-0.5183844061,-0.3802560469,1.150883744,0.6775800072,2.4993146416,1.1202264598,1.1915031818,1.0670227544,0.6208932436,1.2224784055,2.4961807228,1.2661944766,-0.2439574094,1.9249410793,0.5716441323,-1.4452719847,2.602646159,1.299102233,-0.6911102526,1.5255571874,0.0579876123,-0.4482129499,1.0503602296,0.4019813554,1.1400826497,2.3877666389,-1.081931127,-0.4561018903,-0.5589466942,1.0599977732,0.0594112766,-0.9455432631,-1.0349276348,1.487446418,-0.9011490899,-0.3547027048,1.1875324151,-0.1397364425,0.4362734805,-0.2909790641,2.3415683815,-0.5148117996,-1.0292186406,0.356824579,0.9893679845,-0.8501163222,0.133121501,0.1632461551,-0.1103292513,0.7492716086,0.6751335797,1.1484314965,-0.6305944009,0.7231367044,0.3661183824,0.8531492658,1.8241334799,-0.1360988017,1.1369870981,2.1962041794,1.7321267151,0.7236425469,0.8678277867,-0.1444136189,-1.2088184376,-0.0760875316,-1.2660576101,0.5844521281,0.857093531,0.7491652076,1.6730388704,-0.7763292545,0.4768758148,0.8618776528,1.6444983695,2.1378406161,0.9464183011,0.5360837899,-0.6754455786,-1.195035265,1.5147299874,1.4703055193,1.4204313926,2.2145357153,0.1735330084,2.3673842275,-0.9324480592,-0.5553797637,1.8610842798,1.8202144673,1.9794934378,-0.0248113937,2.3384047384,1.2228448127,0.7693534438,0.9882292323,0.2966409237,0.950436739,1.8183479108,1.2358898334,-0.1551753116,2.0977524146,-0.4465639842,0.0833162622,-2.5915107498,1.4139178308,0.1308292676,-0.0713600399,-0.1250651362,0.2655652393,-0.0628603227,0.6775863146,-0.2398093036,0.8708119342,1.3269374228,1.3988922222,1.2520557801,-0.6159192289,1.7574370811,-1.4040052488,0.0514275052,0.1401434566,2.3567242469,0.0044259041,-0.0440055157,-0.8188597938,1.3458749851,2.2375272572,-0.7529535156,0.9238372222,0.9650984304,0.2135439392,2.1680740887,2.1431290918,-0.5481302927,-0.5035653925,0.3124399929,-1.281786767,0.0999280068,0.150606265,1.0514059321,-0.3140892314,-0.6902685073,0.7572847234,0.4262938892,1.7484057948,0.8158612216,-0.8091344522,2.4909688464,1.9638680088,0.20181872,-0.932510964,-0.3114224094,0.8052640519,1.2820083067,1.4346886991,-0.5181687949,2.3714233086,-0.5767861492,-0.126527138,0.4584447101,1.2659975989,0.901620899,2.5202170305,-1.3452588345,1.0338694973,0.2006730418,-0.9578629966,0.0540606317,1.5616178183,1.8154469997,-0.462359516,-0.2991065957,1.4600221457,1.0971917397,1.8833036816,1.7246084279,-1.4459401426,0.9297982925,0.6696145423,0.7583549571,2.152034165,1.8829731823,1.1439169651,2.0165387555,0.5487580996,0.8139520132,-0.6278359998,2.0048278332,-1.4640778889,-1.0247857121,-1.9832895933,-1.359748536,0.2123274541,-0.5535481876,-0.419384366,0.3228170847,0.0034332501,1.6361003342,1.5123952303,0.036881892,0.5374045648,0.5751623118,2.1765659121,1.5310562013,0.5053264053,0.5117240929,0.3068326097,-0.7841363439,0.6224027291,-0.9585933009,2.6004115492,0.7858386274,0.7493337004,1.4773819642,0.9935026104,1.1057279182,2.0225619198,-0.3138865753,0.4886861141,0.0799466673,-1.6396777755,-0.1639102749,0.0711007097,-1.9854241713,1.850081079,-0.1647850485,-1.4337569862,-0.4259105261,-1.4095356786,-1.4710736793,2.5201796985,0.4241672368,-0.1642763273,1.2003689463,-0.1732483887,-0.1702776959,2.3178774201,-0.4518721954,0.6359997418,-0.914821766,2.4894382721,1.1360138635,-0.9380627038,1.9730298564,1.3992963534,-0.9546217416,-1.1869673342,1.9703268967,-0.6538185796,1.8393793407,0.4540574855,1.4541578708,0.5612518838,-1.3250661924,2.0353865057,0.622764305,-1.089702684,-0.2138467911,0.7249059029,-0.3742773503,-0.0756358356,0.1997244451,0.4974763766,-0.6009004456,-0.707123396,-0.1302271509,-1.2195778212,1.2665821024,-0.8551557059,-0.895751001,-0.7517799143,-0.3233005595,-0.0751429631,0.240691081,0.4263915186,-1.4326092165,-0.2756425052,0.7874898586,0.4744493893,-1.3369238637,-0.2227884913,1.2816594764,-0.1835597632,1.1925396577,1.4399507093,0.2729972817,1.2074087155,0.790703418,0.4530708574,-1.2425441955,-0.4777753862,-0.1680897993,1.0853357054,-0.2740719984,1.3216986344,0.1908394799,0.0954557865,0.555756531,-1.2896869026,-0.9409880381,-0.075661406,-1.4419763177,-1.1643516229,0.5246410856,1.0986617626,-0.0619332654,1.0215626105,-1.0038268267,0.2496665872,-0.7905259047,0.4699521269,-1.2106052298,0.259943908,-1.9550121203,-0.7376570405,0.1041989319,0.3091980589,-1.1633352397,0.0714996267,0.609586436,-0.5368225031,-1.3985869582,0.9426083702,0.4456418505,0.1199901534,0.3086027739,-0.0435812935,0.7386473707,1.0042296807,0.9646242334,-0.6356893846,-0.6389129612,0.813101252,0.8156396991,0.7759307526,-0.4011383985,-0.1134171398,-0.608197128,1.3552199942,-0.034913471,-0.2312446219,0.823629415,-0.3024179174,0.6685549724,0.2197216524,0.6759729707,-0.6085163161,0.845719147,0.6299777187,-2.5449915382,-0.2182288172,1.3892487512,1.4748757507,0.2856579694,-0.6182899951,0.4510971922,-0.5588155381,-0.3440476954,0.1667553781,-0.2623536076,0.868502034,1.0745584223,0.1542889985,0.7814404965,-1.6433451417,-1.0490376214,-1.3056113035,-0.3160307847,0.1744679949,1.4143117088,1.0922377942,-0.8726410756,-2.4403574695,-0.6424926079,-0.9662557637,1.3318098993,-0.4087363537,0.4071376937,-1.6941602736,-0.1997134253,0.5104148466,0.4651556635,0.8111179015,-0.298927458,1.0528219322,1.2808943267,1.0835240406,0.2015023873,0.9567164952,0.2516583428,0.5933173629,-0.0133004587,-0.314258219,-1.1332521272,-2.4186983758,0.2725948868,0.2144352585,-0.7655557205,-0.3740724975,0.6680804151,-0.5028506138,1.0499848363,-0.5105730474,-0.0897224278,0.1477343471,-0.7334167995,-0.9164541743,-0.9566807211,1.1942592338,-0.1979555257,-1.358715556,-1.4817863648,1.3033629432,-1.4994460436,-1.2137052772,1.0010949509,0.1519579829,-1.0265422607,0.7562393249,0.7851453417,-0.7821614975,-0.3819833001,-2.6345578978,0.6225992405,0.4370184607,-0.2618167381,-2.5548746057,-0.2621888368,0.6375678521,0.4197697638,-0.0365973167,-1.6125102666,-0.4363577287,0.7316948526,-0.0918406951,0.2593597798,1.1096768345,-0.5660215907,-0.2956708523,0.6760965489,0.700622706,0.2967241755,-1.028426909,-1.7373259005,0.5941064259,0.0963723773,-0.6465676694,1.0854973888,-0.4316250127,0.1734892009,-0.1369938687,-0.0792921482,1.2858963169,-0.1381904533,1.0000839754,0.7711004451,0.622784792,-0.7643891071,-0.0743143486,0.017034059,0.1425755822,-0.5656344163,1.147191984,0.2737648836,-0.0803738305,-0.3388583133,-0.1786512305,0.1147344524,0.6924312256,0.1561226643,-0.2208619765,0.1983929713,1.0594877169,-0.1023205181,0.2409032892,0.2078817905,-0.4497210619,0.0444713332,0.7956493142,0.8300515525,0.5205758858,-1.2397508429,-1.0129931203,-2.2096322895,-0.278556136,-1.2594226317,-0.0209884772,0.6341461354,0.3582042945,-0.2821394768,1.3165085669,-0.5221677573,0.3951082384,0.2299483239,-0.3353911348,-0.1842019802,0.2793033539,1.4069581295,-0.0801696753,0.5318652679,-0.7348217292,-0.0089420178,-0.1294079851,0.1846740706,-0.1251972379,0.8650230075,0.2392049573,-0.5654686994,-0.8828808182,1.417250057,-0.1123466462,1.0070006053,0.5899169956,-0.7708278643,0.6669235596,-2.1701630667,-0.0340494279,0.6578486094,-0.4564279848,-0.5975503177,-0.7139645834,-1.1071268373,0.556845429,1.1904307838,1.1652213039,0.2850453887,0.6276794032,1.1779657789,-0.6248404412,0.4584355738,-0.6715890621,0.3174284329,-0.630484108,1.0119474953,-0.0172929013,-0.7377400089,1.1783688895,-1.279470784,-0.7003812722,-0.6800706059,-0.5828007337,0.5342482813,-0.430555729,-1.2391156796,0.9805426968,-0.9291406782,-1.1846434126,-0.4436241803,-0.5671426219,1.0805230203,0.1659058749,0.0615843676,1.063570781,-0.3540871283,1.0105704794,0.6532764596,-1.5262194573,0.2520371051,0.9200227598,0.5591357841,-0.3417606128,0.1861243416,1.3509384221,1.0190523263,1.2038246653,0.67823583,0.7364689746,0.088723183,-2.5375070871,-0.0043948021,-1.5655831483,-1.7922923871,-0.0181121507,-0.3065803909,-0.3919920601,0.3646549392,-0.7120093317,0.1025306827,0.3091512222,0.3720533482,-0.6940014714,0.1378634273,1.3110816821,0.6341565892,1.2148570992,0.4041647852,-1.2709093347,-1.4619068602,0.3496764185,-0.4071670479,-0.4043805699,0.4986200401,-1.1030104567,-0.3425480057,0.2518335239,1.0090475814,0.2225412725,-0.2132591925,-0.5472472997,-0.9999689533,0.7963758091,-0.222142602,-0.9086166099,-1.1596217794,1.0487892816,-0.9090602287,-0.9621081295,0.2518451645,-1.0858440576,-1.2158648063,0.4620008815,0.5741042722,-0.0264137247,1.0279537065,-0.4923159309,-0.4808939269,0.3120748007,-0.91523232,0.5283062439,0.7024093587,-0.4437764153,0.0386648377,-1.4874335902,1.1324068367,0.0600747333,-0.2257006154,0.0266342988,-0.4699069467,-1.5924300126,1.1030924875,0.1009904328,-0.8373440822,0.214992311,-0.742003813,0.3544263978,-1.3373148215,0.1489512739,-0.8489238147,1.3754050219,0.5956619897,-0.3726880942,0.7501549963,0.7972538292,-0.670218342,0.4258455802,-0.9885181857,0.3926157779,0.0837782261,-0.1565654012,1.3295205104,-0.5920160261,0.340474906,0.5659412447,-1.3853719441,0.6949525773,0.5669148328,0.4242156572,-0.6145539856,0.1340926085,1.0566186738,-0.9745543994,0.2924416293,-0.8784592401,-0.2751705502,0.2206483342,-0.465051902,0.1384041724,0.3565889701,1.0141588461,0.2039747276,-1.1510020269,-0.8300574191,-0.3431696089,-0.26377499,0.2270925233,-0.5684850858,-0.9643585965,-0.9739401082,1.0491067826,-0.4489651889,-0.6605064899,1.5856977715,1.1416505522,1.2655030105,-1.1234407125,-0.0583753438,-0.8861162773,-0.7821095823,-1.0903018328,0.0687237915,0.2983009223,0.9989086635,-0.4376896304,0.9353177122,0.8192133554,-0.4748165254,-1.119516932,-0.3855807894,-0.3992320755,-0.8776591363,-1.1470063901,-0.2593865554,-0.4140915163,0.1416433168,-0.6037792196,-0.4872895974,-0.9809107639,-1.0392611577,-1.3296734631,0.4380631275,-0.3356731895,-0.4170816111,0.964023086,0.4013998768,0.8925565378,0.4735580252,-0.4460105467,0.0011144949,-0.011801147,-0.9878204286,0.1163499571,0.484681515,0.4335557462,-0.8375000644,0.4432580534,0.0901848295,-0.4667982804,-1.1549951588,0.925719133,1.022164499,-0.6136318484,-0.6128877873,-1.4564685427,-0.3959854571,0.4420846235,-1.6590237226,-0.5455748468,0.5312787275,-0.5565853501,0.2843641811,-1.2492255417,-0.3119083656,0.5808360516,-0.5087000022,0.0695570894,-0.2066534059,0.7124762141,0.2950025567,0.0645714916,-0.9764721017,0.8512715636,-0.7350839342,0.9228793034,0.9412953899,-0.7668098442,-0.7593025191,-0.9874691112,-0.3689015915,-0.4763334376,-0.4882167506,-0.9300404781,-0.0009771323,-0.1061504574,-0.5969018678,-0.6983644991,0.0337805214,-1.0236431554,0.8810394944,-0.8768142375,-0.440052249,-0.9209474724,0.2200973626,-1.006937101,0.4227540685,2.280679501,-0.4826382176,-0.1242764348,-0.4773486498,-0.856729689,-0.1564671527,-0.7261064886,0.2907492514,-0.3580376339,0.0044350329,-0.5212017699,1.0215012667,-0.2913995246,0.9463995926,-1.7431485323,0.9025816761,0.7062303623,-0.4487767048,-0.2379300184,0.0992936081,0.1203912706,-0.2488313304,-0.912076193,-0.4396275137,-1.5331502695,0.7606057414,-0.8037451056,-0.229885832,-0.2514954344,0.1428125229,1.1024201787,-0.841394348,-0.3354819365,0.1403540715,-1.4427295319,-0.7972277911,-1.3911870737,0.104610959,-1.4886067608,-0.3899961914,-0.8781290845,-0.2056335786,-0.35706118,0.385551563,-1.1274067123,-0.0885806978,-0.3993148171,-1.1492984431,-0.8021853038,0.2059400095,-0.9204136726,0.2215842473,0.8288496965,-0.9931232567,0.2697730468,-0.7003896644,1.0072776916,-1.0007078286,-0.8811418628,0.2454012445,-1.3979831626,-0.0581960224,0.8789479533,0.7482310295,0.5938757047,-1.4663527566,-0.6332863547,0.1421232486,-1.1549991535,-0.9910714586,-0.0888135977,1.2384838019,-0.3659033931,-1.3594178397,-0.9283456031,-1.4681752074,0.1120314934,-0.1608014566,-1.1020863686,0.0611141577,-1.3958122427,1.6225821098,0.4345956366,-0.693318549,-1.2732478002,-0.3969147769,-1.371117418,0.1124895048,0.3186257824,1.6563954718,0.2456553898,0.9242253659,0.8940365319,-0.9318871846,-0.3024579752,-0.186943656,0.1879807589,0.3322286458,-0.1354486387,-1.4198506715,-0.8687697615,-1.5984374004,-0.5734570448,-1.0270852151,1.6404248196,-0.5067432836,0.0126061422,0.0785678131,-1.317401381,0.4537041019,-0.4999637233,-0.2184889584,-0.043858347,0.7867257796,0.3165891595,-1.4255682671,-0.1830863059,-0.0129362317,-0.3909589305,0.4403149581,0.7869217247,0.9769266417,1.551336357,-0.0375821542,-0.4594622342,-0.5677501628,0.3587959045,-0.5510238346,0.1751061872,-0.2895334892,-0.3577295328,-1.2763787807,-0.3661227548,-0.7733707498,0.2981407183,-0.1186436112,-0.2818787468,-0.0826839759,0.283213634,-0.7837463005,-0.6912203993,0.8965537442,-0.1496128456,0.7754764963,-0.5642160119,0.0612444391,-0.965754712,0.5966847644,-0.7123993249,-0.3247823161,0.1452029751,-0.8304374642,0.2434705705,0.5954715676,-1.5193830258,-0.8482378861,-0.2611211885,0.1127891727,-1.4767356781,-1.0639087585,-0.2688231068,-0.6124919828,0.1698429118,-0.3396241518,0.4852770671,-0.2163609281,-0.8420055897,-0.074253039,-1.0390204682,-0.1597754881,-0.4555884738,-0.0679542197,0.0142654355,-0.9551676862,0.157006524,0.2548840107,0.8290451054,0.6854017485,0.1546653475,0.0697879523,-0.2147760762,-0.6582081206,0.1940765147,0.0542900646,-0.4780122439,-1.212515018,0.8015601753,0.4923673457,-0.5115026513,-0.4354844033,-0.8779502837,-0.1237552915,-0.8463936842,2.2585935549,0.6551281064,0.8072313681,0.3904637069,-0.0078503754,-0.243022386,-0.5845720685,-0.5126737027,-0.2074342369,-1.291421792,0.2519650676,-0.9625556699,0.4566394164,-0.8862696387,-1.4779815614,-0.3851154681,-0.4590971375,-0.2746899746,0.3888219959,1.1461095964,-1.0031810413,-0.919421637,1.1583586491,-0.97838385,0.7713771813,0.1585267566,-1.0792748461,-0.8844472384,-0.8898851059,-0.9126743116,1.0454396804,-0.0475714855,-0.0879517238,-1.3431956286,0.4298475381,-0.0857606791,-0.8433310675,-0.8687997906,-0.7368906187,0.0594008122,0.1079603737,0.3368040157,-0.7033965572,-0.3752682648,-0.6529746441,-0.9066432064,-0.4373386217,-1.2998294986,-0.3981874534,0.4270009362,0.2548833405,0.1643154912,0.1486498413,0.6828167905,-0.6895029861,-0.8369930302,0.8294746152,1.2187135211,-0.3217187145,0.6634229333,-1.8303649276,-1.4308317024,1.0100931617,-0.6738369826,-1.0266818751,-0.7489785695,-1.8844786692,-0.2275353333,2.0644453607,0.7038760535,-0.9945816373,-0.2121009146,0.1576462422,-1.1646443726,-1.7538614741,0.7979263046,-2.4690597077,-1.4615910817,-1.1888142936,-1.6805757494,-0.4032564874,-0.2669794646,0.6042540862,-2.4617504803,-1.7121648999,-0.6999437309,-2.1842811252,-2.061961952,-2.0980117255,0.2733071585,-2.0054552217,1.4075415909,-0.5000685668,0.0768792437,1.6598183027,-0.0091900036,-0.7017114591,-0.4151581276,0.8391670589,-2.2706858251,-0.3151269412,-0.7224007835,-0.0869686534,-2.1023937083,0.9410450633,-0.3305677985,1.3341331435,-0.226436959,0.7450116792,0.3953321442,0.6745487662,-0.918248175,-1.4813395372,-0.9599671923,-0.3474050609,-0.9583067778,-1.7929055789,-1.3685905355,-0.5433306046,-2.390578174,-0.7376105731,-2.2176209066,-1.409699551,0.5386592258,-0.6977774451,1.0356309649,0.4406660971,0.1000481076,-0.8149419792,-2.5649577482,0.1327006367,-1.8633377201,-1.9866335708,-1.8858984536,0.5811642571,0.1316667668,-0.9333607895,-1.6559501666,-2.1262113916,-1.1613402446,-2.1957295833,-0.2626649379,1.9681352744,0.101371287,-0.8441428916,-1.3774472984,-0.8891469012,-0.4869647857,-2.3606706931,-1.534490826,-0.505866994,0.2439616661,0.2330298543,-0.812834274,-1.467148916,-0.3772120513,-0.523248175,1.0968957428,0.3652323855,-0.2283765284,-0.9034889048,-0.3529338514,-1.0980179702,-2.2448222633,-0.4031468147,0.6499661945,0.2001703177,-1.5068773325,-1.0929310159,-2.4963442265,-0.8165057871,1.9341879778,-0.3775751793,-1.7737839706,-1.2291772652,-1.3968869898,-2.1139624301,-0.9441040454,-1.9455419325,-2.1024920352,2.2939236502,-0.830490223,-0.858168098,-1.48842278,0.349862266,-1.0184302545,0.3900942679,1.7444429062,-1.3089912429,-2.3847236701,1.3291285916,-1.821115067,-0.1720341824,0.9543402395,-0.6964602714,0.5049942809,-1.9341950737,-0.9340718868,0.5401890849,-1.525871434,0.21537934,-0.9755191085,0.8286648913,-0.7128435475,-0.0278156174,-2.4503700556,1.492268914,1.4303050733,-2.2827357627,-0.4596998148,0.6340155449,-1.9486775258,-0.9930791728,0.4867235797,0.0634385737,2.558514582,-2.3204146211,1.1376959421,-2.3299667544,1.4656629309,-0.2688125494,-0.4256199567,-1.6520700918,-0.4445780582,-0.7827142548,-2.6223568259,-0.6324838993,-0.6560030101,-1.1765635215,-1.9952799288,-1.0350268793,-0.8653250684,-0.7302528011,-0.7668657536,-2.1814847545,-0.1326713777,-0.333417914,-1.5121401198,1.5144405933,-0.8661015469,-0.7173663391,0.5007052968,-2.0013037928,-0.2625439236,-0.0279918642,-0.3908840583,-2.4169657428,-1.3634649914,0.3401688549,-0.018566138,0.5014823722,-0.0084843245,-2.2990221216,-0.4495341488,-1.165625121,-2.3746389813,1.5979508605,-1.3073898846,-0.5478886531,0.9242005633,-2.5578160087,-2.2929579973,-0.173472058,-0.8682593011,-1.5493799712,-2.4783446087,-0.1879998286,-1.5355162523,0.0314773607,-0.5868670392,-0.330461369,-0.8639649895,0.0884970609,-2.2366446382,-1.2751635456,0.0953261178,1.5422225211,-1.8772069394,0.2092981798,1.3453396095,-1.7308968472,-1.0612393121,-0.4967832846,-2.214932016,-0.5155115374,-0.865237899,-2.2861595176,-1.2374564726,-1.3997480121,1.0361646242,-1.1918008411,0.5873139427,0.0574154201,-0.1270322068,-1.7793249976,-1.3949100953,-2.174703407,0.5966026598,0.2610462269,-0.7861375801,0.7371342717,0.126796257,0.0433053104,-2.6454281698,-2.3635219598,-2.1636233412,-1.0361180359,0.4885113184,1.172918046,-0.1127435857,0.5700640323,0.3060885034,-0.9454582135,0.7244983601,0.2753853905,-1.7315912007,-0.1883368314,-0.0955717722,0.23091286,-0.6309682094,-2.2220469598,0.2121574663,-2.3231924628,-0.4057589551,1.4832491311,-1.3765030432,-1.6134267502,-1.0181293532,0.8224225956,-1.2787887699,0.7633103321,-0.7451304489,-0.2892180109,-0.8275913214,-0.9665008496,-0.809269666,2.6486346957,-1.1136595034,0.6967767486,-1.0590041282,0.4980690759,-0.9575482933,-1.1537591811,0.1325132537,-0.5488922273,-1.3271564859,-1.9758679777,-1.889653786,-0.906156689,0.0045866799,-2.3145147417,-1.2501530013,-0.6644203928,-0.9158725327,-1.4408032609,-0.7664622284,-0.7145250514,-1.8119272059,-2.1541316181,-1.0083850686,-0.260561119,1.7174233106,0.7612971244,0.5127888238,2.2749637972,-0.7083250596,0.9525233637,-0.2125167175,-0.2576521087,-0.5502007577,-2.2467288873,-1.8731128143,-0.2438580414,0.3273099709,-0.1063629587,-1.9967812172,0.2727377591,-1.3949706438,0.0362868977,1.2716446453,2.4228946754,0.0777783682,1.4892518765,-2.5749761937,-1.9767396207,1.0722335335,-1.8929303221,-0.8201187217,-0.2515309639,-0.0775629411,1.340629987,-1.0354737406,-0.4724893298,-1.342712767,-2.2837144955,-0.6492843678,-0.1407629508,-1.3665816417,0.485782004,0.4785735874,-1.2713111441,0.488960636,-0.8037786277,-1.4715903982,0.9570412521,1.2346752015,-2.4732903975,0.8503795076,-2.6075674086,-1.1105200684,1.1218928472,-0.9409123146,-0.8014183417,-2.0226727178,-2.0013100836,-0.0638716016,-2.4261713199,-2.0662283778,1.2776598904,2.0757256979,-1.8071066869,-0.8847017828,-2.2534003807,-0.3550667272,-0.7562014603,0.6981728857,0.7485555799,-2.5513840321,0.6010024213,0.1857830896,1.0268384951,-1.1892759016,-0.8342109483,-0.4372890712,-0.034184442,-0.5335836138,-0.9196588711,0.960649406,-0.6900316489,0.6177634818,0.5937674572,-1.3728166984,-0.0201157187,-0.8927555232,0.9130394244,-0.8732304648,1.2823470019,-0.699707501,0.6190328545,-0.4572282703,1.2132062671,0.4563553013,-0.3952792657,1.3564969767,-0.4459736454,-0.2194132904,-0.6765777581,0.4752550796,0.6313855096,1.3392010268,-1.1081529939,-0.9104815524,0.0247689926,1.2340139966,-1.3120383833,0.9937646009,1.4841356445,-0.1712205355,-0.461842445,0.7802280939,1.4609191688,-0.5201189755,-2.5397398545,-0.0374144161,-0.2933582145,0.716919918,-2.2995735512,1.0578969815,-0.4962043546,0.65348089,-0.7234976233,-0.0436354905,-0.2376519336,-0.9186523237,-0.8651037604,1.0358360565,1.110139065,-0.397416386,-0.5412970557,0.0781580882,0.6637337814,0.830759826,0.0527298628,0.8395271977,-0.7399273622,-0.2238686673,0.3033723647,0.09177848,0.8099729448,-0.2404824412,0.7375407374,0.6171673257,-0.141392697,-0.7831738779,-0.6704544759,-0.0474994203,1.8765778723,-1.2078071118,-0.5225311751,0.1351430407,0.4980812702,-1.4053310325,1.1030071782,0.2834273191,-0.4283783822,-0.232346487,-0.5964875483,0.2519443133,0.0820079798,-0.4742953751,1.1599860895,0.1456781537,0.4809412113,-0.4638246329,-0.3570430181,-0.1941719633,0.5725407334,0.7875228087,-0.3769651142,1.2477288255,0.9510275516,0.6342936676,-0.5406358387,0.552605724,1.0518365851,0.3658616766,-0.6813387707,-0.7661603732,-0.6058095884,-0.7420517123,-0.066300041,-0.3850871449,0.2247087501,1.472046491,0.998716658,0.1488764988,-1.1681917219,-1.3448092173,1.0810496305,1.8468111441,0.4687922786,-0.5377358717,0.4464631972,0.9906602553,0.0575465866,1.0582266795,1.2798511402,0.2039338213,0.67762324,0.2757119792,-0.3433277294,0.4248548079,1.5280225695,-0.2702151819,-0.769893203,-0.2298130904,1.1501663719,0.3661208623,1.3616567617,1.3446060874,-0.4770978151,1.5629323087,-0.8804396499,-1.2158527002,1.3699304805,-0.7624571442,-0.1302039287,0.789896811,-0.4723274064,-0.0726034588,0.7692875412,0.0578645018,-0.001491394,-0.3587421248,-0.5988591813,1.0753216143,-0.7876445466,1.0810849669,1.5553651254,-0.8684726655,-0.3492528501,1.4088549682,0.9603664241,-0.403406107,-0.8137309518,-0.749154875,1.3471429687,0.3841900187,0.0043032466,1.1674575798,-0.6175833706,1.4013486753,0.439460557,0.5810565105,-0.5694487483,1.4008795848,-0.3981839204,1.0730870233,1.299411748,0.488390457,0.4420177869,1.1299473395,1.7104575586,-0.5633869463,0.0128700513,0.7996390528,0.5836692211,-0.0388536831,0.6821985268,0.1199964101,0.9061819301,-0.5785376551,0.3963586384,0.6977514335,0.5368516205,-0.3238065342,-0.1277130119,1.1973467967,1.9347794036,-0.8079365958,0.2282732801,-1.1907471096,1.4475392775,1.335566242,0.7564831707,-0.5295800104,0.556705273,0.2492067925,-0.1567251665,-0.8714544275,1.1211489392,0.5352695363,-0.0033569293,0.4264199664,0.7963009864,0.9937241877,0.8286310637,0.8338496813,-0.7218842027,-0.5728632987,0.387793621,0.1115965237,-0.2557804817,-0.4198545261,0.3117452383,0.4783288834,-0.2747803937,1.0939086962,0.3076096988,-0.1129410936,1.125410524,-1.3172761066,1.0088258761,0.9001130359,-1.336633288,-0.1784735745,-0.2197905015,1.2261555562,1.3028009734,-0.6872202613,1.9649532409,0.7110442725,-0.3209781626,-0.3379857383,-0.3535721561,0.4021043145,1.4918126628,1.1949306946,1.4494949677,0.3918943491,0.8426849463,0.5862327968,1.53344551,0.1629115432,0.5222610313,0.3935418562,0.0390984417,-0.3662126741,0.8140075571,0.3449300764,-0.2964346271,-0.3511203081,0.058301116,-0.0762805847,1.0781538421,-0.0171298304,0.1335486148,1.3322807346,1.1181248556,-0.5420056026,0.324876449,0.8743604055,1.0906059312,-1.3927634568,0.7923937833,-0.0064440714,1.9459659841,0.0920939609,-0.1692767207,0.8173297099,-0.6276177375,-0.6918677317,0.098392697,-0.0195550304,1.2142556459,-0.3907319748,-0.683743913,0.2108370962,-0.140195825,-2.2286992859,0.9760256432,0.0771124585,0.4399840446,-0.4729784489,-2.1794642185,-0.2027231804,0.0687107983,0.5620139649,0.8847391129,0.6786975178,-0.1263923049,0.2348694837,1.4609155113,0.6669344784,-0.2044560588,0.2312054986,-0.186189393,1.4165108642,0.5073954473,-0.8289532195,-0.3386145924,-0.6002808346,0.6963768217,0.746382193,0.7819684961,1.5372050592,0.7952309083,0.1137171975,0.1925089668,-0.2668275151,0.9091209318,0.8539207717,1.1953026956,0.280262195,-0.6019735384,0.8544329904,-0.7359159056,1.5758331839,0.381071772,0.1810308139,0.5120073164,-0.3100613144,0.1556268898,1.58561834,-0.5748415919,0.6963894028,0.8220500921,-0.296964212,0.2307860004,0.8707988439,0.0583145194,-0.4666197283,-1.2391799339,-1.2329400522,1.2239873553,0.1854240746,-1.13702787,1.015037899,-0.4986987792,0.5286119518,0.3801084299,-0.4894814569,0.3982453799,1.5014832795,0.7890749492,0.4126584964,0.4054129524,0.0641145294,-0.1639041447,1.2477106254,-0.4364636429,1.797344351,-0.7100504907,0.2230197088,0.8559955968,-0.4413555961,1.0049163625,0.1232363677,0.3328035802,0.4672640508,0.1446104826,0.4460906746,-0.0517456159,0.978924799,0.6521965011,0.4805574653,0.3442142405,0.2563340658,0.399675653,0.2547536792,-0.892539761,0.0129465483,0.6478311046,-1.2824315911,0.6318319012,0.503032968,-0.3638092053,-0.2201679908,-0.8644533858,-0.1962498546,0.2345508319,-0.1563982664,0.8567396107,-0.3798781623,-0.0069119301,0.3404876315,0.7108675241,0.1462707956,-0.4090205496,-0.6714537907,-0.2279194351,0.8623819422,-0.5712224066,0.5844512644,-0.0026826447,0.0002867799,0.1764925144,1.1071615601,-0.0574702665,-0.5824685187,-1.9373704667,0.1462743589,0.0622764463,0.6386668929,-0.0256130702,-0.684997509,1.0095619448,-0.8139119821,-0.5732726738,1.158151663,0.6022390042,-0.3191282923,-2.3901704229,-0.242031417,0.1279359904,0.3509042655,-1.8811450053,-0.4287383234,-0.1400145276,-0.1438532942,-1.0394357456,1.0750199572,0.709477505,0.6637459437,0.5665167858,0.9004899109,1.2071067487,-0.4785554253,-0.3724961213,0.4738959792,0.9368412902,0.6522958104,-0.3196734489,0.770372175,-1.1159328828,0.8990792741,0.4349920742,0.9192879747,-0.9892126607,-0.2222200962,-0.2507420846,1.0863841639,-0.7970372067,-1.1143649154,-0.0247544854,0.1200221402,-0.8285243885,-0.99060393,-0.6234097116,-0.7571826107,-0.6635569704,0.3349394145,-0.2168375145,0.6869873431,0.3724064294,-0.3252342623,-0.8497700447,0.6276469593,0.7340554668,0.4493064675,0.4867432796,-0.4857900631,0.2036050129,0.1874523149,0.7008007836,0.1878317974,0.8843031598,0.9394719229,0.2431847279,-0.272918332,0.8225744957,0.5162329268,0.1536694093,-0.7819259944,0.1156090767,0.9728977962,0.4903833508,0.1180883304,-0.1688872953,0.893209575,-0.043339259,-0.3542843332,-0.5590258391,-0.1897225312,0.1655582065,-0.2703560752,-2.1221008112,-2.2263995037,1.1828595348,0.5063036019,-0.7985403414,0.7572667178,0.075320083,0.6193191408,0.1120624077,0.890860134,0.3038727513,0.148193489,0.8015971963,-0.1464817631,-0.3403059175,-0.3290438538,0.195918709,0.9071272723,0.0825981724,-0.1133000851,0.8655421227,1.020018518,1.0743637269,0.9286346059,0.3543424567,1.3459239119,-1.2618875049,-1.0024692797,-0.6631357858,-1.1125688724,-0.3339624959,-0.0591988565,0.6982958841,-0.1768325904,0.0240439324,-0.5453179343,0.6697896745,0.7064029536,0.9365535185,-0.2815917064,-0.7440089358,0.9979750865,0.8022969442,0.3883527363,0.2539736805,-0.7234364362,-0.3264287502,-0.0173676892,0.048140299,0.0165803268,-0.5303515749,-0.9034023058,-0.9642271,-0.0822739043,-0.0613676813,1.5019154951,0.3090747027,1.2863723801,0.6601471588,0.7246290858,-0.9593759652,1.3953904204,-0.2055262459,-0.7889714389,1.5153382212,1.0439015466,0.0022552904,-0.6910519392,0.2667626504,0.4044723523,-0.3799314559,1.0641713567,0.3681426739,-0.2253905902,0.1119110387,0.2548322033,-0.6138517643,-0.3969761595,0.5586017546,-0.9456181205,1.3576613381,0.2800591318,-0.4680932155,0.9884158144,0.3244438537
