encog,BasicNetwork,java,3.3.0,1,1576422386968
[BASIC]
[BASIC:PARAMS]
[BASIC:NETWORK]
beginTraining=0
connectionLimit=0
contextTargetOffset=0,0,0,0
contextTargetSize=0,0,0,0
endTraining=3
hasContext=f
inputCount=379
layerCounts=2,16,64,380
layerFeedCounts=2,15,63,379
layerContextCount=0,0,0,0
layerIndex=0,2,18,82
output=0,0,0,0,0,0,0,0,0,0,0,0,0,0,0,0,0,1,0,0,0,0,0,0,0,0,0,0,0,0,0,0,0,0,0,0,0,0,0,0,0,0,0,0,0,0,0,0,0,0,0,0,0,0,0,0,0,0,0,0,0,0,0,0,0,0,0,0,0,0,0,0,0,0,0,0,0,0,0,0,0,1,0,0,0,0,0,0,0,0,0,0,0,0,0,0,0,0,0,0,0,0,0,0,0,0,0,0,0,0,0,0,0,0,0,0,0,0,0,0,0,0,0,0,0,0,0,0,0,0,0,0,0,0,0,0,0,0,0,0,0,0,0,0,0,0,0,0,0,0,0,0,0,0,0,0,0,0,0,0,0,0,0,0,0,0,0,0,0,0,0,0,0,0,0,0,0,0,0,0,0,0,0,0,0,0,0,0,0,0,0,0,0,0,0,0,0,0,0,0,0,0,0,0,0,0,0,0,0,0,0,0,0,0,0,0,0,0,0,0,0,0,0,0,0,0,0,0,0,0,0,0,0,0,0,0,0,0,0,0,0,0,0,0,0,0,0,0,0,0,0,0,0,0,0,0,0,0,0,0,0,0,0,0,0,0,0,0,0,0,0,0,0,0,0,0,0,0,0,0,0,0,0,0,0,0,0,0,0,0,0,0,0,0,0,0,0,0,0,0,0,0,0,0,0,0,0,0,0,0,0,0,0,0,0,0,0,0,0,0,0,0,0,0,0,0,0,0,0,0,0,0,0,0,0,0,0,0,0,0,0,0,0,0,0,0,0,0,0,0,0,0,0,0,0,0,0,0,0,0,0,0,0,0,0,0,0,0,0,0,0,0,0,0,0,0,0,0,0,0,0,0,0,0,0,0,0,0,0,0,0,0,0,0,0,0,0,0,0,0,0,0,0,0,0,0,0,0,0,0,0,0,0,0,0,0,0,0,0,0,0,0,0,0,0,0,0,0,0,0,0,0,0,0,0,0,0,0,0,0,0,0,0,0,0,0,0,0,0,0,0,0,0,0,0,0,0,0,0,0,0,1
outputCount=2
weightIndex=0,32,992,24932
weights=##0
##double#24932
   0.7350861018,-0.8630925312,0.6631980331,0.4839697328,1.5903889771,0.7912279023,-0.5208741045,-0.7148522407,0.333146102,-0.1504488464,0.9998189954,0.5023724601,-0.4431632072,-0.07538684,-1.2735875244,-0.385645875,-0.3456771803,-0.9607592253,0.0961401967,-0.6643993635,-0.5001427946,-0.7666027629,0.6372146378,0.0959831486,-0.2074785903,1.258640961,-1.0475894098,0.0395317863,0.9164436706,0.1703101105,0.9187595074,0.0962187476,0.5016092894,0.4038977701,-0.4365770012,0.2512298268,0.683043346,-1.0286911052,0.485043885,-0.1017519648,0.1051828927,-0.9542257853,0.7787834459,-0.2466918862,0.2507404318,-0.4259268317,-0.3740067957,0.6355041208,-0.1801464159,0.9400044249,0.8497392161,0.443148669,0.4884927779,0.5282260592,0.0959936066,0.1688958803,-0.2496111549,0.6992371486,-0.8510383739,-0.9706323379,0.6349606526,-0.1661709508,-0.8103052847,0.5212110003,-0.3399034977,0.5552324203,-0.6426021678,0.9541625097,-0.5349131207,0.2156049885,-0.4492480562,0.4606796512,0.7183044982,-0.9151791498,0.5650561008,0.9317611465,0.1544696009,0.1055280756,0.1538642676,0.8954022855,0.0838031735,-0.2051398544,-0.9396480064,-1.0299180914,0.552417183,-0.9570299633,0.4663257237,-0.5083689939,0.4584927287,-0.2757348026,-0.1231326794,-0.0026816936,0.2405183098,-0.1969080829,-0.3570299279,-0.8288335758,-0.5844195028,-0.8327456104,-0.5863108418,0.0403401343,-0.037873947,-0.4952220898,0.9711050307,0.8125322613,0.2041966214,-0.679822765,-0.3656641669,-0.6732772279,-0.1264028083,0.7158140702,-0.1729186946,0.1787628259,-0.9159085461,-0.0489199778,0.2017682748,-0.7568397351,-0.3247121868,0.0132001712,0.2776479807,-0.1065070537,0.677157375,-0.2125954886,0.5051574275,-0.1814999589,-0.6937167969,-0.3949710254,-0.5287930106,-0.2048539702,-0.1213026614,0.2807681835,0.9363359548,0.6714454191,-0.8714242558,0.8364770477,0.7741650361,-0.5335207849,-0.3521047524,-0.4594092516,-0.7618740234,-0.6389725534,0.9818776885,0.5609044381,0.794812547,0.5949612873,0.4787020035,-0.1144560521,-0.5293014025,-0.0248153726,-0.1866691453,0.1493946011,0.4439559354,0.496985047,0.5177949919,0.5256028512,0.3656354695,0.6561139647,0.25426486,0.9148796173,0.2808727865,-0.8846688347,1.078375661,0.9188042667,-0.5948918036,0.1440569842,1.0817262916,0.3447080497,0.1673544139,-0.5665963618,0.8298338973,0.5669509775,0.0106870276,1.1239430263,0.2553146202,0.1919808936,-0.7280465346,0.5173549562,-0.4036226803,1.0646041431,0.0540235761,-0.2748039962,1.1976934398,0.963542067,-0.1660123814,1.0804913469,0.1537605463,-0.2946243892,-0.3689021744,-0.2262213627,0.9176593096,-0.2989363723,-0.6252477292,0.614663064,0.0623868217,-0.7892719344,0.3529958828,0.6981391622,0.2157763809,0.8259997311,-0.9353069872,-0.0230833695,-0.7472512377,-0.8416307238,0.5881952042,-0.1962386323,0.6001156038,0.6024286724,0.835981707,0.6373013516,0.2106075381,0.4998627093,0.2554861189,-0.4143020717,-0.5537581616,-0.8847512485,-0.4520041491,-0.7895811476,0.6833125054,0.1942146447,0.8823588957,-0.2768173847,-0.4935185726,0.4122720371,0.9397150413,0.3339838596,2.4096473476,1.6713915269,0.7362159459,0.5729596386,2.916010919,-1.181756529,0.5700417698,0.3986024539,0.3779394748,1.4820072767,1.4822619259,2.7865807482,-0.6815634139,0.5525809793,-1.1771695427,1.4810789302,2.0511449423,2.0022552661,2.5395822307,1.6092477532,0.9962356776,0.6422433586,0.5356131416,1.5965020874,0.3076392119,2.9214960258,-1.4196297643,1.6999016054,0.1048147796,-0.1023726024,-1.208797727,0.6619103541,2.9464263349,1.6992526846,0.7471662622,-0.8333474165,-0.1945322521,-0.3722590017,0.6810609792,3.0394247064,-0.3932801386,0.1667254064,2.2140406404,0.9883777322,1.5699054055,-0.145444266,0.65442613,-0.2281376258,0.6434962732,-0.6129826047,0.4855755794,0.6132493225,0.2427437141,0.1567240806,0.0654023705,0.4068721006,0.8894740172,1.1516300017,0.0512692792,0.7161779363,1.5795524319,0.3870947892,0.4112571304,-0.6291515115,1.1621045936,0.3332935374,1.1677587791,-0.9600306919,0.7893222814,-0.7053795518,-0.0421954583,-0.8840724623,0.9402355114,0.7989152123,1.0529669128,0.3771286249,-1.458513883,-0.9963360071,-0.0063589754,0.1571052309,0.8788443912,1.3129825958,1.043277777,1.5803595954,0.800584152,-0.0416100763,-0.6952050704,-0.2493272774,-0.8118930536,1.4352900078,-1.0338352494,0.866812821,0.8480595963,1.17701365,-0.3970165779,0.6932749808,-0.1345621901,1.1871364628,0.8193804565,-0.5105770272,1.0611000767,0.9097286126,0.1316565708,-0.035121657,-1.441378287,-0.1946998199,0.8779666542,0.9964614761,0.7238000733,-0.0641957936,0.2551568193,-0.2031115764,0.3388124864,0.4169685231,1.0063522653,0.2498925933,-1.1173818279,-0.9470481345,0.4814638027,0.20813966,-0.7732533663,1.5147713169,1.6523450937,0.8895482606,0.5793466217,-0.3157247871,0.8923339519,0.4714709929,2.6454880936,1.3472572417,-0.0796153959,-0.6745232392,3.0314625956,-0.0554019054,2.1800804548,-0.1941947993,2.849752144,1.6718310426,2.6655896968,1.0862134562,-0.2991593575,0.297035467,0.1409544072,2.6739890751,2.9381243041,1.8411053508,1.3179874065,2.3861930044,2.4730869805,-0.884863484,0.407844427,-0.0372904583,0.2832631648,1.2270616056,-1.0030532029,1.2775974288,0.3070971181,0.0037493041,-1.2337437435,2.2293253308,2.6264987301,2.9877915377,-0.7344205726,-0.653557071,-0.1357990054,-0.5251921987,-0.7533490749,1.8617252362,-1.0050270941,-0.0406745228,3.0655903513,0.620439763,2.9223870802,0.131516195,0.6452073066,0.682991498,-0.4997387929,1.871599276,1.0727241577,-0.5392410892,-1.3471020463,-0.173604723,1.1823007958,-0.3393079811,-0.7108670962,3.0774598068,2.497707192,1.3369090932,2.8048834418,0.0651167656,2.4286700763,0.9125770128,-0.646315963,-1.5601076388,0.0196794605,0.6104547618,-1.0959170568,0.325588614,0.0916756072,-0.4472008047,0.1347415278,-1.9173660552,-0.6472892806,-1.3520577169,1.1980350527,0.707359615,0.3847096281,-2.978075041,-1.2474955558,-1.6146732493,-1.9568555791,-0.4551194112,-1.1159234208,0.8350157802,0.7609386284,-0.9577189239,0.6815547123,-1.6953221523,0.1610295624,-2.3842612135,-0.5866177344,0.1376359064,-1.1976662193,-1.1002824041,-2.904069182,0.2199085291,-0.8438891899,-0.2805621522,-0.4564834423,-0.5359168001,-1.0363257305,-2.8208419304,1.2043156882,0.754023798,-0.5395671893,-0.9441044138,-0.8456691283,-0.1798054491,-0.4786561688,0.6602132727,-0.0674125229,-0.0726754823,0.0831638387,0.4514748097,0.8731432802,0.9652913521,0.3931798408,0.6525751306,-0.2879573272,-2.50953306,-0.5384374327,0.1621485213,-3.0615053528,-0.5642430411,-0.2460396746,-0.1633547437,-0.013216813,0.0436799215,-0.6363948433,0.6984149624,0.1079658886,-0.3066900205,-0.8589169629,0.8554984411,-0.5572607072,0.8317083914,-0.9826101855,0.4601850246,0.2614626191,-0.9827320246,-0.1886217136,-0.7296044908,-0.1381214191,0.03692349,0.4400107142,-0.2961384884,0.4969848141,0.3661200628,0.0639099208,0.3420757139,-0.7879607169,0.2891885514,1.0243178541,-0.1726300921,0.47421133,0.3309347896,-0.450547653,0.4941153031,0.5565022478,-1.0244860666,-0.6144475559,0.7732754782,-0.1848065949,-1.0055989615,0.0908084921,0.4692357254,-0.7215378678,-1.0492208257,0.0085723539,-0.9625501269,0.3121645081,0.3637177797,-0.3224424108,0.1733342449,-0.320201286,0.5521926901,-0.4448002006,0.4553868463,0.2994519413,0.8863086132,0.7331811644,0.3920121573,0.1834372255,-1.0095071196,0.4013954895,0.3288056507,-0.010391416,-0.5298569185,-0.3871095415,-0.2012939192,0.342665203,-0.2343677869,-0.205671396,-1.0051407762,0.8474663923,0.0706087168,-0.7498926881,0.7313355544,0.9594765545,0.0838485392,0.5302417826,-0.2208394202,-0.5139129,-0.6371560314,-0.9316585718,-0.3614233055,0.3360476493,0.7465462601,-0.9650483458,-0.9018868813,0.7368371688,0.1597796697,-0.0709014693,0.1688358205,0.5378850365,-0.0236484214,0.7697661609,0.0828118817,-0.8522436765,0.3820751335,0.7333289248,-0.061295434,0.4372291672,0.617327482,0.7911923318,0.1129789701,0.4253930771,-0.7574829293,0.0058896321,-0.142112722,-0.6705600368,0.7257686808,0.4398863938,-0.7351382632,0.5325683277,-0.8688734408,-0.169440153,0.0732953633,-0.5595530903,-0.725844125,0.5694969737,-0.3617686382,-0.2300714543,-0.0910716573,0.8459050509,-0.1961136934,-0.9930269827,0.7991218746,0.4231773004,-0.8681725025,-0.5715721315,-0.7245311376,0.5980979589,0.9226857245,-1.0588011655,0.7521530578,-0.5242237535,0.9154224453,-0.0663512405,-0.6176790021,-0.3902791687,-0.3737008525,-0.2366993281,0.5897573344,0.1241310234,0.0654470255,0.8327248531,0.6153497124,-0.7838183679,0.0829613584,-0.1580371371,-1.0755835687,0.29008967,-0.9355400301,-0.2174684708,1.178012888,-0.5307125558,-1.0346433218,-0.5640534449,0.387706544,0.6709544007,0.6709759043,0.0063941707,-0.8580914227,0.759648856,0.6537186302,0.0990159036,-0.2835735699,0.3790227171,0.2532932389,0.3153831815,-0.3476507503,-0.4349052599,-0.9773730734,0.2253338763,0.5387753567,0.2619995477,-0.7081237413,0.3005428963,0.181431552,-0.8747711464,-0.1938740673,-0.6482886296,-0.5386890818,-0.1427749226,0.1684607001,-0.6841883834,0.8553149974,-0.9694651106,-0.9938771141,-0.1164384343,-0.6491058818,-0.7892132165,0.7777078066,0.0643000419,-0.7868659876,-0.9943220913,0.9708347305,0.497502426,2.0800243151,1.5181924897,0.3111321128,1.2480302596,-0.6874816618,1.0678051224,-0.4394023947,1.5383774602,2.9802680631,1.2020233207,1.0678391749,-0.2972708351,-0.2654264757,0.5386242138,1.7256002684,2.3524720769,2.1908026269,2.3812044781,0.0964399636,1.4389361146,-0.0712782506,0.0496837241,-0.2819935819,0.0697839552,1.7438612981,-0.831667364,2.8610657949,0.8834420534,0.1833779621,-0.9281907604,1.6407571189,1.5452686244,1.0116103294,-0.4380085038,-0.9485190661,-0.9694249102,0.9060196206,1.0314930668,1.1366772293,-0.0578937047,-0.3354162082,1.1863817168,1.3953329208,0.7456546456,0.2790011218,0.6413458968,-0.491930356,-0.8583246318,1.059811992,0.0868649073,-0.4440759451,-0.9238778476,-0.6071013664,0.7879158113,0.4968204061,0.8858105692,1.8920328936,1.2443522939,-0.6443795231,1.5141206546,-0.4326711427,1.5621195372,-0.921018869,-0.7128500228,0.4093978579,-0.569875309,-0.1734727666,-0.3901883059,-0.7295347438,0.8116188661,-0.7077283931,-0.7038633583,0.709882314,0.7572920664,0.6523552663,0.3408349492,-0.802965666,-0.3210232277,-0.5109704892,0.9858829628,0.7654486548,0.8277791891,-0.8916740997,-0.6459726573,0.0142460776,-0.347410028,-0.1077326737,-0.3549127262,0.3866347031,0.4419416744,-0.1455861584,-0.3697646838,0.1673974311,0.2515365287,0.7043581661,0.669482246,0.8699144172,-0.5704444411,-0.7559589609,-0.9602123355,-0.7224151231,0.5571981986,0.5503164284,0.2578560563,0.8013421526,0.8971710269,0.6445886694,0.7690634894,-0.1503437459,0.7247699384,0.9455573066,0.5658918708,-0.5422203956,0.4607850015,-0.1452531823,0.0768884488,0.5631850669,-0.6068512748,0.7063661925,0.0335175505,0.0531034067,-0.1337240364,-0.0592473614,0.4750909274,-0.8076133469,-0.9713987655,-0.6820980435,-0.380591019,-1.6189791114,0.018097985,-0.4827870462,0.0776713166,1.0363420917,-1.0334777776,-0.5851665404,-0.9179051062,-0.6991243538,-0.9869428554,-0.0159925449,-0.7138547487,-0.2860675546,-0.7855346913,-0.9435456308,-1.2592613551,-1.1900904253,-0.9444376239,-0.7682722665,-0.3156876535,0.6329994298,0.3915388571,-1.1170422861,-0.7387163451,-1.4837412089,0.8624289661,-0.1227660784,-0.7391067563,-0.4274992176,0.4690270109,-1.3037145736,-1.1178429872,-0.8373750611,-0.914465144,-0.5822560086,0.2823826991,0.5866025271,0.7935519037,-0.8890308154,0.7555480981,-0.8152578008,-0.7444424789,-0.381077257,-0.9457089624,0.5264579849,-0.0529452226,0.946490663,0.259388829,0.1037798671,-0.370295763,0.7140993375,1.1713658049,0.042477911,0.6702812546,-0.7944552212,0.8002644948,-0.107169478,-1.238544834,-0.3511714378,-0.6736969079,-0.0568853337,-0.9875808151,-0.4860443425,-0.6247538334,-0.5039122365,-1.6935476914,0.0371310107,-0.4491413655,-0.0238790763,-0.2174272604,-0.1518355895,-1.2880431585,-1.3739703068,-1.4168498845,-0.9106619266,-0.0182393974,-0.8505737349,0.1204849686,-1.179942621,-1.4106692244,-0.6958640267,-1.4714314026,-0.0478789545,-0.1000544698,-0.8996781076,-0.3628579789,-1.1113744261,-1.5609097951,-0.0175768333,-1.0339868981,-0.7736769722,-0.8573760986,-1.7456619441,0.4591355843,-0.3357742756,-1.1191618737,-1.4591685213,-0.5775226707,-0.853039687,-0.8425450781,-0.8860314436,-1.6074523968,-0.5168630825,0.2648654311,-0.2262413198,-1.614015563,0.0038621769,-0.837629538,-0.2992541826,0.1019621227,-1.0271876044,-0.9577442994,-0.2725921558,-0.7028314252,0.5031626246,-1.0825915221,-1.0660372957,-0.6983535751,-1.8146207873,-0.2167237669,-0.9651319505,-1.1053395295,-1.7885950936,-0.1403967384,-0.3904177504,-1.421624855,0.1865235144,-3.0713363637,-1.1904962948,-2.3094291798,0.319718742,-2.8743842167,0.3890772713,-1.5329193128,-0.2602278712,-1.2929774931,-1.1619894775,-2.1670391673,-2.3050188693,0.8174338391,0.3161491454,0.9215000471,-1.8956815142,-1.7125844921,-1.8923128021,-2.1601565463,-1.7789261225,-1.4442554041,1.0518698695,-0.5553120903,-1.5360011479,-0.659079067,-1.8383744372,0.9592246047,-2.2098373655,-1.7028141785,-0.184321393,0.5787668877,-2.8639269892,-1.2848256047,-2.1564886653,0.3165015955,0.6545695982,-0.4019145287,0.3959109057,-0.6872940665,-2.091624857,1.397706708,-0.1402652073,-1.6550978523,-2.2088703891,-2.059226779,-0.4997072771,-1.6718720119,-0.6775981025,-1.0144523415,-1.8635457113,-0.3266846773,0.1520272106,0.555746774,0.7214871434,-0.304634223,-1.12779487,0.6489563137,-1.743200958,-1.9939080604,-0.7387327547,-1.9860958313,0.4753651818,-2.1657971427,-0.220090365,-0.2054023554,0.2833852066,-0.2867483915,-0.849376596,0.0109569192,-0.0461045143,-1.0352443081,0.5827044416,-0.6203395459,-0.2007821837,0.3136723109,1.1843286319,0.6190656608,-0.5737708895,-0.6307560217,1.2281975926,-0.7228929889,-0.9198920645,0.9050885534,2.9572414835,-0.0626743772,1.5844460898,0.0766168689,0.7040302777,0.8544194803,-2.8234719331,0.3457490271,-0.434939227,0.3041065299,0.2386008329,-0.9217273043,1.7428808416,2.5344077638,1.0152036343,3.0390258072,0.3953996741,-0.4677748913,-1.6447868412,-0.5942585821,0.7615321865,-1.1299639506,-1.9890353093,1.42918407,0.5441733196,0.8597146696,-1.8400033549,-0.5227965927,-1.3991867557,-0.2407737922,-0.6655274829,-0.29646146,1.0669405115,0.4807397672,0.6629235026,1.3111003729,2.5670157905,0.8247636843,-0.2210107204,1.2871821713,-1.3720770517,2.1085383284,-0.72862772,-0.7443060269,0.2505310359,2.2061792196,1.7094591223,2.9045263617,1.282970462,-0.9873087987,-0.569178408,-0.5020434005,0.8717709533,-2.4497132829,-0.5204803097,2.5390209528,-0.6347931884,-1.9901396288,-0.456492045,0.6850619925,2.1973101088,0.5922094608,0.3697814696,1.6259921174,0.6144143373,0.4633677308,2.8496295364,1.225539758,2.6528557565,-0.2021440852,1.5007159461,-0.6601122948,-0.131308397,0.2731894489,0.1653762041,0.6757052157,-0.7237348526,1.8920407041,-0.6300418493,1.0421651644,1.0173943869,-0.2897616198,-0.059431421,-0.546638744,-0.21266653,-0.9278990721,0.759873567,-0.137181602,-0.9485112019,0.1864068136,-0.4828906255,-0.1051620534,-0.0772852477,0.2342587897,1.297600759,1.9812846564,-1.8265726583,-1.1732441298,-0.5366600979,-1.2600066145,0.0039262625,0.1336327776,0.4141539544,1.4370829525,1.1366703301,2.0575323647,1.1812385462,0.1163680342,-0.2729194509,2.2534672981,-0.9591981412,-0.8457487549,1.2214201236,0.593373677,-0.0254494229,1.1546520211,-0.2648531933,2.4823084881,0.292637053,0.3503411057,-0.6051633224,-1.1488158493,1.8740117844,-1.2430645216,0.7013442414,-2.7221910848,0.3553508975,1.6792267205,0.6378438534,-0.803652268,-0.5565117634,-0.9253141706,-0.886747949,2.9132299731,2.6701323747,-0.7513183053,-1.0278188964,2.4382074355,0.8965750971,-0.0937724104,-0.1701085257,0.8157353882,2.0835452215,-0.7508676408,0.5034066015,1.6100527763,0.6683450071,1.6139317319,-0.4176771267,0.7272697254,2.2884617404,1.4546100571,-1.049138935,0.2958486387,-1.04622274,0.532415268,1.038424056,0.2602629579,-1.2255146806,-0.5923001413,0.9737867087,-0.2840212075,-0.0577783023,0.9437823547,0.28908623,0.4952283711,-0.8716567595,0.3390506166,1.3410699175,0.9382179063,-0.7274525302,0.5693412101,0.1609353018,1.0661222536,1.4917866687,-0.6194441502,1.0515490762,-2.8062331267,0.0592467684,3.0568136021,-1.0839565746,0.2136111712,0.0481289174,0.0229138591,-1.0898499366,0.9219752754,3.0545349506,-0.2486895238,1.924361785,0.3784537395,0.1365388198,1.6430791464,-0.956862131,1.5412607452,-0.1537703567,1.3141819483,2.8863951341,0.310845881,0.6576120005,1.3047077537,-1.4124004443,0.691480634,0.3633306922,1.3275664269,-0.622755638,0.58617665,1.504392557,-0.8803567664,2.9556403897,1.4718454125,-0.9865465279,-0.4221475586,1.5612207519,1.5543419484,2.1308343908,1.0901091626,2.0916748751,-1.530494265,2.8797185928,1.6807499758,0.3509902616,0.8696534255,0.7413435447,1.6879115579,1.9294599441,2.0306977238,-0.3266243553,1.265462973,2.0264254796,1.131803109,0.3032617749,-0.4699458325,-1.0798506865,0.0131562757,-0.4507111718,-0.3838531943,-0.7719448295,0.9472725635,-0.2575033803,0.5330856902,-0.3393115271,-0.3423427057,1.4071042921,2.1952341322,2.7999392882,0.6661841993,0.2977501687,-0.2094459983,0.7998314488,-1.8157992365,0.0744907373,-1.2649807656,1.1096312304,1.4764304978,-0.5068975664,2.5237895683,1.4106966849,0.4354117681,-0.8675674466,0.3676284284,0.0966976634,1.656493542,-0.689341092,0.7093221691,-0.0625483023,-0.4579896899,2.7582225784,1.2041452222,-0.1739744191,-0.3866635677,-1.4148735927,-0.8052616702,0.693338324,1.0547363731,0.333699088,-1.6102907341,0.371497361,1.6033585622,0.7130091849,-0.6315874832,0.658519687,-0.0467335677,1.3084385996,-0.9969901994,0.9181832295,-0.7487427792,2.5497895201,0.0378682677,-0.1447273802,-1.1663616896,1.5503277145,2.0733368871,-1.0728877725,0.6051145004,-0.3165612732,0.6846226779,-0.1342964775,-0.0724245097,1.3063676223,-0.1485455563,-0.2892576225,-0.7229261183,1.4620667118,0.2280559168,0.1574071462,0.2274223758,2.1451758488,-0.7139107945,0.2088370904,-0.7088312028,0.0194226152,0.4846960245,2.2295768801,2.6811776293,-0.2295103436,1.3101655873,-0.008883316,-0.996547766,-2.0698673099,-1.913115073,-1.5686404781,-0.5191737611,-1.4004364086,-0.1697813047,-0.1790477626,0.3528733488,1.9778349745,-0.3463768062,-0.397072164,2.7785173246,0.1305811826,-0.9839605249,1.1174407994,-0.1875662337,-0.6833921023,0.5426796391,0.2277439374,-0.2509944097,0.8192619394,0.8312851843,2.0565645393,0.6164408328,0.2679009333,-1.1603533046,2.8635814754,1.2700717721,-0.33711743,0.7357691645,0.6515514475,-0.2324207016,2.9783535029,0.2451355507,2.6825239368,1.8488466559,1.0393987172,-0.0783557587,0.6754845582,2.2925412073,-0.809677173,-1.9065720269,1.1810763644,-0.7522732074,-0.4294833029,0.8486434871,-0.4033903862,-0.7317475359,-0.329591442,0.3864375931,-0.3035784074,-0.5686632152,0.0120350041,-0.2944047461,-0.2916883347,-0.4190370178,-0.3032835222,-0.2784044908,0.6113849623,-1.0649973905,0.1480512048,-0.2996693926,0.0610228285,-0.9665404418,-0.96916181,0.2370703445,0.1955997552,1.3043891997,0.3449838976,0.1361552637,-0.4680977021,-0.9407667784,0.403841906,-1.008760828,-0.0704203317,0.9620819954,0.7630663406,0.6431238198,0.0033829825,0.2259659361,-1.2574948362,-0.4742586758,0.2408969706,0.2181707353,0.1347412826,0.6768810767,0.1614923358,0.1818548327,-1.2680737533,0.2734170391,-0.5293356281,0.7064986914,0.6230427224,-0.1315978556,0.2996889661,0.7715269409,-0.3255038373,-0.7852470759,1.2708282408,0.3060017205,-0.557239105,0.6757147657,-0.1781219858,0.8758868184,-0.9499170223,-0.1037098453,-0.0474036818,0.7096991987,0.8260661326,-0.2019679973,0.1867223376,-0.6291878538,0.4025996562,-0.1605713209,-0.8293078854,-0.3978545855,-0.6286086142,1.0876354855,-0.6240180408,0.3348695075,-0.0704514418,-0.3523855936,-0.3248822177,0.8667267927,-0.4656535022,0.3164665701,0.655654479,-0.2622305691,0.7950881686,-0.5077356035,0.370192131,-0.0999778476,-0.880050579,-0.2730725439,0.160602946,-0.2392723727,-0.6465829851,0.5900291487,-1.1053495683,0.5372999428,-0.168637689,-0.7524968656,-0.7907339115,0.338854319,0.1247778116,-0.2678828781,-0.4093916977,0.5566209211,0.1789745709,-0.1684162247,-0.2663050079,0.6265395398,-0.1016290805,0.3746102675,-0.7389200047,-1.2801027644,-0.451996163,0.4749889116,-0.6269260573,-0.6898913906,0.1024139824,-0.0503641469,-0.9026876172,0.6479221494,-0.239964092,1.1429390638,0.1879753407,0.8513632672,0.5825087064,0.8817966925,-1.3280638816,-0.8940336649,-0.6381543636,-0.9190053069,-0.3881689096,-0.7104300394,0.5010839734,-0.0540004049,-0.6900335221,-0.7284494283,-0.596696281,-0.8107839528,-0.0627592524,0.0889576988,-0.0124470434,-1.2467931984,-0.6233824223,0.6083337588,-0.4700306813,-0.2202920105,-0.768251568,-0.8748193135,0.8312982654,-0.735247367,0.1822067312,-0.0387601717,-0.5041769799,-1.0041063442,0.0313127481,-0.1554754658,0.7663710327,-0.6253410513,-0.6598609662,0.4614003428,0.2256915493,-0.5879402646,0.4818379269,1.1690480716,0.4601675848,0.7377586536,-0.8710044633,0.1419156827,-0.3964464725,-0.5373134676,-1.1195596926,0.5759403042,0.1268857243,-0.571405133,0.2520276419,-0.1163284289,-2.1428001806,0.0690468431,0.5522957008,0.5665301277,0.9751131495,0.8222998997,-0.6518297165,-0.133690381,0.284169149,0.1120791305,0.5665512424,0.0472977856,-0.5408330918,-0.4046717543,-0.7429663003,1.1126205985,0.9042419255,-1.0134829352,-0.2620671704,0.0426569826,-0.5146258842,-0.3000999292,-0.3664197508,-0.2271627161,0.6248366637,-0.7201589003,-0.8490002803,-0.4594000855,0.246212527,-0.6434652161,-0.4210271879,-0.4209010862,-0.0173177483,0.2949880754,-0.4074497298,0.7710672735,-0.2271427902,0.4756029934,0.8002152451,-0.9300341454,-0.2187435618,-0.3430354114,0.6438695476,-0.0382506543,-0.3714582569,-0.2505951509,-1.0901034532,-0.7808711807,1.0417827671,-0.6198612684,-0.2193399811,0.322877946,-0.1439609052,0.7663984942,-0.2210547242,0.5705308277,-1.05019081,0.8153820651,-0.4668469816,-0.1595498088,-0.2687881307,-0.3546106641,-0.6527650995,-0.9053962774,-0.4314461549,0.2856605474,0.4682578301,-0.2052526887,-0.6807843162,0.4285634025,0.8225278358,-0.0850070066,-0.7515575739,-0.532255538,-0.231380168,-0.2239683587,-0.2423803562,-0.3614831238,0.1639359823,0.9465648303,-0.7321364101,-0.5448344069,0.177100572,0.2637811491,-0.1744927289,-0.3452351949,-0.7563536665,0.5729463753,-0.0117763708,-0.7459939327,0.7217663811,0.6166832996,-0.9964196643,0.7140701902,-0.3976186472,-0.7567404362,-0.435712063,0.6226092061,-0.4021487939,-0.9802714236,-0.9693893375,0.916997565,0.6221216394,-0.3709806244,-1.2502591281,0.3999283589,0.6145196648,-0.7879053679,-0.7698782849,0.4206174436,0.0370068467,-0.9854761925,-0.3657186839,-1.3780946562,-0.0692578019,-0.8224067696,-0.8663329797,-0.5199333918,0.4791430149,-0.4948656401,-0.6367688652,0.3632016793,0.8550199247,-0.2989933304,0.1273283681,-0.2839112966,0.6234392948,-1.1103819791,0.2605681353,-0.7928960449,0.2635371164,-1.0261359277,-0.3640502813,-0.0458151525,-0.5419112413,-0.200719693,0.5142924435,-0.0959728915,-0.7992899517,0.1484304697,-0.0886761833,-0.5243904832,-0.2169541472,0.2991885247,1.269485347,-0.1287366133,-0.500677102,0.5575340279,0.5070551474,-0.9322760673,-0.5283962424,0.7536382292,-0.5783940232,0.2587026303,0.2334720111,0.3975487718,0.4538654675,0.8128715651,0.7332747785,0.1280912189,0.0016553195,-0.9799331546,-0.6601537287,-0.2819137721,-1.0120780665,1.0935448779,-0.6794088055,0.2249386182,0.1127465363,0.6992676621,-0.0803719441,0.5638036867,0.2954788829,0.7949688778,0.3034652713,-0.2727685595,0.2691869965,0.549861023,-1.0449033836,-0.5769359584,0.7826670099,-1.0818344451,0.0015831512,0.0111892745,0.4269438456,0.659100892,0.5431347973,0.8033673329,0.4617591126,-0.8681431434,0.5170009186,-0.8573889259,0.1298126022,-0.3586270668,-0.4668861162,0.3981132101,-0.6310610302,0.044561998,-0.9859668658,-0.0549583305,-1.0347296918,0.1189035247,0.6814264119,-0.0316689223,-1.1440228907,1.1471437674,0.4035901448,-0.1277617982,-0.483042139,0.6405759432,0.3412282895,0.509334304,0.0797881175,-0.4596781591,0.1595079065,-0.0717357791,0.2896935636,-0.6899738516,1.0345968946,-0.632184974,0.5607238149,-0.0286286624,1.1903816994,0.7201325813,0.2250145542,0.189117067,-0.0617565619,1.6160719635,-1.334583045,-0.8444822176,0.3571884635,0.0964877988,0.0903967268,-0.8805821135,1.1137513554,1.5260014972,0.5884826796,-0.2759196983,0.3184309257,-0.7892140924,-3.0748743197,-1.0820943127,-0.2178864368,-0.0430044047,-2.3658866163,1.5667778017,1.157884924,0.7762401828,-1.1266221087,-1.5169573499,-0.7179680617,-0.2588168083,0.7042787378,0.7987310135,1.4700954054,0.0024226727,-0.8529681484,0.2210395785,1.6462023832,0.6965029381,-0.0945388457,0.8588517754,-0.2982902071,0.9397149476,-1.0388268179,-0.7305713184,0.3598732538,0.9532505731,1.5073396822,0.0664513028,0.2479559503,-0.7222611282,0.0487459955,0.8583712521,1.1626001678,-1.2025693217,-1.2843771247,1.0319552995,-0.5425541097,-2.7482827793,-1.1841597981,-0.0807507718,1.4197474661,0.6347078892,0.1564582063,0.4517892047,1.3013922549,1.1990821615,1.3193565426,0.0090458108,0.5793765662,-1.2354065935,0.9738085082,-0.0186509222,-0.7236368459,-1.0739563428,-0.5175246952,0.5175922962,-0.109746977,0.1852617764,-0.2599899931,0.2596874569,0.4689293991,-0.1074613308,0.1782266139,-0.058682265,0.6474922801,-0.8111345101,0.7806879325,-0.3613044719,-0.8570974819,0.0237559531,-0.1071775447,0.366095185,-0.3385554969,0.122984609,1.0012431043,1.3198706202,-1.7732178861,0.4141195708,-0.823189404,-1.3328717939,1.3493504448,0.816030194,-0.1170337749,0.3965361562,0.7626000397,0.5408547567,-0.6852633312,1.6677359583,0.3640037543,1.250942822,-0.6582215545,0.6001487319,-0.0486942252,1.4750474725,0.9296358954,0.0452283326,-0.6085378068,-0.2936311031,1.0835042286,-0.6928766491,-0.0197489222,-0.5156275461,1.6149074826,-1.1676985251,-0.2905881768,0.0030220346,0.862574417,1.0596517624,-0.0439278216,1.2426898166,-0.1779542728,0.3577731544,-0.8193609061,0.3208195813,1.436811239,0.4481371975,0.1838440937,-0.1748523787,0.4920009678,0.9475174753,0.120110686,1.0982151279,1.4781859649,-1.3228802047,-0.6886950781,1.5176447291,-0.9135988523,0.2957028718,-0.3817925538,0.6928214393,1.0475384416,0.9984161214,-0.4313386295,0.1212069947,0.7134707176,0.4633850277,1.5575464806,-1.3749036455,-0.4686822625,-0.0039549017,1.4381977885,-0.5387835903,0.6483775729,1.1539705148,0.2937650387,-0.4577122786,-0.0682121488,-0.7919735785,0.0701968937,-0.3916151171,-0.2490764195,0.4499841153,-0.3316987179,0.676918954,1.466259414,-0.4456710687,1.4087870044,-1.861815526,1.3984750346,1.6381861658,0.568627244,-1.1791704251,-0.2870206283,0.5731522912,-0.0163053623,0.6174947538,0.5760881164,0.1886263292,0.3940840748,-0.306285578,-0.1103018772,1.0645112582,-0.7338944917,0.295735708,-0.8178622968,1.6182801665,0.2866372751,0.5799266578,0.8930154449,1.6347552568,-2.4830778929,-0.0871997341,-0.8803380111,-0.249044131,-0.0559282126,-0.7642917557,0.7906129553,0.6740745326,0.0337949442,1.327224072,-0.9650964648,-0.3041506133,0.9280893747,0.9627230104,-0.3025605136,-0.4915627176,1.0875156126,-1.4008997276,0.1796871915,-0.1039261206,0.565707433,1.5818042812,0.4756069261,-0.0872619911,-0.1027396137,0.124725089,0.1970127671,-0.3441158712,0.3622628762,0.8206167829,-0.0175930343,0.3373187583,-0.7510639704,-0.8794179613,0.0501945485,-1.3350323919,0.9943727768,0.7954003274,-0.2882797331,-0.25501031,0.5364750856,-0.5736127149,-0.1809016633,-0.0837275848,0.4497926086,0.5527953563,-1.3625355232,0.3026680557,0.723499094,0.7177004147,0.6361498258,-1.6172391974,1.4263119405,0.6675543858,-0.3182071997,0.8418310915,1.6438532825,0.1162634752,-0.0329545342,0.070884837,-0.059642686,0.6252895949,0.0826459957,-0.0429582941,0.1726224761,-0.5300116155,-0.2773961805,0.5436824399,-0.03251326,0.8201855075,-1.1659173604,-0.8388256321,1.4702172678,0.4351309087,0.3500658462,0.4156005865,0.6751265073
   1.1006521816,0.9226781226,1.1693603657,0.1023442266,0.9989521586,1.3737439617,-0.8303863745,0.1474655661,0.7848036408,1.5406523596,-1.1480406331,-0.0255922627,-0.3957068945,0.7316755955,1.3912801851,-0.3806595877,-0.134668586,-0.6003801385,0.8475201923,0.008110734,1.3955307982,0.5849775455,-0.5035288734,0.9140685248,-0.1117297743,1.0425547494,1.086520707,-0.5403545977,0.2215960583,-0.0614168093,-0.7471249485,-0.4157912027,-0.4302256998,0.8258543756,-0.2555987471,-0.0542828501,1.6921341193,-0.0934513666,0.443981329,0.0005245654,-0.2769556861,-2.1811172484,-2.5922828393,-1.5476658734,0.1814981087,-1.1533289366,-0.1422299337,1.0768574102,0.6476919672,0.1470711933,0.5055298459,0.1363311794,1.6135058344,-1.1135430373,0.103696262,0.7955845881,-0.1948102316,0.5753361829,-0.3644079807,-0.3148781266,0.4633503032,0.1004914964,1.0220661376,-0.1118903159,0.011455632,1.5254202023,-0.8412598881,0.6192335397,0.425361205,-0.7421176477,0.2700795642,0.3150942662,-1.0596243214,1.1112165758,0.5791351908,1.4211023128,0.4176908593,0.7768675618,0.6011508677,-0.1910061716,-0.2556533662,0.6806498418,-2.4356614006,0.100336947,0.1269293245,1.0159295663,0.5976025748,0.1038645201,0.1343257824,0.7849978264,-0.4660653437,0.0834256945,0.1505044876,0.9409076461,-0.5096713723,0.2807804087,-0.6286106347,-0.3876422372,-0.1908263114,-1.484222323,-0.5099104762,1.0084566925,0.7614936788,-0.9548011035,0.280054228,-1.1770926147,-0.4101258716,-0.4849249221,-0.3687359039,1.315437557,0.2856296907,-0.085169606,-0.4412956481,0.2215383479,0.792223341,-0.3853072292,-1.2174563298,-0.6016127735,0.1153070731,-0.0735731178,-0.4877204114,0.9844571681,-0.1452110536,0.8558287862,0.1694922237,1.1038427805,-1.4933332024,-0.4302296686,-0.2595140239,0.705296507,0.6411107064,0.3195371228,-0.6453738015,0.751866914,-0.4379864752,-1.1487930239,-1.0195115441,0.1056468225,-1.6131214658,-1.3358556461,-0.5255716078,0.2736667185,-0.0121807696,1.4764813054,0.0299628058,1.2947516592,0.5464987848,0.2556303291,-1.020404838,-0.4451085583,-0.4282707733,-0.9853970575,-0.3383599079,0.5259531865,0.2302933085,-0.537722806,1.2221558324,-0.1754688939,-1.0371061391,0.8675242092,0.700219398,1.1453020045,0.8135770916,0.3432437014,-0.1053238192,-0.5824532779,0.2074708479,-0.226139199,-0.8246624434,-1.3697884974,-0.2216116141,0.4624830731,0.1127770469,-0.6640788501,0.3108323422,-0.2844702633,0.9111917432,-0.555647663,-1.2240087563,0.6604907368,-0.6129230921,0.4478197921,0.0308574489,0.4435903114,-0.7376639793,-0.8501046148,1.0654683063,0.095656314,0.1144003338,-1.3009199255,0.3610515497,1.0176298085,-0.6147872868,-0.620770357,1.0652779808,0.7490851321,-0.2388844801,-1.32617862,0.0547928355,-0.2139697439,-0.5354823553,-0.182346993,0.2884395328,-0.6354067912,-0.9823141825,-1.1204978823,-1.1499394216,-0.9145867192,-0.2557370664,-0.8373609533,-0.5330318823,0.3332661114,-0.680558596,-0.1491030919,-0.4083891043,0.0018322879,0.8015489084,0.473444839,-0.9285804197,0.9130840136,0.4046660959,-0.2172646588,0.4790260882,-0.8285296461,1.005823764,-1.1881171499,-0.6516426396,-0.4343623458,1.4181916264,0.9078016336,-0.7343270942,-0.1069490928,0.9318413604,0.8301137662,-1.0535991312,0.9693866588,0.1055236851,-0.2465813607,-0.3967019705,0.0063478393,-1.523993028,-0.6979941736,0.6402049795,0.1475983551,0.7893208152,-0.1576708019,0.3686807975,0.3418425169,0.6401135711,0.0390421524,-1.3795016445,0.0540775205,-0.9136787686,-1.0614605283,-1.1290089952,0.4932567972,0.3048579445,-0.1654101844,0.9024815282,0.5283459279,0.5492124922,-0.777405897,-0.5733353814,-0.2476641499,-0.6490531597,0.1129937858,-0.304268364,0.4538236349,-1.1882558684,-0.183205185,-0.9863450143,0.0069749756,0.14119526,-0.9314906899,0.1930597132,0.5763843129,-1.3894307363,-0.7309895876,-0.0372182394,-0.9345614225,1.4274788663,0.1405552707,-0.011347287,0.5393417979,1.5404525633,-0.5217778978,-0.1384892771,0.9637950418,0.6945209474,0.5358489682,0.1617429541,-0.401740133,0.6197571064,-1.4322297598,-0.2172652276,-0.1629863267,-1.3885059661,-0.1367130076,0.0688974,0.302871632,0.1004320883,-0.5599779305,-0.8079253419,1.057450874,-0.850942997,0.4696222385,0.6073705877,1.7143948007,0.1084540646,-0.3496054855,1.2117006326,-1.3946002834,-0.2365071805,0.3144351145,-0.069095363,-0.5064494033,-1.0206797526,-1.1639943131,0.4918745281,-1.2669603733,-0.0036410753,0.2623925382,-0.9118385439,0.4778799095,0.208547777,-0.3819717615,-0.5220976945,-0.4234196477,-0.414225445,-0.5408828437,-0.7013094292,-1.4176925435,-0.7610575892,-0.4027893608,0.3447947164,0.8859874233,0.036506965,0.8557860997,-0.6137034163,0.1199646242,0.8071337045,0.3064250631,0.4424877173,-0.6365193357,0.6333066159,-0.2183751515,0.0886987754,-0.4870433001,0.5132938666,-0.7785455368,0.3389581603,-1.1545823874,-0.2215739173,-0.2676026316,0.7833506946,-0.5105523263,0.0216925138,0.7287718392,-0.5318838988,-0.2420965657,0.0989465389,-0.7972837491,-1.2214245758,0.7732556543,0.4917621797,-0.846775078,-1.0345776288,-0.2917868044,0.0910304906,-0.1766697156,0.453949797,-0.1044654539,0.4226965284,0.9582684113,-0.5265567005,-0.5422339209,-0.6292769012,-0.4316731956,0.7875728164,0.1713318903,-0.0346228567,-1.2790579566,-0.4666101482,0.0898957007,-1.4988743164,-1.5494868207,1.0193057954,-1.2880459591,-0.7914261817,-1.4297412543,1.2380155939,0.4852931828,2.6779833158,0.2847594676,-0.1912339008,0.7524784704,0.8492822019,-0.4536430569,0.1864796497,-0.2563004374,-0.9334771752,0.2430512949,1.049808632,-0.3869907349,-0.2030311886,0.2591938587,-0.902769542,-0.79773838,0.4577338184,0.5810913586,0.0972193526,-0.9655579408,-0.9357423298,-0.986812695,1.3084556688,0.3526236707,-1.5310857734,-0.7090745769,-0.3374785999,0.3040499007,0.940428877,1.0253437828,0.407297624,0.8322595606,-0.5539227265,0.5132109031,-0.2076508283,-1.1323969878,-0.860694703,-1.0885339236,0.6633562281,0.6265792501,-0.8586026839,0.4430682288,2.703442029,-0.7828763699,0.835519483,-0.1215488591,0.9160614704,0.4426994467,0.6662544472,-0.297634809,-0.5162232233,-0.2726488608,-1.3095881809,-0.3866633508,-0.9738015054,0.0650691321,-1.3392324761,-0.4162702404,1.0285284123,0.0839638584,0.0258864557,0.13550877,-1.0264514672,-1.0987456644,-0.6539698422,-0.2888914605,0.7089335912,-0.6598734745,-1.5752903103,-0.9691292266,1.0812256338,0.867538763,0.5348493357,-2.4260762947,-0.5952123546,0.7197947614,-0.3680532776,0.1429510518,0.6928229929,0.8787192117,-2.5161231785,0.4273799007,-0.8365322316,-0.465509474,0.4173734674,-1.1394580997,-0.5895601286,-0.4279276759,0.9415353375,-0.6173691364,-0.8152423944,0.5922024546,0.0465518008,-0.5052146913,-1.6139955986,-0.2686733403,-0.3920116034,-1.2868505025,0.6136698606,-1.2327801342,-1.3208300478,-0.678087147,-0.8437814905,0.2382176166,0.5463862149,0.0529080705,-0.6006619431,-0.0114151103,0.271159315,-1.3501933284,-1.3056479369,0.133699614,-1.0983390255,-1.6948299831,0.7372207775,0.9507916639,0.4368260911,-2.0296066079,-0.1850900263,-1.3131812545,-0.681724025,-0.3156647846,-0.8824543258,0.9956394538,0.6140631815,-0.4969695636,0.3436583676,0.7172184435,0.6132430177,0.2635098725,-0.4893569002,-1.2808980197,0.0577689426,-1.6722506744,-0.2209884455,0.8298141373,-0.240116455,0.5182355321,0.3704817005,0.8281613348,-1.3554364544,-0.9336619463,0.5529343282,-0.4290266555,-1.4267794039,-1.4000241836,-0.081580906,-0.535573709,-1.1697417677,-0.9315124469,0.1258901309,-0.570690992,-0.6228977378,-0.0529772778,-0.6463146207,0.0373260142,1.015805204,-0.2743744746,0.6864489576,0.6839527353,-0.3438363282,1.1350675271,0.0489409525,-0.0129002487,0.0603448258,-3.0298997979,-0.7749344562,-0.4231973129,0.1063645434,-0.5711243023,-0.241026426,0.4111042852,0.2066739251,0.0421188748,-2.4707114589,0.4558171739,-1.0621712663,-0.9382028514,-1.2629514634,-2.4152511096,0.1099760636,0.4052781419,0.2810408772,-1.4252989999,-2.6885057957,-0.1746439736,0.9585165872,-1.879849426,0.431580725,-0.9086448831,-1.1205663444,-0.3714745286,-0.6311950602,0.7691322138,0.2431048008,-0.0483797812,-0.4026593984,0.088000612,-0.0209424227,-0.9103925314,1.0804068556,-2.042351079,0.5525654767,-0.6709830802,0.4839729902,0.2040719247,-0.6064231495,0.4470621766,0.1929199224,1.1505390678,-1.0876801832,0.2913424495,-1.8346385986,0.5099253058,-0.9122759549,0.3878316842,-2.3523782667,0.2106307937,0.6048517833,0.7681792889,-0.5879851469,-1.1408924233,-0.9252053658,0.131634121,0.7665427161,1.0782760736,-0.6643681815,-0.6884630639,1.0678395767,1.0491892454,-0.8255177696,-0.8597535952,-0.1733202404,-0.5565871327,-0.4563731251,-0.072654194,-0.2700747248,0.4037912147,0.3764647991,0.4019729821,0.4127454661,-0.0186964257,0.2258403261,0.8457335603,0.8762858647,-0.0054960046,-0.4414290135,-0.3676152233,-1.846125274,-0.0412988959,0.6781406472,0.7074386998,0.1570079233,0.8554544723,-0.1873035054,-0.4615090026,-0.3744428995,-0.7819750105,0.5450543809,0.561047615,-0.2481372354,0.0516093793,0.1755397891,0.5540385569,0.7868969707,1.1034987165,-0.5952588534,1.1614007628,-2.1545869844,-0.1891908373,-0.2754214865,0.1517554179,-0.0945373671,0.5755818935,-0.0363479865,0.0469425611,-0.4812910986,0.1214008695,0.2664222431,1.1698606745,0.2036358775,-0.1491131218,0.8864573696,0.9208852966,1.1641604994,-0.8544314192,0.7471743755,-0.219331645,0.3716077868,-0.2795301423,-0.235134041,-2.2388739391,0.1791098717,0.3366222232,0.8408862043,-0.0089323429,-0.0011707471,0.9633343815,-1.6258249755,-0.2831031239,0.0195305686,-1.0614372924,-0.7160357728,0.4016357985,0.9243491654,0.2679439678,0.9018976557,0.2952310334,-0.3531174808,0.1110148001,0.2369331654,0.3898229601,-0.0337282112,-0.3068686605,0.0656551023,0.1227532547,0.6860109013,0.1833791574,-0.5366995264,-0.6935897831,-0.5720103704,-0.8733479476,-0.084055523,-1.4069585425,-0.8059169068,-0.7355764184,0.2762316508,-0.8997785713,-0.9489200524,-0.5873126312,-0.5402967169,-0.1817979566,-1.2750877559,1.1193251121,0.9627501709,0.13705079,-0.4184888077,-1.6507617765,-1.3464942284,0.9902880806,-1.7481715574,-0.6745950696,-1.9183557399,0.767972376,0.4208852154,0.8957691365,-0.4622500793,-0.4965005086,-0.140044402,0.4819896657,-0.6919218856,0.6510959914,0.0554811203,-1.0572281376,-0.0888124303,0.2960480774,-1.0968584689,0.9947831188,0.7581880895,-0.1361912479,-0.8606983782,-1.8479972524,-0.224966999,0.0295458379,-0.4036015426,-1.8073819222,-2.2050288666,-0.315610869,0.3846681794,0.925793051,-0.1189864725,0.5829343739,-0.1132784908,0.9513697347,-2.0492237151,-0.6776483372,0.0524227344,-0.2818543844,-2.1441183667,-0.0928283293,-1.6129245371,0.9422380202,-0.1923931557,-0.0942468234,0.5058741741,0.7418529807,0.1103226283,1.0818535444,0.3237125922,0.4147404376,0.9285770529,0.2114638304,-0.5360286079,0.6289196013,-0.2515035881,0.1676962592,-0.9046686195,0.4851456218,0.436594964,-0.9197519616,-0.3652923044,0.1995384276,-2.5065910946,-0.6142620266,0.3434137408,0.2351489966,0.8086790717,0.5307006489,-0.5349916102,-2.5247418849,-2.1529735656,-2.5270374373,0.4361111942,-0.2194446175,0.7551773276,0.4171425791,-0.4936082851,0.6067213352,-2.1948273675,-0.0570573818,0.817047161,0.1511092917,-0.3681546728,0.4349329679,-1.1362008045,-0.3666426081,-2.9222700252,-0.7295228061,-0.7736910355,-0.6744802837,-0.8878121816,-0.218365437,0.2390776953,1.0982250954,-0.3115402802,0.980626144,-0.7441380448,-1.3153091004,-1.3950424209,-0.6424381906,-1.2624774749,-0.4040597727,-0.611954212,-0.4485959801,1.0238818753,0.5275726323,0.1628270262,0.2681095285,-0.6753900192,-0.0784507209,-1.5205505538,-0.8725364506,-0.3357325808,1.603048951,-2.3772109013,0.797325288,-0.8901572297,-0.0893904017,0.8304540275,-1.0977184915,0.6935912552,0.2414362055,0.6312353163,-0.5311959183,-0.0713626284,-0.1655288445,0.0325634832,-1.4314556877,0.1036832158,1.0564702063,0.5637511578,-2.3669536347,-0.8530024148,-1.5465114229,0.2870655166,0.5051434451,-2.9440355269,0.2884682118,0.4664394473,-0.7543170117,0.4287332879,-0.7117744782,-0.292882818,-2.2477466752,-2.2465323912,-2.2354680454,-2.5177728703,-0.3389297962,0.1576442992,2.764863418,0.4855150291,0.8480138521,0.2190312981,0.449949031,-1.2238041609,-1.3207369388,0.1228018531,2.9072687853,0.9606441436,0.0184588905,-1.2176128866,0.118924393,-0.221771974,-2.4488126407,0.4781508365,-0.6098586303,-2.2941061193,-1.5861580115,0.7516601825,-2.5560744837,-3.0494478376,-0.7832905818,-1.3339580993,0.6860921973,-0.6491541815,0.0459258921,-1.7803991817,-1.1060244475,-1.6398062179,-1.7004542155,-0.6248593867,0.9666841098,-0.4957263239,-2.7964416864,2.1922358902,-0.9115770329,-1.4316684394,-0.2077607767,1.3419805091,-0.585874764,0.8581047488,-1.5689004702,-3.0734149004,-2.912396161,-1.2940247955,-1.140502449,-1.6589854115,-2.8630190607,-2.4544734626,-2.8779436152,-0.978756044,-2.0387560247,1.1679999227,-0.144385265,0.5986239815,-0.5836849637,-1.5647621964,0.7272251489,-2.3966080041,-0.9715874017,-2.9885082958,0.1931895949,0.6480170023,-0.770339852,0.0141378347,0.5127998647,-0.2013932296,0.4625320105,-0.6631268883,0.3637906211,0.7537282722,0.6329232992,-0.1669724849,0.0336555974,-0.2549576628,-1.0906707539,-2.3935387644,1.478008945,-0.665087837,0.7259498753,2.6729621089,-2.965479204,0.4602320412,-2.6987444546,-2.2342806277,-1.697120716,-1.3544091999,-1.497712623,-1.707478495,-0.2297139666,-2.6952938186,0.1713642128,-0.7991262169,-1.5054547919,-1.6549324348,-2.4009306922,-2.3709085021,-0.1358535046,-2.2819327797,-1.8687951142,0.8669747689,0.6701139276,0.6377357985,-1.1374824476,-0.7392763381,-1.3955021045,0.2540743361,-0.1130465887,-1.8255560915,-0.2372555753,-1.0184922176,-1.0551565783,0.8763579171,0.8582651361,-2.153307003,-2.224015133,-0.931353822,-0.6085978442,-2.6760570439,-2.6883424328,-1.0320559461,-0.0840040497,-1.0756511802,-1.2698227088,1.0376779797,0.7346574266,-2.1042582323,0.7222476345,-1.3025505253,-0.8836430204,-0.3093115404,-1.6929498905,-2.5413424699,0.2965806406,0.9276613413,0.1856051683,0.3260870713,-2.5242844131,-0.0031225012,0.7507913754,-0.3118947119,-3.0568512533,0.5670379784,-1.1949495048,-1.900540585,-0.2239993705,0.631969543,0.1869030259,-0.4069914467,-1.995178429,-0.4167891385,0.1115019336,0.1386007346,0.6055992031,-2.433594507,-2.2938378047,0.719897417,-1.6884666701,2.4678849753,-3.0752164562,-1.2476547362,-0.0860208385,0.6574579761,-0.3380290769,-2.0155360899,0.8291259902,0.0617180841,-1.3575160296,-2.5748279708,-1.2348450138,-0.6778291145,-2.8379146258,-1.7495828932,0.6189085302,-1.8603348043,0.0867894408,-2.1424044699,-2.412416339,-2.3851401829,-1.3588078803,-2.9510647123,1.7609027989,-0.1892520516,-0.3193885115,-2.7877454817,0.852030428,-0.9028196356,-1.9351233339,-0.3852813035,-3.0154963695,-1.3702031284,-0.3149556012,-0.1865051947,-2.3378177657,-2.0861174659,-2.6326331643,-1.6931577066,-1.6506694138,-0.0655291867,-2.357438483,-2.06030941,-1.7411386237,-1.9876072971,-0.5067048249,-2.3322592347,-1.8725622892,-2.8606304953,0.2228688754,-1.9030345366,-1.870440691,-2.7014332275,0.7237465414,-0.6193152817,0.0940796763,-0.0599585308,0.8399985902,-0.4565922536,-0.829049467,0.3399928692,-1.7198685733,-0.1564855911,0.1931856189,0.5844791478,-1.3993669981,-1.5097464499,-1.757322364,-1.5932483207,-0.3745568366,-0.8847257412,-1.4876576713,1.0596897832,0.3839717875,0.7920977578,-1.7360859564,-2.6269375913,0.6100216677,-1.554125594,-1.7640313048,0.6324784795,0.7810691452,-2.4945617866,-2.8772911917,-2.5605350915,-0.508611239,-2.0431429222,0.645130436,0.7181786402,-2.7819850671,-2.7152231242,-1.7334705543,-0.3619567633,0.5392160551,0.4319118805,-3.0760463122,-1.9156624556,0.5391080916,0.6445531467,-0.8961801396,-2.8817154572,-2.0776486979,0.6982907727,-1.2136037906,-1.6627246232,-1.5310276782,-0.2588608436,-1.4389139602,0.6739143276,-2.4943634476,0.4006896727,0.8984586568,-0.2422082624,-1.6494848398,-2.942024552,0.9651965762,0.5252313688,-0.0637362075,-1.0054451222,-2.3197010529,-2.086903096,-1.3802548353,0.0198605133,0.2044904051,-0.2195663455,-1.2870729869,-1.9151537826,-0.1532994536,-1.0825822106,-1.4501666935,-0.5471290867,-0.8511386527,-0.7763313883,-2.3349109679,-0.5090202896,-1.4863165246,-1.5257692003,0.2943618052,-2.9571835533,0.064500469,0.1508762058,0.5013991575,1.4055574353,-0.5058733446,-0.7678160996,1.7855282112,-2.1274003643,-0.6445232954,-1.6705998183,-1.8503790796,1.7115577714,-0.0444972878,-1.9182586201,0.8788954786,0.7708741353,-1.2827532917,-0.8478311274,-0.3713653337,0.2860909897,-0.5026182087,-0.766041432,0.6234021109,-0.6541732469,-1.943537817,-0.7122496632,-1.8339115832,-0.4604371762,-2.91215932,-1.4988831925,-0.265488736,-0.6608213019,-2.4640658356,0.2544624271,-2.589395129,0.2582364847,-3.020471052,-1.3238004864,-2.9579045537,0.2732949701,0.7073815084,-2.6563293528,-0.3317441928,0.6085817339,0.9015495953,0.6132884437,-0.9321284893,0.2803931829,-0.5111481974,-0.9636030045,0.0480089672,0.7731458141,0.8799217353,0.0110745401,-0.1470348755,0.5333920922,0.6876966956,0.7424962211,-0.9036884651,0.0176333997,1.4114749833,-0.7805204054,0.5183842413,0.6515807307,1.0485433035,-0.2962794242,0.463802693,-0.6677028513,0.960040108,0.9595359738,-0.6223967114,0.119956827,-0.3276843899,-1.016279244,-0.4025878145,-0.5637502768,-0.0504011556,1.0298749621,0.9027162615,1.9692215109,0.2816002412,0.6377389362,-0.7516585429,-0.7459483527,-0.9718895107,-1.2424694758,-0.1141729975,0.079511181,-0.2954016917,-0.3497419748,-1.1859394105,-0.6315713297,-1.0424993487,1.3564150298,0.0292332377,0.904060271,0.6379372713,0.7330160352,0.2185085292,1.341853179,1.200922949,0.2049143961,1.5136880901,1.0027241358,-0.7752729934,0.2490029257,-0.4770615153,0.738295141,-0.8006741484,0.0764947924,0.0860795282,2.576016923,1.5928980626,-1.1258605117,-0.4405608275,0.5329006694,0.38108987,-0.3035611429,-1.0592136261,0.1734070367,0.3928306025,-1.4943626778,-0.6125114373,0.6145788116,1.3402679819,0.6957712826,1.136986344,1.918841876,0.0751582927,1.0355561709,1.2945642525,2.7348017261,0.9502773106,0.1846190018,0.3671019761,-0.7889088641,-0.3776681712,-0.0133885984,0.4838900438,1.3215938935,-0.9844042386,1.2638821103,-0.2550125387,1.3628880797,-0.3364746678,0.7715715123,0.0522854318,-0.6257239819,0.378298024,-0.5586405244,-0.542442031,-1.0714741657,-0.9566830743,0.2564514505,-0.8174377321,0.6708000287,0.7696822096,-0.8472184924,1.229701492,0.7245615493,-0.9992147148,0.0689262079,-0.4913112007,-1.7926277777,-0.0902454157,1.0119337131,1.4314296807,-0.016695207,0.4334690613,1.4334455625,-0.2670025722,2.9175651789,-0.1015577131,0.0932929308,-0.3977299963,-0.8997540441,0.1464718263,-0.086645085,0.5804128955,1.5162126184,0.0432894631,0.7536586309,1.2854069455,0.8701136812,-0.1754119324,-0.3969517135,0.7189407248,-0.6751480055,0.9404830211,-0.4700361024,0.2904646962,1.4933090001,0.529739948,0.3259234022,-0.326897308,-1.0238523542,0.5522774383,0.383826724,2.7273806,-0.4260461078,-0.9286185692,0.8393588193,2.9803518829,-0.405389546,-0.3184229222,-0.7384708341,0.591740768,0.4179371153,-0.3531642257,-0.0265735695,0.453595821,1.5794997331,0.8514598335,0.1029170079,0.4267752198,1.6653858403,0.9195748532,0.7572247783,-0.7479165278,0.8075316587,0.7711166448,-0.4120585506,-0.2388368773,-0.3763312427,2.029688905,-0.4063224898,-0.4913114736,1.4641998024,-0.5330492556,0.7396604627,0.4035879187,0.0938645331,1.1805939317,0.2432358106,-0.3181654669,1.0097629054,-0.9048780268,0.6019582032,0.7526357455,-0.7354408794,0.7569837232,-0.4189056549,1.5861395822,1.3426522512,0.4712084243,0.8079388792,0.752044751,2.4970161728,-0.6763267048,-0.1130912492,-0.0593674973,1.3380410766,0.4180039824,0.5063205367,-0.4563457122,-0.2050248516,0.6229553121,0.4532772781,-1.0455257287,0.7067049844,0.7819244374,0.5092952737,1.232011564,0.3387100856,-0.0987471614,0.3518663219,-0.9820679053,-0.133270247,-0.6180986835,0.5100351143,1.2251767793,-0.4646579518,0.5068872115,0.5957805264,0.3038537924,0.1891736099,1.3449240144,2.1624693162,0.6937160525,0.9600768597,1.0946965199,-0.1875549532,0.4778258892,0.5367146387,0.6753967409,0.6101940409,-0.6249007342,0.236632929,0.9085075066,0.8559441884,0.8736425588,-0.1063015279,1.1168915505,1.4183125631,0.5702887184,-0.7911462072,-0.9354584368,-0.5219228328,-0.6326657303,-0.2500405067,-0.0540144917,0.9766728366,2.716830951,0.6975378519,-0.7259408036,1.2215425995,0.6795199913,0.3957462101,1.3420403185,1.4591979496,0.122543492,0.47149,1.1795842646,-0.7014258062,-0.2772060231,-0.8164747032,0.0745324099,0.9712576854,0.2437781994,-0.2954513371,0.700493031,-0.0162043368,-0.8704689239,1.787532984,1.2185510526,1.5313738096,0.7043520737,1.6142340996,-0.5916248196,0.3897741588,0.6378131638,2.5367366903,2.4886678829,-0.5847229335,-0.8090119645,0.0207976259,0.4792047246,2.0584669468,0.0504457274,-0.472186243,1.5723914477,0.6526896735,2.2724902351,-0.5065501996,0.9213987863,1.7186898594,-0.1281806701,0.2535335734,1.3347417281,0.3472131003,-0.0560245,0.7689463471,0.8764394431,-0.502304544,-0.1074246568,1.0145102396,-0.8302072895,-0.6780692433,0.0481891273,-0.8558819535,1.2313678599,2.362500764,0.6106402011,-0.6794752183,-0.8667453815,-0.0475249564,-0.7410793886,0.0843177414,0.1762558433,0.3507747774,0.5871551555,-0.5438116122,0.812393976,-0.6119197536,2.9852702528,-0.4903998849,0.6822132276,0.5823315621,0.8868681653,-0.0709949415,0.6427111856,-0.2044318529,0.6059062458,-1.5852753079,-0.1087454975,0.1795301934,-0.817529304,2.8405354462,0.4503387247,-0.1412369059,1.3573754503,0.134796497,0.4634566719,-0.285188929,-0.3815856847,0.1268893589,0.3829221039,-0.7001793873,-0.4790484399,-0.2669577884,-0.422982643,0.2604933217,-0.5273516096,-0.0367060449,-0.1592530193,-0.1697361602,1.0318365297,-0.9864654542,1.4860863632,1.0865336004,-0.3214263648,0.5516277916,-0.2291263166,0.6440743848,0.7054821242,-0.5980707239,1.6244471367,3.0564430774,1.6354377816,0.9990780571,0.9574736699,-0.0562085398,-0.1721067658,0.00084893,-0.8694184359,0.4324028556,0.2335661594,0.331187836,-0.2370070467,0.3031520878,0.0489849638,-0.1779909515,0.1887460415,0.0635046646,-0.8793612766,0.8714401637,0.1911640007,-0.4957351495,0.1735534051,-0.9494261047,-0.8202852164,-0.3710006232,0.5802497069,-0.5161881146,0.5827567906,-0.448183586,0.4417735312,-0.0367177725,0.8696002895,-0.5443921702,0.1738688177,-0.5562172516,-0.1650254731,-0.647173216,0.1869065167,0.6001952322,0.611764486,-0.4239135684,-0.9775817381,-0.7879944812,0.3217451478,0.7472869592,-0.736988416,0.8090804592,-0.1448786079,-0.1253076707,-0.4482385243,0.4273754602,-0.5617562042,-0.0119212222,0.1736954368,-0.6631809789,0.060870571,0.0239869816,0.0979249577,-0.1339735155,-0.5594716604,-0.3134513488,0.580245651,-0.2777918336,0.5399472782,-0.5608639943,-0.269318526,-0.6091215126,-0.9905518593,-0.0731721213,-0.255222396,-0.8054470551,-0.6562254874,0.5372698991,0.5989569819,-0.7725190403,-0.0007055169,0.5939197565,0.9267904001,-0.353818126,1.1163961883,0.6050855897,0.8164740671,0.5373739809,-0.6855778503,-0.5079756953,0.7314737226,-0.5422233728,0.083235568,0.2923688083,0.0669872211,0.0527749773,0.7858367923,-0.0091183819,-0.1811439239,-0.1656379469,0.8327988399,-0.5511571207,0.3965287402,-0.2846093285,0.0775042581,0.5257285644,-0.5495533747,-0.0345620834,0.9616993784,-0.1701304492,-0.5327421447,-0.0365327254,-0.307011843,-0.515102455,0.92757199,0.0990824643,0.9477168625,-0.064564961,0.8326517675,-0.6558742109,0.6095748146,0.7782063015,-0.7633464064,-0.5655786484,0.7532620132,-0.237755071,0.8621861778,1.0421842645,-0.0563977386,-0.6145507405,0.1174279186,0.5401838921,-0.4730894559,1.0256796678,0.4910941028,-0.8771125366,0.764407474,-0.9114662298,-0.2504248022,0.1545372013,-0.79009435,0.1111508128,0.3948143871,-0.6393186516,0.0833331124,-0.0357356473,-0.3981112286,-0.0695486507,0.2276977344,0.7979010843,-0.6958048561,0.2124796539,0.5640944479,-0.5577418682,0.7713548327,-0.5469741997,-0.3711687349,0.7488693798,-0.0262908769,-0.4883016158,-0.6531172215,-0.206793449,0.208605425,0.444361887,-0.8746726017,-0.0844587797,0.7480531919,-0.3778294414,-0.5275204485,0.9169398071,0.9125243485,-0.6869045207,0.8938464807,-0.4136101922,0.6326975537,0.6275279686,0.2042404238,0.9157811748,-0.5092621214,-0.780067632,0.4346784351,0.0062769965,0.2175728949,-0.6285850258,-0.4650665433,-0.1429382421,0.5519595928,0.7561755463,-0.4392816967,-0.8048398896,0.7940675494,0.3301071774,0.5656206291,-0.3057321614,0.657943076,-0.0042923099,0.7754630102,0.8311015882,0.3504978186,0.3448907879,0.9707902312,-0.8442102285,-0.7942302139,-0.5670559489,-0.4500590473,-0.2622160375,-0.0535076465,-0.4908249253,0.4903384772,0.5997202552,-0.2095246502,0.5643697443,0.9554384958,0.5990484278,0.1035194962,-0.1326174925,-0.8808191371,0.59510884,-0.6598428571,-0.5476364841,-0.6748941399,-0.6155761021,0.5802730126,-0.9065519077,0.412364926,-0.834651562,0.0739792309,-0.9027433491,-0.2492528762,-0.6617154351,0.0679769905,-0.4497239599,0.8237793492,0.5817919441,0.8434538779,0.2126634181,-0.5543336329,-0.6133461831,0.1278703381,0.7071952447,0.1309950045,-0.1237662975,-0.4106108845,-0.4530387097,0.5837899885,-0.0796870186,-0.4898600291,0.8874585978,-0.7162154322,0.6920343744,0.2057752972,0.7504584499,0.7592124975,-0.6885650061,0.7588267661,0.8307783473,-0.8861755222,-0.2075152291,0.875059989,0.0623407304,0.0282538259,0.803934422,-0.5065269766,-0.8763144906,-0.1442673057,0.0208300482,-0.0979422203,-0.4555954936,-0.1593203441,-0.5733053969,0.8145078753,0.6501631468,-0.0754460721,0.6731530641,-0.1572620466,0.7295367361,0.8662873226,-0.6187755972,-0.4659550932,0.0950249359,-0.6589853496,0.9762206502,0.3667131489,0.4829228122,0.8351610835,0.2841652048,-0.1530995006,-0.8025939735,-0.7281586098,-0.1029141398,-0.4518536631,0.1136860656,0.5373804299,-0.314364286,0.5468355884,-0.295158666,-0.4784882905,-0.2234393006,-0.5686423488,-0.5602877389,0.5721197295,-0.380822203,-0.7527397797,-0.2592197713,0.113038122,-0.1882758775,-0.5825967175,0.5748810315,0.4185392885,-0.8494513786,1.0273759332,0.6534987701,0.9145279612,-0.1443832565,-0.0487660815,-0.5579438844,0.6395616125,0.391119665,-0.0045532756,0.6780540903,0.4432218274,-0.8711105391,-0.2103372691,-0.6359418249,0.604385958,-0.7527147308,-0.2560690323,-0.0838331964,0.3871050135,0.8039250669,-0.3083306046,0.117264947,-0.7439384563,0.9070944319,0.2164745814,0.0842582864,-0.9503225883,-0.6405735476,-0.6436612994,0.4547820778,0.9780690927,-0.2006615681,0.0962889433,-0.1784875016,-0.9266395276,0.7090536066,-0.1918776955,0.0528780598,0.7465638686,-0.9055975178,-0.0692563465,-1.0088838272,0.243740817,0.8615648425,-0.9210654664,0.3570183091,-0.2843080962,0.5328160147,1.0856969328,-0.0712542394,0.2968452035,-0.0050915403,-0.8079936626,-0.9693506996,0.8051415142,-0.1198743972,-0.7177841734,1.0473223643,0.1636562044,-0.4320780222,0.6407208109,0.8875042561,0.0814434225,0.4382275427,-0.9310510953,0.1071143857,0.1775926048,0.1161489405,0.8650182714,-0.0511995763,0.3786898007,-0.0367087474,-0.5183648966,0.6290803912,-0.3261437676,0.2273231211,-0.6924000581,-0.1479375586,-0.4737369963,0.1996896212,-0.8472328256,0.598108601,0.3425267916,-0.2202994081,0.2064278435,0.6609303567,-0.4224531484,0.0251987572,1.3445613876,-0.2230930321,-0.2556975031,0.6513520954,-0.8708138261,0.411632258,-0.0782030703,-0.709120098,0.2834431149,-0.0488709788,1.5971254408,0.4566350292,-0.4074385397,0.9439048361,1.5811046601,0.3763859715,2.7280434879,0.2249356062,0.2207771819,2.5082280331,-2.6582156933,-0.0320021932,-0.4667455342,-0.2758023258,0.6081137941,-0.5813344588,2.2362791671,2.701841031,2.528266822,1.140670914,-0.5953415355,-0.6548808889,-1.6119838799,0.0314491869,0.4433388758,0.9254890877,-2.5452308602,2.967538116,2.2273786917,-0.0232426789,-2.5911564549,-0.0445547299,0.0592362708,1.9034726682,0.6826815529,-0.5166768458,1.4450413963,-0.4296874386,-0.503574795,1.462382838,1.9568571725,-0.1472723168,3.0526530188,2.5261792855,0.2385279425,1.6335664438,-0.3452079979,-0.7444964631,0.4134000684
   1.7734215912,1.8898218,2.9322217885,1.1796030423,0.2701849685,-0.4765240493,0.5917092984,1.9262655797,-2.4438308388,-0.9806386633,2.8338532455,0.0312181571,-2.0975337447,-0.507265061,-0.6404401074,2.1719553937,2.7978350991,1.1491851361,1.6114033117,1.3044857228,2.4987682607,2.0561109788,1.6414793994,2.442791198,-0.7006663151,1.3429051712,0.2580243205,-0.1347129882,0.8390994678,0.5065728829,1.760637359,-0.5463651572,2.4011373708,-0.8280848463,2.8084473091,0.2286340418,0.5755906596,0.5561877443,-1.1667598329,-0.9456589565,-0.5789227131,-0.1265782018,-0.6243505649,0.0581842081,-0.2189595447,0.5381192482,0.4390156256,-0.268455351,-0.149474486,1.3816046576,1.9974888342,-0.2039229531,0.167967439,0.3236455595,0.0051896629,2.0052245471,0.6182017697,2.5545996818,2.7051012303,1.22939032,2.6405229322,0.9983224843,1.2395643784,-0.1020299116,2.3564245226,-0.1652195575,0.0846011888,0.8820343325,-0.1506765463,1.4585064303,1.9730092072,0.2682467586,1.6060800231,2.3674587881,-0.6202541353,-0.6316979306,-0.723208581,1.5657288843,-0.0986957666,0.8605919826,-1.5199862137,-0.5631604624,2.9066173922,0.8492674391,1.2829308004,0.6834171743,-0.5707301732,0.6215609016,2.9096176111,1.5996236649,-0.016730134,0.3273394526,1.9831984185,2.3780250743,-0.1805072276,-0.5842964965,-0.7837193387,2.1820380138,0.7347057591,-0.5997668114,2.0476912356,-0.1344489452,2.1307505328,-0.1684937166,-0.1465316384,2.529996185,2.8862976286,0.0683840099,0.1386654615,0.4860451351,1.3649935463,-0.1570288885,-1.5967322026,0.1290682676,0.580970069,2.7155512385,-0.2114316173,-0.1457216634,1.2926431155,-1.2517186266,-0.9091064178,0.1062425661,0.1729629761,1.7212638708,0.9277111683,0.7901090641,0.3207132321,-1.0025617125,2.7611162293,1.6482868468,-1.2239562623,2.9488965301,-1.5653259729,1.1701825349,1.5531114878,0.7863168595,-1.0904117158,-0.5364662279,1.9973290668,0.0488317792,-1.0735936246,2.4869752706,2.7167574695,2.0907340466,0.5845335868,1.1799851306,0.5268031913,-1.0151788348,2.2527411974,-0.9685950064,1.3864828832,2.6938443492,1.2199876387,2.4191428134,1.2855719762,-2.0284996431,0.7293847762,0.4222745613,2.3705418913,0.3380835647,0.1692759474,1.2253195948,-0.3462550695,2.9459179924,1.8268004692,-0.5576950917,-0.7915693769,2.331072264,1.6368251439,2.7405896917,1.3286582268,2.004040474,-0.2519502615,2.9661433147,2.6303847791,2.2436256182,1.3170179509,-0.4526209084,0.5593392522,1.5061908212,1.5065465316,-0.0012927299,-0.070918306,1.1691121042,1.8907406548,-1.2183340534,-0.5008188318,-1.3027848345,-0.3598501042,-0.3079612464,-0.5665478469,0.4829482322,0.8633013696,2.5816995129,1.3603434576,0.9017655311,0.4823458276,2.8720187,2.7145280888,2.4455507044,0.8379405011,-0.5212745332,-0.2145073521,1.6905552255,0.2069684869,0.4850451972,-0.2877700382,3.0005954179,1.7014866843,-0.006941267,2.6616527812,0.7811466305,-0.4728164386,-0.6566806007,1.0978216226,1.1576764347,2.5455716024,-1.3388346173,1.9636175311,-0.5347042419,-0.916943219,2.2661992829,1.1327628997,1.7507814096,0.0441351894,-1.347747744,-0.8456056776,1.2458930568,1.6911305937,-0.7028227048,0.4274343784,0.1006891928,2.613551054,2.008092017,-0.0582119997,1.4903817313,2.0473086105,2.1635256693,-0.9754770007,2.3576026323,-0.675762441,1.551303148,-1.1647385918,-0.2619245246,-1.6164173539,2.1932529908,1.7637740831,0.0131337772,-0.3119541474,0.36580409,-0.9057268461,2.8773335748,2.2136552071,2.7269131125,-0.5509616355,0.6147434829,-0.5546091677,1.8240633307,1.2666931309,-0.1727397812,-0.5269200205,2.6237238573,-0.5271999165,0.1935624965,0.696002996,1.301380953,0.8581670539,2.200565664,3.0798821071,-0.8452157396,2.8290514092,-0.555336551,-0.817729223,-2.934793367,-2.8421443383,-2.2176123144,-0.1271714806,-2.1152075341,1.9045312995,0.3081683537,0.1270527366,2.4837217089,-1.594595422,-0.4902024364,2.7651742593,0.0571891862,-0.4216060596,1.5728161562,-0.3384100906,0.5087167024,-0.3719907333,0.8342331626,-0.5116429815,-0.0002047038,0.2223857089,1.8659487072,0.6341359641,1.7551430081,-0.1304933307,2.1505391849,2.5155757855,0.5604571492,0.0094381797,2.8097850328,0.2520659884,2.9011940461,0.6617410787,2.017593909,1.4882726488,1.234467468,0.3892433064,0.0996159507,1.2734300556,0.2612028239,-2.3234789195,-0.5320341236,-0.4617385284,-0.7452970958,-0.1246489502,0.1271463091,0.3333478511,-0.1500119863,-0.0353805207,-0.546307246,0.6914211575,-0.4057209789,-0.9700369887,-0.2614192324,-0.8329494835,-0.7544020218,-0.8961859232,0.0886442502,0.011632061,-0.4528465275,-0.3378087048,0.1721911733,0.2191306864,0.9358013247,-1.7218910939,-0.8816021232,0.6193666002,-0.002008668,-0.2230480111,-0.5382813217,-1.7883047161,-1.0151598643,-0.0393265928,0.4291812284,-0.2376865586,0.2012993269,0.0063772862,-0.221811181,0.4255394775,-0.9150326799,-1.607861311,0.2294405472,-1.0071175128,-1.5261906529,0.3960097707,-0.4528949784,-1.0851726184,-0.4064075886,0.2835953594,0.4103715189,1.2324105486,0.1571870618,0.1574784721,-0.4907312339,-0.9695470134,-0.6563314946,0.8761059748,-0.0397705665,-0.8049861761,0.0941952991,0.5939286384,-0.3785228511,-0.2116108299,-2.6734428673,-2.863562598,-0.5068437071,-0.5067907522,0.3325113753,0.73415849,0.3906597363,0.6409830287,-0.0389529398,-0.7099372527,-0.104247113,-0.0290263636,-0.4761297523,1.1662495643,0.3981841166,0.3349896457,-2.1999108409,-2.5405997341,0.4214941926,-0.6665398173,0.5557721781,0.0472994666,0.5513831377,1.0954436708,-0.6223350961,1.2064782269,-0.0133958729,-0.4672578871,0.666167982,-1.4735369084,0.5179851983,-0.0838442891,0.2059061497,-0.6460705802,0.0642894698,0.5051862922,-0.7741345708,-0.3997223268,0.3151224099,-1.2455247603,-1.2694856037,-1.66446622,-1.1959107334,-0.0269589853,-1.166630232,-1.8243657154,-1.0699243685,-3.0285000866,-2.0286676946,-0.7719945543,-0.5892995436,-1.4316778938,-0.4872361898,0.0296844773,0.4532169754,-2.8331453446,-1.3138161303,-0.0259900331,-0.6492951861,-0.8210350431,0.8402459483,1.2633300722,0.6937383412,0.118496676,-0.3275278635,-1.0562391375,-1.2978230313,-0.4977885471,-1.1472418529,-1.6110334253,0.449065947,-0.0301402379,0.3548800268,0.5928712675,-0.1642014602,-0.4134573298,0.3741138742,-0.6993849536,0.7112442934,-0.4362793723,0.1145308524,-2.0603279058,-0.830196298,-1.0278314218,-0.3984286294,-0.7742859135,-0.8398287585,0.4801741171,-0.9490365566,-0.3218410345,-0.7415841589,-0.4142242477,-0.2808153657,-0.3063104373,-1.1478695456,0.8416354156,-0.1170466276,-0.0201684135,0.7902078994,0.1790207886,-0.0340073635,0.0891744765,-1.1552395701,0.2306535678,-0.0227108642,-0.5372859909,-1.7064651101,0.1382745101,0.5625086275,-0.2731954129,0.001976183,0.2975213747,-1.743079294,0.4502821045,0.3356201692,-1.5795779738,-2.128352131,-1.0099067301,0.5462670723,0.68138094,0.0787967445,0.8276334843,0.1361687742,-1.122061468,-2.8022791041,-0.4507110178,0.4159499509,-1.1645247388,-0.2695699722,-1.2002290382,-0.3826722568,0.3352819315,0.0558653945,0.221017805,-0.3550899286,-0.6453475101,0.9721138534,0.7611320483,-0.1430530598,-1.7722799551,-0.5175578083,0.5636478461,-0.1777577,-0.3648644727,1.1412720005,-0.4507147554,0.2112158404,-1.5277503963,-0.0986770134,-0.1281861843,-0.9824800017,0.3305602223,0.5498536225,-0.3397442866,0.4571929858,-0.0610378599,1.2505237228,0.2177246589,-0.9633343683,-0.495475364,-0.6799628208,0.3061304393,0.1568866455,0.3115574717,1.2436893744,-1.0289656848,-0.6763238091,-0.2948325358,-0.2816482223,-1.4165445543,-0.3045246204,0.5789403831,0.5100887363,0.2856805988,0.6493296828,-0.0671099861,-0.1513250959,0.3215135452,-0.2337500477,0.9189085613,-1.0418797173,0.4686067295,0.7294679937,-0.3752998721,-1.2508801084,-0.744018627,0.8995132026,1.2444701153,-0.6990977819,-1.4587595866,-0.7989625826,-1.1627255353,-1.8368388393,-0.3987735398,-0.9379474689,-0.2969195573,-0.3656613834,0.6979095294,-0.5894021074,0.1473685105,0.7021422016,0.8381882157,0.2189952298,0.1613373634,-2.2795575291,-0.4973935274,-0.3656650259,-0.2764975697,-0.2716302349,-0.5864855551,-0.2191810902,0.2500382175,0.0746230794,1.2841118292,0.0910281419,0.0276810536,-1.275206974,-0.6866880297,-0.4254696503,0.6455650534,-1.4454214314,-0.2549002085,-0.5551185289,-0.8829632092,0.1798560122,0.2270698648,-0.8308465769,-0.4973325485,-0.3297166308,-2.3030271186,0.5426763446,0.4137517608,-1.8669652745,0.5226873379,-0.0836215906,-0.1071431803,-0.2030048591,-0.1695571955,0.3624467141,1.3006516516,0.0900971303,-0.3273894414,-0.5620192815,-0.6567848857,1.1839859208,0.2094352287,-0.5644614218,-1.1315632779,0.4009419148,0.6661771847,-0.9482297922,-0.3477041741,-0.5100592238,-1.3663242997,1.1332015376,-0.1843259381,0.1764154312,-0.3747247562,-0.0537028641,0.4209547418,-0.6229335107,-0.2531355107,-0.4432199995,-0.071911125,1.2300330966,-0.0979916383,0.2764228652,-0.5875026349,-0.7122607305,0.4071801293,0.3957998796,0.3298803414,-1.1941709047,-0.3888727252,-0.2261642583,0.6597376612,-0.3969833469,-1.3921379289,-1.2921822755,-0.0378157487,-0.7546809401,-0.285666053,-0.1245905015,1.1474208362,0.784679071,-0.6587628306,-0.1139724649,0.8267305349,-0.2319360071,0.2803503779,0.9821587591,-1.0075480946,0.3896504189,-3.0212276807,-0.7517827362,-0.0260099918,-0.8051619672,-1.4480323549,0.9460454113,0.2215802346,0.0516921995,-1.156708154,0.7622906551,0.2768494471,-1.9043609672,-0.9574980182,0.0035355075,-0.7598709201,-0.5666499703,-2.0172572039,-0.3837655548,0.6144446585,-0.0760471471,-0.2471735731,-0.3424717038,-0.3790430805,0.1395218347,0.1178283845,-1.3484197032,-0.8343901586,0.3401283915,-0.0877797822,-0.0858975803,0.601990177,-0.8267637574,0.693535576,0.0699023031,0.1614965206,-0.5578369145,0.1172373069,0.4029896522,-0.3999373527,0.5536432861,-0.0750446463,0.6508910844,0.1513622611,-0.703826108,-0.0562078802,-0.5729407014,0.8238764473,-0.529147952,0.8240345792,-0.1572515133,0.3178738845,-1.4802319252,0.152160755,-0.5923018218,-2.7979893171,0.3152153572,0.5557219864,-0.3802000836,0.7405603956,-0.617469995,0.1133744944,-1.058445882,-0.9598718025,-2.7443275849,-1.2657314693,-0.1648715867,-0.7589545524,-2.8478531188,-0.4439721286,0.5701621517,-1.0634337919,-1.0156271447,-0.8564519869,-1.1520918128,1.0028387849,0.1618592718,0.3340423591,-0.5510503835,0.0883122322,-0.8397987242,-0.4015540333,-0.552142894,0.5425816171,0.4982117241,-0.7186232175,-2.191906364,0.1795144674,-1.9129634679,-0.3279706298,0.9093339495,0.6779579299,-0.481566324,1.0551413174,0.6836016468,-1.1902262232,-0.2945537591,0.9810419903,-0.248892871,-1.7835409023,-1.2237477699,1.0239515539,0.3912507764,-1.2709152039,-0.0111224609,0.4654074319,-0.453833329,-0.9210795439,0.2313930833,-0.6657318264,-0.7731125886,0.0261434354,0.0786553988,0.8007126355,0.8408703506,-0.1216746052,0.8736912566,-1.3886105415,-0.9776587437,0.3136684301,-0.9142532725,0.1931935928,-0.3465198297,-0.4114001101,0.4200308536,0.5889240656,-0.307016919,0.9742371899,-0.6423823888,-1.5837440481,0.4722190601,-1.5778967234,0.9336621725,-0.6669666541,-0.5155316662,-1.0166363357,-0.1283321592,-1.3733471065,-0.9148837653,-0.1161392255,-0.6977033223,-0.4937443622,-1.7811039421,0.4288194622,-0.00431994,-1.8898004981,0.7975734847,-0.2378283014,0.1540266252,-0.3937354156,0.3262353403,0.5365988246,0.1019352163,-0.3167771844,-0.4839933835,1.0559794792,-1.0360152018,-1.470296318,0.9781230231,-0.0527119216,-0.3352358608,0.439871511,-0.5745415577,-0.4987654579,-0.6799902497,0.326691113,-1.2353646638,-1.689810704,0.753956091,-0.2498157872,0.7382696054,-1.8638758892,-0.2674106535,1.0281598343,-0.9058714965,0.6073494123,0.4197154288,0.6348536828,-0.4982122048,0.9798042081,0.0317609601,-1.1640309011,0.79233277,-0.3779509968,0.187828048,-0.0593059289,0.3390516976,-0.8197014467,1.0004650808,-0.5471353286,-0.7498096225,0.0650668289,-0.2339146632,0.7427109223,0.113050584,-0.857993972,-0.5831756911,0.6544125523,0.9371369165,1.0936867605,0.6357519687,-0.2676259271,0.9803135704,-0.8509737017,0.8342056512,-0.9519574449,0.2333331491,-0.7504889453,-0.4540501301,-0.5221731341,-1.9886810668,0.3704923031,-1.5678640458,0.3793206376,0.104380527,0.3286945995,-0.1994490266,-0.8111458793,-0.663162688,1.0732426248,0.7234475509,-0.0048648283,-0.4643240639,-2.3827547019,-0.1043316766,-0.5985231626,-0.4646475668,0.362084301,-0.2935884558,0.591395861,-1.0482297851,-0.5248578246,0.0286478655,-0.2817836032,-0.7001517911,0.1491505444,0.7821463256,-0.6361923935,0.3206314627,0.525938672,-1.1775623791,-0.5306765976,-0.345073356,0.985372038,0.2765657258,-0.0213162833,0.1211080748,-1.1969221497,0.0638765038,0.639207412,0.3143319924,-0.2141384757,-0.1386259909,-1.4924574796,-0.902120987,0.8646509918,0.0545725485,0.378287833,0.5937448279,-0.4189690188,-0.0922296819,0.8079296541,0.0827784918,0.5974429793,-0.674936429,0.9057806631,-0.6222163238,-0.0405305571,-1.1088654216,0.404189766,0.7174721344,1.1086376672,-0.643828957,0.3233059515,1.1660992823,0.0149820649,-0.2921677281,-1.4654963438,-2.1496635353,0.3634778422,-0.9657222682,-0.7783166292,0.0778399924,-0.2021069465,-0.4278772835,-0.5876785202,-0.4756774087,0.4449349594,0.6280514324,-0.0090564766,0.8044141534,0.8437754198,0.2719251889,0.5709754507,-0.0099007767,-1.291212933,-0.9057627756,-2.8748102301,-0.1868579472,0.6289516901,-0.2395768746,0.4064493701,-0.4934278177,-0.4861217067,0.618805725,0.5419859617,-0.5664905254,-0.6126043624,-1.1198000826,0.9918844416,0.7494835896,0.254522728,-0.7247577576,1.0162488427,-0.0954073318,-0.835794123,-3.0304555922,0.0121544116,0.0628511488,0.4378289429,-1.2950895032,-1.0282964163,-0.6840568516,-0.2994935721,-0.6733377148,-0.5721629954,0.7202935238,1.1208325962,-0.0529485612,-0.0362394789,0.6655307356,0.8903262906,0.199950503,-0.3745827142,-0.4787720299,-2.672753074,-0.049728441,1.0092768923,-0.8802725774,0.0360458984,-0.9564769213,-0.4510267529,1.0924118394,-0.4265111857,0.7279561095,-0.8638340738,0.8982492473,0.7822070951,-0.4377948348,-0.5457409379,-0.6175131591,0.5739860116,-0.1380235827,0.697808241,0.5177760597,0.1827423908,-0.2356718757,-1.9210271336,-0.6558238616,1.1420821515,-0.682678186,-0.0580103818,-0.2460369487,-0.85587985,-2.9904938303,-2.7143452817,0.0168425379,-0.699909591,-0.2311397565,0.1345722104,0.0897664011,0.0827641404,0.7165489358,-0.2054412725,-1.097442678,0.8719226314,0.7772210267,-1.4528474163,-0.1365633603,-0.9032984909,-0.9109997967,0.660516143,-0.2426218303,0.1159931003,-0.5685606705,0.0172035879,-0.0648686417,-0.2177219009,0.6972500543,-0.4584618269,-0.4978041778,0.0391009243,-0.7691095611,-0.3944723771,-0.5764206485,-0.8913217925,0.0230741191,-0.2493476311,0.5244293546,0.7485607778,0.7270668533,-0.6855887234,-0.8138236526,0.951228315,0.856974674,-2.4115753039,-0.2930181269,-0.7679401988,-2.7007356611,0.0639970724,0.1872995031,0.4764389807,-0.3001603646,-2.0832515796,-0.7042628069,-2.738495256,1.0019006198,-0.8292419974,0.1461641844,-1.37916232,-0.4515845222,-1.1214199617,1.0939031133,-0.9333413381,-0.8310345888,0.7391684859,0.7471534006,0.5397701938,0.2264254835,0.2010908349,0.2958316543,-0.1509183589,-1.236735486,-0.2928152524,0.3939003825,-1.2920130801,0.3316156479,-2.4520445964,1.6538397405,-0.2471668653,1.5241722947,0.0244592914,-1.0300063259,-0.1598034486,-2.4126382894,-1.8609236209,0.2403508704,-0.8962463562,0.1172739802,0.5828981008,-0.424085124,-0.3916801404,-1.9479165329,-2.1492388353,-0.4060935349,0.891575888,-1.1619116329,-1.7549822745,0.6539476023,-0.3099259017,-1.3815252672,-0.5696122771,1.0308741895,0.1975044436,0.2315839643,0.4871118634,-0.8194085002,0.5336428597,-2.4005284661,-2.1201979185,0.2205965384,1.4288310247,1.4229337685,1.5228626537,0.9305039042,-0.8632005041,-0.8252417579,-0.6364095682,-0.3917033671,-1.5575892576,-0.3493400972,1.0733582094,-0.5500462029,-0.3413698324,0.0007933322,-0.8369410253,-0.2225036402,-0.4312375958,0.6077761123,-0.021456411,-0.0967724114,0.3102044369,0.6897827258,0.7809429104,1.0390972651,-1.6277458985,-0.557376639,-1.9467762264,-0.6324852632,-0.9474168924,-0.664282771,0.2210606653,0.70832581,1.4080324192,-0.4928320001,-0.4930371445,-0.508233399,-1.1081314095,0.1791193003,-0.1833548636,-0.8773404498,-0.3703015152,0.8212737207,-0.2825559088,-0.3857212141,-2.3950367418,-2.295660752,-0.1540911263,0.0819782114,-1.9054936149,0.4648816766,1.5047283407,-0.4369497618,-0.5549319939,-1.6378154681,-1.469511943,-0.2201967208,-0.970981056,0.1523801052,1.1221930901,0.7622966932,0.2694190616,-0.1963984115,0.5614823277,0.0266114775,0.0833425747,-0.9748444791,-1.1768123441,0.4323923566,0.281642096,0.5185983762,0.9406959057,-0.1215998524,-0.2070936494,1.4167675016,-0.314866096,-0.6144240851,-1.117792301,-0.1984610203,-0.0232963316,0.8460910856,-2.5991303998,-1.4347292424,0.9191314911,0.4276507834,0.5822630203,-1.3457467615,-0.6986975011,-1.0968786694,1.0727099427,0.3622909934,-0.3723030589,0.7535708391,0.4344949994,-0.0410281138,0.1284760275,0.082983134,-1.1211762496,0.5538316077,0.1893251164,0.6724139381,0.8150536896,0.1550439066,-0.3569600206,-0.0203205977,0.7787724598,-0.7630166135,-0.1046272379,0.0571096494,0.1715813921,-0.3840279356,0.9642591499,1.3386371367,-1.2242132983,-0.1202627407,0.1766629781,1.2324709502,-0.4187017836,-0.4964536322,0.5124057026,-0.3134353694,-0.8217341719,0.6258228553,-0.7251526691,0.9610404134,1.0769425763,-1.54581311,0.7358635781,0.4717693328,0.5250050547,0.7668264061,-2.1474820861,-0.1378226037,-1.5306981477,1.2287072942,0.9143686349,0.1605971951,-0.4328972736,0.4290358812,-0.1726353475,0.3305135597,-0.8897232078,1.625540799,0.5268454337,0.349575411,-1.1094207489,1.2861633073,-0.2424584356,-0.9255391623,1.0341146839,-0.8269182746,0.9801323289,0.9404756164,0.3850526122,1.3493354072,-0.158239498,-2.7464988583,-0.8930400802,-0.1260320212,1.1314689917,-1.1786451728,-1.3007262133,0.1077498735,-1.2925860159,-0.3042972721,0.1552180241,-1.1016986902,0.2127360299,0.6239485026,-0.3896313827,-0.1523568962,1.0172410901,1.0193262156,-1.4342795459,0.4242917114,-0.7534499148,1.5433767543,1.1479583251,-0.7035097254,0.6614173355,1.1053991072,0.2219132128,-0.6735740666,0.463259753,0.4675039635,0.3918301388,-2.2298467794,-0.5931879539,-1.957032731,0.0376003498,-2.1630106365,-1.3737347055,-0.6974464447,-0.2317514235,0.5385031287,-0.5028831087,-1.0610224645,-1.5693514952,-0.1777418828,0.0736780645,0.9764993407,0.7394234375,0.7311912219,-0.2631864173,0.4726340592,-1.6695126654,-1.0139302434,-1.1984588659,1.1066720882,-0.1183105338,-0.6003746957,1.2877524253,0.0676523864,0.0823497743,-1.0793234454,0.7867127705,0.4205368873,1.2563815531,-0.2977105358,0.5174452588,-0.2160559476,-0.2452494479,1.1800120262,0.2872843236,-0.1420666436,-0.5584398531,-1.9331046077,-1.3648969475,1.3396074342,1.4919689835,-1.2715689937,-2.8475191284,0.9351344946,1.1882103551,0.7878354392,-0.7344813849,0.3488161089,0.2781999495,0.1467496141,-0.9923840341,0.9547927146,-1.2745292105,0.3799506249,-0.2319918042,-1.2566696454,-0.891642793,0.0489198546,-0.338844804,-1.8349698326,-0.079102323,0.2697456328,-0.7087183662,0.9173891614,0.1065343991,1.1431570193,-1.2634576783,-0.7854383212,-1.0481481056,0.1570998492,-0.5127166132,-1.5996440702,0.8400350808,0.646983933,-0.0469833567,-0.8450784378,-1.1211355511,-0.2247426073,-1.1401681224,1.5498575699,1.5599094783,0.536199797,-0.5914115583,-0.0407436873,-1.1108444252,-1.1710611042,-1.4242588742,-3.0411006197,-0.6057530417,-1.4476204032,-0.2306027238,0.0017800834,0.8478041866,-0.0317303339,-2.9675836499,-1.0091520838,0.196839023,-1.4386565552,-1.159850512,-0.0003931003,-0.6383833513,-0.5519131157,-0.5740782992,0.0977901054,-2.262496674,-0.5638407829,-0.927004166,0.1624953759,-0.8845192877,0.8169402706,-0.0794809312,0.2767427427,1.3313905195,-1.3701080385,-0.183933641,0.9077761462,-0.9605884883,1.3858413486,-1.1807014795,1.1471066804,1.3854256976,-0.1087383738,-0.1640930776,-0.5999370082,0.4217485636,-0.3415322582,-1.5648079369,0.1654471269,-0.609486037,0.9993508051,0.0594730745,0.5918351782,-0.6077503216,-0.7089456212,-0.2520234106,0.1645699859,-0.3737344885,-0.7700390746,0.3709395734,0.2216219534,-0.8312899592,-0.7904423798,0.9267586427,-2.9534553215,-0.8541156446,-0.2651883306,-0.3727186311,-0.5139654576,-0.9863547859,-1.4310670478,0.4992149996,0.8537205447,-1.0957798265,-0.141214545,0.6003162322,0.3513857718,-0.43583643,-0.1304629726,-0.5939474756,-1.6626461292,-0.6303978116,-1.1624760226,-1.4810331684,0.2832403149,-0.7488194123,-0.5313513583,0.4297445585,0.0870812142,0.4031374066,0.5659734064,-0.9433380031,-1.8329137256,0.4339679812,0.7004071519,-0.1257347197,0.7415026973,-1.1554684256,0.1614316293,0.909521276,-3.0638245604,-0.1769663265,0.4399886836,-0.8694907708,-2.4386368803,0.1752957411,-2.9008224218,-1.4360909187,-0.6513023882,-1.7819510291,-0.9896613544,0.8100675544,-0.3471771161,-2.7482319628,-1.9261495239,-1.7063790488,-0.1404061512,-0.6316547054,0.6664547699,-0.3741041987,-0.2223973073,0.7152393909,-0.2602163946,-1.1305516825,-0.7842437971,1.03960111,-0.1620363316,0.0216812458,-2.7460439082,-0.8082675508,-0.6757686281,-1.9749175213,-1.4271733842,-2.1090009859,-0.9028419701,-1.7013012632,-2.1472784047,-0.9573522579,-1.6711641503,-0.6249716442,-0.8442378867,-0.5275374399,-0.660782597,0.2472851505,0.4634999283,-2.5863647217,-1.003689899,-1.3888921995,0.049323668,0.8362986404,-1.0171088576,1.1890845778,-1.1667586081,-0.3819723188,0.3264778317,0.574948971,1.4947356988,-0.810796323,-0.1656288191,-0.7702038911,-0.2019676353,0.1167036703,-1.1096542657,-2.7903382656,0.2530628359,-0.0657000096,-0.4611846781,1.7729135837,0.2133952693,0.4329305958,-0.5640304522,-2.4322563105,-1.371858653,-1.6200965011,0.8119250278,-0.0966899517,0.1804031392,-2.833577269,-0.2141296233,0.6501404648,-0.9765255625,-2.873014122,-2.9666695685,-1.4450178054,-0.0108639141,-1.7841727085,-1.1388070553,0.071178419,0.1693815512,0.6900065149,-1.9320022427,0.1979830712,-0.0424102568,-0.5522264401,-0.1854745124,-1.2268240492,0.9346074329,0.2729902011,-0.8125477873,-0.0514865133,-0.0083156374,-2.585881609,-2.4640211277,-0.5097001211,-0.8357480697,-2.7119901816,-0.4480009672,0.3282579331,0.2162972411,0.8421309147,-0.852058598,-0.4266998413,0.4392962947,-3.0360147846,-0.9828455388,-1.1922871437,-0.151952712,-0.0078139946,-2.2340986507,-1.4096417748,-0.422257158,-0.0932200222,0.4795813182,-0.1404589397,-1.2767752071,0.2315558824,0.7604923244,-0.1284815589,-1.1895091283,-0.3153128111,-0.3256696488,-2.5960438529,-0.4569116227,0.6895192839,0.0943321068,0.3868189319,-2.6460518409,0.5637334539,-0.2991369853,0.7294576132,0.8540889409,-1.6841380715,-1.4667429409,-0.2591490541,-2.0546161656,0.859310942,-2.2892290177,-1.2945145386,-0.7549263723,-0.4961232227,0.7632711743,-0.8789748715,0.1310287011,0.5009982193,-1.6695242281,-2.0187539608,-2.1341340754,0.0592230743,-0.767311438,-2.2795127381,0.4560335858,-2.8763859305,0.4002728504,-2.0997718414,-1.9578442677,-2.4090106305,-2.0100969271,-0.8208360995,1.3302325959,-0.7474065463,0.5994445005,-1.8092023576,-0.606186643,0.6355848618,-2.9298326988,-0.648656365,-0.4099825726,-1.5118960735,0.123213312,-0.3881629712,-2.4588426987,-2.9467241343,-1.0834449263,-0.060355348,-0.0200584362,0.3084344422,-2.1065898189,-1.9917942143,-2.5394008608,-0.6461894596,0.1063741945,-2.9978798596,-1.4702015935,-0.9384592767,0.4070245121,0.1311903094,-1.4587233569,-1.1848521011,-0.5089491183,-0.835058632,-0.8335762404,-0.9860871892,0.6929891175,0.2441613606,0.3833855163,-0.0900963093,0.2280267937,-0.1379718483,0.18238378,0.426792497,-1.0372759695,-1.6306741431,-1.0332481008,-1.6833298413,0.741012543,1.0144753012,-1.1092774698,-0.9428964405,-0.5012139686,-0.4828031992,-1.1959150738,-2.8061486103,-0.090873682,-1.2627340057,-2.9902297286,0.3725841592,-0.7271341127,-0.8857160995,-1.8815660399,-0.154817571,0.0601939362,-2.5053474011,0.5120016211,-0.6018005191,-0.9927797958,-0.7161686987,-0.1355063162,0.4273452951,1.1527462461,-0.6114853217,-0.5319112505,-0.4045026153,-0.1360212565,-0.2573923268,-0.7865021232,-1.2056543976,-1.6064065474,1.066370937,-2.0826468801,-1.398158442,-1.4084147771,-0.4986048667,-2.2786574431,-0.1785433925,-0.2415046337,0.6494544732,-0.7319551382,0.2638033678,-2.4431895219,-2.6975123625,-0.3924178481,-0.9629491079,0.8659643525,-0.1084215694,-1.8607855628,-1.239406416,-2.7900603482,0.7894854707,-0.5912393271,-0.7779154818,-1.4016479992,-1.4656278879,0.4314534939,-0.8439140171,-1.5912850929,-0.7025262161,0.134509529,-0.0803050616,-1.1049900344,0.9867199481,-1.8253036663,-2.7615517655,-0.5962878848,-2.4156295695,0.2812689775,0.8053800101,-0.5663416274,0.4487904192,1.0090197249,-0.2847446246,0.3693182829,-2.5118444049,0.249771614,-2.4317547643,-2.5591623386,1.386489369,-0.8092223451,0.1161407524,-0.325151145,1.2220863598,-2.7676867882,-0.2973073382,0.6531686889,0.9873934412,-0.869972292,0.9623835297,0.8697576041,-0.3197639591,-0.3562802551,-1.4769040255,-1.2513792732,0.3815918598,-2.0520938869,-2.5492699965,-0.9384602898,-0.0343395485,-2.9869533241,0.0953270145,-1.1151214079,0.4864428329,-2.2736902343,-2.9197475766,-2.463281901,-0.1756490819,-0.3865442366,-0.0490222767,-0.0782119046,-0.9632334705,-0.9096298907,0.4799805092,1.081364331,0.7813844496,0.189538127,0.4578006334,-0.5127287971,0.4964455196,0.5631280212,0.389011,0.2481369081,0.7921957821,-0.7708105842,-0.4936337821,-0.366028464,-0.4527727041,-1.0416266444,0.0814851472,-0.0195889219,-0.8220128061,-0.6695019232,-0.5671369818,-0.2847719532,-0.4911869774,0.1800604623,0.7069466745,0.5687070314,0.1893658847,1.1168622475,2.6244732396,0.0140967838,-0.4610888994,-0.6460928466,-1.0543958599,0.3747532624,-0.31863582,0.7578920852,0.7705884355,1.0939071044,0.5193664752,1.1738602075,1.4637122932,0.2253433191,-0.5781245518,-0.9214131223,0.0049749968,0.7686265279,0.8663517168,-0.027248297,-0.4229396867,-0.0378078518,-0.5316164089,-0.5582145204,-0.7748651817,0.8699530008,-0.3452889114,-0.3707172316,-0.3973088867,0.28844608,0.0145385618,1.1774607951,0.7255380996,1.2330410204,-0.6564175726,0.1752056638,-0.4782401961,-0.740719116,-0.2405670655,0.0289663624,1.0693824971,-0.399372221,0.0764429337,0.874932425,0.1187329539,0.3658064702,-0.922226525,0.7530849981,2.5271710793,2.6230831789,-0.4609574868,-0.5958435335,0.1491277868,-0.6580331787,0.8423542019,0.6856667206,-0.3016960785,-0.2741834062,-0.3994164181,-0.0682521019,0.2034963095,0.4104191163,0.8108843188,-0.1152200626,0.3428987533,-0.1778625226,0.3150352073,0.28018659,-0.1521598282,0.8648416491,0.0116048006,0.2512543883,-0.4342604434,0.7487733117,0.7823144628,0.2967769214,-0.1756370421,-0.2999549972,-0.1660704607,0.5222799036,0.1413187591,0.5912664047,0.9072985241,-0.1216020621,1.2265733857,-0.9234483766,-0.9577919978,1.0923559661,0.0565825585,0.4130288548,0.1645247664,0.6901281428,-0.0384375668,-1.0892803249,0.7763289412,0.2367628283,0.2976844105,0.0171042351,0.5813310177,1.1846239723,-0.4715068038,0.9997280284,0.3707899653,-0.5561149611,0.6500658189,0.0135323054,-0.8167637404,1.3595262797,-0.3412930635,0.2522471442,-0.2623028736,-0.147195154,1.7621580351,-0.1500017233,1.7972355733,0.4311468868,1.2258973862,0.0432049336,0.7360673272,0.2967038187,-1.0584615401,0.4884353604,-0.6616042051,-0.2870830724,-0.50072485,-1.3043799205,-0.7809913684,-0.635741405,-0.9369254849,-0.9526801322,0.3621878097,-0.5028576548,0.3917561447,-0.3743013748,-0.3806221823,0.2196071758,-0.5561665429,-0.8046765717,-0.3243040692,0.7541520827,-0.2516373509,-0.4489464523,-0.1187682297,-0.1628031275,0.9060376538,-0.1722955151,-0.625559762,-0.5645052038,0.761656893,0.4049640322,0.9264879755,0.3739688744,0.3234275235,-0.3919677683,0.3767387963,1.2457361026,0.2538968948,2.7451380129,-0.717558439,0.391593501,0.7896532304,-0.2362129973,-0.6203550698,-0.5047664706,-0.8090847106,-0.1883108825,0.7840590213,-0.6849082083,1.1462952593,0.4455630694,-0.6537924371,0.5540816326,1.3032523329,-0.9771191837,0.4997119365,-0.5244017162,0.6655306746,-0.2719666048,0.759010732,-0.2544200458,0.855124291,0.6942946623,-0.1735202555,0.2894696042
