encog,BasicNetwork,java,3.3.0,1,1576422367275
[BASIC]
[BASIC:PARAMS]
[BASIC:NETWORK]
beginTraining=0
connectionLimit=0
contextTargetOffset=0,0,0,0
contextTargetSize=0,0,0,0
endTraining=3
hasContext=f
inputCount=379
layerCounts=2,16,64,380
layerFeedCounts=2,15,63,379
layerContextCount=0,0,0,0
layerIndex=0,2,18,82
output=0,0,0,0,0,0,0,0,0,0,0,0,0,0,0,0,0,1,0,0,0,0,0,0,0,0,0,0,0,0,0,0,0,0,0,0,0,0,0,0,0,0,0,0,0,0,0,0,0,0,0,0,0,0,0,0,0,0,0,0,0,0,0,0,0,0,0,0,0,0,0,0,0,0,0,0,0,0,0,0,0,1,0,0,0,0,0,0,0,0,0,0,0,0,0,0,0,0,0,0,0,0,0,0,0,0,0,0,0,0,0,0,0,0,0,0,0,0,0,0,0,0,0,0,0,0,0,0,0,0,0,0,0,0,0,0,0,0,0,0,0,0,0,0,0,0,0,0,0,0,0,0,0,0,0,0,0,0,0,0,0,0,0,0,0,0,0,0,0,0,0,0,0,0,0,0,0,0,0,0,0,0,0,0,0,0,0,0,0,0,0,0,0,0,0,0,0,0,0,0,0,0,0,0,0,0,0,0,0,0,0,0,0,0,0,0,0,0,0,0,0,0,0,0,0,0,0,0,0,0,0,0,0,0,0,0,0,0,0,0,0,0,0,0,0,0,0,0,0,0,0,0,0,0,0,0,0,0,0,0,0,0,0,0,0,0,0,0,0,0,0,0,0,0,0,0,0,0,0,0,0,0,0,0,0,0,0,0,0,0,0,0,0,0,0,0,0,0,0,0,0,0,0,0,0,0,0,0,0,0,0,0,0,0,0,0,0,0,0,0,0,0,0,0,0,0,0,0,0,0,0,0,0,0,0,0,0,0,0,0,0,0,0,0,0,0,0,0,0,0,0,0,0,0,0,0,0,0,0,0,0,0,0,0,0,0,0,0,0,0,0,0,0,0,0,0,0,0,0,0,0,0,0,0,0,0,0,0,0,0,0,0,0,0,0,0,0,0,0,0,0,0,0,0,0,0,0,0,0,0,0,0,0,0,0,0,0,0,0,0,0,0,0,0,0,0,0,0,0,0,0,0,0,0,0,0,0,0,0,0,0,0,0,0,0,0,0,0,0,0,0,0,0,0,0,0,0,0,0,0,0,1
outputCount=2
weightIndex=0,32,992,24932
weights=##0
##double#24932
   0.948205572,-0.1397232758,-1.342569899,0.3090364916,-0.774032328,-0.8521684966,1.3909345362,-0.0755817781,1.5447368847,-0.2460900024,0.6955830023,0.9224799108,-1.0002714258,0.4989382287,-0.2493230867,0.5672276152,-0.3775981913,-2.4201104928,0.5622460533,-0.7242999266,0.4861734313,0.3101144608,-1.0153535328,1.0533498088,-1.7986899503,-0.7169750682,0.6754540947,-0.8765607296,0.7901432375,0.87001963,0.7821731535,-0.7647405057,-0.1647980665,0.8463523218,0.9627674015,-0.0764608522,-0.9645826822,1.1976069962,2.6392918592,0.7107279097,0.9837549753,-1.2471861515,-0.0938986176,-0.1762105389,1.0516361169,2.5079796683,1.641192111,1.1648560769,0.6522098517,2.0039974314,1.2224498948,-1.1751494598,0.5309335595,1.2815742034,-1.1042336008,0.9924006311,1.3056135652,0.7273601438,2.6047751831,1.9544367391,-1.1509771729,1.3038510099,0.4554103986,0.3194458742,2.5385254213,-1.3133213161,0.3022489318,0.5729000467,1.8435934411,1.8975643399,2.3870085432,1.0968207554,1.9885162063,-1.0437729738,1.4846293882,-0.5367929571,0.8543487224,0.923801938,1.5912581708,1.3679808945,1.2002081621,0.949140544,-0.1985023246,0.6991178058,-0.2384131629,2.1268833271,2.2278635373,1.1262477534,0.4992082299,1.8322569681,0.8679278178,2.4368962417,-0.5391959534,-0.9319766594,1.6036540186,0.9153549828,0.8460962744,1.3157137813,-0.3502488463,-0.9997529074,-1.0631019981,-0.427702287,-0.7134212168,0.3044996279,-0.1341776649,-0.6222853164,-0.4851746536,-0.1462769609,0.8846494778,0.3169585153,0.2615887783,-1.0119657603,-0.4861075548,0.3180788918,-0.1903762586,-1.0308592273,-0.4260235466,0.1139755902,-0.9459196152,0.5517889034,1.1874250682,0.2169049056,0.7742043507,0.8919971064,-0.8866217684,-0.4857747662,-1.0792855328,0.5438537848,0.3547374766,-1.2606938587,-0.8491888041,-1.0103340066,1.1797877076,-0.5512249112,0.1915532516,-0.1028532855,-0.4944783139,-1.5042128821,1.0847357899,0.5933709833,-0.504416593,0.9311599478,0.9930762886,0.8478288594,-0.4752710911,0.1258715622,-0.14892511,0.6157907125,0.0850646836,1.2157900371,0.1105625853,-0.503861542,-2.6371066799,1.2233475747,-0.4548708467,0.5511508956,0.4137775754,-0.0803350558,-0.7982648363,-0.4541631751,0.9612335177,0.1147902285,0.3137518888,0.7986469865,0.7342417691,-1.5268683253,-0.0618801227,-0.044829981,-1.3235775077,0.2825595859,0.678059329,0.8772959704,-1.5886769572,-0.8428196664,-1.8646543115,-0.2459541086,-0.2279397177,-0.5457171876,-2.1294404948,0.0360099605,-0.558617786,-0.2263129513,0.2522060078,-1.4822056932,-0.9986660748,-0.157772538,-1.0396593982,-0.9716419531,0.2055552135,0.0529623174,0.0141472873,-0.2847544521,0.1321864879,0.9875485225,0.60066964,0.5115751401,-0.4020532919,-0.0021872157,-0.4811988467,-1.1148676965,-0.9655218759,0.4279637982,0.5301424818,0.5000888259,-0.1814511381,0.641241082,-1.1330737399,-1.1910607888,-1.270137554,-2.3389738971,0.5134609135,-0.3683360338,0.8635792092,-1.3948606039,-0.3787010223,-0.18843814,0.9652946991,-1.4669536567,-0.8504589738,-0.825732715,-0.0071217684,1.1636153314,-1.0930907524,0.8542588684,-0.5462555746,1.9528724595,0.5359389994,0.0491039211,-0.6118240084,1.3326731296,0.9646562402,-0.3124008644,0.8900727786,-1.1385608869,-0.0010326029,-0.1615888897,1.4856738127,1.6645974198,1.1525612517,-0.3769877739,-0.5422478586,2.1077776245,0.9371303712,-1.3454253316,-0.7507460726,0.0947068124,0.5860494446,1.8429566278,1.3168881809,1.8283935977,1.7081587184,1.9362313121,-0.8020736317,-0.0457820353,1.1146419295,0.695999504,1.0815085011,-1.1528423126,0.7890411342,-0.4117565753,1.3654622304,1.5418522221,0.3664150732,-0.590030734,1.7606935175,0.2719812614,2.2549866906,0.4896646761,1.0841564127,1.4702411382,2.354479428,1.7198706845,0.9965123686,1.9063492906,-0.2216379977,0.5857516149,0.3650684433,0.9007982589,1.3576763274,0.3383269071,-0.7622851843,1.3893919565,2.4534056814,2.2872468043,-0.4927208802,0.6050472519,-0.130883966,0.0257979366,-0.7441745242,-1.176571544,0.1228989238,1.0015742998,0.8971104109,-2.1176650591,-1.6300009669,-0.4524023492,-0.9851392128,-0.2285381668,-1.027500368,1.179937342,-2.5799033406,-0.7786879736,-0.7215818468,-1.032325221,-0.2515815186,-1.8909673852,-0.9036371079,-0.480299783,-0.4488630996,-1.2740516801,0.3772584768,-1.8580782082,-1.1254833653,-2.3334911601,-0.8685174064,-1.3948641305,-0.0196371462,0.1822308972,-0.0676386025,-1.0352355486,-2.1489116776,0.7335910138,-0.9561524526,-0.5319363989,-2.3423398085,-1.3094934553,-2.5135486952,-0.1790080393,-1.9171197637,0.4011591784,-1.6444382694,0.7967748224,-2.5585965103,-1.3587932235,-2.2840706564,-0.9997865655,-2.3757351946,-0.8576388615,1.0796971018,-1.1055585833,0.010235037,-0.8891425131,-1.1557273305,-0.2213170349,1.3199090965,-1.7302509594,-2.6307988818,-1.1408040131,0.4431339646,-0.2242247624,-1.7022292227,-0.4975139413,0.8740018358,-1.3959554269,0.3914123048,0.0476209577,0.7996360451,0.4072140422,-0.5628296691,-0.2919910724,-0.5996806906,1.1999535239,0.6590885154,0.3765056426,-1.1282401454,-0.0272726672,-0.7424310633,-0.9187672758,-0.169607103,-1.0858427561,-0.7266078618,-0.189123435,-0.1547744956,0.1191328708,-0.6603131475,-0.7756720712,-0.0777758197,-0.951712194,0.4133536306,-0.0240395316,0.3769935183,-0.3322354259,0.3796831,0.8144216022,-0.0623129238,0.7792500352,0.4695498607,-1.0616812493,0.0531495893,0.5300657426,-0.3160320587,0.2426966983,-1.0274310755,0.0517970035,-0.8758801335,0.5066879941,0.1850045454,-0.979058348,-0.6779191394,-1.2271768866,-0.0289641157,0.4227217931,0.9041852182,-0.2651835735,-0.6217751761,0.1821706953,-1.0395358875,-0.5954201796,0.1369233239,-0.55404084,-0.8504011622,-0.9481542421,0.6687550531,0.5259978473,0.740766695,0.5796528338,0.618258725,1.0979766244,0.4909586866,-1.0364843098,-0.0725658883,0.8948547324,0.3792131842,-0.4512995898,-0.0422641786,-1.1204415945,-0.5333723121,-0.7922660496,0.8966924221,-0.0202072013,0.6194375291,0.9433108668,-0.776432148,-0.2957217647,1.4418434745,-0.658238635,-0.0729717501,0.1401697911,0.070103389,1.29829875,0.2445203505,0.3855407325,-0.0776848757,0.6967356615,0.0561358697,0.4215300125,-0.0995713435,-0.172674923,0.6721386574,-0.8073335539,-0.4158846244,0.5602050383,-0.0108522714,-0.3099429778,-0.0156411542,-0.323736591,0.5156109352,-1.1012189103,1.463714364,0.5854684077,1.0852736674,-0.2605418347,0.8337671611,0.0336727114,0.981830403,1.6903290069,-0.3614538389,0.6998477209,-0.7903684947,1.3749855687,1.3140314677,0.1494721753,-1.1644383702,1.190544038,0.3712789984,-0.4375907322,-0.4063459955,-0.8546332992,0.7874121112,-0.8785818962,0.4986237664,0.7616310557,-0.6909790128,-0.5077455424,-0.1976857586,-0.7341498864,0.2210766544,0.6406968743,-1.0944501983,0.1131365979,-0.3644733737,-0.0673623074,0.7292229072,0.4416215467,-0.9554200805,-0.8449472556,0.5766657265,-0.7066643812,-1.0927016696,0.6619775049,0.3598486405,0.5892617266,0.6181395731,-0.7973258242,0.4864508311,0.2178541921,-0.7071763826,-1.0139455058,0.3030458785,0.9647720247,-0.0045672132,-0.6108738835,0.6652075737,0.3671898792,0.9303690694,-0.7500846707,0.5634656603,-0.5998241648,0.6191108427,0.0727321212,-0.3601346887,0.479543734,-0.7557710325,-0.2780751071,-0.7289792963,0.0012194525,-0.8588233467,-0.3856396657,-0.7151457268,-0.5717894019,0.0616572705,-0.3807558411,-0.5985063264,0.5016818812,-0.7358253992,-0.5449678234,0.5694845976,-0.9693487411,0.0117289429,0.1531882242,0.3324713106,0.7218405454,-0.2143651439,0.6594297061,0.4129699341,0.4079310868,-0.6484797296,-0.2319676196,0.7220890404,2.4128786006,-0.5736863613,0.9799417516,1.1079066482,0.4980232181,1.4355286109,-0.786109852,2.2194723893,1.3728487314,1.1116851563,-0.5336459124,-0.2272242276,0.2712820292,1.218005576,-1.1303315933,-0.4193293404,0.3906203376,-0.0784543326,-0.0339745206,1.0163339379,1.3239937944,0.1280407675,1.2655771508,-1.0311908036,0.6082282193,-0.1074514107,0.4620034999,0.6368607554,-1.4632201794,0.8850348509,-0.6052336903,-0.4761056212,0.5370521522,-0.073870833,0.9753939185,1.4355388563,-0.4052631343,0.7212174035,-0.9006501081,0.2986152678,-0.6810139905,0.2146786673,2.642437037,1.7523726686,1.3030390723,0.3044010755,-0.7468533891,-0.5052559844,2.395386163,0.17386829,-0.7842288377,-0.0756482913,0.6955116472,1.2339816247,0.7668025622,-0.698426157,-0.6196387629,-0.1778841947,-0.3099932569,-0.8674142088,0.4924346861,-0.4778852561,0.0103657874,-0.8184591675,-0.2719821734,0.7371211214,0.8011618527,0.7291028801,0.1990736878,1.0731996471,-0.9452719577,0.864949913,0.2353042445,0.6760815213,0.5152693466,-0.6358560748,-0.6642672516,0.3020197012,-1.334682402,0.6841225332,0.7368806022,0.8964265031,-0.4430724113,0.1240770955,0.9944683809,0.9295529752,-0.4002159077,0.3273005193,0.8674694712,0.0695116766,-0.3331741023,-0.3624237654,0.2613043571,0.35546148,0.2102410645,0.3638004832,-0.6467223275,-0.7347647209,0.616437119,0.0148031038,0.4297368389,0.5303528427,-0.6134746672,0.6157720179,0.6448239322,0.4588933145,-0.3427805059,1.1599883379,0.7163046647,-0.3937503171,0.0345794117,-0.7236738819,-0.4288014623,-0.2547997826,-0.2018898056,-0.0488594365,0.9652870981,-0.249332466,-0.4549125218,-0.4884938416,-0.9422519017,0.593101314,-0.286587173,0.8800166217,-0.6830190884,1.0835669925,-0.4029983928,-0.8498253404,0.4239591494,0.4728101004,0.1341981674,-0.3716423587,0.4693850408,-0.7772051103,-0.879160103,-0.1853208499,0.3682640718,0.855774926,-0.4332309245,-0.3106254704,0.9362972991,-0.3225594331,-0.8824253618,0.0096923453,0.7635337111,0.5020734111,-0.2686836747,0.5061916836,-0.7211028913,1.0264495328,0.1310446952,0.6463762446,0.0013315187,0.737698577,0.4288559199,0.0649012125,0.0749050761,-0.0474115964,1.0780217209,0.7125814796,0.1470053436,0.8956959356,-0.7765688806,-0.366152194,-0.646975842,0.9951909857,0.6088733517,-0.2818252568,0.4281922823,-0.7699977325,-0.4574859087,-0.7779031124,-0.7067364314,-0.7048290826,1.1967425418,0.8050456664,0.41950593,0.8752038091,0.8238964562,0.0636835713,0.0073171209,-0.1386144486,0.5045221121,-0.4575421492,-0.0082320078,-0.7246981474,-0.8719265936,-0.4651033241,0.575920623,-0.8779718619,-1.0630470139,-0.9095561894,-0.5927684819,1.0173590306,0.7379260205,0.4600171845,-0.3523805475,0.0235477957,-0.2972227884,-0.5834903823,-0.4029833575,0.7945299683,-0.9996236946,0.7788202436,0.7318572339,0.0287405205,-0.256716099,0.2459320387,-0.1620254759,-0.4653378786,-0.5062454204,-0.6245268559,-0.4225520554,-0.5237257491,-0.2899460137,0.0239190389,-0.0961921829,0.272564605,-0.8428781865,0.8285521784,-0.8731206749,-0.4886145715,0.1204664294,-0.117354164,-0.0298750566,-0.3544055785,-0.684671564,0.0323042739,-1.2223939809,0.6834222116,-0.2629067431,0.7517743743,0.1941792415,-0.4213130735,0.3116798856,0.1244311382,-0.4591556417,0.6142658714,0.5860592075,-0.6974905396,0.4739714875,0.6580541562,-0.2692582115,-1.0165565358,-0.2851102707,-0.1212873059,-0.2826189821,-1.3344805537,-0.0382164167,-0.3663989035,-0.4829623264,0.0060898582,-1.906850456,-0.9269573425,1.3761939901,-0.6081431704,-1.8555905595,-2.633768679,-0.8444276137,-2.308113876,0.4313327866,-0.4461289685,0.9803647036,-0.9039669973,-1.7755822823,-1.3475185093,-1.1160508724,-0.4856042814,-2.1604342422,-2.4339323231,1.3267863502,-1.217710601,0.3712942105,-0.1998221619,-0.9511306116,-2.1022325664,-2.3577240114,-2.600567623,-1.0754408494,0.1720576923,-0.3200287133,-0.8220913762,-0.6259544726,-2.3068672411,0.4054918743,-0.0481950308,-0.3459888673,-1.7944193389,-1.4878645882,-2.0074446736,-0.029529035,-0.7502838903,-0.7635771791,-2.0961821478,0.2580841051,-1.9693018238,-1.6006466446,-1.7265180086,-2.0704296665,-1.8950943722,-1.6161218605,-0.3596836206,0.3528226005,-0.7459685131,-2.0903496957,-2.6263471111,0.6050348767,0.9016270793,-2.0022813195,-1.4477066112,-0.789601977,1.3742209687,-0.6118532829,-0.5153308459,-0.4606703579,-0.6273382699,-0.1804550811,-0.6853505984,-0.3507395583,-0.9554642693,-1.0105708323,-0.8369866192,0.7408758776,0.7848916139,0.2788400714,0.713174632,0.1106492343,-0.292585601,-0.3387311949,-0.8471280207,-0.4851985305,0.1468134495,-0.5791869938,0.2851418809,-0.8930823078,0.3506644978,0.5761310047,-0.9327228474,0.6730128657,-0.0670140353,0.5663816565,0.3353025739,0.9665033379,0.2365615208,0.2507227238,-0.1951413562,0.8457028138,0.0856834517,-0.1007276872,-0.0473751871,0.0009916598,0.2245358351,0.6770872308,0.8814558365,-0.2683948068,-0.0171707951,0.2839003908,0.4905842795,-0.5629498003,-0.5116646379,-0.9373923162,0.0507784316,-0.9607787265,-0.1089515702,0.7930515325,-0.8879746077,0.3084772688,0.3164758757,0.0178179339,-0.0424491425,-0.1406756749,-0.7024007828,-0.0372778366,-0.7429766019,-0.8018277988,-0.7142709881,0.975791301,-0.8839834066,-0.6586383555,-0.0473487687,0.7353513127,0.2807073024,0.2033747443,0.5348208191,-0.7709981535,0.0237412313,-0.1956829551,-0.0975111577,0.9476521707,0.7387621342,0.1570499526,0.2294469413,0.0270249782,0.6495290411,-0.28291492,0.8600589723,0.617692259,-0.2119153338,0.1276276224,0.6356627679,-0.5655050703,-0.5341976954,-0.886893618,0.3236622544,0.5026635911,0.05783709,-0.8633336002,1.0463404895,-0.346931011,-0.1103313515,0.2415572378,0.6794553414,0.222260832,-0.6141375729,-0.1620556264,-0.8220310694,-0.5692349929,-0.65265355,0.7291565448,0.3335487088,-0.8595969765,-0.9819126581,0.8726757553,0.1340004911,0.3429125198,-0.0276677887,0.3364199674,0.1073957657,-0.4871939749,0.5572544684,-0.6298528875,-0.1308315314,-1.0742415832,-0.7957547602,-0.658558472,0.5962113007,0.0466872415,0.1221261448,-0.7644247231,0.3393768349,0.6001034789,-0.7600861877,-0.6450406428,-0.8994675824,-0.6184982224,-0.1872179296,-0.076920813,-0.3146979461,-0.272383746,0.0715026589,-0.6507855593,-0.1782731223,0.9432682298,-0.0647098547,-0.6501732249,-0.3200666164,0.5615608518,0.4911933653,0.542808874,0.5932516408,0.2935511963,-0.1752049809,-0.7272084215,0.3643549788,0.7677308226,-0.385910692,0.6188400825,0.1305903394,-0.3413046726,-0.3658430434,0.997772921,-0.6236239398,0.7008268337,-0.6222528496,1.0537675144,0.6871595231,-0.087717962,-0.1925140025,-0.7268075061,0.7681819507,0.7167880539,-0.2642377796,-0.8686310506,-0.5620710949,0.7750868556,-0.75450823,0.2681948303,0.8676522092,-0.8461650907,0.3029236658,-0.4153211233,-0.5676561046,-0.3479391023,-0.3432647263,0.2258922555,-0.1231013273,0.4595041879,0.3625343806,-1.0931518742,-0.1417169213,0.6481901608,0.3896169387,-0.2816015065,-0.1787056591,0.119028077,-0.31230058,-1.0656210616,0.0210204638,-0.2010582327,0.6847946193,0.5639544879,-0.331923704,-0.8682117514,0.3440553819,-0.6384775527,-0.8294111674,-0.434267236,-0.1500688299,-0.2926152247,-0.570216388,0.1474929217,-0.1473863971,0.7179309145,0.5290815023,-0.6450113266,0.5223932237,0.8629464088,-0.5483334471,0.5346109015,-0.0346599025,-0.2134148048,0.3050949093,-0.1314656078,-0.3402523686,-0.8870624659,0.7297425937,-0.7549415219,-0.1074015627,-0.3902502958,0.4275469111,0.1617101629,0.8367732123,0.1500449601,0.5808090446,-0.0299309803,0.0112337944,0.1118671746,0.4428198553,0.1553816914,0.5130268532,0.0930612006,-0.1654218851,-0.7147407233,0.6640641049,0.390319475,-0.3647013117,-1.0289725116,1.0315456812,-0.1868289164,-0.7795131999,-0.1427099293,-0.2648441427,-0.4994575979,-0.1497961969,0.5488875552,-0.6127268265,0.6809736257,0.0802851569,-0.4295598445,-0.2120224834,0.3272021885,-0.4627357524,0.5883413696,0.6785941928,-0.4714834762,-0.4184019827,-0.8341552849,-0.2424729863,-0.7363077593,0.8459358688,0.5972926839,-0.2948458426,-0.8660125057,0.7033263472,-0.7585890658,0.1942846109,-0.4262477017,-0.7256359939,0.2080177422,-0.0441844724,0.5242293691,0.7289157077,-0.2859605023,0.5924309857,0.4637684606,-0.5148747324,0.4597326549,0.2548868583,-0.3299648081,0.7780758009,0.1397128119,0.7147299242,-0.7360513922,-0.4623713026,-0.7980716954,-0.8217880334,0.2518993428,-1.0529372894,0.3411501828,0.1600866229,0.6829912889,-0.3453222455,-0.979737619,-0.6597093555,-0.5620845842,-0.9160146027,-0.2887885051,-0.8384591801,-0.2568772838,-0.590045874,-0.5739303292,-0.0965560257,0.1937824461,-0.2221208854,-0.803765695,-0.0278095673,-0.3704394364,0.9361074196,0.822707793,0.1088411224,-0.4279910947,0.5976044745,0.7445279509,-0.0193639142,0.1198877654,-0.592591223,0.7491445097,-0.2597263964,0.1768273448,-0.4399593912,0.6483769793,-0.912137494,-1.0017769878,-0.6243957702,-0.6700501742,-0.7848144349,0.4661552889,-0.3679394442,0.2528116854,-0.0191616526,-0.5116220716,-0.4480902069,0.6862903079,-0.333165692,0.7273299396,0.4126712022,-0.2417236655,-0.4343590121,0.4540353814,-0.4834259353,-0.681785823,-0.2166971046,-0.8325677451,-0.8308371762,-0.9388263977,-0.1592537356,0.3816835321,-0.3213459885,-0.5725404285,-0.5371113707,0.8451257793,0.0227458691,-0.5442246223,-0.3403002413,0.2638596099,-0.5667559101,0.1290521545,-0.3964528031,0.7979615339,0.8051334411,0.3067327743,-1.0421414246,-0.9650697044,-1.01181743,-0.3514804982,-0.0240201524,0.0171242123,-0.7254848346,-0.0464042919,0.8653799136,-0.6331893144,-0.5875732341,0.8154680045,0.3586786948,-0.5162493115,0.0133879185,-0.3358751118,0.3775204046,0.2044758848,0.2380227521,-0.8341092034,0.9425101903,0.8148679199,0.4415597738,-0.3936124462,-0.2268267597,-0.4055011436,0.3050737367,-0.5191639533,-0.733352664,0.7858090526,0.4401962001,-0.0132808872,-0.2739527984,0.798403824,-0.1521669327,-0.378964405,0.7345107528,-0.0762296802,0.2182765389,-0.5605867246,-0.3190722306,0.1219432963,-0.2324264675,-0.6010885288,-0.2867385728,-0.5202683661,-0.8112633509,0.6415322506,-0.4450499523,0.5392407916,-0.022898037,-0.1116617547,0.2835356983,0.4793065815,0.1226161944,0.6284276268,-0.9450977724,0.6636494332,0.6873233795,0.292811531,-0.0083815397,-0.659698915,0.5941416508,0.7611846567,-0.5584112796,-0.121598355,0.7918176339,-0.385856436,0.2160139761,0.8913355427,-0.5495565435,-0.1374872705,-0.4916034412,-0.6756917744,0.0212724341,0.7108783711,0.7674880665,-0.8295527961,-0.01110568,-0.6666255586,0.1666848705,-0.280787895,0.2075159602,0.5029193181,-0.1043621609,0.1737736472,0.678831307,0.2237164291,-0.8606262908,-1.0755837187,0.1086668738,0.5590228838,0.0385993993,0.6943007239,0.6471841498,0.2481739161,0.7285276896,0.7378655493,-0.6231582854,-0.5467549593,-0.7968584778,0.2615158649,0.0012620079,-0.2954323451,0.2596062009,-0.8503063896,-0.0722093447,-0.1339431821,0.0741309563,-0.3083310452,0.3087182522,-0.9569365341,-0.9312056106,0.4440489129,0.0685543956,-1.1176283841,0.3282460552,0.3645980283,0.3506299183,-0.7969451204,0.4763244183,-0.1461927049,-0.7370927489,0.7068885483,-0.8443672911,0.1931754956,0.6394433627,-0.2185700537,0.4082299279,0.1403037733,-0.3550142487,-0.2007161263,-0.994969871,0.4707016737,-0.2940921573,0.1861180445,-0.4963837904,-0.7405645833,0.0139721548,0.3785613636,0.5561141232,-0.6981267671,-1.3993445067,-0.0771216674,0.7009215804,0.0993561614,0.1464298289,0.0803890893,-0.4788709006,0.2285242512,-0.6548235259,-0.1576286167,-0.7894405082,0.7220342297,0.0169294772,-0.1096181501,-0.8644520409,0.8693647058,-1.3622223055,-0.6701369413,0.1447056728,-0.3784547419,-1.0330959665,0.5982197213,0.2764627044,-0.6315441669,0.8231593204,-0.2623177205,-0.1654712797,-0.7840772793,0.8081610498,-0.2450312993,-0.2384681793,-0.2894215522,0.2382091353,0.235662896,-0.147682133,-0.4770963661,0.0566703393,-0.5898933589,0.1898358436,-0.4707150621,0.182813167,0.195756273,0.4790706474,-0.7837007421,-0.0991644708,-0.5910332932,0.5626608307,0.6741943924,-0.1529334117,-0.3667025503,0.8914971368,-0.2905887182,-0.3867613484,-0.7480380622,0.815148408,-0.0990484021,0.1016285297,0.0081553845,0.5982836036,0.1160265776,-0.4110552748,0.9846896695,-0.5884551821,0.2876450063,0.6769324436,0.280776899,-0.7301930031,1.1007350874,-0.0423820868,-0.4673353762,0.5184752467,-0.366178258,-0.6329826773,-0.1737716439,-1.0604758081,-0.104725867,-0.5046695924,-0.5507639531,0.5355908887,-0.8315699053,-0.9120512137,-0.0762693206,0.3988428631,0.9070354542,0.730621577,0.6648860681,0.4714012416,-0.5653498125,-0.0758902802,0.5920671978,0.6491738252,-0.5150250248,-1.2508027549,0.8730249609,-0.6556637942,-0.7815723097,0.4161462921,-2.3386126424,0.6047532372,-0.6659505869,-0.0405381537,0.0586369935,1.1219778813,0.1698116207,-0.4285861237,0.5851518288,-1.745056431,0.8665326422,0.6882231285,-0.7341747987,-0.9157597515,0.5896042649,-0.0900026042,0.1097247942,-0.9169643633,0.1695138119,0.4849424382,-1.4724385234,0.0742533828,-0.7052550169,-0.2725746087,0.0695171909,0.7527713988,0.7538919557,-0.1744053272,-0.2367994782,0.4110884253,0.3258841154,-0.2572868933,-0.0823487158,-0.4982616942,-1.2870803286,0.2113008957,0.5922018058,-1.0477666235,-1.4849056244,0.3299319127,-0.7122643728,0.3476205319,0.9224966205,-0.7251311478,1.0726297851,0.1980378975,-1.5526067225,0.1679798113,0.4232050375,1.1250877873,-1.1290160137,0.2928782672,0.4582436681,0.5536052051,0.3549673754,0.3930416983,0.7925810966,-0.275857318,-0.7637072446,-0.3392731529,-0.0657310857,-0.9223665759,-1.7253319061,0.0860264146,0.4219589815,0.2738307672,0.6095915336,-1.1270737946,-0.5296900917,-0.5617684884,-0.4364025691,0.6606786534,0.0464591574,0.9622355486,-1.080613365,0.4409999192,-0.9549974842,0.6258746463,-0.7734018805,0.3541274533,-0.4058611571,-1.4840296103,0.0552130325,-0.7845838985,0.8781798826,-0.0498388788,-1.1891677595,-0.3189318214,-0.0520720975,0.3312922095,0.1781022593,-0.2657877291,-0.8770464274,0.9528249135,-0.5198559618,-0.4306749491,0.7788263945,0.3403364884,0.595725799,0.5242164883,1.0343895253,0.6926770849,-0.1312146337,-0.1435988812,-0.4699217455,0.7964106058,-1.150986768,-0.4220118121,-0.7471548509,1.0882208866,1.1412321298,-0.3785298912,-0.0259377901,0.236870982,-1.2085239505,0.0942760708,-1.0617944201,-1.0264705593,0.1910908614,0.5626863448,-0.417415073,0.8581009805,0.0574075006,0.869711962,0.2026413342,0.6917786861,-0.6656357891,0.060481968,0.1454939574,-0.0576771211,-0.1102647472,0.4084521381,0.7087241084,0.1729653828,0.2053475001,0.3566067568,0.939062702,-0.7845353042,-0.2902100686,-0.7011728124,-0.3935550533,0.9595380575,-1.0488438866,0.6872364029,0.2266457679,0.2408058437,0.3531815532,0.0770793082,-0.9673526196,-1.136754044,0.0647074982,0.4827019664,0.8847360177,0.8523015629,-0.8042252455,-0.085317431,1.0029281806,0.095279545,-1.2051900044,-0.0076322715,-0.1627094485,-2.461662172,0.2480869485,0.2844616411,1.0272864314,0.2290144066,-0.4543822328,0.3185018578,0.3158990625,-1.1068358701,0.9375417363,1.1507336433,0.0351347458,-1.587116248,0.879305064,-0.2185085892,0.1003101595,-0.6459853925,0.2210085917,-1.5620943089,-0.3869363866,0.1379373179,-1.4679896997,-0.4451085041,-0.5872479732,0.9969000653,-1.2988187198,0.8683172818,-0.2606905362,-0.7705259756,0.4275238018,-1.8796719752,-0.5025302328,-0.4743128292,-0.5973021772,0.0881773393,-0.6702528132,-0.5643481881,-0.4969264166,-0.7389590687,-0.2888639313,0.1774701239,0.9703470194,-0.3163052429,0.0863977016,-0.4855659751,-0.7475429978,-0.0842351172,1.0272357018,-0.4849491923,-0.9284973146,-0.1891273851,0.2247889537,-0.2586410827,-1.0426152242,-0.5369362449,-0.168319221,-1.0834485489,-0.6802478928,0.4543586591,0.2638674061,-0.2504363477,-0.3142152315,0.6028801921,0.7237102388,-0.6028814249,-0.3773060566,0.9178309036,-0.2711675135,-1.1177080855,-0.2495111455,0.5148087911,-0.3946435406,-0.5108424803,-0.0072139858,0.3265019093,-0.4749907256,0.3789034919,-1.0141397202,-0.8876457326,0.0504241429,-0.1348311372,-0.6329127684,0.2881525779,0.7842143711,0.8081180544,-0.2060479258,-0.2776393473,0.7365294861,0.9571823272,-0.8763916925,0.035036229,0.4148362941,0.3865019188,-0.5344585713,0.523749311,0.6292953202,0.7897709162,-0.5633782332,-0.1316943707,-0.9787335183,0.3068284116,0.6815381745,0.5677606165,-0.6354208378,0.3065039276,-0.3932548515,-0.6709590784,0.9807110615,-0.6144009361,-0.8291803097,0.0178800892,-0.0828730999,0.5048316848,-0.5679071797,0.5242166927,0.4657622975,-1.4804155384,-0.750873932,-0.7302279843,-1.339543729,0.2602116209,0.5990251847,0.3642100176,-0.2421611555,0.798142417,1.0457226517,0.1942338925,0.9604924483,0.8464428497,-0.5137429401,-0.2003308516,0.7998459218,-0.3188410531,1.1963461737,0.3939304119,-1.0710046271,-0.7990441862,-0.0470535641,-0.8085800624,0.5225507229,0.5382616567,0.8672460029,-0.8661357068,-0.156459253,1.1886732982,-0.1655933421,1.4884366606,-0.64921395,0.1956688979,-0.1619168739,-1.1152584329,0.856412378,-0.4658153854,-0.7394783443,-0.5820132865,1.2774534844,0.0713526077,0.1762468025,0.9631528252,1.1893922789,-0.2029791091,0.4787017897,-0.8258846292,0.4062956432,0.83594668,0.2924714669,0.9804385184,-0.2834912516,0.8599943579,0.274443366,-0.4573003232,0.2231482833,1.2400238727,0.7590982046,-0.8073130483,0.0821268652,-0.154828016,0.4522522591,-0.4464515184,0.9297386817,1.4508910666,-0.5013111757,1.2179641101,-0.0972284025,1.0426966875,0.3774667203,1.3313663189,0.0738128926,0.8735855419,1.5258270987,0.7597495673,0.6433450036,-0.6785755539,0.41293202,-0.1824433681,-0.9169703666,-1.9031170153,-0.2005945602,1.1473141563,0.5401743506,0.3021385744,0.9075547938,-0.0467924134,1.0062217222,1.1313962624,1.2866434194,-0.040450006,-0.7873572004,-0.2341496797,0.205080787,0.211154017,0.9635658166,0.6444292635,-0.6583560456,-0.5231111935,1.3987036381,0.0326774863,0.7215865584,-0.6967855128,0.7504921931,-0.3673583295,0.1511656538,0.0250545998,-0.0622244868,1.1561688168,0.6982032259,0.6532733729,-0.1757106673,-0.8546172649,-0.6049298748,1.0231465472,0.5592029228,-2.1323542952,-0.1535964963,0.1791196165,0.1512364943,-1.1181875069,0.7306859794,-0.2630986623,0.2184544091,0.1906369231,-0.0201523945,0.2403132123,-0.0821697714,0.3504170244,1.5492616269,-1.9272674425,-0.91991309,0.0829843747,1.1857613901,0.2011772399,-0.5207671157,0.0721427673,0.3464757281,0.3684276305,1.6168186448,-1.0107532307,0.5165006905,0.5403224819,-1.3508981231,0.358351505,0.134282837,-1.0312886891,0.4978064839,0.4336491811,-0.5251785711,0.7799669773,-0.4551852592,-0.2099411384,-0.7137520013,0.1791765703,-0.4217455035,0.6401536537,-1.032950777,-0.3472435574,0.5939676776,0.5645316524,0.7060797492,0.4423443148,-0.1116214395,-0.5496050769,0.8424361222,-0.598821488,1.4488484243,-0.0954974645,-0.3214518386,0.3528341397,0.7619819535,-0.881895435,-0.4202958965,1.5910935229,-0.0074996206,0.365666104,-0.0774127916,0.4351991902,0.5498596823,0.7859957785,0.0574807835,1.2773056296,-1.6362629069,0.5378029812,0.3521296845,-1.4297421176,0.1541038703,0.7241369542,-0.2043299297,0.7342996693,0.0715827292,-0.3901266533,-0.6069990827,-0.3155859454,0.5196730549,0.4894097553,-0.2521020566,-0.9722683308,0.6302423451,0.4245475556,-1.0663028966,-0.1841033004,0.9600452805,0.1897256255,-0.4246197462,0.9765725561,-0.2723874359,1.1351651242,-0.8428798661,0.5237647673,0.1783480453,-0.6298934562,0.0530318664,0.4040467452,-0.1178951088,-0.2605691801,0.0942804353,-0.9428038979,0.7761626245,-0.2521318147,1.4374628113,-0.2697321755,0.4755393322,0.101768977,0.1604694365,-0.2164297537,-1.1216034092,-1.3794427624,0.6479174681,-0.7690104142,0.0921417136,-0.4991772244,0.198263206,0.3841755861,0.7471977214,-0.0213545541,0.200790685,-0.5607637727,1.3400533044,-0.8099277803,0.1284369528,-0.5227095426,1.2174079519,0.1195223111,0.270376351,0.3293966972,0.7592867913,1.2941242655,0.5766342996,0.9927952594,0.3563182205,0.388361344,0.8906784254,1.1287329451,0.2491415706,-0.4344830407,1.2919533513,0.5293741031,0.6234521061,-0.2159741017,-0.1604457196,-0.7984555402,1.0824561455,-0.9365168074,0.0560889769,0.7522467629,-0.0807220982,1.3533600297,-0.1869069923,-0.2660169882,-0.1083102439,-0.6564803451,0.3430622131,0.2242469467,0.2444435422,0.7810746329,0.3395255547,-0.4531180726,-0.392679252,1.1420146386,-0.1780458874,-0.5397832254,0.3423707831,0.2356096491,-1.1070929117,-0.2635644265,0.3046640475,-0.0517514832,-0.3210808519,0.7348772341,0.0887686188,0.3480195496,-0.2746920998,-1.0350473363,0.3050779804,-0.1813025588,0.7225707334,0.8705816138,-0.5084400996,0.3429000173,1.1881346374
   0.8402765688,-0.8634365537,0.3698469931,-0.3460470677,-0.4719200692,0.7652300589,-0.5384749011,-0.1242518061,-0.424049108,-0.0527906241,0.7726825158,-0.9677277498,-0.8750746713,-0.4995592882,1.2873077601,0.865779459,-0.0019173653,-0.3369991005,-0.1116523338,0.4061910683,-0.2177845416,1.1800561546,-0.9166126693,-0.6406419725,0.0193324711,1.1321238529,-0.3522510623,-0.1643303999,-0.6736635745,-0.0190276773,0.6737666905,0.5374429922,0.0072928585,1.365666941,-0.3887071858,-2.1566631507,0.4386133867,-0.232487186,1.2820926324,0.3374845931,-0.9499955527,-0.35042877,0.8144333446,-0.2870979224,-0.0043054378,1.1058528155,1.1006105819,-0.3201431245,-0.5526800435,0.7088266491,0.4735133829,0.4400947305,1.5784483337,0.2346652896,-2.5499077218,0.1648016288,-0.4871154127,-0.802630022,0.2945942542,-0.6500738421,0.765341771,-0.0371362948,0.1611236628,0.6336449745,-2.2049615926,0.0244584802,1.0475819419,0.6103863278,-0.4884067636,1.0496703506,-0.8919349577,-0.2819784426,0.1806264455,0.0443213508,-0.5016148201,1.2428645013,1.0823295395,1.255101025,-0.530741449,0.513988172,0.294351022,0.2805758727,1.1867375959,-0.1385497959,0.2296029309,0.2705843569,0.7586052268,-0.580576512,-1.0455465136,0.6394482391,0.3777544604,0.4807906825,-0.3291108566,-0.7336286314,0.2082607356,-0.0943118146,1.0081198971,0.2142326969,0.2055070594,-1.1579220938,0.7916581698,0.7028497108,-1.3067674554,-0.6485260314,-0.6949771026,0.2964646479,0.1438114695,-0.3026850972,-0.083416385,-1.3993790595,-1.1126626805,0.1954283272,0.5338664112,0.0614923139,-0.1869678426,0.7081216719,-0.6360293577,-0.4989417045,-0.4550696974,-1.0102298567,-1.1167959308,0.0244738341,0.0766937067,0.8898825648,0.2069189366,-0.3671807948,0.1736943529,0.3033392618,-0.9053807344,-0.7325157766,-0.4384347165,-0.3055192544,0.1158678943,-0.084635487,-0.6842034268,-1.0040539763,-0.2519645307,0.0370837817,-0.6490263904,-0.4476298378,-0.831017485,-0.189221581,-0.5262238802,-0.2747331352,-1.0844771576,-0.230506279,0.3835407321,0.0979141496,0.0887007836,-1.3274047839,-0.078232936,-0.1408413053,-0.9090735972,0.6276506539,-0.0486298177,-1.3423841463,-0.5627625688,0.9452883924,-0.4137459186,-1.0874440264,-1.4047671959,-0.1757719956,-0.1041252116,0.0908969734,0.7037529302,-1.5315447826,0.7499946162,-0.297079843,0.3071441343,-0.1111011516,0.8297013151,0.3693503793,0.1814132169,-0.4722319387,-0.4740570409,0.1975926035,-0.393323893,0.3650444021,-1.3978176853,-1.2598769306,1.0328724086,-0.2135175694,-0.9381013055,0.2080676444,0.687840134,0.9346105281,-0.8440285554,-0.8973879001,1.0924169053,0.3081537226,0.9684828978,-0.2267389625,-0.2461665714,-0.0046314526,0.6215794743,-1.3349553829,-0.9399883896,-0.0337522563,1.2132067878,-1.3290174287,-0.3496142941,0.8032702802,-0.7780393132,-0.1216877665,0.3169696748,0.3192217368,-0.801315822,-0.7146514161,0.6393642007,-0.1097841874,-0.4658807552,-0.7111932289,-1.1376555682,0.9319811558,-0.6178791181,0.7042573404,0.244485791,-0.6411358466,0.7521562328,0.6136694566,0.9920362113,-0.1750031507,0.2014240211,-1.5061706947,1.4519646637,0.1899104391,0.1503980247,-0.4031544209,-1.4501624219,-0.9137927667,0.0630093998,0.2267958183,0.1873024772,-0.3960847009,-0.3081116001,-0.4209639651,0.4172731055,-0.9854033104,-0.2109876655,-0.3273640436,-0.7745650637,-0.0912433974,-0.2579656802,0.4693046207,-1.4950679717,-1.3059232981,0.3611080537,0.0194405007,1.2837426891,-0.4210597332,0.3540123373,-1.030634263,-0.4572734211,0.5226118428,-0.7961971742,0.3368806512,-0.8423759567,0.5508734224,-0.0204320213,-1.0796832012,-0.8807349385,1.3724504707,-0.7665004632,-0.1889363019,0.9606867443,-0.6490690693,0.4238516572,0.275864144,-0.2511272547,-1.3188111327,-0.1037253501,-0.9885459194,0.4485948622,-0.818500515,-0.7098153607,-0.7940217229,2.5758429035,-1.2054386376,-1.539065619,0.4900172323,-0.8265945078,-0.0464511088,0.0467700687,-0.0062790093,-0.5501402735,-0.296362401,-0.444378924,0.3755158058,0.7685142556,-0.836359133,-0.1181473719,0.0063712999,-1.0731219405,0.1900399353,-0.8371622808,0.8329137306,0.2424579805,0.6487265615,0.7036904954,-0.13558545,0.4595625303,-0.3572761024,-0.6454448971,0.0617284622,-0.0597706257,0.2869116928,-0.2075775863,0.7101885867,1.2425665956,-0.2413969161,-0.2224235563,-0.2974929968,-0.6747949192,-1.3936717392,0.3139414385,-1.1031951263,-0.9626353702,0.3682198332,0.1257231863,0.320818918,0.695230453,-0.5118495856,-0.645537992,0.5503130639,0.0878526495,-1.4928275209,-0.395650002,-1.2440329119,-0.076752715,0.9303127086,1.3044328489,-0.275447991,-0.6197700244,-0.6235077107,-1.1510383913,-0.1942050742,-0.648170008,0.0961317981,1.0803088307,-1.1292751328,0.1383387938,-1.5369045112,-0.909764648,-1.1216237116,-1.4534687659,-0.7380187025,-0.6061081703,-0.3459232902,-1.0228114173,0.5270890352,1.0365531679,-1.3967967983,-1.4851265717,-1.3509653016,1.4914780665,-0.8370659721,-0.5473060006,0.0965491726,-0.1644146157,-1.1477133384,-0.8192575771,0.3424502884,0.1528609065,-0.049692813,-1.1474419597,-0.944744982,0.1775958508,-0.272913445,-1.0006371011,-0.4176967461,-0.9228050023,-1.0098634902,0.5101635881,-1.4594460545,-0.4474639142,-0.6965068181,-0.5543332594,0.5914899953,-0.4457985917,-1.5068551795,-1.1204630589,-1.3811826223,0.0418501791,-0.3916034469,-0.3929012774,-1.1195311499,-0.318341998,-0.9718550101,0.3592205678,-1.2881679844,1.0528109507,-0.6838595503,1.1696684913,-0.1945747006,-1.2489259655,1.1757328028,0.3934688155,-0.3369853222,-1.154710759,-0.1659779337,0.1196782839,0.0332565265,-0.0234255876,0.6059181106,-1.1010512895,-0.9355342323,-1.4668960145,1.1692335726,-1.4040837346,-0.9567063848,0.3460541381,-0.2228736765,0.2327692509,-1.204183131,1.1780032317,0.6383336657,1.7761497119,-0.3469214467,-1.1997805098,1.1092238606,0.8238161681,-0.8670336135,-1.0546260488,-1.2330585184,0.6881822112,-0.0665731605,-0.6938577178,-1.1144186338,-0.6454957459,0.1007517779,-0.1371088029,0.5238628755,-1.0766705187,0.9245023396,0.5943048532,-1.4354659268,0.2894442076,-1.5004020592,-0.0084427836,0.237930345,-0.1539234678,-1.2765086023,-1.0831612985,-0.8345202539,0.9397285941,0.2689062245,-1.2124629185,-0.8505975099,-0.9458114457,-0.4481468449,0.404914487,-0.3720211319,-0.0430732379,-0.0534247951,-1.3088787387,-0.822362243,0.5111110659,-0.6060060795,-0.0320969652,0.558852214,-0.4085867329,0.317344158,0.1468271145,0.4725526859,-0.6956858748,0.727445087,-0.4027302346,0.4630566875,-0.0863799963,-0.2801702699,0.3367225884,-0.0642641053,-0.0884927588,-0.2506261251,-0.3080807642,0.443135993,-0.9619308404,-0.7827386842,0.2923713645,-0.8358612348,1.0244866161,0.1664764098,-1.1680833504,-0.2863174332,-0.8453938786,0.4961226342,0.3417923445,-0.1392697964,-0.4833963779,-1.0791219011,0.8777412364,0.6275776979,-0.5073315631,-0.8063043686,-0.6693730942,2.4290138876,0.0970626922,0.2542121291,-0.8101066146,0.6650743969,-0.6467775179,0.1068300158,-0.2293891593,0.2410534612,-0.8175093724,0.390334514,-0.2060478242,-0.8534563372,-0.9929931044,0.1797355978,0.3296395928,-0.8515293377,0.4043179714,0.6977486257,-0.6854848537,0.5925670658,0.5050210336,-0.3875753201,-0.5114538489,0.6984362916,-0.5406553025,-0.2031419585,0.0348241247,-0.0522019986,-1.1339256102,-0.1799200584,0.7542008769,0.5891743348,-0.0630665128,-0.7142688813,0.5254467734,-0.3890202568,0.2444270276,-0.3735032136,0.0792790422,0.0602645603,0.4193956025,-0.1156329472,2.1148437935,-1.0819084192,-0.8091378849,0.5822063466,-0.8676807792,-0.8736734472,0.1172785721,-1.5134561963,0.70915448,0.47655289,0.2962857338,0.4561332134,0.6815039293,-1.5034168056,-0.6354644136,0.4199744008,0.3487547312,-0.2920392942,0.5728651171,0.4336068188,-0.7712246661,-1.1044048127,-0.676284242,0.5093501084,0.17001294,-0.5143701151,-0.8522244256,-0.1246292503,-1.0059161306,0.1180792625,-0.4523925431,0.5085593176,-1.0511249664,0.8341945526,-0.6804161561,0.3084814845,0.1109756479,-1.0109176202,0.1463367752,0.6710765163,2.2323302672,-0.6616178365,-0.9809493297,1.1826977524,-0.7804400318,0.4019511047,-0.4363113476,-0.0311465547,0.5633217502,-1.5074385502,1.1416600622,-0.376178506,0.3031047805,0.6851231221,-0.9816947597,0.276741654,-0.8075923462,-0.053640125,-0.3590594285,-0.2406976215,-0.1607876053,0.9234332483,-0.2552416298,0.3530918296,-0.0767041981,0.6716102544,-0.4756185324,-1.076637091,-0.5089714464,1.0302948142,0.1293560524,-0.7249667288,-0.0337873086,-0.1007664381,0.8841679204,-0.2690567645,-0.5230012752,1.00324605,-0.4672690155,-0.2830022384,-0.5504156573,-0.3048645442,0.3144304333,-0.8987508191,0.5257485652,-0.873829419,0.732992488,0.0032177228,0.407228968,-0.741355577,0.3722355872,-0.6782695812,-0.8901240452,-1.2463844504,-0.5443302679,-0.3007285184,0.7804860261,0.585265999,-0.3994692107,-0.71660375,0.8195832331,-1.0544277828,-0.8543008806,1.5222929525,-0.2925272507,0.12512232,-0.1286767245,-1.1826222888,-0.2983031698,0.092502046,0.179592353,-0.3892278575,-0.3948248103,0.7528294368,0.0251670916,0.1241132208,-0.9777974235,-0.9909690309,0.4665562597,-0.30148636,-0.8244420687,-0.0128941089,0.3375874428,-0.1295371743,0.4565786776,-0.8017539315,-0.2198199082,0.5367964139,0.0422063479,0.9817909454,-0.1649549252,-0.4675750666,0.7640600129,0.4631803455,0.8051297261,0.3390077469,0.1351038189,1.0171589463,0.3495193289,-0.6538982092,0.5685113584,-0.0200554844,0.4752755847,-0.7656430498,-1.3958892904,0.9239259739,0.5042321078,-0.6264906052,1.31489995,0.4308676368,0.1617642714,-0.2185711977,0.1662644583,-0.264367648,0.151411992,0.634851431,0.8611482835,-0.5048867561,-0.6811338235,-0.0230252825,0.7287534082,-1.5251725717,-0.2868215056,-0.5707102745,-0.9185627142,0.0206263971,0.6128472758,0.3229313458,-0.7185754722,-0.5101184628,0.8624294256,0.3409895293,-0.1925999103,-0.2927482894,-0.1472004199,-0.1375917151,0.8233727988,-0.3080181294,0.0784989986,-0.4039216528,0.9870267698,-0.5645940749,0.958463972,0.5604531783,0.1733219654,0.0950482771,0.1376224071,-0.7796713398,-0.3943951643,0.7620918901,-0.6572460906,-1.3689066123,-0.0683335244,-0.919115154,-0.7596409612,-0.3852081269,0.5198400279,0.1742793669,0.4736096495,-0.4415898948,-1.4584122436,-0.0442237968,0.7410602055,0.897435602,-1.2055716694,0.8084998758,-0.3261306849,0.2249977863,-0.59471735,0.449513431,0.132669942,-0.308577295,-0.812135004,0.1548500808,-0.1138811076,-0.7774368927,-0.1917589974,-0.9739851849,0.2021430808,0.1488497566,-0.787533782,0.7983534973,-0.1461839563,0.7447019637,-0.8850162668,-0.6671525514,-1.0597458668,-1.0069292548,0.5910468041,0.69807032,-0.4428860566,-0.5611351748,0.7827129166,0.4565424427,-0.765541003,-0.0655240745,-0.2960903366,0.1679194812,-0.0226451202,0.1240414885,-1.0108501672,-0.923579417,-0.2138937956,-0.5021916342,0.2709055999,0.6774990438,0.7849159068,0.8660623092,-1.2644794348,0.6036454846,0.0928499566,0.2953857136,0.5683933021,-0.1914373487,-0.2977265976,0.1103683878,0.4253255804,1.536377766,1.8453107812,-0.5521127237,-0.0804377471,0.9991505042,0.6903435595,-0.5777076396,-1.2033113485,-0.1043871467,0.3628048685,-1.005003648,0.3264941391,-0.6509416994,0.3732366558,-0.6405509568,-0.7059376742,-0.3092841207,-0.1642960028,-0.0903068642,0.3144727354,-0.0783749737,-0.1020431671,0.7323563497,-1.1206248424,-0.8264672912,-0.6821101094,-0.8776493517,-0.0749030926,-0.9561779328,0.0578251838,0.0357934116,0.2444472126,-1.2945310157,-0.2129268228,-0.6534757716,0.1300729133,-0.3290114172,0.6899580582,-0.2346922239,0.4754917293,0.6165745614,-0.756170699,-1.0367323861,0.1281113085,0.7418523749,0.285511486,0.6419579096,-0.287566401,-0.9624049232,0.3318287082,0.5926604937,-0.8716965078,0.3334040395,-0.3525896406,0.0877026791,0.5802294565,-1.1776990732,0.2845113033,-0.7892703387,0.9367421143,0.5504500594,-0.1872096053,-1.2904889764,0.4009027594,1.0158470462,-0.7485809227,0.3655807591,-0.1170762225,0.2048970256,-0.8583224299,1.0774279162,-0.0837580496,0.7641288854,-0.4560973442,0.0705987788,0.7657331914,-0.649844934,0.5685370719,-0.5798251423,1.1979372587,0.2653048931,1.2879814684,0.9823951857,0.2406143831,0.4980773125,1.2385085069,-0.5786703702,-0.8749034906,0.3194248992,-1.1519080064,-1.3261331705,0.68775617,-0.10727267,1.1452916912,0.7661128754,1.3256839222,-1.28685011,0.3813832404,-0.0487448843,-0.1594672014,0.2811549994,-0.1822498756,-0.3969866959,-0.0090886455,1.1082552357,0.5069430995,0.6912365011,-0.6309593585,0.0751143719,1.097677513,0.410309115,0.9656374864,0.0115983267,0.6416462927,1.253402124,-0.4226054641,0.5156047194,0.4511641026,-0.3768113332,0.6825691868,0.0772071622,1.1158930495,-1.1921328917,0.4806902022,0.0939807951,0.2910899361,0.6208297142,1.18159784,0.2585889825,0.260798786,-0.4822851868,-0.4398769639,0.3716780708,-0.6272919536,0.941167651,-1.3293466748,0.968339331,-0.1669322125,-0.3229286204,-0.3735991539,-0.3601956656,-1.3967218531,-0.3262458452,0.6545234089,-0.4232576749,0.0676078488,-0.560885454,-0.0144436696,-0.3978672604,-0.4747967215,0.4890540667,-0.6293195142,-0.2523267624,0.021769608,0.2306062648,-0.8021909119,0.3728212003,1.0911008579,0.9130377105,0.3268194023,-0.3389171121,-0.5825100195,-0.3895962346,-1.4415793708,0.6354466198,0.3434032247,-0.0574537543,-0.3627132892,-0.3830543414,-0.3466614943,0.8879864573,-0.255011746,-0.4609782912,-0.1834023457,-1.0325354814,0.8437454779,0.1528814562,0.3411833045,-0.3765224711,0.9736587042,0.8963344604,-0.2552089779,0.691669477,-0.8089387492,-0.2621237778,0.8620948712,-1.2494470621,-0.4068145618,-0.3131239305,-1.3273342327,-0.2639966034,-0.0978501508,0.5855346472,-0.2593136508,-0.6910795718,0.7489515529,0.4789022688,-0.1379794274,0.7117921244,1.0181364192,-0.2101531986,-0.3683435561,1.0641598578,-0.3699100582,0.0962922703,0.9885672016,-0.0179345001,-0.9650227149,0.3323181155,0.0285618246,1.0100377283,-1.2511385911,0.3229811517,-1.2351413731,-0.0168528327,-0.6051858243,1.2886491106,0.8361222735,-0.3772389696,-0.072008286,-0.7492567607,1.1975126235,0.3320241815,0.2415336236,1.1908059507,0.9164045509,-1.8277072762,-0.961355227,-0.6295291115,-0.4683114407,-0.2991132068,-0.2042954116,-0.0924707159,-0.7809540114,0.6295888044,-0.2476814577,0.5731074884,0.0309169883,-0.7054786479,-0.0456604226,1.2070108099,0.3667403645,1.1578196598,0.4126516318,0.7880308742,-0.4269711898,0.2795338568,0.3060821898,-0.3385892883,-0.3931126718,-0.2348820579,0.591673831,-0.1168947561,-0.0735145956,1.301498013,0.4385573588,1.2530293041,-0.2899809135,0.6438108143,-0.6134017763,0.368901841,-0.1479692527,-1.0682854064,-0.1316452193,0.0528654971,0.2250578271,-0.7590934049,-0.1239951206,-0.4787137539,-0.3436916448,-0.3182176034,-0.0961656277,0.9987479083,-0.7793325311,1.2052761416,0.6276562418,-0.4756949108,-0.499936387,-0.1508642512,-0.3368694944,0.8647261143,0.4090169225,0.9910005525,0.1354553112,0.171476932,-0.8979698796,0.7476031392,1.0405769661,-1.0650246623,0.0833763558,-0.4607804753,1.2331141552,0.7602292634,0.7753535806,-0.659886519,0.2531868707,0.7672537101,-0.0275645028,0.6197990266,0.8361736916,-0.4685191099,-0.7004500565,1.1210672627,-0.2873869737,0.4486424413,-1.3744515305,1.0295327838,-0.4023223128,0.8672369797,0.3274038147,0.1649820873,-0.3507071373,0.3601888041,0.5688580355,0.5810113549,-1.5298051198,-0.4730696415,0.2145887893,1.1389861588,0.0716097156,0.2371291129,0.0937176052,-1.2937647958,0.379114088,0.7839179712,-0.2399451163,0.6667444044,1.1036968762,-0.5495010103,0.724662559,0.7930904134,-0.2058949461,-0.3091765148,1.0308083745,-0.2757473238,-0.0034735801,0.0583934951,-0.6413472167,-0.0327474261,-0.2674658928,-0.2262126477,-0.3275085854,-0.4639538968,0.6909645775,0.3763692129,0.0527422903,-0.1115200619,-0.5195406298,-0.3853068018,-0.3439288144,1.208717072,0.6113610686,-0.2527656732,-0.2427515677,0.7096230405,-0.7522158218,-0.6641373589,-1.5288670535,0.2537663125,0.6845083688,-1.1233614638,-0.379856405,-0.1203922903,0.6477704951,0.2016959849,-0.1841416342,-0.0626249901,-0.7696689392,-1.0850369875,1.3310634505,-0.0999447009,-0.4986462114,0.6290920106,-0.20030103,-0.0190049296,0.9231544404,-0.0716442644,0.3862483653,0.9456230633,-1.3775095355,-0.7696377381,-0.6862191297,-0.3006538524,0.7809102239,-0.35373833,-0.9341234181,0.6816199152,1.0639753587,0.7820165677,0.3417100651,-0.0521956103,0.4746379496,0.3261446154,-1.4227256329,-0.467117309,0.7783329499,0.1187858652,0.8388917923,-0.1692556047,-0.1174441121,0.7307289846,-0.6675187665,1.1827406451,1.1125044,-0.612823069,0.5347279205,-0.4926316007,-0.5953295707,-0.3186146632,0.7913575933,1.0379166203,0.5374298164,0.9001373868,0.9555425659,-0.4462846367,0.9069877327,-0.820017289,1.1809198152,0.6373172513,1.2735968006,0.0034560189,1.2868055529,0.8815202905,0.3495613579,0.4694130704,1.1407806037,-0.8792313895,-0.0925619404,0.7730577584,-0.643688542,0.559787596,0.1417262172,-0.5338610333,-0.3602755177,0.0550458179,1.3120450955,0.040343073,0.7178786117,-0.8888455734,0.4575262998,2.0908713469,0.3566195653,-0.4186284965,-0.9348262083,0.5948577918,0.1915488482,0.2560039984,1.302662335,0.602423465,-0.7297235353,2.3488962975,1.1538172253,0.966996754,1.1674965091,1.4437440287,-1.1055462646,-1.3435755032,-0.9366113178,0.8781205834,1.4650235799,-0.707974759,1.7768691425,1.1809578527,1.4003058737,-0.0203588074,2.2229173469,1.3047630237,-0.6327542252,0.1421836061,-1.1885241752,0.065874348,0.9165115433,0.4909752654,1.4543675438,-0.5001836129,1.2695276314,0.3281078588,-2.3619254414,-0.6557632993,1.6383663045,2.368301524,-0.5369048353,-1.308751572,1.2646854725,0.7975408193,-0.7943344008,0.2563720693,2.3917537162,-1.4710664007,1.5301274483,1.2310475707,2.602932245,0.4775419474,2.6189728206,0.1298394098,1.5042273171,1.383014382,-0.4932078071,-1.1959256213,-0.3858658082,0.6866053802,1.3181783587,0.077315423,-0.6927539415,0.9494922725,1.8024299303,1.3300627203,0.3888416147,1.0094062712,0.7964944389,2.4609840914,0.175044216,2.1977888665,1.6253340894,1.0903216654,0.4317157491,0.9219406809,0.6163047565,2.1069109484,2.1495999486,-0.627671979,-1.3227435446,0.0866394722,1.1648157593,-0.1318114386,0.269821991,-0.6666094171,1.3412860353,1.0736713368,0.4589762853,0.1498899149,2.193033592,0.3592528431,-0.6255858212,0.4310684887,0.6298566304,0.7647501942,2.4755661766,0.6477312023,-1.218084413,2.3976708574,0.8375907078,0.7126068586,-1.7159031515,2.6471524712,1.006810162,-0.9912963141,1.432279848,2.3721056273,0.7913664398,-0.2295317909,1.2462315383,1.2784600387,-0.8199601095,-0.2116881767,1.3278601026,-0.4140118423,1.6622042409,-0.5015803184,2.6397527573,0.8982840479,2.5636069476,2.1765359093,-0.0077437927,-1.3939477553,-0.475442607,-1.3248418687,-0.1543322818,1.5239944964,-1.1333048684,0.3935691214,1.0178809951,-0.5489632431,1.8654105233,-0.3459649314,-0.2273730953,-0.6465224286,0.5497067546,-0.8386347583,2.4728561755,-1.2847871902,-1.2475515962,1.3974634119,2.1674370252,-0.0332065363,2.4241214855,1.0330939579,-1.0330194661,-0.1005948875,2.3189701825,1.8428673465,-0.7682329763,0.4859906841,-1.051037521,0.4967904007,2.3695418614,1.0226274816,1.5374239201,1.0365110333,1.0072548109,-0.2518974718,2.4272033933,-0.0694679964,1.0883993486,1.5326289917,1.0351942996,-1.7503908605,0.3560901001,1.333140669,-0.8442343124,1.0477662783,1.7561655034,-0.8650696357,0.165562504,0.4549437249,-0.0790787552,1.3674542799,-0.8080948143,-0.9161298007,0.7251279591,2.1528372031,-0.4918485447,1.8874926051,2.2123877906,0.1276465689,-0.3459883192,0.9714504895,1.437253337,1.4533628099,2.4851741415,-0.4005046458,0.6120268973,-0.7023005854,-1.1292317278,1.463881395,-0.3499964833,1.3251467335,0.0460487544,0.4332499641,2.0116647645,0.4519662721,-0.645220395,0.1729330525,-0.9724648489,2.4493904602,1.4447138663,-0.6928076688,0.1514503291,-0.0528814751,2.1600617625,-0.9749519791,-0.7683644589,0.2982290171,-0.6461642305,0.7051433668,1.0733619925,0.6572022422,2.6056240466,0.6401685012,-0.6222530026,0.6243135816,2.2004659337,0.8589065025,-0.8326681263,1.6133425639,0.2635184379,-0.2366484113,1.1424600858,0.0846177274,2.1947222732,0.3677335251,1.3916119113,2.6487979876,1.5813590304,-1.0283931783,-0.1052911827,1.908146504,1.1007485195,1.5285275997,1.427569313,1.7895689047,-0.5222788202,1.8579174861,-0.2945195203,-0.9268725329,-0.7572300933,1.5126903188,-0.5849859632,1.5563528703,1.7390045652,2.2652612536,1.5814337259,2.5534181486,1.220941214,0.9095428464,-1.4402203834,1.415267431,-0.2786248998,2.1327323264,0.0947338358,1.4230169279,1.1307876506,0.2893414055,0.7510730801,2.2601595495,-0.5192409188,0.2709317004,1.4326662795,0.279179858,0.4702819896,2.2417612735,1.301197157,-0.2700539214,1.0917460957,1.5985503452,1.3227147796,0.1159853957,-0.5342110193,0.1609098954,2.4041557937,1.1177636499,-0.1799446544,0.4375289539,2.4426538112,2.3571780452,-0.350873752,1.498593777,1.1419481222,1.0279544438,1.635695798,1.0155568376,2.0628470211,1.4666648502,0.1237116349,1.9966349692,0.0053414841,0.6640701347,-0.2333823347,1.0409760053,1.2617139949,-0.7457961387,-0.3329364733,0.7470378767,0.7539342871,1.353301853,0.3730212834,1.4471182676,-0.1409097247,0.1771641416,0.8112245644,0.9525100446,0.996380252,-1.1850472685,2.3862930692,0.3865319087,-0.4078886628,0.3806207714,1.8466874969,1.2597073993,-0.1894638446,-1.8652035538,-0.1381632897,2.564916408,1.9390207342,-0.7175647634,-1.2987190996,0.5196474236,0.6567237384,2.4621686249,0.0906863158,1.4670793334,1.5512730691,-0.2798048824,-1.0376369517,1.2415057338,0.8483882113,0.3419764278,2.2708787591,-1.2380831875,-1.1876314745,1.631468567,-0.7765917313,0.7193151874,0.0086832388,0.2427365946,1.2774554496,1.161034694,0.5193229262,2.0863792002,-1.2067289594,0.1977723248,2.4901152762,2.4046526892,0.6763184666,1.903931667,-0.3231107896,-0.7490719341,0.1038971562,2.6492355252,1.9874260783,1.0268110609,0.9788834333,1.9485117665,-1.2414799671,-0.2521713597,0.8941839905,-0.486305397,1.098658293,-0.6158055374,0.7579138151,0.8170417032,0.3401587251,0.977714648,0.3992214952,0.0597030909,-0.0845695695,-0.7667935394,1.1437223579,0.5910902986,0.825373182,0.2607895834,0.4888397859,-0.2108212001,0.2569412652,0.0906023111,0.6716201607,0.003225662,-0.2919540935,0.9607726741,-0.5212132318,0.5109255351,1.1771615497,1.197848728,0.13269731,-0.090093356,0.0164990276,0.7307151996,0.181483118,0.5110976442,0.9567808739,-0.4147078755,1.2103130416,0.7959454592,0.7999150714,0.0716200533,-0.3459637094,0.6091111583,0.4014526607,0.4785694937,0.7473641,0.7442791645,0.6560453551,-0.595040148,0.8595744439,1.2377408478,-0.2806233469,-0.316785295,-1.4533342231,0.3383432361,0.4221599953,-0.2204860677,-0.5776470586,0.1071394907,-0.164340226,0.038990616,-0.5605147674,0.098636429,1.327026215,0.4465576191,-0.1880068555,-0.3590305148,-0.170596751,-0.5275840807,-0.3036871102,0.3465612617,-0.0312088463,0.2518737776,0.3139507245,0.2881213567,0.8049007969,0.9374104617,1.176447998,-1.2090639532,0.2080866648,0.5331480822,-0.0517299952,0.9466042177,0.6190529619,1.1694298139,-0.7092380151,0.0013849227,-0.1417835006,0.1642676125,0.131444747,-0.2176073246,0.31578147,-0.2918186057,-0.0772220101,0.7376546313,-0.1277317952,0.0315264061,-1.0392602198,0.0231599602,0.9112333223,0.750420763,-0.2673606582,-0.5360807458,0.2109933065,1.0642596559,0.0881482754,-0.0439203793,1.0860198132,0.4703374295,-0.8486080789,0.1006298881,-0.6450164053,-0.2666799539,1.3159967641,0.4569668399,-0.3541166642,0.4382673974,1.060549102,0.4828611415,-0.2621272113,1.4356013446,1.1303720298,-0.8844366273,1.0273829691,0.0855837775,-0.1599366673,0.2910430776,0.3375240481,1.2712192007,-0.93660172,0.4900498887,1.0657454246,0.5621596289,1.09700624,0.4575015805,0.4470527705,0.2272116616,-0.2499436891,-0.3031696698,-0.3810930256,-1.0691049181,-1.2705123895,-1.0020967075,-0.8729269059,0.4339405989,0.4434435804,1.4620932445,-0.0628393346,-1.2139292856,-0.0941287299,0.3511474007,-0.097898372,0.9434974317,-0.1291206962,-0.1772085025,-0.0246329869,0.6734875713,-1.3855815249,1.1029773403,0.405948776,0.6693545722,0.7234436982,0.4852279171,-0.6470398263,-0.5524469692,0.4720838251,0.1517133833,0.3614238218,-0.0906211762,-0.85402336,0.2010191055,-0.1555080955,0.8851051309,0.6525232135,1.0661816421,0.3756396124,0.1264221282,0.1198444011,-1.1981509047,-0.2602838541,-0.1296576726,0.8130842214,-0.1507594112,0.8324191014,-0.4242866929,-0.4845066529,1.1647354032,0.6201250309,-1.0142309908,-0.4319975167,0.5088325767,0.386419007,0.2763654697,-0.4105552805,0.7912533706,-0.3260336621,0.7259057907,0.3754046546,0.4478547726,0.0750887236,-1.25103516,1.0567161147,0.7952205462,1.0255112565,-0.1445327946,-0.2564866078,-1.3177507406,1.2642133467,-0.2637386011,-0.5939024673,1.4970361378,1.474715413,0.5978074237,-0.2496806768,-0.3911593057,-0.3537177983,-0.2748223012,-0.1215260681,-0.3025065387,-0.7590323834,0.381066907,1.118143205,-0.0336931326,1.378166738,-0.6576357606,0.6736300447,-0.4347885104,-0.2473129468,-0.5222293229,-1.0173136569,-0.3840130824,1.3332303071,-0.4114257239,0.129708998,-0.451508759,0.4775156991,1.4965711524,1.2866814226,-0.0318626176,-0.6862076873,1.4956662826,-0.6544769177,-0.8866484309,1.2625233271,0.0342116591,1.3816348864,0.9756963086,0.0387394158,0.2769284798,-0.1934049271,-1.0445682523,0.4075782929,1.1374847762,-0.4001261457,0.6196877752,0.537872747,0.7118284838,-0.3150386933,-0.1208353529,-1.1990840733,0.5601239087,-0.1471509137,1.0521593669,-0.9273174574,-0.3950148617,0.0040912639,1.0453984631,-0.3264295567,1.4486275916,1.0822152014,1.2966668142,-1.1414966734,-0.0521995685,-0.3815699688,1.0329869729,-0.8546860814,-0.0452878641,1.2587152061,-0.9770250124,0.8238222233,-0.3219748765,-0.7831808748,0.4954019204,1.5243603432,-0.1615152398,1.2393135689,-0.4507461866,1.5062270707,0.2872416457,-0.0382640304,-0.0282459791,0.0147534157,0.306132638,-0.5189194614,-0.313414936,0.3439735181,0.5506942554,0.2990983741,-0.4774784714,0.3413306072,1.1398303909,0.4310419878,0.1580289916,1.3806412048,0.185797682,1.0223698426,1.2164068254,0.5237162884,1.3781122042,-0.278058205,0.9536536282,-0.1113772769,-0.0635449377,-0.9742137845,-0.0410905142,0.8124837775,0.3473266073,0.2199570729,0.3584768347,-0.1459608929,0.3074657617,0.948652749,1.4659910778,-0.5695828593,-0.9547076751,1.5345350239,0.2471294231,-0.3085433479,-0.4703856799,0.2561274055,1.039458427,0.6871362466,-0.8493621064,0.5846735774,0.7250529459,-0.4547760279,-0.2881645577,-1.3644727013,0.4906014799,0.3983143685,0.2478393507,-0.7916427947,-0.1767784128,0.7431288307,-0.1411877164,0.5574173441,0.5853213342,1.0409760444,0.6265454896,-0.1696788374,0.8372535644,1.5375323161,-0.4376826514,0.1944562008,-0.8339553831,-0.7113983415,0.8686138068,-0.0877851194,-0.179059806,0.7496378256,-1.0133750026,1.1359472826,-0.3280498296,0.2940693885,-0.2358746523,-0.0686608284,0.7655285778,1.0165984605,1.3584142703,0.3711451065,0.7562744645,0.1655636015,0.1631865112,-0.1883567396,-0.4162413402,-0.1248766854,1.3288185905,1.2871961392,1.0919113879,-1.1147132473,-0.643587358,0.7067011613,0.599202328,1.3330849291,-0.7483029594,-0.219907177,0.5312109403,0.3906305399,-0.9252870395,-1.4176141438,-0.9854493152,0.5068742607,-1.2007114522,-0.0793264917,-1.8152118549,0.140554567,1.0546546463,0.4158004079,-0.3080395975,-0.9590966502,-0.5033557308,-2.0692083934,-1.6260803521,-0.806646078,-0.7487588716,-1.1102227788,-0.4723341267,-0.5618146509,0.5113670481,-0.4382127424,0.0461808135,-0.5274781774,-0.2005247702,-1.5405142742,-0.7759891478,1.1304069733,-0.8018361364,-0.5676136688,-0.3530370062,-0.8006630766,1.0452763389,-0.6796182198,1.0755817771,-0.7963298953,-0.6092521876,-0.3552940194,-1.5689720775,-0.2530040195,-1.4736542844,-0.1632916174,-0.3674552922,0.1474472959,-1.2682742559,-1.5961200166,-0.9054418078,-0.1629941011,1.0784130668,-0.3788670623,-0.9222776709,0.6823057931,0.9804726709,0.6804823813,-0.3949578275,0.3568157342,-2.4950082003,0.3414372813,1.0501148774,0.450670109,0.1661280472
   0.179582572,1.0624348269,-0.3391294651,0.8805382396,-1.1770645896,-1.3167562998,-1.6504839973,0.5878671416,1.0994946833,-1.0331472379,0.3325620822,0.6566280135,1.0353586707,0.4142328995,-0.804626279,-0.5896145146,-0.7238896576,-0.2145534269,0.25457286,0.9835834916,-0.0442218879,0.73438108,-0.329561106,-0.6867483659,-1.1428689358,-0.2805872654,1.0870082439,-0.6305676697,-0.8719714218,0.3177377622,-0.2901235736,0.4636642494,-0.3229129696,-0.89557454,-0.5821381348,1.0114823139,-0.8891930527,-1.88140332,0.8339557214,0.1079146819,-1.0889179603,-0.4957776695,-2.4885013022,0.9278101899,1.0052308696,0.2369469797,-0.3534833958,0.0487123111,0.0902956534,-0.2573628281,-0.076387676,-0.3832821327,-0.5107847662,-2.2156115481,-0.8116209813,-0.5978268657,0.3536543511,-0.2811698651,0.6511885597,-0.6888880966,-1.0151238569,-1.1562231465,-0.2350385919,0.6348639208,0.8298652863,-1.5409076097,0.0743480903,-0.5857410598,0.1962761052,0.6879685705,-1.6368946208,-1.4318366346,-0.9523756851,-1.2551703585,0.0623839526,-0.0720929485,-2.2217999015,0.8910839336,0.4501117425,-2.3153721275,0.4840000086,-0.1252631921,-0.1290437088,0.6750377306,-1.987225912,0.7244866407,-0.0873962357,-1.9611048408,-1.5610197297,-0.7753570088,0.9591747916,-1.8002728389,-0.2038047163,-0.4133429351,0.2977637441,-0.5083722148,0.0507446476,1.0309876058,-1.262024813,0.4072708926,-1.7701137752,-2.0279650873,0.6022890087,-0.6550521585,-0.2763518406,-0.1098384612,-0.224674185,-0.5223623748,0.7035195872,-1.4268589252,0.9753168178,0.4514048042,0.141682871,0.1004765772,-1.3778146244,-0.8422577766,-1.7800576445,-0.4785613825,-0.5902783301,-0.6271738324,0.3760833036,1.0656065745,-2.0388100229,-0.1905268933,-0.1313556875,-2.0749916323,0.6033987928,-0.2504639731,0.4615859939,-0.0436183897,0.7586750834,-1.8969339142,0.5970843897,1.1282144481,0.9594521792,0.7435325701,0.2737893977,-1.2188225674,0.6749064772,-0.8793005343,-2.1602756312,-0.015937575,0.951620085,0.0303256708,0.1048919283,1.0408492569,-0.6504306514,-1.8624305325,-1.1420764607,-1.0581163444,-1.7934178151,0.7121386878,0.8561064062,-1.6721039096,0.3962685794,-0.5305431732,-0.5847200464,-0.6862882729,-2.0989303143,0.0016011599,-0.6215252978,0.7115038397,0.4555610189,-0.6997238607,0.1417361668,0.169772325,-0.7194600312,0.9000530961,0.7346248622,-0.3997979443,-0.0937332253,0.25431753,-0.1395321392,-0.973423648,-0.3023427651,-0.7345521219,-0.3329379327,-0.6876883576,-0.0914035375,-0.5352310787,0.4426428089,-1.1014077564,-1.1305102427,0.5009514562,0.1921325302,-0.0776724129,0.5655354113,0.5984179491,0.7540389847,0.6087782377,-1.875273413,-1.2403356493,-1.4189589885,0.2349383787,-1.4230542873,-0.4838911121,-0.4939294641,0.254952927,0.5034500936,0.0097427529,-0.7157571123,1.1234650229,-1.0111055817,0.3167775823,0.1748746277,-0.2268186464,-2.3063146749,0.4589537061,0.7143095728,-0.9461656025,-0.3558282599,0.8091154144,-1.7090180037,-1.0729295819,-0.1883187866,-1.0324896915,-0.8368163076,0.0661632378,-0.863063971,0.0721943432,0.8754947042,1.0450124982,-0.7167908014,0.1844980955,0.3392977037,-0.2705352008,-0.6855837732,-0.0165019086,-0.6309983165,-1.9771702648,0.2924529565,-0.484041394,-0.5986834669,-0.0137991187,0.4828070852,0.6544030158,1.1077294616,-0.395658222,0.0096995387,1.0950394573,-2.3944828375,-0.3735246014,-0.8167878317,-1.0489575801,-0.298886662,-0.5457295614,0.6629401553,-1.0527666777,-0.1873325476,-1.561927518,0.3333433272,-0.2744450919,-0.35648774,-0.0396854476,-1.9522160366,-1.6199842298,-0.7145406933,-0.7328533484,0.5907862802,-0.6504671418,-0.2003514672,0.421125293,-0.6679010207,-0.2598324823,0.5412958569,1.0767713498,-0.3649946302,0.4693436168,0.0382661078,-0.4465646476,1.1001108327,-0.9956790398,-0.3604396862,0.0672136527,1.1047970107,-0.0170543916,-0.2184130802,0.4035841188,0.7343344071,-0.2114530592,-1.9267675935,0.3705059905,-0.0727670579,-1.1979650313,0.4936843781,-0.9537492122,-0.3630572348,0.9921839122,-0.6565242643,-0.6764440902,-0.6116230075,-0.2330998618,0.5997117291,-0.208866413,0.3876889599,-0.5988055796,-0.5746621819,1.0940556519,-0.3924366744,0.2544519832,0.1310635518,0.3699411519,-1.2539517712,-0.3445475795,0.193277199,-0.7185325767,-0.0781613723,-0.8326811465,-0.7017213083,-0.4891800119,-0.508130304,-1.7843746985,-0.4876630344,-2.3942704958,0.5793384183,-1.1331362409,0.3314200095,-0.0404008336,-0.8384500004,-0.7748125442,0.0953461803,0.950043992,-0.6588073272,-0.4599912714,-0.2993439812,0.2825300807,-2.5886029791,-2.4246719522,-0.856859703,0.1378342205,-0.3025091324,-1.3724177826,-0.6103815923,-0.6252600503,-2.1547858085,-1.7802958796,-0.8256202549,-1.5063456251,-1.6971745846,-2.4550589793,-1.3474669045,-1.963522892,0.2405121631,-0.6820264464,0.2457765761,-2.3888224722,-0.2349176483,1.3854220578,-1.4062620274,-2.5692530238,-2.0335515479,-2.5748158566,-1.4212705415,-1.7041757906,-0.255519606,-0.0202925112,-0.2825583781,-0.0822517609,-0.7341740677,1.0484946839,-2.5257183239,-0.6745772432,-1.3806706128,-0.63456429,-0.4734762739,0.0642305384,-2.0777678856,-0.8762538945,0.1406957766,-0.6468097191,-1.079819532,-2.2263560447,-0.7237162054,-2.3977981407,-2.4223969191,0.9798398438,-1.0601659483,-2.0513797651,-1.9949292569,-1.0036268972,-1.5011057975,-1.4854606698,-0.7945676886,-1.5679881404,-0.2424092309,0.6206347649,0.8224118349,-1.0399411413,-0.77190842,-0.7569278838,1.2842472607,-2.6013523526,-2.1494366679,-1.5017514041,-2.3923675641,-0.628593631,-0.8558012628,-1.4869503307,-1.8950169329,-1.2994868743,-0.7072435796,-2.2715516975,0.9074884476,-2.2219135578,0.3596498566,-1.3255848231,-2.3419259951,-0.132453675,0.9060544271,-1.9572012333,-1.3912729169,-0.9818173437,-0.7219353791,-0.2144150159,-2.0988663117,-1.1813781523,-0.1269187595,-0.1098219211,-1.5865545705,0.9013566109,0.9605695937,-0.3253060582,0.9340087421,-2.4259685529,-2.4921521934,-0.613575974,-0.6859189681,-0.7508984097,-2.1837672614,-1.0876093257,1.3980852793,-1.218058971,-1.9783273133,-0.661929596,-2.41732728,-1.0955100203,-1.6950609789,-1.758095748,-0.8875418097,-1.0319452309,2.22658433,1.128212839,-0.9725247161,-1.8242425338,-1.3094534803,-0.5267498502,-2.1193818765,0.1121064888,-2.1648801397,-2.608106175,1.1836175462,1.0471389899,1.1337789931,1.3690317136,-0.7844964183,-0.6553968065,-0.5372668902,-1.051301201,-0.9908448234,-0.1269544487,-2.4755125434,0.2740710431,-2.5214713138,0.3112470845,-0.6722925014,0.2298647551,-0.6882540833,-0.5902020881,1.6664149115,-2.3985974153,-2.4880272178,0.7373783069,-1.9834036386,-2.4895817462,-0.3595402553,0.3430192065,-0.7927592544,-2.3916146626,1.0343134516,-1.5641222107,-0.7381065812,-0.2482517427,-1.9227342521,-0.818510797,-1.6548241432,-0.7119328165,-1.0586289216,0.9113195547,-2.1453963382,1.0401065634,-1.7570817534,-0.9657380537,-2.4075092722,2.1887838962,0.5354252797,-2.5345242776,0.1450849818,-0.9458765167,-1.5748475458,-0.8345739844,-0.4568919576,-1.5532192372,-0.8324812618,-2.1307121931,0.5078862343,1.0199980064,-2.4350217892,-1.9951880492,0.5881288535,-1.854644034,-1.7538151425,1.3156599523,-0.7477941637,-2.5247260919,-1.4701473708,-2.5618531857,-1.7791495416,-0.7712215924,-0.9195890731,-0.272170182,-0.279675722,-1.0593907398,-1.6220030243,-2.444083356,0.5808151503,-2.0517775758,-1.2749701442,-0.8115953761,-0.2648806298,0.594279316,-0.3543321067,-2.2809505324,-1.8288631427,0.6572843073,-1.7582556161,0.2237358383,-1.2844763489,0.5263350588,1.7038197909,-1.2526568466,-0.2233355134,-1.7405536222,0.4629503039,-2.3632684469,-2.1455578038,-2.1449699707,-0.1108459786,-0.7677250436,-2.3219096144,-0.9078290858,0.3549589726,-1.9744130564,0.2080232835,-1.0710536003,-2.3746527017,-0.308459551,0.1355747123,-1.4877702538,-1.4129885035,-1.906037172,-2.2749040482,0.7134360726,0.4762841676,-1.5498776837,-1.8870405133,-2.3773076979,-2.0076535287,-1.6244668301,-0.2444977887,-1.6167841577,0.2148488725,0.862468367,-0.7150108224,-1.014227103,0.8268523708,-0.7208719762,-1.1485868762,-1.3617722482,-1.815223124,-1.344216302,-0.1263196048,-1.8514138222,0.9727071344,-0.8522371921,-1.2426314892,-0.8885270537,0.3794486159,-2.0022138352,-0.6685542113,0.9982077018,-0.9666604896,-2.0349869463,-0.2832111719,0.8428606846,-2.1355190808,0.3119231647,-1.7243378947,-0.851422465,-2.0779132044,0.4480200606,-1.1192239233,-1.4920824984,-1.9656128524,-2.0578126643,0.5149055547,-1.4682261581,-0.9338447204,-0.995327794,-2.0174097144,1.0717951234,-1.4300788482,-0.8890747176,-1.6326348245,-2.5250027837,-2.2386085357,-1.8271653821,-1.8251843646,-2.0203807242,-2.0482828899,-2.5630582522,0.8503768028,-1.1340639498,-0.4922677279,0.3829138312,1.4410553397,-2.1340426779,-2.3427615747,-0.6992089743,-0.8360889725,-0.2352752547,0.0039276959,-2.5240845132,-1.5452178665,-1.4780896992,0.6651686023,0.0210338587,-1.9603724814,-2.0108341592,-1.9326620723,1.1229618128,-1.8462257274,-0.4978799635,-0.1380129863,0.5285357528,-1.1099231753,-0.7060874527,0.3716392861,1.1280404286,2.0421081232,-1.423596246,-2.4765891181,0.950228613,0.6769336489,-2.1838671642,-2.5589929304,-1.3729349067,-0.0772218864,-0.5478534811,-1.4932878387,-0.9811452081,0.4384852896,-2.568106918,-0.9167170752,-0.3039384369,-2.0441230348,-0.5084622572,2.5110052542,-1.5306203969,-0.1853161621,-1.4800488089,-1.7917596463,-0.3177157631,-2.5000805226,-1.3809707132,-0.8631991245,-1.4351596485,0.0340307202,0.3086296442,-2.6465139545,-2.5200710979,-1.2533430316,-0.8626767429,0.5270523289,0.9184755,0.1779015494,-2.2842947708,-2.4233559109,-0.9753223013,-1.7063941466,-1.0972167458,-0.1199427391,0.5239910788,-2.1711228998,0.5497106818,-0.7534418825,-0.764388978,-1.2834525293,0.5700910564,-0.4902985989,-0.5303077048,0.6735021253,-0.9996768931,-1.0777104857,0.6627802307,0.0048417569,0.551660666,-0.0312885485,0.0632050206,0.6978181106,0.9987775063,-1.5115382144,0.5924531048,-0.028223797,-0.899019613,-1.0730856992,-0.3702989565,-0.9644238336,-0.4422736923,-1.5789851887,0.0117631348,-1.4823791716,-1.1977562929,-0.1099306332,-0.1542225098,0.1034929792,-0.9065481817,-0.9227860533,-0.4944468229,-0.2065104895,0.2403454638,-0.7653443895,-0.5242645405,0.1503390067,-0.6522192368,-0.8752452218,0.9634108343,0.726779102,-0.5490296264,-0.8138420739,0.4743200603,-0.7701543698,-0.440000364,-1.5819257439,0.1753642195,0.4996687752,-0.9961962209,-0.9251194366,-0.602586023,-0.6681091486,0.9233816097,-1.4692876927,0.2901176488,-1.6438579638,-1.2671727896,-0.494054382,-0.2616041228,-0.4690551517,-0.309156212,-0.8458599707,-0.6844694523,0.5350876208,0.1470035345,0.2826256056,-0.9205035034,-1.310397515,-1.2571898078,-0.7279427965,-1.3889356257,-0.0710993742,0.3760703234,0.5545000514,-0.9674234525,-0.9212284445,-1.4078703984,-1.5084647826,0.0092514849,0.7382326302,-1.5940699779,-0.6185430325,-0.2391609713,-0.3876897817,-0.8827283374,0.1686985225,-0.6919897309,-0.8030458024,-0.9095544615,-0.727580849,0.5354841639,-1.3823042892,-0.7379452593,0.1321542639,-1.0818332149,-0.9843408251,0.2128395233,-0.3095680094,-0.0744069562,-1.1096061033,0.091923428,-0.5446675916,-0.1331513122,-0.9627623862,-0.5736665055,-1.0927560676,-1.1689263993,-1.4794418309,-0.4168779569,1.1302114129,0.3555846138,-0.3470083518,-1.2838491412,-0.4407776205,-1.2018792295,-0.6082099951,-0.0330779642,-1.0930807199,-1.2900022982,-1.0874790932,-1.4829351323,-0.2406979552,-0.030457627,0.3589330367,0.549414136,-0.4705021526,0.4430518351,-1.4641766578,-1.1612018766,-0.0768571798,-1.3384001021,0.1202405018,-0.2137306362,-0.5331978657,0.1556642363,0.5605101163,0.5471667224,0.8074074378,0.211822144,-0.9251325668,-0.8022754915,0.3719540431,0.3114320193,-0.2159415766,-0.0346504547,-0.0431505558,-0.8878087542,0.5001320299,0.6925447806,-0.7034604055,0.3792341452,0.2666921557,-0.6255728773,0.1686039808,0.1863336447,-0.8875906145,-1.6363679625,-0.6975171577,0.1378545151,-0.6804987232,-0.5673155279,-0.0152098854,0.5180561517,-0.9218279665,-0.5650120364,-0.324030895,-1.1020110719,-0.1931885516,-1.2926752498,-1.0023900551,-0.689428369,-0.8150636837,-0.6421458315,-1.4025635786,-0.0482621197,0.1561122139,-0.0364288269,-0.1818698517,-0.5320101802,1.3342458815,-1.5278703863,-0.5370801269,-0.5578114937,0.2222794357,0.321103117,-1.2946823909,-1.1723442191,0.6553884718,-1.0484403755,-0.8285812695,-1.2570928242,-0.7533786026,0.1844903955,-0.9953595832,-0.4251861054,-0.2651023057,-0.3884761392,-0.5650687389,0.4670413753,-0.7125895192,-0.1811109325,-1.7255516817,-0.0650139644,-0.95012357,-0.9784141589,-0.8278081995,-0.8290437691,0.0358565285,-0.0974738213,-0.0693770287,0.3677542013,0.5928294582,0.8853736526,-0.3431423492,-0.762356031,-1.6039130544,0.5529631927,-0.2847921987,-0.5778757392,0.2261417025,0.9347297176,0.7294224643,-1.4325783729,-0.204984145,0.151753935,0.3497321969,0.0039022352,-0.3330720614,-0.7391539286,-1.0261078969,0.5536961979,-1.0180398078,-0.3622650564,-1.2617434923,0.2580947994,0.7716933012,-0.8271306994,-1.1096351104,-0.3437901378,-0.9997679031,0.2667319189,-0.0475541095,-1.5670104808,-1.30969731,-0.2248163734,-0.133506842,-1.2540943581,0.3602130056,0.3869545209,-0.5481425131,0.186812257,-0.4067390444,0.7153011739,0.3540223126,-1.6682911048,-0.8657364856,-1.6874315494,-0.7051152741,-1.0356983532,-1.0750308332,-0.4376483397,-0.2008402556,-0.6227830101,-1.2403069179,-0.4567394818,-0.8223405192,-0.1825898351,0.4743054526,-0.613706635,0.6275819785,0.2127044019,-0.2524237612,0.6548366496,-0.4629881471,-0.5435273104,-1.1726739107,-0.7500921988,0.0933156115,0.2599485954,-0.4468135834,0.0927381832,-0.488795361,-1.0778828739,-0.506130632,-0.9646451427,0.2754958282,-1.7234371734,-0.7943181052,-0.5910439167,-1.0424610604,0.4532079621,-0.1933057221,-0.9817311274,-1.3355389393,-0.2555687615,-1.5435117545,-0.1633509092,-1.1538741807,-0.7097367579,0.2836855322,-0.4651953132,-1.5361708672,0.4725784362,-0.04750568,-0.8204554187,-0.2469408144,-0.5644110951,0.6269167676,-0.1370167682,-0.3361427383,-0.3687435613,-0.915859859,-1.2815370161,0.2211772167,0.137390257,-0.9446657442,-0.1088084735,0.3994549407,-0.9981850656,-1.5304103276,-0.0680396879,-0.3569906974,-1.1492588827,-1.0977903895,-0.1779336646,-0.291633546,-0.7902912204,-0.6506243296,-1.5142945867,-0.1504800136,0.2189229325,0.3499956353,0.2558200822,-1.584868447,0.2360601098,-0.6641727916,-0.6723083555,-1.5779932236,0.5016012258,0.0398976793,-0.3119816348,-1.167466501,-1.2792085028,0.8137261931,-0.3328385513,0.1493028874,-0.3690449476,-1.3182050802,0.6966916432,1.4967324407,-0.6926608529,-0.3397506304,-0.9045453955,-0.2838311808,-0.5208615673,0.6760147297,-0.8063038986,-1.1230974242,-0.8811301199,0.3721737553,-0.1457229813,-1.2875853369,-1.0441378949,-1.2178917498,-1.6083219242,-1.525975677,-0.0883906071,-0.1680707772,-0.4713473701,-0.1146295749,0.5458330302,-1.2357633881,-0.2618960994,0.2532282078,0.3367365667,-1.3322700091,0.1541718077,-0.1493842808,-1.5158729931,0.3955253552,-0.2923789623,-0.5505008186,-0.6582032625,0.272556746,0.5239486166,-2.0478258232,0.3814386558,-1.0278658569,-0.1599209779,-0.991246143,-0.9452929911,-0.6852881577,-0.4654226242,0.47499997,-1.9730422554,-0.5067055081,0.7394313493,-2.5874543471,-2.4854791011,0.7616323924,-2.1326549252,-1.2435753508,-1.9929705448,-1.6720704752,-0.8630620795,-0.8698435428,0.9488701682,-0.3945446684,-1.288627246,-2.5041012974,2.1864239569,-2.491286643,-1.7879153368,-1.6406590458,-1.2345459295,-1.6021077435,-2.2471573181,0.4011447887,0.7634194307,0.2715394256,-0.5537026009,-1.9945934544,0.415029521,-1.8015483872,0.4507517303,-0.8563117405,-0.1989685558,0.3810784179,1.0118135673,-2.4415431265,-1.0385760915,-0.1349301005,-0.7695012202,-2.0873763844,-1.5951691764,0.6283690053,-1.5547746481,-2.5094229436,-0.602997548,-2.1810710133,-1.5358231333,-1.4205025875,0.0049403442,-1.0994057686,-2.306203468,-0.8368543656,-1.8586718646,-0.4288184292,0.1569038284,0.1374936102,-1.2042763178,-1.5134914613,0.307456416,0.7740040066,-1.593439937,-2.4300777418,-1.9761363985,-0.7779191656,0.3839023027,0.2385379285,-1.5088539716,-2.3520108941,-1.3022451225,-2.590379879,-1.0676846286,0.1830042999,-1.2400442644,0.867275487,-1.0094093635,-1.7034966523,-0.459899883,0.6408958614,-2.5652710683,-1.9019144451,0.5099612942,-0.4850706634,0.3687415484,-1.9216017529,-0.8584423913,-0.773213551,-0.3522567861,-1.422902323,-0.4595220418,0.1016707658,-0.6883725256,0.400667115,-1.6103037575,-1.8793546935,0.6640236027,0.1375283743,-0.9905004985,-1.4130380497,-2.3451800643,2.0909461557,-1.9281139904,-1.8694218795,0.240896648,-1.7085366161,-2.5640600266,-2.0477571534,-2.025491831,-1.686556177,-0.6757481712,2.0003151126,0.8724604261,-1.4728571737,-1.283906421,-1.9079097627,0.4063338128,-1.7696218239,0.5661887518,-0.956520695,-1.1973344788,0.0190604861,0.6744621567,0.3473990294,1.4333577637,-0.3139079678,-1.5398155962,-0.6893261131,-1.4151013349,-1.0273826169,0.9706759403,-1.078159754,-0.4627446577,-1.6909092814,0.7295153906,-0.6760915298,-0.8503979702,-1.321529654,0.5857310221,2.4558281685,-2.3002075893,-2.420199483,0.6243100177,-1.0478701964,-0.9825115035,0.5039784766,0.1189412875,-1.3500518654,-0.6656010708,0.9437472913,-0.858038446,0.5351941186,-1.0647922368,-0.8034320854,-2.3718636816,-1.0051377544,-0.0188068552,-1.8235454472,0.681487866,-1.1216882872,0.6420405789,-1.284993425,-2.290704034,-1.0579389267,1.8430410394,0.189171294,-2.6030256381,-0.1520176181,-1.2989992842,-2.2547246073,0.0476868577,0.1287573278,-2.0145495854,0.8856146924,-2.5230480384,-0.7150450559,-0.1534356113,-2.5907562846,-2.4524591536,0.9804970551,-2.2123774311,-2.3406115334,0.1756888518,-0.6706575435,-1.4462916383,-1.5022532818,-1.8728810235,-1.868098619,-0.3540686896,-1.0436809446,0.7888820302,0.376505072,-0.9790592412,-1.7232081135,-1.5631340298,-0.6921945184,-1.3708298013,-2.5301449562,0.5754320816,-0.2422602509,-0.9306863349,-0.0120615986,-1.5668172011,-2.3917513098,-0.1288451586,-2.4808746667,1.1530284187,-0.736448777,-0.425566062,2.1901059699,0.4287392638,0.3852056856,-1.3110619954,-1.1807722648,-1.1631284945,-2.4278512292,-1.1259142094,0.0861481489,-2.2875148559,-1.018441943,-0.9348312777,-1.001201092,-1.7589663378,0.7189205158,0.8479794016,-0.9791630721,0.8907732445,-1.8253833202,-2.4021599183,-1.9729490355,-2.443634692,-2.3440255139,0.8337828845,0.3675381483,-1.8665229678,-2.5748476406,-2.2474033075,-1.1670430501,-1.2720457685,0.8789137003,-0.8980928303,0.4718081372,0.5373264637,0.9829143409,-0.9101310875,-0.8298068534,-2.5503135137,-1.4529996975,-2.3176550486,-2.5623444447,-2.1190374806,-1.7251039104,-2.4605890234,0.6942563519,-1.5501233035,-2.4397432036,-2.2212910384,0.2436147877,-0.7699436053,-1.841325228,0.729612023,-1.1551478163,-0.7471805428,-0.2615595801,-1.002804909,-1.859314579,1.1186470892,-0.8785283048,-2.2897443454,-2.3989828305,0.8511094639,-1.159078331,-2.0983801686,-1.3738219746,-0.8335027813,1.0296579756,-0.9233365923,-2.351221591,-1.3245073563,-1.2834124361,0.9576683723,-0.9771793085,-2.2142989687,-2.6004691829,-2.3976020431,-1.2037169091,-0.9977350107,-1.0305018377,-0.8114217423,-2.0660303766,-0.7679920774,0.18825638,-1.6134909534,0.7482014365,-0.5137406931,0.8189029025,-2.0531631699,-0.8360737969,0.5725201283,-0.0469199587,-0.7865951941,-0.8955764174,-1.6953842242,-1.4115270788,-0.8061611978,0.0169904375,0.1709592717,-1.6239275715,-2.4134135198,-1.906828721,-0.8216308244,-1.8033415343,-2.2244662418,-0.5041780248,0.045246742,-1.2975382915,-1.8502543233,0.9951711471,1.665341721,1.5375210038,-1.4170384729,-1.450919236,0.5321641158,0.346244459,-1.2216425145,-0.9733295033,-1.056784293,0.025322352,-1.832538989,-1.2666261058,0.0013825061,-0.8551620009,-1.6740355568,-2.5092495502,0.5194979628,-1.6042650171,0.7999018759,0.6039557731,-2.5018843123,-0.0670910437,-1.7803467916,-1.8697058735,0.0962887111,-1.9127640208,0.0027475976,-1.3238413882,-2.2837510624,0.7840741165,-1.4328575067,-2.0323073273,-2.4471340152,-2.4193070642,-0.9665155688,0.159203309,0.4102993751,-1.2129606055,-0.7893116649,-2.2784770179,-1.9154296138,-1.5497972458,-2.4273123309,-0.1255741656,0.4538481977,-1.3627897493,0.6632589131,-1.472888817,-0.3643817957,-1.4171737798,0.0263419008,0.2213877032,-0.8066783454,-0.6475884946,-0.4352806489,-0.2113635706,0.3401425369,0.7770501832,0.2621605766,1.0737669779,0.6522677423,-1.2109214253,-1.3024086918,-0.9593349456,0.527733483,-0.1283154947,-0.3405506314,1.0364970771,0.3822603063,-0.0882168313,-0.0121081312,-0.3346143308,-0.6197545601,1.277636905,-0.2484907718,0.6180250532,-1.0487790715,-1.0362144139,-0.3931498483,1.0681612781,-2.3626329017,-0.4837847705,1.021282866,-0.1750892983,0.4861765061,0.5225495953,-0.5710657053,-0.0114439609,0.2193174039,-0.2202535198,-0.7291364337,1.3247879938,0.1985757052,0.9515324894,-0.7307255057,0.277126929,0.0173361493,0.6674579668,0.2260103054,-0.5174533412,0.390464695,-0.0295111202,0.1309853559,0.8365197442,0.7027399309,-0.8175555965,-0.2334222059,0.5103694579,0.1689563319,0.8653837802,0.8435216182,0.0585384401,-0.2661188477,-0.0407819998,0.1767208603,-0.053986879,1.2225665497,-1.1337427459,0.2433533096,-0.2457421061,0.3119281571,0.1791230181,-0.2771598652,-1.0421205508,0.9540671269,-0.0645721326,-0.6155160537,-0.4533842554,-0.2995108427,-0.6981816155,-0.2519624718,-0.2158288897,1.0144790798,0.8777534696,0.8972997477,0.014186238,0.8988695736,0.0997954116,-0.1935240223,0.7437091991,-1.2338438761,0.4107499608,1.0927404718,-0.4048564052,0.5169604057,-1.0958726254,-0.4710365035,-0.5433196278,0.4965093156,-0.581145401,-0.8568140651,-0.0250553503,0.7302280102,-0.6558547419,-0.8501308,-0.8433432907,0.6079811298,0.0851458214,0.2359747209,0.3737094333,1.2767675784,1.1256114198,-0.1747400498,-1.1030610419,0.2657710359,0.4266787267,-0.7358181519,0.1273559808,0.1562635406,-0.3841352539,0.828086745,0.2970108603,-0.3147053687,-2.1398483133,-0.1372467602,1.2687518122,0.0996249647,0.0695215054,0.4095230668,-0.5824808815,0.8218922871,0.8897354444,-0.1491714007,0.1867184769,0.0475754283,-0.9334950436,-1.4716312011,-0.1837005458,0.2855459684,0.1115472195,1.3317487283,0.67581046,-0.0476328646,0.465406776,-0.7412366569,0.16115958,0.9221794886,-0.5607557732,-0.8630199284,0.048950175,0.0593274016,-1.0394484878,0.8695973889,1.2459057158,0.6550217698,0.155923901,0.6542764551,0.191629192,0.4799826644,-0.3013985201,1.0534919673,0.6312027007,0.2592042462,0.0544014558,-1.0096741779,-0.3241274007,-0.3085946062,-0.6364705932,-0.619399506,0.995252075,-0.7219665257,0.6532044384,-1.4096015435,0.7903542441,0.6937640659,0.9765297119,-1.8448537418,-0.2210110825,0.332519182,-0.6095267962,1.0219712797,0.3068919642,-1.1543344093,-0.6408738755,0.7269532703,0.032450676,0.0728530566,0.2407108217,-0.7725509674,-0.4657522602,-0.117581242,-0.3607669374,0.0897215485,-0.3689077728,-0.7493238687,0.3821379806,1.0534497903,1.0008910814,-0.2930497404,1.1832296077,-0.392426514,0.4039797119,0.5667834005,-0.6425928332,1.2753587877,0.2440331454,0.4447894258,-0.2730924889,1.0350483125,1.2535100352,0.3949211737,-0.7197234912,-0.0329410571,-0.8733155433,1.3232062375,1.2758658733,-1.1548407408,-0.0697796611,0.2720083895,-0.1737641141,-0.9232454946,-0.0485422125,0.4392905842,-0.2930317818,-0.1043953264,-0.4611828228,0.9730824763,0.978930967,1.1161478879,-0.2388811909,0.4116796994,0.9159802197,-0.2996428504,-0.1806855395,0.286929319,0.3250789254,-0.4786320507,1.2700041717,-1.1244216887,1.1807122622,-0.453508608,0.9904690207,0.3892649794,-0.3182958479,-0.7560725883,-0.9024445141,0.8694168821,0.6321015545,-0.6484495999,-0.0366615603,-0.3168946534,-0.8209214302,-0.0377825844,-0.9692939099,1.0146866301,-0.6764603537,1.0701812377,-0.5798521714,-0.537764971,0.8185754993,-0.0489291991,1.1213326601,0.0924857931,-0.8845996809,-0.3454238898,-0.2062035851,-0.1841899827,0.4813572574,0.0249950996,-0.1463139541,0.1731521555,-0.4540483378,-1.0765969015,-0.0931429174,1.0052169556,-1.0608343284,0.0994277541,-0.4550859057,0.4414122421,-0.0518920594,0.9345613222,-0.0191840553,-0.4200428301,0.4109265438,0.8051629894,1.0892289942,0.4557063319,-0.6504688276,1.2087555551,0.9306700315,-0.4473795788,0.5409409848,-0.784539527,-0.4017458628,0.9432925083,0.1545800301,-0.309216976,1.2677826553,0.862139697,0.2098636275,0.6838496842,0.0842658348,0.865793961,0.4194489597,0.8416062538,-0.1208290423,0.0103193314,-2.1057287807,-0.6418384843,0.0857890911,-0.0571172969,0.4725437118,0.3089959775,-0.6346598361,0.1484103217,0.5002534009,0.5307660596,0.7986212049,-0.4293579409,0.4847263964,1.2645212224,-0.5616641029,-1.2288992369,-0.082442109,0.8907548533,1.0952827675,0.0536995549,-0.4894429334,1.0819734569,0.3612956986,-0.6834886894,-1.3203859926,-0.3956144249,1.2806577079,0.2321423367,-0.7416185879,1.1801399836,1.3155171052,1.0148886799,0.6864457985,0.4812228939,1.2060283606,-0.0935111628,0.2256332848,-0.4111026409,-0.3909715479,0.486843729,-0.112692049,-0.7936830958,-0.4588053936,0.9228807947,-0.3079867813,0.0768350251,-0.2597667628,0.8470834767,-0.0541443816,-0.2461338231,-0.4221837064,-0.1219001415,-0.9955066982,0.2999299998,1.2761248344,-0.1023724793,0.639812521,0.065050623,-0.1158078887,-0.2921546461,0.6473909099,1.0409386808,0.3477025292,0.2869535826,0.2517593963,0.6177638939,-0.7348095033,-0.9196362392,0.8248426755,-0.7186885149,-0.6381383883,-0.411287864,-0.4206692461,-0.9851731353,-0.3072275428,-0.1273965243,0.8749830723,0.771531694,2.5711593991,0.8405959186,0.7390903868,0.2529288163,2.2819136495,1.6075593832,-1.0646900835,-0.4059867423,0.906622828,0.9068035531,-0.6928542616,-0.1310432405,2.0710651334,1.4124542311,-0.485794361,1.0326868426,2.5277864798,2.5914424734,1.6769776522,1.8005367053,0.2375803252,-1.0365022523,0.0755222532,2.4511137729,1.5345551001,-1.3858094593,1.3807761743,1.6820909206,0.8969469552,2.5158996321,1.9723466595,1.3112003131,-0.7921542226,0.0704436055,0.5302947071,0.6847448964,1.702413912,0.1590642554,0.9134601043,0.6387074631,1.5649756057,-0.3877789159,0.2761372856,-1.1118163233,2.4179774648,1.1088302434,0.8906471583,0.1910126661,0.9991679781,0.6770534646,-0.2580713869,2.0773051771,1.5001680285,-1.0045554876,0.7177912152,1.7123184846,1.6304362279,-0.2283436289,1.9588670324,1.2403342647,2.3170381876,1.2237305247,0.3948294476,0.0641653477,0.9130759036,1.497441237,1.0185603711,-1.087252166,-1.8672140588,1.2021226418,1.0809627647,0.9083728837,2.4898283506,0.4718123061,0.0235189037,2.4845260693,0.7788160674,2.6299695554,1.17560326,2.3808621485,-0.2071087459,2.1340042046,0.9177514223,0.6923576882,0.8410578385,0.7176840712,0.7931476017,0.75443711,1.7528590578,0.1262971143,0.2458485342,0.8281044065,1.8204076237,1.0568213141,0.7668109469,-0.9601179399,1.1512051807,-0.7143380594,0.3426859378,0.3538903869,0.4316902441,1.0828625973,1.816675909,-0.5686950124,-0.2535094802,0.7250902981,1.6252806409,1.9111158363,-2.6289234052,1.3815167326,2.1454795746,-0.3993377542,2.4590079907,2.5099866944,1.3734227089,0.7338172165,1.6436717428,2.3826405027,-1.3583479785,-1.0920551305,1.4510483293,1.8846335645,0.8078684609,-0.8675659107,2.3858427278,-0.1690777994,1.7661462355,2.2537889487,-0.3882759008,-0.86681931,-1.3905175687,-2.5297497953,-0.4748446059,0.7062080792,-0.2053263889,0.8959293058,1.764370508,0.7565331107,2.1684152468,0.2637768453,2.1542531372,-0.3846539416,-0.883635769,0.0831812022,2.5292123116,0.1486489399,-0.0526234553,0.7617903952,1.0356048554,-0.0384393362,2.4188386752,2.6424888544,1.0906250659,0.5670103165,0.8907732299,2.1399336839,-0.9410284933,1.0226885694,-0.9703043576,-0.393921037,2.4702564646,2.5786315241,0.8295574735,0.6181487651,1.907601526,1.2048258184,1.6460326291,0.7402707167,1.6745219611,1.6191233572,2.067509165,-2.4765012499,-0.0536427324,0.7252922261,-0.3119527564,1.3950825724,2.1241260108,-0.7963004778,-0.4657218692,2.5462895563,0.9113722866,1.2830319847,0.8880830466,-0.5628652992,2.2119874336,2.1313129974,0.4773876107,2.3812034424,0.8971795663,-1.6561772557,0.9763782454,1.2557616153,2.2449639984,1.9772876942,2.0540357575,-0.2179767081,1.6997900853,-0.367744997,0.3979954824,2.6231277179,1.8685361303,2.0918933243,0.0430308623,1.4833572213,1.8555988474,-0.8803299055
