encog,BasicNetwork,java,3.3.0,1,1576422368565
[BASIC]
[BASIC:PARAMS]
[BASIC:NETWORK]
beginTraining=0
connectionLimit=0
contextTargetOffset=0,0,0,0
contextTargetSize=0,0,0,0
endTraining=3
hasContext=f
inputCount=379
layerCounts=4,16,64,380
layerFeedCounts=4,15,63,379
layerContextCount=0,0,0,0
layerIndex=0,4,20,84
output=0,0,0,0,0,0,0,0,0,0,0,0,0,0,0,0,0,0,0,1,0,0,0,0,0,0,0,0,0,0,0,0,0,0,0,0,0,0,0,0,0,0,0,0,0,0,0,0,0,0,0,0,0,0,0,0,0,0,0,0,0,0,0,0,0,0,0,0,0,0,0,0,0,0,0,0,0,0,0,0,0,0,0,1,0,0,0,0,0,0,0,0,0,0,0,0,0,0,0,0,0,0,0,0,0,0,0,0,0,0,0,0,0,0,0,0,0,0,0,0,0,0,0,0,0,0,0,0,0,0,0,0,0,0,0,0,0,0,0,0,0,0,0,0,0,0,0,0,0,0,0,0,0,0,0,0,0,0,0,0,0,0,0,0,0,0,0,0,0,0,0,0,0,0,0,0,0,0,0,0,0,0,0,0,0,0,0,0,0,0,0,0,0,0,0,0,0,0,0,0,0,0,0,0,0,0,0,0,0,0,0,0,0,0,0,0,0,0,0,0,0,0,0,0,0,0,0,0,0,0,0,0,0,0,0,0,0,0,0,0,0,0,0,0,0,0,0,0,0,0,0,0,0,0,0,0,0,0,0,0,0,0,0,0,0,0,0,0,0,0,0,0,0,0,0,0,0,0,0,0,0,0,0,0,0,0,0,0,0,0,0,0,0,0,0,0,0,0,0,0,0,0,0,0,0,0,0,0,0,0,0,0,0,0,0,0,0,0,0,0,0,0,0,0,0,0,0,0,0,0,0,0,0,0,0,0,0,0,0,0,0,0,0,0,0,0,0,0,0,0,0,0,0,0,0,0,0,0,0,0,0,0,0,0,0,0,0,0,0,0,0,0,0,0,0,0,0,0,0,0,0,0,0,0,0,0,0,0,0,0,0,0,0,0,0,0,0,0,0,0,0,0,0,0,0,0,0,0,0,0,0,0,0,0,0,0,0,0,0,0,0,0,0,0,0,0,0,0,0,0,0,0,0,0,0,0,0,0,0,0,0,0,0,0,0,0,0,0,0,0,0,0,0,0,0,0,0,0,0,0,0,0,0,1
outputCount=4
weightIndex=0,64,1024,24964
weights=##0
##double#24964
   -0.8598999641,0.7411180443,0.1810869675,0.6875968363,1.8480516621,0.4551961806,-0.2142615014,-0.3301465227,-0.1020368152,0.732543933,-0.5386875847,0.7562526837,-0.1984650962,-0.8715017781,-1.7267645349,-0.2431536046,1.1485460133,-2.8920198385,-0.1606701988,-1.286164422,-2.909187234,0.8658658487,0.0375584786,0.5258999874,-0.3193126237,0.5456303216,0.0048348634,-0.752212992,-0.3645190274,1.2383570074,1.3571713105,-0.9737292891,1.1471556798,-3.1194674049,-0.2777591519,-3.6700898461,-0.1250878641,-3.5660782057,0.5584562081,-3.1410591134,0.3810630509,-3.2521596163,-0.6451432929,0.9737436138,0.4974173276,-0.2595131276,-0.4686296119,-0.6378090926,-4.0764594861,-0.3425824065,-0.596508527,-2.7647560299,-1.4114119624,0.9465228763,-1.1881006127,0.5845076729,-0.596867224,0.3754336252,-0.6791696734,-0.5803895856,-0.8376365142,0.9774094199,0.3453192541,-0.960009592,0.1745337805,-1.0645089308,-0.5081624767,0.2425109473,-0.621036337,0.7007065518,0.9498594316,-0.4875426868,0.2607248768,-0.6385689834,0.3222018471,-0.6450386986,-0.4315173702,-0.6956909036,-0.2018294482,0.5075031453,0.153739289,0.0649021692,-0.6375592199,0.9708007988,-1.1304844935,0.3902389861,0.9671457181,-0.8960994222,-0.917714995,-1.3819301366,-0.9578573537,0.0731756263,-0.1210841079,0.8099539227,-0.237765185,0.6185824404,-0.7901405411,0.9680270085,-0.4804162298,-1.3798771468,-0.3031611567,-0.6660774623,0.930070268,1.2019372547,-0.666856316,0.6802749416,0.6390733426,-0.3427392114,-0.7531517119,-0.494604898,-0.2353954751,-0.848444651,-0.5235937481,1.1558936698,-1.195655623,0.2189522907,0.0479831344,0.1887040663,-0.9665145425,0.7013605715,-0.2824515906,0.1781106276,0.559755765,0.7998494809,0.1719509788,0.1458325523,-0.6075789305,0.0246166615,-0.2265750182,-0.5814323396,-0.6256605008,0.6218972836,-0.8372426469,-0.3743532254,-0.127115939,0.1968163546,0.8429061789,1.0984556357,-0.4088187454,1.202652762,0.2165213778,-0.445241344,-0.0551119105,-0.001213952,0.3924483644,-0.1795350698,-0.7842080396,0.1226843828,0.6011086791,0.439246599,-1.0179674226,0.978291924,0.9459407689,-0.0913893174,1.1773314616,-0.0176763764,0.217913522,-0.2616109378,0.9131596233,0.8986572956,-0.6750607824,-0.8401423353,0.9596486837,0.877223182,-0.0280644128,0.3523661167,-1.0909973608,-0.4612353539,0.5725708249,-0.1656860722,-0.2119127636,-0.9009518984,0.0343355707,-0.3850310289,-0.3605077375,-0.4962110787,-0.5662321008,-0.6129504899,1.1326631166,0.868294799,-0.129145778,0.7563335912,-0.7528126376,-0.0342419335,-0.5786078242,0.485448033,-0.4008437116,-0.881419465,0.3056104469,-0.3077240206,0.7144394813,0.3056192491,0.0059748044,3.3582031883,-1.8221491344,2.2671650008,-0.1746912635,0.5224699415,1.7194217142,1.5515785673,0.4328644153,3.2308118105,0.3735188306,2.6024437961,1.1741324258,3.5630479796,2.5011206017,2.8314600154,-0.0604341345,-0.9056346901,-0.7450138459,0.5250317978,3.1897670599,0.1466502059,-0.086639752,3.2660696891,-0.0769136512,2.5231387257,2.7023562145,0.9068828742,0.954433082,-0.349828062,-0.6453821822,3.7058591055,0.9884407927,0.0231260961,-0.1735415383,-0.5119725202,1.3438252094,3.8283939767,-1.4243535459,-1.2742040238,2.2530615519,1.2105221068,0.2399485825,-0.2451861186,2.9427356393,0.9983062799,-0.0362349479,1.4779577515,1.2838555508,-0.5024770885,2.9060899271,0.391256871,-1.2249031825,3.0780476874,1.2560304297,0.657461152,2.9555851166,0.3247599545,0.7820943841,-0.3506482203,-1.4712705165,0.8000767986,1.7012081985,0.8856511924,-0.355337433,0.8609581584,-0.5296554266,0.0133027224,-0.3779828184,0.767453431,0.4882322235,0.7498355818,-0.9180164113,0.9809264451,-0.4391424959,0.1346897701,0.3056454212,-0.4107658821,0.0143225025,1.0065881552,0.436153015,0.6638378446,-0.0802555706,-1.0284315891,0.3973271002,0.0714678153,-0.5736857741,0.5384906574,0.2425677438,1.1014697977,0.5109656241,0.177196433,-0.8725068046,0.3549288648,-0.0054118752,0.3357574774,-0.4092362729,0.3027836164,-0.4052652837,1.0080166977,0.2355288418,0.2760468951,-0.8738646483,0.0888131494,0.5047390307,-0.6007496805,-0.4818493174,-0.8069953694,0.3522978588,0.2140076925,-0.9832832374,-0.0705298876,0.1256143549,0.064757354,0.7656601702,-0.8167624734,-1.2861332145,0.4595401553,-0.9329511183,-0.3215997309,1.1250277835,-0.1231109754,-0.7070876185,-1.2332365257,0.3934492999,0.3775702766,0.04277373,0.0319907391,-0.2294157708,0.662067892,-0.709180417,0.1725196598,-0.6425491477,-0.4594440304,0.7076903388,-0.5051631723,-0.7724698711,0.2803088653,0.7099222206,-0.1880492809,0.9506657727,0.6895584163,0.200320511,-0.0078103739,0.7708536276,-0.6538202498,0.1520995986,-0.1978489103,1.0460081137,0.2565364521,0.5974495647,0.1744714688,-0.5642798553,0.7075555978,1.1017521097,-0.215855408,-0.5905948837,-0.5388336986,-0.9699961344,-0.0423125234,-0.0112149614,-0.9804162999,0.0194142283,-0.1663910395,0.5844844445,1.0963826136,-1.7562106236,-1.155848776,0.6785372738,-0.572273404,-0.0147479079,0.2409065104,0.3609885557,0.7486559036,-0.5074706531,0.070098974,-0.6883456312,-0.1791300591,-0.2123238788,-0.0548199888,-0.1473987431,1.2829650227,0.0959939209,0.6199485712,1.120621156,-0.5755552207,0.8160368234,-0.4363475247,-0.6801340989,0.6916560549,0.6024510544,0.4126759032,-0.8722538513,0.7194601764,0.2720864567,0.3681892934,-0.0364128791,-0.2395942226,-0.1040862721,0.7295663156,0.5446817608,0.0634825817,0.0359212774,0.3614043295,0.5773770163,-0.0842664902,0.681236754,-0.2763321967,0.1601605437,0.3247690353,0.1063413326,0.8907178241,0.5656543694,-0.9366410564,-1.1818310946,0.5684146469,-0.0528053143,0.4734426037,0.4641164722,-0.1946296104,-0.8374459894,0.8615689386,-0.7653175067,-0.2361076531,-0.6466722536,-0.0094907981,-0.0196953287,0.5584308223,-0.9422845614,-0.4607690492,0.3165598479,-0.5725901243,-0.2126954425,0.2391406238,-0.8014069559,0.5302141314,0.1711430214,-0.1639540197,-0.1944990532,0.9696671937,-0.3531562609,-0.0571351013,0.4265218075,-0.9270607408,0.8942037658,0.173566306,-0.7572467774,-1.2927444564,0.3037180986,-0.0886603523,0.3942837791,0.2894685738,0.7007235966,-0.2989477228,0.8916252136,-0.7514004613,0.2349697853,-0.9193472721,0.9077996121,0.4619188396,0.180714101,0.0357103686,0.4536680827,0.1715548263,-0.3267568888,-0.0339446082,0.3515326017,0.0412804373,-0.6850457266,-0.7122858124,-0.8893305733,0.0177787152,0.5066349867,0.5287467006,0.7150347203,-0.6544503074,0.1848690609,-0.3344132818,0.5391784993,-0.7360556866,-0.6371677763,0.2952167641,0.0962100007,0.0096667073,-0.6745793167,0.3894399,0.2869322512,0.2059586781,0.525455014,0.3452432198,-1.3900050342,0.0773125735,0.9262299423,-0.1353536243,0.044517372,1.1472499259,-0.8490595919,0.9984237277,-0.3472588618,-0.847515734,0.3847192631,0.6542016431,0.8300347831,-0.2669385046,0.5732939338,1.1575567175,0.5612707316,0.9453891447,0.0622755901,-0.3087434898,-0.3083392132,-0.5750855118,-0.5955571891,-0.315076952,-0.5397833262,-0.1567056662,-0.0006026281,-0.2403802126,-0.8864514167,-0.6996021953,-0.2839966352,-0.9274567236,-0.1394600704,-0.617441097,-1.2992519355,-0.473221217,-0.7661158034,-0.4181943684,0.87801499,-0.8171734766,-3.313262277,-0.8826543136,-0.2438485809,0.0542307181,-0.1499416447,-1.0110161853,0.4088834403,-0.0865990597,1.0570584575,-0.6716188324,-0.7265316372,-2.4758492768,-2.6716054211,-1.8467115429,-0.8045469452,-3.2366271049,-0.4494671716,-1.2230066129,0.3481970933,0.1828974719,-0.3225262531,0.5002116244,-1.1496662879,-0.1589347847,0.6844270907,-0.516942904,-1.9435367642,-2.3815255958,0.6983179004,0.7122950344,-1.370864481,-0.6753119881,-0.5233581612,-0.376764772,-2.6056289918,-0.5520577445,-0.7945214584,0.3988901997,-1.1498404104,-0.3049838309,-1.5693206568,-2.889577339,-1.0990928078,-1.0451770145,-0.5296091805,-2.776998404,-0.2496688257,-2.0327735522,-0.7060547926,-0.1879347861,0.9768131155,-0.9601449456,0.4928986834,-1.2798457176,0.3656565718,-0.7612902186,0.4479164048,-0.7953201914,0.864799024,0.9270961353,-0.4827999747,-0.6418119003,-0.6449222251,0.5665998767,-0.4034492255,0.3605052557,0.5499860391,-0.6652913293,0.1198764603,1.0727287514,0.5353845758,0.7281344031,-0.7256038954,0.1955359352,-0.6846914573,0.3489698548,-0.2754233131,0.7773105149,0.6099390477,0.5590429091,0.9354058143,0.9531811239,0.1429864744,0.4239364602,0.0551427234,0.3734274362,-0.8891857153,-1.9480703129,0.1411126504,0.4104653336,1.308251371,-0.6292302468,-0.2879628006,0.4651726506,0.1874910974,-0.3404350458,0.3932840578,0.5032561907,0.6015234206,1.0656756052,0.541400228,-0.4072691569,0.4384744499,0.0761221428,-0.6866728989,-0.3219662009,0.8026517413,-0.8117914601,1.1165201745,0.4619211186,0.1861824801,0.646604469,0.5132584138,0.1128803894,-0.4600348464,1.429291642,-0.8042525077,0.3061527216,0.1990242877,0.3134473058,-0.654260652,0.3026758207,-0.6128121541,0.3049590803,-0.8025341249,-0.6249886576,0.9384616108,0.8929978215,-0.3942384328,0.9466035122,-0.8033464372,0.969094506,0.7960603233,0.106741673,-0.4941465282,0.8265779673,0.5025374272,-0.7143456159,-0.6158732115,-0.7142402181,0.0039910719,-0.282899193,-0.6292046393,0.0828893852,-0.277954282,0.9165228938,-1.0557058996,0.50244319,-0.5832116255,0.9903285176,-0.3079069593,0.0112133969,-0.3632004403,-0.4913257315,0.297015514,-0.7131228251,-0.9000537696,0.5554015472,-0.3682378761,0.4035771563,0.1164500565,-0.9574772336,0.2732182109,0.0451186057,0.0803362022,0.8882426029,0.6291584644,-0.0793247932,0.9664902137,-0.8193245176,-0.8757433821,0.4305648258,-0.6634981307,-0.1621893379,-0.3011513045,0.1026793405,-0.0735974362,-0.1447172262,0.3117374323,-0.9301412984,0.9361007337,-0.3710625358,-0.1481617127,-0.1640496836,0.6485234358,-0.4782581375,0.2566986397,-0.9110635686,0.2515660074,-0.0375245406,0.866552613,-0.0324439125,-0.6287904656,0.6679866781,-0.9660566841,0.4114021143,-0.3723685839,0.8159063267,-0.6262310948,0.8432927466,0.9239766134,0.4956591516,0.4133512578,-0.8195976065,-0.9355411845,-0.0921146721,0.0597570487,0.2095591632,-0.3515448246,0.2985920283,-0.2744499231,-0.6065023183,0.9804179425,-0.0774914265,0.4634671906,1.3070149535,0.9285167601,-0.6260824982,-0.3468314611,-0.6020062661,1.0061177916,0.6271060188,0.5791777487,-0.842301948,-0.7551370317,0.4844765355,-0.384052622,-0.6132000704,-0.9534396943,-0.2384824721,-0.5264920445,0.7617252917,-0.9666755936,-0.9858108642,0.3640412104,-0.8501227528,0.2185636589,-0.1192589083,0.1819763589,0.3559600111,0.4333308396,-0.694008819,1.0296156746,-0.7905918595,-0.822594208,0.8537911802,0.8831800969,1.7850764592,-1.0376597474,0.2420739214,-0.792982311,1.9499075981,0.5696844645,0.3328145287,-1.3644446815,3.2081961143,2.4140185287,3.0121116741,1.0778627069,1.2344150799,0.8799126719,3.71989179,-0.9215985778,-1.7949844664,-1.2269451645,-0.9112593146,4.1258383517,3.9187461508,2.3171839318,4.0643605311,-0.0533437764,3.6471594702,3.0510228114,0.5607604477,-0.7327321096,-0.6599362235,0.967033291,0.9257471824,-0.0909375368,-0.9012683057,-0.0988359493,-0.3080759625,0.4425165115,2.9782836188,-1.3046700406,-0.3794132204,4.0748849802,0.6869794279,2.9654814581,1.048206983,3.6334767174,1.6669629335,0.1802648474,-0.9348492337,1.3575762263,-1.4261049799,3.7059594207,3.0266465277,-0.2576401479,0.4738401806,1.9970197294,2.64643788,3.4234397716,3.5870460073,-0.8830494524,-0.5447920336,-1.1833632368,2.6877609265,-0.6171516127,0.2770220398,-0.0569994758,0.6236276466,0.4269237734,-0.7565685858,-0.2849065492,0.7401313149,0.0213992689,-0.679398922,-0.7323016627,-0.2157656083,-0.6748678658,-0.0536273331,0.2254260389,0.8138887127,0.5310539754,-0.7985305553,0.7298845561,0.4499990785,-1.3243488356,-0.5783926692,0.6128286454,-0.1175887392,0.7357617439,0.2748151839,-0.218858164,-0.2682704981,0.3047817964,0.2027099647,-0.641412291,-0.7957163313,-0.1644734031,0.5480549179,0.5785397691,0.796739755,0.1714537681,-0.8799756139,-0.6283235176,-0.1490927705,0.0740158246,0.2924777069,0.9246612812,-0.6389898994,-0.01446987,-0.5443293879,-0.0716819898,1.0731673582,-0.0952399285,-0.4575189746,0.5067155613,0.36107039,-0.2264300941,-0.2120328017,-0.5369100449,0.3434608302,-0.3754379168,0.83820118,0.6032764939,1.0465581422,0.7324088549,-0.189831516,0.619911848,-0.6650104014,0.7046696606,0.7365611007,-0.8589281732,-0.2183394932,0.6463807773,-1.0584466072,0.8643486469,0.0542999502,-0.0424580772,0.6407595196,0.3444225724,-0.4773717335,-1.038731054,-0.5385612195,-2.0346585798,0.0641593157,0.5593562851,-1.060295684,0.1145869974,0.5858673163,1.391837386,-0.7495412861,-0.1356816748,-0.9372956981,-0.3719913515,-1.1547644644,-0.8548098182,-2.35455331,0.0878469427,-0.2539588978,-0.2538021863,-0.1749227638,-0.2170984444,0.4619276817,0.2016453658,0.9847446577,0.7239768278,-0.5850414312,0.390961929,-0.3364539786,0.9606112143,0.2890130861,-1.0250404444,-0.2874310883,-0.0169025778,0.543573509,-1.8410204227,-0.5637425683,-0.8304734362,0.0720455639,-1.2635104606,0.235909687,-0.4345438615,-0.0704904555,0.2730895911,-0.4670110461,-0.3338091689,0.1768959255,-0.5784031598,0.0363788709,-0.3455155645,0.3210902953,1.041596697,0.1153704025,-0.4535354986,-0.9016268207,0.091656122,-1.7883435431,1.6859435597,-1.0352150171,-1.0786048367,-0.9234574951,-0.200417042,-0.1389000581,-0.0389263522,-1.3068122849,-1.5710351071,-0.8973048789,-2.4058615625,-0.5906470653,0.2727334589,-1.3843464711,0.1038072007,1.1515225396,1.7273541533,0.8516975684,-3.7118153606,-1.88042373,-0.6524469827,-2.2253498157,-0.4571497068,-3.0708492799,-2.0001588639,0.8724521393,0.3622095828,-0.7995055137,0.4338177731,-1.118938603,0.1930125463,1.7657602519,0.7956416055,0.4453073818,-0.3087831961,-2.449070272,0.913656523,1.7825622242,-2.8291587566,-0.5541248861,-1.2088923278,-1.0125848311,-2.3974307054,-0.5017258008,0.7657981478,0.589130642,-0.2104973465,0.4529732749,0.4627735008,-0.4292696039,0.2001786162,-0.1289287172,-0.4162873022,-1.54994637,-3.4626726974,-0.7082650302,0.6051857534,0.1579977868,0.5234315301,-2.0470042542,0.7749603883,0.4872077363,0.7629901461,0.626235525,-0.234221662,0.1348371094,-0.4091059747,0.113588748,0.0037826968,-0.93013507,0.106295041,-1.0339271921,0.7595356066,0.7848576892,-0.4454166285,-0.3930410128,-0.1177323963,0.6986930025,0.093030629,0.318588883,-0.6019556503,0.7766728292,0.3495416154,-0.8366466707,-0.0821492682,0.3984667674,0.6436297205,-0.8324643016,-0.0848407605,0.3303693035,-0.7901703174,-0.7559625264,-0.5390963208,0.1688879133,-0.0675777953,0.590174423,-0.9384796802,-0.3299704761,2.9154364024,-0.7272486633,-0.1241182943,1.2053801995,-0.2398348987,-0.6054515644,-1.2034423678,0.2896745302,0.0943996848,-0.8955868998,-1.1392750158,0.2270078201,-0.8004522356,-0.0149091772,-0.6734188226,1.7547643407,-0.1945929425,-0.7901230202,0.3424304696,0.6567167148,0.04905529,-0.2972996901,-0.528266167,-2.6838199904,-0.2245436831,-0.1611227743,0.0925178445,0.7270180186,0.2200010392,-0.1851737312,0.4992363499,1.0557295819,0.8321993774,-0.1790706005,-0.5876639186,0.1410034866,-0.4593677338,0.2589893188,0.1053003122,0.8875171314,-0.3717413344,-0.6672531695,0.5021327625,-0.1862319752,-0.6391332989,0.9330718638,-0.0397856582,0.2281768847,-1.4077304008,0.4294642995,0.80600471,-0.3376861402,0.6484972609,-1.4886042685,-0.7726947683,0.6627724686,0.9929776086,-0.0255575336,1.3363159466,-0.1542144492,0.020274788,0.0035586733,0.0415167562,-0.6300562516,0.2555767325,-0.172362377,1.1336215347,-0.8656000038,-0.1772265687,-0.0260077277,-0.5550663912,-0.329604571,0.455780605,0.0531793323,-0.1238598994,-0.6946526204,-1.8026976243,-1.0470536138,-0.2932008763,0.3924327231,0.8503190374,-0.5296293909,-0.293395399,-0.9547173912,-1.5137357551,1.3579142985,0.6212194667,-0.4375897921,0.8037733962,0.3160429198,-0.4778243042,-0.3930025576,-0.402774605,0.1783426289,-0.3633851555,-0.4026124071,3.1443494101,-0.6535661161,0.0421879235,-0.1579569169,0.5055064673,-0.1616879351,-0.6982274544,-0.1646372261,-0.9430312486,-0.9804011851,-0.8059463306,-0.7980792752,-0.0865156604,0.8389857985,0.223942613,-0.2107377209,-0.2183961936,0.8584781809,0.2191953315,0.6021361851,-0.056612738,-1.7855328127,-0.3594895971,0.9511850297,0.813871602,-0.1251205504,0.3837834639,0.330910212,1.9644982455,-1.0868654304,-0.700508365,-0.9514813917,1.0269233655,-1.0141853759,0.3157120158,0.8182883698,-0.0103705755,-0.84331892,0.9165303863,-0.0460358021,0.8043565237,0.2389085948,-0.5876240455,-0.6194666638,-0.3420186761,-0.5979093,-0.0388616184,0.3893594997,0.966334285,0.1584478708,-0.7080378325,0.0173988941,0.3404239852,-0.684695572,-0.031193447,-1.2872018263,0.0338217097,0.5382341823,-1.0594698447,-1.6102998505,-0.9265601336,-0.8178625431,0.4840723652,-0.9672089002,-1.8331913487,-0.4208347771,-1.2487733496,0.643951678,-0.7474395982,0.5924642195,0.7497464334,-0.017213221,-0.086149133,-0.7916952243,-0.7955649213,-0.4124547343,-0.6866484803,-0.9156805283,-0.8477027297,0.9790955936,-0.0143694255,-0.9476606463,-0.3145425666,-0.8110051445,-0.3848765293,-0.3150173361,-0.0688100253,0.3334162257,-1.5729972198,0.3419637065,0.9065632439,-1.8530531782,-0.7548634602,0.0042977492,-4.1875141078,-1.2508220021,-0.9669153763,0.2120002675,0.6007068529,-0.7495435865,-0.2346742104,0.1090305039,0.5075224658,-0.4628909443,-0.1099409961,-0.1125043404,-0.324241243,0.1384271859,0.6286210519,0.8738937801,-0.5006547613,-2.430202925,-2.5232201658,-0.3727963429,0.2662599786,0.2308236691,0.8324024278,-0.947819823,0.7849094585,-1.1878479131,0.699815491,0.5065847792,-0.2036150075,-0.1711865396,0.6321730021,1.0859502561,0.6081033629,-0.6177112496,-0.1143289634,-0.1089942883,-0.3891967222,-1.7804819212,-0.4315761971,-0.4583381527,0.4349927362,0.8090964982,-0.1923979562,-0.1235574654,0.7141287322,0.8739639284,0.4905939827,-0.8781521816,-0.9573436512,3.1456717281,0.6576523316,0.1145606128,-0.0650865949,0.1680513967,0.2354719123,2.0287064556,0.1381536142,0.1812566802,-0.863659225,-0.8527334044,1.0897410394,0.2654088335,0.9298525179,-0.4067381052,0.6742257323,-0.4402330515,-0.3004340334,0.454188972,-0.423555777,-0.983532297,-0.4454079392,-0.671787428,-1.0686384562,0.4114786793,-0.9263380476,-0.0356633188,-0.4224773925,0.9375416971,-1.085619264,-0.9097455687,0.5326669692,-0.696076406,-0.709625447,1.0693775518,-0.169656363,0.6344803024,-1.0219322115,-0.1579007044,0.2294884217,-0.7548652984,0.3031210793,-1.4277435978,-0.3821102761,-0.3985596959,0.7656860095,-0.4036787536,-0.0554290787,-0.0020087954,-0.1714983135,2.6948272398,-0.5736640931,0.0963198824,0.678795658,0.5061864808,0.5508574356,0.2830296628,-0.1071064527,-0.0621516605,-1.7169058509,0.5057724475,-0.4094080726,-0.5453755211,-0.3366263983,-0.4930519745,0.3425143458,-0.9164455758,-0.1996179984,-0.751895233,3.8887080071,0.0827842978,-1.5425822977,0.1414701503,-0.5974599976,0.8773376318,-0.2842361204,-0.0721486335,0.8221396516,0.7575049036,0.2466975129,-0.8693300235,-0.3833648446,0.0079045297,-0.2726498953,-0.9190027924,-0.6145692116,-0.7023245406,0.7865302381,-0.5272197686,0.331563084,-0.4690884325,-0.0255048659,0.8260647747,0.6340003883,0.1101082392,-1.5777988568,0.8135489452,-0.7023292563,0.7971690338,-0.6028998904,-0.4134213768,-2.0084643716,0.1432059976,-0.7086780497,-0.4864117812,-0.5003595091,-0.2000481503,-0.0306061335,-1.1820710542,0.0523986061,0.4299779098,0.2021063784,-0.9933521939,1.512689914,-0.086877963,-0.2633503419,0.1084713862,0.9198713209,-0.8810699857,-0.4890269689,1.1313677209,0.9993108223,-0.9073939962,3.5826010807,0.3804844483,0.3603644648,3.8962986503,4.124934853,-0.039029572,-0.6924517926,-3.311974955,0.9481045791,-2.6380571723,2.8011711849,-0.7716455086,0.7778215264,2.8564107956,0.5025299864,3.6465872255,-0.2784310158,0.1495235256,-0.4337692906,-2.4022677874,0.0662168606,-3.0933191264,-2.0572114406,-1.04777653,-0.2209473152,-0.4902263842,0.2329760113,-0.8007397443,-0.2278990231,-1.5852211613,2.8904089501,-0.6872014806,0.728683312,0.3316231785,0.6630459603,-0.5938883995,-0.5092543445,-0.5287942523,-0.7742643041,1.6624890913,4.1312322234,-1.1182062803,-0.9724655535,3.5946300225,1.1830445726,0.1615995838,-0.6913445661,0.7111037553,2.8684556012,1.5752330651,0.1131756668,-0.2905144462,0.4371244728,2.4178782648,-2.1400246602,-0.1742486368,3.2639999094,-0.3287058683,0.1437012175,0.147913734,2.8075071881,0.9667010699,2.5008528173,3.8667027105,1.8880189832,3.2826718886,-0.999064262,0.2612125566,1.0813974782,-0.200563718,-0.6473455817,-3.2031576398,-0.9092444149,-0.4499754294,0.8889824237,0.3267720458,0.5277619694,-0.8787326912,-0.4362418979,-0.7088701192,0.3149068775,0.01935632,0.4760911801,-0.7031867289,-0.8163531021,1.0257728072,-0.1999743539,1.1879585228,-0.5227454798,4.023872265,2.7420980187,-0.6392490671,-3.4553762442,0.4378717287,0.2474805096,-0.0420906019,3.1920125804,-0.1766249148,-0.1608085371,-1.2947903887,-0.1493665305,0.5383630024,-0.5033023054,1.7233642283,1.3039812641,2.4243162996,3.4577989075,-0.4914141552,0.4350717473,-0.2215348875,-0.6039899463,-0.26206911,-0.3547177078,-0.94040654,-0.1430359781,2.3225945306,3.9222765503,-0.6814723472,0.6684315908,2.441302858,-1.3665161429,0.5989939832,-0.4974115417,2.9583084885,-0.8313702403,0.9060559969,-0.4528088065,0.9852459638,1.741029554,-0.1262443315,-1.4510097982,-0.4779937793,3.8179366361,-0.451211454,0.1245438634,-2.5829067061,1.1919203194,-0.2256447988,3.9289797068,2.0104565162,0.3844130241,-1.5395549972,0.1871148605,0.4320146376,-1.3237138587,0.8802587266,-0.3438155265,0.3338448339,-1.7174465989,2.9694696105,1.0987795166,0.8470899815,1.2349411076,-0.1256123056,4.197626336,1.2317983812,3.6803661316,3.3730191264,2.8464078461,2.2186441746,-0.024581147,0.6169833847,-0.2929136453,0.0695334837,-0.5299459796,-0.2350506212,-0.4347654454,2.4369291054,-0.0142721351,-0.0257246299,0.5516581815,0.1682217737,-0.8008866671,-0.9836180092,1.4144492006,2.9223145104,-0.2617225977,-0.6960800952,-2.9156566603,3.5027812351,-0.2547214572,-0.8888632641,0.766158424,-0.5678090557,1.2612693815,-2.2771065964,-0.3408855905,2.3858892529,-0.2337036941,-1.844952949,0.7001634488,0.1070564162,1.510133214,0.3645916062,3.4277624538,-1.4746146738,3.3281214408,-0.7853384833,3.2925047862,4.1450759657,3.4414937299,-0.5124044618,-2.5603141131,-2.3530553003,2.9887992495,0.2415814384,-0.9864961983,0.5842905235,-1.8854860267,0.0456635915,0.652342725,-0.471432578,1.012458177,2.3867027125,-0.1205976755,0.6456454397,0.711949764,3.8581936673,-2.4288547576,0.6196409812,-0.4872770809,4.1706437651,-0.2308066501,-0.1637045526,-1.2021453482,-3.0381661542,-3.7302113628,0.9955844244,0.7484035835,2.9580265264,0.6123502367,3.0297619228,2.3269165231,-3.7465186763,-0.6221749177,0.3570746575,-2.0008288748,-0.78446275,0.179157417,1.3398864427,0.2188739671,-1.0538017108,-0.5120903594,0.7071780405,-0.4735209827,-3.7939037435,0.3505283789,4.1944715436,2.2618176889,0.9470456847,-0.0820780938,-0.3091864999,1.1116917491,2.9619366057,4.0137983108,-0.5853787586,1.2536946647,-0.2502083995,-0.1304410225,0.0557304439,1.6445576452,3.1826417954,1.5769861565,0.9947945221,0.2374398069,0.0828880406,-2.8058958363,0.8235625194,0.7305996949,0.4279200488,-0.2853962859,-1.6883435926,0.6742840208,2.7262838068,0.8163937625,3.6752604015,-2.6789261913,0.6686275446,0.8222446685,-0.3498132409,-0.1835813415,3.9703864171,-0.502247501,4.0513015716,0.9649065855,3.3478024271,0.043068668,-1.6825714213,-1.1207017884,0.3396007305,-0.6803403178,0.6183992104,-1.092130356,-1.8012521196,0.1384287747,-0.3852509727,0.217387606,-0.4584038412,0.2562598987,0.8507580568,-0.5373974046,0.6282689994,-0.0139087892,-2.9771133709,-0.4386777041,-0.981317572,-1.7299390239,0.2659727834,0.075798324,0.77711964,0.3139459125,0.7156130282,-0.5089323966,3.3442735975,2.0836979391,2.3244371459,-0.3789883432,-0.3271328635,0.000499539,0.1118223616,-1.6496609002,0.6085904482,0.1002118979,-2.3118240924,-0.1130631344,-0.263989161,-0.8590552319,2.7470058294,-0.1786012025,-2.5354045649,1.9357587449,-0.7547744585,-0.177975646,-1.0666795189,-0.1092671932,1.0845012657,3.8469490167,0.1164567143,0.4807732841,0.0312745266,-0.1739608655,0.4452926404,-1.4271143483,2.0440431397,4.1328570111,0.8313089794,0.2037314881,1.0281585907,0.0747620416,4.0926867356,-0.2369334677,-0.2331634322,0.356861029,-0.2953718084,0.9478343253,0.4562470087,0.1165657017,-0.7854218996,-1.4054118057,0.5697743213,-0.9265345855,-0.0060536422,-0.9658702824,0.325753852,-0.7554623572,-0.2522194665,0.0426517049,-0.4712268357,1.0687082153,0.4621278058,-0.117805983,0.5564661316,0.1723555669,-0.609887498,-0.1133082449,1.051558458,0.2634979008,-0.9299751963,-0.92957666,0.9717583032,-0.3360122632,-0.1469059859,-0.5392643114,0.2428632172,-1.2203916137,-0.856320116,-0.7710364202,1.1639945733,0.1426917472,1.1943289052,-1.0911498767,0.4043373265,-0.8195073028,0.7552329201,-0.3800379616,0.5524851964,0.5088981776,0.7067943487,1.2150609037,0.4498922736,-0.3158041603,0.6719728987,0.4473410465,-0.7585828982,-0.2534388815,-0.7072664276,0.3827251766,1.1978044637,-0.1775904637,1.4929353568,-1.7420817745,-0.2119856801,0.0930905488,0.189205028,0.7254536738,-0.7242560998,0.3366631257,-0.4469032227,0.5823897985,-0.4386296746,-0.1119853516,-0.0361160866,-0.2515125332,0.7809573533,-0.5545408048,-0.1741994657,0.9550245923,-1.5289952469,-0.2269307839,-0.9250788058,0.1422413611,0.942429368,0.4445017774,-1.359947366,3.4671942273,-0.2008928124,0.7186234827,-0.9424056468,0.7208701671,-0.5919602243,-0.5169282642,0.2404874813,0.4019212837,-0.7396288269,-1.1266399857,-0.0919170852,-0.0180563677,0.4932556549,-0.5961992401,0.0501147843,0.4097116642,2.9854979081,1.6483763955,0.1935867351,-0.2500571595,-0.8086650539,-0.4508617912,1.0214572495,0.1194861975,0.9703539769,0.23001025,0.3262854506,-0.5530642937,-0.879436439,0.692940552,0.4364113742,-0.7394100631,-0.8151766248,-0.5109444456,0.2558077979,-0.9137747475,-0.0705154025,3.0919055944,0.0141600164,0.8357873444,-0.4902612041,-0.8323365219,-0.9908846674,0.2013066861,3.9277399595,0.3360872259,0.9684469655,0.8031603953,-0.2214944087,-0.3736118644,0.3863820635,-0.2920061913,0.6544055893,-0.252259465,0.3579697911,1.6633573681,-0.4433930729,-0.2210642157,-0.9811357768,0.19942754,-0.7580321737,0.0738789888,-0.0136776757,-0.8806351018,-1.0900904631,-0.4134669343,-0.0644005412,0.227035723,-1.2163215908,0.5196219735,0.4926849682,0.0701243068,-0.8689456425,-1.6292810111,-0.1902093423,-0.3106618677,-0.9362156832,0.4777858618,-0.441298628,0.7383708951,2.777433189,0.8458302872,0.0839915725,-1.0718200445,-0.4531619073,-0.8036469827,-0.3923231815,0.5229227066,-1.1915343107,2.1971600557,-0.5822609046,-0.4189109666,-0.8962871951,0.9293995677,0.4731165682,0.1239549533,0.146471484,-1.5816648976,-0.2064052102,-0.1861366951,-0.7823481754,-0.9040216014,0.4978522761,0.182947554,0.3539663373,0.6525818013,-1.1383285809,-0.0831771563,-0.6258448043,-0.4524130677,0.7824739861,-0.8243691655,-0.435234615,0.8242783295,1.0017914367,-0.9916300917,0.4477252268,0.6004566491,-0.3472244303,-0.5108291003,-1.3341929885,-0.3196486398,-0.8602261785,0.3784258394,0.1742771925,0.4347893944,-0.7751082192,0.510440306,0.1251753846,-0.3947650018,2.3723833662,0.8933160889,-0.3680006326,0.6690636663,-0.4037989616,0.4800914286,-0.6185166454,-1.1843999727,-0.2017805303,-0.3525408275,1.1657336504,-0.8484633474,1.153922375,-0.7281297159,-1.8015820246,-0.6459350757,-0.0229301152,0.9066997286,0.2881212098,0.6187784011,0.7795623854,0.453306244,0.8673728982,1.9105552408,-0.8215069335,-0.054110353,0.1391664448,-0.0052650982,-1.3598162644,0.8629692566,-0.7000697661,-0.6709370969,-0.4654899889,1.5627849484,-0.2800360154,-0.2524834213,0.2341213421,-0.3951553904,-0.6313159322,-0.6241466719,3.6631778481,4.1022175842,0.8142158785,0.1561089939,-0.0331014988,-0.0175327028,-0.5818593316,0.7085803017,2.8469225043,-0.0159097592,-0.8183217294,1.9871764235,-0.2986162022,0.022520188,-1.8112914025,-0.2635244681,0.8375452016,0.7254806534,0.9825078332,0.6194129754,3.3931694268
   -0.1270851943,-0.627028684,0.0736088163,0.4117133029,-0.2595066021,1.7573814107,-0.9686023734,0.6613637453,-2.0875948461,0.6894094348,0.1904137505,0.5836518889,0.2356507231,-0.5124272614,-0.2291803725,0.0627906338,-0.2387844217,-0.2792629907,-0.4917288235,-0.2834509032,-0.7452529529,0.1097938428,-1.8663190084,-0.4944910228,0.5835030927,-0.8746194946,-0.2187398266,-0.15436799,-2.071477494,-0.5177308951,2.4980305983,0.9150318007,-1.9341826198,0.0511618973,-0.1362221738,-1.7777584701,0.8324561419,-0.2175033625,-0.1168895358,-0.3564141224,-0.2400352485,1.1388561579,-0.7151111379,0.1466076093,0.7819029583,-0.3988037898,-0.4845686264,0.9952715313,-0.9401343512,-0.7553663309,-0.7090237714,-0.8086034322,-1.354178706,0.8606361675,-0.4418404574,0.9119080056,-0.648628035,0.3703541852,-0.3328144238,-0.388404983,-0.2924454088,0.3446892362,-0.8500019296,-0.2547891942,0.8402293626,-1.5266947642,-0.98996279,0.5422765756,0.2328083873,-1.2756338071,1.8475570986,0.7764325446,-0.7583183308,-0.8943752499,0.2103181385,-0.2830995843,-0.5997291072,0.2503440522,-0.9112293287,-0.3152482102,-0.036557881,-0.2862787346,-0.0600803118,2.2827203091,-0.4748898509,0.6802861241,-0.4561849822,0.6647419473,0.8313926173,-0.356928465,-0.6938292597,0.1782759247,0.7312648971,-0.9043204531,-0.6725576806,-0.5218969019,0.1856996492,0.2989296923,0.3882215682,0.8078616581,0.4883590309,0.4384896565,0.103380333,-0.0418928067,0.1193974546,-0.4681132623,0.1400459865,0.3057900119,-1.8290743105,0.6729112279,-0.2137183646,-0.4501613225,1.283605735,-0.039161202,0.5402472345,-0.3172544516,-0.5283886496,0.4302882695,-0.0108300037,0.2835006669,-0.1625828433,0.7206230817,-1.1015706946,0.5070262144,-0.0218621125,0.4052779853,0.6166650676,0.1895886836,-0.8817955556,-0.7766223827,0.5566480393,-0.1000171073,-0.3176856071,0.0399666024,1.5932794421,-0.1416532031,0.5969244981,-0.0563497364,0.7317020975,0.3536581364,-0.430908666,-3.1227567465,-0.1313630315,-0.8984414043,0.9917554251,0.8853596304,0.2316601491,1.2499684657,0.7275874035,1.275830799,0.86361706,-0.0134922497,-1.1040317857,-2.2585037582,1.0742815696,-2.5014888729,-0.7560464414,-1.443106097,-0.3607605274,-0.7948203031,-0.6042824521,-0.824432636,-1.4655942488,-1.0968020835,-0.2130084812,0.2905519411,0.6076066292,0.1223680831,-0.8258833999,0.3362773341,0.3095436205,0.3229963093,-0.3273900338,0.4486290768,0.994404535,-0.8603540401,-0.4645132985,-0.4141103898,0.6999755685,-0.8954172191,-0.4410856432,1.0965313002,1.8843198316,0.1017559135,0.0010930459,0.0036854074,-0.8901422,2.0512935879,-2.6921214568,-0.6611118202,-0.0053778626,0.5572446789,-0.6853402217,-0.3903731025,1.9956328017,-0.3785222023,1.3001034878,0.8211935889,0.3756812645,1.7906779537,-0.1733082142,0.3149362998,0.707711384,-0.8566751126,-0.9454274907,-3.0112055954,-0.662439795,0.0517336115,1.1831831025,0.4991463512,0.8180090291,-0.6707348476,-0.6425802526,0.7166719188,0.3223486716,-0.399518849,0.2511648498,0.8731238779,0.7404783237,0.652841578,-0.87360678,0.410589954,-0.7175496613,1.0109585837,0.93083559,0.4265257121,-2.3052262738,0.3674722234,-1.1890661366,0.7673728924,1.0653580305,1.0850955733,0.4091116938,-2.7826551714,-0.7762425338,-0.5916790445,-0.1015826063,0.8021959586,-0.0846583557,0.4439646586,1.383971219,0.805800004,0.1270235544,0.9392229223,-2.7219606034,0.446828854,0.0903598412,0.3967153266,-1.4378521579,0.6297164958,0.8452535425,-0.4502845006,0.8547393789,-0.3354614498,0.2306043087,0.9020349151,-0.3844708006,1.6902700305,0.0263626477,-0.3767758153,-0.6146060128,0.6934693373,0.3815579281,1.0937945197,-0.4492674068,0.5174784568,1.3601311544,-0.8748771919,-0.1978637775,-3.2579414918,0.1119414039,0.8508408768,-0.1385286725,0.1170107685,1.062044982,-1.8827952933,-0.7713096488,1.1305108001,-0.8571137482,0.9408547398,0.5150506917,0.1910767177,-0.6838939788,1.1442341778,-0.1518899235,0.9735671143,-0.3353524443,-0.304412044,1.577529605,0.6932770316,1.4540322629,1.2233756113,1.8953786037,0.4517757281,0.703767868,0.1738775864,-0.7049740795,0.1097651861,-0.7463215576,-4.0564259261,0.6754051181,-0.336535879,0.300273868,0.5668424032,0.6788750523,0.0352757493,-0.9069737606,-1.8037683366,0.3438874616,1.3501182827,-0.0670006986,-0.8555937255,-3.578090852,-0.5650361603,-1.4286411879,-0.5066035106,-1.0027329912,0.4165714068,0.2264848104,-1.4593228349,0.4627330893,-0.4433826582,-0.3220243169,-0.2874352608,0.1738295134,0.5863766536,0.8349797884,0.0888762782,0.6291028638,-1.6075807794,1.1682451895,-1.3778443628,1.345875033,0.1622089686,1.3023190371,-1.4679771273,-0.5041598237,-3.3043636697,1.9681696084,-0.505373985,0.0165821143,0.3113076356,-2.0269181934,-0.2819198991,0.1913329041,-0.6377990131,0.9582147577,0.723829334,-0.112423797,0.8358037247,0.156427042,0.9371421258,-1.7771680864,-0.284576611,-0.7775700048,0.4424719123,0.6051427123,-0.1263224119,-0.4335933209,-2.3603488721,-3.964395302,-0.1000596529,0.855806203,1.194089139,1.1102913865,1.1791791613,0.993458458,-3.8854697054,-0.4578469489,0.9402099426,-1.7207991933,-0.5151531807,0.5522473624,0.2899826015,0.7082441695,0.6572045587,0.942004598,-0.8460361135,0.0368968671,-3.0886638332,0.6354145362,0.5155151309,0.2298549392,0.3069774208,0.9093708113,-2.8972270488,1.3351392857,0.1043793854,0.4840295348,-0.14083175,-0.1629308589,-0.7812554521,-0.566726775,-0.7184474878,0.8725090539,0.5131222389,0.3371739646,-0.296595292,-0.3773145661,-0.8843012054,-0.4315130206,-0.3906927032,1.0365985762,1.3293603837,0.3698245103,-0.8865580139,0.4187837752,-0.5694842109,0.9787431779,0.1359418412,-2.4596277942,0.209805317,-0.4070305952,-0.5861935314,0.6445943182,0.1631178482,-0.3214416179,-0.3209306264,-0.0372225515,-0.4138503139,-0.2940798421,-0.8867009524,-1.5187671698,-0.7403342893,0.1893377445,0.4416334782,-1.2945067189,-0.3098763426,0.7100475215,0.8122174127,-0.2122242676,0.0132734505,1.7113073235,0.0236251989,-0.0162430361,0.0987398948,0.7792755772,-1.6320250093,0.0310875452,0.4211527969,-0.7099444783,-0.5623073711,-0.2461221582,0.2765451901,0.1853707365,0.5722535431,0.8187164732,0.1484052814,0.3521076242,0.1311489973,-4.0250633832,-0.0649017744,0.695637903,-0.2851738408,-2.880785679,0.7931119111,0.8250088067,-2.8043986546,-0.1986046706,-0.4135121236,-0.1924466355,0.5351191472,0.7323667493,-1.2745537885,0.9990711995,-0.1311091116,0.5850540758,0.7409905654,0.4973460891,-0.008872686,0.3660880671,0.5524870626,0.862399331,-0.5114936557,-0.7580793321,0.7912114393,0.7572016683,0.6078582501,2.021294959,-0.7226928963,0.9968034814,0.6347890152,0.6384521247,-0.5623817705,-0.8033467917,0.9516098579,0.4121240961,-0.1815608879,0.553028051,-0.7834629741,0.1981614868,0.6388101841,-0.8846606585,0.9264009495,-2.7970851904,0.2906386645,0.9267623606,-0.1243447975,-0.0275922756,-0.431630097,0.7698215399,0.7047542633,0.0689898953,0.952786929,0.0844864678,-0.6666003108,-0.1807419568,0.7759210921,-0.465788188,-0.5281093083,0.3854005887,-0.5447187405,-0.0733486616,0.2223340658,-0.4212457574,-0.8706545672,0.9184788586,0.3362564157,0.0323245495,1.0855820352,-0.0844666277,-0.4849911148,0.6556631269,0.7181387992,0.5145309919,-0.6501210537,0.9274244443,0.6931139681,-0.6218177802,-0.0213983527,-0.331465885,0.5223009403,3.1033548684,0.1238472502,-0.7761625152,3.9538516653,0.0651068423,0.3792115933,0.2140569875,0.7208454873,0.7334414071,1.1024558521,0.7381138535,-0.7434780728,-0.2388736456,-0.8569440275,-0.0175984264,-0.0924079597,0.4744170821,-0.1713544598,-0.3034545765,1.4998172057,0.7777055705,0.1442722468,-0.2659636945,0.908795463,-0.743706526,0.5092650145,1.0197132968,-0.319361585,-0.1422463722,0.3795797785,0.3897534678,-1.187129031,-0.0757919389,0.619636863,0.3757930775,-0.9621176188,0.79181959,0.5763537337,-0.2752353141,0.3095930407,-0.8714880813,0.1104804286,0.3772881124,-0.4676250002,-0.0011159426,0.9632128995,-0.6012588898,0.1712954453,0.357204491,0.771078566,0.2995903292,-0.43050549,-0.9582008313,0.0760807835,0.0557052885,-0.404135017,0.0316140578,0.3053099803,0.1436349148,-0.3543207354,0.8004020663,0.5479445954,-0.6238787765,0.7754699538,-0.5218509464,-0.7734888332,2.3401927769,-0.594109877,1.011372427,-0.5500339186,-0.651208601,0.0132427015,-0.0474593378,0.2055437626,0.0817732295,-0.9142969743,-0.750951645,-0.9317997378,0.3142024105,0.1011407334,4.1836912941,0.4402885919,0.2413927438,-0.0847672806,0.4872327091,0.5556671475,-0.7761587585,0.3268319392,-0.8349613894,0.5707166809,-1.0938865952,0.490064461,0.719347966,-0.8725278413,-0.860827109,-0.5411352572,2.7335832784,-0.3827687041,0.7854474563,0.01407063,0.5272368878,0.4757159396,-0.8026031104,0.9309727606,0.7435271891,0.5583030906,-0.6641426849,-0.8981269834,0.4793488096,0.564098645,-0.0962200706,0.0714981405,0.2003889892,-0.0485346121,-0.9280586886,0.6001954275,0.8431904724,-0.3919030177,0.7550004526,0.075608823,-0.2578232994,-0.4285258775,-0.0841966236,1.0662470033,1.8968305955,-0.1264380017,-0.3912544975,-0.3540297136,0.7165783486,-0.2522438705,0.6048174504,0.4451843974,0.4301853306,-0.6532281602,0.2923886931,0.8966668472,0.5095965846,-0.7568736192,0.2026088973,0.7545480159,-0.2128634973,-0.4764417312,-0.0763436166,0.0332365595,0.7551627064,0.5294344968,-0.0912417655,1.169466753,-0.6221965082,-0.9129694906,-0.7653130812,0.7598922084,-0.2895594998,0.5372201688,0.6340878471,0.7158112297,-0.453645923,0.2913972194,0.1240287242,-0.5770505147,0.6817130444,-0.16095786,1.0581347556,-0.1037885028,-0.1592635756,-0.972860254,-0.0820917048,-0.3601003099,-0.9561645579,-0.5306293056,-0.4965276497,0.3001817772,0.7460337455,0.5954562196,-1.3259736457,-0.9401496533,0.5972336227,0.3007635131,-0.6983480735,-0.0946290333,-0.216490861,-0.1794650032,-0.910146222,0.553156611,0.6930916094,2.6192820836,-1.0214762097,-0.6325220548,-0.3216137385,0.4018897584,0.9792570427,-0.7548223836,0.4073923408,0.3736723198,-0.6565175667,0.7199684837,-0.9444004391,-0.8662348478,0.2851887441,-0.6021358174,0.8860960142,-0.1964124246,-0.05978331,-0.6791319385,0.8300279432,-0.8455671928,-0.1612305298,-0.0775309504,-0.3954729967,1.0102048564,-0.2101221969,-0.9862704322,-0.9806854102,0.7382221891,0.7758978993,-0.6175718409,-0.1834658308,2.3322338108,0.7183829571,0.2617122347,0.0320548149,0.6092734935,-0.9261169394,-0.620935422,0.1045759828,0.6335956293,0.4579695791,0.332233995,0.7192107775,-1.1226599591,0.2596630884,0.7099007479,-0.0259249122,0.2474564337,-0.7503691852,-0.488546174,-1.3158563473,-0.4225983354,-1.057412327,3.7372167995,1.0323604001,-0.5092976867,-1.09667924,-0.0626001089,-0.821729708,3.1587277966,-0.205211284,0.4606635925,0.3034287134,0.7896104614,0.2071789048,-0.7917889839,-0.3839334158,0.8017563066,-0.5145068003,-0.3144470352,0.2788532991,-0.8002959762,1.2747938502,-0.4930483832,-0.0935684112,-0.9114834096,0.2196917386,-0.8510991856,0.1209722447,0.2427555892,0.5882148635,0.1411704466,-0.7954335514,0.6681510548,-0.2108731111,0.6731480281,3.7172680301,0.1727501878,1.1028359367,0.1601894742,0.1190555046,0.3441642999,-0.815891816,0.3690346339,-0.2389814688,1.0480759766,0.3453899301,-0.0783504613,0.588292775,0.6835549396,0.2069833153,0.958764842,-0.4815088925,3.6383150329,-0.3248744541,-0.484227761,0.8200218011,-0.2506314708,-0.2829832982,0.4661269319,-0.7054989562,0.1900621811,-0.4886310285,0.8375994329,-0.5807313971,0.6379490007,-0.0205867155,-0.1132366982,-0.4417973553,0.1556558116,-0.8327250518,0.3623762234,2.564500197,0.6379765381,-0.7597543484,2.1178024653,-0.9526505475,-0.1433838267,-0.6775219531,-0.2446857911,0.7655342286,0.151687902,0.028391288,0.9318246607,-0.2027923326,-0.8314305364,0.1110781172,0.0551017706,2.0466620048,-0.8208239655,0.5310580946,0.1264642906,0.7098099882,-0.4115969942,-0.8476007277,-0.7898603405,-0.7706568117,-0.8290520814,-0.1411982307,-0.1416101605,-0.8575447248,4.0269529848,0.3214988198,-0.3178094563,-0.5624790371,-0.7820281301,-0.1182572842,0.5700851308,0.2774756585,0.0119116767,-0.1914906042,-0.1485642192,-0.6724077206,-0.5762959774,-3.8648131344,0.0420387532,0.1308681883,-0.2510383754,-2.7684645602,-1.0762365136,-1.0868749456,1.3899874337,0.2824944534,0.9845646076,-0.7355024599,-0.7571290789,-0.1588824528,-0.3783101083,-1.140558815,0.0556370152,1.6637030834,-2.2872767669,-1.1094343961,-1.1967446866,-0.1240515768,0.1470692801,0.422853295,-2.0257355318,-0.7936157876,-0.3965473133,-0.5163719056,0.6545959596,0.3884212309,-1.3716279556,1.9271024771,-0.4753594723,0.4663787533,2.4956105643,0.3218126825,-1.0607688264,-0.8417495538,0.6985451638,-0.8409150477,-1.2300911758,-1.623014677,-0.8076479648,0.1945135521,-0.5482178967,0.4714828651,1.7781324433,-0.2065521316,-0.8506838155,-0.8734722149,1.0490200307,-1.4209507259,0.0237330598,1.2991839171,-1.9052356832,-0.4501122977,1.4221545505,0.1854802457,-0.6450077333,-0.491166788,-0.2213372015,1.6917220046,-0.0937550423,0.0440533222,-1.0754788002,-0.5737517425,1.3918743485,-1.5331353707,-0.2690387989,0.4824124569,1.6882762614,-0.659290915,0.6611613784,0.657244184,-0.4475769129,-0.6425253736,-0.12910604,1.0748051435,0.9249537868,-2.1430360535,0.5080210407,1.4639546316,0.4110726422,-0.5421840358,-0.8818613929,-3.5258029907,-0.1411864846,0.6646457694,-2.4294835632,0.3400377582,-1.1591930451,-0.4613980546,0.5455690028,0.0609307507,-0.8453889034,0.3685286467,-1.3180845265,1.0361758637,-1.2885565494,-0.2423012401,-1.1754003047,-0.3593635823,1.3523558156,0.3541989555,-0.1995765321,-0.8612984345,-2.7514360203,-1.6849019578,-0.1006698766,0.8878976194,-0.0304737273,0.3838444035,-0.5252429996,0.0979686967,0.3707751367,-1.2425014054,0.3702344767,-0.3316561091,0.694606632,1.19910253,1.1381000814,0.0571779225,-0.0298796229,-1.3397613144,-1.0712177045,-0.2803842862,-0.9888747347,2.2229233997,0.0588457474,0.3089584541,-0.0693925366,-0.606343935,-0.0396908284,0.9652693544,-0.4358485217,-0.9921154418,1.0517406322,-0.7828205383,0.9744565736,-0.4325007639,-0.0611067221,0.7048923094,-1.5386658476,-3.0502790271,-1.626293965,-0.4272847283,-0.4683768643,1.5336914061,-0.4488189758,-0.280205824,-0.7099946008,0.176891937,0.9308215503,0.8058916645,-1.7591060154,0.4951049476,0.9931835569,-0.0966198068,-0.0909505083,-0.6055296085,-0.8955530645,0.0580459851,1.5877201029,-0.4745340647,0.0792177695,0.0410085283,-1.5086223968,-0.5681500994,0.590563081,-0.2646601125,1.2454243998,-0.459958056,1.3412416501,-1.1293933495,0.3728866081,0.7970759094,0.5205884384,-0.2702675843,-0.2733224688,0.4347975124,-0.4423986373,-0.6394569464,-3.4788614617,1.0916196259,-0.0787783129,-1.0718560375,-1.2260864545,1.3268999077,0.211361643,-0.7721942659,-0.5930662178,-1.0465924801,0.4667703657,-0.3065778247,-2.1154119,-1.2345685129,-0.5509154333,0.9000833377,-0.7379128257,-1.241438449,1.1873244747,-0.5001741034,-0.5657238615,0.1472487304,0.5623796204,-0.1785773309,0.1667672354,-0.5153187165,0.2971444296,1.4675183566,-0.9664128659,1.4897296432,0.7594164113,-0.3976678144,-1.3294379126,-0.6550212326,1.0840347104,0.4109948267,-0.3893403823,0.1968609831,0.5106340176,-3.9283384456,0.4387619832,-3.1541102284,-1.4007906487,-0.2521178782,0.4208209624,-0.0495640183,1.3413584093,-0.5144495931,0.5139488364,-0.7858792163,-0.5844322262,-1.202750656,0.3578701826,0.2711107056,-0.6957267187,-0.3041955256,-1.0673531394,-0.6209427426,-1.37043307,-1.7723938684,0.5425193905,-0.3129410107,0.6524265864,1.2464685414,-1.6625305361,-0.2522979046,0.4527264097,0.1892505861,-1.0295029094,0.4084618284,1.2017828704,1.0056669164,0.742692652,0.5269515005,0.0968904818,-0.5445003775,-1.1044814615,-1.6470314493,1.3993124031,1.2620339415,-0.9629660149,-1.2095332186,-1.1520530535,0.0879781487,1.4037436723,-0.3195286528,-2.3864182111,-0.1842545796,1.5290935197,-0.3702136079,0.3469449292,1.3627987169,1.3431859488,-0.4773231851,3.6357019662,-0.6689784341,-0.3522685868,-2.0688121791,0.604769192,0.0264635585,0.1266821001,-1.0916693937,-1.3513939024,-3.2620259192,0.3608053362,0.7620148853,1.2208036035,0.0680081061,-0.9510218776,0.6697449399,0.6583525427,-3.281387867,1.4077462252,0.3195720291,0.1288580107,-0.0634693337,0.2832588026,0.0555533442,0.4555828717,-0.7570732712,-0.1584776594,0.5954038992,0.8638113206,-0.0726620816,0.4964681381,-0.6041878069,0.6874649827,-0.1419915448,-1.1457703168,-0.0183336262,-0.5006985629,-0.3937757742,0.1318842712,-0.9413841136,-2.4177009307,-0.9669948304,0.7180798932,-0.5039063324,2.3050019797,-0.2333446616,0.0066964587,-0.3739636813,1.1955388105,0.5598043967,0.5794479348,-4.0442446677,-0.0757336597,-1.4531403885,0.4448910944,-0.4096221498,0.305238247,-1.3386029798,0.6007296015,-1.4385407277,-3.0617268746,0.4080028766,-0.5170843776,2.6769469256,0.800781796,-4.2000075419,0.4294975938,0.8310478432,0.7055104553,-1.1696710495,-1.9295786459,-1.7273161285,-1.9819327059,1.1330200181,-1.0359331972,-3.3793973677,-1.6805291033,-0.6267700442,0.015745966,1.0862078943,0.8721512877,-0.7154938109,0.2533311623,2.0723940079,-0.7702547055,-0.4394789609,-0.2817770665,0.3838708477,-0.7558607789,-0.1892493231,0.9545079078,1.2959800078,-0.6385169639,-1.1186943319,1.2653783998,-1.0573391978,-0.6211152414,0.331295086,0.1260199369,0.6155187637,0.3234960311,-0.8476417803,-0.5673085897,-0.050163436,-0.0057623936,-0.0061251664,1.0326117205,-0.2123646941,-0.840395254,0.4990882468,0.3697925555,0.8561324036,-0.4081289707,0.846266806,0.6298368761,-0.0306218075,0.8098778259,0.3351890329,-0.0203520133,-0.7473136424,-0.1233917234,0.4465976381,-1.3010275257,-0.9522075933,-0.8013284498,-0.1054451132,0.4451395016,0.2565680407,-0.86526696,0.8054327129,-0.1031661057,0.5371291516,0.6865779935,-0.5531791753,-0.2401359952,0.9457175184,-1.0540299548,-0.3368089263,0.0625054969,-0.3545699617,-0.4780074124,0.4006889526,-0.8502107922,-0.7619331116,0.5894714616,0.0047108707,-0.7626168615,0.8859957462,-0.359357296,-0.7226686508,-0.8502280451,0.5688871295,0.1431218083,-0.3931001151,-0.7379128193,-1.0671928668,-0.1839881551,0.4106447437,0.312098567,-0.3314554639,-0.0900109242,-0.6560446995,0.5299982791,0.6913744636,-0.3966346835,0.8220791905,-0.6138852798,0.867130679,0.1604840966,0.4778563337,1.0467591624,-0.9611697272,-0.9761992014,-0.2009538633,1.0926315827,-0.6491285139,-0.3320092944,-0.215241951,-0.7918987164,0.7464990149,-0.4243193946,1.3683764326,0.1704306757,-0.3590128327,0.6697676166,1.8220169427,-0.709678642,-0.3492038132,-0.9967510987,0.5541556862,-0.0210363569,0.6512873399,-0.5817759565,0.3014569242,0.4956093886,0.7281469787,0.1166857785,-0.4236042678,0.8776208319,-0.0074158579,0.4504102371,-0.6914675724,0.7808123105,0.0581097527,0.659425066,0.1298659666,0.6908835821,0.186171118,-0.8163713777,0.5105677886,0.1895118585,0.5553155218,0.2901723377,0.3993432782,0.5080274289,-0.2859951078,0.5830206774,-0.5630266589,0.7973355791,-0.8562478929,0.4142091798,0.4020113689,1.0325139348,-0.4238366066,-0.1098148695,0.7094054427,-0.7615778829,-1.7806742546,0.9092134428,-0.4356470259,-0.3027784413,-0.106417279,-0.3581582135,-0.4726601239,-0.6346770177,0.0288141479,0.5911419238,0.9862329655,1.0732941537,0.5864617729,0.0149557808,-0.9341520424,-0.198761491,0.4044445113,-0.8333130246,0.3708560676,-0.3934236746,-0.5848571807,0.2620956459,0.6307019261,-0.4204945895,-0.5946094806,-0.9306542828,0.5493722269,-0.179366526,-0.1995210209,0.435409736,0.0216931086,0.6190516273,-0.7915533984,0.0436197868,0.4102217174,0.7826062653,-0.7026528736,0.2268532073,0.9281255778,0.5911315722,-1.1005886847,-0.1392350693,-0.4682631757,0.3569881924,-0.3083007744,0.5891852514,-0.5904366334,0.1068721047,0.6679893601,-0.2623493805,-0.0883817888,0.0283352116,0.0833603639,0.3047875523,0.8667307709,0.7643239498,-0.0630718202,-0.1790927374,0.045318082,-0.2886919845,1.0931958775,0.4686029486,-0.5644774119,-0.4126383613,0.6419830594,1.3599145812,0.7451027268,0.0560087246,-0.1524186207,-0.6607089641,-1.7227358859,-0.4000940145,0.2631364311,0.7696245957,-0.4230773388,-0.2351916936,0.4511308491,0.8305043568,-0.4046032975,-0.3202748101,-0.2300863554,-0.6246923256,0.3573356604,-0.1059106477,-0.1145083142,0.1848681077,-0.0944922547,0.1402483864,1.0429932054,0.577105525,-0.0390997723,-1.0578524327,-0.4443027329,0.4900422897,0.5074410767,0.7611805152,-0.5257725962,-0.5912385816,-1.8184015239,0.9011582054,-0.4454013611,-0.2255462219,-0.2935876306,-0.4247412122,0.7219374948,1.1031556959,0.5927808124,0.6299996963,0.3380009523,0.5009215542,0.9329971709,1.0216507774,-0.5864874216,-0.3369822052,0.9319015795,-0.7309733543,-1.2627456765,0.5546454439,-0.6906837009,0.9489817074,0.4483267248,0.6345704972,0.6476004895,0.4057372985,-0.1905162499,-0.499714245,0.613074212,-0.2285245719,0.546769436,-0.1580697457,0.235711919,-0.3101216688,-1.0191643773,0.2985784243,-1.4310556008,-0.8704609414,-0.668234238,0.1672234526,1.0484212232,-0.6994068845,-0.3236080532,0.7033324342,0.8775084044,0.1554640389,1.2969198059,0.016747542,-0.5332741155,0.4327681407,-0.6730121654,0.4748789164,0.8643846122,0.778117768,-0.625647427,1.7069220952,-0.3972767655,-1.0595583551,-0.2377691131,0.0172368336,0.766518253,-0.8515360115,-0.0999046052,-0.2690299916,-0.1741556207,0.6865929508,0.0276111957,0.2498999437,-0.8441774986,-0.4594745104,0.7312552163,0.8025547001,0.7733283616,-0.015955751,1.5193082811,0.0410131084,-0.095575045,1.3823166697,1.0362055101,-0.5291128017,-0.8489545704,-0.5063053243,0.8580777226,0.462607704,0.5175640248,-0.2927982701,0.4329188696,-0.1006363785,-0.2882883914,-0.8745463638,0.9028321488,-1.0126533264,-0.4012060937,0.9753723911,-0.5187583743,-0.2076576529,-0.4516258978,0.520803057,0.569414475,0.3810819906,0.0734642216,1.3569170231,-0.4934161074,0.5572130198,-0.5825695871,0.1993136422,-1.2230581354,-0.4059043923,-0.0889667945,-0.2292592167,-0.5456751831,0.6723506586,-1.1571498952,0.4737127131,0.3924151176,-0.4519442808,-0.8305732219,0.8249405085,0.3446599866,1.4380548125,-1.06621781,0.1532594234,-0.4593867662,0.3452561198,0.5274252576,0.8131506602,0.3109627546,0.5370550354,1.1676405389,-0.1415522721,-2.6548622343,0.8225535919,0.8373411798,0.3596119327,0.2010647295,-0.6750661782,0.9511405612,0.24232726,-0.094016331,0.801925155,-0.714646671,-0.550254072,-0.2304647523,-0.6001064991,-0.1511151686,0.4050514253,0.3450488656,0.0096038712,0.8039221288,-0.1063533086,-1.5275782146,-0.0997455874,-0.952358877,0.8296296182,0.9556999934,0.0448135538,-0.4936074121,-0.215368186,-1.0690914958,-0.3899892851,0.1380382601,-0.3339166402,-0.8203129667,-0.2775243279,0.2119537214,-0.5225546827,0.7475462633,-1.0686365041,-0.8496732775,1.0344861908,0.0823174635,-0.8018469642,0.3937806779,-0.2683221557,-0.1164547372,-0.5782853613,0.4203698129,0.6071918444,-0.1463684239,0.6152002219,0.5925948532,0.0261262781,-0.2297784999,-0.1051436185,-0.701642666,0.3923892438,-1.0181512211,0.3607098527,-0.2721906672,-0.8271085867,-0.8857792951,-0.2496709889,-0.0147358006,-1.5861908105,-0.7956023707,0.9865375349,-0.8277525643,-0.2818838291,-0.3907893266,0.4926760121,-0.0937071384,-0.8723643751,-0.9136699731,0.8872340701,-0.5763320337,-1.9615654433,0.0253260676,-0.6084033272,0.4939914703,-0.389668452,-0.9278511225,0.1785093043,-0.0056290569,-0.1817113739,0.015036931,0.8990544777,-0.7411251726,0.2180774748,-0.3657292194,0.9918261794,-0.5739097798,0.288142381,-0.4334361796,0.0588600987,0.1169130888,0.8770436771,1.9044123125,-1.0114662859,1.0015986324,-1.569838839,-0.1664980593,0.1734470057,-0.5111433445,-0.8513893226,0.2495003111,0.8261071458,-0.0026090326,1.1818220018,0.2920322097,-0.6508501363,0.1329622708,0.5197641931,-0.0456902006,1.155612849,0.1581534104,0.3534342194,-0.5641791075,0.0408343703,-0.0137989595,0.2502043828,-0.3247111236,0.6143125935,0.8505637139,-0.3253547899,0.1189972681,0.7406672224,-0.3574138602,-0.6848990053,0.3146431897,-0.0310587261,0.4189731374,-0.4363810193,-0.0404630017,-0.7157540453,0.3663695613,-0.3118605532,-0.494345436,0.6576425882,0.8174821601,1.1081898641,-0.6591952527,-0.3488982452,-0.7445651858,-0.6449949023,-0.8039338914,-0.3700707677,0.7252333533,-0.2000124578,0.1046916026,0.4127263534,-0.4563221016,0.9644443655,-0.2619057375,-0.7061777693,0.2428255378,-0.8754363579,-3.5672633572,0.3548136354,0.5210041248,-0.8161308057,-0.1532698608,0.3432417952,0.0509024147,-0.2156409648,0.6134486294,0.0668185877,0.1731124643,-0.5473917265,0.9575073883,-0.392862413,-0.4848416452,0.5827795423,0.1854017954,-0.8930388654,0.9626459914,-0.1512600217,-0.3427315739,-0.8589888774,0.8567098746,0.3947716056,0.9971472535,0.197382517,0.4469123957,-1.1017974778,-3.8594939869,0.4668343989,-0.4197767803,1.2084612234,-0.2784609326,-0.5818912878,0.1547432951,0.1910498233,-0.0138246097,0.4931873737,-0.7891974217,-0.4272675178,-0.4229191729,-0.0750765873,1.0837138664,0.2916311363,-0.7691128952,0.1420618278,-0.7866934034,0.6416730119,-0.6034218777,-0.8814773355,-0.6263989791,0.2559668416,0.7072911464,0.1994950593,0.4357136152,0.622326145,0.450981051,-0.0830617632,0.6842873153,-0.0858837622,-0.7348086539,0.1191420903,0.2437000868,-0.5905979465,0.2887939593,1.1018571178,0.7993220253,-0.9530121328,-0.7831119728,-0.2219808325,-1.1856018573,0.711094499,-0.9310842336,0.5555804251,0.1583503399,1.0740947275,0.1860809891,0.4274054856,0.6831177181,-0.2333954113,0.7256244428,0.6894462891,0.5656052735,1.2465594966,-0.2736891463,0.5438657549,0.3753738309,-0.5339681023,0.8144975437,-1.3108020453,0.1964497123,-0.4822935699,-0.9799114107,-0.8138123451,1.5508530608,0.1555654056,-0.1164217325,0.0075175543,-0.0468470773,-0.9872390997,-0.0820733742,-0.164686516,0.5873748507,0.4024719092,-0.1403902182,-0.2655722318,-1.6097806306,-0.1176175874,-0.4662355298,0.3878363965,-1.1795440053,-0.2404367702,0.4800963285,-0.6469943196,-1.214025265,-0.0347445564,0.0847204376,-0.3249348384,-0.3859209283,0.3031279637,-0.5756678506,1.0269113282,-0.0043813066,-0.1847201876,0.1814049155,0.0469397502,-1.2268272038,0.0688837452,3.1652233903,0.4446919399,-0.0948452788,-0.3102397006,0.6251282495,0.9419306296,-0.5973994497,-0.8435289675,0.4514292383,-0.8984638168,0.7834823641,-0.4876640159,-1.1369599069,-0.2449118276,-0.1131150043,-4.1373032077,0.089387447,0.4371223485,-0.8481473245,-0.7018410857,0.0184350868,-0.3590041681,1.7188419333,-0.8155697509,1.0672565152,-0.8766620968,-0.7218969717,-1.2666233276,0.3576934463,0.9125264933,0.6010626249,0.0070328111,-0.0225739159,0.6269461411,-1.4497476578,0.3711896668,-0.6310591844,-0.5839015876,-0.7490023732,0.0917944975,-0.5761936958,0.738724521,0.32514359,-0.7610932871,-0.3160241617,1.3620164233,0.2371210537,0.7091037294,-0.9034277843,-0.4831973072,1.0155286703,-1.1948674281,0.0163343407,-0.4578379844,0.6496111393,0.6922508729,-0.2752777439,1.1314341756,-0.1350252648,-1.606547486,0.9469971009,0.4024603469,0.075061031,0.4347320582,0.2690967011,-0.8392664072,-0.6856247804,-0.1015854347,1.0648923975,-0.4762913623,0.0670233177,-0.7292147346,0.5210542254,-1.1762175688,-0.5079689888,-1.0948597427,-0.0534120433,0.6843351236,0.4241298055,0.0257865817,-0.6644653119,-0.0845249422,0.6806955464,-0.1295870184,-0.7593091401,0.3482970445,-0.8208121739,-0.6104103363,0.2619063114,-0.9386313935,0.5345621485,-0.5965932579,0.0307715255,0.877429718,0.2684905409,-0.3317934248,-0.5110194505,0.6428295573,-0.7087954355,0.39947677,0.3311848611,0.0044768099,0.2896393374,-0.88681717,-0.2255044407,0.464698826,0.2507671707,0.0961077417,-0.0515699857,0.7980604884,0.3875253616,-1.3392111833,-0.6005043398,0.104871938,-0.7692963996,-1.1676848245,0.2492894543,0.5564643213,0.6132573951,-0.0503185221,-0.4211154296,0.5069600082,-0.7394351282,0.866966492,-0.1743169108,-0.067000653,-0.477933791,-0.0970545672,-0.4395769472,0.9191464011,0.7692322258,-0.5152475517,-0.2306893834,-0.0259189527,-0.1456436848,-0.7539569614,0.3157107532,0.7169023648,-0.7514671762,-0.3068270796,0.6745273837,-0.4340670715,-0.3448739879,0.8427002814,0.890237526,0.9072760638,-0.7021171398,0.4218319397,0.3995507978,-0.6917027792,-0.3838130803,0.6303791965
   -0.8234680978,-0.923595098,-0.1343709429,0.7365796045,-3.3571897042,0.0557822513,0.7152379823,-0.9143043947,0.2799310688,1.1171114125,0.2123619577,-1.2453329758,0.0408879579,0.5621519593,-0.2510112191,0.7822901247,-0.3268893614,0.2730078638,-0.8427139141,0.4100831385,0.1228920813,0.9425436289,0.4742436055,-3.1067816187,-0.0430406723,0.4751325533,0.6613775435,0.8875983745,0.0316709655,0.4682300216,-0.069228475,-0.1764017808,0.120484854,0.4792392786,0.7998917375,0.1557218621,-0.0974101618,-0.9949582039,0.3666304406,-1.0120219067,1.7080241495,-0.9140234876,0.5731058024,-1.0830726047,0.1731621144,0.3023470024,0.0170346175,-0.9028579118,-0.041073584,-0.5694890992,0.0155858694,-0.7291225663,0.7218987092,-0.1938906654,0.6063727768,0.887393266,-0.1041067419,1.9184594194,-0.7223860243,0.1118066123,-0.5207094894,0.1159767478,0.4443728921,0.5147434522,-0.4628275686,-0.2388627963,0.0755197098,0.370259269,-0.9009700306,-0.6367584717,-1.2655188546,0.3487029616,0.9407560229,-0.7433081646,0.2923747658,-0.2877718398,0.0958549687,0.7476916473,-0.3036290268,0.0332782844,0.2060141055,-0.2781227946,-0.2424509132,0.8380666783,-0.4584350287,0.5696780203,-0.5053430938,-0.4753344625,0.6495320194,-0.7748024031,0.6365367884,-0.4368838618,0.0090134792,-1.1473819502,-0.8159587286,0.9309604883,1.3473880989,-1.0681719829,0.630204783,-0.3042395466,-4.0143573286,-0.0015284646,-1.2904522274,-0.609888129,-0.1674154751,-0.642954937,-0.5662178005,-0.6203138719,0.0652369893,0.4918530839,0.4857828699,-0.1452375649,0.582087153,-0.5868559,-0.3607291178,0.0499756087,-0.3910169135,0.829147872,-0.856735365,0.2417780461,-0.7445568788,1.3457149507,-0.0584484293,-0.722301042,-0.4266564645,-0.6299714441,-0.7388521901,-0.2759539413,-2.7635457171,0.5137379141,-0.8905058613,0.0550351594,-0.3090905291,0.2666071141,-0.3017225198,0.3806012873,0.4207173577,-0.5793834605,0.7702779641,0.2974791608,-0.982766693,0.3080807022,-0.3075686598,-1.2694238035,0.0826190183,-0.5254253673,0.0868310904,-0.2437552082,0.6845985049,0.7546918013,0.6653974802,-0.8972450963,-1.0925496465,-0.0645793927,-0.0035820922,0.6393530826,0.0583642187,-0.9152782271,0.6667222181,0.2197974979,-0.7596429816,-0.3489516302,0.3642265031,-0.2390388498,-0.3576832954,-0.4417561287,0.6681468559,0.8646790726,-0.8475105825,-0.0837630201,-0.90173704,0.890168411,0.2984307816,-0.6243691615,-0.2477074469,0.694705363,0.4903754592,0.7047011166,-0.3181887476,-0.7473429994,0.8487065285,0.5276257328,-0.0950509141,0.1077001383,0.1388277673,0.3053395357,0.4058087989,-0.5094292348,0.1026759699,-1.4945116642,-0.9587422539,-0.4910856777,-0.0141944513,0.0649074188,1.686373786,-0.8695774961,0.5918000343,0.6461280516,0.187237438,-0.5222928053,0.5400973972,-0.2412107325,-0.0958938765,0.2552393408,0.5775140413,-0.1923941189,0.4948573939,-1.3199922797,-0.8482291444,0.6807708791,-0.4561035236,0.6382403225,0.9571486172,0.2754723994,0.1467838535,-0.634666298,0.2220534795,-0.5146542784,0.1026668289,0.3351670678,0.7016226035,-0.2552668363,0.1705496601,-0.965284195,-0.2557084397,-0.6399420168,-0.2697872886,0.3705388033,-0.0400060944,0.9857023477,0.3311475644,1.1502774851,0.5295024332,0.8424055723,-1.3173115953,-0.6919954366,0.2437713992,0.7078550209,-1.1772194331,0.292189022,0.2797130523,-0.8528285239,-0.796627189,-3.247108689,-1.0000760883,0.722668631,-0.9057238513,-0.5061331932,0.0734213841,-1.0728744962,0.4053454585,0.0194344923,-0.8465600485,-0.7989309708,0.5668124053,-0.7638613672,0.5785256017,0.5470627952,0.2970139306,0.0551316411,-0.7867712898,-0.041680305,-0.299925202,0.0809447764,0.1182604043,0.6528776931,0.3710241302,0.7173922923,-0.4547218701,0.9941483047,0.0603717948,-0.5301384334,-0.836889773,0.844445446,-0.576256176,0.0729375909,-0.1751665472,0.4656396681,1.0899366967,0.3380018972,-0.4604030532,-0.1763064862,0.217605437,-0.9155902686,0.0369084583,1.5279685027,-0.9634807721,-1.0446440847,0.818992414,2.4844018298,-0.8991369899,-0.2896607,-0.5335760395,-3.1046006653,0.2109099848,-1.3178115879,0.7828304553,0.2039036358,-0.3337428683,-1.0592068841,-0.8049555746,0.3951897174,0.9493093181,0.7683650164,-0.6747905258,0.3695570188,-0.0855359464,0.8473559888,-0.3778622153,0.2517649736,0.2099943146,0.4821454218,-3.0054122254,0.2191626908,0.1694384649,0.5609332127,0.1767483911,0.1614290091,0.0805332982,2.1015019008,0.869482155,-0.2079115593,-0.8341368658,0.5633137706,-0.6127128818,-0.4218643152,0.0246494885,-0.0216313905,-0.7748966885,-0.2895873342,-0.2620745821,-1.170913828,-3.3275831738,-0.2215458319,0.7952838679,0.3026171469,0.516030803,-0.0178326069,0.0891087382,0.322451068,0.9364580665,0.8616340227,0.3400574461,-0.2318088178,1.1040377835,-0.9187340885,0.2054810153,0.8505583784,0.5348668721,-0.0035513525,-0.3616699645,-0.3833944071,-0.0543721494,0.1622768362,-0.3043404402,-0.9213886151,0.9775344622,-0.7632743554,0.1855841202,-0.9198315396,-0.6823537887,-0.0397655244,-0.7292640427,3.5171098205,-0.0346380009,-1.13130427,3.100719485,2.841135628,-0.7259681148,2.776604672,2.8275019797,-0.4574076024,-0.4726611925,-3.1279277091,0.249342666,-1.6135125634,3.9895509931,0.4366850143,1.6980780381,2.9308630265,0.9331186565,2.5336084471,0.9619232691,-0.0910122902,-3.0911114045,-4.0465706862,-0.9653106961,-2.2336152593,-1.2123660631,-0.1129293991,0.1154501812,0.4065579644,0.435953557,-1.3927142591,-1.1795472443,-1.3848498328,3.2526078357,-0.1055749978,2.5789086188,0.5810599974,0.6049939976,-0.802321888,0.1049375884,-0.8433101361,-0.2895538483,2.5863015582,3.2572728329,-1.242445509,-1.3997626865,2.9180496,0.4769525186,0.4604292566,-1.814578799,3.4360486117,4.0226820928,3.7324092421,0.7418478473,0.0136647674,0.6022498656,3.683400887,-0.9376431052,-0.5500071561,2.9208575476,0.9660972343,0.4656759269,1.483451773,3.4936782504,0.5975757076,2.4935573296,2.7824732906,4.2021120117,2.3957902287,-0.4904608308,0.9887946159,3.701264476,0.299894971,-0.1837369754,-2.4404388077,-0.705920143,-0.3993806386,0.9427244477,-0.1989366142,4.2148172463,0.2199376036,-0.9578960882,-0.56134483,-0.4837184192,0.4229909173,0.2822313719,0.1715551055,0.6111409124,-0.2059417222,0.8251511314,0.9644171037,-0.5124657838,4.0736991373,2.7677724604,0.7418396009,-2.6564579403,0.888245383,-0.8687934667,0.7113815884,3.6505845997,1.575221251,1.454270912,-3.3909071641,1.104420281,0.8622165523,-1.3288082743,3.390279245,2.2696313252,2.3400248296,2.9742908437,0.0152574094,3.6879530032,0.2878192967,-0.7959342949,0.6902091212,0.1856350578,-0.8643216869,-3.8723868061,2.8773150363,3.2968512057,-0.8180660168,-0.5477262548,3.2449827395,-0.7753607929,0.7045017912,-0.1495394801,4.1705827016,-0.4083220705,-0.2886226221,-0.4866536665,0.0136647635,4.1883355971,-0.7918183072,-0.4090909559,-0.2341747631,2.6193685033,-0.2124890861,-0.4876163206,-3.3896700442,-0.2675643623,0.9816100339,2.3613902721,3.5986790158,1.3814809842,-1.4617096817,-0.6445934975,4.0655249709,-1.2042987294,1.0324655465,-0.3931008023,-0.5123502873,0.2116527383,2.5943448284,0.0233600211,0.7893809892,2.4077606049,-0.8104231399,3.9110806762,1.3618738872,2.3635247871,4.0793254924,3.1080206497,2.8689201483,-1.0724274746,3.3637715701,-1.2373678708,1.0790131026,1.0305598113,-3.2345278433,0.9984706854,3.6791267197,0.0908669041,1.0196543933,0.9593322851,-0.2245407437,0.664164611,-0.4462839834,3.8109371446,3.1319474233,0.5848573516,1.9611400044,-2.4403182967,3.6551096517,-0.5439667045,-0.4642697291,1.3477787343,-0.2886626159,2.3449380359,-2.7392011997,0.3309934697,2.7378445307,0.1135716402,0.0092602171,0.7059250205,2.9303035689,3.5177756732,0.8981506805,2.2796699662,-1.6698580585,3.6693074308,-0.580074937,3.061986012,3.3340888135,3.651837628,-1.0226698123,-1.8849011174,-2.8282153629,4.1548040466,0.3565602418,-0.8860649869,-0.4196708502,-2.8595389436,0.8194542603,-0.2002132419,-0.0559591504,0.0916335127,3.0260503571,0.1582213488,2.8885377619,0.4441099046,3.6333842363,-1.8547814499,0.2234709949,0.9486259989,2.7953300208,2.7659535774,0.2748906338,0.1726956526,-2.673034533,-2.9562889712,0.2064282489,-0.0962802001,2.3337555149,2.9884722129,3.8263412881,2.348509276,-2.9312881329,-0.5032902507,-0.6715105581,-1.6089890485,-0.8472756199,0.4297695658,3.7316271736,1.400615969,-0.2840637528,1.241609371,-0.8205943218,-1.1264450445,-3.6023014808,-0.4083660874,2.5667214324,2.2804380555,0.9967569368,0.5875881039,-2.2403169265,4.1781827804,3.2094230798,3.5504850697,-0.2941795907,3.3240317269,-2.4157334801,1.0572937954,-0.911510053,2.8754717943,4.0172622135,4.0777892857,0.2786299421,1.4468691208,0.4785353081,-0.5203850835,0.2932025706,3.196251731,3.0169636085,-0.4855806778,-1.5556600377,-0.9982645858,3.8539103722,2.2881474552,3.3895226986,-3.7491286946,0.977997562,3.5192954352,0.221852256,-0.329804175,3.9563117883,-0.0356246278,3.4862727243,1.234008482,3.3453414215,-0.7385694906,-1.1912886805,-1.9744395204,0.1422905913,0.3485514324,1.201047713,-0.5994109203,-0.0663927329,0.6501290982,-0.0673042944,-0.8779868673,0.5482863319,2.3955882336,-0.8666280495,-0.8565701767,-0.2630739781,0.0749551187,-1.8050844285,1.1406005303,0.4324815258,-0.6737581857,-2.4199762758,-0.1616271555,1.588218494,0.1816896321,3.6374747068,0.7979960245,3.6806072041,-0.246032793,3.2928237116,-3.9109881706,-1.0847372919,0.1650739604,-0.4153149729,-2.1314215145,-0.3980465009,-0.7814900042,-2.2560194342,0.3148453867,0.3780836359,-0.221240497,3.5986658427,-0.8479445342,-3.1635469561,2.7955520723,0.9012688087,0.7757068462,-0.1227424297,-0.8022494524,0.4698112251,3.6075147609,0.5363795326,0.4995613,0.3288694937,0.1303338507,-1.3883879192,0.3628166514,3.2077067396,4.0638738363,0.7453108644,-1.8566999562,0.4412682225,-0.7062379081,4.0831092524,0.301899811,1.012172161,-0.4449125159,-1.2630853778,2.2768907737,-0.3072610835,-0.2397174366,-0.3320451543,-0.9546597546,-0.2408966649,-1.6123477327,0.8898478111,-0.819325268,-0.0962363168,0.8642449172,-0.4379426969,0.3332311928,-0.4756473228,-0.5137465615,-0.4982357065,0.5715406764,-0.499321205,0.6622841113,-0.4704609091,0.3769333953,-0.9128216278,-0.7867051911,1.1959936875,-0.7466422666,0.8116199215,0.5656897286,-0.1034507367,-0.498467389,-0.0708111784,1.0672126028,-0.9517292577,-0.8047987164,-0.758232489,0.3189346254,0.5967434122,1.1395978101,-0.9887808117,-0.5369440802,1.1792966997,0.1188243657,0.7490353707,-0.0267942068,-0.5965148363,0.0745155389,-1.5001324252,-0.5789871964,-0.5757777277,-0.4527280028,-0.2388439153,0.2723674322,-0.5249999399,-0.8545712857,-1.092305799,0.8828982853,-1.1020101781,1.0137980761,0.4538675414,1.2860343172,-0.0908308637,0.8494261865,0.9719692841,0.1032193089,0.7637964779,-0.7482342561,0.2316417749,0.9329312942,-2.7929711414,0.7711808725,0.6212819212,-0.2198844352,0.5093654732,-1.3900651347,0.4934089376,1.2791184984,0.8428070528,-0.5576854575,-0.8089982953,0.4337943138,0.5187146923,-0.2367739592,-0.3294499552,-0.0607741179,0.1862645069,0.3516619512,0.533777249,-0.17407669,-0.311046561,0.382356718,0.1503956199,0.5427295544,0.3977236414,-0.567403602,0.7437248588,-0.0118383186,0.6472092245,0.4006764846,-2.3744471957,-0.657005125,-0.973375021,0.1592320511,-0.4792695272,0.3293187626,-0.5681075106,0.2721369819,0.5558156687,0.45130259,-0.5007159273,0.1609929671,0.7714488878,1.3010226803,0.7263429546,-0.4774028419,0.4580959364,-0.2801162751,-0.5147664797,-0.5501589016,0.9997935417,-1.9768167296,-0.5076088264,-0.1398611758,0.5362475797,1.0322815675,-0.0848108853,0.2533403302,-0.4592537963,0.9105986916,0.2758270497,-0.6839078785,0.989556765,0.8372829114,-0.0806790112,0.2775968242,-0.773155199,0.9474929616,0.7063099075,-2.2517674483,-0.4713013033,0.0223364821,-0.1336851868,-0.7390601314,1.1093002466,0.8643344357,1.0098400488,0.3332804709,0.1114677946,0.4972155818,0.2924994805,0.4723827438,0.7856793008,-1.2000770197,0.4576154182,0.5863612832,-0.3486217596,1.1025962562,0.4259364492,0.5281322396,0.2411071858,1.2401955239,0.1899900987,-0.5763118774,-2.3914874468,-0.1051229346,0.4781947665,0.059025381,1.2243111611,-0.5961720633,0.9466982549,1.0691141872,-0.1460571898,-0.5521896799,0.3289616047,0.3861075441,-0.1322750046,-0.1933582862,0.12288554,-0.3654640541,0.8155261433,-0.4759945566,-0.1742656515,0.533914571,-0.1260793014,0.149646909,-0.2578882408,0.143289323,-0.4517783198,-0.2802089071,0.3169936516,-0.0404702753,0.6285601387,0.5670672231,-0.6708059077,-0.6967481992,0.6131216034,0.579420208,-0.7894974537,0.7674736596,0.7852643043,0.4197463248,-0.1824938101,-0.0476034556,1.1592607304,-0.9699370816,0.8310313694,-0.6854151242,-0.507488559,-0.4936309003,-0.1455290124,0.3504927909,0.5140078484,1.2393084931,-0.783837324,0.9697129567,1.0894794233,0.1473067066,-0.1502904464,0.8952666273,1.3757823632,0.9288848398,-0.0149281552,-0.5162780892,0.4749143788,-0.2579786191,0.5121641381,0.0766745944,0.3663102171,1.2804157641,0.3711929991,0.1985031613,0.7468471521,0.0435955882,-0.3805861522,0.1971677979,-0.8872387383,-4.1082219256,0.3393315406,0.9625528075,-0.4935340371,0.2585284749,0.1978381385,0.5404018697,1.2744197698,-0.8461781461,1.0635152964,0.0810258113,0.2446395148,0.3409985841,1.2630156671,0.6665697203,-0.213280251,-0.613291751,-3.6170068084,-2.9002451744,-0.6995525167,0.700922782,0.3354205263,-0.1010728953,0.3173006222,-0.075005026,-4.2147959276,-0.4652664711,1.9333616282,-0.7486592686,-0.2435300485,0.9967715399,1.072243208,-0.6616681359,0.9715996796,0.7787944746,-0.8652952356,-1.4191678819,-4.0569100627,-0.492365677,0.0301705455,1.2000698688,0.0199252056,0.790268666,-0.3764523265,1.1390138659,1.1422101025,-0.2284899075,-0.6585546667,1.35197637,1.0478017931,0.9766494777,0.6441835629,-0.5102298282,-0.145220871,-0.2388755346,-0.6374538713,-0.8013955164,-0.7835189483,0.716368008,0.6114212158,-0.1742866381,1.163779615,1.002858394,-1.336706849,0.7181143804,-0.4509458974,0.3684619423,1.0314575198,-0.6074086505,-0.3915352311,1.1638590126,-0.4554977373,-0.143737769,0.790509491,0.8493882811,-0.3101957498,0.582211193,-0.164431487,0.7784699472,-1.0971734742,-0.766443011,0.390630515,0.033451941,-0.110672808,0.1877791601,-0.6178057759,-0.2451656629,0.4652565997,-0.8393645913,-0.6174656154,-0.3140970748,0.0774933168,0.5946709816,0.1884615121,0.3833415302,-1.9766707778,-0.2850850462,-0.835850591,0.9596131327,-0.1877747026,-0.8898350255,1.049240625,-0.6079858359,1.0813007655,0.5032394031,0.1556810463,-0.2574854942,0.1412358832,0.4207052106,-0.4167616947,-0.0840135804,-0.9629229246,-0.3565109811,0.5502131931,-0.2836028806,-3.1719697216,-0.1413593959,0.6373849522,-0.0191730806,-0.0255373124,0.1207974138,-0.4810485386,0.0849926416,-0.4572078525,0.5061241863,-0.2636955353,0.0048530483,0.8465994001,0.2228039501,0.65268382,-0.8887544101,-0.2753618423,-0.7794199322,-0.532406052,0.4266203337,0.5260147093,-0.568235107,1.1315779808,0.9827751151,0.8207061716,0.4857256786,1.0262248573,0.8230498526,-0.5248374686,0.7146533205,-0.0288216756,1.2091703194,-0.3309520091,-0.3683344709,-0.1586615297,-1.325188035,-0.832894112,-0.4461658568,0.3612861217,0.3392523875,0.5338875416,0.8933265282,-0.0349655893,-0.3313442427,0.0252588041,-0.7907263971,-0.8142997147,-0.4819077047,0.6172728054,-0.1672919897,-0.1231422801,0.5149268223,0.531520362,0.4204946076,0.9269401141,0.5665358113,-0.0300433194,0.4045068775,0.1268367135,0.2348254327,1.3993474983,0.95103334,-1.8619220561,-0.413641231,-3.5436863483,-0.3359774459,-0.7433304237,0.8337829565,-0.2214900573,0.8953303829,1.8769775313,-0.327792397,1.6877192401,-0.2470736381,0.1300924087,-0.9034818825,-1.444704124,-0.6198638512,-2.8570412611,-0.5301197945,-0.4576186688,-1.1112641761,-0.3873161287,-0.8626774865,-0.5734295308,-0.6449544339,-0.7449594111,0.8907886211,0.9312127774,0.1057023842,0.343837172,-0.891909461,1.0003868593,0.40896553,-1.32427595,-0.8765947501,0.0537202548,0.7136661032,-0.2095476065,-0.4396524568,1.6904268071,-0.9363485526,0.8739215453,-0.0839255183,1.9458301302,1.2989012529,1.2725589092,-0.856847706,0.2025882576,-0.5884439252,0.4406217896,-1.5836872833,0.6010073307,1.0576464101,0.9587852305,-1.0241178357,-0.7278943778,0.4139181225,-0.7695827932,1.7982169035,1.5991667783,-0.6449487177,0.6042204195,-1.0056186438,0.5062439937,0.9189096442,0.8061124804,0.4855545693,-1.9534985574,-2.6597504906,-0.3397340402,0.0271279678,-1.149079789,0.1043832538,-0.3958511347,-1.0151630286,-0.852423548,-0.4774662605,-0.1870313764,0.8032117134,0.2884057445,-0.9401694285,0.9504952131,-0.8744689841,-0.2933763729,0.3173926238,0.5156888652,1.9952044442,-0.1369598837,-3.329426922,-0.1032771112,0.1349039058,0.6698181756,1.448102637,-0.466645092,-0.0729699459,-2.8582166522,-0.4035761548,0.5455541757,-0.5144827964,1.2816516344,1.7839047205,1.1383724913,1.8599061211,0.1882953575,0.1366817778,-0.3663777131,-3.8355878305,-0.885220513,-1.0518405722,-0.823177615,-1.9558898776,1.6916948964,1.5477252853,-0.2273634396,0.4851615069,1.8856858369,0.0185686772,-0.160416723,-0.7372202862,0.2746649966,-0.633105097,0.4728560114,-0.2199547346,0.0299973018,1.2629647958,0.0371733527,-0.8050062835,-0.1161366998,0.2352817158,0.0611127319,-0.7893567515,-0.9636898883,-0.2175382744,0.0709487569,1.056860703,0.0420877422,-0.8352981191,-0.8954211406,-0.9854367837,0.4480988752,-1.5292579103,0.5947157474,-0.2575516655,0.5836249602,0.8368810089,0.8185106043,0.2227594001,-0.6119096307,0.7275276965,0.1009873098,0.8716941462,0.5731385933,1.0319021833,0.8563262326,0.3164647933,1.2049311547,-0.8569048763,1.1857193006,0.6705504215,0.7840530801,0.3907387812,-2.7014022782,0.0917964544,0.2221504105,0.2924673499,-0.6127180829,-0.2137906814,0.2394585042,-0.3219271119,-3.112176366,0.960654324,2.007094204,-0.0821823115,0.8285389877,-1.747144297,0.7600333964,0.4370536594,-0.5393472181,0.7558868034,-0.1587000174,0.2032211102,0.1573951293,-0.3972623525,1.7715491805,0.7272554944,-0.8603252086,-0.5102554157,0.9379287801,1.3890963695,0.6339588312,0.4674386187,-1.4928768151,1.8138799713,-1.5068528828,1.3127022134,1.8098861158,0.7824839742,-1.3741026528,-1.0203007878,-2.840797302,1.6740111933,-1.4446891817,0.8803525604,0.5535600097,-0.368424833,0.6641380128,0.4626136951,-0.8526639437,-0.9227332111,1.1443727516,0.3087108996,1.2576539687,-0.8416594626,1.9086057197,0.173911349,-0.5525608069,0.9278347847,1.7400778589,-0.2604149131,-0.2908715682,-0.9607424891,-1.7154579268,-1.8093349295,-0.3146912007,-0.334798625,1.3647306838,1.4199272893,1.1125730646,0.2532188641,-0.2114814893,0.3197980796,-0.046271954,-0.6559723314,-0.727965614,0.4039420902,-0.6605427307,-0.0508580986,-0.9888513784,-0.2757035713,-0.407637609,-0.5835270143,-3.7674314668,-0.1719285179,1.8471965483,1.6796006446,-0.7409277252,0.9099639334,-3.6478871127,1.4335620482,0.4834687478,0.9342897016,0.267782535,1.4956015743,-0.3254847868,0.6871233406,-0.9844254769,1.0161022349,1.7050631039,1.3874830318,-0.8195946235,-0.4180551782,0.9946742888,-0.6067256867,-0.2539528743,1.7555117153,0.2509105994,-0.5129917929,0.3807147258,-0.5867357139,1.7050123272,0.9622728065,1.5817761686,-3.3202106613,-0.7451135705,0.6205073053,0.1048869849,-1.7829060174,-0.3260746924,-0.0761909324,1.0796934754,0.6185789322,1.7957906367,-0.0769004162,-1.9670434319,-0.443107661,0.7861015502,0.1277899363,-0.8899215679,0.3132078124,-1.9786488656,-0.5118778379,-0.8959855462,-0.0363933053,-1.0554867241,0.8540691869,-0.7011736871,-0.6551078088,-0.1179537097,0.5539855654,-2.0745369895,-0.7651227646,0.6861393951,-0.300580656,-1.7705269739,-0.7223044173,-0.0020670079,0.7957873131,1.0402345955,0.0895282283,1.5978353334,0.1638933181,0.0159244661,0.3457832991,-0.2725498926,0.5107501603,-0.1446492297,-1.7194225739,-1.095436265,-0.981655341,-1.3701832901,-0.1756505278,-0.8364855128,-1.3936961907,1.571815805,0.4312030779,-2.7226727177,0.5355814359,0.0199834796,0.3674191258,-0.5657944791,0.7448963745,0.8028893906,0.4701875908,-0.5395168512,-0.752455425,0.4873299059,0.4019871394,0.1661646259,-1.3829527639,-0.0502144369,0.3993668409,0.9175140105,-1.8854034245,0.5589556334,-0.2223253976,1.2768475161,0.1485519269,0.0402133187,0.0514532929,-0.8360081596,1.9488988834,-0.7729288478,-0.2910612564,-0.7088648978,-1.2088513995,-0.1189810263,-3.5570965976,0.528184513,0.4942763326,0.926381295,0.4635760445,-0.9891956753,-0.6168009075,-1.5599858297,-1.7314012167,-0.7533879288,0.1175295287,0.5491806112,-0.2434695688,-0.6070696467,-0.2478972808,-1.0372999282,-0.0823325334,2.7770796016,0.6622630576,-0.54278025,3.6631714806,0.9168897499,-0.102433644,3.510956322,2.8480616383,-0.9400398726,0.7851701295,-2.2518377472,-0.1018711207,-2.0937100797,0.1571984615,-0.2064317363,0.6730373459,0.3508715016,-0.6701639414,1.7390933803,1.0853589419,0.4393145013,-0.6083453231,-3.3498609633,-0.3319411923,-0.2184094801,-0.6405542699,-1.2772686447,-0.1760673302,-0.709442748,0.4380346516,-1.9819019197,-0.4886670866,-0.7838900627,0.1154810065,0.5564571257,0.0918212531,0.5718026089,-0.533516158,0.2016350627,-1.5374351782,-0.8320474944,-0.2632984028,1.0322222066,3.7460660545,-0.9954068696,-0.8152827154,0.9743043039,0.8459426098,0.42617867,0.3394500136,2.3928827992,3.878101824,-0.4775837132,0.5119150533,1.1352908958,0.6790283466,3.6146734057,-1.637763869,0.1388414046,1.0028358845,0.2006060937,0.3634282316,1.2785075182,3.4694263953,2.2537114625,2.4699994288,2.4183327743,0.7937026742,3.2168153483,-0.2811554117,-0.9132838774,0.7836532515,0.914611552,0.3178341677,-2.8502467945,-0.7276685687,0.6503112348,-0.4468649437,0.0658821586,0.835875387,-0.0521787204,-0.8336423756,0.1364910849,-0.2739401641,-0.3581398227,-0.2810811685,0.093115796,1.0416107565,-0.1034798151,0.0438867848,0.6343484247,1.0960447463,3.2039693498,2.4401993337,0.9925522445,-3.0171615897,0.5387825418,0.2787139802,-0.2368039223,1.0440829915,0.2232409663,0.0757993747,-1.7379527194,0.4937477901,-0.1037769582,-1.4409055635,0.0297639617,1.6222531958,3.4519281789,0.6657258779,0.486007313,-0.0939943191,-0.4471660012,-2.0594409921,-0.5781697286,-0.6564557435,-0.0863095809,-0.3415242539,2.3739785891,3.7311017482,0.4898470115,0.8950377807,0.3490721058,0.5474350026,0.0224887681,0.0000113849,4.1859826796,-0.8967487874,-0.3509776592,-1.2071925205,0.1037405498,-0.6556468021,0.8992991527,0.4354334764,-0.8080144172,3.5329335957,-1.0835532743,0.4397922774,-3.1255489249,0.8732379514,0.6600992155,3.693136689,0.4873039696,0.9673199526,-1.4530190182,0.2491413056,2.6345301152,-1.4311826244,0.1129917349,1.4746505658,0.115736517,-0.1489986711,2.9884903066,1.1887006794,-0.371715003,0.5660013803,-0.1647308881,3.293588769,0.6059295463,2.8977027774,3.1494476731,2.970453692,0.6132114475,-0.8889547383,0.3322775395,-0.9437674229,0.8849432933,-0.4667427961,-3.6279886031,0.7116235845,2.5165323506,0.2124488849,-1.3267970611,1.0461475752,0.3512951077,0.3975636874,-1.4405879677,0.4177162186,3.6793115755,0.0020757456,-0.4040451001,-4.1750934799,3.9001049006,-0.291753812,0.649674987,-0.8065916324,-0.3772111124,1.110693698,-2.1736892075,0.7307848342,2.377837829,-0.0463955883,-1.0730592391,0.5786564437,0.9657139952,3.6167916193,-0.732646678,1.713742797,-1.2139732291,2.3038143574,-0.7901558267,3.6580783886,3.4253429934,2.6655638169,-0.2968284908,-4.0512541242,-1.0637014527,4.0248298929,0.3506838536,-0.7481012054,-0.8633379812,-1.4924120776,-0.4045125095,1.1769632004,-0.6916135098,0.4875795833,2.5438534699,-0.1083418167,0.6539664985,0.0333457256,2.5210520996,-1.1950643943,0.0755405803,-0.5315805526,0.9790538343,3.0342274859,1.1755668959,-0.1752526866,-3.4352528587,-3.4089326609,-0.9998409602,0.5992599388,1.9260479054,3.1691932974,4.1699643651,3.1333236893,-4.0259121947,0.6151104158,0.5136021016,-1.7753622976,-0.9459826059,-0.0439772403,1.0885569303,-0.3688118889,0.5926567475,0.713620556,0.2002232429,0.011192054,-3.534159412,-0.0165868781,3.4178347646,1.0137433874,-0.5376844335,0.579133699,-1.6986175247,3.5228905079,3.772072779,2.6841406894,-0.372811913,3.3921160424,-1.0017046953,-0.7311718041,-0.7739713514,0.0925203843,1.4275892425,0.3115677391,0.0562041464,1.302946539,0.630196578,0.3242012479,-0.8186170401,-0.3688086371,1.0053300247,0.0040768954,-0.8147942676,-1.937657526,1.8802924415,0.3079805624,0.7452309621,-2.7478893866,0.4514027736,0.2684249683,0.3365708882,-1.8379172662,2.5362549475,0.2390837912,2.5941867147,-0.042655459,3.5085397073,0.2031001577,-1.019069653,-3.8277105366,-0.1692819381,-1.6342321592,1.4721717705,-1.0299989769,-0.3901156421,0.4332088408,-0.6740247913,0.1448451921,-0.9793014048,-0.5368571575,-1.02804922,-0.2750343145,0.9343996656,0.99088494,-4.2114266998,-0.1327258493,-0.290120968,0.6583197133,0.9495272945,0.3919461444,0.8605840713,0.5157670454,-0.356966857,0.2868448886,0.8682950474,1.6026353602,3.7593850165,-2.8786576424,0.030794231,0.0528531445,-0.771770006,-2.4601855886,0.2124386196,-0.6604363305,-2.5456698636,0.5285255108,0.2865611414,-0.7508938568,0.9700573327,-0.6459731984,-1.3249976934,4.0829119797,0.1418340925,0.7051998048,-0.9067453777,-0.1450237839,-0.7302902605,4.0159175498,-0.1453146929,0.3518233815,0.055861138,0.3545426752,-0.4805245936,-0.0800710792,2.3753720512,3.445603887,1.3999387706,-0.4813687405,0.5202663383,0.7981041912,1.5138805458,-0.2999165859,0.9609645479,-1.4774484998,0.270146548,0.6371588064,-0.3095741915,-2.3520997699,0.2094847752,-0.6301411869,0.3310756678,-1.835632731,-0.8163028802,0.8845058635,-0.2276276085,0.5579906155,-1.1787722486,-0.0324677496,-0.0309594518,-1.0702555017,-0.2207110875,-0.900037305,0.8646292697,0.2317481776,0.2802164277,0.770405666,-0.7829983131,-0.1694606659,0.1654186074,0.5335031852,-0.9560364665,0.8281461246,0.6929602809,-0.7208090558,-0.2715525429,0.2635510167,-1.729305538,-0.7631973585,-4.1833707398,-0.9644370546,-2.487986414,0.3001326928,0.1556987643,-0.185363101,0.7286691049,-0.1395580607,1.06138326,0.8868652676,0.7250992168,-1.6476556889,-3.7246712849,-0.8381624946,-0.8805296222,-1.0237897511,-0.8885525585,-2.1901572367,-0.180943575,-0.925785661,-1.0587583419,-0.3280079565,-0.968560883,1.0611257198,0.2027579242,0.0176193916,-0.0392880687,-0.6938818679,-0.5459865013,0.585907025,-0.3686279007,0.4053535238,0.7249222769,-0.1560108442,-0.1550999725,-0.3602170724,1.6771588595,-1.3606006106,-0.2463205656,0.1498947364,1.6584953852,0.1273742735,-0.0334246943,0.9961829787,-0.225261099,0.3774129965,3.4489613119,-3.4322051381,0.2800797182,1.088304172,-0.1589260892,-1.0581967277,0.2236741878,0.6225270185,0.1755057177,0.3558643222,1.3237905056,-0.267387703,2.8884480901,-0.808502946,-0.2013500251,-0.3181450275,-0.1697457944,-0.2409982157,-2.2732022314,-2.6287371893,-0.4748213042,-0.7587400259,0.0041554595,0.0000631796,0.9910223413,-0.4838731758,-0.5425693359,1.0782521918,-0.8898330759,-0.8835492016,0.0551152878,-0.3154019021,-0.7029935697,0.4715530724,0.1336484588,0.1362950107,-0.2203095595,1.5597149702,-1.2583619841,-2.7304014362,0.8410009596,0.5770506335,0.9020129512,1.1367365419,-0.6823991079,0.8630893081,-2.7390750165,0.4796431525,-1.3270895663,-0.9139924295,1.3685889044,0.0832994606,0.4947452857,0.4994731808,-0.2100685185,0.4013261178,-0.9519699722,-0.9280453533,0.487303328,0.4640742219,-0.944284816,-0.8303925345,0.3168652944,-0.619197985,-1.2730427523,-0.2872528289,0.7162749509,0.7891313903,0.4800529438,0.6007062486,3.7981423339,-0.3895318083,-0.7892926925,-0.2476184477,-0.2554432488,0.360208471,-0.8770998175,-0.248806655,0.2255285051,0.6471591626,-0.0333139109,-0.2868730482,-2.901422611,-0.3177863147,-0.2295379718,-0.5121008321,0.6986991648,0.2139976912,-1.0606361087,-0.2559155137,-0.6994801649,-2.185930754,0.077567152,-0.4279702896,-0.0774323898,-1.1020631114,0.7094119568,-0.7139891936,-0.7539549647,-0.059636414,-0.6889687762,0.3812151539,0.6981267011,0.3529666601,0.1063448469,1.0410909525,0.5483444921,-0.1538997378,-0.4207822519
