encog,BasicNetwork,java,3.3.0,1,1576422377180
[BASIC]
[BASIC:PARAMS]
[BASIC:NETWORK]
beginTraining=0
connectionLimit=0
contextTargetOffset=0,0,0,0
contextTargetSize=0,0,0,0
endTraining=3
hasContext=f
inputCount=379
layerCounts=4,16,64,380
layerFeedCounts=4,15,63,379
layerContextCount=0,0,0,0
layerIndex=0,4,20,84
output=0,0,0,0,0,0,0,0,0,0,0,0,0,0,0,0,0,0,0,1,0,0,0,0,0,0,0,0,0,0,0,0,0,0,0,0,0,0,0,0,0,0,0,0,0,0,0,0,0,0,0,0,0,0,0,0,0,0,0,0,0,0,0,0,0,0,0,0,0,0,0,0,0,0,0,0,0,0,0,0,0,0,0,1,0,0,0,0,0,0,0,0,0,0,0,0,0,0,0,0,0,0,0,0,0,0,0,0,0,0,0,0,0,0,0,0,0,0,0,0,0,0,0,0,0,0,0,0,0,0,0,0,0,0,0,0,0,0,0,0,0,0,0,0,0,0,0,0,0,0,0,0,0,0,0,0,0,0,0,0,0,0,0,0,0,0,0,0,0,0,0,0,0,0,0,0,0,0,0,0,0,0,0,0,0,0,0,0,0,0,0,0,0,0,0,0,0,0,0,0,0,0,0,0,0,0,0,0,0,0,0,0,0,0,0,0,0,0,0,0,0,0,0,0,0,0,0,0,0,0,0,0,0,0,0,0,0,0,0,0,0,0,0,0,0,0,0,0,0,0,0,0,0,0,0,0,0,0,0,0,0,0,0,0,0,0,0,0,0,0,0,0,0,0,0,0,0,0,0,0,0,0,0,0,0,0,0,0,0,0,0,0,0,0,0,0,0,0,0,0,0,0,0,0,0,0,0,0,0,0,0,0,0,0,0,0,0,0,0,0,0,0,0,0,0,0,0,0,0,0,0,0,0,0,0,0,0,0,0,0,0,0,0,0,0,0,0,0,0,0,0,0,0,0,0,0,0,0,0,0,0,0,0,0,0,0,0,0,0,0,0,0,0,0,0,0,0,0,0,0,0,0,0,0,0,0,0,0,0,0,0,0,0,0,0,0,0,0,0,0,0,0,0,0,0,0,0,0,0,0,0,0,0,0,0,0,0,0,0,0,0,0,0,0,0,0,0,0,0,0,0,0,0,0,0,0,0,0,0,0,0,0,0,0,0,0,0,0,0,0,0,0,0,0,0,0,0,0,0,0,0,0,0,1
outputCount=4
weightIndex=0,64,1024,24964
weights=##0
##double#24964
   -2.4850135172,-0.6596557418,0.399923523,-0.060458159,2.5578010481,0.6970728238,-1.1015506842,-0.5862252194,-0.8027728474,0.4899664972,-0.4915955662,5.7773138934,1.0893359347,1.6733728269,0.0853001744,-0.8605981229,2.3458577002,0.6535760633,1.094843101,-2.6481396232,-2.3342027785,-2.9570823648,2.1368065517,-1.7657946129,-2.399655297,0.3061854003,-2.1590765997,-2.5943239039,-0.751053381,-2.5529451359,-0.8227517815,-0.4160278883,0.2948621715,-0.6577721694,-0.4566854492,0.3317025033,-3.3414561135,0.5069709534,-2.9192885704,-0.3723092641,1.0487837203,-5.1778809057,-1.6488502764,-1.1440642749,-0.7116606032,-0.3300214442,-0.3445802188,0.0147491465,-0.2809384514,-0.7102231346,-0.8926619111,-1.1879091014,-0.0250775719,-0.8311485192,-2.0599857367,1.4953086356,1.1761525863,-5.3047636031,1.6166086457,-5.9655645807,-0.1741350465,-0.5161620069,-1.2434080386,0.6375957654,0.3767098543,-1.4875584057,2.7607936878,-0.680230413,-0.9279308518,0.5627375097,-6.4165322923,-6.4842211825,-0.9115900434,-0.4768047317,0.080018103,-0.0683534627,1.0103416923,0.2407132887,-1.0661047255,-5.2890337906,0.0367737054,-0.9828311913,-0.8127513447,-0.8684642621,-6.0702758588,0.4318426326,-0.3759918791,-1.1174610385,-3.3862112757,-0.8694006551,0.7620705492,-4.9570093927,-0.0623449598,0.5934489111,-0.7713477022,0.8404439507,0.3003784285,-6.2625496589,-0.1371464396,0.3785260778,-0.9258002989,1.2944479352,2.577080116,0.593518364,-6.5398696208,0.7923936336,-2.0453375675,-4.9299292844,-1.1112541107,-1.0498083875,-5.9573486489,-0.5950312326,1.3523264833,-0.2416271998,-1.085558201,-0.3891323684,-0.5768363974,-0.0478365645,0.332057351,-0.3224437772,-0.2307823382,0.7164358806,1.1308145433,-6.2522157471,0.0419712242,1.9020727902,-0.1318662647,-0.7838810688,0.2608925951,-2.6441702216,0.5362691682,-0.9220235233,-0.7226990271,0.1747908812,-2.8440758666,-0.2114381636,0.0596728917,0.3058498292,-0.1956956441,0.9015909211,0.4709652108,0.2606158,0.0667524731,-1.2803454609,0.1502354012,-1.2454762826,-0.3709269985,-0.0933268602,-1.6325307954,0.0295390772,-0.1421777461,-2.6741695899,-0.8845148223,-0.8733596591,2.345076639,0.7845934476,-0.0830667746,-0.6699087056,-1.4954460726,0.8976060526,0.6445500452,-2.8052004926,-0.4965869722,-0.6152713266,0.0306586602,4.8344344935,2.895885849,-0.7192039361,-0.3237575274,-0.0126498636,-0.3663673885,-1.0755639733,0.3626693692,0.7682656927,-2.5240349096,-2.9285920215,1.6987595104,0.6040628952,0.2419048971,0.7681187375,0.9172738918,-0.2314956667,-0.9193676722,0.5438569822,0.7689439022,-0.4319713761,6.5753919742,-1.8596674949,1.1184295879,2.9234683283,0.0231463514,-0.483004235,-0.9833316723,-1.1381249376,0.7900077425,0.2815527617,0.2252702032,-2.8074311245,-0.4264267248,-0.6186207026,-2.769165074,0.4961471224,-0.2319030509,-0.6709372038,1.6644828828,0.4579605188,0.5461092249,0.1362680473,-0.7227315834,-1.1694370391,0.8708415977,0.1930952133,-0.6485691528,0.3440105042,0.9216926537,-2.674936698,-1.9319969432,1.1231876244,3.133070759,-0.5649558273,-0.4869452215,6.2775657403,0.9395085393,0.9330665978,-0.0419161289,-0.3191515965,-0.1952655609,-1.3350679791,-0.7496562406,1.1793342177,6.3655143368,2.6364252074,-0.2404594372,0.5089325676,-0.8028894773,0.0333195147,-2.7687343006,-0.2744300277,-0.2826765216,-1.50302338,6.336128278,-0.6737165556,-0.6182573388,0.6510215957,0.9388969734,-0.0757830408,0.2117879097,-1.1873679046,-0.1628183112,1.4460158478,1.460417927,0.7411502942,1.4046295299,6.7581387628,0.5840597641,0.7266498244,0.2095831259,0.6764382693,0.6108485625,-0.8405586262,0.8089877476,-0.441013197,3.08602377,5.1302061776,0.0562692736,0.0439003572,0.9534650641,-0.5445667881,-0.6528521589,0.3050258647,0.7871477942,2.46211994,-0.4970722167,1.0781868996,0.6967204624,0.3630135963,0.4425048481,-0.0825392656,-0.4379627439,1.6898509304,0.1585887883,0.3558446335,-0.6883572071,1.5625282633,-0.9459520592,-0.5518015447,1.2746916354,-0.229452795,-0.7139869689,2.4516026881,1.1146945212,0.8377603985,-0.7372184018,-0.7345229929,-0.7183947064,0.6023853581,2.0261481199,0.4954339838,-0.206175113,5.2414954193,0.9144470117,-0.2910098314,5.6433697164,0.7735501898,-1.8996351829,0.4123680095,-0.8434157848,-0.1182664105,-0.2430919304,-0.6891773554,0.023030891,-0.0353535675,-0.5990803763,0.9654100641,-0.6181859282,6.3318928411,0.363934256,0.4839585729,0.7808685766,-0.574168919,-0.7602023475,-0.0599408928,-1.7759394303,-0.7480107189,1.206161754,-0.1262086108,5.0055495342,6.5876468822,0.2347357598,0.734665883,-0.2267410512,-0.4332836056,-0.1252385973,0.3749635785,1.0058195492,6.4846276493,-0.9280274927,1.4256114125,0.0994514089,-0.4733895074,2.8288222381,0.3082841977,-0.8757420409,-1.0243024292,0.7811027258,1.0115064625,0.2978355984,1.1870479924,-0.9749445912,0.1391019057,0.111363732,0.6624881117,-0.417717794,1.6749219492,0.715258617,0.6224728505,-0.4564890919,-6.6014535547,-0.3022408362,0.4880778125,1.4452289369,-0.3290584288,0.8774058105,3.0083515301,-0.0037488005,-0.4237354711,2.6861757951,0.4308233924,-2.3684495821,-0.5739597263,0.8579937487,1.0999284001,-0.2318990901,0.650560739,-0.838996532,0.4412066107,-0.3974607537,-0.6092421122,-0.3447361063,6.7641220596,-0.761240719,-0.3541530883,-0.251060799,-0.0953619843,0.0029604187,-0.4444965933,-1.6972929832,-0.4012142699,-0.3002343759,0.6246428669,1.0550255183,1.3270699727,1.1262123436,-0.3899396535,-0.2793353438,0.0084648276,-0.3075840224,-0.0863802987,1.1164230407,2.5117108447,0.5689310724,-0.1164417452,0.2323305031,0.5103579056,1.8847194145,-0.9811964323,0.6270426701,0.8578814489,1.4190056359,0.0202171981,-0.038426723,1.9274875438,-0.4576603815,0.2627835583,1.7817082371,0.6329608542,0.3377957058,2.9759165078,1.2564814843,-0.5615245411,0.0089355821,-2.6556126669,-1.0951224752,0.7137689305,1.3515839642,-0.5056738299,1.6332151026,2.2482947227,-0.1409595373,0.4119794163,1.6129921381,0.3234070278,-1.9453920481,-0.4507851341,-0.5994958634,-0.84207567,-0.2919910613,-0.3659034387,0.7255547902,0.8534089996,-0.4200164399,0.1864842482,-3.0900918202,2.2563943123,-0.2094179907,-0.9982643242,-0.2305092851,-0.2279982704,-0.2516074206,-0.8076956123,-0.2792892345,1.0000334365,-1.0315488502,-0.435465134,-0.9581602603,0.3638308669,-0.3756651405,0.7099876731,-0.479729628,-0.2047976064,0.6117057222,-0.5140651129,-0.555294017,0.0435692842,-0.1517771995,-0.8151306325,-0.2323766915,0.9512754395,-0.6385934755,-0.8017018106,0.1611465611,-1.012869417,-0.776244393,0.5516320124,1.6962151065,-0.7220319182,-0.9503549012,0.3917936982,0.7481741726,0.0307449526,0.9798321276,-1.0374258913,-0.393140504,0.0285083203,-0.3080028286,0.8494406598,0.7475905075,0.7629836949,-0.4133154152,0.2479252279,-0.7796163358,-0.2623255996,0.0870052526,0.3368514916,-0.3261961825,0.1603014031,2.6067070047,-0.8805706518,-0.7130391708,0.3576843274,-0.4432844768,-0.8212659182,0.6015567279,-0.4531488732,0.9827757748,0.0545035711,1.2373506368,-0.6938325142,0.8323567067,1.3441205989,-0.8058185615,-0.7878829593,-0.815625967,0.5362100275,-1.1872556525,-6.3471585523,0.2622671352,0.6971907145,0.0220801313,-1.2498764834,-0.2943406024,-1.5760175843,-1.2054804016,-0.9614899516,-5.5577531903,-1.6059172921,-0.6918799016,-0.1009545654,-0.1859067831,1.8284949635,-1.3068606254,-0.9774831819,0.3436607486,-0.741827571,-1.8235656424,1.571798515,1.1386559307,-1.8587577452,-5.0911665359,-0.4441041522,-0.4975512271,-5.4586329518,-0.4873675563,-3.7713879184,-0.9351725825,-0.9072818739,-0.0890646414,1.4360526967,-1.1983975507,-1.6983366961,-5.2827662304,-2.9395068731,0.1334956262,-0.8034378381,-1.0859929044,0.763476576,1.6366479358,-0.0511741275,-0.9394197466,0.5543706681,-4.9925200481,-0.9467557027,0.4655488069,-1.3896692566,-0.7016518109,-1.3828639246,-1.1568653863,1.6041042763,-0.4077664884,-3.3229865091,-1.2436558062,0.2359064606,-6.2848209018,-5.6421115428,-1.2977913311,-0.0921233067,-0.6606704472,2.593815719,0.0977640661,-3.0284866751,-1.3456653328,2.1745122601,-0.1445232928,0.5626636161,1.1668530284,-0.3842386797,-0.5708333558,-0.1088852924,-6.6899471214,-0.7271495678,-0.8127510926,-1.0722762826,1.5815736565,0.4001189852,0.5295757304,-0.8130517871,-0.9392819859,-0.3144281563,-1.1285050825,2.6288386372,1.8092550398,-2.1071823228,-5.9626331255,0.1485953729,-1.0126601735,-5.2392323921,-0.7782499515,-5.5312787333,-0.9275059143,1.1342326538,-0.0558903876,0.6687571241,-1.1740771993,-1.0280621295,-4.9849331661,-2.0712792707,0.3358339421,-1.1007245102,0.272138157,-0.2647345213,2.2201395316,-0.5366505834,0.6552086941,1.8662053684,-6.5828877189,-0.7514128054,-0.7738909174,0.2442294911,-1.7211731472,0.053710623,-0.6469502281,1.349846327,-0.4293072101,0.0828976863,-1.80420295,-0.6036183302,-6.8113688495,-6.3971544428,-1.1423113757,-0.3074997132,0.41327568,0.8016810757,-0.2857845249,0.889059584,0.4725741747,-1.3622901519,0.2359564708,1.1134023917,0.941716128,0.7278255139,0.4114082287,-0.2121119147,0.7779282373,1.0336996468,0.0450168184,0.7275949216,-0.559474446,-0.3617667633,-1.0863898572,0.8226391975,-0.1079711917,-0.0867570582,-0.7550372707,-0.5609403056,0.8585094153,0.6892448145,-0.9182034462,-0.0366827974,-1.0899289622,-0.903810467,0.9628429415,0.3275186884,0.0522786186,1.5657789441,0.0462806547,-1.008472539,-0.7788589602,0.5950093507,0.4503739504,0.8992390108,1.2374944458,-0.3741405647,-0.3318726513,-0.119810959,-0.9696132139,-0.5189090092,1.5155885244,0.1178807198,1.0449399208,-1.0601670076,0.5390582447,-0.7500536613,-0.2115602185,-1.2006515626,0.6178261831,0.7515777438,-0.1523382575,0.0640165333,0.3958459415,1.0782758031,0.4710273057,0.9429927604,0.6537832106,-0.898108319,-1.2339142133,-1.4911654141,0.4425689054,-0.2485901731,-1.354216782,0.9141226322,-1.4355868943,1.3907732902,0.5140232751,-0.9973698779,1.9507476161,-0.6724777261,0.4112129,0.4101155079,-0.9157421287,0.0755764258,0.3327977378,1.962589572,-1.5023173427,-0.5676017342,0.4108161869,-0.3798078001,0.202579002,0.3149716892,-0.0260391521,0.0016039145,0.2858257381,0.4923587004,-0.7617176915,-0.3402650032,-0.1732197168,-0.1258432957,-0.9686231179,0.2571936398,-0.1710014212,1.5145606292,-0.5989817648,-1.4127678426,-6.5712851984,0.0772833251,0.6565158713,-1.3134750775,0.6222296013,0.8570859952,0.0913830075,-0.6713493415,-0.7369650892,0.7785731029,-5.1949316485,0.5547630584,1.205262963,0.6529333388,-0.6595363995,-0.7976470357,-2.2267997565,0.7982039577,-1.3033871784,-1.3569724629,-0.7944662383,-0.1240440557,0.470302227,-1.2513647907,-1.176654257,0.5853060271,-0.9309153476,1.3075633947,-2.2254974546,-0.9312691114,-0.8571611768,0.9225539458,2.3710252804,1.9623095165,0.1877871061,0.8355262972,0.3929174113,-1.6183193012,0.8422861604,-1.13922082,-0.9146084062,2.4066988975,-0.1879096046,0.2674614435,-0.7665151651,-0.0782900451,1.682538122,-0.5961286194,0.2838404884,1.2306526177,1.2828608437,0.1975433706,-0.7658931522,2.6719002513,-0.854161797,-0.9714303519,0.99823942,-0.6065312218,-0.5316907355,2.4240193326,0.7517178848,0.0160287519,-0.9209213289,-3.2748619786,-0.6928458773,-0.0037104717,2.9786637659,-0.3748485737,1.4563479456,2.5527524428,-0.8117980718,-0.3208327625,1.7732904482,0.137641421,-1.6074635482,-0.3369065648,-0.0573676723,0.706439481,-0.2038016593,-0.3640381834,-0.3461768537,0.0890578661,-1.0851364541,-0.2577108137,-3.4008419193,2.5925893486,-0.787036518,-0.4282327945,-0.0785486415,-0.9449284237,-0.8629278277,0.4205142,-0.8473806937,0.8700831161,-0.4727654732,0.6019615533,6.6423981298,5.6047501997,0.3140524711,0.2859992275,1.1393562006,-0.0143651268,0.5996354139,0.6380201044,0.4745839659,5.1845804982,0.3363898423,0.097896922,-0.4780410709,0.2196415974,6.6565403521,-0.8734374122,-0.2966091681,1.0399201433,0.7019361652,-0.1900256255,-0.6988260483,1.2057154511,-0.8960352243,0.3003256771,0.5061317633,-0.7184327786,-0.4145335994,1.0127664596,0.8234282588,-0.521601629,0.3805935254,-1.3837602071,-0.7330796726,0.7417511446,5.8717342964,0.8373394855,0.5916514267,1.8998934907,-0.2042449436,0.2375279119,6.4726943695,-0.6028141751,-2.3602205241,0.0828168789,-0.2759689352,0.6621182743,0.8576947435,-0.3983491404,0.7980305752,-0.7762054883,-0.8014191659,-0.6296156289,-1.5758441393,6.8099791404,0.2533990624,0.8041834729,-0.1131156159,-0.8215998481,0.0309230024,1.1286966924,-1.4447654297,0.0634496834,-0.452315102,-0.9673012413,5.7243241389,1.7485151197,0.1519790013,0.0633818691,1.0360628122,-0.7962234865,0.069742833,-0.9212394879,-0.0772269137,5.5508771888,-0.2179783357,1.8365290071,-0.1190431606,0.8612385422,2.497962852,-0.8571118032,0.6563051704,-0.2128355526,0.8313738815,-0.215368805,-1.5865879223,2.4840317189,-0.2884695701,0.4964789396,0.5881157035,0.6942134745,0.7805137379,0.6078278698,0.1204753985,-0.9986325243,1.0974907131,-6.2177308491,-1.2167659583,-0.7648364472,2.1435677731,-0.8115104911,0.7957755686,5.5312789388,-0.4745086792,-0.7670523347,2.953386795,-0.5580696914,-1.3309553594,-0.1740696125,0.0279158507,-0.2868001155,0.0163000114,-0.0063636276,-0.3572337026,-0.3411271675,-0.3121494389,0.2815557099,-3.1303136214,6.3491767898,0.1608621164,0.2974720792,0.1560548302,-0.7630506053,-0.7878767322,1.899428668,0.2643373516,0.3062955338,1.7437082419,-0.7124253972,5.0508405772,6.0675933494,0.7299732125,0.1142525681,0.659811732,-0.0690604877,0.0731688896,-0.5818281019,0.5054412628,4.9233549018,1.1346988906,1.9146443873,1.1027805895,0.9276465107,5.6347832632,1.1164637106,0.633276754,-0.7933689907,1.4334220064,0.9852519896,0.1213575664,6.2480353752,0.2556027198,-0.6740442953,1.622261444,-0.0965515013,0.947195507,6.5900917065,0.6083236988,0.8023273771,-0.4373153605,-1.43496478,0.1439169024,0.1218739464,5.6887977426,0.0646700023,3.7722734993,5.4110315646,1.0093989556,-0.5589247704,6.8853911095,0.2575336187,-1.00433783,0.0122333924,1.7180341403,0.8593721137,0.8489976697,0.8355754801,0.156237317,0.8505161219,1.004711873,0.7303918226,-1.5342481379,6.2862842656,0.1973041635,-1.3304237402,0.1903606434,-0.4650688768,0.0327380577,0.3144604744,-0.2201115885,1.1002513867,-1.2755608411,0.6206187864,2.8658477554,-0.4800979427,0.0171379954,-0.3638926554,1.3790047057,1.8423452079,0.2781209137,-0.054486736,0.3564012516,-1.7957700379,1.1189351868,0.1769270523,1.2191760957,-1.5299768239,0.3063346697,-2.2699716604,0.6806685631,-0.9864787924,1.3277741053,0.3316437424,0.1557830888,1.4613179724,0.1672453971,-0.4289553778,-1.1363266284,3.1084034538,0.2042238041,-3.1892959076,-1.0305006847,-1.9223461413,0.5389672834,0.4419680384,0.4934839052,1.0099636996,-0.6651509641,0.3522980157,1.0876430623,2.5506440425,0.3361567915,0.3250796291,-0.2660392503,-0.4316448587,2.2573561586,-1.2526409083,0.1907086946,-0.1549760384,0.1554162743,-1.1156842139,1.8787844354,0.4841620029,-0.3744358242,-0.4323440192,-2.2964259838,2.2270505965,2.9192977802,-0.414039449,1.0410306736,-0.4953404251,-1.2820766021,-1.4328563915,0.7090222996,-1.9696827285,0.5182591218,-0.1394340117,-0.2985237535,2.1390361244,0.8980663901,-0.4862375133,2.2845762235,1.3138563891,-0.2242045062,0.1466871084,-1.9514427571,0.8504302337,0.7674995403,2.5114308066,0.0162746422,-0.0857758798,-1.2031797379,0.4785201042,0.5193014825,0.5652452739,2.0259133465,-2.3606705089,-2.9209066216,-0.4946919621,-0.2291600915,-2.5932596571,-2.5542499989,0.322994712,0.6607019693,1.1064251199,-0.2086544044,0.2173396775,0.5271201575,-0.3573779969,2.2985734413,-0.4544047873,-0.6617075078,0.4731362104,2.2747184392,1.6766301321,1.1193124041,1.938945205,-0.56020259,-0.0952081839,1.0259737141,1.2620139576,1.6618056445,0.4585021237,2.0631159911,2.3185929549,-2.7248056796,-0.6623568139,0.7772574528,-3.1007254415,0.5628312519,-1.612100055,2.5400663551,0.2162243841,-2.1722615082,-3.0860443492,-2.3594834237,0.6077058568,0.3253300692,0.6750482884,2.1230338914,-2.7276617443,0.6591410238,0.3523201843,1.0969657263,0.775271089,1.2384541595,-1.9633970856,0.2822060793,-2.829225511,-0.1313295187,1.4306248663,-0.2001674052,-0.3133997305,-2.3061789278,0.4525741163,-1.2116936144,0.460030915,-3.2436220619,-0.6938040163,0.3658330617,-0.0134319244,1.3985944068,-1.2107653532,1.8842552611,-2.9395653525,6.2069657335,-0.332880843,3.1165581123,-3.2315463085,-0.2552918032,-0.2045413039,-1.1206680278,-0.3587956793,-0.4210798375,2.3937612702,1.1820620381,0.8716100542,-2.1680831746,-0.973986576,-1.2940942837,-0.7969594868,-2.8671792918,-2.7303041213,-2.770557757,1.9642693203,1.2384699036,-2.4039622659,-0.7408125493,-0.6630073767,0.367479177,0.1606495065,0.1686701665,0.2042029966,-0.1210579266,0.024333454,0.9658412756,0.856421883,0.9723314885,0.7718648685,0.0292054771,2.4243153785,-0.3103544857,1.0013123871,1.5383166639,-3.1096940659,1.2960304047,0.4288558032,2.0095762883,0.4488227098,-1.3277068987,1.005328921,0.5186350115,-2.2724958463,-0.582620916,1.9801062727,0.7927708452,0.7639858184,1.9882364533,-0.0192135245,1.5265133722,1.1031035413,-0.4771401784,-0.6506975304,-2.6932691474,-0.594625459,-3.055014981,0.3007017581,-0.769453627,0.9905533653,1.8948091287,-0.3430615741,0.6610017051,1.6171140452,0.8025414643,-0.0732222401,-2.1750246869,-0.1401274506,0.4897259813,0.3560328547,0.1109873517,-1.7757138583,0.4553505501,-3.2024621713,0.1017690166,1.6939437156,0.7509825518,1.6013187015,-1.9781335632,-2.693497335,2.6323540991,-1.8702901789,-2.0319244901,-0.7572578886,0.8969773173,-0.7878607335,-2.6394990469,1.8552496277,2.0918933322,-0.4800682176,-0.2763626762,3.035300779,0.9436383099,-0.6570215949,-0.3874098127,-2.4622280713,1.8671346127,0.4994363159,0.1723580255,2.1579241925,1.0873134709,-1.4163657084,-1.0476025034,-0.4446872636,1.3344319917,-0.2703241682,-0.1752158434,-0.3477703128,2.1974602808,-0.9293264599,0.4785236827,-0.3222631792,-2.9126795996,3.2317622026,0.4537207861,2.3895925222,-1.8163728778,0.3586283378,-3.2257194424,1.9316371527,-0.7254458942,0.8165021089,0.1910079591,1.5812937257,-3.1331405289,-2.0194023043,-0.9190615952,-0.0174806258,0.9670803302,-3.2268983408,-2.7757368833,1.117733645,-1.2985139476,-1.1404838551,-3.0784692911,0.4819281942,-0.0313327573,-0.2361554208,-0.425692373,-2.0529676782,-1.9076316934,-2.5704909339,0.0228002319,0.5022096503,-0.3059007859,-0.0195406868,2.1764794403,-0.2949660217,2.6311982035,1.4883821825,1.2953756026,1.4736410104,-0.5841142716,0.315205854,-1.4080182282,2.6446660537,0.0318711689,2.9565921839,1.6125884743,0.351749733,0.2999406026,0.1654351347,2.143713427,0.6504151395,0.7672941222,-0.0607617132,-0.8842837078,-3.0447067715,2.1054852421,2.3901929278,-0.4349603636,-1.4988623841,-1.0929547742,-0.5004854515,-0.8330511103,1.1094407725,0.9272397382,0.3115835369,-1.1062121753,0.3664675064,-0.6639555811,0.6096456686,0.9262497603,-0.0868337686,0.15985694,0.2171647452,-2.5559815821,-0.3416678741,1.170089571,0.27900192,-0.7704159911,-1.804017654,1.4885185857,0.5785674485,1.2440076838,1.1969814469,-1.788106229,-1.6575026405,-0.5807834984,-2.6856274917,1.7896913174,0.8986408927,0.1034173104,-0.1572154824,-0.0481723293,-0.1568783635,-0.2784290225,0.5217119781,0.5697452964,2.2258085446,-1.3556885492,0.2028286373,0.5442871847,-0.7172534205,-2.2135520475,0.6782530781,1.7412485723,0.4440265065,0.0368897717,0.3992635262,-0.4594773539,-0.0323376716,0.3099439215,0.863793362,0.8712550233,0.9989187839,-6.3075743098,-0.6600318469,-0.1599063707,-0.1165885207,-0.2075765178,-1.5371726893,0.148025081,1.9660355655,-0.8498801355,-0.6872639981,-0.1434823854,1.3033097661,-0.0043408477,1.8650780665,-0.1834505494,0.9513442339,-0.4185908187,-6.7763361071,-0.0221879799,-0.3977698298,-6.1503714127,0.1668498473,-0.3661783199,-5.8190559884,0.5705158056,1.8552259659,0.6674727242,2.7079979476,-0.1599644526,-5.8204852636,0.0647294239,-1.2398797344,-0.4035632172,-6.111571555,-1.161642732,-2.3985159452,-0.9615192707,-0.9166068784,0.2774640708,-1.7083963312,0.9446362921,-0.4102930239,-0.3361040957,-0.1864394974,0.6667928347,0.0137753905,-0.34922985,-0.8451504824,-0.5273851003,-0.8222242114,2.8532799093,-6.058422763,-4.971469671,-2.2369270485,-1.6960012252,-0.6597283161,-0.1515839514,1.4710951761,-0.1650781542,1.9434865904,-1.9104968828,0.2642652248,-0.4521934246,-2.8645454263,-6.3096337461,0.4329036624,-5.3022935092,-0.9935635879,-0.659999665,-0.5850260055,1.0721382608,-0.0600398924,-2.0438881972,-2.3935136156,-0.5453193083,-0.6033365122,0.0379090108,-0.7624426087,-1.0871298507,-0.9894748428,0.5288076106,2.9356175694,2.5866346767,-0.514914129,0.2559905903,1.4886904006,2.3119623386,0.6336601408,-6.1410114701,-0.7930933434,0.3761275221,0.5661026875,0.1525061112,-0.2645119361,0.3923535275,0.2480184176,-0.5878364496,0.291296853,0.005069567,-0.1185310821,0.2305100606,0.6078354271,-1.9731719676,0.3992723282,-5.4850708038,-0.5538865016,-6.4623336407,0.4119790798,0.0396902757,-6.4230323376,1.6029079463,0.519568964,0.1608689968,2.8683162821,-1.4989656023,1.6197598864,-6.7605156192,-0.1830133844,1.3464717343,2.5161947666,1.2390060463,-0.8327759945,0.3672822188,-0.2930051769,-5.1665399402,2.4812020837,-0.0297882302,-1.1530047338,0.0289880063,-6.272529025,-0.8209041755,1.4321815782,-1.023052034,2.0926381914,-0.1904277146,0.8263594484,0.5768547729,0.6719495018,2.6576512821,0.2186319781,0.8432819958,-0.0846732321,2.7702051768,0.4641505486,-2.2513444689,1.0899007797,-1.0774016685,-0.6176426936,-0.6017327801,2.586860171,-0.1877739111,-1.5148420875,-0.5437545358,2.8934194534,-1.2795437802,0.0417690739,-0.1565655206,0.0906367212,-1.1445991577,-0.7211023493,-1.0534917493,0.5822807735,2.256771497,-0.9315458252,2.6026957727,-0.9403538442,1.5083797471,2.7062361699,1.4719465441,-0.6539422289,-0.1139538876,1.2121664436,-0.7911857177,-0.0074887924,0.2981541391,0.0178136585,-0.6779927172,0.0022072649,0.6929411792,-0.7547795284,0.879479604,0.6701544532,-0.2766004676,-0.2847230498,-0.4980216462,-2.4054824772,-0.064685507,0.5021694542,-6.123671627,1.7200582385,-0.5384495174,-0.0933692316,-0.0110931261,-0.7302295996,2.05063408,-0.6426357925,0.7934894597,2.4375231741,-0.3043683864,-0.3476003775,0.0105190761,-0.1295302721,-5.9157575618,-0.6537612935,0.6998635046,-1.7323680416,-0.0560357159,1.3157317121,1.7324049322,0.0162593973,1.136098517,0.3285894928,0.1632837596,-0.9353523608,-5.980085226,-2.6949305335,-0.6400688605,0.6455965982,-5.9538404389,-0.3917828949,1.2612172861,-0.5959718759,0.8025642515,-1.3054707997,-1.1556768909,1.4263659288,0.6031281836,2.8143998505,-1.2150306662,-0.3534933988,0.1803849924,0.8043941172,1.6824717281,2.8624371523,0.5584518245,2.8855872792,1.6260824933,-0.1933453599,0.3645340435,2.028657697,1.5452263239,0.0379049134,-6.2762432355,-0.5003842962,-0.8090093172,-0.7914290413,-1.740478386,-0.6370638569,0.8199940275,2.0534543287,-0.534833842,-0.3011919975,0.0016090178,0.1903844786,-1.1537676482,2.293512619,-0.6706685141,-0.9373415963,0.3183287988,0.1813133475,-0.3640183654,-0.1465474489,0.1419651269,-0.718216433,-0.0308596506,-0.3958170511,2.0342522542,-5.4005231809,0.4507059628,-0.5926972124,1.049005686,-0.3051566306,2.0025743236,-0.6255363362,-1.2774510564,0.6361857875,0.9144671205,-0.0700212852,1.9792523095,2.9658040306,-0.8516435655,-1.459420836,-0.6173949173,2.0857735714,1.9227630135,-0.0135728942,0.7651216787,0.5108260282,1.9553134323,0.8206977177,0.8594146442,-0.7088298579,0.1689131815,2.9301958616,1.1345887069,1.7304367183,-0.0989813624,1.5801549708,0.5719965174,-0.8307375639,0.7566598098,0.5371862896,-6.2440719443,-0.6718558803,-0.3549715641,-0.0567403207,-0.7088789354,-1.5700137723,2.8006907154,-6.8433085989,0.708283618,0.222823822,-0.1320892067,1.1003379137,0.7840190399,0.8757975543,-0.0402664012,-6.0567800778,0.0369780119,0.9603684238,-0.2230808947,2.2140740733,-2.6998128426,-6.6626099959,-0.5278638303,2.0598931152,-0.0578203725,0.0385091295,0.68741429,-5.7600685494,-5.0736896893,-2.0578674242,0.2004573623,-0.3039106582,-0.5757662445,0.8609331978,-1.8977568278,-1.0195879844,-0.1267438558,-0.8016784801,2.8041679273,0.834216738,0.4146608742,1.4683308944,-0.3105961845,2.3095884995,-0.5461963835,-0.9145400709,-0.848062787,-0.1905690386,2.2532585272,1.8029163221,-0.3045729694,2.2211433826,-1.1387120956,0.3987248511,-0.4966687583,-0.8731451048,-0.8908471621,-1.3961141357,-0.1286552022,0.6034616449,-0.8184928096,-0.3675463769,2.9351039285,0.7771744785,0.70991298,-0.4553487092,1.0273515462,0.0135859811,-5.2399419864,0.5411659605,-0.1210718497,-0.3314345409,-0.1977730213,0.3216115281,0.6458240497,-0.7483133424,0.6343124968,-0.1764910816,5.5027389003,-0.2361097703,-0.6487847115,-0.6252638568,0.3464259878,0.7820037243,-0.9826172573,-5.2961728043,-0.6962076632,0.0745214236,0.9658629079,-6.3398712855,0.6232731502,-4.9248314869,0.1720453518,-0.1745436171,-0.6278873062,6.3090723443,-0.4094763105,1.0851160451,6.1087937247,0.0459296747,-1.5109123505,6.860531962,-0.3453989573,-5.4523898257,0.8320731832,-6.6568523822,0.9002028079,5.8754201574,0.0544381441,-0.3905422188,-0.8344329418,5.8314213951,0.7515224549,2.8455770609,-1.0882796762,0.5646936017,0.8304306123,1.4548342926,-0.6162480858,0.6597517553,-0.8174121715,-1.1039571987,0.6583488882,-0.508832888,1.0566290935,0.4100071632,-0.636066059,0.4900981774,-6.7375115036,6.1854372662,6.2174041699,-0.4072961993,5.359464344,-0.7845484922,-3.4712447519,-6.6313930686,-0.0841162366,-5.8981982789,0.6769273626,0.6576074515,0.3209839786,5.3593990758,5.1977332955,0.7528890727,5.0161001701,-0.4511516075,0.1920708357,-0.4616189187,-5.0287362059,-0.5401684417,1.6909261988,6.2126557912,1.1476861779,-0.4179775213,0.2706202826,0.2629833582,0.9657509361,-1.0318836165,0.5557084364,-6.5020718208,-6.6198514916,-0.1530481264,-1.7887939379,-5.2068115822,-6.4974220682,0.8716085735,5.6407199775,0.671991741,0.9625126922,-1.4768783824,-0.7130268473,-0.05946616,-0.1091236907,-0.0459570368,-1.3013595534,-0.0807890666,0.0810582628,0.7493776186,0.3047480894,-0.2755036153,0.8721713498,-0.1534111401,6.1684711599,0.7238200321,5.3588459914,0.4179703217,0.2390498264,4.9886384605,-6.1336631004,-0.1604168164,-0.0038541469,-5.7906877143,5.1592475127,-6.8150106045,5.5130698732,2.188552622,-6.6971674568,-5.7263909841,-6.6898353535,0.750654784,0.1271098256,0.3077630348,0.777458923,-5.3873620712,-0.1998633616,0.0032818786,0.6830552667,5.7493066656,1.7275496998,-5.4661679064,1.2750754338,-6.4634501872,-0.6499698648,-0.7478651253,0.4005841454,0.5776253779,-6.0728152519,-0.5715618835,0.2352283298,-0.7475831138,-5.3717287219,0.1097406045,5.1023666133,-0.1124008797,0.96775378,0.0741033879,0.3236450991,-5.2847622206,0.5504956304,-0.3371430173,1.1819359268,-5.4444531321,1.3897469403,0.5484588546,-0.5275984015,-0.8500117235,1.1948256468,3.0681841398,-0.1421639203,0.2043909625,-5.5288824687,0.1587327244,-5.7699599303,0.2556307733,-6.0134284607,-6.6013154098,-6.7504217763,5.7513097185,0.5975991136,-6.7501276048,0.0580746762,-0.903570233,0.9654951736,2.1043081725,-0.1360403957,0.3299960452,0.5340841224,-0.3666181526,-0.6574763014,-0.4078424029,0.5832355001,-0.9279442236,1.6446027878,6.6323704839,0.2435219972,0.7739421326,5.0266983635,-5.520961926,-0.8905018383,-0.1693179901,-0.6764221137,-0.3164310783,-6.4594311558,0.5302025578,0.6678775632,-6.105472246,0.5947761076,0.2142968658,-0.0887909311,-0.7717516283,5.3240139942,-0.2688770285,-0.7255160413,0.3346691377,-2.0449993105,-0.3690631754,-6.8922863541,0.7327669678,-6.1716893966,0.8231823919,-1.3844895846,0.4992045263,5.5885895901,1.0392544079,0.229575355,-0.8696773971,5.5888450957,1.086833258,-6.854184638,0.5578361551,0.4951661392,0.5156214134,1.9545682304,-5.973601227,0.8318557678,-5.0696341152,0.5966444095,0.962162299,-0.5179309105,-0.481715382,-6.7709344809,-6.4205981567,0.7438537881,-5.7484819,-5.3450085781,0.6032387989,-0.7494894088,-5.2007996248,-6.4551989224,0.3075377422,6.4488884829,0.054404366,-0.6233071587,6.4031396085,1.0315723726,0.8128214681,0.3728972777,-5.2939919617,0.3689099309,0.6505409022,-0.1418322206,-0.5265797765,0.0963703646,-5.9167178041
   0.1364044015,-0.9010709561,0.829644406,-0.4897905084,-0.1832460987,-0.8474159397,0.4458609934,0.2733605471,-0.0846370511,0.014410945,-6.6862883158,1.5523684447,0.2276223906,0.6031357302,-5.5100403353,0.5353972389,-6.7694795538,1.8132314413,1.2597033382,0.384600101,-1.0359534578,-0.0727293713,-6.9043260451,-5.4889123268,1.1136796786,-0.4584147129,-0.8423741316,-6.4778289098,-6.1135015114,0.5413494084,-0.4614431325,-0.5842279146,-5.1268477586,1.0061329441,0.5375999229,1.1106037243,-0.0583731923,-6.1051830789,-6.0864869069,-6.9140892895,-0.1537914162,-0.9201699681,-0.4862659716,0.4340672055,6.8495566896,-0.6145808767,5.2001314412,2.1847656407,-0.6685860228,-0.1969045791,-0.3769588311,1.2523388008,-5.2920989677,6.8506693951,0.8334953841,0.7277434908,-0.5203319572,-1.0271773766,-0.4667461,-0.7066084553,-0.7981096587,2.4444662578,-0.923734364,-0.027368949,-0.5238277471,-5.1278486709,5.0445714881,5.8939275617,0.6696494913,-6.7966627313,-0.7568170415,0.0396817487,0.1824736808,5.1222134595,5.8505977305,1.5160842346,0.1005811926,-0.5349540003,1.2137746587,-1.0147648957,0.7470230297,0.3894889691,-0.1203619329,0.2404438085,-6.46501866,0.1589148631,0.3301303859,-0.8203157892,0.3281586883,-6.3489873689,0.0244624068,-0.5057300685,0.1605837397,-0.2564082248,-6.4277423848,-5.3015993715,0.1768673843,-6.0173424418,0.2614172177,-0.5293187303,-0.6003558284,0.0888253126,-0.0447116185,-0.6038636859,-0.643218637,0.6593843954,-0.5791299072,0.6594236153,-6.302627267,2.4897807275,0.7960054331,-0.5217343173,-5.3557866438,-0.8054021769,5.754600673,0.2098332036,-0.585664534,0.88133801,0.160130921,-0.30878454,1.0036398712,0.5185391737,-0.9743292714,-1.1713480475,0.9566934158,-0.4531811999,1.1167110454,-0.8166787278,0.4215188121,-0.2313656466,-0.1540728712,0.0124130026,-0.6782957691,-0.6689220584,0.9927466413,0.1112501607,0.1086714739,-0.1113566569,1.4439598126,-0.7462703902,-0.3893988569,0.985023146,0.7342582799,-1.2591386191,-0.6820095848,0.3923899803,-1.4506861918,0.2203457342,0.7209329944,-0.8660122441,-0.2780085513,0.0950278557,-0.0352966303,0.0584979369,-0.7105794217,-1.8439465098,-1.1616771357,0.8875998865,1.1705851142,0.1627327949,-0.214261419,0.2363947516,0.9521101525,-1.1248780368,0.451307569,0.9025035535,0.8042175286,-0.3462391748,-1.2345083449,0.2450143648,0.7329170059,-0.4124327379,-0.4555034923,-0.3429220209,0.3439583503,1.1181156782,0.8234723454,0.5566780706,-0.2183671232,-0.83425192,-0.2297610491,-1.3129111945,1.1198440574,-0.7312919048,0.3090760738,0.8082097814,0.230209014,0.7164508314,-0.7382989104,-0.4834251571,-0.0231885727,0.0603848512,-0.4834882735,-0.64253627,0.0439537308,0.7081110244,-0.9485969404,1.058224217,0.2639201356,-0.4591376394,0.7957412696,0.5822746631,-0.3618931584,0.6161757216,-1.1464176917,0.1671682431,0.2654422969,0.0141094797,0.1505387887,0.637558912,-0.3013174584,-0.5450755993,1.0485102627,-0.8741947466,0.3085314546,1.0139406882,-0.6927396108,-0.9733226069,-0.0660417967,-0.5616700873,-1.5720877853,0.224036375,-0.2079287862,0.1598828279,0.231672515,-0.9157944322,-1.1045683775,0.7729262467,-0.6961803417,0.869471392,-0.5690134919,-0.3236078781,-0.132251095,0.8286034605,0.053858715,-0.3014283034,0.4109501613,0.7690155456,0.3917083924,0.0087786913,-0.216254029,0.5506721819,0.4768657246,-0.0599083011,0.8106188334,-0.4580881469,-0.6627078676,0.346848547,-0.6635235061,0.9058905486,0.8967196587,0.3448701537,-0.2202105328,1.0218922152,-0.3635427882,-0.2806850364,-0.2112196542,0.2730296877,0.4236076007,0.6322689868,-0.6435061099,0.704346449,0.2237920524,-0.1559983857,0.2087642015,-0.2867580976,0.6238425038,-0.2712667107,-0.0440461706,0.1450903326,0.0953471887,0.4172659766,0.4274446506,1.1188622582,0.148284298,0.5796704735,1.4882683563,0.1066111673,-1.0544372307,0.3625892967,-0.2668661226,0.1087523521,-0.218763641,0.8146654088,-0.386861455,0.21659613,0.9524506254,-0.4208927691,0.2674102264,-0.0329923911,-0.6558379076,0.5993324099,-0.9454600854,0.3245213185,0.248150625,-0.543662695,-1.5064698768,0.6317261344,-0.402991942,0.5063585974,0.0355848684,0.7125333074,-0.2207730433,-0.6262755641,1.0818236292,0.2892709614,-0.1764359698,0.5178422671,-0.6551904281,-0.7407414263,0.170113165,-2.6584258257,0.4699151358,-0.6441351599,-0.7560472897,0.0060813531,-0.3281520644,-0.7459245456,-0.5710484911,-0.387529016,0.6916841988,-0.456513479,0.5695993727,-0.3525266184,0.8953216307,0.8232117645,0.5117775076,-0.1781682952,-0.7172175648,-2.0482395926,-0.8371467748,0.6585890764,-0.6767255548,0.9545805953,1.1795681087,0.2752512124,-0.5624436635,-0.6896184086,-0.1973218679,-0.1459167156,-1.8275959768,-0.4308248401,0.6393276915,-0.2457839845,0.5835253178,0.3018575075,0.5079522323,1.2633765527,-0.4065112045,0.4864437081,0.0583739072,0.9601675954,-1.6680656946,-0.3086126873,0.425580217,0.7502911139,0.6763566762,0.7899314971,1.1311908116,0.819553555,0.3528810446,-0.2692389525,-0.375625231,-0.7399858462,0.6523320071,-6.5847324052,0.5126370374,1.0914623762,-0.1956748628,0.8610398425,-0.38902883,0.7264639323,-0.2465331168,0.615251069,0.6259426904,-0.7789234385,0.1199261905,1.0208146633,0.6296406087,0.134998712,0.1636257232,-0.1750678338,0.5283478099,0.5986817365,-0.1318662947,0.6566117873,-0.5662661536,-1.2640650935,-0.2784528984,-0.1988540443,1.3100471871,1.1919241708,-0.4897339508,0.9919135683,0.3528274322,0.3247023979,0.8730637727,0.0909009023,0.4966273529,1.0484582636,-0.2084633489,0.2795371032,0.8541894365,-0.557408285,-0.3064599332,0.4218769521,-2.6251962226,0.3291007684,0.8638278568,1.0136546215,-0.2769004693,0.6928240237,-0.4404721804,0.3943624179,-0.3428260823,0.1097824433,0.0944584137,0.2924427972,0.1860562847,-0.5348401557,0.0058520213,-0.5266554302,0.6853276736,-0.5110659614,-0.5189059664,0.9482402072,0.1451803086,0.5109547226,-0.8146876437,-0.0388803231,0.1854005468,-0.1679229434,0.9135787435,0.8837789459,-0.2450307482,0.7969694979,-0.2598101715,0.6970688192,0.7843880813,-0.0541978863,-0.2699041492,-1.5532390486,0.0957026806,-0.5956172061,-0.0146856898,0.9916123628,-0.576561818,-0.1642084435,-0.4680107292,-0.1344956616,-0.6675177405,-0.6810413749,-0.2044877913,0.949196048,-0.6502508607,-0.273224837,1.0502552706,1.0162338292,0.8411653423,-0.2744188471,-0.0089581443,-0.458695479,1.0596402264,-1.6995848865,0.7445351754,0.0489703349,0.9806698051,-0.1239034676,-1.0624858118,-0.0239792786,-0.0379961642,-0.4417021828,-0.7491777641,-0.6805998929,0.0879906644,0.1175041459,-1.3659341309,0.4371424595,-0.6701252848,0.7815905334,0.4014547702,0.1469198273,-0.4906416762,0.8519486409,-0.578478429,-0.586846564,0.4655792194,1.0726813913,0.9958574999,0.8208061223,-1.7172669475,0.4053137417,0.4353570629,-0.308867294,-0.4092289827,0.155994816,0.5609335988,0.4292084789,-0.7418289035,-1.0892129056,0.0640467656,0.6619153226,-1.1435252113,0.5632445852,-0.3142399962,-0.0509344659,0.8653319807,0.0439233194,0.5058136868,0.2131333574,-0.3344461823,-0.5375635777,-0.8718593274,0.076281285,0.7916363091,0.7603041469,-0.5112656109,0.1963334273,-0.0662707404,-0.2002002748,0.2606764573,0.4157494468,-2.4712526389,-0.4670338362,-0.3387681699,0.071917375,-0.6059557092,0.6954042756,0.1076374994,-0.8686397094,0.4355887682,-0.5176355865,-0.2072857393,-0.0431411048,-0.8382084414,-0.891781312,-1.0534529242,-0.9319071573,-0.271393323,-0.7045204314,0.4685880232,-0.0943197899,0.9046097847,-0.7445649061,-0.4881026358,-1.1567072652,-0.2213038296,-0.1924530046,0.266577417,1.0365601219,0.791400602,-0.1922361526,0.1189264829,-0.6788744198,0.2413395768,-0.8212556842,-0.3865131029,-0.3717795251,-0.730730114,-0.13035073,0.324970294,-0.6207465883,0.3789409843,0.2554801785,-0.5626606476,-1.4022454041,0.4057821311,0.2907917216,0.2502329961,0.8298897857,0.4516695324,0.5785500451,-0.3345271757,-0.738600663,-0.3319790266,0.4372998056,-0.023807753,0.0783247907,-0.0788330759,-0.0188660321,0.1615078744,0.8575797146,0.4081560032,-0.7800784764,-0.1746004413,0.6639027158,-0.4404755393,0.3431370691,-0.5684508798,-0.9059913095,0.6407137569,-1.3750969897,1.0074908846,-0.9834027512,-0.7015149685,0.2270094508,-0.9315234775,-1.1803745595,-0.8007897654,-1.2366870276,-0.1784474547,0.4835842688,-0.2496138944,-0.5444211114,0.0544589422,-0.8497515288,0.296721376,-0.3018015861,-0.5810514439,-1.2775539582,1.2681311886,-0.8479381382,-0.49208634,-0.3055352277,-1.3909424456,0.7077238015,0.3457576814,0.0580284032,0.5226801984,-0.3813152418,-0.21740142,-0.8944147746,0.3088357705,0.1979553778,-0.8615842204,-0.2245232033,-1.6438773054,-1.5342638558,-0.8443303987,-0.3266120861,0.6829851034,-1.4568239257,0.616367707,0.5361854534,0.9325817093,0.7992248385,-0.2967706042,1.088678482,0.6400597812,-0.2328691909,-0.9465442937,0.1786111562,-0.9066877326,-1.5684390729,0.3317081696,-1.0316535285,-0.6126038056,0.6827476167,0.6307943529,0.8204826593,-0.5933637607,-1.2234642874,0.8655254261,0.8334318825,-0.185124652,0.5315774536,0.2595261975,0.9871893468,-0.49770754,0.805985021,-0.0485847261,-1.562508142,-0.387301109,0.4074545785,-0.3688429683,0.269661401,0.2678055226,-0.5615845304,0.5104006202,-1.0998820687,0.3770266711,0.5965773884,0.1146894396,-0.6477499349,-1.346966317,-0.6677145994,0.0684390783,0.4594451739,-0.370044987,-0.797823969,0.926193015,-0.6543662125,-0.7554763824,-0.0319269707,0.8956614194,-1.0443506748,-0.5117725097,0.5189128428,-0.0758490529,-0.242280911,0.7654059461,-0.0925900923,-0.1763594706,-0.1770846969,0.7570301381,-0.6217916227,-0.5760162886,-1.0208970532,-0.0445992028,0.1351139081,0.1149152862,-0.492441891,-0.9217314995,-0.8014923415,0.7615787748,-0.5425778769,0.5170711496,-0.0473018248,-0.5776384663,-0.1394163904,-0.5205039569,0.5242616292,-0.7098947413,0.4638153526,-0.7227818401,-0.4173397728,-0.5657443871,0.5512017073,0.4655583056,-0.9414659999,-0.5463653206,0.1401451459,0.814889215,-0.6477077496,-0.7443192752,0.0112276725,-1.0096626755,0.9021004542,-0.5659376856,-0.5436672489,-0.3087376953,1.2712498437,-0.6971607938,0.0104470599,-0.8168273384,-0.3519956623,0.8828556687,0.4340381825,0.4794435191,0.8168722215,-0.0932238739,-0.0797577046,0.8761947984,-0.3138795908,0.6914247228,-0.799249915,-0.4470507074,-1.0472644477,-0.3935809663,1.0173662536,0.3986888876,-1.0235015041,0.5500015335,-0.0116010828,-0.1618258577,-0.0158528071,-0.1056187713,-0.0083594316,-0.2285012732,-0.4701056674,-0.1082372168,-0.8233896815,-0.3927529735,-0.2849411366,-0.687707776,-0.5358825246,1.0041872752,0.9388050236,-0.2886494624,0.2745304311,1.2964053962,0.3281894153,-0.6136277236,-0.2482973618,0.4675299452,0.8232030021,0.5305722254,0.3294403309,-0.4468492537,-0.5802679294,-0.1320177531,0.1043871625,0.3223592648,0.8320975354,-0.0107411434,0.3035090384,0.1839216558,-0.4352849662,0.679406412,0.4089073518,0.388857061,0.5170176952,-0.7237027258,-0.8617712881,-0.891087084,0.2326758157,-0.033035501,-0.071331726,-0.8309317261,-0.9336980074,-2.3017832862,0.4232581349,-1.0628801411,-1.0938118601,0.8230058898,0.6742598451,-0.7212227821,-0.7565256606,0.8761172897,-0.6761436782,-0.4789825513,0.8409127681,-1.0467905943,0.016942957,0.0413569587,-0.3841480844,0.3082101176,0.1995179815,0.7764431913,0.0299561312,0.568485179,0.2837569639,-0.0302683276,-0.8824182751,-0.4686357392,0.4432390467,0.598179883,0.2160315342,0.9255463425,-0.6265562292,0.3576429709,0.3717573202,-0.5909351732,0.7101560269,-1.2902071666,-0.0610188557,0.8844346629,0.1302703462,-0.746286023,-0.0685895947,-0.5868145193,0.9457154085,0.3114190909,0.5154393695,1.4365460308,-1.008169567,0.2899661625,0.984647625,-0.291116847,0.0083290374,-0.8426627614,-0.2761591009,-0.5265423993,0.0593059811,0.1232930781,-0.6212703433,-1.0679403179,-0.1322334363,0.1211982472,-0.2295095839,-0.5598699123,0.6565081709,-0.1055540694,0.5809811231,-0.4450407826,-0.3551178275,-0.8762458153,-0.7609524686,0.3177825327,0.3949433894,-0.01533318,-0.928474884,0.0813888261,-2.5338974767,0.1216690073,-1.4273852836,-0.806983278,-0.2313106162,-0.1584166471,-0.4575990928,0.3575829011,0.3061731771,-0.2051221299,0.1942631116,-1.5522513503,-0.5913774068,-5.3781520275,0.6012282489,-0.4623544161,0.9654868766,-0.6415350655,-1.0062014984,0.5121878117,0.5050570264,-1.9271546464,-0.4640463697,-0.0415293374,-0.6021738046,-2.9165914585,0.1080283749,0.846156828,-1.3818467389,-0.9036937163,1.206061202,-2.0643534069,0.6459814066,2.4313847798,-1.5548809622,-0.779734528,-0.9880149301,0.1374031793,-0.5015856875,-0.9257698494,-0.959239659,-0.1126970899,0.6020424807,-0.0262099849,-1.8986527224,-0.8444788211,0.1251309052,-0.5770740787,0.4054122895,-1.167858574,0.6613576173,-0.8141620624,-0.0614602147,0.221082447,-0.6455209327,0.9999767386,0.6408007133,-0.6761351621,-2.4965345338,-0.4656739792,-1.7631441795,-0.0201364484,-1.3179106792,-0.3276716276,-0.7675312702,-1.3254099794,0.6479220369,-1.568032772,0.1878840957,-2.4405745733,0.190428637,0.6874318525,-0.3854464801,-0.3445836297,-1.7487299369,-0.888238961,0.1034510749,0.0170270819,-0.605918344,1.0791165661,-1.0939211291,0.1831070376,-1.7406992604,0.4819775071,-1.6752000198,-0.4400079337,-2.5548950148,0.6765711636,-0.8503789177,-2.0739631467,-0.1723355623,0.7304287013,-0.825932468,0.5831295184,-0.916793316,0.4599386522,0.5352820732,-0.2598610266,-0.9246666976,-0.4931772402,0.3048817642,-2.3531414277,-0.5491649455,-0.6116627623,0.855370351,-1.7195460313,-0.0968039602,0.3630339566,-0.4539342167,-1.6236188226,-1.3725337219,-1.3483713178,-0.1257325041,-0.2676226891,-0.1160755778,-2.593694237,-0.6781004424,-0.6164329597,-0.6379917049,-0.8263676087,-2.9768047182,0.7880126217,-0.9113782348,0.0146686076,-1.3661817994,-1.2320099849,-1.3917269078,-1.2793183273,0.4727659121,0.0799915901,0.5390956601,0.3170802624,-0.0526118217,-0.0546158287,-0.962227807,-2.5954349782,-0.9146954433,-1.3942922556,0.3932539808,-1.2503968719,-2.6617527379,0.7765596124,0.2342120015,1.1233840963,-0.4410900936,-1.0880484064,1.0597284074,0.1815436266,0.4433210639,-0.4680407566,-0.367973617,1.1086219222,1.1676683302,-0.2681116805,0.8847359678,-2.7169541369,-0.9178032599,-0.3502540149,-0.9031688926,-3.221388005,-0.7503431255,-0.8253597148,1.093788431,-1.9893360817,-1.2470805349,-0.2324164982,-0.6853094428,-1.2582209404,0.1229042766,-1.0677886299,-1.4908570523,-1.0535563003,0.3397160058,-0.5294277188,0.8797227228,-0.349069093,-0.1432882748,0.0328884512,-0.088017427,-0.6124601036,-0.35989496,0.0302424272,-0.4548909403,0.7820243803,-1.7287211088,-0.5815384388,0.664618755,-0.4385628476,-6.3042183177,0.8431112009,-2.8451777487,-0.5851732213,-1.0791894675,0.2241065387,-2.483078698,-2.6405312619,-2.0470953354,-0.0747748635,2.3345651782,0.2230092555,-0.0310773126,-1.6988306882,-0.3206708825,0.503258542,-2.9585429836,-0.3468453056,0.2249980595,-0.7074713826,-0.4160602037,-1.8272980853,-1.2201684266,-0.8581794674,-1.8350993464,-2.6889986605,-1.0520901762,1.105682274,1.3228430116,-1.7846140448,-0.3306438531,-1.3966279596,-2.8913787807,-1.0458041834,0.8760396063,-1.178150261,0.1372134226,-2.1807982212,0.4149806444,0.5973396595,0.4929633601,-1.5546192459,-1.6669246603,-0.3820020534,-0.8054872547,0.6778407762,-2.660642713,-2.0303037374,-0.7956754072,-0.6931984944,-1.3097586128,1.2435850905,-1.0337277985,-0.8951099015,0.1852615207,-0.3758223435,-1.0668777264,0.1570605005,-0.2782056629,0.0000206483,-0.9469488535,-2.5473860447,-0.9523552618,-0.2217009969,5.4632991241,-1.9968187707,-0.3898253152,0.6964400396,-2.4893782586,0.6669667343,0.5736765274,0.3471642304,-0.1098017946,0.0988696934,0.2856761165,0.8688974745,-0.0864089998,-0.7467921206,0.5910549085,0.2831404664,-0.29292558,-0.3781331837,-1.0629014858,-0.8587124124,0.181311645,-0.2657022143,1.0106056835,-1.2444743945,-0.2906979256,0.5159115214,-0.9825067277,-0.0773070761,-0.0874242353,-0.3393448478,0.1955760891,-0.0571692416,-1.6369449347,-2.916414727,0.454757085,-2.3669223939,-0.0807068963,-1.1461975482,-0.128921873,0.564146985,-0.1141692398,1.8446627778,-1.2803541536,-0.6361059324,-1.3559239536,-0.2598376134,0.0460142653,-0.4403207882,-0.0777076843,-2.4948456525,-1.6623033035,-1.8286881418,-0.2688086434,0.4415908863,-0.7258600312,0.1289653063,-1.2435171633,-1.6768770153,0.9105618175,-2.5811416442,0.5970213739,-0.2006346259,0.4432782621,-1.0425758505,0.2190674531,0.4815177875,-1.2377163403,-0.0127200366,-0.4086665818,-0.614849736,-1.7645854057,-6.2923653564,0.096213461,-0.780952659,0.3118492943,0.5473236976,0.1222616724,0.6436155345,1.0165119529,0.2715157768,-1.0410772333,-2.6550097598,-0.9396049083,-1.7190452094,0.0257719397,-0.7972783576,0.8638948089,-0.417723958,-1.4882208569,0.3281666933,-2.7500427671,0.552189867,-0.7245513511,-2.9674525695,0.8895714777,-0.200884507,-2.7836075801,-1.6139613171,0.9988240095,0.2598938899,0.771827511,-1.5435684032,-0.2676969178,0.5321851583,-0.2871360572,-1.6936557948,-1.0388444743,-0.9794063311,0.7622469809,0.1490806841,0.3930209317,1.1820878992,-1.0980280836,-2.3984874488,-1.6876480909,-2.7187584367,-2.2749981072,-0.835955448,-0.1523969346,-0.3865738244,0.01938446,-1.4625185191,-1.2864725077,-0.919208411,-0.0083731907,0.7201116218,0.1092394885,-0.8835201878,-0.9428770533,-0.6410977675,-0.593490194,-0.2307416076,0.6585837039,-0.9124800903,0.4527160988,-0.4702174268,-0.7367679769,-0.5105139022,-0.4898501787,-6.523455046,-0.570798405,-0.6674031189,0.0957166797,0.170094929,-0.10710387,-0.4066481211,1.0914992752,0.3433045645,-0.1680586385,-0.1231410627,0.1235062989,-0.6700626891,1.1552557126,0.199455267,-0.7340583865,-0.6002950668,-6.8195439833,-0.4014517877,-2.0513561744,-5.087885291,-0.170172851,-0.3303582346,-6.3148530814,-0.4314105969,0.9316953197,-0.8186960502,0.5880045675,-1.0809124131,-5.2536235723,-0.9647831638,-0.9094568704,-1.1084807823,-5.2903286933,-1.4287711666,-1.281469176,-0.5148231371,-0.5594497341,-0.497549305,-0.3453599555,-0.4387604939,-0.5554918908,0.1730461983,-0.6486675619,-1.0819854975,-0.8841521762,0.3126857584,-0.9003164929,0.2184868963,-0.982174223,0.7648778868,-5.6329851616,-1.9307273451,-1.1263275258,-0.7712607144,0.0887071963,0.8708186868,1.5669422169,-1.0727059136,0.8089389393,-0.4567274354,0.1764097746,-0.1697430675,-1.7066652285,-5.1514102073,0.8524048266,-5.9398248296,-0.894045327,-0.3369612962,-0.9941460563,1.5934089992,-0.4809742364,-2.1135673325,-2.3005042904,0.1844076914,-1.1841641828,1.19202863,-0.370201355,-1.5855621418,0.7479693942,-1.0737949712,1.2283707595,1.6292523438,0.5021405723,0.5467542448,0.2303623757,-0.3288483986,0.6031175941,-3.019617971,0.9547651665,-1.5014025379,-0.6024169781,-0.0037700632,-0.135835969,0.6289736681,-0.3595763406,-0.4342634269,-0.611786579,0.7487974494,-0.5849694596,-1.3208167941,-0.3824458827,-1.687155443,-0.6574188486,-6.2753302078,0.8911418225,-5.431415558,-0.3654284958,-0.7346327969,-6.2768878489,1.2621526164,-0.1048368517,-0.8999069351,0.7448424371,-0.2512139392,-0.2618629017,-5.2018053213,-1.2641519635,-0.0928291066,0.5651906764,1.0978311226,0.0932458829,-0.5758236757,-0.2639571111,-2.6950095321,-0.196138681,-0.9957830912,-1.1526387955,-1.7050997654,-5.4626404087,-0.1667810427,1.5755105732,-0.6969412927,0.4327011517,-0.5429149706,0.1574640297,-0.8972984724,-0.7636908055,0.2532261354,0.8807197276,0.9566881014,-0.4707790727,0.5400213154,-0.6617887835,-1.7266296718,-0.3609994424,0.4714772495,-0.9630200049,-0.261926278,-0.2794709144,0.0349786088,0.0109880016,-2.1775565973,1.0742897979,-0.9873406222,-0.1970046642,0.7643646862,-0.2549534904,0.3892221955,-0.0580097085,0.7207481437,0.8740571347,0.2156794518,-0.2724105974,0.5218157903,-0.3392857206,1.291622662,0.3325732131,0.5190280224,-5.1149282018,-0.4887128853,0.6015882051,-0.7619663954,0.0303631811,-0.9513854344,-0.6400836652,-0.1295911333,-1.0390522461,0.6892015844,0.9006769132,0.5280396334,0.5718181906,0.4549414083,-0.2937485011,-5.0507738311,-2.4504632826,0.75523736,0.6376998711,-6.3370572076,0.9281258933,-0.4591251048,0.6212075255,-0.7379256303,-0.8022512924,1.3406538754,-0.3192870738,-0.1432258871,0.0053928705,-1.5798565947,0.4826718647,0.9466294714,0.1488172519,-1.4880373796,-1.0829861406,0.1906292504,-0.6945540641,0.0946812728,-0.637803644,0.3212859781,0.1693676087,1.0357713006,0.1590746231,0.754266127,0.5994423021,-5.6783365239,-3.4305603027,0.7826083619,1.1986644855,-5.141155574,0.0657052113,0.8207496833,0.5692658893,-0.311832925,-0.0103980243,-2.5328788416,0.020677701,-0.1426827477,0.7058133267,-1.4759907222,0.1384414867,-0.9977860133,-1.0786593639,-0.1580320579,1.1867730286,-0.6341910196,0.4406214413,0.5624368123,-0.8615920232,0.6734812962,0.5707428021,0.5308732567,0.6364209427,-2.9457125987,0.1648243839,-0.7241000059,-2.908508042,-1.4178774544,-0.2486239761,0.3518427974,1.2707971703,-0.6641413894,-0.3869774482,-0.6810532024,-0.214808734,-0.3174153749,0.9324925061,0.4326718443,-0.3557905462,0.3276846826,-1.1207208059,-0.9983943688,-0.233866563,-1.5510518944,-0.1262389393,0.3057837704,0.1278561962,1.5521569428,-2.4335424142,-0.9861316179,0.5544878016,1.0687591353,-0.8250930192,1.1290501201,-6.278192789,-2.1191547459,0.1673741006,0.2738445332,-0.9455610164,1.5110998971,0.3974309527,-2.5485265289,-1.4800041645,1.4719479072,1.5098215682,0.199081843,-1.5741869157,0.8351687975,0.5233232184,1.282913253,-0.7939816485,-1.0011997628,0.2726076015,-1.9746533177,0.1777294047,0.5265370331,-0.1259585973,0.3457111489,-0.8832676946,-0.1604689345,-0.6584662529,-1.3493263681,-0.9510111532,-1.0554245888,-0.9430751118,-0.5232532033,0.2772855123,0.058661971,-1.3959505365,-0.1978714917,-2.6918554203,0.3268732249,-2.3848920125,-0.9936813274,-0.2675443456,-2.5976293721,-1.8660482188,-0.493786612,-2.9071123209,-0.8830268798,-0.662462458,-0.9230903032,0.5538892185,-2.311187038,-6.5198401897,-1.2869123437,1.0523012975,-0.5623546377,-0.2571968662,-1.2072057612,-6.2958956511,-5.7082190715,0.1557027008,-0.9908159511,-1.493768382,-1.1773933436,0.9966476008,0.5291379792,-2.4501314155,0.1354472759,-1.0573125849,0.8506659601,-0.4434781584,-0.9416221947,0.4544630004,-0.6395828133,-0.3346238785,0.6907180895,-0.3676659082,0.5451063106,-0.0585261498,0.8964414897,-0.2579336737,0.486531094,1.3372908056,-0.3997591481,-0.7473297163,0.53419791,-1.5675393401,-0.4204216519,-1.1371780234,0.5631716753,0.5421479978,-0.7958362437,-1.0195566743,1.1278227848,-6.7116428179,-0.4723001576,0.650439955,0.8307269179,-0.9262676553,-6.2571875937,0.5774646436,0.5891522278,-0.9671112903,-0.6732989434,-0.4844644334,0.1210623472,-0.3059182555,0.2213789547,-0.7122243962,-0.3300310666,0.0867473404,0.3485994808,0.0698901919,0.6602050651,-0.9879748294,-0.2833890741,1.9269105845,-0.9801191208,-0.4760025074,-0.7437454638,2.2251989133,0.1224434292,0.6692572054,-0.296800963,-0.3829862865,-0.0356695699,-1.9884910688,-1.0306831969,0.4117468993,-2.5203200645,-0.4759825609,0.6798721541,-6.6797094908,-1.7911109503,1.7839480081,-0.5326197386,1.5023533534,-0.0799615834,-2.5996246552,0.0021622786,-1.201200728,-0.3477811457,-2.467031386,-1.5677497442,-1.3166776545,0.1379891481,0.5478388664,-0.5439863092,0.0587335262,-1.1595147951,-0.5827518134,0.034585608,1.369223598,-1.1067126073,-1.0357888898,-1.0933620657,-0.7246189719,-0.8462246083,0.2170073763,2.1276996895,-1.7719441051,-1.2107383642,-6.4626372423,-1.0769761285,0.2547177434,0.893155109,2.2209535493,0.378906149,1.3575352052,-0.9804533501,-0.3090118445,-0.1297033376,-2.5605678229,-1.8070126782,-0.6551515602,-6.3665946123,0.6308508868,0.1190681392,-0.5333087498,2.5292454348,-1.4060574111,-2.1285560749,-1.522977918,-1.0301066788,-0.3991848375,0.7088335594,-0.5086655974,-1.8115172474,0.181808839,-0.671807021,0.9489869466,2.2889303394,-0.1403865739,0.2131168969,2.3568094652,2.4668202863,0.0632707548,-1.1664037651,-0.2057623157,-0.9064342279,0.3059409934,-0.8686719977,-0.1652142204,-0.802434239,0.613626849,0.2687697488,-0.2391359266,0.1691828024,-1.4876577176,-1.7373138231,-1.1169586803,0.485213629,-1.4355677983,-1.9687085609,-0.7356817678,-6.2883047551,-1.5169753433,-1.1095979344,-1.9532182737,1.1343177654,-1.7310362281,-0.4014143992,2.3681296277,-1.4832887282,1.5679719071,-2.0988592873,-1.6320590745,1.7997606443,0.9466523564,-0.2610357313,0.8210120444,0.5615230817,-0.8737582057,-0.8077806443,0.8079752587,-1.9597699407,-1.3942434859,-0.176002774,-1.0504581812,-1.1107706744,0.7937478255,-1.4007753344,2.2214955565,-0.5173724852,-0.1938274663,0.6213094448,-0.4603939996,0.824042399,-0.2510628215,0.531682277,0.028367051,1.0302644034,-0.0175133643,-2.77143464,-0.120238434,-0.9735353852,0.3123741723,-0.1909733511,2.2731235226,-1.030085148,0.393807608,0.2939453011,1.7497619289,-0.4087095884,0.7648042778,-1.1651930065,-0.6609296874,-0.6435918414,-2.7146369713,-1.6867585639,-0.5208082509,0.9003787399,-0.2653406457,1.4932103202,0.3501561159,1.9647859135,2.4397947982,2.505122152,-5.1923329239,0.0326115583,1.3140239736,-0.4663928153,-0.1727090103,-1.2181152797,-2.9201281375,-1.1736786548,-2.6541294555,-1.0928153634,-0.4554709397,-0.0512735745,-0.3523520664,0.4854153176,-0.6097157234,-0.5340198153,-1.874178204,-0.9811748916,0.6540533377,-2.3231028325,1.3193679393,0.6624842027,-0.6471404685,-0.3407733802,-3.3111153703,2.5606326871,0.0344512128,-0.7945021699,0.7591511884,-1.8134005697,-0.688615552,0.2541258384,-2.6244927621,-2.0951065128,-1.4516856011,0.2425285704,0.4100430939,0.0731793953,0.6658438431,1.7432085749,-2.6036692168,1.5964957872,-0.9675293066,-1.0748086806,0.3800817981,-2.8700761505,-1.2508110871,0.0201411276,0.3491635904,-0.8600257906,-0.7146472116,1.2341620868,-0.2798283078,-0.3849115631,-0.4902189345,-0.8070857756,0.7492695486,-0.3902153183,2.5105516369,0.0783740899,0.2559123658,-0.6936084931,-1.741100646,2.3909456143,2.0878628926,-0.1069102307,0.3894010346,1.0724354383,0.688595671,-1.3421660263,2.5095530942,1.3805584557,-6.88699861,-1.0310211646,0.9778180838,-0.7714002069,-2.9399849545,-0.0389803637,-0.0090163117,-0.8569398469,1.4578714831,0.1828790998,0.1031089586,-0.7853947228,-1.0987122202,-1.3961173149,1.2037724032,0.056681402,0.0947437904,-0.3475913727,-0.3837118368,-0.3360773651,-0.8797492542,-1.3695002281,-0.45986043,-0.7426907459,-0.3482200686,0.7264949676,-1.3279704284,-0.4920205798,-0.4552620855,0.7433590657,0.4102672352,0.8099700572,-1.3406985163,-0.0615871537,0.2104427481,0.9209186479,0.2037624367,1.7817472236,0.9191532665,-5.1190571857,-0.5596132387,-1.1986934741,2.1901269207,2.4466206365,-2.3586119982,0.2775952451,-0.4781632608,1.3295627332,-1.0152947868,-0.9050792746,-2.5232602762,-1.7410887496,1.947185772,1.0178340155,1.7038397384,-0.3248646106,0.6165419023,0.2632676902,-0.9064428559,-1.7987033784,0.3388908456,-2.664910716,-2.2140281961,-1.0521655388,0.5464052377,-1.0006947818,-0.8128271302,1.9547833258,-0.9813808029,-0.0003347417,-0.8510675551,0.1443702845,0.2469951309,-1.6711314462,-0.6175570412,-1.2780956338,-1.9394769574,-0.6381363711,-0.7660992692,-0.7705230743,2.5323270029,-1.7627738585,-5.1335508953,-4.1242251364,2.567236054,0.2905801576,-0.9656389892,-1.0245562675,-1.2927048643,-0.9868636148,-1.0824060666,-1.1260223222,-0.7320471321,-0.7278700485,-0.7896996638,-0.5631805007,-0.3736415118,0.8680186668,0.4885144787,1.4097342418,0.5677327508,0.1995684249,1.2329254143,-1.033330677,2.2346219956,-2.8251848635,-0.9187405895,-1.0078533875,0.5824841716,1.6787563698,1.0971014352,0.59355057,0.7934917843,-0.9306681124,-1.5178565513,-1.4950269064,-6.386720018,-0.177673804,0.4952255231,-0.8416404285,-1.4508020939,-0.7966904492,0.4258966933,1.6454464683,-0.8349726688,-0.1909659247,-1.1553943364,-0.301098075,0.2514840729,-1.3301467546,-1.1715735584,-0.0808658677,0.7140983521,-0.7731428895,-0.9586664677,0.8273116942,-0.3291889497,0.562966663,-0.1562243748,-3.6855035664,0.1141987861,-0.4489911171,0.5500079116,-0.4957586653,-0.7554835183,0.6733208841,2.4712361076,0.951323793,0.7308063948,-0.3602522832,1.3633163353,0.8305584015,2.5307680963,-1.771674035,-0.6849699231,0.4288445335,-6.6594492246,0.8978206415,-0.5574378871,-6.8824257757,-0.3390365079,0.833304918,-3.6462005545
   0.8112746018,2.3520745861,0.327101107,3.0238036318,0.2824973103,-5.5381873279,0.4868574719,-0.7470762551,0.1424413283,-5.3518789806,-1.1915063202,-2.1390228255,0.4834353093,0.5701737991,0.7548493691,-0.2894475467,0.4666175336,0.3692020191,0.5941806625,0.2280426799,-0.3289764093,0.2952262369,0.7665812363,-0.8097772014,-0.1326947724,-0.04699815,2.0400578732,-5.4967076331,-5.5764669458,-5.8414272487,-5.5490112189,0.0920628518,0.0628740342,2.525182253,-0.3047239522,1.6532562117,0.3684475262,0.2114579563,-0.6496644528,-6.1837479475,-6.5397400632,-1.2062692458,-2.900676046,0.0876849632,-0.2712827713,0.4925638835,1.0337642276,0.7651018012,-0.2185597108,-5.6709199994,-0.0109339712,-0.100588636,-0.5943091806,-0.2875140177,-1.1735262038,-0.9875405814,0.324290283,5.0556106691,5.4379310176,0.413801814,-0.2186561567,2.1912382593,1.2043277452,-0.8549803451,-6.8344590441,0.3034161507,-0.5897303161,-0.1898546942,-0.1088016963,0.5579896624,-0.8340960936,-0.7393140448,-0.967105371,0.9560307941,0.681284454,-1.4585172664,0.5732795448,-1.5336634016,-0.3375720641,-0.5698352881,-5.7311903239,0.4285453928,-2.619984714,-0.2560658498,-0.0684861514,-5.7575292978,2.8148332916,0.1610875672,-0.8140315817,1.5677700745,-5.6650604824,1.521027776,-5.2154581728,-0.9917329082,1.2447194555,1.4405083251,6.7653016918,0.9072112011,0.6828809974,-0.744672364,-1.2233815615,1.6033654414,-1.3864653864,-0.3617786953,-0.9480619273,-5.9503917015,-1.8032540005,1.6014151711,-1.1066435901,6.659996025,1.1236831743,0.5029811515,-0.3766186404,-0.3822629678,2.4148621591,0.4930344825,0.2183250722,-0.1449212544,2.5482473807,-0.124007811,-1.8145434016,0.7708143195,-1.0998789846,-0.7111459419,0.1520121469,1.4635083829,-0.7120602302,0.4478807179,-0.207400975,2.3201370521,-0.7772310632,-0.1923181488,-0.7460530462,-0.4848626864,-0.5565640903,-0.8322459712,-0.1165391549,-0.3138845315,2.1746139221,0.4578307185,2.9483925921,-0.525949156,5.0892240096,2.0262101648,2.9896465203,-2.0205614272,0.0797879791,2.0897176099,0.8876764837,-0.7933275683,-0.6754518009,-2.9062923813,0.5779930679,0.2097955335,0.1033960527,0.4631763309,-1.0662201514,0.2668438714,0.8723773369,-0.3213432257,-6.5174335957,-5.8082181922,0.6201911243,-0.8287075332,-6.3749392847,2.8281368088,-0.4316594762,1.1676202563,-0.2726135267,-0.4312758196,1.3610047661,-0.6457212685,-0.2907169776,1.3020742959,0.1222785888,0.347745099,-0.4954626303,-0.6557737889,-6.2572430614,-1.0889419164,-0.1741012696,-1.2631615609,-0.0392993119,0.1483522999,1.0799443211,-0.0823257014,1.6857203154,-0.1499088444,-0.1911611698,0.18927149,-5.2285027375,-0.2177539135,0.7178139799,-0.7817688894,-6.3605303784,0.2016626789,2.6674770846,0.0483038704,-0.1166097048,-1.5743755138,-0.0891555655,2.1406874421,-0.6115663271,2.127744655,-1.7128743565,-0.3216699758,-0.5604293517,0.1759211458,2.9683535005,2.4563456009,0.5633245464,5.9574963291,6.8242504161,-0.2068786177,-0.3589124168,5.1716084717,1.8368419826,-2.3300268872,-6.3554083297,0.1842373896,0.6654199865,-2.536606388,-0.8350264206,0.0690598293,0.1201839723,0.8795268449,-0.814737344,-0.9029393562,-0.1637658468,0.1365043224,-0.4495783237,5.7813567584,-1.0715994479,-0.857727485,0.5806317013,0.6182223648,0.75644825,0.2548989247,-0.4765398723,0.6270493346,0.5574243517,0.6048690707,1.6068247811,-0.0997715975,0.6372750528,-0.447877609,0.540124446,0.8023973452,1.238288601,-6.8329954022,-0.2135838554,0.0061778968,0.1825526117,0.0338863846,2.2435401761,0.4425340828,-1.058769726,0.8313439554,-0.3342325192,1.0672329567,1.6161947793,-1.954562802,-0.1857836708,0.6559228727,1.7175112624,0.2000625018,-1.0000756425,-0.4210227507,0.5930888032,1.2875815728,5.2265827987,2.0164805814,0.4930703751,0.0597943693,1.6166395537,0.7498805323,-1.2788684419,-0.0970185687,-6.1322493246,-1.0262321955,0.214833337,0.679205463,-0.1876474207,-1.391624371,0.5897929182,-5.6343218132,-0.9055370771,-1.1500865902,-0.1930140681,1.654698053,0.5643106888,0.7434436783,-0.0028198569,-1.8399540675,-0.9787277034,-0.3327058485,-0.0078520317,0.0982129725,-6.0288390074,-3.0901825769,-2.1498348254,2.0603829591,0.7391895716,0.3915430808,0.0333100801,-5.8914236476,-6.2125466992,-6.2843103504,-0.3073550122,0.4821187523,-0.445323432,-0.3369471907,-0.5974325241,-2.4501822705,0.2870030464,-0.6830073731,2.6694647223,0.6906258449,-1.5105802697,0.0425614643,0.7657257561,1.2150779824,-0.1166640626,-0.6044990998,0.9981750552,0.0724050843,6.8124278721,1.3217848684,-0.4280637702,2.1460470708,-0.1324675038,0.2254743101,-0.3971162902,-0.748827384,0.4083086841,-2.092761236,-0.1282862147,-0.087693442,-0.0297016908,0.5380559055,2.1804921899,0.2349919278,-0.3141686314,0.797832842,5.9293780114,1.072892786,-5.1206217022,0.5697469797,0.1311117379,-0.577389775,-0.3809353817,0.3631250667,-0.723352525,-0.8433721869,-1.1863063356,-1.7442829297,0.3374163639,0.5178432625,0.5229211264,-0.3886041714,-0.1795156246,-1.3172212927,0.4542518329,5.3568112191,-0.4940111127,-1.3841018704,-0.1043176793,5.3194531028,-1.469802148,1.7513374636,-0.0830715328,-0.5246408131,-0.0826623326,0.1709587548,0.6710973701,-0.1906278847,0.4534369888,0.7369953994,-1.2435282828,-0.5541101783,0.9992199328,5.6725742581,-0.5613599749,6.2848326748,1.4167048758,0.6348019623,-1.3710952164,-1.3336248633,-1.9436334928,1.2121007667,-0.6463740712,-0.372828178,0.2965810507,-0.4882850128,0.318137993,-1.4674575555,1.0188408031,0.2601948443,0.4717919393,0.8877398232,-0.3344147742,-0.3096002622,0.7410555086,0.918839883,0.704067863,-0.032331892,5.1288854155,0.2001176162,1.0207181066,-0.4723859374,0.8853471432,1.0517406986,1.4770540871,2.5144455807,-0.16775814,6.6191458132,0.7319401122,0.2326728287,0.8612811867,-0.2610376657,1.1940923104,1.0175162081,0.0370326566,-0.2659655967,0.3801314181,0.7585150004,5.4056079868,-0.0637990735,-0.363574659,0.0575683002,-0.5275978068,-0.1035842381,0.6724104045,-0.6152493347,-0.4427366747,-0.0077424948,-1.2656682372,3.4328780515,5.3760123118,-1.6396453226,-0.8263621597,5.4747552493,6.4375793451,0.688297888,-0.5818336054,0.9706939028,-0.2558821505,0.6927437677,0.6712731051,-0.1393964831,1.2738470171,-0.4928820007,-2.8029986898,-0.1679159637,1.5798186633,-0.5778691648,1.2692838232,0.4740094658,-5.6903038876,0.6984006802,-0.2289266792,0.4993741426,-0.2895390589,-0.9734512667,0.4843806213,-0.6472599871,5.2240439357,-0.8104175217,-0.4159016202,4.9666576835,0.5962037795,-0.1213686663,0.9663935524,-2.195197131,5.2432711439,5.6260733474,5.8213521455,0.3221077566,1.0596589245,0.1055302124,0.2061965035,6.1926146553,0.4975097929,-0.6541168266,-0.1005661821,0.8543030643,0.0017489679,5.165497768,-1.4011006018,6.8949111291,0.8930857423,-0.2382733142,-0.2166713622,-0.3574801943,6.6009716796,-0.2414433741,-0.2922145704,-1.7586841228,6.3422086175,-1.6898853748,0.4910765157,-0.2556985951,-0.6985367057,-0.1328337389,-0.7452288376,5.9792225003,0.75732947,-1.0651806042,-0.2116274473,6.8206804722,-1.9193596515,1.3499796336,0.4003087356,0.0689695681,0.9580841781,-0.1816014148,-0.7793178178,0.8938946541,5.8292536965,0.4870468981,2.8276737496,-0.2149184849,6.7441018944,2.7303635258,2.7808330617,0.3018156602,-0.4149818166,6.6199986044,-1.7587113252,0.492213226,1.0488248533,-1.3435537899,-0.6789987506,-0.1889827674,-0.5609763345,1.1657610855,0.0455911473,0.8719875663,0.0638165831,0.0802563099,-0.2287776353,0.1408502477,-0.2456849308,-2.1025489973,1.0462924509,6.5472005868,-0.4905636426,-0.5802317209,-0.2472698627,0.1320605232,5.4372104041,-1.025635,-0.7797100453,6.2078212002,-0.3113325639,-0.4275763542,-0.5526147018,1.4681535243,-0.1518598085,-0.9353977086,-1.7869568287,-0.444870239,1.0355671107,0.5071834574,1.5310807652,1.6988371186,1.1004028463,-0.4849999293,0.7110000447,-1.7103306351,0.9479844236,-1.60761615,-1.2107014374,-1.0830143626,-0.0974529952,0.8614856,5.4705312123,-0.688800682,0.6816743126,0.3761960844,-0.0930519441,5.1547999508,0.8180724285,6.7246214036,-1.0153637916,1.1350235735,-0.4034835332,-1.2702145639,2.5120391186,5.7767068517,-0.1359113602,3.1433306699,2.5720293588,0.5988114749,0.3846479222,3.2259832976,6.2382728894,-2.5880465381,-0.0984307655,-0.0950450058,-0.7555711023,-0.4789102881,-0.6962170756,-0.5071889694,0.3959535118,5.339662769,0.872018888,-0.641980116,-0.464873276,0.0122789491,-0.266872764,3.3090090872,-0.0204005086,1.2914098334,-1.3544208467,0.5012618438,0.2535431143,-0.1187063518,-2.2173947434,-0.9092870403,0.2812645716,-0.9670509029,6.5652018826,-0.0905320407,-0.2626895888,0.8153050521,5.0433982202,0.2648628816,5.810996626,-0.1155684254,0.1093773636,0.1320713329,-0.2044033433,0.1988721947,4.934002963,6.3669263187,-1.6277054073,1.2269652765,-1.4262802596,5.7570210077,5.263035483,0.3982519585,1.1244264873,-0.0711506357,6.746004157,-0.7113281744,0.1899446467,0.9405886078,0.2261380941,5.9075732894,5.4662295403,1.7324486631,0.5664522509,-0.4544563651,-0.0156492736,-0.1393150665,0.6336080546,-0.6123007526,-0.6111943989,-1.1596440472,0.7333910789,-0.9537247296,-0.002122678,0.6352468062,5.458498758,-0.263877425,0.1760450287,0.4987407709,0.5233522424,1.0801878154,-0.2277074037,0.886172924,0.6521797996,-1.825785705,-0.389019279,-0.7787951853,-1.2533555324,6.279038369,0.228971313,-0.0967514299,1.1302525526,6.5891226357,1.6044616314,-1.7292093517,-0.5253681528,1.3919305148,1.5490270668,-0.6726132501,0.7237283144,1.4239285397,0.0623151232,1.0200766122,1.1787602845,-0.7257772762,1.603833531,-1.4078536731,6.5911988284,-0.265302095,-0.0143781457,-0.0521601151,-0.3872125065,2.5022157132,1.646185057,0.7668243174,0.3783445148,-0.2258344956,6.4702037841,6.6289617433,-2.1188179513,1.2487981771,-0.2155947446,0.580127112,-0.1598195876,0.3391302729,-0.8584160369,-2.3604967589,-0.4046168637,0.4095077032,-0.4330888217,0.5086927617,1.7254042284,-0.5398685544,-0.5809356747,-0.3198088455,3.4568590263,-0.2652822529,0.3317049819,-0.7008427023,-0.6287498711,-0.8352008938,-0.6592493853,0.7652446526,-0.063035241,0.0006184222,-0.6126038394,-0.2818298154,-0.5322008832,0.6960988094,0.7573114242,-0.1622691081,0.5740777108,-1.0507439106,-0.3687511855,0.3385694278,-0.0458988755,0.7744751849,-0.0459016328,0.8214053942,0.0149345112,1.1715771479,0.9940703685,-0.4947186915,-1.0144930615,-0.354698333,-0.5436934609,-1.0646420956,0.3191846047,0.6043867876,0.4690598311,0.6078234242,-0.417249058,0.142252952,-0.5057367747,1.4491536478,-0.7334738557,-0.4169161073,0.4466543374,-1.3822373517,-2.0048470581,0.5657092146,-1.023846643,-0.5223560377,0.7028435405,-0.3755066916,0.6319264363,-1.7445683402,-0.2849245968,-0.065517006,0.2744734088,-0.5965249757,-1.8367843005,0.5767884233,0.7550872931,-0.8163484472,0.3749700277,0.4032781337,-0.0413856365,0.5828424866,-0.704515505,-0.2885771025,0.0702057615,0.7676728467,1.5210285834,0.3304838246,0.3467063086,0.5897616696,-0.667800743,-0.3340425658,-0.6683930731,0.4786744011,0.0824041818,0.029542935,0.4521259845,0.1985202008,0.7232926045,-0.7431682528,0.3138597417,-0.0301329821,0.5066189625,0.5139734644,0.1750145115,0.7167180555,0.3003992352,0.7152421007,0.6720175092,-0.6202275409,-2.7832145546,-0.3384555117,0.652949072,0.8435287153,-0.4138354849,-0.2835002453,0.1383058483,0.7327292579,-0.5075157719,0.0840013247,-0.3691927617,-0.551107656,-0.427851615,-0.7427061482,-1.1444691025,-0.3528263463,-0.6841409969,-0.3433095576,-0.2659263943,0.5695789021,-0.4047954188,0.7460655773,-0.078369237,0.4379013562,0.3605728778,0.0515414766,0.4629448009,-1.325296219,0.723711841,-0.5659559253,-0.0747914132,-0.6673326954,-0.8917116639,0.7139843927,0.10802669,0.688742532,-0.0480382649,-0.1827733618,0.5924326644,1.1042169728,-0.4515016759,0.4920531086,0.4071924327,-0.1506775034,-1.0338405513,1.3091617807,0.6942212309,-1.0095305525,-0.0366606147,-1.1349434827,-0.3494983425,0.3916581077,0.3336391713,0.3164031186,1.428262618,-1.3041880311,-0.4809164547,-0.6537740445,-0.2007394543,0.4775026489,-0.3288838986,0.7372967381,0.2650530362,0.9312673771,-0.7258309671,1.0813472819,0.7707189165,-0.1476820462,-0.0280675165,1.0163423027,-1.1380026729,-1.1868494089,0.4481022677,0.7318334083,-0.5161502557,-0.2961513147,-0.6735056402,-0.79198562,-0.9905154182,0.1768959373,0.6720643279,0.2616609047,0.7067270541,-0.3661309653,0.5736816461,0.9015049781,0.1855350645,-0.171865008,0.0049809104,0.4094833415,-0.7552517124,1.262459388,0.4171219164,0.6746392913,-0.5731886972,0.0877948872,-0.1694646055,0.3893311653,-0.1183787377,0.2866619879,-0.0284305146,0.4122884819,-0.2613664289,-0.6554036907,-0.2670247811,0.1395387722,0.0660944418,-0.8900486849,-0.9274282117,-0.0170794211,0.8697058295,0.1332835136,-0.4536348368,0.5881154544,0.9086617104,-1.2713743043,-0.6456128806,1.2127810089,-0.4452621218,-0.9563631209,0.8181493317,-0.6339181773,-0.2794627553,0.0298031788,0.5171671681,-1.9824083003,1.2179559141,-0.8414854066,0.1370849342,-0.7277129029,-0.6556572999,-0.223369333,0.3491669868,0.1474355529,0.6026974912,0.6408573306,-1.2186024175,-0.7199287428,-1.0450786753,0.3934109367,0.5135839782,-0.9645139193,0.4003742422,-0.91461503,0.8052018605,1.3348610141,-0.1323597036,0.6243937575,-1.5856158004,-0.1585263978,0.8648665669,-1.3440334084,0.8944062469,0.7575680884,0.2663470951,0.2432794126,0.9777772646,0.7084740731,1.1342852067,0.2126850943,0.0624857931,-4.9580372184,-0.2523056187,0.5434386786,0.6174403062,-0.044080774,-0.6142444324,-0.2261094028,1.0427204188,1.3135828289,-1.0408046481,-1.047998723,0.7688772151,-0.874479867,0.4218982021,-0.222945388,0.3803450917,-0.6144911169,-0.4997179717,0.8668064077,-0.2954285253,-0.6928886468,-1.6071693084,-1.8988299015,-0.1294446273,-0.3301625492,-0.3862376655,-0.2285537268,0.2294329676,-0.7866285655,-0.3871395742,0.5698758003,-0.2039771192,-0.4320899972,-1.1485403994,-0.9169535095,-0.7231398468,-0.9554039855,0.4615150939,1.2092695394,-1.8315650182,-0.5594085262,-0.2760431135,1.0498601377,0.1783712053,0.8588822305,-0.0326821009,-0.6367402255,-0.6115204858,0.4915799995,0.7766365325,-0.1768875318,-0.5321499494,0.7700321109,0.0656475728,1.6342410933,0.5086156174,0.5458267261,0.9871006127,-0.8238392951,0.6178529736,-0.0459045932,-0.5105443701,0.2220658473,-0.6638323033,0.278860231,0.2940197569,-0.0013048317,0.8007059757,-0.1558092935,-0.5963706312,-0.9358255385,1.0701596356,-0.5967637271,-0.8004135923,-0.0773691512,-0.9772416796,-0.1355630282,-0.2843351247,-0.3785735907,0.6306076923,-0.0958623321,-1.1279117007,-0.250420134,-0.7657989365,0.5271537017,0.3890171628,-0.656580341,0.2540066888,0.2950691584,-0.6025329807,-0.4080808938,1.0407494026,0.5053215463,0.0463764574,-0.432857292,0.8678596069,-0.3330792932,0.6016896186,-0.8878829298,0.788236734,0.9287821281,-0.0402280765,0.7489473759,-0.4490995246,0.811463784,-0.5955689326,-0.5546283677,0.9738768199,-0.4003302525,1.2434286124,-0.1965440174,-0.4405411777,-0.0994142149,-0.7637031441,0.0998891391,0.9372517189,0.5086098949,-1.1479570684,-1.6792108986,-1.0269232216,0.2302298342,-0.7802182218,0.9456032214,1.3477608602,0.6093277543,-1.1838456757,0.530568755,-0.1268978519,-0.0171337936,-1.3831270414,-0.7169477334,1.4385030942,-0.8149115131,0.5398429435,0.2466875717,0.8177950962,-0.203471562,0.6316829494,0.3407952341,5.6747957254,0.4851544336,-0.9900081652,-0.7931656998,-0.4433571768,0.8553746044,0.89304516,-6.8923169934,0.3629145379,-0.028269674,0.7588644453,-4.970559544,0.7526970035,-5.2050763768,-0.3214127781,-1.0784961189,-0.4664631246,6.4629934805,-0.5479301463,0.984735804,5.7063299412,0.1765715594,-0.5946681549,5.0825921395,0.9298194222,-5.2634456645,0.9520616717,-2.0190424755,-0.4968937824,5.066837092,0.8448179393,0.8046021042,1.2814083337,6.8041989269,0.6945708703,3.0278712354,-0.5028527872,0.6467011772,0.696626556,0.4568373268,0.0052649389,1.0470480701,-0.516107204,-0.7376698349,-0.9360940812,0.2168524355,0.3134542773,-0.8640016336,0.8667349583,-0.3634468096,-1.1106225533,5.3468285158,5.2933780784,1.3473590709,5.5932581352,0.1086678588,-1.7330979356,-5.662361833,0.9301880863,-5.4976772275,1.0885363856,-0.758809223,-0.7191374058,5.9635558646,6.7985078721,0.7341558166,5.8792135054,0.5615981893,0.8586196419,0.1834864472,-6.4450024853,0.1244878842,2.0427524177,5.2371130064,0.5984886947,1.0638357891,-1.3817926212,-0.2049614332,0.618678742,0.8030175749,0.1265015584,-1.2316815319,-5.5296455666,-0.0641987432,-0.2501659891,-1.6203661546,-6.2480842078,-0.8076903269,5.5457369442,-0.8751954621,0.7527523521,0.4230550691,0.215191786,-0.7266102083,0.3286169085,0.9304806522,0.8201422635,0.2245255339,0.8890319405,0.7538268736,-0.8126143683,0.5516919081,1.3063835174,2.0356894553,6.5105877279,-0.1121740482,5.222844394,-0.3844313981,0.2793526275,6.7970501556,-2.0609618992,-0.0478638641,-0.3928041529,-5.1400226298,6.6058000523,-6.6702764531,4.999137227,1.1805745007,-5.0217767811,-2.2753045276,-2.3314667203,0.1513998117,-0.4161631743,0.1110207472,4.03434108,-6.2894289172,0.9893182454,0.8691661234,1.1224741966,6.8486200402,1.838556465,-2.5377500632,0.676538415,-2.6155449236,-1.3087587736,0.4540076192,-0.0333700436,-0.9670615351,-4.9408259728,-0.5268893927,0.1990183153,0.3275162098,-2.2239323297,-1.0827067299,2.1333674312,-0.4827387126,-0.5731592012,0.0632156375,-0.3833849988,-5.0388317505,-0.0145554859,0.3373729059,1.6536832809,-6.7046033327,0.3350885903,-0.123914877,-0.3618114746,-0.8253536567,1.0476010306,3.0489677683,0.145437563,0.5724821288,-5.4244739723,0.5118303695,-5.8233895534,0.9584523402,-2.8567548706,-2.648550053,-6.7628938135,6.7525030525,0.9363748899,-5.8130168421,0.2009829745,0.8741231732,0.4746432974,4.2477190264,-0.7238278849,0.7640264277,0.0763180128,0.1102023747,0.6686883342,0.997035467,-0.0390240398,-0.4797844905,5.6908805334,5.8257147687,1.0190000804,-0.4306477311,5.2583316896,-2.4008490417,-0.0265469236,-0.181699871,1.0889433809,0.2099189098,-6.1993124613,0.4770638121,-0.6669458419,-5.8486212189,1.1475466259,-0.1945488895,0.4764124323,-0.3345098844,6.8294537265,0.7641666923,-1.2922089702,1.3643081203,-0.0608405852,-0.2519200255,-6.0940704511,0.0727251454,-6.8029707725,1.137125372,-0.4456972162,2.0010274599,6.1019250425,1.6524562202,-0.178771903,0.3824421516,5.3598945362,0.1373771582,-6.5962039115,0.5178354305,-0.5977953817,0.0661226479,0.1955061888,-5.7999639833,0.6004881929,-5.5278023372,1.1809986216,0.256706146,0.150677944,0.9326251918,-1.0879110923,-5.4682588947,0.7400038306,-2.6361102554,-1.9346019781,0.7564317104,0.8882726298,-2.3182597116,-6.1636937622,-0.2996763634,5.2254387481,-0.4628715195,0.3777009503,5.6322790227,1.2106008878,-0.0674450732,0.5721038523,-4.9291934326,-0.8962543883,-0.5354686072,-0.4663725304,0.3893770704,0.6108749736,-2.9552044175,0.5617810533,0.3652108577,0.9353620205,-0.2071280288,0.5730235557,-0.8030199892,0.2165798533,0.9483656759,-0.5010134328,0.8501473607,-5.2248560663,5.4532894151,0.7616256332,0.5802295284,-5.5331077718,0.4587144528,-6.8017093803,6.6739446961,2.1134817091,-0.0414440384,-0.0499919083,-0.2402544154,-6.7292964577,-6.0636795162,-0.7222903973,1.1054532772,-0.6919246136,-5.7217806256,-6.1758062069,0.5507318721,-1.0539787636,-1.0726807967,-5.584729842,0.6620765051,0.9890491338,0.7428972595,-0.3626160791,-6.4012558769,-1.1351747589,-6.8811217263,-0.6789221352,-1.4591073701,-2.3237837673,1.1422923087,5.5700141701,0.1462864256,6.2113239252,1.7086811426,0.1944076764,0.0292568308,-0.5438181379,1.5233031442,-5.9237708585,5.6772172563,0.1423403832,1.3060702066,-0.5492708913,-2.0167065412,1.0098393114,1.3912553404,-0.4515470589,5.3723401692,0.7406562844,-0.5945688012,-0.5308735896,-6.3950988932,5.3381480672,5.2381700565,0.0638154695,-2.59876528,-0.3965898124,-0.6979940475,0.5617949337,6.493298961,5.8220051812,6.8784832336,-0.4148607583,1.7901515913,0.9047373091,0.7218245666,0.1426508693,1.7093869254,-0.693115324,2.0690127543,-6.6774128651,0.2445778538,-0.4440065016,0.7473760578,-0.7353949074,-5.5195784472,0.7910761149,-0.7775207744,-0.8006030545,0.4975358975,-1.3418190456,-1.6009841809,0.7437084443,-1.4828170644,0.5742878277,0.1256344175,0.7193408645,0.2882193501,0.1872941312,1.2902972426,-0.3605481412,-0.4081065508,-0.5292967197,0.3744031446,-6.6336982258,1.9725731572,0.1284020493,-0.6793323632,-2.2314555401,0.5018753297,6.2450251831,0.1677469435,0.2704203354,-0.6753573805,-0.1813933033,0.0941782267,-1.0945857785,-0.8066173217,-3.8097349897,-0.9665123898,0.6088846981,-0.6547892731,-0.0504492538,0.2641936146,0.9570316327,-2.6334474861,0.3929038936,0.7385858824,0.427397824,-3.3245929286,1.2849465661,0.5004887145,0.4788800647,1.2533398872,0.6673008048,-2.5809771026,-2.8498320385,0.7880379127,0.2965167009,-3.2711015063,-0.6796503367,-0.4390604828,-6.2667411805,0.4833568714,1.1050210114,0.907287973,0.2826803246,0.3635682671,0.4957381425,-0.5857030138,-2.6333293341,-0.6186426621,-2.6538166713,0.7943729277,0.9575520942,-0.6000305198,0.6082640924,-0.590710022,0.9253241517,-2.6952136424,0.0162579112,-0.4493082864,-0.3072622764,0.3440129252,-5.2854308754,-1.6039667757,-0.6636541791,-0.7016388481,0.0659895621,0.3525361545,0.8317676404,-0.4920524963,-0.0394348678,-0.6507467672,1.3643563383,-0.3522161971,-0.1982726372,-0.1569130346,-0.1657489157,-0.289203542,-0.0148812775,-0.847278839,-0.0890232041,0.928875232,0.4698242432,1.100884282,-0.0362041399,-0.6612938459,-0.8947063872,0.6559319412,0.7694134712,0.2811322469,-0.3575468124,0.5486879413,-0.3349834364,0.0377363752,-1.0246475747,0.963791966,0.0159770912,0.4959918163,-1.0220329647,0.457126697,0.6377774602,-0.3901784661,-1.188387109,-0.2934796537,0.9057472042,0.5475838263,-0.1572969379,0.3046420603,0.1073150418,0.4013510388,-0.5081138199,0.22422396,0.9654416601,-0.7768811915,-6.2424749451,-1.286149827,-0.2703603308,1.5849368758,-0.3796002998,-0.0614644366,-0.2730149857,0.8468686002,0.4395882188,-0.518391708,0.3679401311,-2.8770424484,0.0735602291,-0.7732731463,0.687695535,-0.7801829985,1.0612888469,-0.80520192,0.0010231413,-0.7120592205,0.5633324456,0.8876099125,-0.2583677654,-0.8013387243,-0.4846239313,-0.6515918603,-0.0310586607,-0.8031431514,0.1691766742,0.4265259533,0.7995170722,0.213136128,-0.6207167944,-0.442119839,0.1100957899,0.2235791427,-1.260454115,0.750501022,0.4865305392,-0.0302542877,-0.9162345878,-0.2579484314,0.7169219116,0.6951053903,-0.1694076739,-0.6985468428,-0.6572587952,-3.6128544403,1.1165028536,-0.0345359149,-0.0498851826,-0.9890810658,-0.2709948733,-0.1341492145,-0.5632320191,-3.263418805,0.7706254227,-0.0847836395,-2.844673737,0.5480177624,0.31800627,0.4303606556,0.3676322099,0.3054299169,0.2512367202,0.4527020925,0.9865929827,0.5495298521,-0.4009135395,-0.356107236,0.8718477772,0.3947909236,-0.3581705737,-0.7846989317,0.8129777603,-0.1894887208,-4.5405184109,1.1119865361,0.0489832898,0.1747589356,0.2302441989,-0.7875180335,0.764954728,-0.4810023805,0.3676268956,-0.5761867185,-0.1391829074,0.6314844185,-0.6859187379,0.3925635316,-0.334940457,-5.0589455988,0.1042649454,0.1528723172,-0.1675338747,-1.8764840625,0.8003743199,-0.3837126652,-0.5297447811,-4.1422787047,-0.0455794329,-0.7208715336,0.0526700006,-0.3377578005,-0.1070411926,1.3649637442,-0.3154697496,0.0592401572,-3.9721480126,-4.0284267567,0.7808937997,0.8039841731,1.2162683414,0.0159944919,1.1495112055,-0.0920444348,0.5778577235,-1.6053697161,1.1023837922,0.515674953,-3.0104220678,-2.949702758,-0.3055561332,0.3713271303,0.1121898499,-0.3597483406,0.8094790937,-0.1121555178,1.1403506748,0.0453867285,0.6808838593,1.2999863487,-2.7942520428,0.3835537131,0.1423835158,-2.289189295,-0.5215190329,-0.63130998,0.8684499198,0.476769746,0.064723718,-0.9415629784,0.5614682623,-0.3199546227,-0.8126008163,-6.3983960857,0.0598558377,0.241387318,0.7317342338,0.6011705499,-3.7304435797,-0.0607498097,-0.4198652867,-0.4995186702,0.3467755138,0.4429161895,-1.9200700768,0.7672282259,1.1454003236,-0.083580358,0.1831788917,1.0535272981,-1.9037803636,1.2130629146,-0.6052676396,0.2306339718,-5.9868683739,-1.2172637268,-0.6556089458,-6.3244123019,-0.3049233,0.5437174363,0.2555638696,0.6648064746,-0.157458039,0.7054482011,0.3091016559,0.5836718456,1.5608376647,0.7301968237,0.8724782428,-0.0408254322,0.9102566268,0.0737837822,-0.0249449024,-0.336784297,-5.9935726363,0.1726877139,-0.0601348712,0.9049105076,0.5067386735,0.8541537954,-0.1805203839,-0.6514212405,1.1508702107,0.2784633257,1.5433294906,0.445793184,-0.3722557012,0.9365369476,-0.909407028,-0.561252211,0.1331353603,-0.7803233359,-0.681213481,0.9829807669,1.3382423156,-0.111058365,-0.7993734632,-0.8507030753,-0.3102376512,1.1611244188,0.2888369682,1.3603293832,-1.0007804205,0.6790103437,-0.2052035555,0.480383235,0.3806852599,0.0639710132,-1.1033978924,-1.1763500849,0.8306886509,-4.6483676904,-0.3522877671,-0.0839749438,0.520671497,0.5628132402,-0.0118701139,0.7614071621,-0.2378483331,-3.2356784145,-0.4247735369,0.8606674006,0.876706472,1.5093434204,0.6740890681,0.3999403149,0.2511697258,0.5764244723,0.6140521654,1.3441799459,0.2131887725,-0.8483563982,0.2759857768,0.4394709246,0.2777601935,0.7461751638,-0.8565654495,0.4380226987,-0.5064792305,0.8418923788,-0.7148544324,-0.2870017203,-0.6292233571,0.4466745829,-3.8047370664,-0.6772847347,0.4487777223,0.2799817421,0.3141784948,-0.1482625465,0.0074991757,-2.8295904586,-0.9695603653,-2.1972020857,1.0146028522,0.8157722965,-1.2219312707,-0.4813857098,-6.6568411581,0.1030598871,0.9856591234,-0.7918870073,-0.3535671135,-0.5143340503,-0.0870496948,0.2982401844,-0.2354498717,-0.7752712172,0.998190094,0.2629118963,-6.8652533571,-0.1776967344,0.9205411793,0.2764025223,1.0093303738,-0.861631104,-0.1504477854,-1.4756936652,-1.0439951161,-0.9123977394,-0.2717053657,0.0687983677,0.1436557182,-0.4853778755,-0.3406487043,-0.5025031886,1.3530299664,0.0521138098,-1.5900330827,1.0073020419,0.2795209199,-0.9277126214,-0.3675948937,0.7614901443,-5.3080357943,-0.2091339897,0.6435649239,-0.4842875543,-0.7126690688,0.4062917649,-0.0141741471,0.1594380634,-5.4679418088,0.8295316594,-0.5662486078,0.9861357924,-0.0313692841,-3.1741125994,-0.3571758496,-1.5784698988,0.2007986076,-0.333415867,-0.5975983333,-0.065730505,-1.2707022532,-0.5017187953,-5.276728736,-0.4625089487,0.0767455189,-0.2978601686,-0.9709271741,0.6963663447,-0.907576538,-0.0711392301,1.5016424231,-0.5814322152,-0.4023702549,0.3708420048,0.6766334142,-1.2506945248,0.8460783661,0.3648001496,-1.5480646984,0.425263023,0.9797358155,-0.3644722082,1.0207096579,0.1675814377,-0.0169314281,-0.2357347001,-5.3456093406,-0.4204510676,-1.0852980363,0.3597571347,-0.529278321,0.1411559131,0.2765422462,0.8753017376,-0.0583652686,0.8203200285,0.4140430008,0.9053327615,-1.2492943748,-0.0129120775,0.3880711771,0.4406912786,0.5435129941,-0.8921624539,0.3178549716,0.2861880138,0.4058771388,-0.7787027764,-0.1344941486,-0.4298537625,0.031086461,0.0628351596,0.6233894006,-0.3782739665,-0.0325593824,-1.3304685091,0.3998314958,-0.3087452478,0.5420810095,-2.5304293372,-0.1140441573,-0.3492284261,0.4007273837,0.3619645959,0.0619098192,-1.5850394856,0.6431275633,0.550111723,0.5149560252,-0.3409993184,0.05549003,-0.997184294,1.3487254731,-0.8644563305,0.0123163698,-1.6861998895,-1.1908901565,-0.669781141,0.3364541235,-2.242546229,-0.4059667389,-0.1007355748,-0.0249171966,-0.0969525784,1.4868765992,-1.8925314388,-0.6608354433,-0.6981289737,0.0512013856,0.7514816349,-0.3325881606,-0.9965275113,0.3519328371,-2.2650686549,-1.0281265813,-0.7568880792,-1.4443286206,0.1559763001,0.0181417986,0.3642504136,-0.8157721181,0.1563521575,-0.2591752109,0.3187729281,-0.0387356584,0.4995528449,1.0038511,-0.0197056587,-5.1935406297,-1.6949282766,0.7462195565,-0.2011248741,-0.6175521652,-0.1335231068,-0.1220680272,-0.3724981611,1.0124693132,0.6764397172,0.7548751583,0.5356514307,-1.5098699141,-1.0244164179,-0.2925649771,0.2949879283,0.62636785,-0.4242566052,-1.0217440652,0.0689068944,0.6221020028,-1.1101008101
