encog,BasicNetwork,java,3.3.0,1,1576422372201
[BASIC]
[BASIC:PARAMS]
[BASIC:NETWORK]
beginTraining=0
connectionLimit=0
contextTargetOffset=0,0,0,0
contextTargetSize=0,0,0,0
endTraining=3
hasContext=f
inputCount=379
layerCounts=2,16,64,380
layerFeedCounts=2,15,63,379
layerContextCount=0,0,0,0
layerIndex=0,2,18,82
output=0,0,0,0,0,0,0,0,0,0,0,0,0,0,0,0,0,1,0,0,0,0,0,0,0,0,0,0,0,0,0,0,0,0,0,0,0,0,0,0,0,0,0,0,0,0,0,0,0,0,0,0,0,0,0,0,0,0,0,0,0,0,0,0,0,0,0,0,0,0,0,0,0,0,0,0,0,0,0,0,0,1,0,0,0,0,0,0,0,0,0,0,0,0,0,0,0,0,0,0,0,0,0,0,0,0,0,0,0,0,0,0,0,0,0,0,0,0,0,0,0,0,0,0,0,0,0,0,0,0,0,0,0,0,0,0,0,0,0,0,0,0,0,0,0,0,0,0,0,0,0,0,0,0,0,0,0,0,0,0,0,0,0,0,0,0,0,0,0,0,0,0,0,0,0,0,0,0,0,0,0,0,0,0,0,0,0,0,0,0,0,0,0,0,0,0,0,0,0,0,0,0,0,0,0,0,0,0,0,0,0,0,0,0,0,0,0,0,0,0,0,0,0,0,0,0,0,0,0,0,0,0,0,0,0,0,0,0,0,0,0,0,0,0,0,0,0,0,0,0,0,0,0,0,0,0,0,0,0,0,0,0,0,0,0,0,0,0,0,0,0,0,0,0,0,0,0,0,0,0,0,0,0,0,0,0,0,0,0,0,0,0,0,0,0,0,0,0,0,0,0,0,0,0,0,0,0,0,0,0,0,0,0,0,0,0,0,0,0,0,0,0,0,0,0,0,0,0,0,0,0,0,0,0,0,0,0,0,0,0,0,0,0,0,0,0,0,0,0,0,0,0,0,0,0,0,0,0,0,0,0,0,0,0,0,0,0,0,0,0,0,0,0,0,0,0,0,0,0,0,0,0,0,0,0,0,0,0,0,0,0,0,0,0,0,0,0,0,0,0,0,0,0,0,0,0,0,0,0,0,0,0,0,0,0,0,0,0,0,0,0,0,0,0,0,0,0,0,0,0,0,0,0,0,0,0,0,0,0,0,0,0,0,0,0,0,0,0,0,0,0,0,0,0,0,0,0,0,0,0,0,1
outputCount=2
weightIndex=0,32,992,24932
weights=##0
##double#24932
   0.844522633,0.8563480958,0.6115309404,-0.6052854863,-0.9950423788,-0.3652279864,-0.2068616179,-1.1614518607,-0.5380242917,-0.2925752902,0.2585194836,0.7050823037,-0.3619430402,-0.0519014135,0.8885956106,0.0254288872,-0.7740508296,-1.0685174057,-0.7986909292,-0.3166856772,0.84278004,-0.496322911,0.9015591864,0.7111376785,0.1715942489,0.3826794831,-0.4504963572,0.0400687172,-0.4660544698,0.9075851683,0.5934131669,-0.2558528557,-0.9982549961,-0.6611858762,1.0652059588,0.5130062619,-0.796693899,0.8288722714,0.290618616,-0.3930519646,0.7270387731,-0.2102372451,-1.1272656658,-0.2944474725,-0.3488056956,0.5038097555,0.516115684,-0.4142811325,0.045742426,0.7269565339,-0.1265473208,0.515126284,-0.3991735603,0.1963151579,-0.2590901719,0.8447405172,0.7739811902,-0.086034669,0.3003764563,0.6895602832,-0.384823601,-0.6079582244,0.5319422518,-1.1048409428,-0.7212773061,-0.0632193546,0.0133118028,-0.4208314087,0.4245409387,-1.089774709,0.7616122205,0.0569585273,-0.4723916888,0.9006878241,1.1091103539,-0.6577606986,-0.3844894986,-0.2460416213,0.30730986,-0.56712731,-0.183219596,0.5442685819,0.6458415686,0.3688676013,0.2790128421,-0.152828188,0.9376359702,0.8708409737,-0.5800419443,0.9553632322,0.9233716012,-0.7338306963,0.3544926742,0.7164882713,0.5889325552,0.2935011397,-0.7808388384,-0.6888060196,-0.0509176465,0.9528042096,0.1090018955,-0.6441574498,0.1042338625,1.0042982374,-0.9213588251,-0.7768152626,-1.0174443722,0.6272079807,0.0316033427,-0.1173770328,1.1475798194,-0.2407814174,1.0216135652,0.3303428667,0.3182290465,0.9559627273,-0.3686986887,-0.6839487172,-0.4035698657,-0.0555411888,-0.1301022214,0.4092635219,0.3711977535,-0.7303042662,-0.1115229711,0.304189665,0.4468305228,0.8716311555,0.3439387545,-0.9287839947,-0.9933067144,-0.1806113886,-0.3922989213,0.516402454,-0.834906343,0.6535338797,1.144757714,-0.4092403603,0.1453861049,-0.2801362719,0.6718913368,-0.3636663182,-0.9509304475,-0.5983757959,-0.901800766,0.8070218037,0.7639268172,-0.8775053945,0.738954931,-0.1230716012,0.7774819993,-0.4275716566,0.436425826,1.3249259827,0.1962523838,-0.4796654479,0.9596407375,1.1146974782,-0.0666626168,0.5871336353,-0.1663536188,-0.4945804972,1.0562284546,-0.2532182513,-0.9162460056,-0.3986436798,-0.9858525043,0.070625883,-0.4919493421,0.3489405488,-0.9398468707,-0.9944086444,0.9357168304,-0.0910603408,0.3509845601,-0.1471031265,-0.8547630729,0.2693159562,-0.4333305109,-0.009740793,0.1312798223,-1.0305708042,0.5646493286,0.4914492322,0.2536282705,-0.0586841974,0.3535511231,1.0954742553,-0.3113453414,-0.9708882305,1.0298309855,-0.0875076751,0.1113517937,-1.1259018938,-0.5008286625,0.0027653971,0.4319258879,-0.4338332513,-0.8657127196,0.2460881817,-0.3685390273,1.3209266705,0.9150800213,0.637776793,0.560572822,-0.61707079,-0.4085310764,-0.1883934839,0.7369573271,0.7933281027,0.0665621885,-0.1957223742,0.9141742407,0.3410486971,0.9437114779,0.072165425,0.0852219913,0.2386231703,0.679654952,-0.1500319211,0.2560029223,0.9263149396,0.8137008981,-0.1473153346,0.2064199242,0.6424754116,-1.0320884197,0.2066511915,-0.2609997804,-0.9173648307,0.731983333,-0.4315604216,-0.4606322018,0.3640956118,0.1841518109,0.5582185455,-0.4754126788,0.6414590221,0.4962427447,-0.0989917502,-0.6071689077,0.5969764565,-0.8105038141,-0.8031129854,-0.3543504645,-0.9113954982,0.1292005621,-0.0524126514,0.0812174786,-0.0160351165,0.0243482204,0.8924561585,0.5629617838,-0.1387856277,-0.7692009434,0.0658151823,-0.4112597383,-0.8815502442,0.6938230915,-0.0051017959,0.7807680936,0.7052877215,0.6968375737,-0.5602054283,0.9697506849,-0.4720468767,0.3042608112,-0.0839654924,-1.2624423163,-0.0942021251,-0.4399060192,0.7875222525,0.3254741219,0.1146634476,-0.7224070241,-0.6376947991,0.1443545919,-0.7777148841,0.141948598,-0.4637405513,0.5444956437,-0.4833355549,-0.0547056908,-0.1261156035,-1.2862278662,0.0269508763,-1.0636164699,-0.8939455157,-0.5776638557,0.5269303164,0.0788603231,-0.8213558792,0.6213599702,0.9578869796,-0.0690806297,-0.5028173378,0.6353909461,-0.6994022549,0.2644947237,0.7823323043,0.0305881104,0.3460275626,0.4625932529,0.0201279015,-0.5443374531,-0.1574277622,0.3009154177,-0.132471395,0.4573021501,0.3468246613,0.6027148498,-1.0536491111,0.7107232075,-0.0982335453,-0.1168120913,-1.0098116782,-0.9181016303,0.0085660991,0.8155688768,-0.0918515706,0.06817455,1.007072753,0.396068651,-0.7514849691,-0.1755872711,0.0183492144,0.0535780613,-0.1596922049,-0.9834072161,0.7498992953,-0.6857180598,-0.1368893675,-0.6408618372,-0.4835486544,0.8119884727,-0.1009232728,-0.8060689413,0.5944522283,-0.926237644,-0.4696158908,0.8625998399,0.2009902098,-0.1801912513,-0.9134743107,-0.1215089469,-1.3470190685,-1.0183608842,0.9303228306,0.0780290192,-0.5912216466,-0.5909152956,0.0968741992,0.7147774617,-0.3723103682,0.0051681698,0.3956489204,0.3581054609,-0.4422090185,0.1180839681,-0.1843335533,-0.8969435615,-0.0523537528,-0.4072019782,0.1563551211,0.714761051,-0.7666831731,0.2334690599,-0.2455981983,-0.9670971576,0.9090124814,0.1251268735,-0.0953422487,-0.3754798501,0.7600763605,0.4547250534,0.1368434745,0.8003531318,-0.3386830609,-0.9247600921,-0.6397266256,0.5845299067,-0.5162616064,0.3173983565,0.6265810191,0.8152565093,-0.7500952194,-0.9790472878,0.1624334028,0.0662015786,0.3229730857,0.5477248296,-0.1013447677,0.7517031057,0.8241107896,-0.7842730035,0.8020232245,-0.7491921482,0.1423239122,0.3573645934,-0.2077346194,0.7643671397,0.0327550536,0.5431994299,-0.0707304422,0.4323400671,-1.012591355,0.1628096295,0.5147236599,0.489066476,0.8932873729,0.938344386,-0.2897663768,1.0476784625,0.3577950265,-0.5642080469,-0.4266953431,-0.6572457131,0.6701464014,-0.058228798,-0.0995676658,0.1888947032,-0.3519166,0.8133474333,0.0003530257,0.6680012734,-0.947300635,-0.7969961322,0.9886786704,0.773690531,-0.552503444,-0.0970724803,-0.438236474,0.1302046685,0.294719097,-0.4658676791,-0.1521063556,-0.5211887803,0.8320814838,-0.9377375702,-0.8912727294,0.4863616908,-1.0070944966,0.6143760827,-0.4608512696,0.4636226339,-0.0724325007,0.7253919357,-0.1181921578,-1.073500142,-0.0177070319,0.8629912454,0.0283476194,0.5133170039,-0.3692451118,-0.5434763641,-0.8758669438,-1.6924027415,0.7865307707,-0.1993082016,-0.4847534455,-0.964180027,-0.4156191393,0.7944636362,-0.125143449,0.6856973864,-0.7417820351,-0.2134871586,0.6458649164,-0.0156213189,0.8277096478,0.7040705491,-0.9106730062,0.9762749018,-1.1122586682,0.2564860612,0.3424531296,-0.2312172581,0.0304955645,-0.6425260017,-0.349933223,-0.5811956618,0.0063332596,0.2716321362,-0.9373277721,-0.2948240203,-0.2335546734,0.3687216891,-0.0678025632,-0.0618708699,-0.2690504017,-0.8022684319,0.2003219162,-0.8634271837,-0.7648922218,-0.7090289366,-0.3466910526,0.9131717286,-0.2612162278,-0.1660280121,-0.2962663497,-0.401529565,-0.3182848237,0.7641958601,-0.6616646807,-0.6202601645,-0.8543122094,-0.7920602301,-0.6067478601,1.1808602267,0.5834153935,-1.0372742281,1.0452934263,-0.4536402099,-0.2492538631,0.7829083622,0.8949315389,0.4174466426,0.5362121549,-0.265068073,-1.1422341936,-0.0858497924,0.8178523159,-0.7468249023,0.7754741243,-0.7131908402,0.1817821746,0.3433901909,-0.9271779263,-0.44934388,-0.8714488349,0.5329920943,0.297412443,0.20875324,-0.7398260186,0.0742479834,0.3252917511,0.3039772361,-0.6407435466,-0.096174372,1.0115226797,-1.0375360854,0.0747963439,-0.24223266,0.4258675978,-0.3802967946,0.6461326302,-1.0537993292,0.4356303638,0.5892426128,-0.1324314166,0.3705018066,-0.5852102814,0.6593609523,0.3810088399,-0.1708873175,0.7587907479,-0.6792536711,0.4854658526,0.1768784801,-0.700541123,-0.6486934495,-0.7493351665,-0.0427408097,-1.0459520068,-0.5748320619,1.1675014619,0.9418707535,0.6520045904,-0.0571835192,-0.3625723944,-0.7031715198,0.4099321675,1.0161000855,-0.118123155,-0.0468881934,-0.7222244756,0.2554193271,0.7163298774,0.2471923494,-0.1219253387,-0.6222064927,0.6224093517,-0.2784853447,-0.7988656898,-0.2881636846,-1.2045639029,-1.1033420766,-0.4149461836,-0.2391420495,0.147323929,0.579068457,0.6351482103,0.4714986321,-0.0130079954,-0.2421706124,0.9805873925,0.2606090298,0.2574067623,-0.9476822946,-1.085797133,0.6946032239,-0.1895243715,-0.8005857105,0.4307867554,-0.4054299863,-0.653531689,0.3328338544,-0.3780886499,0.840021221,-0.1049500123,-0.7613413546,-0.1660086113,-0.6439422534,-0.7401100051,0.7632751456,-1.043445648,-0.1665429497,-0.3493048568,-0.0192058877,0.610187545,0.8858242392,-0.292079683,0.0671505478,0.8152077656,0.4315871565,0.408536527,-0.52966631,-0.6219876665,0.4514225621,0.5850407972,0.3443673234,-0.436894783,0.394786052,-0.4406164655,0.3975575321,0.7879473232,-0.1727630081,-0.0441946312,-0.0149155502,0.5147980658,-0.3709094919,0.1789348568,-0.5581162836,0.7696319261,-0.7360372816,0.8596609082,-0.2637098647,-0.4381107878,-1.3309294534,0.2465216444,-0.4681428922,-0.1464944984,-0.005186629,0.6754900672,-0.4628400079,-0.6963725139,-0.9544333217,0.3399821154,-0.9707642088,0.0805061062,0.5333292272,0.5783506273,-0.7797751181,0.025023447,-0.058884805,-1.6704091501,0.3776602518,0.0755696878,-0.3476851728,0.3322644137,-0.6940922495,0.8593558511,-0.5500182703,0.3888547573,0.9355410245,-0.5782700412,-0.0251982169,0.7071902301,-0.2589392561,-0.0757265052,0.3954473081,0.3416589747,-0.419487359,-0.3682865731,-0.2336869262,0.144843715,0.9936468609,0.236893826,-0.7721202814,0.5960558205,0.3349694189,0.779301563,0.9271479728,-0.2789523042,0.433047029,1.1590568432,-0.701286048,-0.598658654,0.9112997792,-0.1935257538,-1.0240440579,0.45222536,-0.1735946719,0.1164037974,0.8289977881,-0.8204131417,0.8192109888,0.4522158637,0.749446707,0.1181853774,-0.962695046,1.3957465791,1.1263461016,-0.8349973787,0.5682582562,-0.2013047096,-0.1784635044,-0.7772070766,0.8516167259,-0.3932102209,-0.8652239282,-0.6930089891,0.3910727935,-0.4082782628,0.0638257857,-0.5630817531,1.093190685,0.7361247518,-0.2197893929,-0.0088578314,1.1319553283,0.2557722724,0.0275274065,0.1332098438,0.0604091642,-0.6903442903,-0.2556651994,-0.5837084734,0.8954949662,0.2112839884,0.592843326,0.0921139549,0.3038359704,0.4405053538,-0.7650513944,-0.064270783,-0.628049403,0.3054069095,-0.973583773,0.3678679529,-0.1231943966,1.0701417147,0.098074187,0.2758472709,-0.4467781049,-0.0806279069,-0.946893329,-0.6267231931,0.4245274134,0.8689527001,-0.2874948143,-0.1106257084,0.9282975387,-0.0269688403,-0.6486977181,-0.8376057446,0.4387033694,-0.3038401281,0.0686914688,-0.7683776655,-1.0249587386,-0.2447257571,1.0075305204,0.0525581864,-0.0741589211,-0.0121263786,-0.5431975072,-0.2193120079,0.1284334823,-0.0416040243,0.2190771105,-0.0667625673,0.942443085,-0.0780972154,0.8559671652,0.3817408106,0.789642557,0.2463639518,-0.2911498927,0.465177586,-0.2744420847,1.0526207939,0.6379771405,0.0857989001,-0.7056567031,-1.1301714321,1.0413259421,-0.6561097893,-0.6836179002,-0.0395032517,0.4631400847,-0.1078845351,-0.8886811833,0.6998207051,-0.5131359882,-0.2181209062,0.0764423087,-0.4289431491,0.6778169572,-0.7306172581,0.6922598768,-0.5381182744,-0.9873679936,0.5119872906,-0.7077838137,0.0784917497,0.9227131179,-0.8396795176,0.6770291274,0.7375437133,0.4395589781,0.6957428777,0.8191706124,0.2848723394,0.4007335146,0.558783364,0.9855655457,-0.2335186751,0.7052701981,-0.5546168314,0.4309614529,0.2239817205,0.7980259952,0.1471450457,-0.924390722,-0.8910811214,0.2949971014,-0.8650508045,0.9297545818,-0.59426255,-0.7253522159,-0.6279686199,0.4104875607,-0.5448626736,1.1353023763,0.5955012471,-1.0148359553,0.570625472,-0.5132815601,-0.5085985267,-0.6502997585,0.3436016364,-0.2764670585,-0.1984569216,-0.4726940105,0.112230306,-0.8081853897,0.4070086849,-0.2475708568,0.7340055018,-0.2678134608,-0.6600948224,-1.0047557119,-0.2529142705,1.0178118353,-0.2367467325,-1.1466340787,-0.3277597205,0.985262616,-0.008893409,-0.6201300019,0.038832195,-0.0277462427,0.0074257453,0.2575127626,-0.0046801831,-0.1161233284,-0.3642492342,-1.1134985188,0.4521906617,-0.4588394704,-0.9347153434,-0.2230613739,-0.0789498159,0.4960843094,0.2766391569,-0.4410781391,0.6940484544,0.3072166312,-0.6267949854,0.3549296288,-0.2528634026,-0.9248168314,-0.3273587558,-0.7847188213,-0.6206046764,-0.2188013465,0.5178059602,-0.5565322626,0.8033701372,-0.7956463569,0.6412687444,-0.2665773073,-1.3511639408,-0.5108372168,-0.2068712631,-0.6554630819,0.8931862606,-0.2376644899,0.2632366153,0.221236398,0.8796405215,0.5435979276,0.5043969803,-0.4525551526,0.6129888945,-0.9845030463,0.5516595521,0.7456824766,0.0304920793,0.1283379389,-1.668684044,0.195348169,0.7227915797,0.4775978123,-0.8493157985,-0.5384942562,0.2904782732,0.6414886672,-0.1814145558,-0.3761304256,-0.0580098164,0.178514987,-0.085308136,-0.96705264,0.6068123761,-0.2752797504,-0.5429008082,0.4091608254,0.5617977781,-0.8726696504,0.1509927923,-0.0640232848,-0.7217083004,-0.7639202006,-0.0500006587,-0.2572391881,0.5310925875,-0.1427478476,-0.3228340793,0.8092691636,0.6412353101,0.2918396444,0.6115663581,-0.4050176499,0.7869621382,0.6705299799,-0.2271902541,-0.8815861507,0.6053202139,0.2871173672,-0.8523605672,-0.6719337685,-0.7786550671,-0.1524307092,-0.1037191558,-0.0243381201,0.1674267511,0.1139275426,0.7276313244,-0.0931009635,-0.081125022,0.3937022223,-0.5901499545,-0.7418652298,-0.0825682191,-0.3931676214,0.6395511213,-0.6568012543,-0.8368639573,0.3889133976,0.5356532925,-0.4919497253,-0.2275883843,-0.1605292607,0.3046878083,-0.687396215,0.0405969073,0.6296828755,1.0195669577,0.0232184134,-0.0843765651,1.1469015644,-0.6850241159,-0.5988506,-0.1257545189,-0.3755081112,0.1002506125,0.766649518,0.0601713138,0.5859698854,-0.3171369025,0.3932486882,0.025947491,0.1863399184,0.4218142412,0.2804612984,0.2191686077,0.3576517774,0.3423550674,-0.8773493856,-0.9991552925,-0.8630105144,-1.0067188148,-0.7162871026,0.8041668153,0.9970837812,-0.002843773,0.8081252621,0.4822733113,-0.2847401961,-0.7078281151,-0.1297575798,-0.5729181773,-0.5223512169,0.6373990777,0.4397033457,0.7932691406,0.2681728365,-0.5813519324,-0.2450209296,-0.2337574653,-0.3770333025,0.5167711059,-0.022198256,0.557551046,-0.3338374424,0.9303137522,0.6041154356,1.1202711659,0.6955490998,1.0196022443,-0.2622947326,-0.4227508049,-0.5712628389,-0.3022976168,-0.5451737009,0.3121281189,-0.1432787038,-1.0833834993,-1.3236326828,0.6882018888,-0.4053045429,-0.1485952473,0.6336145281,-0.5833545188,-0.975302183,-0.3525223525,0.2753782096,0.2553862593,0.3614044303,0.7913862233,0.5139134802,-0.269538488,0.9582209797,0.7149253217,1.1145694686,-0.623827076,0.6485654695,1.131907218,-0.2539975846,0.0783076735,0.443769773,0.7445158384,0.7170442065,0.9966995085,-0.5467148153,0.5858869363,-1.1196648358,-0.0194260228,-0.6740472079,0.9340401142,-0.0153530628,-0.5103477749,-0.8468091903,0.0573520431,-0.1217217295,0.3364428366,-0.4066508419,0.0794796212,0.4400351472,-1.03143582,0.4046080399,0.9160594633,0.2142701629,0.1858094183,-0.2509068142,-1.1574501503,-0.0406213337,1.1755173856,0.7924299655,-0.6055447485,0.0388085461,-0.0203354839,0.1524931712,0.3047421114,-0.1357972807,-0.0110333142,-0.2027898664,-0.402831501,0.2099289931,-0.1091221061,0.5294758229,-0.9823085118,1.5344585414,-0.7243456494,1.3211456536,0.1261530122,-0.1110816388,-0.957218676,0.9368514341,0.2488778626,0.8305255121,-0.6694785117,0.4169983853,-0.3111221544,-0.6899745947,-0.2246468358,-0.433486442,0.2420275373,0.6402299564,-0.4521363363,0.5534519367,0.5910224084,1.1400994722,-0.1171884601,-0.9668935597,0.225475572,-1.5058959599,0.5596153492,-1.2848349656,-0.2323323734,0.3011996286,-0.286459368,-0.61605335,0.0303903937,0.3389461772,0.1537061563,-0.2518171404,-0.6457887499,1.0237274173,0.2736568385,0.259831864,0.0873131776,0.0414552748,0.2496242963,0.5356733592,0.7220884658,0.7218638691,-0.7501300654,-0.2304349631,0.0228172318,-1.2981537326,0.2893601932,0.2363588926,0.6075297373,-0.2021329002,0.2423543527,-1.0081404086,1.0619328995,0.061390118,-0.0517215898,-0.6368795199,0.4553137546,-0.5232083776,1.0073468494,-0.1527125467,0.253555327,-0.9183572768,-0.5064485616,0.3541818595,-0.1056740622,-1.3151198436,-0.3163876468,0.4853379646,-0.4153767428,0.6590860197,0.1372284991,0.0188669898,-1.2507767608,-0.0019063526,1.104138632,0.1270397213,-0.6696515823,-0.126798842,-0.2863533188,-0.6502477903,-0.8472942282,0.2496385799,0.539748688,1.191596261,0.2078529921,-0.7673376166,-0.3630571935,-0.688991825,-0.4186132605,0.1113060237,-0.3941057328,-1.0331009882,-0.0462466381,-0.5223737022,-0.3011135998,-0.6600375783,0.0863211174,0.8748272571,-0.402430466,0.5921519688,0.0821987773,0.2033383637,-0.440715702,0.600435464,0.4495525729,-0.3168454293,0.9366717811,0.1055341355,0.1327660994,-0.7491514045,-0.4602820427,1.1704973247,-0.0389183755,0.9667987784,-0.2174422429,-0.1878997189,-0.7582520009,0.8535053753,-0.0607617785,-0.8566032151,-0.4578181934,-0.0454711561,-0.3427937918,-0.0693169297,-0.0349175787,0.6024446055,0.3106357044,0.8431670605,-0.7234967825,-0.2580635659,-0.3236809644,0.8532201173,-0.5808660273,-0.0018159986,1.1006777593,-0.5137072479,-0.494618338,-0.7209304045,-0.4033911718,-0.390792097,-0.7679101347,0.2348807263,-0.5520399696,-0.2827422219,-0.439809509,-0.704415212,0.0683689231,-0.2230839768,0.3155442849,0.0458675317,0.2811119342,1.0171552127,-0.6193427292,-1.7287539184,-0.3609857836,0.24658621,-0.7729884766,0.4757771385,-0.1286525905,-0.5008845115,-0.611686475,-1.143697109,-1.1199304696,-0.1228283176,0.4120444587,-0.5383999923,-0.2274354602,0.1777375586,0.6841472738,-0.1845426165,-0.317608585,-0.3573584073,-0.6228494212,0.0659304899,0.3085398402,0.7919109293,-0.4990918605,0.5392651643,0.59433004,-0.2379584277,0.495262175,-1.051012,-0.688942013,-0.3013105618,0.9654350607,0.2207876257,0.8863287927,0.6650002826,-0.5766551093,0.1321612574,0.8925186385,-0.8975176633,-0.0950213212,0.2442201342,0.9466546615,-0.9674261903,-0.5411466072,-0.2864350243,-0.0145799989,-1.1062680307,-0.893715553,-0.3140096519,-0.5375502333,0.0785710807,-1.0097934202,-0.5767523745,0.2875904371,-0.9079488558,-0.220969854,0.7904468247,-0.1742336658,0.4214654646,-0.944392565,-0.3967965415,0.423328306,0.2664055967,-0.0032316081,0.7169939913,-0.5619717155,-0.8387830408,-1.2070752895,-0.5655846067,1.0169352601,-1.6430463352,0.4213883131,0.5704210367,0.685755899,-1.3431765127,1.0884678303,-1.046675771,-0.7194519721,0.4145841566,0.1898374639,0.3593554233,0.146799623,0.5407910883,-1.2870528838,-0.934243777,0.1964984933,-1.0992900642,0.5739369565,0.0050140236,-0.6424537695,-0.4719767998,-0.2291798536,0.7098536943,-0.514859641,0.2251659894,-0.4247260099,-0.0077847808,0.085932423,-0.9243674988,-0.3941482874,-0.9551923482,0.8657424737,1.5589903469,-0.4969142407,0.6184834805,0.1208945249,-0.8184496664,0.9625729161,0.691841555,0.5559911035,0.9332907077,1.6124233144,-0.7233461779,1.5583791083,0.3120640439,1.6559583614,0.0571514921,-0.1472721935,0.864754389,0.6691639771,-1.1122976538,-0.0286514432,-0.5585131757,0.2054431835,-0.2315118382,1.6755918924,0.9570701035,0.3554830134,0.102279613,1.1171939744,1.4630383597,-0.8038854823,0.6016638212,0.9420344666,-0.0510357149,-0.9538555247,1.5425827708,0.1433793786,0.0476107466,1.5500711703,0.0778556,0.4499878883,1.1891765196,0.9119343172,-0.1288930202,0.7273357871,0.9975008181,0.5975173226,0.016650909,0.4761857083,-0.0229234492,0.2555946736,1.2377905067,1.6173337207,-0.2632918773,-0.1442778189,1.3939319676,-0.4370415818,-0.0407445502,0.1273108523,-0.2889952781,-0.0165076217,0.2465957601,1.0352202717,0.0981297265,0.9251733043,-0.3061910537,0.1096815943,-0.4221144431,-0.7037639426,1.1428749608,0.2692119615,1.202989502,1.3179915967,1.2426732227,1.1367308661,0.9206403455,1.1551665563,0.3294866172,0.8907480949,-0.297610057,-0.5170567274,0.4366131485,1.3481511657,-0.2705440093,0.291529917,0.7971945823,0.8424247545,-0.324124743,0.061684551,0.8241229764,0.3252641124,1.4405874346,-0.3417337812,0.9633551121,0.1380351345,-0.7693468146,-0.731206075,0.310308325,0.4372652282,0.6927423912,0.6657554397,-0.1093474225,0.2780155302,0.4598739991,-0.7028679356,1.1888035309,0.0108223256,-0.9342244965,0.1304307421,0.7882756846,-0.05738408,-0.1963726889,0.7425080094,0.770133923,-0.1992763715,0.7179788042,1.7056186908,1.3705758926,1.2213276698,-0.2262112554,0.8981862066,0.3869861004,-1.3672284818,1.0199506343,0.068811836,0.2265125041,0.2505654939,-1.1812956563,-0.2851877503,0.1128026262,-0.1949550633,0.6547462658,0.6163609352,0.0873638619,-1.2065997489,0.4539119529,0.6233342938,1.0150505574,0.0739048155,1.1247069292,0.7536388569,1.3305041848,-0.5527627448,1.1601355084,0.558682775,-0.6349149842,0.2541048789,-0.4226685884,0.9313821825,-0.829789209,0.2193222588,0.7941258575,0.2236302492,-0.3042081108,0.1696399769,0.1234340358,-0.368286794,-0.8790611464,-0.9288982607,0.4037522883,0.9320025494,0.5328758291,-0.3114738439,1.4474173371,0.1305062682,0.6389656999,-0.481685463,0.0914234596,0.7985452514,1.7151698657,0.3188422776,-0.4066589704,0.353997458,0.4008600752,-0.0333782147,-0.0056926646,-1.4882235929,0.978640218,1.4289470875,0.066841044,-1.6669232066,0.4523929715,-0.0653503939,1.1591962835,1.5809051767,-0.3086969624,-1.2369168733,-0.289902116,-0.6223960538,-0.4369457383,-0.0214588782,0.0642497607,0.2260589719,0.8814905613,0.328700846,1.3969558138,-0.1670734804,-0.1004130668,0.09566522,-0.0866734968,0.5090860644,0.2569372867,0.2695529155,-0.4947579173,1.373445485,-0.2189409187,-0.6483536381,-0.7689738307,0.24367093,0.5578459046,0.1290534744,-0.1104162905,1.3531816903,0.7248245498,1.548749454,-1.220294819,1.1357178758,-1.3928630717,0.1592009693,-1.7104429729,1.1523498073,1.2749456192,0.7678913248,0.9338793938,0.6656896055,0.9179778113,0.0756058094,0.1069069734,1.4603447273,-1.6079702563,-0.7328494032,0.5417221575,-0.8718703203,-0.5453953536,-1.3041297415,0.6363146333,-1.4999378989,0.6093987272,1.4722129527,0.6480015025,-0.311919731,-0.4304751875,0.0724048004,0.0872810421,0.2877921476,1.0578546258,0.0138795084,0.6606650377,0.4203575397,-1.0337342741,0.9455912301,-0.1723329223,-0.1550733996,0.6887579495,1.1135454638,0.5496025997,-0.6405443576,-0.1693406598,-1.5847367154,0.4230429011,1.3998235174,0.8590105964,0.9611933813,0.3143901055,1.4812015717,1.5150597642,0.0682010493,0.7552097728,0.1377735841,-0.0071550213,0.3247807487,-0.1756807966,0.1330629127,-0.9786036996,1.5053065495,-0.7739593241,0.1978426056,0.3804052622,-0.2242226924,-0.4839449678,-0.6521981956,-0.3149284581,0.237695497,-0.2671618129,0.0020234928,-1.7242617014,1.28886275,-0.9232531215,0.0233634729,0.2257591416,0.8617077162,0.6868247925,-1.0644855937,-1.0427798103,0.9190097853,0.3607713763,0.8945007247,-1.1641604441,0.2250457453,-0.2376437142,-1.7280609953,-0.1588177925,0.1284630352,0.4017494602,-0.9243983465,-0.8926779658,-0.1669964084,-0.3969753152,0.1501553034,0.8414825132,1.5757538881,0.8875102212,1.1751792887,0.3413559308,1.0094196514,0.5955520465,1.5605552019,-1.4864722752,0.6255948626,0.5490581746,0.8613424094,0.6421629778,0.8937426668,0.9451827454,0.2574853258,-0.3114996215,-0.1610394666,0.8953003315,0.3400598845,0.8238642274,-1.1929705157,-0.188424181,0.0456807638,-0.341342947,-0.151948319,1.0101972015,1.2651359645,0.4360077595,1.3191111398,1.7229377612,1.4355858571,-0.2939813017,0.5021221302,0.1018965698,0.2093052488,0.9382297689,-0.5003408621,-0.0011591032,0.1672759577,-0.1652003722,0.6229155855,0.6421653689,-0.0981341861,0.6263275865,-0.054485909,-0.2441720615,-0.2251732059,0.6801629125,0.2290640364,-1.6583135566,-0.2585336454,0.3362898489,-1.2302738352,-0.8061892164,-0.5073518031,0.805435009,0.0909232295,-0.1917831057,-0.0241931469,0.1383640303,-0.8773433369,-0.08647169,0.8330966356,-0.3921852683,-0.2432218154,0.5272488222,-0.9623227687,0.4432822061,-0.1857301306,0.4319650317,-0.6578511061,0.1619477123,-0.788119592,-1.4581780992,-0.9555158328,-0.3448710698,-1.5913517385,-1.0157144803,-1.5844027098,0.2193161197,-1.4601969474,0.492925603,-1.265540476,-1.198849473,-0.2773203619,-0.6212636774,1.1580937402,-0.4610522411,0.2096770979,1.0336856543,-0.1878620188,-0.8255901853,1.1721904111,0.9295799316,-1.0128850755,0.2342763792,-0.5916588126,0.2632671092,-0.5602905261,-1.2850801205,-0.2524298878,0.0954818875,0.2205550299,-1.6477674706,0.2859651567,-1.5039577527,0.3708307515,0.2548187318,-0.9399293213,-0.8528758758,0.1590702491,-1.4999766543,-1.2740717382,-0.4211750907,-0.7103712084,-1.0598896089,-0.185021675,-1.6225589163,0.1710144262,-0.0820975635,-0.9888852118,-0.6237241176,-1.1687706802,-0.1715853416,0.3733249703,-0.9438929471,-0.0324861548,-0.7336701115,0.6269574024,0.2523516099,-0.515417056,-0.2254561979,-0.6574424836,-0.0737381678,-0.0476876621,-0.0578987383,1.0084966535,-0.3595094222,1.5038148537,-1.5128369497,0.5301982145,0.145811921,0.0512124942,-0.1566273767,-0.2273260734,-1.6986592127,0.0103635677,-0.9247769866,-0.024397462,-0.2023178213,0.4242805984,-0.2998922832,-0.1804743614,0.103031267,-0.5805625288,-0.0745578913,-1.305598018,0.5449609303,-1.2298031829,-0.777445532,-0.2412682905,-0.0217114499,-0.9169560326,0.6265128998,0.1405894997,1.4455735186,0.1065838679,-0.7836033316,0.1262627324,1.2309439776,-0.7055808139,0.7885015118,0.5940309748,0.1569715885,0.3849301132,-0.6620709637,-0.3310482907,-0.181454679,-0.5502516132,-0.6380830906,-0.743475734,-1.4622799126,-0.012086296,-0.8931220229,-1.4639039661,-0.5891597391,0.0971154717,0.1016019999,-1.4124235209,-0.9360851751,-1.5379004218,0.2026596972,1.0206361845,-0.590519439,0.8542830079,-1.2721185499,-0.73705855,-0.1362200791,0.2837818489,-0.2653067503,-0.9680578867,0.0849454106,-1.1648943668,-0.840573752,-0.1786638468,0.3514349587,0.1501655283,-0.2949913159,-0.4517858967,-1.387587918,-0.956616382,-1.092489002,0.2119357172,-0.7066128326,-0.3960847467,0.3326747001,0.5078239001,1.4914216799,-0.8707722163,-0.1148831614,-0.6870404042,0.8585799991,0.33405275,0.9477782229,-0.4755803811,-1.1602935949,0.4400291031,-0.583283359,1.4933910129,-0.5150331456,0.997083648,0.3924412289,1.1618909661,-0.3735235802,0.9269507971,0.3457271449,-0.0030316726,-0.2395984457,-0.7653377767,-1.6726736179,-1.0288754028,1.5090900381,-0.0863603656,0.7500162886,-0.1908409472,-1.3965893214,-0.1787160058,0.2352597311,-1.5934862784,-0.5210145322,0.6002846555,-0.9228623442,-0.0319339509,-0.1036926427,-1.7307333177,0.3776076088,1.0567012293,0.8912920408,1.0145772368,0.7443983772,-0.4520119132,0.9954224391,-0.4208619106,-0.0380428542,-1.0984676775,0.0138259851,-1.2319641556,-1.6369420305,1.556465353,-1.1446471976,-0.5625408582,-0.5051650118,0.5617041531,-0.2049190642,-0.2251653958,-0.3002661905,0.0796220553,0.613976011,-0.3353917151,-0.5593600334,1.3025485197,-0.071493181,-1.4127382938,-1.5975844614,-1.5751509954,-0.1227854259,-0.0900139121,-0.1551363866,0.1855615354,0.4537220316,-1.2658424117,-1.147566342,-1.0560733342,-0.0905723269,-1.5727435032,-0.2412869387,-0.6456025979,0.1077504471,-0.4817843552,0.4723927557,-0.0762282511,-0.8542607387,-0.6093963893,1.113787033,1.4908539692,-0.0517311666,1.5365499537,0.0727662339,-0.0305466173,-1.5764033911,-0.2721765947,0.1634209691,0.3041671681,-0.3316412275,-0.4678176862,-0.83559467,-0.1041041234,0.2837117062,-0.8105642429,1.0559078396,-0.5390074017,-0.7968135165,-1.4293975696,-0.7289059097,-1.5885460855,-1.450183091,-0.714095069,-0.3211216861,1.0894384361,-0.4398392926,-0.9700952258,-1.2345399168,-0.8575515467,-1.0342896695,0.258721847,-0.7067033908,0.4869743728,0.9592455823,-1.6650467476,0.5020974828,-0.1438413775,0.3701744718,0.8681383741,-0.578136944,-0.7146396414,1.1175385687,-1.1803360647,-1.4142820199,-0.9871490264,-0.0078556748,-0.0565520233,0.7189896562,-0.5648094253,-0.1405096301,-0.7318234808,0.5598641095,-1.4586988093,1.3267930129,1.1716108106,0.7035564378,-1.109000313,-0.2037051597,0.0549452568,0.9433508909,0.2474348085,-0.9629372847,0.6850965081
   0.7367721461,-0.901418927,-1.7292568684,1.200221734,0.9024914955,0.4875678995,-0.3047098878,-0.9027753204,-0.471982346,-1.0179034779,-0.7223885463,-1.1363686962,-0.4946144167,-1.2651299037,0.2496611178,-1.0198217084,-1.0415888648,-1.4418134087,-0.731504921,-0.6678690567,1.1109389731,-1.2409252342,0.389898092,-0.1396595451,0.4717643355,-0.1323519872,0.1892643358,-0.9787050311,0.2657505547,-1.196881462,-1.0110754902,0.2355292444,-0.1846422036,-0.1146294136,-0.2638233446,-0.4884008193,0.8128827886,1.3102683308,-0.8802751764,-0.6376322339,-0.2567774916,-0.5617234048,-1.4035001678,-0.3426071784,-0.3842347283,-0.2083438529,-0.3709941189,0.4643291801,-1.4160839883,-0.3549399024,-0.2110891164,-1.6624681204,1.2316354519,0.3920238317,0.0007635712,-1.5450268102,-0.3913337837,-1.2947371664,-0.0265403342,0.9245794582,-0.5216457844,0.7422580117,0.4098831113,0.7168457809,-0.6098095464,-0.2418542863,-0.0433274221,-0.2410392027,0.4748141374,0.9586684838,-0.6698392362,-0.0273263779,0.1038569437,0.5540558132,-0.0054283424,-1.0761386481,0.879743851,-0.7034166195,-0.32369669,0.3943599755,-0.6952536553,1.0154843074,-0.0951436121,1.020185159,0.2238161457,-0.6565856749,-0.0199161696,0.1392283495,-0.0630373649,-0.4197483916,-0.5558696009,0.213407242,-1.2129743642,-0.9264708727,0.1657785312,-1.2095377904,-0.675623716,-0.4826465181,-0.6973461062,0.7453570625,0.4234442501,-0.939533762,0.8085164448,1.1921661738,0.9158380274,0.0986583448,-0.0847594261,-0.4423528574,-0.2396383336,-1.3193526203,0.4736951733,-0.542979893,-0.0083219627,0.4396794765,-0.9891201178,-1.4430227328,-0.6812843983,0.1687129513,-0.4369215553,-0.6045876012,-0.9672708773,-1.4844416907,-1.2718839824,-1.6716291905,-0.3127484425,-1.6810299999,-1.1800196846,-0.7530852594,-0.7167268042,-1.6792075757,-0.454541198,0.0249106685,-1.22252324,-1.2286833609,-0.7396090171,-1.195962125,-0.23813549,-0.4913900661,-0.2436327082,-0.0300803949,-0.1991356543,0.1952161276,1.3807557016,-0.5810540212,-0.2948866691,-1.452484429,-1.0629584655,0.1622956123,0.657251503,0.2601194038,0.5946931257,-0.2252577862,-0.3713963907,0.3251408424,-0.1068747285,-0.1331063592,-1.4502410687,-1.2614053361,-1.5671292881,-1.0122949027,-0.7860859918,0.2229167775,0.0820614269,0.7891554277,-0.8021444318,-1.3595658459,0.9768095699,-0.3621947681,-0.0914794893,-0.2904193542,0.177928139,-0.2378456099,-0.7969148383,-1.2928843865,-0.2150320085,0.2968831256,-0.324269825,-0.1171403643,0.9965819739,-0.8702849669,-0.305903383,0.776261147,-0.4895959914,-0.5950078017,0.906159772,-0.8065712775,-0.1041837439,0.7812084043,-0.192859597,0.0609267591,-0.0837787627,0.0511512228,0.1660862088,0.0708152306,-1.0962736833,-0.9341368409,-0.2119107575,-1.0034788221,-0.3916784916,-0.5048523693,-0.4122160454,-1.5333478829,-0.7674368105,-0.5943492574,0.0759103959,1.7366305367,-1.6068950808,0.8751995245,0.1197499644,-1.6168237775,0.627632968,-0.4127307274,-0.4721963993,-1.3753852704,-1.5727185061,-0.8757245664,-1.6618025071,0.5559494453,0.239851912,-0.7179945958,-1.1979506241,-1.0932307947,-0.7839666246,-1.4635939701,-1.2976799734,0.3071177149,-1.1674794179,-0.4755893335,-0.8815859242,0.4020020666,1.6315396436,-0.96976952,-0.0467964131,-0.7002696161,-0.9425364767,-0.0601813039,-0.4967746732,-1.328071172,-0.4585628176,-0.2614420658,0.814145621,-0.2384661034,-0.8170516005,-0.1000008337,-0.8769317574,1.170799983,-0.5697798785,0.8236109296,-0.6356747124,0.9399198993,-0.7223097746,-0.6721938206,-0.8378731525,-0.7075555274,1.5963574961,-0.0955535173,0.6165636541,-0.4560252596,-0.7035224182,0.8767594857,-0.0978221639,-0.6018134722,-0.8927850244,1.0711888993,-0.9730130403,-0.2107367884,-0.2909782406,-0.0025043937,-0.6231805893,0.9430272406,-0.5235635665,-0.423973204,-0.3204684438,0.2865997932,0.1900798491,-1.6024464446,-0.7712311948,-1.1599503047,-0.0152040447,-0.1666464218,-0.8884254442,1.2347974386,-0.7023686554,0.1723880763,-0.5772765621,-0.1093041877,1.5308944793,-1.3321931868,0.1449623683,1.5500502249,-1.0189968805,-0.3851832754,-0.4903778044,0.5086251677,-0.7692161858,-0.5872880462,-1.2629194372,-0.2255614124,1.0584925146,-0.605587614,1.4284097403,0.4732109345,0.350927196,-0.5914429988,-0.4855134056,-0.005940712,-0.4956280378,-1.171072051,-0.1853126203,-0.5707027694,-0.0245444886,-1.6997465007,0.0136569615,-0.6829348577,-1.4267373833,-0.6205266546,0.7202406227,0.0600525836,-0.278534562,1.3562512135,-0.0727089142,-0.2549850478,-0.3427701222,-0.3841497449,1.2201337632,-0.1145879149,-1.5962983248,-0.1042609382,-1.3570669784,-0.0138591058,-0.5985116318,-1.1992315326,1.4483105561,-0.8596336728,0.0139043397,-0.9592990508,-0.22923288,-1.0162001942,-0.6810916147,0.9660368562,0.1419288007,0.1584703561,-0.6998895821,-1.2084988176,-0.0505354402,-0.9118049008,-0.338597617,-1.2773919662,-1.199842299,0.1833041938,-0.2903315829,-1.2740359734,-0.4354196015,-0.1381189937,0.4271469702,-0.5543379561,1.0473344233,-0.3539178162,0.8275408445,-1.0008891736,-1.3057605464,-0.694455596,0.3622195963,-0.9678339024,0.5648117949,0.0450986357,-0.6065790894,-0.7822745202,0.3493915785,-0.4016655967,0.5394153082,0.659878301,-0.7464938982,-1.5282901649,-1.3001926249,1.5841480473,0.9071032347,-0.4928472617,-0.3312855956,-0.6017549386,0.9897508147,-0.0839984126,-0.5229905317,1.3577535772,-0.4031144044,1.6064596541,-0.2647403263,-0.2074829905,0.7540173271,-0.3286681563,0.5115089633,-1.6846469772,-1.3011387952,-1.2517395733,-0.7612754273,-1.0431522777,-1.0670999506,-1.3025476229,0.5433225395,0.1805563747,0.6267364918,-1.3030552621,-0.4461775007,0.0309064752,-0.5652400098,0.2173956347,-1.1010255653,-1.5368166966,-0.7079723907,-1.2933428639,-1.6048855994,-0.8778909621,-0.3503066174,-0.1917605376,-1.5688808958,-0.2434259875,0.6937653603,0.7657953319,-0.4772892957,0.1774286588,-0.615993016,0.0823659143,0.2441946978,-0.9723907342,0.4307561585,-0.8483953428,0.2409841696,-0.709511478,-0.4565396764,0.1103869815,-1.4766652036,-1.3811141808,0.1000663527,0.3944098968,-1.2249315143,-0.3902416173,0.9449798107,-1.3465703258,-0.6919166562,0.0172309432,0.6119971037,0.3581428278,0.5146808423,-0.1573190873,-1.0577812251,1.5797194373,0.143011444,-0.3832384895,-0.9100001537,-0.3303634211,-0.6505744742,-1.0602541855,-0.6054558029,1.0363697941,-0.9307709864,-0.6565105904,0.1595419388,-1.0464743461,-0.7584357054,0.0126187044,-0.0209883289,0.7261385848,-0.7937757933,0.0687531474,0.5178996376,0.6065114707,1.2431222263,1.1872374317,0.2993203966,1.5881840317,0.165007964,0.3612462022,0.2019701339,-0.2199220475,-0.1686947484,0.1062095957,1.109477205,-0.1629799735,0.66951121,-0.3186190112,0.3029367806,-0.4986012398,-0.0897735607,-0.3312935171,0.1765993307,-0.158198963,0.1340700714,-0.0148841851,1.3499211277,1.1382996038,-0.771950033,1.6755612963,1.3918979819,-0.0526655205,0.5788268805,-0.0611009294,-0.2165181514,0.0338575065,1.6655078726,0.2917200712,0.8510444051,1.0856116964,1.717727046,1.6132976296,0.5900953855,-0.1821162218,0.5897691624,1.2411606124,0.4868498566,1.5744273887,1.0235850294,0.7688686229,1.0574675607,0.2356105929,0.1947822448,1.0261380389,0.1708293658,-0.6545251587,1.1546618784,0.0195945046,1.5588860348,0.1731177741,-1.475908012,0.2592332651,0.745575352,0.4251763632,1.4453192015,0.3293405363,-0.793097783,-0.0928832892,0.4860310322,-1.4599072728,0.5059089099,0.8253331036,0.5601459045,0.8899532004,0.6546339548,0.0812420479,0.8728683436,1.3398006372,0.6119448398,0.1140101396,-1.4091445413,0.5910928842,-0.7284948763,-0.1481266874,0.2643326653,0.9170787887,0.6245054459,0.4711545312,-0.4156797886,-0.1631884973,1.1232791163,1.1537524073,0.1758774449,0.5056410394,-0.9174298278,0.1168799473,-0.8369858954,0.5082679154,-0.0344594743,-0.0931184056,0.919958934,0.4151233914,0.5603676969,-0.5444814543,1.4007308636,0.892509156,1.4279416201,-0.6615376608,0.451476916,0.7204391644,0.2332503995,1.6727423496,-0.1911428156,1.288802923,1.6323120078,1.6149101604,1.2910127658,0.8563627108,1.165611273,1.1921827264,0.6253387713,0.8399611978,1.4676041758,0.0118668852,0.9901792276,-1.1003934634,-0.0315406836,-0.2070529273,-0.403297688,-0.0524384552,1.144990395,1.4288390693,1.3487672641,0.4997962868,-0.0550947798,0.0608757388,-0.5680446363,1.7259481607,0.1323541559,0.3712739613,0.3493159457,0.6171032666,1.1888839276,-0.5373188751,-0.1931446619,0.98797542,0.2432638683,-0.2308785197,-0.0975104504,0.5050996062,0.8883077026,-0.000715963,-0.6440601525,-0.3906699803,-0.13403863,0.1670458343,1.5701856832,-0.6684166597,-0.5461757998,-0.0412969028,-0.0318883407,-0.0317545711,-0.2696705068,-0.9412919936,0.0333261051,-0.5901348312,0.002244122,-0.0771244237,0.2771658738,-0.2030283296,0.3590869984,0.8890922428,-1.7039510554,-0.4348704059,-0.7723884558,-0.1790830834,0.317260866,-0.1821592236,-0.2940230564,1.2505555546,0.096206464,-0.890252557,1.2100417437,-0.0943195273,-0.0772330248,1.3893897501,0.5156803051,-0.1467991725,-0.3537778013,-0.3192946151,-0.02450017,-0.1180770518,0.507121739,0.6155006217,1.2786748385,1.4109590138,-0.2028979532,-0.1561726979,-0.1391742386,-1.4915250866,0.6800927761,0.3521719541,1.3094370406,0.8871773293,-1.5677124954,0.5297517533,-0.1407502399,-0.1958156849,0.3334602596,1.3945185949,0.0553395034,-0.3487156657,-0.2120489909,-0.031623948,0.2765532829,1.0827349107,-0.2576050297,1.2744375119,-1.0702872585,-0.093417185,0.1858867897,0.9782403125,0.2336052471,1.2046796859,0.2211818621,1.6526967988,0.186099844,1.1136928067,1.6615738835,-0.0669552784,0.6035193263,0.7239096022,0.4193246176,-0.0219464209,0.6791931368,0.1461436474,0.6116694695,-1.0263956795,0.3044903584,0.2151821304,0.9259526693,0.7169450694,-0.413160477,0.0606409558,0.5262546285,1.6750443731,1.7284385084,0.2304952858,0.0229111229,0.25437561,0.0075688964,0.0910118585,-0.0150677257,0.7982303727,-0.2326396285,0.4090834973,0.7498484422,-0.5791196761,0.714563405,-0.2674368809,-1.0041079809,0.4438080319,1.553625368,1.015396318,1.7110233902,1.4404760074,0.4522228649,-0.3467698611,-0.2193590654,1.5641558119,0.7050285725,0.8437515601,0.9972257758,0.5592662496,-0.8581900879,1.1611028476,-0.9803600498,0.5360572463,1.2732839721,0.7458235361,-0.4216590736,0.3472311088,-1.6502579693,1.5714975172,0.3034296218,1.0557888909,-0.6538121994,-0.2232349883,-1.7329831265,-1.4676567728,0.7553290065,1.3690168544,-0.2107578224,-0.0033892092,-1.2537807026,-0.7121524088,0.3175359587,0.0123109048,-0.7844291061,1.6245477668,1.0455016438,0.0187920069,0.2063534911,-0.3564446704,0.1210073593,0.1309546497,-0.4334644976,0.05762454,0.4892034586,0.5727158387,1.3219415243,-0.0055472446,0.2470869261,1.550979551,1.3093126682,0.8943151445,-0.5140524145,1.2186784397,0.0653882981,1.608655905,0.4821682647,1.7209932442,0.5983356575,0.0115992766,0.5563423778,1.2655181872,0.2829896244,0.4140043869,0.0092094787,0.7747114575,0.401377342,-0.6178931291,1.4580627694,1.3352715818,0.9016648646,0.3008032043,0.8207450291,0.1945486335,0.5814607123,-0.0895990389,0.8840266443,1.6188061149,-0.3061776128,0.9220715358,0.3410939678,-0.2016838475,0.5536167888,-0.1342084252,0.4162922388,1.6807523137,-1.1344515151,0.903192125,1.1541366713,0.6009158255,0.2854195213,1.3799675677,-0.1563873718,0.8139175962,1.0096786293,-0.3888149254,-0.865945548,-0.5074629322,0.0732941737,-1.449548471,0.3232472958,-1.3350422848,0.6334581124,0.4150290502,0.8080201515,0.4956193112,0.8421444017,-0.4339347044,0.3447199993,0.4952514924,-0.4684876335,1.6550062639,0.0277119791,-0.3098348407,1.1846917138,0.2609181087,0.3981713212,0.5403051366,-0.7767732779,-1.1814762148,-0.3657057548,-0.1304470878,-1.0110303067,0.7883390512,0.112598127,0.949614132,0.6770960815,0.9173928597,-1.0967481989,-0.16664698,-0.1542147537,0.5396278489,-1.0344987108,0.394023539,0.5708087053,-0.9499654683,0.9491967715,-0.0786603623,0.3687526479,-1.3094778321,0.3953247417,-0.624607106,0.5503057251,-0.0283152287,0.9349264988,-0.9090700931,-0.343581035,-0.4779139888,-0.6487023806,0.4971794128,-0.57816252,0.0420595434,0.0303186998,-0.2631436083,-0.1842304399,-0.8181320205,0.0022930282,-0.7923790887,0.2227290054,-0.3415947575,0.5977939893,0.725509544,-0.1665689371,-0.1085485886,0.1023950205,0.6854563002,-0.8346744755,-0.693033019,0.5910790477,-0.6516559828,0.3657641992,-0.8160470873,-0.3473136425,0.7722208591,0.4988002552,-0.2811123911,0.7752834483,-0.0165910006,0.6681871492,0.2984504708,-0.4300223463,-1.0345370137,0.6329086019,-0.0038483417,-0.1013870184,-1.1702768242,0.1719433113,-0.3299471961,-0.5655666622,-0.5017764852,0.1158386647,-0.4861686328,0.3037926439,-0.2207657624,-0.3200682455,0.9286360788,-0.6986798283,-1.1848321554,-0.4345024856,0.1818811308,-0.8225966005,0.8481339021,-0.8897039572,-0.8718336968,0.312867981,0.8151625361,0.931479445,-0.6994730653,-0.1383320934,-0.4688427105,-0.4723929908,-0.6139949893,-0.1955588389,-0.5835597754,-0.4318310887,0.7913963453,-0.0423084059,-0.1975979508,-0.6500743034,1.0708123139,-0.1499683197,0.673442638,-0.7267050065,0.3580905324,0.6632668061,-0.6169957321,0.407416888,0.900612109,0.7002523909,-0.54681585,-0.9460290281,0.1003422906,-0.0617059047,0.8850468648,0.6683880898,0.4372353055,-0.5605869304,-0.3112617099,0.759279875,-1.179805302,-0.5265445701,0.0679001152,-0.8910235648,-0.7540897839,0.041991816,-0.8435830672,-0.358998974,-0.4870727789,0.1720042598,-0.9231578989,-0.9057244167,-0.4563729884,-0.5292295221,0.5825100774,0.6547423352,-0.6006819075,0.5151620232,0.0928542096,-0.2828970099,-1.0451463272,-0.2898448982,-0.7391547582,-0.4186762623,-0.4023903369,-0.6287509574,-0.124227436,-0.8413532175,-0.0202726986,0.6994716676,0.9256974353,-0.2180985395,-0.3623061707,-0.0182792749,-0.683448929,-0.6051504494,-1.093725067,0.560733173,0.5279435365,-0.3274235597,-0.1528350172,-1.0495800356,0.5856436543,-0.9276777895,-0.3415813397,-0.5607092206,0.6417867803,0.1803188331,0.5635467103,0.1855333641,0.6057684534,0.9613860889,0.0516048599,-0.045544361,-0.8348545944,0.2813035514,0.6823984865,0.0052222021,-0.7010629061,0.7757761506,-0.3784045994,0.7278405049,0.887710298,0.8517835829,-0.1943533365,-0.620361547,0.1870261181,0.1202139764,0.8908421338,0.8189156251,-0.6004320323,-0.9458878587,0.3891674313,0.3964387671,-0.4011234291,0.2209362968,0.6219477869,-0.3654074434,-0.478984712,0.4453400964,-0.2883181709,-0.4602493638,-0.3240253135,-0.3904735447,-0.4030589109,0.318413636,0.0010060158,0.152829112,-0.2417457195,0.2789823195,-0.9705073977,-0.4970923136,0.2484908229,-0.2145138556,-0.9738126292,-0.4231302896,-0.6947198518,-0.0559830224,0.2243214052,-0.8373378059,-1.0159499447,-0.2565144643,0.3832125284,0.3471501503,0.5509726297,-0.2503391148,0.4894350189,-0.8797788292,0.7471999337,0.6590596099,0.8695667361,-0.5558002866,-0.9835250045,-0.3042618766,0.3859433448,0.6251118711,0.2038712478,-0.7521947611,0.2851686071,-0.3290056449,-0.8136389279,-0.2697150287,0.0110507867,-0.4829296418,0.6386432617,-0.7403108908,-0.9761982294,0.830824949,0.2168169189,-0.1069911972,-0.2348004624,-0.5505932247,-0.8252157361,-0.0849446876,0.6016566367,-0.0882070717,0.0029342576,0.9338574164,0.8910426741,0.0500231562,0.3948889243,-0.6957308422,0.7721672793,-0.6760665243,-0.5980139006,0.7500221594,-0.799462969,-0.3205125064,0.2468931731,-0.673638205,-0.8816270016,0.517763662,0.220839329,0.1771120877,0.4993510774,0.2934943118,-0.9568252085,-0.9254269137,0.8971400302,-1.1622285886,-0.9335542578,0.7016251641,0.1471423655,0.9039341987,-0.4897803297,-0.6818955354,-0.9345985167,0.2738341919,0.3712575473,-0.0840422758,-0.056177379,-0.1226923192,-0.0785481385,0.9464428085,-0.1406814996,0.8901524673,0.4384180921,0.6883359702,0.643003638,-0.9113002861,-0.5819969509,-0.580701759,0.4083789842,-0.9655826568,0.8861340245,-0.6584255445,0.2398309714,-0.1873995171,-0.7689365012,0.999433928,0.7849905193,0.2891537696,0.7331499762,-0.9776594762,-0.5407715347,0.4630234341,-0.2162147479,-0.4698644768,-0.3511547433,-0.5551305427,-0.7990177785,0.8945359421,0.023699463,0.7961996891,0.1699046345,-0.5371409284,-0.1988609245,-0.9653960486,-0.4569450915,-0.6684014759,0.7170726942,-0.1519738587,0.5330326064,-0.6258860662,1.0026205044,0.7163093048,0.0279906407,0.4542934678,-0.5890371205,0.3363521097,-0.152598128,-0.6985670417,-0.2080652961,-0.5401489495,-0.5186604495,0.5751993458,-1.0162523472,-1.2269868564,0.316870361,0.0955854092,0.244280564,0.6534653515,0.5657341202,0.4197576435,0.7046592603,0.7802133437,-1.0361165565,0.1375048257,-0.5968814145,0.1582151305,-0.6009436078,0.5617647279,0.5905847466,0.5361551129,0.5569502069,0.5224921549,-0.290614987,0.6155503311,-0.7990727954,-0.1598576678,-0.1522182277,-1.0694444888,-0.0450442612,0.8489768123,0.7486260362,-0.4692219573,-0.7808330616,0.6874982804,-0.1149172012,-0.2647483022,-0.4649970238,-0.8652631244,-0.5982264927,-0.5033380158,0.9903570379,-0.5025218668,-0.8259407374,-0.7292283649,1.040474018,-0.430970226,-0.674658413,0.3113505127,0.7513591278,0.0427598908,-1.3287531137,-0.607825222,-0.0828981254,-0.409192186,-0.4063200476,-0.2585674957,0.0654753982,-1.0418507202,0.7297170022,0.1359918958,-0.6195320907,-0.7253765896,-0.8249058836,0.8990931736,-0.458442582,0.0911160849,-0.0223448522,0.5412193367,-1.1083619649,0.1327438415,0.7415978699,0.3568835786,0.7324603015,0.0704104786,0.2442391242,-0.3408637121,0.2922260122,-0.2028687236,0.3707336276,0.1336887448,-0.436492989,0.4105735158,0.9046859786,0.5008271519,0.0577801404,-0.6285062783,-0.4182359774,-0.1004304833,0.2938519427,-0.2413306121,0.2086344143,0.0950031605,-0.8590563319,-0.135037121,0.7745847343,-0.2503248295,0.3426731338,-0.1826553447,-0.9127184417,0.90867349,-1.4746321328,-0.6854636256,-0.6619260146,-0.2474999844,0.4330706603,-0.3180494342,0.1477345189,-0.3590018502,0.0607924214,0.4709616408,0.8394233027,0.5796992904,1.0215603243,-1.1227742444,-0.4564221739,1.0240472106,0.9021186924,-0.9262542529,0.2524231807,0.1150142708,0.7038355563,0.1093617374,0.1279763969,-0.6048203525,0.2196278816,0.5523477058,-0.3017529568,-0.545422192,-0.940277757,-0.7116507163,0.0828612098,-0.8159602356,0.4816441493,0.2882934659,-0.8636831091,0.6737337054,-0.7473939718,-0.7533261708,0.2721146975,0.1730332551,-0.3432045069,-0.5067636763,0.2009328981,-0.8605508926,0.1748282914,0.7750819902,0.2576467951,0.4866593793,-0.2062653181,0.5617444053,1.0824360201,0.1031943883,0.5458044056,-0.1766481044,-0.1432015651,-0.7914851445,-0.0373716138,0.234964796,0.129161353,-0.1157490053,-0.7892744245,0.4634447845,-0.405437645,-0.4587384405,0.4966967652,0.0019319009,-0.8023540718,0.3880849355,-1.7106954023,-0.9132593726,-0.5622559074,0.5478858893,0.9120282371,-0.3604054746,0.1957548115,-0.250622493,0.4966802441,0.5381047744,-0.670926198,-0.2827323505,0.3943620846,0.1305355081,-0.380810518,-0.6882224122,0.2872690046,-0.646639767,1.0839097263,0.4327296246,0.9856361723,-0.5671661222,1.0313850453,0.7419911287,0.4232955584,-0.8873008934,-0.7017079689,-0.9211937998,-0.282556394,0.0153510663,-0.1992336337,-0.5744007085,-0.8586781892,0.1673160623,-0.8205693751,0.9749267004,0.6212563612,-0.3817711128,-0.7644292887,-0.6843930449,0.7895443274,0.1963681442,0.4002033971,0.1911126579,-0.566692537,0.2334032632,0.0512967682,-0.1570627955,0.8182966676,-0.0810243466,-0.6202943163,0.7559250307,0.0810380754,0.0252058178,-0.471073523,-1.1384980805,-0.4372580226,-0.4001655291,0.0116971461,0.5787842606,-0.557633889,0.2476600308,0.6039813718,-0.7001152296,-1.5016374056,0.6449727417,-0.3140722694,0.6590268042,0.0661738252,0.549796985,0.0922246547,-0.7268146538,-1.0411860629,0.0729272254,0.6779961048,0.1041383396,-0.8768688459,-0.2094697348,0.1979313801,-0.4613903315,-0.4055115136,-0.001412897,-0.3769015853,-1.2874171583,-0.7566986912,-0.5884132177,0.9324453315,0.834916808,0.4198026587,-0.4092998471,0.0751327168,0.1381035024,-0.3262636821,0.2079639891,0.3697488522,-0.5542184209,-0.516586285,0.6714306382,0.2686531036,-0.0558541562,-0.1693395518,-0.0656775527,0.0586055534,0.6477688719,-0.056995698,-0.838129224,0.7016132823,0.1609213498,-0.1379790296,0.8614335145,-0.2866298147,-0.7036463004,0.2677678026,-0.1885705262,0.6378110579,-1.0010127832,-0.0785037432,0.0764481616,0.1631286773,-0.7057229765,-0.8110712988,0.0341177083,-0.2237691492,-0.5676079523,-1.0537290851,-0.3850225316,0.0966228291,0.2112564827,0.8736470283,0.0274627323,-0.1660555821,-0.8100255547,-0.1126015017,0.0512453873,0.5718001641,-0.3382647683,-0.1584206878,-0.7157741428,-0.3760371722,0.186604287,0.584493385,-0.9007726263,0.6445583582,1.0322852131,0.0327299926,-0.8289521635,-0.4622008982,-0.6977742964,0.6007600955,-0.5503121052,-0.2601301277,-1.0856586005,0.3893266059,-0.119163808,-1.0001738651,0.1416177183,0.0462594414,0.2778061081,0.1756585025,-1.1656310663,0.1844155214,-0.4098550863,0.2383052435,-1.2211681634,0.7761301896,-0.5188710128,-0.4905591756,-0.0244576648,-1.4863654905,-0.5647804876,-0.1989984673,-0.1573492622,0.9844302271,0.837515987,-0.0568407365,-0.4553674979,0.128428194,0.5981636343,0.5268732003,0.5554451408,1.0906005193,-0.4843549304,1.0287141226,0.2875772652,-0.040612526,-0.7570742123,-0.8288351643,0.7759504678,0.7111309492,-0.1180073016,0.253258442,-0.450220577,-0.0116284407,-0.2917123134,-0.2286666134,-0.0941196604,-0.7461737757,0.2396910348,-0.4162037728,-0.3728731909,0.2358249765,0.0672982632,0.8560169902,0.2574021628,0.3499717965,0.453128836,0.1465716468,0.3202967285,0.4049355563,0.1683846399,0.9615323025,0.6423102195,0.8376270432,-0.7335235402,0.9059812932,-0.4690300287,-0.8821911424,-0.387316005,-0.7667724726,-0.8807870197,0.4377111614,0.4820968394,0.6368823999,0.2133528936,-0.4338753834,-1.0218950527,-0.6397110999,0.6739540554,-0.7121261702,-0.5704191974,-0.2793432545,0.3383848594,0.4325095741,0.6169255163,-0.3156252456,-0.3210542871,-0.7569479159,-0.4453745329,0.6638056965,-0.9247855906,0.2584886008,0.1934049521,1.0503398798,-0.0849054604,0.0746908633,-0.7393949165,-0.0637506804,-1.1991677285,-0.0970920374,0.6489199339,0.358495649,-0.9078858964,-0.5802404794,0.1811513552,-0.5602182762,-0.7348147406,0.2900373572,0.4574832027,-0.6071631412,0.583329006,-0.2809736772,-0.2751928308,0.6573785473,-0.7093424858,0.5278263678,1.0638276992,-0.7422809888,0.4077992194,-0.0436562586,-0.2185824776,-0.1779637025,-0.718054546,-0.4588402461,-0.1410520177,0.0727042684,-0.6092085676,0.0676363888,-0.85593626,-0.7677876027,0.5496764664,0.0398305477,-0.4081709844,0.4813040958,-0.5039441313,-0.882418525,-0.3569525103,0.7345602794,-0.1045545346,-0.9716930382,-1.0195977208,-0.9768023729,-0.7935819209,-0.9251759161,0.4108158334,-1.1567939486,-0.5618010691,0.097262488,-0.5811668322,-0.6735252431,1.0038156311,-0.0834692232,-0.0636362968,-0.2419630321,-0.3272652989,-0.629373723,0.2040330194,0.17150844,0.2676202869,-0.3675122703,0.5916508001,-0.4100252377,0.8350071148,1.0319907725,0.9727563627,0.562151553,-0.8795875954,-0.1259432841,-0.5187774842,0.7559481509,-0.758698327,-0.1862400193,-0.2496467038,0.6064197655,0.5384229925,-0.2557812571,0.7031702199,-0.2974373495,0.2212331127,-1.0168131215,0.6690828126,-1.0585343233,-1.1425872292,0.6290641837,-0.3264131045,-0.3665947292,-0.2125655876,-0.773582769,-0.9829275297,0.8802785297,-0.5062918501,0.6421296676,0.5270055224,0.3953074276,0.0955636568,0.9876414552,0.9494328382,-0.5523538558,0.352558704,0.6526635842,0.446527911,-0.7556259166,0.6494356846,-0.8104299025,0.2522527794,-0.7550740911,-0.0739472164,-0.4923659472,-0.0278155134,0.392825881,0.7065782348,0.3501242962,-0.6629509785,0.2914329888,-0.0869052122,-0.7621299026,-1.1629498028,-0.5889110547,-0.9939750028,0.3780480669,0.6095251375,-0.5127887322,-0.3514337723,0.3530189371,-0.2330202959,0.9819724026,0.6969747326,0.1015157069,0.7035631086,0.4075635686,0.0510789223,1.1056225918,0.8591617609,-1.0731422054,-0.4352926004,-0.1793565709,0.0467053405,-1.2121119424,0.5604184102,-0.3250582033,0.3535180045,0.425843101,0.8983118495,-0.9071121738,0.4123642167,-0.6662718671,-0.0077237763,0.281725165,0.2869050406,-0.3803590463,0.273379279,0.6136410522,-1.0051713237,-1.0833917026,0.4646809502,1.0822840467,0.7201439684,0.2264771877,0.4350636421,0.9475355651,-1.1734969872,-0.4910950517,-0.1459998956,-0.6878342013,-0.945916675,-0.1757989425,-0.7734291325,-0.2538607572,0.9179336961,-1.120573207,0.2967010374,0.5912719771,-1.1886631865,0.5937518601,-0.1102268662,-0.2413792195,0.2622272459,0.0676927545,-0.3154549725,-0.6265776281,-0.6478867237,-0.3519282983,-0.2026975112,0.6407397287,0.941836648,-0.7586213558,-0.540198999,0.7388735092,0.6320103607,-0.8423271775,-0.2873957699,-1.2152733948,-0.2247906473,0.1402550012,-0.4430403941,-0.7334375404,0.638919302,-0.7777771416,-0.660761322,-0.9429907118,-0.2253414163,-0.6716171695,0.6130529169,-0.0174001069,0.7435272444,-0.8193763033,-1.1738240874,0.0094784437,0.3632037921,-1.0518510083,0.1186356075,-0.2898810908,-0.0424157805,0.329061375,-0.5183610752,-0.0043859214,-0.1794687806,-1.2264913681,0.7529577151,0.7544958976,0.5844567935,-1.0346585434,-1.1295893256,-1.2249092793,-0.5179280919,-0.1626245742,0.2368025866,-0.2329207804,-0.1702935193,-0.6574976627,-0.1196064745,0.4402812418,0.0804986621,0.597667643,-0.6753752906,-0.3861748282,-0.7060856883,0.5040338451,0.4288963435,-0.7815238042,0.3580499514,-0.8192512121,0.1564205688,-0.1346988078,-0.0697990652,-0.469842754,1.1137510416,0.2931484011,0.3220535824,-0.5026888078,-1.180673546,0.68854663,-0.4599476181,0.8588871563,-1.0671728536,0.6162044855,0.9094558657,0.1917412289,-0.8884844124,0.3859795076,-0.4651550946,0.2243629929,-0.4415893768,-0.555893791,-0.3946148345,-0.5183985424,-0.9110290477,-1.1631039404,-0.4686477545,0.2275821987,0.9693750482,-0.9348941164,0.9630012441,0.2266510908,0.4858989077,0.5736509851,0.1753813535,-0.8567470456,-0.1531343522,0.6798549198,-1.0936857999,-0.6250598453,-0.183289335,-1.0306587132,0.3512965901,0.6442807949,-0.2330749283,-0.2484015453,0.0907266627,-0.4076938809,1.1476906121,-0.8164135479,0.2656944726,-0.4061655148,1.1615117585,-0.4912373829,0.1636861391,0.5251694488,-0.2453325033,-0.5342491771,-0.8200056459,0.8838681145,-0.737616828,0.5977722983,-0.3457593653,-0.3780418319,-0.1138065896,-0.0641106696,-0.0987514733,-0.1181708566,-1.1338175032,-0.2540270208,0.1779690361,-0.1659491602,0.6731605209,0.4089822026,0.1010153628,0.17183115,-0.32186444,-0.5266085432,-0.9007630811,-0.3960034705,-0.1150883057,-0.9325038099,-0.2431966111,-0.7847984022,0.6409239155,-0.1104893136,-0.5285845398,-0.0901839403,0.670041179,0.891062097,0.1759148711,-0.8360093786,-0.3072388873,-0.4677085924,-1.2061780332,-1.0608986224,-0.6803809213,0.5383727826,-0.7495629519,0.3229405158,-0.1662369193,-0.754135528,-0.5136101088,-0.0775422049,-0.4021428201,0.2549695668,-0.8626779951,0.7344210251,0.9006463703,0.609751702,0.029490354,-0.5590481728,-0.2417044149,0.6178256532,0.8810870255,1.0059492418,0.2543815219,-0.7816901876,-0.6636546284,-0.8650864981,-0.5221517052,-0.3521233704,-0.8074836105,-1.1927630068,1.0044621519,-0.4234747665,-0.4721780993,-1.0354570811,0.9060915634,0.0580988058,0.6242611269,0.6084784668,0.5117508215,-0.8642431606,-0.1116942091,-0.3222037338,0.5200633842,0.3607439917,1.0500914269,0.7320023803,-0.7047807381,0.5385428946,1.2123855008,0.2479192419,-0.1591051131,1.397166843,-0.2170481168,0.6353493484,0.9887263574,-0.055991794,0.1101190072,-0.1746775598,0.0654219096,0.5956311528,-1.4975262291,-0.1328595298,-0.9039698297,-0.029348374,0.6988249168,-0.0056255678,0.9783410961,0.6282088233,0.9088352239,0.9107158394,1.494693986,-0.4863703176,0.4181343208,0.6455746998,1.5099100491,0.0331471686,1.4907018346,0.9125990796,1.5950675785,0.1417113112,0.2011261223,0.2936784675,1.0441071375,0.2123980838,0.6531380375,-0.2072960276,1.0856584516,0.4334105584,1.3232153155,1.6661069956,1.5968937494,0.2159334697,0.0444192745,0.7168795734,0.4437959383,-0.4259554209,1.640349619,-0.8225502962,1.2309164699,0.0435465829,-0.5977100467,-0.1742747486,0.345607927,1.368913564,0.4180653028,-0.7716509758
   -0.3285269395,-0.3536955534,-0.5349726285,-1.5669729382,1.2616232031,0.7279022732,0.8230275727,0.2868963949,0.6935114293,1.011662106,0.1722990323,-0.1756221396,0.569328533,0.071091986,-1.4993728753,0.1764037325,0.8635159645,-0.1606219319,0.0372295394,1.6872319906,0.9281989634,0.8475592587,-1.2160810315,-0.1322942152,1.1863148561,0.4837478324,0.7119389681,-0.5291046128,-0.5436048294,0.3224134247,-1.2254178024,-0.8082895608,0.3003195438,-0.6770968874,-1.3196396568,-0.2417766164,-0.8961959945,-0.0219104467,0.6396064412,0.5581150265,-0.0231148965,0.4135402744,-0.1251798837,1.4874855964,0.0633212059,1.7094638138,-0.0665866514,0.9565371239,-0.6411785619,1.4764417492,-0.0201799903,-0.0005290696,0.4085153458,-0.1365727931,1.3980418641,0.8671072072,-0.0075472267,-0.4334217985,-0.415907671,-0.2482086019,0.2218101183,-0.1408253767,-1.3119594033,-0.8853386422,1.6465759967,-0.1192639717,-0.0470178866,1.4250385134,1.1999715931,-1.1202491746,-0.2481014054,0.1262024623,0.4924991991,-0.0354750641,-0.0996353392,0.0384405361,0.5220501541,-1.5022714975,0.501770673,-0.5235328649,0.7070166943,-0.6827484921,-0.071682473,0.2912675015,0.6104704172,0.7182556902,-0.1411076739,-0.6234170654,-0.8390491096,0.2552001425,0.0303960945,0.1160452923,-0.7289464189,-0.4020429989,-0.0987130183,-0.2736421581,-0.0020622685,-0.112820983,1.493390308,0.4934774653,-0.3275321995,-0.1056346453,1.5091686713,0.3454834305,0.0869736761,0.7656804084,-1.4965563899,0.5996633331,0.9433395302,-0.1165263833,0.8057904641,0.179374679,-0.4439612557,1.2298197971,0.265666285,-1.5823768592,1.7249316689,-0.4183744524,1.6785111571,0.394482331,-0.8190372139,-0.7506985274,0.6477915665,-0.0231363987,0.5382442752,-0.2442285021,-0.1976294576,-0.1337983885,1.1743048479,0.3974253109,0.62459027,0.7995826916,-0.344155555,-1.5691388039,0.7148825993,1.4362813415,1.4597384743,-0.5754564215,-1.4776990101,0.4716599485,-0.4083459345,-0.2973088918,-0.171205744,-0.186450665,0.4142704233,-0.9988776306,0.5848395932,0.5071108831,-0.2515265289,1.5498491223,0.5624859832,1.177141107,-1.7180844525,-0.7206045001,-0.5825111187,1.4175873557,0.0375655198,1.376773324,1.1439119016,-0.0175077726,1.2070947238,0.3880267581,0.1709953393,0.4558648351,-0.3440698675,-0.0931290007,0.3132630841,-0.956314522,0.1167771862,-0.2411945782,0.818164326,-0.5993894942,-0.1605192752,1.460347117,0.4051069966,-0.828944036,-0.1597593825,0.020547742,0.468316938,-0.1720252956,0.6350307134,1.4507868589,0.3310464749,1.1437078464,0.1884191876,-0.5752119355,1.2224478648,0.8329699258,1.1879497919,1.0938310587,0.8087235901,0.0499110748,0.5889039165,-1.4732652957,0.8143168758,-0.1978280503,0.051462758,0.8988635489,0.8623332173,0.0167032203,0.7206879286,0.1758592798,-0.8328291161,0.6122648567,0.3601564622,0.3227740482,-0.6568178849,-0.9702690727,-0.342745,1.4226656096,-1.5492241074,0.2973969545,1.0857436962,0.5519666614,-0.2628446977,0.0089606156,0.0954661737,1.5279383632,-0.476533528,0.8377427564,-0.8061635533,-0.6464801838,-1.420836006,-0.1353201346,-0.5268684389,0.6422280881,0.3362125549,-0.4186020239,-1.2749616013,-1.0121157755,0.397130791,-0.9285688427,-1.6696140005,0.5034169947,1.6959196116,0.1434142015,-0.48620912,-0.9756078113,0.3271075946,-0.0751079249,-0.1253080619,1.1584785806,-0.9404992337,0.9071536407,1.1075778788,-0.1344487545,0.7308748506,1.2548321218,0.6225661762,1.6991713765,0.0349656762,1.4171495944,-0.9512629855,1.650604462,0.1637764703,0.625162509,-0.0310674808,0.7934137599,1.5581815535,0.1396942922,-0.3588858591,-0.2071025019,1.6382495953,-0.07960795,-0.5385321725,-0.9860305692,1.2809248814,-0.3426020991,0.3368638561,-0.9581870012,1.2139757292,1.5293968698,0.7645855475,0.4972975017,0.2589050006,1.261732918,0.5168739758,0.4895730305,-0.899039033,-0.0291137329,0.6192147095,0.8610155027,1.2520403309,1.6851730798,0.054754626,-0.0737868158,1.5064368759,0.1189988403,-0.8852931172,-0.2098515064,0.5748744647,0.6278794593,0.8280957929,0.6740863977,-0.4737233663,-1.073898871,0.8671736334,-1.3167627142,0.3270158414,-0.8061352284,-0.0335698934,0.4471441697,0.7278936508,1.3184367555,0.9257201798,0.0072193697,-0.0598478789,0.3227462193,-0.507206449,-0.2401461565,-0.8982733165,-0.2232836458,0.9618313101,0.5678359895,-0.2125402864,-0.591838978,-0.1919077706,-0.0445474274,-0.8606587549,0.4574369067,0.6898909187,0.1087008935,-0.0901000242,-0.5877820823,-0.3410818388,0.2898274919,0.9993486645,-0.9646591979,-0.6418364402,-0.8081556962,0.0937489824,0.9337807584,0.5914455629,-0.8754921878,-0.0672587358,0.1931499633,0.3701232838,0.9426000834,-0.4465273755,-0.8650164113,0.3232241186,0.5688077106,0.8321393316,-0.8989474394,-0.3556237175,0.4794885744,0.0980902539,0.7476222666,-0.2063628651,-0.6926627966,-0.6163806956,0.6874695959,0.5540730327,0.7029126382,-0.1527882889,0.9381268374,0.951058842,0.6173371997,0.7241935352,0.4783985572,0.549562515,-0.4135537134,0.4500917515,0.3133516892,-0.5150192502,0.7154366166,0.6537618058,-0.9843872517,-0.0893267055,0.4030096292,0.103735264,1.0069126567,-0.6065728405,-0.4215293591,-0.1269609558,0.819298836,0.4008970312,-0.9451583326,0.2029202203,-0.6950113637,-0.2061371012,0.5147819735,0.616696702,1.0439041405,0.7113378924,-0.6690521554,-0.0786145469,0.1556733116,-0.1726051152,0.5050443579,0.9507027973,0.0362340238,0.8738937275,-0.2282911781,0.3655924068,-0.4852637243,0.4541618688,0.2115820365,0.082980777,-0.9086929326,-0.1175029342,-0.7886039413,0.5874140503,0.3105133865,0.4249491862,0.4184344597,0.9498012545,0.5644250054,-0.9389819133,0.8731186533,-0.670148029,0.6236107797,-0.5286924336,-0.3244439361,0.4882496603,0.355767501,0.7096623968,-0.9543389392,-0.5123872761,-0.6288438825,0.2602912951,0.5211985321,0.0799177972,-0.6313316879,0.5964832608,-0.9292962353,-0.0805254924,0.963632577,-0.8123840886,0.0536782137,-0.0030464184,-0.5200920624,0.4414476932,-0.5990442578,0.9236632639,0.6737042924,-0.6004672385,-0.1317681489,0.8793334091,0.3556800194,0.8716755989,-0.6101800439,0.47472776,-0.6114170337,-0.9378801793,-0.8314563577,0.4725806532,0.450677661,0.3390925945,0.850419622,0.465239115,-0.3132877008,-0.7759191111,0.6005353422,-0.5568480163,0.6462142738,-0.7107457658,-0.3134956282,0.679588546,-0.7944756469,-0.2154163154,-0.0576367791,0.1479104625,0.3507094124,0.2041557616,0.592474096,1.0674146903,-0.0914981322,0.5962815931,-0.1444640576,-0.8573631844,-0.7648936412,0.7375212871,-0.0911176021,-0.66338172,-0.1766221463,0.6496290268,1.587918183,0.9698412777,0.9601623515,0.7740491813,-0.7616728675,-0.8463645435,0.167463056,-0.9909518735,0.0540982288,0.5810805277,0.2743288136,-0.1090645978,0.4443304318,0.2959751657,-0.6047931053,-0.0172128996,-1.0134951617,0.2466678597,-0.4490073429,-0.0700595908,0.5889533742,-0.1390067885,0.7582604702,-0.8517894884,-0.469242045,0.7434394646,0.7519166532,-0.2849246569,-1.0033013479,0.4157564407,-0.7247122439,-0.3576161997,-1.128025412,-0.9018634955,-0.2735500966,0.3180823004,0.8872488848,-0.0672066379,-0.8893335761,-0.3141337012,0.4691813942,-0.7661477231,0.3897658437,-0.3041177931,0.4292704702,0.9450345523,-0.8218864457,0.9479899673,0.3356848218,0.0560891525,-0.1143569577,0.5524930159,0.8239404593,1.1961938671,-0.767527156,1.319028995,-0.6396493387,0.1539447607,-0.8696268258,0.7950659342,-0.6739849914,0.8628259703,0.0366799306,-0.2501530817,0.4742212538,-0.8275410702,-0.7013759518,1.1160453036,0.4426338712,-0.3037465854,0.1872799998,0.0816811628,1.1855484435,0.2843086685,1.5856918014,0.7433281326,0.9476825684,0.8114995403,0.0960982639,1.7114612374,-0.3417808397,-0.1320337913,-0.8075404598,0.266393472,0.1428063588,0.0333650414,-0.0260488195,0.9480269614,-0.5535585768,0.3196556437,0.8292884623,-0.2098259005,-0.1883888182,0.2220214699,-0.7579125001,0.9639580781,0.9992197208,-0.759433936,-0.9911629898,0.5266321737,0.2350140123,-0.353150966,-0.9076723903,-0.1738129323,0.5770201744,0.2994974989,0.7982738666,-0.6364528629,0.2230440133,-0.0632512132,-0.2030789768,-0.5563328424,0.5425958079,0.1418282754,-0.5323972656,-0.0670255626,0.501534969,-0.5127863356,0.8630539524,0.5240378144,-0.8281213785,0.8413527001,0.1097257672,-0.5232673627,0.8331188583,0.350535005,0.3617811895,0.9067893698,0.1385727581,0.0691201321,-0.0945602551,0.5308429495,0.9390189735,-0.60637411,-0.2816967178,1.2978894392,0.6108123991,-0.5771291278,-0.2718303894,-0.2692935662,0.4027991949,0.3145306773,0.8956881006,-0.9613266514,0.0439426364,-0.1442049883,-0.857584215,-0.4570838989,-0.3748011773,0.7731665194,-0.1142266342,0.9505192296,-0.1449070108,-0.5465969609,-0.5895457412,0.9424519889,0.0949522041,-0.3707513803,0.5870991072,-0.8179242498,-0.8178496437,-0.2663730933,-0.2759553618,0.2969011252,0.7233733003,0.8749240528,0.2352544931,0.2012303904,0.5058677386,0.0979995498,-0.2238672012,0.6506474494,0.6341126004,0.1822374135,-0.5935520133,0.7828593686,0.6137567564,0.4719052251,0.0190138629,0.1820393376,0.7806124998,0.2979136707,-0.8491442163,0.7295812702,-0.4329981738,0.0601762096,-0.0230690161,0.9018265791,0.6337170809,-0.056293619,-1.1018980122,-0.151183213,0.4227657017,-0.8973757847,-0.5334494316,-0.0498264175,-0.8850729421,-0.1279675019,-0.3892083974,-0.2952193371,0.718002399,-0.9059796623,1.0748036032,0.7902053858,0.1919117024,0.7955809732,-0.563655349,-0.7377001546,0.6092850253,0.8956791172,-0.577886222,1.2143022849,0.0983260944,-0.2545250214,0.3719651369,-1.0466447691,0.7998884984,0.020920188,-0.8329380359,1.0266208065,-1.0896575467,-0.3925246094,0.2942639494,-0.9679840898,0.2939724752,0.6677097036,0.09059835,0.051736714,-0.5680327461,-0.2036584373,-0.4685168594,-0.6597273626,1.1051921397,0.8440753466,-0.1830983475,-0.2950656558,0.9373234574,-0.644221121,0.0964234975,-0.8072804004,-0.1989914421,-0.9204177569,0.5566938846,1.1616339769,-0.2250944294,-0.2993829464,0.2970935983,-0.3366118358,0.9220151863,0.8068953245,0.5780144893,0.629658692,-0.8323957342,0.4980082056,0.092069958,0.7183961952,0.7848213074,-0.1007997574,-0.1071288178,-0.2348291928,0.2468518858,0.1998804553,-0.5061101478,0.6473159174,0.3492165104,0.5763173031,0.8459126449,0.2878392139,0.3209367202,0.3233867369,-0.3577410723,-0.0708666465,0.7693150283,1.2316874746,-0.2381284563,0.7828600767,-1.597203028,-1.5077563434,-0.6203028661,0.2259387696,-0.3288253203,0.6247512564,-0.7648038011,-0.1414478493,-0.8805554315,-0.1105654389,-1.4893439848,0.2022823229,0.0582931941,1.2218098725,-0.3023255109,0.5158216859,0.6636182565,-0.6509264374,-0.6757609544,-0.6274820617,1.0482059899,-0.3482760903,-0.0821575982,0.0458791946,-0.6664064129,0.652138005,0.2702455578,0.2141387652,0.6165265186,-1.6543067839,0.2137768318,0.9944115526,0.1637775509,0.1367830538,-0.0464460786,-0.310241666,-0.5932333238,-0.9782982637,-0.4989731065,1.5857366067,-0.7365871392,0.8343334033,-0.3796259178,-0.262651071,0.408273554,0.7200103968,-0.7412313027,0.4800982248,-0.9301892892,-0.5882398108,0.0045878981,0.4001434233,0.954055248,0.5182346905,0.5003582051,0.9208499519,-0.1148526174,1.0944227198,1.4784805634,0.0999487908,-0.020496492,0.3470277053,0.8662981946,-0.6335250217,-0.9111354588,0.6995917215,-0.6614268826,-0.3207959164,0.3081923677,0.1207737204,-0.1724867972,0.8586198625,0.0143248654,0.9315815211,0.8129556503,0.4295766951,-0.1548960106,-0.3251870656,-0.3045699462,-0.4197252026,0.9221390535,0.5331162039,-0.6722239204,0.0773880182,-0.5962518508,0.3394407329,0.7999852322,0.2939601364,-0.3346308952,-1.1240648975,0.0748711113,-0.8699594518,-0.0357228194,-0.9419005031,0.8560732142,-0.3364980919,-0.734690548,-0.7627961766,0.8445203957,0.3651261301,-1.6078563525,-0.4543036915,-0.4871228433,-0.4934391303,-1.0459112488,0.9343847791,0.6828726276,-0.9406826683,-0.2735483026,1.0673796901,1.1775425103,-0.0058581496,-0.4114763752,-0.1897326826,0.732944206,-0.058620747,-0.7967652737,1.1331170487,-1.0881523351,-0.490544224,0.499226396,-0.5080544523,0.1139527216,-0.906100949,-0.872404076,0.9537089814,-0.0764379226,-0.0139043675,-0.6929842858,0.5742326053,0.4238470214,0.816862117,0.539415938,0.4115163673,-0.4179456169,-0.1367122657,-0.6771602352,0.7244084981,-0.7533456859,1.1744168165,-1.5007190364,0.4878978799,0.9407782918,0.751727745,-0.3052955062,-1.3292455756,-0.358407541,-0.8243343164,-0.7199975749,-0.5466973825,0.950033375,-0.6226277709,-0.7039211501,0.949030474,-0.6045388778,-0.1112420693,0.710147698,-0.1653229797,-0.683089915,-0.7367979036,-0.2636531816,-0.2013322103,-0.3198510456,-0.0988130615,-0.330543871,0.8782616307,1.1280856885,-0.6872602469,0.9662542521,-0.1347967444,0.5670162976,-0.9276826998,-0.7495761353,1.0480667625,-0.3911711292,-0.6436362268,-0.8532799743,-0.3260944346,0.0649053094,0.5234470105,-0.3921580715,0.8793307938,-0.9210461473,-0.126425897,-0.9231543,-0.3349227048,-0.7323553476,-0.6388610442,-0.5589410819,-0.2614060775,-0.6886710783,0.1386801635,0.5035370518,-0.5387273207,0.0472088865,1.183017969,0.1128860503,-0.275633123,0.8155908598,0.9694833685,-1.1596831799,-0.3949404768,-0.4584579359,0.6230684926,1.1610798382,0.3806879545,-0.3771882592,0.7899115935,0.6082172993,0.2210140331,0.75434828,0.4872463123,1.0953114691,0.3185425,0.1389956743,0.5520931931,1.155069491,-0.4289943243,-0.3045038907,-0.2329931544,1.1827863954,-0.186021296,0.8876005058,-1.1215084433,-0.0547324925,0.1113761609,-0.6113175807,-0.1219008477,-0.308838934,-1.5503201774,-0.1088219635,0.4933040522,0.475603985,0.3354046352,-0.8285616549,-0.2958301908,0.0276134303,0.0802542665,0.5992492797,0.7878487627,-0.4454610423,0.1812986441,-0.923161816,0.5732326133,0.248914802,-0.3963878879,0.121291752,0.3439885813,0.4840754833,-0.7503711373,1.0399947611,-0.444865525,1.2294376043,0.736727695,0.6981660499,-0.5212609853,1.1047424548,-0.3737285818,-0.5427392399,0.1732758974,1.5504494728,-0.4016589781,0.2665205036,-0.3963271742,0.6459924111,0.9244992898,-0.0301171639,0.2957159175,-0.6326087488,0.2046454434,0.1193387424,0.1592806162,-1.0755370452,-0.4428103148,0.8252628122,0.8739310822,0.4675566279,0.7781994802,0.530882731,1.011670553,0.8449679218,0.2096066901,0.8728263407,-0.1216310062,0.1040822432,-0.2413830409,-0.3160430296,1.2277732827,-0.3266418557,0.4356147939,0.9377270019,-1.0306328557,-0.5530300201,-0.6909948506,0.1577004367,0.8481245171,0.6528428877,0.847366372,-0.6289710666,-0.6222086186,0.7728785702,-0.6944888276,-0.9567390971,-0.0309875101,-1.164061048,-0.0156847711,0.138252736,-0.2522033833,-0.6173992781,-0.4675507106,-0.3090513008,0.052649103,-1.338844828,-0.7660519087,0.755085548,0.0314703493,0.9416369928,0.3031280298,-0.0774884369,-0.4718126347,-0.5995634019,-0.2734719559,0.485911595,0.5200142723,0.664488666,1.3423178834,0.7697471548,0.4665096481,1.0104442926,1.155267424,0.0956233813,1.4697181511,0.998683222,-0.1551655142,0.7187335202,0.994047538,1.6760048582,0.0682705582,-1.443484007,-0.2528627776,0.4993471188,-0.4344940323,-1.2328995224,0.9403208795,-0.3477282183,0.4069174708,1.1267886556,0.2059567566,0.411647921,0.70425519,0.5406030237,1.0906020099,0.1431971292,1.5548903049,0.5085839037,1.7235675665,-0.7411903469,1.3281013178,-0.7829826255,-0.0237674104,1.0224239642,1.0403680719,1.0642049428,0.8168500036,1.3388431539,0.3136052007,0.2725476148,0.8402256723,0.2840549142,0.3612672473,1.3499031935,1.4729746398,0.6318709381,0.6813895913,-0.1581592339,0.6259889698,-0.1244130881,1.3397807843,-0.7410856639,0.7429999079,0.0975632288,0.151150022,0.5266559859,1.4971252365,0.8773853487,-0.1409538652,-0.7561291422,0.1234323369,-0.1103431611,-0.9529727629,-0.7292512388,1.4863721464,0.727303228,1.0551956046,0.7934069391,1.4262621063,0.9352224796,1.5375538526,1.3637255503,-0.7257054194,1.2180802048,-1.3717643635,0.3264496438,0.2706410577,0.9332927901,0.074305911,1.1327653107,0.9538017149,0.9139590859,-0.1377525699,0.7496382909,0.8668942545,1.2033299733,0.096284228,0.6138715885,-0.1011917736,0.3533581613,0.1807921077,-0.5832556376,1.7013993987,-0.2234137591,0.1429310351,0.3421903058,0.1525058431,-0.792880962,1.1587215324,0.493105788,1.4475949781,-0.6763895015,0.79105016,1.2645836493,0.059761314,1.0133077574,0.2071719737,0.8677495402,0.7261571991,1.4722866945,1.3941239595,0.3472595678,1.6569584075,0.289639476,-0.0521990055,0.0667068771,0.1724465324,-1.7317586076,0.369253819,0.1315943548,1.0388398702,1.3613800941,-0.8189846751,0.0917911381,0.680181057,1.323954189,1.2251542955,0.0383851543,0.3327624402,-0.6354617554,0.1380352525,0.6155764422,1.223849049,0.3487761921,0.8408078914,0.5490039945,0.0431839829,0.1977886803,1.4361062542,-0.1950524881,0.3888266945,-0.6323830298,-1.2993413254,0.2130026172,-0.8111794135,-0.916077974,0.1135663339,0.2881276494,0.14841437,-0.1246606898,1.4157731075,0.6200507166,-0.1789013847,-1.3606002091,0.7163674394,1.0242187758,0.3748993984,-1.3415426737,1.2588433905,0.84774829,-0.9683256089,0.2603329674,1.5454247538,0.090053708,0.0244211313,-0.0198764485,0.0552803512,-0.6820305906,-0.5152139896,0.7830993293,0.9877510503,0.0174330096,-0.400443803,0.7893297759,0.2626795912,-1.2387144837,0.2477627368,0.4124823073,0.5257027172,0.0541234341,-0.0061554197,0.6162794436,-0.5877951552,-0.8951244818,-0.6846890406,-0.7985438884,0.5339409697,1.0379210941,1.5925209253,0.7514875271,0.2828653095,0.122676532,0.7053515483,-1.6456079361,1.0804299374,0.1898006006,-0.2031357918,-0.2219655579,-0.4005116469,1.3507238917,-0.9222045139,-1.1936405391,-0.7162800364,0.9383406579,0.317192943,-1.2636605622,-0.1582032062,0.9116409058,0.2182175546,0.6337610404,-0.4402391867,0.4024225095,-0.4890942286,-1.2904457583,-1.5930850693,0.5743535071,0.6252515686,0.1377445077,1.2504457378,0.4608172832,0.3906175782,1.3082662121,1.7174098703,0.8268541392,-0.1625965867,-0.2535718529,0.8698415928,-0.1284524118,0.8592349691,-0.6626098651,0.4426562336,-1.3431524201,-0.2186029422,1.4881064568,1.5300878876,-0.945905222,-0.4163601842,0.6670156307,0.5966384082,1.6076026805,0.9349063235,0.8729499343,-0.1964764989,0.9383350235,-0.7986720185,0.7333219225,1.6188334907,1.3545269354,0.0805890619,0.6388964516,-0.1486125794,0.0257738246,0.0038520268,0.0713595062,-0.0191136508,0.145072817,-0.1077714549,0.3121263728,1.4121220386,0.7831934189,0.37368232,-1.3121471525,0.910359428,0.748215248,-0.9722425128,-0.0873538636,-0.1590846897,0.7728881498,-0.5508873306,0.0199853606,-1.5251592879,0.9044566877,0.2272120614,1.1593411461,-0.9487710419,0.8032516753,-1.4638578237,0.5889195663,-0.4789147284,-0.1900013691,0.0206271408,0.2356877921,-0.2712075115,-1.0654174023,-0.1558255645,1.2385498424,0.4133238759,-0.4632570539,-1.5292982154,0.7709139826,0.4333933736,-0.175421134,-1.1035334236,1.130579304,0.8854999528,-0.6638163412,-0.8749385193,-0.5744750453,0.1589788033,-0.2897043494,-0.6816270428,0.6402834178,-0.4283143319,1.1293158052,1.3204635911,1.051750697,-0.0053500106,0.6886122601,0.7599805538,0.068080289,0.5138489309,1.7059457867,-0.181537294,1.2826137204,-0.2640070596,1.6825191756,-1.0986481076,0.7533935245,0.6127417308,1.2616435334,0.3121813681,0.989133235,1.4960216426,0.6844609892,-0.8146988709,-0.2021144616,1.4179314642,1.6163434693,0.9476036617,-0.0414310471,0.1329717969,0.5192738801,0.7929722531,1.1377978181,-0.2352347192,0.9307811276,-1.0916086381,1.4234491968,0.8823328678,0.212788249,1.6776144241,0.304445666,0.4510333639,1.4320789193,-1.6323991628,0.0648062316,1.0544377474,0.6024054958,-0.2601009625,0.5427283977,-0.0096804298,-1.0154102702,-0.6666805739,0.6598835904,-0.469588098,-0.2634467979,1.2160381183,-1.5487419343,0.6113656758,0.3735989258,-0.8232890986,0.8140784874,-0.3794136707,1.3913834259,-0.3183306353,-0.2007883328,0.8645040299,-0.9555986063,0.0511853084,1.060621914,0.7590942731,0.9383569345,1.2956904422,0.8137298798,1.7423038081,-0.2937678415,0.5488536765,0.6851217248,0.2586019943,0.0289138177,0.1844134068,0.0088093542,0.5603944529,-0.2605879796,0.9878860847,-0.8077825764,-0.3242182483,0.4820156591,0.8407662218,0.2054608912,0.3150235027,-0.8120101267,-0.8119874116,-0.843827496,-0.437547335,-0.6827483968,-0.0826897283,0.7595591256,-0.7732501532,-0.9428946424,-0.7974241697,-0.6697133469,0.3528291916,0.3268808683,-0.094511092,0.234909152,-0.569241846,0.9740536713,-0.6989486402,-0.730136002,-0.2119453755,1.2713924771,0.8166604767,0.6165605403,0.4368686494,-0.0830476631,0.4507515235,0.2465172236,0.5634050591,0.0559458007,1.1515395205,-0.5159286476,0.2847642459,0.8004513536,-0.9300648462,0.3102352195,-0.7475650279,-0.5237934446,0.753657173,0.1837493199,0.4602709543,-0.4601761978,-0.2857458295,-0.4883585799,0.92346228,-0.9259594788,-0.0687221922,0.6967069023,-0.6857211257,0.9710107293,0.1021168881,0.6416628333,-0.1137239789,-0.6654102436,0.2963622685,-0.4055706864,0.1230431937,-0.1265319786,0.5235578344,0.3295466642,0.5246674474,-0.878299612,-0.334466431,0.6462948433,-0.1288029837,-0.2248624605,0.7262289796,0.6370369677,1.0250932083,-0.2856064643,-0.0441743832,-0.3829979544,0.2911018747,0.0136349975,0.0738517662,-0.7109163868,0.3993295219,0.5555300546,0.78098458,-0.1094595268,0.9747465415,-0.4459812559,-0.1887245746,-0.4110367453,0.9494581102,-0.5161106046,0.7653394992,-0.5011648882,0.1670505946,0.6548777737,-0.6401213884,1.2796457702,0.6290204397,0.8930302678,0.6964479607,-0.3038928076,-0.0034256598,0.1270709477,-0.0004962532,0.9591006024,-0.1279610383,0.7200362126,0.0119858651,-0.4493367461,0.4800631409,-0.0459322308,-0.0490978863,0.4137878611,-0.4684526559,0.8671882766,0.4375627023,0.4813089167,0.3682513148,1.3074474018,0.0803175339,-0.030250401,0.9395919217,-0.2330242613,0.2679752477,0.6181491657,-0.8263836438,-0.1018572865,0.0580129108,0.1406659706,0.1051633154,0.0035240683,1.1535943222,0.8481084143,0.2299745609,0.005171537,-0.0324873905,-0.2836936032,0.7408030148,0.1761717688,-0.4566108341,0.7261115736,0.4666271863,-0.7057756518,-0.9923548455,-0.296121038,-0.9134597272,-0.7193326752,-0.479977805,0.5855117646,-0.4728109064,-0.6328693118,-0.6188462741,1.0922077438,0.253807954,0.3130745342,0.3410669562,-1.0849250312,0.5313382029,-0.3030754672,-0.3078410245,0.158577784,0.16413471,-0.8847304026,0.3573500001,-0.8402176499,0.3926575528,0.0559173375,-0.3348035239,-0.581999213,-0.9209356547,-0.3368417274,-0.2367039768,-0.5257634605,0.0292324781,-0.7631110853,0.5085521357,-0.0688572124,0.1885084347,-0.083654996,1.0089724652,0.1800152367,0.2890303013,0.6116452697,0.1819484897,-0.1763983979,0.7200504538,-0.6058438242,0.4809781954,-0.3079251421,-0.5966846341,-0.4938819631,0.3867004322,-0.8310213006,0.1575700723,-0.4685378622,-0.8221914916,0.1400818505,-0.9323027416,-0.3986662103,-0.0762250485,-0.7921646062,0.833860953,1.0386867551,0.221770945,0.8907594156,-0.461042299,0.2476031702,-0.5173675277,1.012950827,-0.6112330542,-0.0691888014,1.0328531109,-0.4098384058,0.1271112725,-0.56815619,-0.8342765676,0.3385927042,0.0594903433,0.5349987681,-0.1167175109,0.7182788429,-0.6750194194,0.7823276258,0.2891185307,0.5699589388,0.853864681,0.7330878637,0.7201322774,-0.0787256104,-0.1931949212,-0.6580799522,-0.5665500489,-0.811638969,1.737004777,0.8800090394,0.774549649,0.3656698489,0.3362643821,-0.0316637118,-0.6444744716,0.6501733794,0.1522889014,0.9496070661,-0.8942606632,0.9497597206,0.4409111775,0.4708892877,-0.2801594487,-0.1190845251,-0.5423250421,-0.4323695083,-0.4576285611,0.6507419723,0.5513549334,-0.1658527675,-0.645633208,0.2524796873,0.7183464709,-0.7840853469,0.5806765523,-0.1230008854,-0.2313968346,-1.0013263786,-0.3151943322,-0.4978276265,0.0758294692,0.1052658971,-0.0017863964,0.9288747585,-0.815090902,-0.8006084635,0.6092922837,0.5404163463,-0.5838912806,-0.2716040348,-1.086971802,-0.3345855149,-0.6134387399,0.2775010564,-0.7273123524,-0.328880039,0.7653593286,0.1660689016,-0.5086940208,0.5676541809,0.571847323,-0.8844822327,-0.216351179,0.1733752104,0.3936322273,0.7188550046,0.6815380686,-0.3422244648,-0.323981527,-0.0334288528,0.0908766496,-0.1303209623,-0.635340903,-0.2912541418,0.2860171071,-0.2626451123,-0.4642320188,0.8468965409,-0.5755510509,-0.2456055831,-0.8358687042,-0.5396963315,0.1569573867,0.0513016134,0.4150874335,-0.5891283742,-0.5130851815,0.5299217202,0.8587178015,0.0940077879,0.1418425139,0.9759391221,0.8798462924,0.2915862205,-0.5627456684,-0.3794242372,-0.8295477288,0.428979338,-1.0177479667,-0.4655049584,-0.7368538257,0.3100094799,-0.5506697155,-0.1471654719,-0.7760901388,-0.8908015698,-0.0182265441,-0.8143021458,0.0272440193,0.9475296888,0.2697301555,-0.9422840398,0.5272675806,-0.7959771852,1.1113089266,-1.0938543939,-0.6183474686,-0.53907796,-0.6812701964,-0.6887261647,-0.19274376,0.1137731487,-0.8584329128,0.4174923317,0.0696551711,-0.7669250076,0.5552192428,-1.0435004586,-0.2654443227,-0.7560225586,-0.1782501775,0.5170189613,-0.8502046647,0.1804555948,-0.4564611931,0.1649977525,0.6273178378,-0.8067314082,-0.0556333868,0.2550659915,-0.4504383215,0.5071740135,-0.2129508213,0.5648244396,-0.1933875618,0.5043045349,0.4869519566,-1.6714834841,-0.6891380139,-1.1927474121,0.5747497465,-0.2446780523,-0.712460306,-0.6618668519,0.5463401182,-0.9812067984,0.4893764194,-0.1548852763,-0.4693869575,-0.8810618472,0.2292227024,-0.4372143937,-0.6325567783,0.1464790753,-0.1236858223,-0.2219056227,-0.7850832865,0.1916481627,-0.713375263,-0.857533909,0.4024139798,0.4460819211,-0.313018727,-0.5809331912,0.6798075922,0.245818317,-1.0361900861,0.2697779454,-0.6072801347,0.5876439954,-0.1343903562,-0.0067518451,-1.0071957459,0.7966314766,0.8026463241,0.1545736464,-0.4108309344,-1.0271896363,-0.7211961787,-1.34846201,-0.4385278026,0.7952258116,-0.575900172,0.1213389993,0.2715653674,-0.8931408771,0.1919966815,-0.8099914663,-0.9208037765,-0.2701837027,-0.3170269518,0.1486636482,-0.0651184916,-0.9836200149,-0.084358353,0.3923959616,0.1550775125,0.5568036851,-0.3931964378,-0.1240968739,0.6029964138,0.537847083,-0.58390852,0.0605526492,-1.1375596453,0.3918990923,-0.2690337158,-0.8717159254,-0.3267628379,-0.1587074573,-1.1690142423,-0.3601341827,-0.5553380226,0.7174302439,1.016467369,-0.4565915356,-0.1757878373,0.3351877817,-0.9764139112,-0.7413868632,0.53946435,-0.0225369742,-0.4072967958,-0.5298773282,0.7275414956,0.2486364602,0.2051312177,-0.2037083735,1.0436899806,0.9671141313,-0.902380503,0.9035533858,-0.5932214033,-0.908125003,-1.3626395797,-0.7529176062,-0.3340591266,-0.8986358188,0.6508790985,-0.5391353992,-0.5369569914,-0.4798586139,0.9244861773,0.0934219026,-0.164374952,-1.175507155,-0.6955587302,-0.708587716,-0.5720794716,-0.1493844058,-1.040349443,0.4814240905,-1.1523594011,0.3170363833,0.3710087374,-0.4297242968,-0.090757333,-0.3439238154,0.1268479803,-0.0249471265,-1.1697522493,0.4800328961,0.6229484399,0.9440765565,-0.3876066261,-0.2202770345,0.131098983,-1.0664788798,0.189148717,-0.6872492122,-0.0074819113,-0.6092076535,-0.6440827956,-0.8178749626,-0.1960511727,-1.1527941818,-0.594474691,0.944530691,-1.3161604249,0.4747707204,0.1888783819,0.1629795776,-0.1394974292,-0.6144411739,-0.3009642194,-0.1252609494,0.1520371745,0.864276262,-0.6624656355,-0.0905460746,0.0737709134,0.1008271715,0.3846869116,-0.0361988659,-0.5905977626,0.2349973981,-0.341050145,0.452208234,-1.7214161309,-0.0990307831,0.8751789452,-0.1630958064,-0.5367799371,-0.1582125559,-0.6426773708,-0.9959988974,-0.9933138044,-0.900848068,0.488607791,-0.2820947583,-0.8623359263,0.2948285193,-0.0017436388,0.2174595827,-1.0451426303,-0.8221164981,-1.5431759954,0.5435459526,-1.0389547609,-0.1065257067,0.8011012549,0.6695384955,0.9498789371,0.5341872927,0.7062419018,0.7606352724,0.0860559924,-0.4674791249,-0.6803282527,0.0779790617,-0.8341149011,-0.3161955079,0.7571143902,0.3481142553,-0.5424793072,-0.9922743679,0.2790017106,0.6268866344,0.5928335981,-1.4995868377,0.9064563682,-0.6920357384,-1.5958133429,-0.6060456227,-1.2101281048,0.7776581129,0.1168164301,0.5499841489
