encog,BasicNetwork,java,3.3.0,1,1576422380803
[BASIC]
[BASIC:PARAMS]
[BASIC:NETWORK]
beginTraining=0
connectionLimit=0
contextTargetOffset=0,0,0,0
contextTargetSize=0,0,0,0
endTraining=3
hasContext=f
inputCount=379
layerCounts=3,16,64,380
layerFeedCounts=3,15,63,379
layerContextCount=0,0,0,0
layerIndex=0,3,19,83
output=0,0,0,0,0,0,0,0,0,0,0,0,0,0,0,0,0,0,1,0,0,0,0,0,0,0,0,0,0,0,0,0,0,0,0,0,0,0,0,0,0,0,0,0,0,0,0,0,0,0,0,0,0,0,0,0,0,0,0,0,0,0,0,0,0,0,0,0,0,0,0,0,0,0,0,0,0,0,0,0,0,0,1,0,0,0,0,0,0,0,0,0,0,0,0,0,0,0,0,0,0,0,0,0,0,0,0,0,0,0,0,0,0,0,0,0,0,0,0,0,0,0,0,0,0,0,0,0,0,0,0,0,0,0,0,0,0,0,0,0,0,0,0,0,0,0,0,0,0,0,0,0,0,0,0,0,0,0,0,0,0,0,0,0,0,0,0,0,0,0,0,0,0,0,0,0,0,0,0,0,0,0,0,0,0,0,0,0,0,0,0,0,0,0,0,0,0,0,0,0,0,0,0,0,0,0,0,0,0,0,0,0,0,0,0,0,0,0,0,0,0,0,0,0,0,0,0,0,0,0,0,0,0,0,0,0,0,0,0,0,0,0,0,0,0,0,0,0,0,0,0,0,0,0,0,0,0,0,0,0,0,0,0,0,0,0,0,0,0,0,0,0,0,0,0,0,0,0,0,0,0,0,0,0,0,0,0,0,0,0,0,0,0,0,0,0,0,0,0,0,0,0,0,0,0,0,0,0,0,0,0,0,0,0,0,0,0,0,0,0,0,0,0,0,0,0,0,0,0,0,0,0,0,0,0,0,0,0,0,0,0,0,0,0,0,0,0,0,0,0,0,0,0,0,0,0,0,0,0,0,0,0,0,0,0,0,0,0,0,0,0,0,0,0,0,0,0,0,0,0,0,0,0,0,0,0,0,0,0,0,0,0,0,0,0,0,0,0,0,0,0,0,0,0,0,0,0,0,0,0,0,0,0,0,0,0,0,0,0,0,0,0,0,0,0,0,0,0,0,0,0,0,0,0,0,0,0,0,0,0,0,0,0,0,0,0,0,0,0,0,0,0,0,0,0,0,0,0,0,0,0,0,1
outputCount=3
weightIndex=0,48,1008,24948
weights=##0
##double#24948
   0.2620269933,-0.4540613018,0.4966987509,0.5630415852,0.6663799108,-0.3215579873,-0.8725672728,-0.1730190973,-0.973497786,0.950528318,-1.0404983824,0.9614186721,0.0192809861,-0.2402716231,0.822919014,-0.6969786454,0.3573763813,0.2975696777,-0.2923156835,-1.2161752142,-0.3744728321,0.4865653506,0.4238060111,0.3222567436,0.3855186826,0.1504072996,0.8344743066,0.3106267119,-1.8836070147,-2.0470520165,-0.374950207,0.0221160224,0.1681021035,0.2367701602,-0.748608642,0.6621910547,-1.3574002547,0.9834399256,-0.1243783318,0.7511352528,-0.7001295297,-0.5919141733,0.8779115186,-1.2436697607,-0.0938365624,0.1715744508,-0.2533380215,-1.0853136427,0.5688120023,-0.049904741,-0.3019000284,-0.1625729312,0.4845877161,-0.3636273654,-0.8935518057,-0.4738108528,0.6380785988,-0.1077440543,-0.1313491295,0.517524801,-0.6766018492,0.8496348391,-0.804623811,-0.3867300641,-0.3933006284,-0.5686864044,-0.3072864043,-0.0266679872,-0.8614503192,0.2240192338,-0.7793492527,0.1619620932,0.3489789183,-0.3562492624,0.3545019539,0.6538364172,0.756241104,-0.6062451181,0.8465006447,0.7562810711,-0.0357503358,0.2661616594,-0.815372665,-0.6287411443,1.0059033436,-0.1787738028,0.9971422243,-0.1292281536,0.7041062157,-0.6180388819,-0.26150168,0.4573990328,0.5368661643,0.0647974464,0.0386779982,-0.8207907629,0.9590668461,0.5822288766,-0.0677446208,0.6177398918,-0.6743429918,0.8234906882,0.1983060257,-0.3452607294,-0.5364956703,0.077024692,0.0292724579,0.6667770966,0.0316648539,0.1519069478,1.0086945795,-0.8017034342,0.8352375912,0.9287495996,-1.7885312453,0.97806439,-0.4451962624,-0.6793066525,-0.7113209223,-0.8026997469,-1.2337007323,-0.8324464819,-2.2060773297,0.8417430832,-0.1447145854,-1.5919073579,-1.6984907556,0.0851570078,-0.3225279236,-1.6271163541,-0.5407974363,0.0260987627,-0.3674544626,0.4305955368,-0.7892950546,0.9433597664,-0.4055030544,-0.3989760293,0.6932615638,0.0529298215,-0.4183257693,0.877735241,0.4836022595,-1.8983152875,0.9412617097,-0.7062054493,-0.8794211066,-0.9301853376,-0.401125369,-0.9011523628,0.4554990526,-0.4988732997,-0.3272832346,-1.0853986358,0.5643667451,0.2316582237,0.4490159932,0.8654378589,0.3435451371,0.2316903257,-0.189087304,-0.5177866544,-0.9453437763,0.2254967524,0.282762371,0.243048239,-0.778731165,-0.5886931993,-0.5154181863,0.705131537,0.0545985068,-0.5441434059,-1.3190473285,-0.1503821027,-0.4261546933,-0.5311991191,-0.7766039631,-1.0912765139,2.0159561892,-0.8430250579,-0.2301545145,-0.5248675947,-0.4172248099,1.2234090303,0.8068108789,0.9994983534,1.2672603872,0.8348650165,-0.3987688013,-0.0458398192,1.4770404391,-0.0278097429,1.0400459283,1.0648596492,0.4451600122,-0.135304956,-0.5971497668,-0.051392452,0.9975697515,0.8350936256,2.2804847594,0.4838811282,0.7622171687,0.0185542921,-0.4428682254,0.3044882678,-1.059858654,1.0091752492,0.9522635994,1.0632364145,0.0353723854,2.2405806976,-0.7504060429,0.0462784943,-0.6742584566,1.1117814605,0.8501876639,0.7828558175,0.3375988493,0.6257669182,-0.2643688854,0.7694466904,0.701590762,1.1332189305,-0.3658651631,0.5596885432,1.7126564718,-0.6354861,0.2774825513,0.19914285,0.5636107862,1.3618569459,-0.2760216541,-0.9768645303,0.3177353247,0.2701923855,0.5024543184,-0.271096244,0.2168808804,-0.1655201978,0.364903208,-1.3193159149,0.5666246967,1.3177928027,-1.3673067572,1.9816925613,0.0749884755,0.7321764612,0.3211266054,0.393270675,1.9310963362,-0.5768753062,-0.4840262974,1.0575769585,0.466523333,-0.42590959,0.9861576155,1.0473957368,0.7094377114,-0.1138093577,0.697838003,0.5286242317,0.6560104077,-1.1336754786,0.7730602853,0.851405743,-0.6615337327,-0.1570032312,-0.5171819323,-0.2552112355,-0.7373433444,0.4371548392,0.0013079773,1.4663096886,0.6940639896,0.9430703895,0.5806118639,0.0391557189,-0.6245162895,-0.1494022527,-0.5329766964,1.5903664492,0.8087252648,-0.2475610969,1.826949083,0.0808847076,0.3738215984,0.2481950991,0.8713148948,0.3719896713,0.7091192156,-0.8856481546,-0.6047357104,0.8423150513,-1.0072559805,1.0659400746,-1.0021008928,0.774469473,-0.4369770782,1.1317950057,-0.3647446239,-0.0776100094,0.1758655144,0.7807777922,0.3201239616,-0.9938975997,0.6972482059,-0.0354585179,-0.0020797987,0.2052452099,0.9511039962,0.4108906976,0.4176583667,0.2459843172,1.9208817795,0.6640436934,1.3062857307,1.0847680549,0.291638467,1.1243231727,1.1820225981,0.9068062041,-0.4647315696,1.2723562701,-0.7226362542,1.3502674544,0.2136911019,0.1955305999,0.4648178469,0.2192590567,0.9601037858,-0.1701867885,0.8091096446,0.6328862264,0.3872832626,1.8396192876,0.7613593353,1.5007810732,-0.044012903,0.8972649659,-0.1434989724,0.7423008828,-0.323268863,-0.3959423315,0.3227019627,0.7204729146,0.8778968805,-0.5721036566,-0.061499326,1.2731180735,0.1231851089,0.5003728267,-0.2537026123,0.5832366123,1.5612590771,-1.0441005843,-0.7225214655,-0.0034580954,0.5458375338,0.2138561323,0.677892655,-1.0813217579,-0.9690590739,0.6476734839,0.4854048753,-1.3605370096,0.9860329213,-0.2404453167,1.1813523872,-0.5897987745,-2.1709386724,-0.2225335116,-0.665998863,-0.3153292362,-1.172906148,-0.1418200009,-1.9849847044,0.2906656925,-0.394486547,0.0829137976,0.3522093879,-1.2395299739,-1.678588566,-1.3694459366,-1.0063802124,-2.2877701823,-0.2706214121,-0.7852845356,-0.1877769784,-0.2507462614,-0.6388105873,-0.234029526,-1.3205310245,-1.3172616911,-0.6278827232,-0.0768779972,-0.0195950413,-0.7532519202,-0.0939929809,-2.2438965791,-0.5651465347,-1.3744324687,0.1994324477,-0.5698740691,0.7223880436,-0.3072122314,0.2523570389,-0.3274116249,0.8081989816,-0.3938956602,-1.033913628,0.0570923654,-0.4723587018,-0.1216034573,-0.3962825625,-0.9084827131,0.0881229241,-1.1852617345,-0.8476411939,0.0177026798,0.1321900744,-1.0766320456,-1.1690082338,0.4092969497,0.2631506512,0.4665668963,-0.2445868569,-1.0666235148,-1.0308665486,1.2896071208,-0.6548367453,-0.3677241052,0.6006703016,-0.3465129316,-1.2202784185,-0.5941249231,1.0511443569,-0.6890842353,-1.1059005657,-0.0839359729,-1.6092390445,0.4464228111,-2.0805569446,0.469682991,-0.8590668738,-1.9975592044,-0.1530187858,-1.2054042333,-0.0563600154,-2.0194545229,0.9701574579,-0.1134652339,-0.0605583958,-0.893904177,-0.559339296,-0.5805529158,-1.1747001639,-0.7256480079,-1.2706890769,-0.3103301409,0.7383745704,-0.219117159,-0.2027873623,-0.3447686235,-0.806760794,-0.410192608,-1.1335360662,-0.9900020946,0.1522672848,-0.2053804096,0.2520201611,0.6342521528,0.4703602629,-1.325714693,-0.9955811259,-0.4524913885,-0.4412184329,-0.7338652828,0.0833464578,0.4373431335,0.645426708,-0.7694753522,0.2428636543,-0.7196724638,-0.0946729548,-0.9594663917,0.2511808046,-0.715022653,-0.6154530498,-0.77116116,0.2393876047,-1.3083416387,-0.9790996929,-0.1886938378,0.0433813204,-0.4921038004,0.6372046296,-0.1102121903,-1.3264138671,0.6447628697,0.2440245369,-0.2833453274,-0.9509507615,-0.0661866951,-2.1601731753,-0.0109383068,-2.1314142464,-0.7253800945,-0.763176908,-1.8725815088,-1.1804154006,0.1286541502,-1.2814614347,-2.0523408425,0.7026557247,0.2073778549,-0.3795603265,0.4943186129,0.2860066576,0.871005839,-0.5461440347,0.3499347301,-0.1759865597,-1.2362185662,-0.8609575194,0.167556277,-0.5165878912,-2.0602509938,0.5068051039,-2.2849991,-0.6817204308,-1.5144201003,0.2535807277,-1.3135627185,-0.7845066824,0.3480913229,-0.2417008352,-0.565852692,-0.3008748299,0.4695940871,-0.926187225,0.3943006017,-0.343394866,-0.424195498,-0.5294718434,-0.8138969668,-1.2038003594,0.2145994493,-0.4060946409,-0.6866585713,-0.9619396792,-0.1037902662,-0.6551846482,0.3991877722,-0.411113924,-0.6042391085,-0.5459862334,0.5159238126,0.5558391892,-0.9015714062,0.7633009853,0.3062269048,-0.6943180795,0.0591626026,0.1899952653,0.051417195,-0.1769404221,-0.2523019105,-1.5577627684,0.4224372129,-2.1449793975,0.0778158183,-0.4569632269,0.3696130133,-0.8397396334,-0.8456761277,0.0661477238,-0.3392593671,0.2049658346,-0.3702360119,-0.6163431326,-0.2135091437,-0.522775795,0.9771717952,-1.0431434767,-0.5560306162,-0.1449188296,0.9162516232,-0.2364290587,-0.217939593,0.9231467544,-0.9486992729,0.3737744543,-0.4836533306,0.6974591136,-0.320115685,-0.7454602197,0.535123744,-0.4298641309,-0.6736645732,0.6751451177,-1.2901044865,0.2784863612,-0.4466108648,-0.1731510721,0.7688643644,0.3669167515,-1.0478482805,0.5339183664,-0.8098416431,0.0541472797,0.9763300793,-0.3019319863,0.6405924858,0.6501469778,0.0688514331,0.4269484314,-0.323238291,-1.0721469733,-0.8618656712,-0.2807442797,-0.404501231,-0.5218726161,-0.6445024631,-0.3306336748,-1.2445315098,1.199450769,-0.1317717862,0.5594762106,-0.7261811457,0.404442747,0.9465281587,1.0852933543,-0.3489181079,1.8200536335,0.7580112806,0.2303241048,0.5150927093,1.2528881303,-0.2963073624,0.196274357,0.7622930028,-0.8839972806,-0.8099826651,-0.9892206193,1.2392364221,0.0498543302,0.1579212129,0.7741924521,0.1807798941,0.8492694717,-0.1267752006,0.7720759689,1.1183282688,-0.8957139656,1.2147428637,0.6538989077,0.4622013893,-0.0853428596,0.5212792331,-0.2803763602,-0.8255671152,0.5969662741,0.121725794,-0.187485291,2.2757295978,1.2836898375,-0.147642439,0.5393657987,-0.2036098466,1.3089211634,0.9109572692,-0.8155438905,0.5593615892,1.329791541,-0.4222123468,-0.8039361574,1.2622823755,0.8370498114,1.1792024844,-0.8160358508,0.698601142,-0.2267269578,0.5026098365,0.8987295705,0.3620178639,0.4561389697,0.4037662323,1.1549620227,0.0354378153,-0.5501053496,0.88337223,1.3608203077,-0.3526063577,-1.0249015349,-0.5047904409,-1.062321506,-0.9657265107,-0.4775521979,0.9536339272,-1.1615888128,-1.4279655047,-0.9899267032,-1.3149430404,0.211171868,-1.3068672893,-0.7101539964,-0.6200078745,-0.1403378086,-0.1319902798,-0.8044759003,1.078876034,-0.5785044208,-0.7009491321,-0.4275846322,-0.9955703173,-0.5572631315,0.6801735093,1.0018862194,-0.7799678806,0.2414159185,-1.7609011201,0.5453200734,-1.3570128098,0.3504825987,0.1614646625,-0.6286315497,0.2217269612,0.2523772649,0.1888733876,-0.56454598,0.9524641624,0.2649858224,0.2850271699,-1.0078648571,0.245498767,-0.8545354614,0.482972594,-1.6030623178,-0.3902790149,1.0050266527,-1.0511761078,-1.3582594341,-1.1944112338,-0.0298565886,1.0706817698,-0.0748856759,-0.6240530668,-0.9252986434,1.3694629208,-1.312232752,0.8895260561,-1.0725877546,-0.828416649,1.4789311158,-0.5102635258,-0.4050205104,0.9320840749,-0.297185676,0.1734278688,1.3178690815,0.4133008846,1.8934280092,0.4475934497,0.5791102823,0.9741920618,0.6767760501,0.4735285866,0.547566644,-0.2418644132,-0.712004212,0.5500556823,-0.9159986027,1.1072499219,-0.0041639301,-0.2567853461,1.845178154,0.9234503827,2.0919557387,1.0111693417,1.3413431587,0.3238779605,0.4267946749,1.9156141293,-0.8702793429,1.4620380977,-0.5542836231,2.289939899,-0.0678135896,0.829757896,0.5112707957,1.038046456,-0.316985635,-0.363174129,0.1675004701,-0.4482867004,-0.4648429821,1.4826362049,-0.3499236928,0.5239776628,0.2815695711,0.8688670494,1.4625055177,-0.9502608041,-0.6155764428,1.3053741683,0.6571597149,0.608077245,-0.4161292681,-1.3057855172,-0.5176968556,1.0191604016,0.967526462,-0.3505984084,-0.4735450296,-0.8798622863,-0.4949665552,0.0163018959,0.4454615393,0.6005137365,-0.9478077195,0.4398736797,0.2489056103,-1.0227698927,0.3211286923,0.5041791152,-0.2995549303,0.3839352615,0.2788402196,0.8264624663,-0.2186797401,0.5310341105,0.2035485436,1.1073649711,0.8771955857,-0.4804896362,-0.0641773114,0.0250999078,-0.7158942514,0.7308054737,1.1211786271,0.5702186678,-0.7317158828,0.8164216919,-0.0217670465,-0.5963412062,-0.9992635088,0.9794990612,0.8222064039,0.2846222093,0.2509177282,1.0379045749,0.7310590965,-0.0361372793,-0.8262001885,-0.7593482361,-2.1617703199,-0.6285386248,0.3327094972,0.9369771363,-0.4799863711,0.2416150472,-0.4926819716,0.6699827554,-0.1302413634,-0.4990248388,-0.3647880987,-0.8266825606,-0.7174365258,-0.9354222283,-0.7527269908,0.786987995,-0.1615108518,0.4955120534,0.500257425,1.0854084031,0.116575795,-0.786542384,-0.3354280328,-0.5402332558,-0.2414774983,-1.1628728555,-0.8005540027,-0.2539142897,0.2375484502,0.6522905448,-0.007954071,0.4452135938,-0.0386376335,0.9542779964,0.3139795409,-1.1820065345,0.1141485866,0.2634129675,-1.0097276544,0.5759053237,0.6825574559,-0.9782783477,0.9533040156,0.4373252416,0.8124735343,0.7662997407,0.4638040891,-0.783945676,-0.1649861684,0.3523076196,-0.4979089717,0.1141096628,0.6325656526,0.004285632,-1.0243950194,0.3434078185,-0.1100331493,0.027258675,0.3701957203,0.6458960625,0.6538626897,-0.775655069,-0.8531319561,-0.3454005891,-1.0873366822,0.8821830519,-0.3596805292,0.4653419898,-0.4743333554,-0.4382816169,-0.5650969634,0.4131835137,0.021252019,-0.0468487922,-0.9412972756,-0.5786276213,0.5218831253,0.0847086534,-0.4905038296,0.1590541756,-0.5315074691,0.2138087962,0.486003733,0.6013121264,0.4398407968,0.849660731,-0.2882097965,-0.9058175147,0.683129589,-1.0823851484,0.7088143627,-0.1810630913,0.4952731518,-0.8501880685,0.5693218546,0.0167886944,2.0471786426,0.3314004561,0.8299553764,-0.3590007687,1.0130600041,0.5694981578,0.0779799742,0.1301428679,1.1847264217,0.378568883,0.86203239,-0.4397982722,0.1333128901,0.0627648494,-0.3449133377,-0.8211018331,1.7799235989,0.800423826,0.5248282446,0.6373685808,-0.462786081,0.1332275914,0.0218071869,0.5140654651,0.9363648788,2.182880276,0.9165419311,1.9204557999,0.735122478,-0.0280250102,0.3990943797,0.4776913073,-0.4278936109,0.3703966234,0.0405965466,0.8202525906,1.1356602549,-0.7157308423,1.2366420236,-0.4140199427,0.290025771,-0.350681394,0.7326373087,0.7555330183,-0.6082480364,1.0458625688,0.3154174432,0.095395713,0.5648457443,-0.8242330864,0.8296776232,-0.3606876088,-0.3660425254,-0.0189424315,0.6648367948,-0.7485612556,-0.6996603187,-0.350040625,0.4353936808,0.9470731982,0.5489576778,-1.2379926955,0.6273989797,0.5142542634,-1.0950267663,-0.8693918797,-0.8757227585,-1.6861300929,-0.1566888642,0.3299636996,0.1219495992,-0.9519594522,-0.8875097639,0.0545262952,-2.2268558483,-0.7747997732,0.1826411782,-1.3261127469,-0.5955376671,-1.5463856461,-0.4197506078,-0.5409020216,0.5316125323,1.0403596647,-2.0177463308,0.6179316695,-0.5808009376,-0.9552683683,-1.7269780059,-0.7119102814,-0.7403065753,-2.193441225,-0.5644201103,1.2594853347,-0.2146375702,0.6613939322,0.8877917755,0.4325247281,-1.7889804925,0.359494009,-1.402950183,0.3886015017,-1.8492917257,0.4478612503,-2.2886272213,0.9178208888,-0.2953385231,-0.7621217249,0.1829895373,0.103754403,-0.6793209052,-0.2700021657,0.4912986144,-0.737239147,-1.8066128135,0.6232186618,-1.8697913826,-0.3767809879,-1.866546873,0.9174688093,-2.1215089773,0.2102176761,-0.6227750149,-1.1651916768,-0.3306249002,-0.4183120672,0.4768387234,-0.4142909578,-0.351889618,0.9346288551,-1.0920255882,0.2507253026,-0.070666454,-2.0621102047,-0.7693472968,0.5174158721,0.2899852881,-0.6683138113,-0.4685646588,-2.1849284777,-0.9105166268,-1.0319970094,-0.3143342597,0.2412628498,-0.4281137779,-0.4444084956,-2.0730820909,0.9074047849,-0.6383361983,-1.8097598296,-1.6218010909,-0.687348675,-1.0054210934,-0.3800708875,-0.6750286407,-1.3574853927,-1.1045427901,-0.3675736212,0.510351809,-0.9424444069,-0.1885714701,-1.6351149804,0.5183067709,-2.0318540416,-1.1240032723,-0.0754796816,2.278775256,0.5200235812,1.3473511775,-1.9514966302,-0.8162811921,0.4240571107,1.0863925246,2.162463604,-1.6412527057,-0.4513530566,-0.6944260466,-1.0619041411,-0.6014428102,-1.6695885986,-1.5814395506,0.465013699,-0.3677298358,-2.1667168247,-0.3336212404,-0.6866772498,-0.6868391336,0.639039807,0.6403612068,-2.0609142528,-1.471394901,0.6944404046,-1.0821142855,0.2961896734,-0.3881359316,-0.949497098,0.6495587548,-2.0910309696,-1.653041138,0.1464336143,0.2292411349,0.9246060125,-1.923472813,-0.5675851527,0.5053810676,-0.2353084805,-1.6998389353,0.5554528408,-0.3713879038,-1.9259299298,-0.8503130734,0.6817938898,-2.0280252338,-1.0897013321,0.5270091212,0.9138761898,0.9993992048,-2.0571074737,1.8570813888,0.4384448267,1.0464005344,0.4684839341,-0.5528582947,-0.3931102065,-1.0390254056,-0.7773521346,-2.1918672371,-0.6140580461,-1.2273783314,-1.582526954,-1.809751196,-1.2605734008,-0.8256365852,-1.9525153345,-0.5029092298,-1.0230123252,0.5610396184,-0.7643583489,-0.6065839552,0.5445325641,-0.1635791589,-1.4877142433,-0.8645817426,-1.337427953,1.040681346,-0.2815714154,-0.7115162106,-1.0506135121,-0.8026662746,-1.4000905362,0.4237258347,-0.7163280728,0.1360161337,-0.8290100293,-2.2609062101,-0.9320180871,-0.0798338485,0.8308749027,-2.2474564746,0.4701758928,0.8321798058,-1.8756265234,-1.757969507,-1.7665333157,-0.044273453,-1.6350876293,-1.028535083,0.018301314,-2.1692462443,1.1416459416,0.314014694,-1.0205361511,-1.4560448524,-0.1367632344,-2.2739638793,-0.3511943871,0.5049701783,0.6658393587,-0.9270071513,-0.559742925,2.2366712343,-1.1396764885,1.5288128148,-0.4269017217,-0.5469218153,0.6124293284,0.2842168602,-1.2484892198,-2.1120997264,0.1686018206,0.1249352059,-1.5983238907,2.2879752135,-1.3244068589,0.0539611296,-0.6905216387,-1.30378742,-1.2943611799,1.0201526912,-1.4214809614,-1.2956625465,-0.689584602,0.0936693449,-1.1345582378,-1.5573702534,-2.0955329974,-0.4168974635,-0.2253951882,0.1721347861,0.323117742,2.2493155376,0.9507196068,-0.0855728761,-1.9815899627,-0.231796571,0.7445063353,-1.3586756907,-1.5288755832,-0.8583449065,-1.5890807718,-0.2242660891,-1.7011388376,-0.5909198618,-0.8147348431,-0.0714685089,-0.1435234235,-1.3668037403,-1.6270914252,-1.9779321082,0.5474328443,-1.8552554176,0.5776000244,-0.0719758595,-0.5411762035,-1.4512543774,-0.8902979005,-2.2574563803,1.3583066932,-0.4349399894,0.5916146935,-0.2398854147,-0.9802665519,-1.034096998,-1.712710528,-0.6561488535,0.3136816278,-1.9251492715,-1.0298875144,-1.2850877568,-0.3365084427,-0.4109506682,-0.4004875391,-0.4752374671,-0.9469402912,-0.7939523723,-0.6388875131,-1.4209395876,-1.7384458671,-1.9688111759,-2.2190647859,0.8904319762,-1.840036126,0.6581128553,-0.1755960089,0.1011285288,0.1463697318,-1.3773634974,0.8374808048,-0.4560120457,0.9975844842,0.4046932326,-1.9915438242,-1.8109113839,-0.8095805748,0.5930670974,-0.5195098341,-2.2270425488,1.0174016037,-0.4259469964,0.9940125679,-0.2906481558,1.8971234784,-0.036729555,0.0992718425,-0.6667358032,-0.7033880781,-0.5904901087,-0.7878647978,-0.528629132,-1.355004757,-1.2068437939,-0.1097227229,0.1616711241,0.6267790955,1.1878231249,-2.0274295318,0.9188250068,0.963442866,-2.1297777225,0.8656256339,0.307737894,-1.9895870844,-0.6417126229,1.5660746855,-1.7691624198,0.4102591143,-0.5743993557,-0.1820750057,0.5076929679,-1.0992318485,-0.9768192338,0.5378435413,0.8299794657,-0.9903979586,-0.8227713978,-1.1687081599,0.7333986326,-0.7623647018,-2.065048971,1.0589407099,0.918092721,-0.9233847539,0.8199745885,-0.4013551126,0.0177253986,0.5428155392,-0.4270704969,-0.7203525753,-0.3929329542,1.213339203,1.1865835515,-0.4789232065,-1.1069570604,0.1353136336,0.22040014,-0.9850162479,0.0557611711,0.8807941499,-0.3664574555,-0.2757521067,-0.0975692642,-0.9573764234,-0.6843923187,-0.4980681476,0.0393472675,-0.7814091431,-0.9776496402,0.0217035184,0.235260141,0.4146999639,-0.2224805285,-0.535262216,-1.0206441882,-0.2011075731,-1.5812378195,-2.0481666052,0.881821667,-0.4463472474,-1.870198643,-0.8879765365,-1.561992011,1.019564568,-0.3435345911,-0.5024552925,-1.1036601645,0.1204149774,-1.5393470105,-0.5331458282,-1.6459549468,-0.8617663015,-2.0879645834,-0.6390119224,-0.4024879208,1.7268705125,0.2625716176,0.5549293553,-0.5198609834,1.9886017852,-0.5448761509,-0.3792103803,-0.3597975061,0.0964789086,-1.4725283648,0.144559554,-2.2786070203,-0.0972698214,-1.0429795647,-1.5901639025,0.2649912869,-1.0323600114,-2.1109416639,1.1194661988,0.7604923083,-2.0335707509,-1.931866541,1.3960147271,-1.72173491,-1.5557468687,-2.210201347,-0.0757410474,-2.2847711712,-0.8726390512,-1.8084662216,-2.0268869834,1.2948130895,0.6538546578,0.2333462039,-0.5011241504,2.0052883808,-0.0765181512,-0.6606698255,0.278255407,0.8481300096,-2.0110652255,-1.3825323364,0.4715627311,-1.6242145428,-1.6364083524,-2.2011475737,-0.590474808,0.8317625442,-0.5097940452,0.882711694,-0.5110254385,0.3171953871,-1.6855336589,-0.4228563825,-0.1083344899,-1.4664042038,-1.4010826174,-1.5765600129,-0.2910642452,-0.6826035245,-0.959976607,-0.3818906852,-1.8734346717,-1.019566423,-0.9315271481,-0.1653364454,-0.4953290247,-0.6610278787,-2.1416542096,0.7539989184,-1.5343044874,-0.7734937758,-0.9186623533,-0.8260799372,0.3398646603,0.6028473271,-1.5968914138,-1.5631183026,-0.1917478287,0.3362370571,0.0383706969,-1.1994331517,-1.4673737148,-0.7673771073,-0.3541547934,-1.0612927246,-0.5054990306,-0.7735211122,0.7039189119,-2.1004958349,-1.6975719104,-1.7997552937,-0.4513732488,-0.584113433,-0.7523502426,1.1107829089,-2.2051730355,-1.1425899005,0.9944219518,-0.9470737793,-0.4165911322,-0.3165122881,-0.6338489048,0.7569103807,-1.1133235952,-1.9232722446,-0.5541868473,-0.0035865625,0.4204867463,-2.1784067686,-1.0145883895,-0.4615160022,0.6540903776,-2.2893720919,0.5426123316,0.4054445617,-1.8347125419,-0.2981099193,0.423206044,-1.5678161158,-1.0963368623,0.050936943,0.4247843051,0.3563880673,-0.9871642479,0.8497689432,-0.9177468934,0.2875074181,-0.7834431214,-1.5591686871,-2.2810089361,-0.6710296717,0.8101461158,-1.9750365866,0.9053569695,-0.5191524463,-1.02010321,-0.8783329433,-2.1417824432,-1.2198828624,-1.132122647,0.8899325068,-1.5858443755,0.1724546726,0.7135099628,-0.5594630494,0.3304266072,0.7081246647,-0.8224861178,0.729922639,-2.2327121757,-0.3217673601,-0.2587481645,0.5004728644,-0.7090888438,-1.8913630198,-0.4067726278,0.4830960625,0.4155250527,2.0594262425,-0.4740676302,-1.9760142167,-1.0347466663,0.6648729534,0.6873279207,-1.0471862397,1.1214923352,-0.7067533029,-2.2794768732,-1.2312490573,-0.8634782,-0.2506407622,-2.1371158842,-1.3560666054,0.3184533347,-1.9337931996,0.0485399616,0.8919539237,-1.9240839632,-0.6137007652,0.2035908974,-1.6963705003,-0.2419588565,0.9454166839,0.5463869153,-1.7568610577,0.4320461886,-0.3744778231,-0.783505379,2.125458471,-1.0808183219,-1.337508245,-0.5473500919,0.3715553783,-1.1543436013,-2.1020481296,-0.9076629925,-0.0508971202,-2.1459104328,-0.3558954891,-1.4933892198,0.0264885784,-1.4499753678,-1.5073516683,-0.3089688248,0.0632266916,-0.7830864996,-1.6445733914,0.2063845719,-0.596064617,-2.1412837536,-1.6965319318,-0.5304334963,-0.9302048409,0.0578797197,0.1139136838,0.8683508232,-0.3652199013,-0.2855531876,-0.6587151487,-0.9681988277,0.9240939937,0.2580332247,0.335971557,-1.4015480111,-0.6174479927,-2.2518565218,0.2974729293,-0.9216973467,-1.1346530861,-1.4307711343,0.7992207569,-0.0448583278,-0.7047139383,-0.9776090778,-1.6611507351,-0.6931625698,-2.1250104431,0.6261742102,-0.2225935004,-0.6575703674,-1.1446844883,-1.9112981233,-0.3101684128,0.4423455483,-1.1052115405,0.8832080135,0.7389075471,-1.3903566509,-1.6175174863,-1.3577471548,0.8180412573,0.4942050337,-0.6617831326,-1.5507017989,-1.6353143539,-2.2765796476,0.4263887842,-1.8437014644,-1.3021794662,-1.262200493,-2.0347227975,-0.777600747,-0.3809524722,-1.0845623417,-2.2796816891,-0.9908286136,-0.418883429,-1.635897885,-0.1837036861,0.1334881875,0.9825424135,1.0889961728,-1.4220891791,0.3551006915,-0.2483585771,-0.8586728352,-0.8314644807,-0.8446059009,-1.3795029652,-2.0046197818,0.9068676939,-1.3975808681,-2.1599903389,1.0216191653,-1.626857279,0.1669007212,-0.4322994323,0.1370247466,0.6167645191,0.6609487823,0.8628590315,-1.477494864,-1.3414877077,-0.6822661141,0.3822889083,-0.4435761679,-0.3079233258,1.006007636,-0.5653603364,0.7906754378,1.8064975186,-0.464655988,-0.6050639286,0.6476056584,-1.8328296988,-0.8025531589,0.2022970235,-2.0697508994,0.7909220095,1.8193186554,-1.1614724868,0.0643357747,0.1582559046,-0.0754879276,0.3221045216,-1.6334676019,-0.699220724,-0.145532372,-0.4609590734,0.3679368587,-0.5991367381,-2.0493380963,-0.0569965945,-2.1799141814,-0.845788477,-0.1650859124,0.9857508129,-0.9652774143,0.1618998573,-2.2300124947,-0.2528819638,-1.2543220654,-0.2205922637,-0.8385894472,-0.3276764086,-0.4586624584,1.1896245597,-0.4813130199,-0.3570050313,-0.889509205,2.2791776632,0.5951204032,0.4302986635,-1.0827274319,-0.4423247191,-0.28920705,-0.9851615028,0.9499584446,-0.1937888946,-1.9696163454,-0.0663977276,-1.1856338588,-0.9641615121,0.1096143551,-1.2197161319,-1.7489405582,-0.8358370682,0.2429549435,-0.6685706569,-1.4408315147,0.6994016799,1.0808450394,-0.1181673253,1.0215840245,0.1194699573,-0.4675225275,-0.3022184505,-1.4382813999,-1.2808167205,-2.2279072101,0.9845872222,-0.3606219745,0.7041520491,0.3773848235,-0.619526835,0.3862699424,0.1405722078,-0.5285629914,-0.7192617475,-1.0986312818,-0.218181087,0.337247693,-2.0852220178,-0.5522971292,1.3270821266,-1.5359432506,0.9016704803,-1.1642445639,0.1493673535,-1.5789912142,0.9452491198,-0.8132752171,1.3086753296,-0.455363823,-1.887951505,0.0287782145,1.0801919685,-0.7588941418,0.4801008155,0.4813696443,-0.0702597988,-1.3717042332,1.0751731759,-0.1299625814,0.0334879838,-1.4011682729,0.9999801983,1.1852594167,0.3083303619,0.2216407204,-2.0171447332,-0.1757452339,-1.3655296281,0.5040130469,-0.9532742019,-0.0044729413,1.0232170096,-1.0395061681,-0.499602988,1.2775468909,0.6453674476,-0.4157918072,-0.648525431,0.9176588065,-0.5009413999,-0.5080789213,-0.5987143877,1.1530264498,-0.0533418494,0.0180647025,-2.2568521968,0.6945579107,0.7294590331,-2.0929074793,0.0342718859,1.2789183631,0.7863740251,-1.2648532719,0.4110721652,-0.295293105,0.4407512247,1.2251784927,-0.9874032106,0.0228469236,0.1234987431,-0.8716955366,-0.5761464353,0.2126538025,0.3490589395,-0.5529067331,1.1875029141,-0.5436628235,-0.6941710935,0.3328553243,0.449109608,0.3035511946,-0.1614629143,0.1516159627,-1.7393021376,-1.0841262575,0.3062664442,-0.1033038624,-0.3834788662,-0.280438495,-0.471565069,1.3983905495,-0.3131727606,-1.9727443549,1.0796072801,1.2169358966,0.714943311,-0.3749447718,0.5143314581,-1.0309605684,-0.9488475609,0.7342767684,0.9334598546,-1.7259741744,0.5180695016,-1.0174836524,-1.6482136912,-0.3599202068,-0.7962447496,0.4081677475,-0.3689883801,-0.2107832966,0.5044188098,0.1802853865,0.0981429815,-0.8644383924,-0.7954360803,-1.2897904889,-0.3949530969,-1.1825849218,-1.601818592,-0.2034331267,0.1079703697,-0.7311559186,-0.4193945747,0.125983752,-0.0393332615,-0.4619974523,-1.1167141876,0.794878018,-0.4450134824,0.2508066403,-0.6375850567,0.1664105676,0.3989477845,0.858780915,0.8390976149,-0.6691976371,0.2658522343,-0.0047906425,0.6577637481,0.7892154044,0.4713441753,0.6283610754,-0.3147467302,0.9643863933,0.1552135672,-0.3627025684,-0.4128030091,-0.1654529848,0.7459339197,-1.5462230051,-0.8848930741,0.6531464413,-0.2527732599,1.355259696,-0.769695608,0.2010665479,1.0041756208,0.161508272,1.1374000444,-0.4738005302,-0.5524179725,-1.9293809281,0.0116206373,0.9848078214,-0.1412265662,-0.3611678047,-0.4635380641,-2.0929011103,-0.2347761523,-2.1794889316,0.5540159419,-0.0097067967,0.5087455853,1.1463511407,-0.2274108982,-0.3370497615,-0.0206495237,-0.0345833686,0.7259403336,-1.9421567189,-0.6566539847,-0.6014473185,0.8785564992,0.0132806388,0.0083040789,-0.5933780319,0.2856059379,-0.5129761317,-0.1031143678,-0.5509998268,-0.3637081739,-0.186542577,-0.998396586,-0.1141372759,0.9808713184,0.2069862759,0.743245859,0.4855032616,1.3445157164,0.6561255689,-0.4858332567,-0.3037607422,-1.3498782489,-0.5390178252,0.1778829024,0.4729443712,0.1760089759,-0.5512643155,-0.968879688,1.1027982571,0.7356670412,0.4428054252,-0.0934111819,0.6259217818,0.6710544308,-0.0578587856,-0.2635804208,0.4262493359,0.0463391192,-1.6332767513,-1.3201020307,0.2964326872,0.3459710501,-0.083334737,-0.896832414,0.2155997988,1.1664526237,1.2186053116,1.1028161605,-0.3980272946,-0.7490255284,-0.4405331865,-0.148492726,0.5755956514,0.4864543113,-0.0386724699,-0.5576752218,-0.3231304824,1.0099969151,0.245511399,0.6595215414,-1.0094654355,-1.0417947929,0.0465027215,0.6840345858,0.2788895078
   0.4354165311,-0.4633107966,-0.2066108893,0.3752818798,-1.1465767259,0.6857919511,0.1983100161,-0.6136041953,0.1954266792,0.0378735608,0.4931350674,-0.2895099559,0.5350460541,-0.1360071416,0.3238744657,-0.3167027898,1.0331918405,-0.3160485482,0.1914688778,-0.120091185,1.0618804694,2.2611659285,0.848311502,0.9638698994,-0.8525950691,-0.6162456703,-0.9873358449,-0.3847640875,0.1282766502,-2.0268476553,1.2446075093,-1.5391925007,1.2193054481,0.4770272855,-0.5417668345,0.0630275879,0.8120259166,0.8323895915,0.1795460066,-0.5984668484,-0.0768345852,0.1583207583,-0.186896136,-0.8901779064,-0.5160723839,0.5769059036,-0.3337373453,-2.0011985413,-0.7566272061,0.9292529889,-0.6726193143,0.9033068755,-1.3615545939,-0.4810101003,-0.2125591586,-0.9442559739,-0.4307726721,-0.8075272778,-2.2165373589,-0.4484661655,-0.7791313052,-1.323601027,0.8196068642,-0.019746302,-1.3601112936,-0.5869161408,-0.6824787791,-0.9091216032,0.1132250317,-1.1787460357,-0.9767130705,-0.145021813,-0.8416214965,0.3876836544,0.9060987158,0.0200479463,-0.8719347445,0.3645018297,0.7991244905,-0.6070077917,-1.2855915447,-0.4774060174,0.1482133435,-1.1352696178,-0.8423037929,0.298961198,-0.7604212064,0.2956563502,-0.1062573582,0.221616798,-0.867409739,-2.0069674381,0.1632132328,-0.4535982522,-1.6355427506,-1.8284136252,-0.2233053217,-0.5615631082,-0.6902012503,-0.9897161286,0.5397771099,0.9016378193,0.5164627346,0.7277135466,0.9770931273,0.3609253611,-0.9360893058,0.0294457424,-1.0344907721,0.1781104163,0.0687900437,-0.3394492523,0.6142847683,0.562116645,0.4657277762,-0.4050130596,0.0128266502,0.946172917,-0.7420966091,0.0720057349,0.355683982,-0.846579412,-0.8025826833,0.5692695784,0.4471764569,-0.675858125,0.3067013977,0.5223356674,-0.3116760708,-1.7653822221,0.5865741078,-0.8371015001,0.2489603197,0.4383752284,0.1865244252,-1.2637481192,1.6408031181,-0.4160737139,-0.5816849977,1.7483257579,-0.855098571,-1.21481907,0.4688082677,0.7877513197,-0.1495196201,-0.7052417446,-0.4881187833,-0.6703900895,-0.4791698669,-0.7480399827,-0.0555701972,1.8988958303,-0.8486054153,-0.9977969766,-1.3371857844,2.2367225862,0.9507194928,-0.1448225155,-0.772158578,0.1223128815,-0.8138593844,-0.1959825122,-1.2218559231,-0.236179557,0.2855012819,0.5745271789,-1.2030782379,-0.1016601055,0.0329405637,0.0546102887,1.0466429902,0.4550957604,-0.6859403152,0.2514399603,0.6150535364,-0.0709772804,-1.3597037553,0.5479474989,-0.2751375663,0.3390957403,0.9424343255,-0.0131971197,0.5813532858,0.4558241292,-1.7159632172,-0.5441564486,-2.2241061738,-0.3895409008,0.7415949522,-0.1416553094,0.5148191834,0.9110536056,-0.3624821188,0.4179842837,0.6224769532,0.1931600981,-1.0393722847,-2.1527936932,-1.2090317212,-0.6261086785,-0.3934399787,-0.1613052929,1.3282186277,-0.8296872619,0.8625119271,0.4708623107,-1.4419077279,-0.9829711791,-0.7367999138,0.0797706756,1.9793264387,-0.5323592599,-0.6389618287,-1.0320732045,0.0039212165,0.4154490402,0.6518023824,1.1034900246,-1.0561970176,-0.2778172331,0.0170617346,-0.2365969198,0.3131956979,-0.2508687514,0.1568616943,0.7214092928,0.3769767194,-0.2588396877,-1.0619985697,-0.2879887377,-0.401225959,0.3477076282,1.6332642994,-0.5074738491,-0.0473612631,-0.2984257181,-0.9955590959,-0.7315273994,0.1520008475,-0.5374257258,-0.3343540755,-0.8214962126,-0.8974736809,0.5793297813,-0.4250686451,-0.3698674078,-0.1484006108,-0.7610975325,-0.0412178963,0.7515599403,0.3208989295,-0.3684719864,-0.5566233889,-0.7043136192,-0.4969415939,-1.1461444228,-1.1036828407,-0.9687713524,-0.5599913757,0.462726378,0.3782191659,0.3127018971,-0.3647208559,-2.2123662782,1.2942390766,0.5139580184,-0.0082432093,-0.7092862277,-0.8632722603,-0.7972988643,-0.4740497668,-1.4634674551,0.4087535657,0.5448889725,-0.4139786879,-0.690934383,0.1455498321,-0.1254647647,-0.0060064107,0.2152970749,1.1992233458,0.8154058213,-0.2897745661,-0.0866172635,-0.0254298372,-0.1506421518,-1.0926144486,-0.3541994894,-0.5514277225,-0.3510635206,-1.4202502268,-1.2741304773,-0.0096252736,-0.5244132129,-0.4244877694,0.6623647182,-0.4038696187,-1.0208764091,-0.5592742683,0.419924332,0.052464349,-0.2200726863,-0.8710853123,0.7904411115,0.7061480521,-1.0137212757,-0.280820175,0.0319591666,0.0042388527,0.5090876919,-0.6723741616,-0.4895945917,0.416803352,-0.650453302,-0.7891130207,-1.1364942548,-0.3484701509,-1.6520205029,-0.4411638854,0.0467542646,-0.8441941424,0.4265403494,0.541378153,0.4371210895,-0.1104723315,-0.6953237483,-1.7550040675,0.3309840609,-0.279828831,-1.5882897819,-1.1299720881,0.3197284117,0.3623362201,-0.4397271092,-0.4709473019,-1.2610243528,-0.2356541511,0.2861212027,0.6632982114,-0.6589695198,-1.3483769026,0.3812802533,0.3651897129,-0.9908543892,0.2018393788,-0.9846969179,0.1829003599,-1.0063922385,-1.1848460081,-0.58507063,-0.4701041448,-0.7016008498,-0.7267811875,1.3424266776,0.3593970845,0.4714391781,0.3208913211,0.6052439179,0.5766288841,-0.4850496395,-1.1133747973,-0.8611321172,0.281557017,-0.8621671811,-0.9226143193,0.5438058796,0.5928374012,0.5332269827,-1.3726498513,1.1761719532,-0.8631451029,0.022452513,-0.479001479,0.8776107416,0.3013413733,1.5996640823,-0.0204702186,0.8941006801,-0.9344097594,-0.2580419139,-0.5638525257,-0.3313164649,-0.1250589136,0.4342639894,-2.0335079622,0.6776265131,-0.8232735353,-0.2017546054,0.631117883,-0.5856350386,-0.1242107388,0.3655355644,-1.2433866371,-0.2715527322,1.1987820732,0.09292575,-0.5073885607,-0.0958533556,-0.5641725939,-0.8201149087,0.2409885013,-0.1286097685,-0.8100569487,0.0187572863,0.1237910916,-0.1278425254,0.1870573518,-0.3762273406,-0.0736836118,0.8324354411,-0.2902910256,-0.4447929707,-2.1731041433,-0.5366123101,-0.0623068364,0.1031500107,0.0328389005,-0.0867672153,0.0959369423,-0.1253287367,-0.6867905948,-1.0350565804,-0.7869717704,0.3365790686,-0.1486287375,0.8568029418,-2.0869722831,1.0713860562,-0.9895546402,-0.9992678192,0.3273547529,-0.8615116993,-1.1796083157,0.0175382269,-1.0823652368,1.4331053843,0.8654728615,-1.9452326578,-1.1858069567,0.2814832431,0.969483098,-1.4992313586,0.412052013,0.0321188224,1.0082282286,0.2365184479,-0.0738636917,0.6351200899,0.1076807227,0.8849855804,0.9555454382,-1.7738106404,0.383265682,-0.3836979886,-0.7524296196,-0.1627259293,0.7104540652,-1.1314198977,-0.5757624695,0.1388690095,1.2041008008,-1.0712561873,-0.869182421,0.6969036392,1.4327401234,-1.337169772,1.1075525123,0.4411480167,0.6274863476,-0.488977161,-1.009570199,0.8879123118,-0.6224028617,-0.4664505855,0.1507916886,0.53561786,-1.1103722933,0.8581147531,-1.3797151326,-0.7203557976,-0.9396481011,-0.4483519108,-1.8979233161,0.9217934115,-1.5260196328,0.5132673093,-0.7299399304,-1.7781641346,0.9416212805,-0.0716348585,-0.0475823113,0.0114483685,0.8956282298,-0.8761490695,-0.38874403,-1.1567771902,0.364453559,-0.5689422851,-1.2387877392,-1.3955808393,0.7222184678,-1.4016932919,0.1201118857,-0.9664593841,-0.2803418989,-0.2926381196,0.0688520834,-0.5148581354,0.0525004368,-0.8700720061,-1.7159306504,-0.3160419321,-0.6747126679,-0.6124805114,-0.4760236192,-0.0427002488,-0.358346889,1.6399422317,0.5419695891,-1.7273194177,0.8814166002,2.2484995309,0.4097328911,0.234405297,0.1075354466,-0.2973747747,0.391443603,-0.7507082169,0.0344076427,-0.3711455499,-0.1244614254,-1.5168582265,-0.7157340019,-0.2918571819,-1.2298027595,-0.9320417378,-0.1545444713,-0.8187886007,0.5021338097,0.8887001226,0.0827102986,-0.5540910667,-0.6906290274,-0.5897535474,-0.420328847,0.3811902912,-0.9898508687,-1.1203506324,0.1248513402,0.7554108833,0.022235444,-0.9130433064,0.6134655806,-0.348709805,-1.4588933499,-1.3488208536,0.9581736574,-1.5790369759,-0.5237200421,0.1430706998,-0.502859452,-1.1911286775,-1.3867565173,-0.3839415555,0.8218648709,-0.2306555751,0.034562792,-0.7990336624,-0.8612086517,0.1598408716,-0.7181326335,-0.5701965641,-0.9002811298,-0.884992205,-1.3887193166,0.1444190166,0.4449843643,-0.8178767829,-0.4041899272,0.3198963681,-0.0955404786,-0.3574424905,0.0844421229,-0.1136353124,-0.4442190623,-0.4167424181,0.3785992823,-0.749686059,0.5239622366,0.3866824445,-1.0726062036,0.2125120039,0.6337141868,-1.2175333024,-0.3344700473,-0.4279544326,-1.2444274218,0.6321500831,0.4689706618,-0.5088747252,-0.8140821382,0.4823578045,0.3684261673,-1.3874942735,-1.5478363269,-0.3822086084,0.3989779705,-0.7979004587,-0.6243400958,-0.1762957829,0.4053396697,-0.9336024054,-1.0669095078,-0.4700344515,-0.3005053807,0.7834386179,0.195848514,1.2373141451,0.0090205046,0.3912319286,0.8434741091,-1.4017708991,-0.2742772148,0.4898739478,1.072903915,0.6467073769,-1.1879300977,0.1351231907,-1.2498851178,0.4081039875,-0.8233291511,-1.3072211028,-0.2278793112,-1.1316179592,-0.3536692646,0.9501384169,-1.3201653712,-0.3584057742,-0.025528693,-0.7665844738,-1.2559864907,0.2379866369,0.8635543482,-0.513484098,-1.9949403782,-1.1305289889,0.2023907046,-0.8208175648,-1.3239076697,0.3535528045,-0.8059900239,-0.2673989795,0.2529764674,0.5447226922,-0.8981500508,-0.4962006361,-0.1536622697,-0.7686671573,0.4346396621,-0.492521154,-1.982153931,-0.5733642002,-0.0889666882,0.1762159875,-0.659697803,-0.8439649592,0.0828579538,-0.1804187565,0.6541291766,0.2283614209,-0.679176703,-0.4296841896,0.1816112423,0.4257819898,-1.5028762562,-0.4805979746,0.6051103761,-1.305779168,0.428360182,-0.7427682146,-0.2463108658,1.1251310777,0.1068374525,-0.4724662144,0.1371429721,-0.2070021152,-0.9313805949,-0.7967460285,-0.9741154626,-0.5521944954,0.4708459336,-0.5466405684,-0.8523698803,0.255032016,-0.562536582,0.1680317464,-1.3685070548,1.0491539699,0.2732028318,0.5921592748,0.3086797081,-0.3082294167,-1.9828623285,1.3477319979,-0.852523526,-2.1268786658,0.9234357048,-1.0458868007,0.1936896366,-0.8036519568,-0.6230299478,-0.1207398109,-0.5832138278,0.1035428052,0.1768699228,0.3702506745,1.0242360418,-0.9243167857,-0.8672707228,0.2035229706,-1.2458226098,-0.5451145695,-1.3561419126,0.7101232733,-0.4667295572,0.9253294844,-0.2945918862,-1.4207287354,-0.8093020398,-2.1202245553,-1.2392708021,0.214404813,0.7921619346,0.6597508467,-0.0520873256,-0.9000649031,-0.1691754758,-0.4030244873,0.7316613602,-0.8510472093,-0.4176493903,-1.3226176966,-0.4375364635,0.3100696171,-0.0023225703,-0.1743315134,-1.2226451043,-1.0547652549,0.6180441982,-0.6873689427,-0.5123969709,-0.3120519904,-0.375315669,-0.856193474,-0.7286005403,-2.2243644614,-0.4958249029,0.4858430916,-1.0247202786,-0.6405441473,-0.6520329598,-0.9314599317,0.0009750078,0.8753731495,-0.0954027875,-0.0478713857,-1.2397054086,-0.0322505845,-0.342900843,0.7410798916,-0.4920531494,-1.6109319884,-1.2278131675,-1.0271971481,-1.8533615758,-1.307039763,-0.8811581502,-0.3278778036,-1.0957078233,-0.3713037512,-0.0080656827,-0.5921830512,-0.2974316983,-0.7608408225,-0.9022142554,0.5303377383,-0.1126972649,0.1389831023,0.67791981,-0.0697091898,-0.0492823288,0.2442972406,0.628872045,-0.8859065681,0.6607315034,0.2312533622,-1.0935491983,0.1659785259,-0.8261805166,-0.355987605,-0.0542993421,1.5814021485,-0.8552513793,-0.5425687907,-0.5221453284,-2.2677885468,0.9828282432,-0.6956139951,0.1498862361,-0.4990664966,-0.9136405431,-0.6241993419,1.023668215,-0.1428369873,-0.6512902974,-1.2191123898,0.8164709836,0.0377053969,0.9406849307,-0.1191802198,-0.3946274478,1.395788992,-1.0019493752,-0.1526577383,-0.8730975863,0.0072884022,0.1733123412,0.1985402521,0.5650714017,-0.7119266151,1.0454577822,0.775794122,0.5835396309,-1.4914508375,-0.4942370733,-0.3026033135,-0.2792206468,0.3011731167,-0.4083377364,0.2603500674,-0.3869737842,-1.2791799781,-1.0688888847,-1.2495529261,-2.1026085338,-1.3853250385,0.3090041113,-1.0889524318,-0.6149417475,0.3022144822,-0.3739596756,0.3172232705,-0.6483300799,0.6060625829,-0.3394939343,-1.1450414113,-0.4084326037,0.3388471216,1.4476525856,0.6495059944,0.115546503,-0.0346836391,0.3452123868,0.7108551509,-0.1410336684,0.3163863027,0.970936473,-0.7212330073,-0.1382992228,0.9695104868,0.7968617463,0.7451875371,-0.9289044203,0.1470709776,-0.5011493572,0.5272913713,-0.732009306,-0.7983614165,0.8543055357,1.3175776628,-0.1606643671,0.2964983636,0.0440157006,-0.7161287757,-0.3178597565,-0.6428622387,0.8974089689,-0.2816328697,1.147519494,0.1104744979,-0.2004451069,-0.1549238252,0.5051732252,0.3690697724,0.6407305498,0.0266176118,-0.6467423838,0.1950081831,0.2237517986,0.1116958802,0.5658306936,-1.2234677236,-0.4320314537,0.0016735954,0.5974482541,-0.8979947327,0.405682056,-0.630766168,0.6156057401,0.2794340395,1.3981794788,1.6559203912,0.5314679068,0.0146157549,0.1092169747,1.0387635424,0.8099406095,0.9845566065,1.345331966,-1.1585002489,0.7276736932,-0.3099556452,0.5288347285,-0.9109478223,0.1069744543,0.0921611907,0.9072532215,-0.2862256028,0.4723771727,0.684655853,-0.8469280235,-0.4125814026,-0.6380593654,-0.5817574588,-0.442207774,-0.122343176,-2.2660775718,0.5516451789,-0.5554938133,-0.4734142461,0.9750159022,0.2944617501,0.7886552365,-0.0629345308,-1.4287846368,-0.729108758,-0.7408664471,-0.2020414903,-0.4631334448,0.1519932264,0.5905410846,-0.7145661163,0.3900537221,-0.3434502219,-0.0867316927,0.5076809975,0.2134347887,-0.686277634,1.0110327856,-0.6840176296,-0.2248350767,-0.1955889704,0.518555155,-0.5235265581,-0.9041376332,-0.0241495509,0.5865907265,-0.1086808309,0.0630012281,-1.0571614635,0.7119526041,-0.0260332335,-0.714539495,-0.588038174,0.0113565223,0.1910445963,0.5574972168,-1.0105543416,1.068913938,0.5083429798,-0.0228975303,0.5777712448,0.8612360367,0.3896174196,1.1632738803,-0.6908081156,1.046472405,0.8475788456,-0.6858111975,-0.8241527233,0.3805005274,-0.150356283,-0.4681630425,-0.1576687985,-0.3417854429,-0.1081046881,-0.4386227313,-0.6713694427,-1.1266951839,0.421088456,-0.6801729477,1.0356831423,-0.0691898406,0.9144437141,-0.9258116614,-0.975848376,0.3072557144,0.0739627655,0.8858703478,-0.1502920104,-0.1580521204,-0.2187193718,-0.7510357003,0.6105275125,-0.584551664,-0.0063957131,0.1268267645,-0.6081052965,0.065841614,-0.682046528,0.750870792,-0.2976017459,-0.8977698244,0.6827639382,0.5661343108,-0.8631332209,-0.5631855294,1.0626625553,-0.623236442,1.043614109,-0.1057872867,0.6063024926,0.8164616904,-0.180446897,0.7972195047,-0.2517910867,0.0486957808,0.4444386412,0.9523375126,1.0667249228,0.515123798,-0.0531380744,-0.7063488406,-0.4487992224,-0.1358918539,1.0640810023,-0.3556313094,0.4440704609,0.0354688731,-0.6013011138,-0.7978335187,-0.5413386814,1.2203366232,-0.227950253,-0.2113280211,-0.2440067955,-0.360233424,0.6075498754,0.5262970575,0.4264464356,-0.5165675244,-1.5308230368,0.6653623771,0.0851865084,-0.1210116439,0.150711598,-0.3303774627,-0.7476757907,0.2503027846,0.6164807042,-0.4136913216,-0.022645637,-0.2378191876,-0.4108865324,1.003900439,-0.0359241424,0.0870056394,-0.7011224486,0.8902766315,-0.9430214323,0.5985414703,0.0784043309,0.6072135217,0.221981852,-0.308664142,-0.2446485355,-1.5972958708,-0.0473844698,-0.1622763802,0.8020574501,0.4888399064,0.2820396549,-0.0467538238,0.223002322,0.6358129834,0.0926140363,-0.9269672617,0.2895318941,0.4622633483,0.5737966389,1.0881553813,-0.1213979357,0.660822984,-0.4068626487,1.0976463751,-0.6934008166,0.375609382,0.2025913953,0.0867317329,0.6731668817,0.7607540481,-0.8810196842,0.2769997372,-0.0076467513,0.8390248324,-0.6553403732,0.8011154782,0.927583918,0.1313655714,0.9972934793,-0.7491943379,-0.7282126612,-0.752405681,0.5987487564,0.1823167161,-0.5533966214,-0.7115493499,-0.3443114562,-0.0555121918,0.8584517384,-0.3230520079,0.1143232764,-0.2982059197,0.3231973493,-0.2744204329,0.7674009328,-0.2907144828,0.5185547199,0.438288782,0.8960614248,0.2035183805,0.9706626368,0.3016495785,-0.4832665717,-0.6298407963,0.5963604625,0.3872213363,0.9356623731,-0.643270791,-0.6459059268,1.0638547508,-0.1811428473,-0.1265610551,0.0201271423,0.0989600025,1.0202639216,0.5790544039,-0.5088824716,1.1270078604,-0.166109198,0.3847174615,0.925546134,0.9958047111,0.130986872,-0.7576579849,0.3750768973,0.244182794,0.4909235126,0.4695924285,-0.2448055726,0.7476422643,-0.4825691176,-0.8404655543,0.3401778017,-0.5689890696,-0.5139070655,-0.9046200647,-0.1943313038,0.311320517,0.4220275236,-0.375811006,-1.0272711978,-0.1385782029,-0.6692640859,0.7559189247,-0.0203497494,-0.4901726992,0.5271534695,-0.4127291447,0.3223303081,0.8615856198,0.9069914991,0.295696405,0.9237190166,0.573627138,0.973265307,-0.8362405292,0.4781045892,-1.1571737716,-0.0677116877,-0.6561195681,-0.8664681895,0.4893119709,-0.3288638971,-1.0242807929,0.2802370609,-0.1545805482,-0.2764113098,0.9598407157,-0.3847305183,-0.9009316401,0.3143154536,0.0367627754,-0.2192133986,0.686925921,0.368835618,0.5435752341,0.4567484605,1.1281497161,0.2573079185,1.061318889,0.3547935983,0.3634205636,0.3715478271,0.6445278992,0.5290596456,0.2729724482,0.033444831,-0.3127628059,0.303832268,0.1942756111,0.7029780179,0.7455532023,-1.0935101205,-0.4706470286,0.4612442801,0.3755666934,0.1480858436,-0.9034900815,0.820282473,0.2675104622,-0.8640830284,-0.6321919852,-0.1254756999,-1.1265039975,1.4152742421,0.2417612624,0.2522256115,-0.034592849,-0.9749079702,-0.0422308528,0.2229242205,0.0782521745,0.6887017652,0.6793871279,1.8396021454,0.3072893153,-1.151697343,0.9628887417,0.5234123072,0.7684051385,0.6675716508,1.8635412633,1.6278580457,2.0428192415,-1.0182905215,-0.1922288999,-1.8809329115,2.0115221942,-0.4980875782,1.3311463964,1.0470868597,1.1224794323,1.0386375048,1.8587418814,0.9660929811,-0.3425841088,-0.8755247721,0.789377773,-1.9171458362,-1.764752153,-1.0023464698,1.5488627408,0.6078463146,1.3822653562,0.3961682688,0.3608443793,-1.1105350422,1.6184551541,-0.4660950083,1.3768024146,-0.0464884984,-0.7074773511,-0.8581316057,1.9937765688,-0.6026631245,0.4175135923,2.1816719918,1.7292497348,-1.4189648131,1.8312158683,0.5661833219,0.8308298084,0.4277272705,2.1796339682,1.8470787893,1.0006591016,1.0420816986,0.445817519,-0.8611037898,0.5287490408,1.6677638318,-0.9487635226,0.5583249998,1.0489977002,0.0326727423,-1.3021371125,1.1061685253,0.8696466613,0.6763958843,-0.0828227513,2.2499672727,1.9469536084,1.7415211637,0.6620782977,2.2342498566,0.1866582599,-0.2156266672,-0.1473224685,1.1001504344,1.4694452468,-0.1761994341,0.1372266615,0.5450125791,0.5193697598,0.0804672521,1.3385127004,-0.456104482,0.430778562,2.239583535,-0.6457477912,-0.2634341973,-0.6223690939,-0.4087149914,-0.8175815595,1.2101451558,0.472986091,0.3456884327,0.4488326938,-0.9853026603,-0.3614491273,0.0059941251,-1.2155407668,0.7389127344,2.0271419691,0.2413389184,-0.6300142555,-1.4640842448,1.2802675515,0.7106629143,1.3291943634,1.995424204,2.2429105815,1.8616462664,0.6335767545,0.5293591544,2.1792985357,0.8066175107,1.4014239342,-0.9412907615,2.2763985028,-0.2013645114,0.1051723816,0.8093774117,0.9612419482,-0.0470849026,2.1901822767,-0.6205691236,0.1681426056,0.4772018211,-0.2890060175,0.3369594809,1.3948041646,-0.8792381555,-0.8210005863,-0.601554952,1.5082648303,0.9016488483,-0.2491414624,-1.1224091606,1.8943014967,0.1863386368,-0.7687856813,1.4748310772,-0.9247977225,0.2029846408,1.6114916918,0.3757547084,-0.0736814551,-1.3016516741,-0.1406104078,1.0654717141,-1.9044269815,-0.7402984296,-0.5439722381,-0.5838208419,0.8936864659,0.5660417743,1.8522727234,0.7538462451,1.1847890519,0.1252596733,0.3189053129,2.1164329118,0.9410339143,0.4824216535,1.3158621665,0.5239294816,-0.23280036,2.0211570253,0.0521236973,-0.2967761235,2.2079901651,-2.1144457694,0.0646459405,1.8938125919,0.0363744246,0.3808898532,0.326546972,-0.144906085,-0.5407232438,1.0115393915,1.6278630591,1.9065294499,-0.7126569267,0.7030127424,-2.0474062282,0.8445375761,0.6130949105,1.8480685635,-1.1177375048,0.2841348244,0.9381610124,-2.1920988607,0.56818575,1.5143819525,2.1198722447,0.8960796945,-0.4118390443,1.1412073073,2.1591522917,-0.5319000728,2.2759771561,-1.2913378467,-0.3551602519,1.4779929807,1.1156472077,-0.1356849508,1.3674929465,-0.076544271,0.5434073902,-2.2890832813,0.6428181624,0.0693803902,-1.2564567323,2.0395115818,-1.7624415808,1.1879070001,0.7857213181,-0.4657938263,-0.9051715275,0.7221670826,1.6147418916,1.340244949,0.4552768793,0.7924512577,-1.0802382955,1.0871742575,-0.2629307554,1.6406778707,0.7221128701,0.3170897037,-0.8219549654,1.7037157942,1.0318181951,0.2689513871,-1.1505471396,0.5889870549,1.0355771725,1.5894222854,2.0663633936,0.5167664938,0.6181023199,-0.6310816433,-0.4734169813,0.2916967542,-0.6133181912,1.78173231,0.3974536682,-0.2673655678,-0.6089818495,1.0763736778,1.1140645394,2.0194442549,-0.5757588489,1.7458203837,2.2769844165,1.6086990261,-1.0471313942,0.5306936057,0.4969635441,1.1577818784,2.1293706342,0.6321083105,0.6576811445,-1.5102526216,-0.6617282574,-0.4113883608,1.5588319598,1.4541141285,1.6754581818,-0.749549792,1.6058420528,-0.5577434744,-1.0430368974,0.948001389,2.0026096564,0.856891736,0.1132830492,-0.4842070962,1.9261073102,2.2378064379,1.6177379155,1.3328818641,-0.6012394771,0.3578436207,1.3816356602,1.2176046339,1.6985576718,1.6860254996,1.3896946009,1.1820314796,1.0180330266,1.816220884,0.2520759817,0.8596364868,0.2304773175,0.7946285984,-0.8320809774,-1.1800165923,1.1427170544,-0.7542157847,0.8342346398,0.4052436648,-0.4928728203,0.7279394069,1.5911631811,1.0589239907,-0.05479123,0.8135972601,1.1360962685,0.3913177387,0.3956310601,0.5856449164,-1.118896548,-0.3869822957,0.4149829853,-0.0439002154,0.3480192266,1.1006958748,0.3295728858,1.2187199989,0.584268604,1.7383368144,0.5594155445,-1.263399675,-0.4912952707,-0.3649125909,-2.0190054539,2.0942160806,-1.2507491759,-0.3935602316,1.1762663277,-0.8542101241,0.3443102964,0.8939328475,0.4881431889,-1.4316685027,2.154979721,0.375555367,0.17161362,0.5764454469,-0.6290386243,0.3803322062,1.5185361589,-0.573137103,-0.6744488463,-0.3295029233,1.2193141635,0.4092298776,-1.2134176924,0.6316671825,2.0262614229,-0.2557444835,0.1045593538,1.241730963,-0.9760826861,1.7185216189,0.5949115918,-0.5122110285,-0.4318277902,0.2309040995,0.4900953519,0.0997821517,-0.1769814431,0.5368104694,1.5920145692,-0.279747109,-1.9801890343,-0.5160253157,0.7630439916,0.231139891,-0.0983839019,0.7641570908,0.0412518085,2.2546731379,0.6927395844,-1.6281042558,0.0565617362,0.5130559343,0.4454019714,0.1946322828,0.3642779357,0.5852840157,-0.5928162618,2.0090132186,-0.1950897077,-0.6925945315,0.6822878836,1.7463447726,-0.2562543314,1.3597797501,1.2369896497,0.8668277137,0.7595757944,-2.2346260314,-0.5351138398,-1.2538877917,1.9514175988,1.142708734,0.8144949544,0.9367434921,1.8886720319,1.6748108292,0.7957463665,0.4022748817,0.1140688265,-2.2155824786,0.9448820005,-1.7308931304,-1.6120812821,-2.1937494592,1.3720379341,0.3067652759,0.905737186,-0.5166567692,2.067144696,-0.3077614249,1.1076782928,-1.0377944789,1.1979503413,-0.7057627001,-0.8537037553,-0.409527072,1.6824102099,-1.1902420796,0.6321529278,0.9157789967,1.6210988693,-1.0446317903,0.7851992265,1.8077768696,2.0590836613,0.1747126617,1.7408698914,1.8450873347,0.9287104612,0.5081571718,-0.4476231528,-1.0193962707,0.2227481731,2.1625928916,-1.9306078219,-0.0002071881,1.3400360201,-0.5979463545,-0.7871172431,0.3956851195,1.2629851003,-0.0585195503,-0.881627917,1.4955751382,0.966916755,1.4210852565,-0.5827390142,0.4033108085,-0.7928415692,0.087923202,-0.6877902474,1.2442123923,1.0261931063,-0.9412282708,0.9527191348,0.713434857,1.2379248452,-0.8314574177,0.7581041958,0.4179864542,1.0631486867,0.520918038,0.3434919213,-0.1338284421,0.8244533935,0.2756586498,-0.7880462219,-0.4792674804,0.6188301848,0.3590719083,0.7958830795,-0.6177667725,-2.2049847067,0.2367979781,-0.8485743383,0.3233296131,1.1799418114,-0.2863266598,-0.0761463497,-0.6279975553,0.7767360683,1.7893651744,1.2294063801,1.9979467551,1.0505569582,1.4766159677,0.4969631515,-0.602365733,1.7194033814,1.6114367781,2.0309621209,0.317602914,1.7337220199,0.781335776,-1.3505081515,0.6201198995,1.6336916691,-0.9786705832,1.9313112665,0.1806875075,-0.4271958689,0.9984422146,-0.9011299945,1.2805843624,2.1896682424,0.5182293183,-0.4873694255,-0.263574841,2.2448843306,-0.0407708714,0.2822848674,-0.5917924434,0.6715424638,-0.7270782465,-0.4592982645,2.2174783414,-0.3435210811,0.6304908334,1.7734680895,1.4223481053,0.0430843087,-1.7863343486,0.3691698741,1.8867319161,-0.657309237,-0.2965274937,0.9082315679,0.6010884274,1.1187079154,0.9797116551,1.3581356291,0.6094040211,0.5384180268,0.2145074338,0.8567464597,1.0207267855,1.6001421666,0.9189897943,1.0071653293,1.2405321125,-0.7363178768,1.3418632972,-0.479304026,-0.2548515819,0.3582897496,-0.3985550877,-1.0585839758,1.776989086,-0.2610872453,0.8075158214,0.174375568,-0.3692628794,0.7461648347,1.6395199878,1.5876600756,0.3706039951,0.2703356429,-0.6311090839,-1.9304470114,2.066833916,0.6118791163,0.5916943691,-0.2543976228,-1.0736605894,2.2472205024,-2.2816370238,0.4289994551,2.0759837142,1.6839701024,1.1573900496,0.0370030005,2.0397813603,0.7407707689,0.2300804616,0.5258020678,-1.3247535225,0.4386908744,0.3964082786,1.8253595411,0.4552602882,1.0191089689,-1.0794631536,0.6150164551,-0.7382395252,2.2382532473,-0.1525824756,-2.1065900954,0.8925318575,-1.4547010562,2.1409559671,0.4976744031,0.2902146347,0.5700311586,2.2619639138,2.0279487958,2.1358703619,0.2193765917,1.074395063,-1.9528504087,1.4085854683,0.4648540932,0.5064213328,0.6954059268,2.1331554505,0.3281918249,0.9644378746,2.1135027553,0.8948455254,-0.1408327216,1.6634851595,2.1669349256,1.249390744,1.7944261514,0.2605713281,0.3772349421,-1.2668457164,-1.4973118398,-0.2246286097,0.6257349679,1.9276282496,-0.9677589309,0.1995989997,0.8165638539,1.7349821283,0.9251152399,1.9512565958,-0.2860847631,0.5315668554,0.5961067243,2.2263298989,-0.4288994479,-0.1287422958,1.7783362256,0.7668392516,1.3448964446,-0.0207396209,2.0965667797,-0.4668924584,-0.6540445465,-0.1870039601,1.4392996933,0.9551253865,1.3520600182,-0.365065093,1.6977754048,-0.6133394927,0.0986606732,-0.2738583754,2.1321100016,1.2508386002,-0.4520556612,-1.9912508447,1.0433114031,0.3340667448,1.968008425,1.7423571139,-0.094887044,0.7306831244,1.4015293366,1.0098203493,1.9127451057,0.910756055,2.2689687664,0.6429673499,1.1416623943,1.0481571087,-0.5200472005,1.6871675407,-1.0391720186,0.3418124567,-1.9939231737,-0.8219471288,1.5095588296,-0.0620174997,-0.0610350996,0.2051998926,0.0038763667,0.4071242596,0.8189127714,0.6872408128,-0.7635889879,0.6505310106,0.6757939377,0.0603820532,1.7557458993,-0.3068204427,0.2690204654,-0.7558922499,0.7660179786,-0.1757659244,0.2699521502,0.7641901987,0.6480707982,0.37327224,0.0920778472,0.4640142622,1.9113829116,-0.381598328,-0.8322859036,-2.0286324893,-0.7903418463,1.7129653441,-0.9199746492,-1.0877346523,2.1126486191,-0.4418905111,-2.2495845378,1.1645049093,-0.8708245234,-0.6667374218,0.7117470615,-0.7879922902,-1.0927209166,-1.6784443089,0.2992078042,1.687601796,1.3803398555,0.4930581915,-0.9698053932,0.2771386032,1.7003421897,0.5275736096,-1.8368137522,1.4727219946,1.6365746268,0.7369506164,-0.5604492273,1.8381900026,-0.0033171135,0.7810607208,-0.1060285996,-0.3730343027,0.0825166118,0.1437096812,1.4443553884,0.4987363732,-1.0777308229,-0.0605176534,0.5904783465,0.1153681142,-2.027344638,-0.3575015347,0.0827885492,-0.1654954096,-0.2517244926,-1.2148507026,-1.1078138535,0.8160969686,-1.0001333795,-0.2982902068,0.7773145006,-0.6536772858,-0.6088612967,1.2907147343,0.2268276357,-1.4014560469,-0.9176497215,0.2459477707,0.0300022706,-0.161827645,-0.7071040981,0.9390914228,0.118748705,-0.2974411883,-0.6787047629,0.2075485002,-0.2479290466,-1.1925756861,-0.2838515689,-1.0237928405,-0.5200912904,-0.4374583745,0.1324392963,1.0948967304,0.5993131174,0.8087486624,0.537214345,-0.6138576406,-0.8534717594,0.162274844,-0.6224841953,-2.0508799939,-0.7125511091,0.0029858063,-0.3685801116,-1.4798493234,0.4357599896,-1.0694135026,0.1066654769,-0.6540125858
   0.613622285,-0.4600022797,0.9599452615,-0.2859472857,-0.7618789107,-0.2402396802,0.3062925777,-0.0033370232,-1.2315932569,0.2978022829,-0.1601817696,0.4916848668,1.2301940298,0.4868885961,-0.1484584868,-1.1115726853,0.8086975785,-0.3376872128,0.5496284186,-0.5985265157,-1.0810815346,-0.193583717,-0.9941585553,0.444872053,0.4211542669,0.2212923212,0.2294404283,-1.2852180019,0.794989734,0.3462909049,1.081414365,-0.9095282426,1.0110542988,-0.1120641465,0.7456988374,0.6633777031,1.1146313387,-0.2522048937,0.7387849959,-0.2279694799,-2.1148603032,1.1453674942,0.1449404539,0.5045969954,-0.984853514,1.0108810747,0.9014041186,-0.2956319479,0.0480822544,-0.2277918693,1.0955456996,0.8474556408,0.7838058319,-0.5090221902,-1.1436531555,0.3913635277,0.4290051231,0.2280288218,0.5876409008,-0.0503393547,0.5027689758,-0.0670933781,-0.872745732,-1.3744986141,0.8268079128,-0.5881187445,-0.0257731237,0.8171052174,-0.2186712968,-1.3660619521,-0.4445388081,-0.1923521815,0.9439457378,0.9351938636,0.6991757547,0.6079717272,0.2726153014,-0.1520151866,1.0165132258,0.5222574698,1.1509528655,0.8297180949,0.3638187151,-0.7876014956,-0.478848591,-0.4492337045,1.1179972827,-0.065632043,0.7739195586,0.8995565435,0.1956335579,0.8989658282,-1.1331525538,-0.0769021375,0.7440317357,-0.6251511815,0.1838440082,-0.2517233625,1.300531558,-1.0917085364,0.5364971436,0.4138715681,0.5597692735,-0.5200527661,-1.1513450558,0.2598971102,-0.6294249563,-0.9758465375,-0.0341275774,0.0919467117,0.1209569014,-0.9826252395,-1.6582231423,-0.5417638261,-0.1208101588,-0.9954397774,0.0083850182,0.4966573275,0.7885801813,0.5704653542,-0.1992838608,-0.5339865126,-0.4180279338,0.0589173671,-0.2352667939,-0.6044968514,-0.0588435298,0.4239854054,0.2912875658,-0.1758687549,-0.0890285126,0.5047861193,-1.8751221733,-0.1684820402,1.2987800142,-1.3070248414,-0.6623744448,-0.3192088978,0.4211588435,0.5532684111,-0.3985642945,0.0954009124,-0.5993794047,0.5151735627,-0.4200425592,0.6143127763,-0.4943879184,-1.4053061774,-1.1054732798,0.2686628151,0.9772052388,-0.5563186572,-1.3902837316,0.0509279807,0.3720998494,-0.2362971776,-0.5697952624,1.1324432717,0.9322464969,1.0110199631,-0.4156121948,0.1355259891,0.0258063855,0.344456796,0.7801332278,-1.0616702124,1.3676591907,0.8445933386,0.8269338292,0.9315192263,-0.1896964806,-0.681638822,0.6533682617,-1.6963651204,0.7341845922,-0.6610172906,-1.6826707433,0.3589178143,0.7141734165,-0.1351532343,-0.6646053738,0.3687459764,-1.3368848919,0.3741407263,1.3642979953,0.4327572138,-0.9476094398,-0.5875505591,0.3594496868,0.8997337242,-1.0468424523,-0.1137847926,0.32917242,0.7346864394,0.2195033478,0.1631074216,0.8180717201,-1.0932168547,-1.0683144684,0.2098037891,1.2038507959,0.8469851829,0.3157787564,-0.732086898,0.1114389388,-1.029230503,-1.2859971745,0.2975273964,-0.8293864133,-0.2576632027,0.1111749918,-1.1758623286,-0.7381952207,0.7687710687,0.6575221331,1.1667773737,0.7875830113,1.1840964956,-0.1044920223,-0.3916342336,0.225673316,0.3377908544,-0.0108005997,-0.5198933101,0.0740272022,-0.6887102386,-0.5218710676,-0.3598219294,-0.921899935,-1.1409445627,-0.0877673775,-0.3248187008,0.3013640268,0.4409705765,-0.455435727,-0.7508587082,-0.9752027373,0.3951111559,0.4241740567,0.8961063381,-0.4111778951,-1.1569282087,-0.2777076542,-0.4223400951,0.2844698538,0.0001368343,-0.9632355045,0.5997171378,-0.0647274574,0.3043942575,0.1145731615,-0.4324211641,0.3106288755,0.2650303378,-0.2616590231,1.1996734773,0.3458090292,0.7439400095,-0.4609959608,-1.0223816846,0.0706271641,-0.322110314,0.3104445249,-2.1857257398,-0.7738962289,0.16238095,-1.1724723599,-0.0705584164,0.0299492623,0.9544806907,-0.6078844697,0.7490486382,-0.0808370633,0.5730463969,0.5120578974,-1.0062508955,0.3209861573,-2.0183626401,-1.0159510268,-1.3364418994,0.9141068695,0.0442686189,-0.2594733817,0.9812410044,-0.0782806279,1.0702340247,-0.5095252849,-0.5260841881,-0.980953542,-0.8576347935,0.5476939143,2.1610469052,-0.417101184,0.5980508518,1.126048925,0.5202948536,-0.4249595129,0.808973428,-0.4409839314,-0.9662563401,-0.5971359795,-0.3883660003,-0.3658134715,-0.8013735078,-0.5892656642,0.0887558999,-0.5946166282,0.4010220536,-0.7227842806,0.3682562716,0.8836635662,0.5831792788,-1.0187999393,1.3270024222,0.3934201681,-0.2128737117,-0.4837375154,-0.332060843,-1.3164800187,0.8350623856,-0.4070179907,0.4910185452,-0.2226880142,-1.3425167411,0.4135098935,-1.1936410193,-1.0230554012,0.0141962614,1.2103005944,-0.189422973,0.6937828436,0.4912342664,0.0941069526,-0.901863586,0.9528117601,0.227543451,0.9063507238,-0.414964323,0.4246415646,-0.5196392732,-1.372088085,0.6940842574,-0.9840589941,0.9647479248,0.7647056467,0.1414782838,0.5892930386,0.7013979397,0.4318809023,-1.2527315016,1.3059679623,0.8159258516,0.2972747322,1.1858131381,1.1161357973,0.7855043795,0.9602563527,-1.0144439791,0.5441002848,0.1217977128,0.2399100787,0.0726413612,-0.5766345617,-0.0388252593,0.196263253,-0.3153703082,0.3882231926,0.9560590968,0.198590595,0.3722888584,-0.3253683893,-1.2212229077,0.2687922075,-1.7057511236,0.4502881942,-0.9583837069,-0.4005828195,0.2330427631,0.4283341846,-1.2535179701,-0.2219384468,-0.5154339566,-0.2127892796,-0.6919584382,-0.7092274282,-0.4370258471,0.1369101096,-0.0827620942,0.8000991305,0.4772294387,-0.046924085,-0.9776209204,0.0243784589,0.9283277256,0.1399299147,0.7771404096,-0.0758427403,1.160682758,1.4154051719,0.5755211589,0.2384806659,-0.0542252733,-0.0331686585,0.9356659553,0.4631511755,-0.7423537899,0.548760403,-0.5882268575,0.8052603586,0.3761662144,0.4003798776,-1.0237308639,-0.7177490668,0.0634342301,-0.306095133,0.4482807857,0.6594339952,0.532795177,-0.7912995974,-0.9631053608,-1.1735192349,-0.4958976558,1.1341197007,0.0967309021,-0.5544924927,0.4390613573,-0.1068736766,-0.398700054,-0.4012546701,0.2379093051,1.0755616655,-0.234874623,0.7357821274,-0.0551725439,0.7479105244,0.8838605013,-0.3059245821,-0.7118057668,0.399187282,-0.0600050456,1.0366801097,0.4292103539,-1.0984139703,-0.9842432307,-0.7086072289,-0.3523672133,0.5625888807,0.3354270358,0.9863295689,-1.5757105164,0.5337922894,-0.557033717,-0.117976001,1.2835048968,0.7485600527,0.8687442639,1.4041498172,-0.4577817606,1.3421938229,-0.3811237029,0.6670506821,0.4383497605,-0.3766327306,-0.9903202415,-0.152869855,0.6377328131,-0.4141248695,0.6072683761,1.0630144731,-0.5641171236,0.4033833266,1.0586347167,-0.3263348078,-0.0978678522,0.5402431999,0.5255664256,-0.9810695386,-0.1418923788,1.2220242054,0.445873906,-0.9473103958,-0.9265247144,0.6621325873,0.5822435803,0.1915654407,0.2123233737,-0.2050793386,0.8484994631,0.4683868598,0.1559159632,-0.6748518874,-0.8546071433,0.0739653083,0.8939106915,-1.0252546725,-0.2941097607,-0.9472039875,-0.1555992781,1.2296381724,0.6613071967,-0.2039166057,0.471688703,0.5772297622,0.1140806154,0.375127022,-0.1576588476,-0.4377749098,1.2982704416,0.9770758408,1.1328561384,-0.115322902,0.3830639445,-0.8921442719,0.62407539,0.6154521451,0.2163551595,-0.7453771195,-0.44247101,-0.9323288664,0.3854772932,-0.4491282126,0.3184215236,-0.6165260705,-0.6163183447,-0.1332003243,0.5861236485,0.6205098107,0.0550768534,-0.6793373095,0.5519793267,-0.5652802504,0.1496110254,-1.0752226781,-0.1469320896,0.7832453337,-0.0503155121,0.5094011456,0.4064308205,1.1444178948,-0.0250967578,0.3438810404,1.1033657106,-0.0935711998,-0.7295961738,-0.0617709093,-1.345603174,0.4831329403,-0.2921990178,1.0007978782,-0.3104609861,0.8729937477,0.5233213092,0.1696191351,-1.2492849905,0.2465190349,-1.3700353914,0.7098426438,-0.3840483369,-1.6085326692,1.3136718556,0.9655676939,0.2348734312,-0.0580760587,0.7117675464,0.9472695931,1.1119519494,-0.272980895,0.4940817889,-1.3180240646,1.1308270844,-0.485227068,0.1309575574,0.6245935835,1.0065371388,0.73930742,0.9716716944,-0.4288694878,-0.7915677841,-0.8568733131,0.5625212591,-0.077983494,-0.5356465614,0.9226505945,0.9073534103,0.6093240522,-0.0880691968,-1.1101611457,0.8587928743,0.130743254,1.005106162,0.029965682,0.5245746539,-0.4373455477,-0.3208042351,1.044462343,-0.5424880403,-0.0671389346,0.6433722342,0.5880509134,0.2798468897,-1.072060953,0.9412987682,0.8009860772,-0.5148877046,-0.1668714185,0.7435668694,-0.4043625256,0.0016939768,-0.6619883329,0.3099641868,1.3388923498,-0.5110411895,1.2805280739,0.2145931991,-0.3445204076,0.5352396308,-1.0890999759,0.8996783489,0.0257614232,0.3538132392,0.1793693279,-0.4541090584,0.2462532347,0.9654741616,0.1056586301,0.1179392792,0.7789757459,1.2238467807,0.998816631,0.6429289361,0.6185508414,0.8415062552,-0.1652945126,0.664319016,-0.1050331554,0.1556113242,-0.62562267,0.2021620331,0.3086264336,-0.5363921559,-0.0274883137,-0.8381348971,0.6880367138,0.5940741706,-0.1028111903,0.2706750067,-0.7115504428,0.0408409938,0.6010998992,1.0693682885,0.290033094,-0.4011766797,0.6069693215,-0.5261294568,-0.1534760779,0.7806162611,0.5690061078,-0.9334740228,0.807832667,0.4811097675,0.6907554306,0.1150453557,0.3267351054,0.5099871696,-0.6435507048,-0.2620392774,0.2666456215,0.5971346289,-0.0556932712,-1.1813832075,-0.1712128084,0.2736002816,0.6390818849,-1.4312633372,-0.4362080259,-0.1345063176,-1.0970983679,0.9401502843,-0.7276889602,-0.1451255595,-0.0348528984,-0.6123749647,-0.2811973237,0.616634887,0.3984121853,0.635903812,0.08881322,0.113010931,-0.826488031,-0.695796576,0.9354955096,0.1017300501,0.6604257643,-0.0728793565,0.5982642045,0.1512072838,-0.4345835576,-0.511327769,-0.9125118884,-0.13421438,0.6298723086,-0.454702768,-0.7546941825,0.7336720402,-0.0609611305,-0.3697977351,-0.2436976442,-0.8654562669,-0.321938913,-0.3315503181,-0.554199158,-0.1269744954,-1.0869647795,0.7441725743,-0.5269856383,-0.1951120219,-0.3922267485,0.6190921579,0.268876206,0.5591965595,0.3673976282,0.0316442237,1.0216956462,2.125016912,0.4280898042,0.7028157178,0.4198811799,0.9039726953,1.0887070713,-0.447244809,2.1038143291,0.9986226584,-0.3227060172,0.4871643939,0.6204481561,0.4259145604,0.4321715606,-1.7152944697,-0.5791405209,-1.8148914931,0.3152233947,1.1319942095,1.5870326328,1.6721117954,0.8546478931,1.7835456373,1.5416131009,1.6947828328,-1.2362592507,-1.569316317,0.6763647418,-1.9265888664,-1.3079533702,-1.4227126434,1.0580211357,-1.2265021796,0.3396759546,-0.3314548299,1.3065131448,-1.3639044528,1.4010596226,0.1278065154,0.6256612458,-0.6490004022,-0.5669304348,-0.8295865963,1.6298833617,-1.2576025897,-0.0392550593,1.3970456022,1.5729156067,-0.8070693559,1.9009561134,1.2210745763,1.0723560277,0.8910455878,1.3333861303,2.1166993367,2.1575018526,1.0228701027,-0.1187904502,0.2099983374,-0.0110111015,0.5276889302,-1.4337582336,0.1274522137,2.242573952,0.2321714783,0.841475635,1.522728564,1.6644953972,0.516544187,1.5833893382,1.0048911765,0.5101830176,2.1657086659,0.0983834837,1.5942933736,0.6370893442,0.4559357181,0.0565651695,0.3497168372,2.0791623667,-0.2070781448,2.1618771756,0.60753833,0.4574318389,-0.2539471742,1.2986358228,-0.2487037571,1.342261529,0.7531971578,-0.4033812127,-0.164686891,-0.3614572302,-0.2109864583,0.6179913648,0.3894011577,0.8709342136,0.6635477292,1.1088919426,-0.4488378266,-1.8918311216,-0.0432274449,-0.1879436346,2.1539979991,1.2976574992,-0.7764375804,-1.0369271214,-2.0272725515,0.4679720185,0.9794610922,2.0288878253,0.5626158618,1.3458121804,1.5154601987,1.2971511762,0.2553793205,1.1922706792,2.1466391588,0.7023131549,-0.8450903677,0.4081976215,-0.4097867268,0.3672030984,1.0317866128,0.6087085407,-1.1224482802,0.3808335128,0.1983103408,-0.2939421611,1.2028499764,-0.9312474994,0.3107231485,0.9428874172,-0.5773201002,-0.5011951356,-1.0355700931,0.8344959018,0.3373297675,-0.576532406,0.0127222324,1.7703138498,-0.6939985512,-0.1159588489,0.3827564697,0.6413390211,-0.6519381969,0.9597440244,0.7936783018,-0.8434206279,-2.1139058437,0.1933019969,2.0484396146,-1.3944210305,0.9010364452,-0.2266237405,-0.220043944,0.8375968433,1.996252164,0.3126354908,-0.0808406822,1.2864169899,0.2174533404,0.6213982142,0.5308288172,1.2121085245,1.1603636344,0.579482135,1.1279563588,-1.0132790948,0.3526222985,-1.4093867776,-0.761550753,0.8723248445,-0.3343455823,-1.0017594635,0.7326261726,-0.6660524313,0.763120104,0.005831179,-0.9632414558,0.5384815603,2.0942192266,1.5945296016,1.5460826634,-0.5993130989,-0.5999889428,-0.7127835787,0.5482596397,0.717594742,1.7548614285,0.4283929847,-0.7350989252,2.0354679704,-0.7436578759,0.4230598618,1.038854662,0.4842048252,1.2564816835,-0.9153056526,2.2652080274,1.8505801047,-0.7173056601,1.8845868933,-1.7329874465,0.3886257491,1.4170949636,1.8293496111,-0.6663782183,2.2431961843,0.1289029332,-0.1026421093,-1.5193604693,1.922147651,0.2593460698,-1.2123705428,2.2767338545,-0.9457257881,1.4490995572,2.099868403,-0.2922712173,-0.734443444,2.2088455329,1.1765066769,2.2578016835,0.0602938131,0.8819221951,-1.0256568171,1.4387152336,0.7162330035,1.1704950504,1.4538348487,1.4873626434,-0.566632824,2.2043667735,1.1400085187,-0.4550128199,-0.8216329892,1.7437550274,1.3060579832,1.3934798249,1.2168686133,0.2509744835,-0.9662258449,0.0251409461,-1.3206715304,-1.0475783624,0.7271624491,0.8144641062,0.3327260764,0.5073445666,0.4785542687,0.4627328097,1.9073024276,1.4956654344,-0.2556796145,0.851441434,1.6740258485,1.1146528882,-0.6303328491,0.5691472954,1.7610740705,0.5369731683,0.6733635534,1.5342687986,1.4693711718,-1.2440370011,-0.473529755,-0.1906651029,2.2180640652,1.0594425541,1.4437577725,-0.2470471149,0.8763049381,-0.1584832948,0.2287373917,0.3964625609,2.0315964785,1.4754081914,-0.2953481203,-1.0717588413,0.8407859076,0.3542904157,2.1576197833,1.7731129329,0.2442843574,1.7494840403,0.7818667448,1.6719997415,0.8589146331,1.2839242092,0.6136667954,1.890145393,0.6479522337,0.3993142538,1.1485977939,2.2503630648,-0.7804486881,-0.5036357918,-0.6234243926,-1.0024521014,1.9110643838,0.6166972588,0.6061921467,0.0379881561,0.5060349621,1.7204570734,1.3827745497,0.6813811602,-0.9223248681,0.3093311137,0.8260381293,0.0852325211,0.5516212711,0.8182092949,-1.0620238616,-0.9807862075,0.4500160757,-0.5737411081,-0.7016953172,2.0059378471,-0.6186278483,1.421181681,0.7731451223,0.4714553273,0.9901930174,-1.0724970304,-0.7695140482,-1.9368567428,-2.1708509827,1.9730078178,0.7450122515,-0.1953979603,2.115319748,-0.5548746205,-1.5943162464,0.4495137001,0.2015533725,-0.2967680193,1.2240822252,-0.9585167949,0.1346335334,-0.4233728622,-0.2295193686,1.1548341598,1.9022145753,-0.5037658463,0.1193397614,-0.7478134813,1.007379699,1.6329185955,-0.4972589117,1.4371488968,0.3530627729,0.8405462992,0.2098524223,1.6108662309,-0.3442613615,1.4584285954,0.2581565167,0.731550996,-0.6732040738,-0.8470435632,1.8456074861,-0.370113383,-2.2608024982,-0.7775469442,2.2503867294,0.5410302979,-1.8885005982,-0.5217102255,-0.4351370787,-0.5075317147,-2.2345930236,0.2268557815,-1.4225462936,0.466991421,-0.0088871568,-1.9995924246,0.3197188774,-0.513259969,-0.515501841,-0.4256626899,0.2742768569,-1.2929837599,-0.1521206445,-0.3977233919,-0.093254427,0.8951689388,0.0015239449,0.5099607474,-1.0180675039,-0.2987187467,-0.1646313321,-0.4724963313,0.7618819126,0.4007146103,-0.7025940916,0.2190894342,0.2161597976,0.1261139298,-0.9037255221,-1.1427494469,0.938294042,-0.7577494776,0.8109983354,-0.5933641704,-1.1335107922,1.3396809095,0.1671876351,-1.7719128753,0.7157105459,2.2434301677,-0.3624844184,-1.5968269357,0.3915976219,0.6905473008,-0.3689803279,-0.1679511303,-0.7812304426,0.3705644987,-0.3405114225,-0.771800935,0.022909631,-0.2133694966,-0.4294818815,-0.7050513681,0.7277680261,-0.4593424154,-0.2772010489,1.1958660265,-0.0040470459,-0.8431327695,0.2590918117,-0.7104006644,0.9104641376,-0.2436866339,0.1506001679,1.1107660873,0.2263528456,-0.4002122502,0.8845644154,0.7973280609,0.777292382,-0.2144235223,-0.4375315377,-1.3103555147,1.6025912279,-0.7603861037,0.2811781272,1.0534411157,-1.4074785311,0.309513047,0.0679274693,-0.3599020376,0.6316237629,0.355295964,-0.6665472728,-1.5475591409,-0.0987317871,-0.1846922405,0.0916170066,-0.4591891241,-1.1949158075,0.9524587552,0.2629989992,-0.1882870794,-0.7268539374,0.2211807459,0.077219712,1.0828788068,0.598879806,-0.017161344,-1.5340959258,0.9633954869,-0.7592818123,0.1255580126,1.1606638089,-0.4675956972,-0.6058258004,-0.8278655148,-1.5897792555,-0.4373757608,2.0990613496,0.6416212235,-0.0649793664,0.3046139189,-2.041559781,-0.4167441781,0.6407348633,0.5558186214,0.9230422345,0.6608516788,-0.6381420231,-0.2474784319,-0.7093500872,-1.0161800902,1.0307304052,0.7005862635,-0.5236322017,0.9707677968,0.9300662513,-0.178231053,-0.6163564521,-0.2918552385,0.5438454789,0.3635323033,0.5132428581,-0.1358797941,0.6146758537,-0.6148210425,-0.6625145653,0.9483522801,0.6877182053,-0.4917423832,-0.2229106253,0.7099376372,0.4425919702,0.8260044691,-0.7165534343,0.5907970335,-0.3433324029,-1.163575943,-1.033105697,0.5865512101,0.633461177,-0.6292577652,-0.2696721541,-0.5601733768,-0.4485143989,0.1356829392,-2.2163717169,0.408301582,0.3600146561,0.0304768898,-1.8040091661,-1.0276293603,0.7149746679,-0.5412783857,1.0006830958,0.0836957485,0.6943756905,0.7326829324,-0.5975395035,0.9594464249,0.1085059154,1.0620263259,-0.0550632073,0.9422166147,-0.307585508,1.1751987674,-0.715838382,-1.5548404888,-0.7984282633,-0.1353376967,-2.1403612098,-0.6105757009,-1.0220595693,0.1905372832,0.5702526184,-0.153119103,0.9939936484,1.0527924601,0.6940230607,-0.8123394569,-0.2259566598,-2.0665815031,2.0155473162,-0.6062232505,-0.6517496789,-0.5468466102,1.2194267764,-1.0087452754,-0.4793995,-0.6796982977,-0.7609099346,-0.7699660595,0.8623573049,-0.498303768,0.8859280635,-0.2561504215,-0.1719341548,-1.0008844806,0.9497486836,0.166478896,-0.4486100623,0.5725523717,-0.7724414175,1.0841715616,0.542799886,2.0896622595,-0.0553090042,-0.9260535822,-0.2179175167,0.9293002342,-1.4949084073,-0.4929839907,2.2704118886,0.0302949829,0.3622385379,0.5925322121,0.7293353271,0.8625221214,0.1722721571,0.4176237732,0.0321167545,-0.0789064688,-0.7258080073,0.324097839,-0.7444055509,0.0042462234,0.0823338775,0.1855620712,-1.2590541578,-0.2444302123,0.465204543,-0.9384034458,-0.4557979693,1.0564911783,0.3723040831,0.7671735901,0.5285630912,1.6289994692,-0.0456433581,-0.7477549643,0.4294339972,-0.9308751307,-0.0249340993,-0.2921960507,-0.2423606145,0.2351508913,1.2883726403,-0.5353536595,0.1281004668,0.755050872,0.544674986,-0.0836742499,0.7393380663,0.4547593529,0.3537225692,-0.5436031273,0.6717019295,0.0004768807,0.0666620092,-1.9683197784,0.3774527001,-0.3168455237,-0.3757542657,0.5328357602,0.1748824226,-0.8288377915,1.164693053,-1.6052397533,-0.102582116,0.2810292903,1.8846278503,-0.1129071967,-0.5802650859,-0.4699269395,0.5878311546,1.6925436135,-0.4644400862,-0.2066162963,1.1551557857,-0.5523626291,-0.5924524554,1.0354050702,-0.0670062981,-0.905778223,-0.3501955978,-0.1493696983,-0.0927677031,0.6101529924,-0.1649607936,-0.9142286808,-0.9089505422,0.4763324467,-0.5058323532,0.3444419336,-1.6114185976,-0.6057172593,-0.7705177282,-0.3253786479,-0.6509332298,0.0646436414,-0.1370400005,0.5604533427,0.1289966396,-0.6204668494,0.2832106708,-0.9117500072,0.7450637387,1.5614061043,-0.6231651506,0.4384993211,-0.7257305349,-1.397517674,-0.3132928924,-0.7234871141,0.7994966752,0.1363292491,-1.6813451377,-0.2263382758,1.382054809,-0.0174704318,-0.8789614469,-0.5741039582,-0.1406051473,0.8647285548,0.9064874554,-0.5687518192,-1.7964520093,1.7535833243,0.7679603611,0.3561231192,-0.9256836624,0.8232327389,1.0889396642,0.3314103079,-0.656798179,-1.7396792165,0.9174922727,0.3694919775,-0.2335460388,-0.2174674799,-0.5660018006,-1.4941329151,0.3964645765,-0.7248709956,0.753598624,0.4603540344,-1.7245797208,-0.5898989179,0.1927786042,-2.0318381861,-0.7311005809,-0.6114807168,0.2829702887,0.966529859,-0.1702281533,-0.7552075974,1.0273434108,-0.3841123513,0.2800805249,0.3982198324,0.3557425807,-0.2354170463,0.0968799196,-0.8476998581,0.6053009595,-0.987595185,-0.5797505469,0.0404274062,-0.7481002088,-0.6553157323,-0.190415254,2.2308250079,0.0788227797,0.6997266413,0.1826785928,0.4638908084,0.4374662265,0.2571726635,-0.7390991873,0.6909625715,0.7637004231,1.9152135351,-0.7103615472,-0.4770226253,2.2366075712,0.4892155641,0.5099546881,1.741843831,0.562006158,1.1851648228,2.13390019,-0.7998251648,0.2123227973,-0.8610894752,0.6940882635,0.0098104255,0.6875883395,1.415451806,1.9636121743,0.6069352486,1.8418756867,1.8236504952,-0.1521466154,-0.288018069,0.628246156,-2.037955605,-1.1823863284,-1.1493664148,1.3387410966,-0.2249024604,0.8431762652,-0.0955670396,0.4771521981,-1.8295117054,0.3004831459,-0.930285926,1.3469195572,-0.8324147636,-0.8356585739,0.9442382579,0.5331294422,-0.7861661229,-0.4748601683,0.9977344163,0.3122164849,-1.1513718589,0.9996449388,1.1593116591,2.1726434492,0.9070426031,1.3451888527,1.3349662994,1.2429869553,0.5141829183,-1.3164437839,-0.6770164044,0.1683526186,1.4576369186,-0.8034643161,-0.8476478408,1.0982351556,0.211810987,-0.957170469,1.6634112034,2.156275513,0.0639658674,0.5711987449,2.1948685824,1.8813555006,0.5584545077,-0.9219900418,1.2895861878,-0.5279591393,1.0045002482,0.2774975632,1.0561370434,0.6844866053,-0.7872254269,-0.048174884,0.6492250702,1.3637012051,0.9149078374,2.2205867556,-0.4784288328,2.2820912464,0.4149040987,0.5488034952,0.2414451963,0.1159173175,-0.3845642976,-0.9384247328,0.4395868844,-0.3184871934,0.6815523414,1.6867362918,-0.9066825706,-0.3447814651,0.4172374667,0.2851342732,2.2713956603,0.4983733347,0.0454599554,-0.3714959377,-1.2889955061,0.8775294659,1.153444466,0.3493839079,2.1292657886,1.3707195046,0.8222997264,1.0025455704,-0.3528925014,1.1961237057,1.0554795049,0.8516562879,0.5603854465,1.7790707702,-0.5784830545,-2.018923488,1.6630219078,1.4270500897,0.3305049825,0.3109613451,0.3425565967,0.376647674,1.8318629927,-0.6754087525,0.3497427897,1.6496221915,0.0460774077,0.5370951038,0.6888403179,2.2141345331,0.1118455233,0.5553704073,-0.7770886664,1.2743475156,-0.4426095831,0.5018564269,2.1639033776,-0.3161917889,-0.8623530424,0.6185499924,1.8360029355,-0.8944479012,0.2356970838,0.2313378859,0.8243249802,-1.4823469087,-0.105154934,-0.4791569547,-0.7433180114,1.3656157646,0.4947140112,0.3382729694,0.3478848553,1.1399664886,0.7735603962,2.0356818515,1.5098885554,0.4567284107,1.7430039565,1.1491234783,2.0762375829,-0.934572426,1.0952294012,-1.4506631933,-0.6342634639,1.8638924701,-1.2924569194,-0.9482484134,1.9403579665,-0.1710230441,0.9347727574,-0.9118894867,-0.2472591124,0.3773659469,1.1238851968,0.727292187,0.9745903104,-0.1868829457,0.9839434954,0.3843573898,1.1423955319,1.4594040294,2.1132847873,-1.0508115864,0.0890343868,2.0342015131,-0.8524050167,0.4012595787,1.5719274167,2.1198492368,1.6881799897,-0.3400958786,0.5916144296,2.0699134094,0.3615871881,2.2050830875,-2.2206712456,0.3688086156,0.682650473,0.8256623577,-0.1030948466,1.6297475896,0.2217166086,0.3790846032,-2.117172009,1.3959983737,-0.4508344344,-1.0310156925,1.3552944743,-2.115828811,0.6097929084,0.5573803697,0.8938826066,-0.2893792233,0.5089162229,0.7329355927,0.3548094874,-0.6416001179,1.2197171568,-2.0587773253,0.7518209187,-0.8337726752,2.2466335071,1.3943491913,1.9328929077,0.3426439702,1.3782313034,2.2878876534,0.6289070459,-0.2754873133,1.3435969761,1.9725989422,0.3115876121,0.9674817384,0.8951099555,-0.0467368482,-0.7792771669,-1.9531818205,-0.9087429741,0.4278483673,0.7762549393,-0.8637096874,-0.2167152073,0.1338063771,0.7951823072,0.3493172772,1.555173086,0.1644957852,1.2291288192,1.1798255202,0.5007384939,-0.7050497976,-0.8381397142,0.9566767845,1.5594764082,0.5786492683,-0.3697647517,1.3210332674,-2.0026037369,0.842342922,-0.1615604361,1.7538999129,0.6663183394,1.9219826725,0.2270050666,0.5484544423,0.4968933863,-0.9545732388,1.0301552433,1.8665412025,0.8175567335,0.1388193398,0.2756281168,0.9947159399,0.493491819,1.7451590524,0.394513352,0.137556959,1.3739214896,1.3926891899,0.8096785567,0.5080855875,1.6329992977,1.2458406149,1.1695252207,2.0891130014,1.6919657643,-0.2392931344,2.0265523446,-0.6912186853,0.7548998193,-1.8853396711,0.5681895733,0.8695564159,-0.5074507989,-0.4957838259,-0.1359773186,-0.6049076731,0.6179579874,0.4818030501,1.232549656,-0.6060186516,0.8159616416,0.9291620785,-0.9195717554,0.9522653778,0.9431582771,-1.2546947286,-0.7610560453,-0.8414711791,0.6781247887,-0.5490838747,1.6384708645,0.2802523864,0.7434284518,-0.360465359,2.2569115235,1.2459063249,-0.5288592408,0.7954694655,-1.3653081066,-1.022978707,2.1905840769,-0.9651322774,-1.0434973958,0.5326897924,0.3236927561,-0.1802332299,0.9192366214,-0.0513642258,-0.7176028969,1.4511115572,0.2830258966,-0.7308890325,-0.8778903958,-1.0197435635,0.7986565247,1.9590644436,0.6189783819,0.0846273882,0.9013558314,1.0773279826,0.6310233016,-1.7760111352,0.542858586,1.6655200967,0.8694880607,-0.4770543655,1.9311878764,-0.8023115352,2.2854157705,0.4821867509,0.90212828,-0.1235100978,-1.2134644153,2.1001677459,-0.9083342102,0.4910331383,-0.6760946022,1.9998260248,-0.3524758388,-0.6755397318,0.2687801886,-2.05183088,-0.8257892808,-0.6976550161,-1.4336677814,-0.9605606547,-0.7260117474,-0.80726729,-2.0269318909,-1.1586694392,-0.7869724274,0.9964043806,0.1733190354,-0.7444617774,-0.2148752692,-1.9836570555,0.5135162616,-0.7621460822,-1.4720780122,0.4498750243,-0.1149693279,-0.2935506056,-0.8872917417,0.9180888902,0.9822629714,0.4252635786,-1.9765899633,-1.9448995481,-0.5023212032,-0.9027108852,-1.4033633444,-0.6094208325,2.1776994724,-0.2794164466,-0.8051581993,0.4028864813,-0.6878254217,0.3290428813,0.3850880763,-0.7476276694,-1.7085337624,-1.2715425446,-0.5288500863,0.3638652355,-1.4951856115,-0.2839567174,-0.753727949,0.5608412212,-1.7628034695,-0.3202826344,-1.0911518559,0.0969268169,-1.2289128607,-0.8127734511,-0.4596319518,-0.5634590145,-0.4671055939,-0.395331077,0.6568842864,-0.5148580939,-0.6327387759,1.0430294964,-0.2674014397,-0.386129614,-1.0189130687,0.3939348154,0.442526296,1.160377073,-0.7299207497,-0.8351933275,0.3448515523,-0.4076743878,-0.5329980602,-1.7687480281,-0.4224785246,1.3718327277,0.0617181292,-0.9568330885,1.2496045493,-0.2420811951,-0.7096096414,0.8472131678,-0.6210060761,-0.6921216105,0.7744410908,0.1980020066,0.2143268631,-0.3070416214,0.1949821498,-1.7293198323,0.8613349234,0.0530404554,-0.4887728197,-0.9355070791,0.0335458286,0.58977297,0.1320663997,0.4196564683,-0.9865011376,0.7549495548,0.1726229277,0.5106044736,-0.7798403535,-0.8590210588,0.5125611715,0.3994333446,0.8096341019,0.5088760329,0.5911434028,0.4089119114,-0.4889150667,-0.021409638,-0.6836588716,-0.9551582708,0.0708404151,1.6431955719,-1.1052030769,-0.6226841727,-1.0207292799,0.4485143095,0.3225259278,0.1760490553,0.4996915472,-0.7752302376,1.0803390443,0.8070017629,-1.316677648,-0.2032134643,-0.3464124407,-0.2871333171,-1.1973341583,-0.4973006815,-0.4419790662,0.1480668484,-0.7547381979,0.5580281373,-2.1508806484,0.0759193113,-0.5271314979,-0.965485779,1.3302881151,-1.017844575,1.6824290695,0.8018674674,0.5488930667,0.2776211409,-0.7194850124,0.6686293208,-0.8878927767,-0.0595887452,-0.3850114435,0.5314907492,-0.7405074948,-0.1197120783,0.5950937626,-2.0653748664,-1.6064840086,-0.5912459449,0.9513902841,-0.4303557665,-1.6941255567,-1.8282495977,-0.3459667808,-1.2413508423,0.1691055479,-1.1894060379,0.0503929463,0.8327379102,-0.8036572694,0.173039815,0.7176029717,0.0945808223,-1.1721571177,-0.2553219295,1.1001833684,-0.7006881213,1.4550812786,0.1973249778,0.6468594278,-1.4040797283,-0.6424107654,-0.8614536423,-0.3014169817,0.0470436092,-1.5942478899,-1.937321673,1.0682365601,-0.990908208,0.9244792417,-0.5539165955,-0.955313955,-0.2330428599,1.127765566,2.0761326964,-0.1341816065,-1.0811875271,0.5164416615
